{"sizes1": [784, 48, 35, 10], "biases1": [[[-0.48300413777846746], [0.4443892855453819], [0.5629477715644152], [-0.5269169306615065], [0.6864611430708629], [-0.1347470908143963], [-0.8931960439303134], [-0.8208625160845026], [-0.28275822975150444], [0.5463413592271843], [-0.03151344419373398], [0.37525829884101425], [-0.22777805014094865], [0.0610172879589243], [0.17055484166680127], [-0.33810514024002286], [-0.7187080429199671], [0.3202669296735411], [-1.1902568584634632], [2.0320169131093144], [-0.3493555590999832], [-0.41940468123319796], [-0.8452895296577976], [-0.8529777644185417], [-0.8414484944939227], [1.84467215511628], [-1.9839811993264984], [-0.8197774020731888], [1.27060905285027], [-0.26292140000428493], [-0.23564404795259664], [0.48120707117024164], [-0.29106765096974924], [0.7127840643779721], [0.24469216104937822], [-0.3757252976725809], [-0.5801630869727096], [3.405876887793633], [0.1787573967620826], [1.106930158183394], [-2.4746894625883167], [0.5745435122916202], [-0.4054279680879948], [0.6005873669528786], [1.905224627164945], [0.058204507295597604], [0.7389784807228865], [-0.7477004739481785]], [[1.641416317171081], [-0.3101747026738194], [0.38120611899330037], [1.0455342906745229], [0.9595401284494303], [-1.929671976193852], [-1.0684097508786508], [3.2291005279560685], [-1.4448459582248687], [0.29778770556114137], [-0.6083397322136083], [-0.024917570455537646], [1.0550439633030175], [1.3279026882134397], [0.968351297211145], [-2.219978520223757], [0.11381378825492468], [-2.7338877516413294], [-0.936694661118135], [0.2388665923587787], [0.8292450047245911], [-3.466829680076931], [-2.8971107150212334], [-0.33148825747913957], [1.25924007835962], [0.13078292017140644], [-0.5121675425781488], [0.3195838362688976], [-0.6786437268334038], [-0.6314951256897786], [0.04504672351132835], [-0.3047120553251263], [0.6061291424578366], [0.2854992754511064], [-0.2753019125882234]], [[1.7074574851784519], [0.6546786722097467], [1.327499868535075], [0.5657295644404436], [0.5426939342598021], [-0.08322770831522303], [1.0431267711581784], [0.9592665920262867], [0.5158812162135734], [-0.35918958242882243]]], "weights1": [[[-0.004596440649700603, -6.652178366247157e-06, 0.001747218136095248, -0.003458992431611151, -0.0030780355344403637, 0.008419062115416579, -0.006706390435853689, -0.002016883699647861, 0.0038636370167018184, 0.008934630452735614, 0.005306304931817682, -0.0010018233232025556, 0.004006412711912477, 0.0002804256559517118, -0.0018891898035507402, -0.006193722209013846, -0.008756104640986457, -0.009043672549917387, -0.002473126132312057, 0.0023712975584123624, 0.00024136191186027294, 0.004991865300551403, -0.007906021250151529, 0.002507419362562473, -0.00019626001039990497, 0.004271729216320557, -0.000572434216597369, 0.005193235752617929, 0.0028406013858983106, 0.0004499452363234718, -0.004657577083297682, -0.0036521145113779015, 0.00791526802408482, 0.0038782895960313077, 0.0018369443797527504, -0.002085523134948548, -0.0075255280608236665, -0.001252217651069112, 0.004608587926083389, -0.0055726693925462895, 0.0032216472913810202, -0.001633843073745568, 0.001041672963981629, -0.006933152000787909, 0.0008410172193295293, 9.255408810579552e-05, -0.003036501688874192, 0.0007683762843853885, -0.0014145774453737112, -0.00047620998130727763, -0.009435013070144905, 0.001525498241947714, -0.0025803698235703624, -0.0015400638760003347, -0.003828091179624538, -0.0031697118458593318, -0.0005948347793517633, 0.0009969040908655007, 0.007937044554343176, -0.0030691792000622406, 0.0020608903495556163, -0.00260539592669463, -0.0008359741368226458, 0.003045558350282567, 0.004082641563587223, -0.0014851679144496624, 0.0034764766142526445, 0.005982032450250817, 0.004746749512465292, 0.003913180960439982, 0.011788678055245241, -0.007399381395281771, -0.03219243715768311, -0.019070070541972673, -0.022788309418905445, -0.010037165434999901, -0.013631424977687717, 0.003432922477040951, 0.010496195656322913, 0.0008582926732720006, -0.0020262348720806057, 0.0007069859303786804, -0.00729381142552105, -0.0015325622331552886, -0.011942563592859438, -0.0011498741289380943, -0.001752983031582214, -0.0045243138493296945, -0.00879375376651497, -0.003225219593504252, 0.0007617139701839914, 0.02086098342628264, 0.023846945536810736, 0.0010332682925536512, -0.020941459285985634, 0.020397233216298206, 0.00655758041850888, -0.01087938798366042, -0.03889649671940441, -0.05803385064824653, -0.05705589109930792, -0.046305074001551275, -0.07151078029363937, -0.05414875254781364, -0.027181933842269922, -0.018084005963720513, 0.006714257133549393, 0.002095107861097959, -0.011080545034890149, -0.001386722682817819, 0.004757229245273387, -0.0038430223955891957, 0.0034540722952090216, -0.004065132238710232, -0.005046202557423672, 1.7983045099422173e-05, 0.0038998442534286405, 0.02028663167597385, 0.008880542737022004, 0.005219564411405369, 0.04152130988753785, 0.02819496363849502, -0.026815399472492712, -0.012958614326106692, -0.012437696947502574, -0.005958325023209057, -0.014070859596092705, -0.0466155017287197, -0.05686017278176492, 0.03991008296858539, -0.014435536728569915, 0.012651588294191126, 0.01544589828718019, 0.014775154019596918, 0.0791061763626179, 0.04649334334054015, -0.03967716605129756, -0.013352169743785745, -0.007684908651682898, 0.0035853452793631335, 0.0016498910683612421, -0.002097799121045004, 1.0157723313306192e-05, 0.0054699061526229335, 0.013412967688120541, 0.023869198668833313, 0.024964018874596806, -0.0071780950152331635, -0.014895118381387356, -0.029153894582026912, 0.03020652334445248, -0.06712358459931922, -0.07408552400887508, -0.034868408109946215, 0.0697346725297465, 0.11842640179299731, 0.14512648960700694, 0.10843162529100171, 0.09793276475310324, 0.14118617037782302, -0.004254249136154998, 0.012929511276111175, 0.009066147473894927, 0.022431832414836074, -0.0039044034867755793, -0.026118416562777778, 0.0024530298215974986, 0.003213048649594772, -0.0004044158251359961, 0.004051158630144992, 0.0008996845082769429, 0.003599671342768131, 0.032522502664708415, 0.0029283880347375107, 0.04083857596785756, 0.01067682949073791, -0.02646716561090499, -0.03787795355467304, 0.06969709226005816, 0.009419934235343014, -0.13535108088231584, -0.03197368271377033, -0.011822030828847294, 0.20726026282727286, 0.24038746856084536, 0.12801710424529758, 0.05128379930352878, -0.014163051421830736, -0.011107523741727932, -0.07791529078793988, -0.12808685993226188, -0.060082968043665294, -0.04713915166196915, -0.047069121233156784, 0.0026711309198520746, 0.007361470973078684, -0.0073409086967783, -0.005234944275373519, -0.007837202231992024, -0.021798659915538712, 0.06772466027569278, 0.12580236180234244, 0.05106468136108619, 0.007080681839567805, -0.05364951903051017, -0.0818100033217761, -0.08568108268408924, -0.08752264934255391, -0.14631297875985452, -0.09898043827904146, 0.049115346953673804, 0.16112948282087797, 0.17772240979521273, 0.11810688288748628, -0.05636505239727958, -0.05886930553104426, -0.047346943683069784, -0.11080430116009922, -0.08606495550899214, -0.03394434445814892, -0.013866721443766442, 0.009842228520803752, -0.019571653348423017, -0.0011772610215101062, -0.004409390894480966, -0.017488310382719058, -0.009650077325956082, 0.015742781740699534, 0.07327128498748263, 0.11465814134933457, 0.06966826549125801, 0.01512878003465117, -0.05948002204920784, 0.025794532536075127, -0.08560607223939362, -0.12958721795224776, -0.18702615462562142, -0.10194031689313462, 0.12764269621888108, 0.1867654818837054, 0.2694976581216233, 0.24635049624953023, 0.009636462576510048, 0.022281966727988132, 0.012158767147393265, 0.005110200335310973, 0.007449359589479771, -0.055430082813819594, 0.012148683308106057, 0.006688763142959424, -0.005166932579165166, 0.0051370940366565355, -0.001599632949364133, -0.018524424028969554, -0.005269364890345655, 0.005417862701658686, 0.05065350089224684, 0.10039018967574231, -0.035364275093134605, -0.008232439143673373, -0.05163771708969089, 0.027236280846113983, -0.04960232741912436, -0.19430809641362462, -0.2648920255352008, -0.043942620793555875, 0.13703294104061028, 0.23432486963454963, 0.12344446505078814, 0.22377608596044532, 0.14840397990574128, 0.21908580034645372, 0.21761127131520194, 0.02632031225413706, -0.01359518470362459, -0.008751741744091553, 0.007938429612676925, -0.04078901422643202, -0.01513652341494164, 0.0009789821430082825, -0.008283473992085398, -0.01920162090171542, -0.02157679759427786, 0.021749929257046153, -0.007831858815820264, 0.0150443178180369, -0.10753074631593375, 0.03928280210080955, 0.015957843127245998, 0.03033012615386725, -0.10661658767092504, -0.21456750048515505, -0.1994159380954257, -0.07638894343194984, 0.1918370306976844, 0.1353512067091829, 0.13398064884330632, 0.11942529878349768, 0.13200536962138656, 0.10842967643626258, 0.08219787620388419, -0.07071345133282331, -0.04456084990012096, -0.004072060073812159, -0.017319745299605983, -0.05965899004397802, -0.009128380620135816, 0.007285600459816589, 0.003492567895399117, -0.005597329774948256, -0.03839560285880055, -0.026173389136910846, -0.06703883743465383, -0.07729483961831571, -0.09352484573559976, 0.07612067984609076, 0.1658517851911734, -0.016612696749963168, -0.18579290640230955, -0.24675944745975223, -0.16443866426989825, 0.011567050503939141, 0.10409074847573879, 0.1652638981525318, 0.22482981017867695, 0.011097880362645954, -0.0004548356273694317, -0.02134345542022363, 0.01985323886658207, -0.04913461580134848, -0.008120499968286173, -0.025176124861324232, 0.040702256285970614, -0.030079580052385927, 0.001424011040867774, -0.008184633486760224, -0.001265850937683029, -0.007887659359248574, -0.02194534981768661, -0.03117574637348869, -0.07039795716902464, -0.0022176908204424033, -0.003318191180566912, 0.0010019107522075835, -0.10042716253743153, -0.09791447890067233, -0.1335117352640129, -0.14471293680289718, -0.05266107992143609, 0.04787775076369095, 0.04049479054177708, 0.07440104118745998, -0.048990562704148415, -0.033821408492977434, -0.01945001350135532, 0.04117801534650912, -0.008074516970660481, 0.03134592394697623, 0.0009441038917042293, 0.07481077947961086, 0.08720431540514095, 0.023625982944001846, -0.011054396853636789, 0.003975007443193251, 0.008159042045189472, 0.0019298788129500414, -0.021118392741000237, -0.017413839407615216, 0.03724194672644631, -0.04715633605687227, -0.0044415573655358555, -0.054948911324209836, -0.030049555732972116, -0.14343802948385972, -0.06349844242226456, -0.05878307055861176, -0.09684444459845044, 0.001411583559387095, 0.007447749160037966, 0.09904853886619387, 0.053531341166790807, -0.06344514117171633, 0.03018164381977393, 0.019638611793710757, -0.06697790616917627, 0.017219242805943356, -0.0282145140501325, 0.06822231636208974, 0.08767254822776796, 0.025619284337603333, -0.0017510908801050872, 0.004917560176713959, -0.0014886361234717016, 0.0011122192676409214, -0.013831484163383354, -0.03889335897945736, 0.03841545810597128, 0.01651909683734328, -0.03570419267938416, 0.010117131284067993, -0.04797098096738424, -0.04249590124189615, -0.07046128863179914, 0.10142576470712775, 0.06062931877156434, 0.12519043391479043, 0.09868229633998056, 0.16851117878745753, 0.019888237183077886, 0.030519406034594486, -0.012054071325840151, -0.027085051942845703, -0.042774803929340126, 0.02820276663153602, -0.04785583141311158, -0.06553665018530863, 0.018352530686943928, 0.012689273611709228, -0.00018308301529897125, -0.0003932914586406826, -0.004951993456743325, 0.01668145134111804, 0.013892932532294627, -0.0038809221337322355, -0.009570285805104875, 0.015614258481010949, -0.055570802225089234, -0.021177981707978175, -0.06378007857438908, -0.061392370732946545, -0.09176604561066642, 0.04049681791112372, 0.041278186521676474, 0.16364722107000082, 0.07876270986368465, 0.06671471305042692, 0.11363769626298381, 0.015687598242346255, 0.03893220430839341, -0.10105170222746665, -0.00784124460232453, -0.034179134779833094, -0.0296388911946162, -0.047041890986914914, -0.000750034938008126, 0.010953109322007748, -0.004034540367413978, -0.007292794323443536, -0.0027971067892942733, -0.0006558552799414694, 0.0013770393404853882, 0.000288027136751709, -0.01610361771874467, -0.028008607892554185, -0.025161402703102784, -0.09431162082425436, -0.12993834406406604, 0.01988547355431725, 0.02866511469827325, 0.09913393401279441, 0.10635946716700467, 0.20475748976147712, 0.13572782210658305, -0.02028772140115746, 0.04725245066637733, 0.007638814753601276, 0.10146767577819092, -0.0557244804192089, 0.04054041660059216, -0.06775056655637009, -0.0028023216517311374, -0.028288084544706053, 0.01517980283316244, 0.028993404001059164, -0.0034072981656746455, 6.598558742657274e-05, 0.0011019453485751943, 0.004140332107177594, 0.010776260632380652, 0.024847783068832875, 0.0022983504953959025, 0.021674747282556417, 0.03168407103077136, 0.03819013872693563, -0.013095915126310679, 0.19748652105559672, 0.1689226852776226, 0.07861063801436571, 0.11344130045148951, 0.20174505796741515, 0.2045153631543029, 0.034612197991869556, 0.02993770115920647, -0.07511930978251011, -0.014299184137226553, 0.07321143075718545, 0.009207138586585095, -0.01494193559172368, -0.00604168171435663, -0.0476737410856797, -0.0029232571428929204, 0.018386932992198582, -0.006211888101943962, 0.010009907368089072, -0.0016066091471023656, -0.00302626525231089, -0.006826346489709683, 0.030918477288337902, 0.019578509809854063, 0.059935136486936234, 0.057596790051936096, 0.02273588512199309, 0.08990094616662715, 0.16851063504115774, 0.20422413380868235, 0.1961135996631358, 0.27199256114960096, 0.19163313056848613, 0.07237466190791965, 0.05844619652875597, 0.02231202652693292, 0.01545039907486234, 0.005385221820747123, -0.016699636978297357, -0.006439123598323649, -0.05636925356645895, 0.021238833141272655, -0.00864515764425079, 0.008984275999200925, 0.013009842169261918, 0.0017562692517298613, -0.005427926171420935, -0.00421420832102096, -0.002294679893458158, -0.045814988019925555, -0.011737723157932324, 0.014081692656272052, 0.060279269574718915, 0.040672908204478365, 0.06420593620815804, 0.1532278749501021, 0.20887098850054547, 0.18129587014443774, 0.11982352635212012, 0.09945129496660464, 0.09612431502381065, -0.030202162421668937, -0.09814996897454407, -0.0039704743669364655, -0.015449023606039902, -0.0030945845640544486, -0.06853021271473858, -0.003068517315471981, 0.04731804960862076, 0.03411150653226128, 0.015174128133328947, -0.007523974930405467, 0.00821232083906847, 0.0056650754012504065, -0.001211955583164401, -0.005876636685774334, 0.0058709213827373785, -0.019945921390649234, 0.015535675061109947, 0.016183048519770902, 0.0009981705908041947, 0.026799079941265656, 0.07995632156485895, 0.05055710333670622, 0.0899238788244904, 0.1415453163793439, 0.09640914476778911, 0.09784406309820351, 0.0814190493967983, 0.06771787984884917, -0.11325318673754468, 0.015545402141296788, -0.10756188481970676, -0.010073088929763194, -0.049171509761400826, 0.022167752062747806, 0.027121706003080066, 0.006181076043822699, -0.011587332871482992, -0.020441969997923942, 0.006071550220356739, 0.004949204460501806, 0.0056723956321588775, -0.0005177875216343124, 0.0003323599817078756, -2.335380668203024e-05, 0.043490365138553894, 0.02244544682189905, -0.02608209524037977, 0.013429596069207734, 0.03452466988302595, -0.05503684205722902, -0.0077536609065202485, -0.11664427464363311, -0.06000531041245559, 0.0310899426224681, 0.03675639653078583, 0.1018826053253997, -0.05244456554574091, -0.07521216795918916, -0.10305789211712696, -0.07926373523928504, -0.014961181114959804, -0.026979884021705015, -0.05498254962289944, 0.013700945961488973, -0.02468540122876364, -0.03416110328963683, -0.012927856615497316, 0.005461259730130736, -0.0006192156289102575, -0.0007649400806018156, -0.005771347745051716, -0.00405408498626092, 0.03497544327456103, 0.030637502874079358, 0.048604613331896446, 0.07468250729726646, 0.04842412801721296, 0.007129432565173981, -0.08026914808556118, -0.10676391625506557, 0.027929944771425585, 0.010219289481733571, 0.00752779458478748, -0.0105935319423342, -0.04875920316105453, 0.02677997422321499, -0.08079592843942426, -0.11655634151981759, -0.07436142761554423, -0.1022672279601854, 0.006290799685473705, 0.008190192320102142, -0.03157158186146816, -0.030210213783132975, -0.01148066508180616, 0.006219553858525351, 0.002420863637890133, -0.007036480347265849, 0.0006281796102900699, -0.007088788473587294, 0.020712260001234842, -0.006481149433262613, -0.02602529684078477, -0.038229134246903, -0.03839234435785079, -0.04189865475179299, -0.005385780151289432, -0.030075377219985842, 0.1257215519273024, 0.06532042801807632, 0.08670929283480756, 0.017155591731360567, -0.006961641066822158, -0.03535000619806365, -0.030152597625220694, -0.015024274677687115, -0.0784253220140141, -0.0652017600696243, -0.0018057458417168233, 0.002893353098440643, -0.01063349538158841, -0.010241097969032425, 0.006668206813758602, -0.002003230945004673, -0.0016211827085250757, -0.003828398561511706, -0.0008008974700287207, 0.007569782986482387, 0.006961017534991995, 0.0021840238309919486, -0.013733764056632146, 0.030808220482150765, -0.040219884021308085, 0.007263828104869722, -0.007621325238487, 0.036540994134246566, -0.005325560248593671, -0.060297202103528146, -0.028366400512265966, 0.03080293419202074, -0.011956898294345025, 0.02247498025142915, -0.06874763130079742, -0.048263614146619976, -0.06021018894898731, -0.08059316794966315, -0.053978021513449694, -0.018535371655015294, -0.0003061242596460522, -0.021060277678000644, 0.007686137242766367, 0.01247848704988997, -0.0012433853214692404, 0.004959602179041649, -0.004970619062183478, 0.011340472738970202, 0.009139587857304376, -0.010883608224337487, 0.0026585938481938826, 0.03070928962327619, 0.004144122814932971, 0.03198361716678195, -0.03694763929660264, 0.056801576354009065, 0.045283241707988975, -0.1284640987612575, -0.0004774862951322106, 0.07944332579207103, 0.049915569859763566, -0.09725047976358717, -0.10062014196356936, -0.05916357042183002, -0.06706556681382325, -0.056569734564043475, -0.059293345278957806, -0.03356522405814452, -0.010684658376201445, -0.020432127354355345, -0.00041722780252308753, 0.0027599046829320786, -0.006246281290774232, -0.009211190326871881, -0.0030104494479220876, 0.005571405586859914, 0.0005451772497712909, -0.0006564782119512637, 0.005680729985132231, -0.0024405495387599856, -0.006681737096046759, -0.0278797837590998, -0.03638273947529514, 0.017145557970315438, 0.05396203662488039, -0.025850930485179145, 0.0315273452066732, 0.08230803462469202, -0.034780199020821766, -0.0033411442190252384, 0.0015580994596934951, -0.011158477817319707, -0.02762264628482456, 0.0017572471913393675, 0.0007829513330347217, -0.02479071702791133, -0.005808654010454386, 3.816078705824494e-05, 0.00834927792419508, 0.0046590367333712345, -0.010700998756086204, 0.0011870282316526104, -0.0006742348024101939, -0.001911309106679645, 0.006891873553189262, 0.0035936748886405694, -0.004666007510001183, -0.0009084579551957531, 0.0031447260915881104, -0.003179517712098655, 0.0028392917475294583, -0.002405175141516171, -0.004682108854802166, 0.0038930323418734005, 0.011560016455033413, 0.006681669564438314, 0.010816052947656281, -0.0009221623696420581, 0.0024049730155367858, 0.004314985275407908, -0.0019288625824582656, 0.0066725785321808265, -0.0016616843238610722, -0.015711371267473, 0.004987156910306345, -0.0038952973540041067, 0.00891795717456019, -0.007775555634734176, 0.003296801540997065], [-0.0061642760120392374, 0.0028572816794735197, 0.0011066083312567742, 0.003949243856611681, 0.0015718923878865168, 0.0019616468898559854, 0.004751658718642292, -0.0034046263676870453, 0.00027178709388127965, -0.005521625858331659, -0.007859071496674879, -4.581151889356368e-05, -0.005517376080240429, 0.00411252268887396, 0.0004542343567072835, 0.005654250746117601, -0.0025253506833610244, -0.0025303116089613114, -0.005692582053434969, -0.002110695906921702, 0.0008210764077073115, -0.00545992474872239, -0.00036650894069533167, 0.011526521457066344, -0.01566327881361082, 7.216015814368093e-05, 0.010120429470352616, -0.010483795890617926, 0.0035161280678804177, 0.002344696270679916, 0.00205404507442858, 0.01064116887614191, -0.002993606929497645, -0.000281030045054462, 0.012223629085083933, 0.01136243124566435, 0.0012318860816211976, 0.007130057812138481, 0.010651751724342615, 0.002767173287494052, -0.00029637939506621145, 0.0010145776614761519, -0.0003985995833495017, -0.02093153654082761, -0.04120484573244449, -0.007536009210450692, 0.009143792868832693, 0.007977844241621485, -0.004173882362090779, 0.014880115770371195, -0.0014741503148611294, -0.0007737573350508554, 0.003777497904785959, 0.003998770416339578, -0.0007610208546998919, -0.0013150890639555797, -0.0052664973497782855, -0.002795082980668829, -0.001221594294539529, 0.002194988585072149, -0.0019379987011370226, 0.0011013235370739944, 0.013716265283495645, 0.008478159945177616, -0.0035210380700600374, -0.004323661606590995, -0.028685155385358267, -0.02330576320381445, -0.029504149254600508, -0.03527414694898227, 0.0015715424950417062, 0.007218322867664606, 0.006630511125026705, 0.03969191737823223, 0.04055990634515165, 0.031086748429003573, 0.038001344112432556, 0.03481573891655262, 0.003488447002804022, 0.00839709748660158, -5.0252623671011725e-05, 0.0010066887173514048, -0.006596366705261623, -0.001204873085818773, -0.007910282890793447, -0.0066319237487081715, -0.009340862096108972, 0.000695380899204193, 0.008757571694351993, 0.007794448718280309, 0.009451400912462672, 0.007344575762588431, 0.01158445011894019, -0.00024215754937492888, -0.06022723822027993, -0.08013777939323305, -0.10396081502654031, -0.08194918383295355, 0.0049091353964861, 0.032496609472383226, 0.062215344100169385, 0.11482264770827545, 0.16031907122565042, 0.1095916342337594, 0.03485604259633228, 0.036166256503476615, 0.039199736134722364, 0.02882280868377961, 0.013965283589547316, -0.0032110929314332452, 0.0017142221265669662, 0.003474293336228646, -0.0022586364170752164, -0.00048464132146602455, -0.003587545066209389, 0.016745229646661874, 0.004784115087964416, 0.009883420874373373, -0.02144295011562984, -0.04003510497552412, -0.026260731613390754, -0.1222158804158431, -0.1613109723637541, -0.15316293488343694, -0.15694170822777145, -0.0570622157537589, -0.06254098789123864, 0.023606226076342048, 0.021068531746220098, 0.021534222575366614, 0.049558470877117726, 0.040167175901104885, 0.01676757003888082, 0.03203926202265253, 0.002388089286446359, 0.0438387991186766, -0.03313666800402568, -0.038676200522229406, -0.013731754280547081, -0.010448242189952234, 0.004046704550133574, -0.004916657374795706, 0.004743135690453028, 0.0035689913832590526, 0.015637396684972424, 0.017818422610652595, 0.0008594732194829426, 0.003024580330520307, -0.021615529698871264, -0.14026106311077755, -0.09106492470724858, -0.09378206906470704, 0.007051594849641923, -0.07639785703204087, -0.09043564298239357, -0.046424697605865754, -0.1680589115445457, -0.04844437093938724, -0.03621785086448296, 0.021194770416114225, 0.01969629270220792, -0.0341288311049712, -0.027202380338875037, 0.06227235364743158, -0.0030241404281619237, -0.018932950024911355, 0.00012473005176452288, 0.0031215322196857906, -0.004375037830651017, -0.009426457782781228, 0.014788376453149227, 0.014317040547426024, 0.054612590900454866, 0.009467160136193737, 0.03449023798837261, 0.027265723592585688, -0.004918251581170389, -0.010220473289928688, -0.00992967712436808, -0.07081057783504822, 0.012504905241288493, -0.09756461261425543, -0.07891651362194091, -0.056449170364208365, -0.011338648376057723, 0.014156170901901948, 0.007578007756938649, -0.09380528789551504, -0.10059066535413146, -0.028675902919340406, 0.011569190028402763, 0.009934075791933566, 0.011019889115321384, -0.01382752502804096, -0.003511161726723893, -0.011377666000689318, -0.0008300086660163077, 0.0032374776403815, 0.015343134583075992, 0.0024515623195778464, 0.052056157892212, 0.06131426557843023, 0.08086388999509343, 0.05774769356308743, 0.04005594604450212, 0.05397867711678565, 0.008464639134416373, -0.04068436710255479, 0.0676187597327689, -0.004324097754968989, 0.028835880930656012, -0.002498914315185559, 0.06261963792272936, -0.11919973875523722, -0.0076955217557392675, -0.10949599413981732, -0.1301361262246851, -0.1084656806745151, 0.0055892996680507005, -0.028633803146018967, 0.03617405400100526, 0.0017154182503638195, -0.008489289163416777, -0.015016365523654974, -0.0005134531466787402, 0.0008932657132986737, 0.000429521317821792, 0.012380229652219108, 0.06199987417754533, 0.05142275357678461, 0.019159573244493078, 0.05803336396097679, -0.0037700793372076814, 0.07732373449448629, -0.03155349753975416, 0.02582736330189987, 0.002829570085966538, 0.0007147116829222639, -0.1289538304968262, 0.05341675506956797, -0.013166241471637611, -0.11993385996726758, -0.1657277538503023, -0.13604445704408344, -0.11453574228784609, -0.10771107449297314, -0.05426432782537343, -0.08581605871171531, -0.03242708696082703, -0.016259622285774843, -0.03176840622767274, -0.025233274187348022, 8.502728398665818e-05, 0.003870987214431622, -0.010421248540834429, -0.0025060234762912022, 0.02560086376892519, 0.011726671008996293, 0.02260756395157532, 0.03900320275456651, -0.08377030903810792, -0.06629418164716103, -0.003436884132096622, 0.0749474160786846, 0.04820294149035249, 0.031705261148150005, 0.02078681416589478, -0.10067484331740208, -0.2436539045395381, -0.2732844110333847, -0.17016507625035598, -0.14561846722635097, -0.18026188731789083, -0.21873749018633087, -0.22671350539944735, -0.19244926647069344, -0.10592378029278637, -0.05916983234153, -0.0012615608539827856, 0.0025171649349799903, 0.0005571671568632836, -0.003870274629610507, -0.0106380190722716, -0.000641385302752217, -0.06764444218471519, -0.02503229866474212, -0.058599097404000634, 0.00568594591892228, -0.02081757804644153, 0.024018915148595766, 0.017324529750926274, 0.08626409641246892, 0.047405661529063475, 0.05352567618542714, -0.020862365315154188, -0.10345719374369336, -0.20063774129139994, -0.20103923364357243, -0.11780443953312415, -0.15973586020720099, -0.16070215987013298, -0.19423361463416405, -0.16061409911047292, -0.13483010335107146, -0.07565456770540305, -0.01258293273582547, -0.001033136128946418, 0.010710265048112295, 0.00576742077880371, 0.010670210658662657, -0.003156942876473983, 0.012507788298661615, -0.04216852856605178, -0.019789744822433772, -0.049901111287253726, 0.004290439315813797, 0.039149908403652386, 0.043869682955602285, 0.14313900986052158, 0.13589251862727353, 0.12095483316940399, 0.06856252385119437, -0.02984032692543393, -0.04375605079240097, 0.042875297426567885, -0.07646752264028207, -0.10307897568953031, -0.11708770998716413, -0.03932050886777496, -0.07352090999746742, -0.10049565063915329, -0.13407568254753097, -0.13690461981213572, -0.08610863013219754, -0.04817318451265178, -0.0004614521299297953, -0.006821542827645502, -0.003988713601766727, 0.0005544013543597077, -0.014505842082959623, -0.04827014867761136, -0.03491001677614866, -0.012472592510816359, -0.018526865524967035, 0.0701469665498205, 0.07484662471403232, 0.1123502082684671, 0.2058360052317577, 0.1884573884704129, 0.08971612290511471, -0.02170877460917105, -0.05904349617019789, -0.002045216086784643, 0.022588006295123697, -0.07202631685841031, 0.0042143835777039935, 0.07810223531493765, -0.1393430574221474, -0.10177107811341002, -0.09997538615264105, -0.11480970426914226, -0.05152516376430597, -0.0314258498434997, 0.0011118380265722795, -0.0013192724183032018, -0.004888682640600458, -0.001048731534755027, -0.003450815299789633, 0.0004278322843355106, 0.03946234267646775, 0.08455536531772197, 0.02603025048952681, 0.036403324342369675, 0.12176622003146463, 0.12308441914902604, 0.06904066029629145, 0.07503724378097856, 0.0338299027376892, -0.09092513128306828, -0.020206064533478285, 0.009021440347445666, 0.05239789642448771, -0.03244194397663292, 0.11728440012076839, -0.009678266141145048, -0.14603469316109843, -0.10753438911142926, -0.09162316792430959, -0.07888200044937879, -0.06606839301981965, -0.027674589308526204, 0.010056713757992006, -0.003140629530199763, 0.0026486998606244394, -0.0053199914658580505, 0.013180740968504683, 0.018884677633761712, 0.09773854873552767, 0.07574132932434806, 0.03255314898670482, 0.1011475432941616, 0.2019297977764321, 0.17446008008527444, 0.010224290777995311, 0.07511790263880709, -0.02079399867196126, -0.016331384122390675, -0.003541412115994864, 0.04727114015879391, 0.01465085846541199, 0.01579758616705046, 0.026549430578573584, -0.030329855995148328, -0.003585768320837364, 0.03693322498498139, 0.005224463371936743, -0.08516486338664847, -0.009189306239467928, -0.023638093991011813, -0.005421389089187008, 0.0033155504351665556, -0.005428639551768982, 0.00018804216780536035, 0.014182585082553377, 0.02108135639928876, 0.056992493834204426, 0.07315776271302664, 0.09270289761215357, 0.10296849958455734, 0.20734302466402027, 0.18043648927892106, 0.22706987669544257, 0.17401569183573187, 0.10809760571575329, 0.015679283044327832, -0.016309394232871265, 0.04933954266708377, 0.04951523840920105, 0.04846072952465021, -0.009387346379448427, 0.057431236261166384, 0.12733430511774374, 0.18863654105324937, 0.0727377082671644, -0.040852233978376666, 0.013902893203912926, -0.022085935711153668, -0.0011160137359830244, -0.007591228369431849, 0.0016709059844164586, -0.009961216985816406, -0.024162134683211607, -0.025242502925324223, -0.015264295911774913, 0.07693363493006061, 0.19898474181906536, 0.1333678899350461, 0.12405494908879279, 0.2096476914713063, 0.3284845558731195, 0.08406827396733761, 0.13524872607311486, -0.00027283353327547586, -0.06511744589428949, 0.08468572382884422, 0.04922035509773983, 0.0697490679003885, 0.06446476856308739, 0.0813452244909721, 0.142269565899873, 0.17208457513679656, 0.11258676877611534, 0.018574440943114064, 0.01831007680001083, 0.005707053327363956, -0.007869043136967718, 0.0033651382802902755, 0.009540003212878153, 0.013158504673693831, -0.04671121294561472, -0.010435677634045088, -0.048541333144962236, -6.163457395818869e-05, 0.17389902010383756, 0.08810665105299434, 0.1122062447613508, 0.1326468966966637, 0.168417981484915, 0.1822487314999993, 0.22181364337692977, 0.1017497952889074, 0.07382550829033431, 0.11751647898485254, 0.06857936896879652, 0.08939558352748722, 0.10221190289793741, 0.036088514101666795, 0.11053824443693287, 0.10655548526095515, 0.10567121094808514, -0.005773390093016463, 0.003455093251052547, -0.01426920606601827, -0.0011577778703607395, 0.0016194037349790452, 0.005550170059770201, 0.0014669329443227936, -0.06365578396348327, -0.03330138861462635, -0.06958727945185153, -0.052078026637030095, -0.02581444591831683, -0.06327705190508237, -0.02102022317518202, -0.1396655359231915, 0.023720020476382248, 0.061379411371665124, 0.05530356926142053, 0.0030318342192545873, -0.084899774157341, 0.05767083418856443, 0.105106014573158, 0.022855086917728695, -0.0481656179237071, -0.012651336219260949, 0.08508039601903249, -0.007064502154881742, 0.009799849936102719, -0.04371324419130787, -0.029970856362525555, -0.009418221796360097, -0.0052200356456076425, -0.0028803869522915156, 0.006619339060725441, 0.0008237950918948833, -0.04715154197082409, -0.0014869900066800576, -0.046780512159852426, -0.12695174457224215, -0.08936448630918302, -0.1155928017458695, -0.11344453283468267, -0.20383827685977618, -0.07002708295385339, -0.20453209948776135, -0.23862808125860102, -0.23511350895575647, -0.11672844209395687, 0.04960545428919403, -0.024272119891825258, -0.025121761979703377, -0.07620730791771149, -0.09247276836891896, -0.0758413546161608, -0.012933058239903584, -0.015995033161805734, -0.028011340104083522, -0.026730867636140826, -0.013033459687427942, -0.005796315673377269, -0.00130853747227324, 0.017535357661665626, 0.0031127463032864576, -0.01734389430411984, -0.025887878399506795, -0.0638679153027916, -0.11332375164795887, -0.13729404043899487, -0.19243430143934698, -0.14772405648951636, -0.2553393715097373, -0.2502181012220965, -0.2031201099166129, -0.2667199923063611, -0.08166281956118249, -0.06970779946500193, -0.04995768949996605, 0.01023370515277065, -0.0069653918174426835, -0.016289883529869965, -0.015163071787010629, -0.03321235735637674, -0.0475023890364173, -0.015173177042373504, 0.039434133554359145, 0.005133600082008224, 0.0012739629149411368, -0.002119745583521073, -0.005284000492265592, -0.002068190491532371, -0.0040242397188274895, -0.015216746682836004, -0.04276588499361136, -0.08765914163190675, -0.08463887061673686, -0.1408704731493073, -0.1558302573974183, -0.11634762163666305, -0.144386283009587, -0.11868635443647203, -0.02057238318087473, -0.0739179895934936, -0.033666205835378375, -0.05285552620179698, -0.018316032800697088, 0.02046641597083055, 0.06936990247145794, -0.03302130659865363, 0.022813219772359086, -0.05262307706629246, -0.05666555803625438, -0.0049580936016041756, 0.02487593742780289, -0.008256984536563892, -0.0015889364101437072, 0.005381916636268946, 0.008405071371465872, -0.006529915941777313, -0.008434712261339017, -0.0018375644355106949, -0.014621560624752318, -0.06205744304227595, -0.03457381332327071, -0.08652627933802987, -0.1531914241603794, -0.15114323813130245, -0.07252287712017992, -0.08561090492510816, -0.05188342735625977, -0.020140459163207735, -0.1412045441529028, -0.12606086385897522, -0.09802645654629843, -0.11397030947676846, -0.12075985862498087, -0.07642312178299854, -0.02095435719903365, -0.0790196822291414, -0.051909938820904736, -0.01682803007157973, 0.0025962101050389457, -0.003087795535879851, -0.00806709608030014, 0.0006237374854109837, 0.00766307567401351, 0.0021849650489758517, -0.006232598839536416, 2.543026611013941e-05, 0.013073988133738954, -0.006804118599868153, 0.052364394744011646, -0.006400175013364291, -0.1370072578932884, -0.0970761763748655, -0.07203197550009781, -0.08815803401295587, -0.01435066776510983, 0.018962949168994863, 0.0021141048701582153, -0.1099544483432102, -0.21952343754854603, -0.1652666743866582, -0.13737036586199997, -0.042978442795929855, 0.009589471794368126, -0.019868754521998433, -0.04982650204591176, -0.007679809758741121, 0.005121132977054763, 0.010240046333479946, 0.010450473572799457, 0.0069160799364798705, -0.0032317616783562246, 0.002211487574173841, -0.004062195660624559, 0.006191408552911869, 0.018504434621995716, 0.04813820854487912, 0.11991264534592173, 0.08917205960268378, 0.09509835089945516, 0.08773854225623574, 0.1337997462708171, 0.07404067703185341, 0.0422679465889211, 0.05830900503716644, -0.041010265161234134, -0.1152410576530922, -0.04197956822350519, 0.003750250754069742, -0.020398893729498952, 0.04387202530418114, 0.06486225371095149, 0.03584954808744485, 0.005525919513816281, 0.019686825271184927, -0.008292179263754466, 0.007511865705333383, 0.0035637225835451597, 0.00044992955891923794, -0.0007207842985177053, -0.007803238053622426, 0.004241831320155387, 0.0024500264921439897, 0.010509269049020175, 0.050234409841959905, 0.0882544136444664, 0.09275649328227863, 0.14049083299860754, 0.15401443987733118, 0.17779320375664667, 0.14019670974616089, 0.05809035167932639, 0.09094593016772792, 0.03249823382203946, 0.004524052473982561, 0.024916763180373048, 0.06175325014594181, 0.06770212796990707, 0.03509887907613594, 0.026850006615756063, 0.03272581465816951, 0.040050541331975144, 0.03222027341552152, -0.0003610017345471849, -0.005366269906311076, -0.00031296893918707355, 0.0038583223707382625, -0.002030695694764431, 0.000995000948745158, -0.005100647463532395, -0.0010158445313355135, 0.005453462673725557, 0.005858854056611589, 0.008122496584527945, 0.003804659143374469, -0.0004117257748828477, 0.014551618118429203, 0.01588983150847063, 0.02450432415979951, 0.009681748023571562, -0.009667450170893096, 0.012323018541124267, 0.007982164737867673, 0.004637582372862742, 0.017329364910953864, 0.01754586781064973, -0.01120698965170303, -0.00927742373671731, 0.015392666346349962, 0.015483140717636998, -0.005620803777344765, 0.0008993988896219878, -0.0060810959457064185, -0.0032758923632713478, 0.001340543729577101, 0.003885108470327131, 0.003166034979596446, 0.0016828118673703739, -0.0009824192022457958, 0.008387810834815851, -0.00018501907896482643, 0.0013048320597236385, -0.010536696241553888, 0.011214913967789827, -0.003582109210958918, 0.002394483548921346, -0.00483215457641047, 0.0015454370999396338, -1.3144197060688998e-05, 0.002437715273775871, 0.008548942797543115, 0.00128598422765515, -0.0026444825267831476, 0.00873719659755145, 0.0011709532419963, 0.001794670408337689, -0.0033135580537490992, 0.004518804034060659, 0.0009454373750027906, -0.002455938962931059, 0.006632737390310411, 0.0031031320654464614, -0.0031124114478366816], [0.0044874309466137845, 0.005539427471452125, 0.003012789811998874, -1.316703106771555e-05, 0.006611323802890564, 0.0077768076345954, 0.0016014899835170718, -0.005493040251755985, -0.003271904587508136, 3.8708781046170844e-05, 0.002928446516430139, 0.0019161994599154856, -0.005963760216959327, 0.0070099074246207475, -0.0018240651324985503, -0.002096328704856353, -0.009962958223608601, -0.00874171014308302, 0.008577100360678972, -0.002695765782643782, -0.004378487953026036, -0.0029656149459804603, 0.0016331459133162314, 0.0022029612077234693, -0.01018307317808137, -0.002795970533211061, -0.0026636975787713737, 0.00020679783077264232, 0.001972875093126032, 0.0026070972490948897, 0.006166920422971477, -8.609526787515426e-05, 0.013522371058241469, -0.006934486278753042, -0.00406848386061879, 0.006763968049916815, 0.00021786533769587287, -0.0016680760906016578, -0.0038512106936643, 0.005348826420558305, -0.002947224577172371, -0.000595117988635287, 0.002430968696024556, -0.013737643337436519, 0.010898371441614992, 0.01479177774709303, -0.003666709454516037, -0.003422923590395266, -0.008917402160112137, -0.0009711900505012982, 0.0023956871875485774, -0.009804267427356395, -0.005688439372958288, -0.0028218256858043894, -0.007108365023289548, -0.0035608191123451833, -0.006876672137019137, -0.0028479112864439678, -0.00013109646441531814, 0.000716818135881192, -4.362523984891811e-05, -0.004441598313636425, -0.009505451011770553, -0.004612451468529986, 0.007193077238842038, 0.04149521721813552, 0.056350724021095214, 0.038451953339547346, 0.03533576032853715, 0.0394938079531823, 0.004823568573625527, 0.004356199779648208, -0.0004961711667587178, -0.04888265098507173, -0.014972361930206013, -0.025414268036538335, -0.020142565101422663, -0.028672280777227614, -0.029898717923131018, -0.017602602169851465, -0.009431305293216362, -0.004641293907115681, -0.0015529998483859342, -0.004953745161039167, -0.008380438209564727, -0.00031545104735625484, -0.002588697424496656, 0.0014315645818322455, -0.0013860822955852608, -0.023874667296151654, -0.019854332833738917, -0.042246605243961, 0.007092105495000887, 0.12146726039782633, 0.14544386853310556, 0.12188268411815147, 0.11289622045003614, 0.02706746429659903, -0.12021540892771893, -0.07774751341783917, -0.07554150558992469, -0.06540400003839898, -0.016626070736491142, -0.04658079056750689, -0.0747816521323384, -0.08331440011909905, -0.08072769755135374, -0.060505939457077225, -0.04957335149505512, -0.015151524526686383, -0.00820531143127655, -0.001439654161889992, -0.005963334482241145, 0.012025599398182483, -0.0060738451778015266, 0.003956566001714902, -0.02205056608255394, -0.03173479494951577, 0.02306965615835014, 0.036205003752552326, -0.0056166629464463585, 0.06705356827709803, 0.05472984504963808, 0.16843133905327687, 0.15846045693189503, -0.05251782876725782, -0.1815642014238234, -0.044590615311846306, -0.03850307272961406, -0.06882080892550302, -0.042263625738776234, 0.01415894223468927, 0.05004492568282894, -0.02668788002487986, -0.04641405046231613, 0.0008860584742926951, -0.03191821682048914, -0.011645354595965406, 0.00016601096329035947, 0.000983168665666691, 0.004803375753465827, 0.0016959155640359283, -0.007535561520345522, -0.01490576527974281, -0.01731396118518986, -0.013453226581628121, 0.03515458506347619, -0.0026270847903540947, 0.051274083284436556, 0.16138673520795496, 0.2052100513129868, 0.22368266028560466, -0.026979382424319832, -0.22147515982998978, -0.23163465648788986, -0.13505610091986842, -0.03892156351285615, -0.04671233874634168, -0.02837916897821824, 0.008831482305873984, 0.05323530610489472, 0.044054343360126, 0.055845447836718874, -0.043402686049133124, -0.045654830765781626, -0.06827626356588469, -0.018057481921878827, -0.00490479804336608, 0.00048725482943884905, -0.003174973378808984, 0.0010690957659123008, -0.028622025175871986, -0.008672158658074617, 0.05405414163284157, 0.02155210265607133, 0.13453630637474778, 0.1330902438505875, 0.1350143112013151, 0.2950268199123023, 0.24103115939218178, -0.0629380272460732, -0.2165615286275648, -0.13880102643313003, -0.08122419565675376, -0.09731359551442544, 0.005771098974478004, -0.03200911998855413, -0.0057564599083158585, -0.12131208389241233, -0.040562264784749134, -0.06512311371598793, -0.06994966758266383, -0.050370382583252285, -0.06247007246544967, -0.023565576086180328, -0.023983514435532476, -0.004677037481262743, -0.01229394749422239, 0.015328001439274177, 0.01480650355494498, -0.012172377553536113, -0.02584522543677075, 0.03981076949892347, 0.08042327045582452, 0.13649868970522439, 0.19035875857797968, 0.3288995064681855, 0.040563831622937155, -0.23426373638985856, -0.28729093236901154, 0.01904982967205691, 0.09424778993320071, 0.14156517817649494, 0.0411300025014714, -0.06071543257064512, -0.11835198104652346, -0.13669846762856133, 0.02491706719000989, -0.00524655546945206, -0.06047227308035999, -0.04004579806211559, -0.07478924680569346, -0.01513288869547283, -0.015974163289042217, -0.0036263869892625878, -0.004911593243163172, 0.003925045981095086, 0.0039041708080805987, -0.05641476775085208, -0.022075839577677493, 0.07988831950957023, 0.09123421446693378, 0.0682487113547199, 0.2521837802526909, 0.2141128971934075, -0.10158207797161625, -0.34761933449120097, -0.35712381144950445, -0.072892456765436, 0.18034002413674946, 0.15814746072525887, 0.1364798907844309, 0.050505957796601546, -0.044750123504554914, 0.039114110429287176, -0.08828544801567038, -0.09918043352869964, 0.03353356215056507, 0.035094389592016675, -0.03130212027779969, -0.006884511260272064, -9.751733601461814e-05, 0.002604465497624079, -0.0015084893107736026, 0.009534639182157542, -0.010664889502034213, -0.028047609599702376, -0.0043977128660050244, -0.0028544374913419958, 0.016911323772296486, 0.057489783900801686, 0.2139210895192349, 0.27242823987535625, 0.0373509487131764, -0.29432136950741816, -0.38156107921971116, -0.19830176832318655, 0.005912632445696252, -0.013511999277314947, -0.0760252336813096, 0.06160386868535315, 0.08801849785695494, 0.016269495287694686, -0.11579263416499919, -0.14667757748308546, -0.037997801709829845, 0.042513864620656525, 0.027109121235574424, 0.002498601231418623, -0.005951890152299315, -0.0008765904900851157, 0.0035706042468191973, 0.016349372300650512, -0.043024151530503506, 0.04969387997136802, 0.07592151778299011, 0.05338103430349442, 0.04441808635170574, 0.012198815834289807, 0.14826034450766812, 0.2095004116740755, 0.06014540361375495, -0.2748863071256591, -0.18189366611254376, -0.223243207211362, 0.058200442754707794, 0.08775941190215501, 0.03932304250821614, 0.13244309537333826, 0.07667514128666798, 0.021955564237847492, 0.02284263377062365, -0.028597793206416883, 0.007562193063680882, 0.07344956980676465, 0.06342949271846841, -0.0026807923401150823, -0.0029061234789320386, -0.005862905815998735, 0.0021508950567627498, 0.005969725490926126, -0.04604857937788646, 0.02375840364820036, 0.1098040067766892, 0.06845003392497219, 0.14535332046609406, 0.0076557391098846265, 0.1274987400018541, 0.21243362216850356, 0.11105498848056922, -0.2158209173129935, -0.2574897557531554, -0.14522452424950757, -0.017180916142848498, 0.07098238041542261, 0.1739493968229133, 0.03998541020728649, 0.08717605186130933, 0.03314769707276579, 0.14913769444648833, 0.06872125578959302, 0.09376170235535741, 0.09721902656036954, 0.1007329907268636, 0.02210928795375977, -0.001346714287621143, 0.002796878782526513, -0.012261764046159836, 0.0023669720788266637, 0.03178321027538191, 0.0555107318186411, -0.023718420403738113, -0.0092177209171895, 0.0956283943904821, 0.03607043295556846, 0.13224457251063496, 0.1260130094179209, -0.10228975768522022, -0.2998946078718918, -0.19307795329016486, 0.038332459622448904, 0.15077074504654475, 0.05872732112682379, 0.11200421524038666, 0.10428876668069544, 0.11358751248728319, 0.0820700637540099, 0.0157249825835087, 0.08452241564902957, 0.0442201113482915, 0.027036416262618657, 0.04129279236397889, 0.03076536751764076, 0.0018668403210580393, -0.000772614845041252, 0.008312998652865274, 0.010642187506820508, 0.027672630434698583, 0.04534229243385615, 0.015479463438838569, -0.04231312143773425, 0.05285139742258193, 0.038645239755971325, 0.11666201314826391, 0.058644812768844784, -0.08805162615677213, -0.13714380562357562, -0.08263750737840106, 0.08013872243214179, 0.09396843380214973, 0.04970227768135598, 0.07925800845295762, -0.09887150710655854, 0.07424058362930096, -0.005066090174652806, -0.023452782710721484, 0.09066155451697529, 0.009696901555911892, 0.005664839637315534, 0.034243278368588946, 0.008989378087426668, -0.004253864854137612, -0.002123215408653981, 0.002677958437351793, -0.006236031318106466, 0.027310446052452447, 0.048250033326654555, 0.004483088355459301, 0.027563296108407458, -0.015729335191091872, 0.006405454061558486, 0.10636197216446665, 0.08313001872191296, -0.034228668152828115, -0.1808756831590874, -0.11133057604141583, 0.05846789326478115, -0.06149406232242648, 0.058728160977854243, 0.05803174086486043, -0.005473359480553918, 0.032116782727036074, -0.07850129048451297, -0.08116031188611056, 0.054323655280862256, 0.005700167506887504, 0.046407047092168176, 0.018311056011820603, 0.03154817315427008, 0.002364231512475236, 0.0031336172833155203, -0.0049416704876276115, -0.012167978515792453, -0.027080270219870525, -0.00952009501129485, -0.0004604385911733742, 0.03437038348469598, 0.03528695727734867, 0.1387264161926042, 0.17796473329075818, 0.16354067864146923, 0.08206403472619327, -0.09697575399883744, -0.09483523919691228, 0.0036049079489343275, -0.14372116086100617, -0.0801860216124858, 0.06798592848753017, 0.042653713114589854, -0.016149758105326484, -0.11499607922313163, -0.0805867091447124, -0.019066164648825983, -0.03809455828700907, 0.04037236178822739, 0.050720286686165815, 0.01829142779981594, 0.002487075258256963, 0.0024124298162075523, -0.006340906691966737, -0.038714241200964505, -0.05802261491778253, 0.008450485585254517, 0.06714294282337803, 0.0903796995782081, -0.02037025571692791, 0.09759601861439708, 0.10989869997102354, 0.19982145186318875, 0.04700897540071085, 0.02756859443322927, 0.0074069001290533905, 0.04270622979388712, -0.05192205779973619, 0.07537646895754577, 0.037769030723127636, -0.016620203818987545, -0.026571824078699024, -0.028578821202486285, 0.009089432640694693, -0.04451903809410411, -0.02462892070750201, 0.030707532956095594, 0.07629616074422449, 0.015204493474839832, -0.004752296121718944, 0.005438330243560839, 0.0006812085080136064, -0.03085045057075993, -0.056705706634146105, -0.008898628694232141, -0.003560177346693111, 0.07029349209087093, -0.062104095217549865, 0.040919356829158066, 0.1721377915126231, 0.1836272095651187, 0.05017940403186398, 0.16844271818495074, 0.19455264104391418, 0.059309289610146414, 0.01417010453469646, 0.010692344710334768, 0.038673699304455876, 0.015216913501853675, -0.07211621449773421, 0.03262386727902117, -0.07991378144229083, -0.0018699578487827136, -0.0021706987084645227, 0.06089557042653663, 0.07925903289943079, 0.009032223888845246, 0.008285716899612244, -0.005960617284990785, -0.00041790913981990473, -0.016154884802182867, -0.042683435043167274, -0.03337004020192337, -0.022184329175250983, -0.04235614786989913, -0.0595521314399056, -0.010488168790632451, 0.023656359354387615, 0.05166931068582608, 0.04745337441365012, 0.12026946295099865, 0.12083626032260805, 0.05792054399006248, 0.00839609197971357, -0.12825782763740018, 0.05709609265308433, 0.045016004471111606, -0.05221529363501791, 0.04154802005297123, -0.11759504135274962, -0.0089547773072197, 0.044229381294953546, 0.09370421785598615, 0.03966481765192989, 0.012466779122311856, 0.0029817547786696328, -0.001522201909531648, -0.007297032833481977, 0.0020474822533237667, -0.013765953596886432, -0.035275156156338396, -0.06429259021004102, -0.1439939198373423, -0.012790109527640064, -0.01568929665385544, -0.10563791074395593, -0.10593166356100106, -0.02129970408006731, 0.049442764194835134, -0.10268274824168269, 0.023318817169860326, 0.00045172709461021806, -0.08541939061923239, 0.024840396419612863, 0.036119649059207726, -0.029445947336378744, 0.007720978303127784, -0.03335324636071462, 0.014902822197026941, 0.03660807710135024, 0.05457680800636761, 0.019058861124096934, -0.002040473685021515, 0.002085592882035735, -0.0011776097065962908, 0.0007610692817558617, 0.012831228132039676, -0.032406098183835094, -0.028754495354528474, -0.10382039918027877, -0.15825395262581424, -0.0408262763103817, -0.03182069624515519, -0.1417909848219048, -0.2305181062643935, 0.06934844107304135, 0.14254085693879184, -0.043669895524772954, 0.051105832461031654, 0.06869600323665202, -0.09753998383914159, 0.04011095339700473, -0.044142193313540384, 0.01968681366197565, 0.037205253542333894, -0.06744122573707771, 0.03793850058760085, 0.0148475237320017, 0.018082945947373873, -0.0020659677226062844, 0.0018770510176551352, 0.0032119572425221387, -0.0023414233234077216, -0.003904865648959866, 0.018747792946314994, -0.022398050660584156, -0.039003286928687826, -0.014220168068156512, -0.050679641202481245, -0.10128662957916872, -0.05833078999718692, -0.023890970006460465, -0.08646011185467224, -0.10851217615822997, -0.06956880143856069, -0.041619917524149105, 0.034164378467230416, 0.0023243046231881262, -0.06689371511669326, -0.0868743921918917, -0.07795216371808393, -0.044165160405350186, 0.02654172477052247, 0.01192100851609009, -0.024673092250301926, 0.039656852315553874, 0.02181466333645345, 0.012453315861372822, 0.0020712243646875067, -0.010185928865036773, 0.0036614149754676567, 0.0024442881468897896, 0.014132691365012278, 0.01163936846241144, 0.006521568125742119, 0.018708407965162568, -0.02330451290617651, -0.034943230889426365, -0.10970544436833848, -0.055356635261909044, -0.04076222849730367, -0.0226666435063834, -0.09707066614991551, -0.13127621460164315, -0.10101519808151027, -0.1046007491682404, -0.13793594909810183, -0.10932318735328464, 0.02192376947563342, -0.10286453556221996, -0.10184633591270346, -0.0061187390677638846, -0.017330776900062586, 0.02706986876461105, 0.012543412415549057, 0.010801432452494254, 0.0016585577476088108, -0.005350491820487667, 0.008787541712228947, 0.0066615877008859, -0.011366733314887304, -0.008787297538590774, 0.005059738798413531, -0.03592737575190394, -0.09401147946572293, -0.11391825318327975, -0.07162090537576395, -0.0534191786673212, -0.09419730198506125, -0.06589723030296543, 0.028746094438381102, -0.054451962261862885, -0.03438568135614402, -0.049439749391492704, 0.03475187231401517, 0.04052380092711266, -0.09971199490222461, -0.08781634591125537, -0.036555323008015145, -0.0076075328390773495, 0.004249396161477757, 0.0037862258550750896, -0.0028723304078377546, 0.0006093024073801663, -0.0010403495707096693, 0.004843411383788634, 0.0020311896018906164, -0.005655389755071849, -0.014201531210399675, 0.003913795979758365, -0.01121597646458657, 0.00725452212199277, -0.07470720318316947, -0.1326755612852059, -0.09493332418997573, -0.05734652535393912, -0.04118509432860205, -0.04906271026495986, -0.0810512868962545, -0.09721841272501247, -0.12364491345778834, -0.013257661028560687, -0.029831154225501286, -0.041094010198991476, 0.047900231102808014, -0.021323968549352694, -0.0046411881734549415, -0.005245680766395134, -0.022102397044003335, -0.004946125533619626, 0.00034971590552055514, 0.0007828515047406182, 0.005309441089450928, 0.0012730679353530915, 0.0009953119752030427, 0.007288684520755215, 0.005275486995995059, 0.008566023584318117, 0.008951480940281491, -0.0011813343059112217, -0.021727770871848875, 0.0019450278984600843, -0.023121535895414057, 0.04191225558168986, -0.027640297581162116, -0.07494387684170928, -0.11689757343502637, -0.06428351266409611, 0.025323521395387873, 0.03615911557884778, 0.0002440761181505123, 0.0547798758512525, 0.04752531198702947, -0.024662417959829062, -0.007190171880219295, -0.011851431685021134, -0.015150910804279435, -0.01499289539709532, 0.004039117565832112, 0.0009379399131685722, 0.006279051860508229, 0.0037434974942278836, -0.006127157048713598, -0.00684731713912861, -0.0034112638474301303, -0.004912167417561554, -0.012412545616729304, -0.010530920318735797, -0.0025696019230207956, 0.01814220507972833, 0.04679076488216503, 0.0565174715370622, 0.01819719387884617, -0.0018496144680983588, 0.029287281598595942, 0.030099856449144348, 0.04876209088896349, 0.016799487005527965, 3.0465052108204156e-05, -0.00015916036423749153, -0.016492001307396878, 0.007604036992802479, 0.0022802186962675914, 0.0013947074206349852, 0.004891230529574455, -0.0024092588916903284, 0.002938653008871619, 0.009928323652335178, 0.0045652614794116945, 0.009892757608203843, 0.005507563953736773, 0.006854125484736464, 0.005280378236406004, -0.002449355949316743, -0.001010580248687315, -0.0018790824568369988, 0.009449701732121897, 0.00599130204439931, 0.005657957925371757, -0.00518220374889288, 0.00017455019659773884, 0.0054203140043527975, -0.002593594513818649, 0.0024173388659664077, 0.007025409649439182, -0.007008986408721205, 0.004931331199092106, 0.004637371799806654, -0.009152313939390097, -0.001043151467604127, 0.0013708341334905023, 0.0018364700511092043, -0.00405329510664044, 0.001479276667288866, 0.004440236344200179, 0.0023384809974883593, 0.005481103051366329, -0.0008609652708338085], [0.007615542884064914, -0.0019770251454311154, -0.002504213090186809, 0.0009960630672759866, 0.007156430009675274, -0.0012769672733176174, -0.007335312190171082, -2.8918600485399452e-05, 0.005145823936478965, -0.0021170454854559464, 0.0061660373982835425, -0.0044918509762535705, 0.003463879229183235, 0.000504338560984216, 0.0021515012890687907, -0.00707157707316445, -0.0015873227985594015, 0.004201663814854164, 0.0009569918268379808, 0.0015555114340187067, -0.00898907349345893, 0.0004030291074627247, -0.004187490379249647, -0.002763119685911818, -0.0020582617788046896, -0.0014365090634935692, -0.0007874042150776603, 0.00017351562557169068, -0.009406359767918886, -0.015389738092663585, 0.0018643903589981557, 0.0037981309210190356, -0.003721352913403754, -0.0038446058570024756, 0.003461538197594602, -0.004944041995829334, -0.0011456355525968581, -0.004181739866207687, 0.0018242002007468235, 0.0035603672370537547, -0.0014136332387415865, 0.000742726348956568, -0.001940108543234757, -0.0019774681632114847, -0.006773532934222706, -0.00312887439145964, -0.0048594513506750375, -0.008155693185541662, 0.003923889167720127, 0.009753397983907943, 0.0015658806791446103, 0.0033420542951969703, 0.0011793722040268873, 0.006133618496813458, 0.0033750466801573983, 0.005865963987302456, -0.009594600215160735, 0.004137276151199766, 0.010834160046792695, 0.0018321669709011458, 3.0369222584156767e-05, 0.0060475173600475635, 0.003946616734213539, -0.003674433602755496, -0.0034147740607526353, 0.0046828683696769485, -0.0066027283505086555, -0.009793757187859627, -0.007634683184628248, -0.016380689794308564, -0.023802790142915496, 0.000569231321333303, 0.030362856136701186, 0.01240102626986575, 0.02093874626372901, 0.0038913500964032907, 0.0017749711460936946, 0.011756917194901014, 0.00029809764729173946, -0.000871668279240498, 0.002716541115519039, 0.0008955880549066639, -0.016247209224657496, -0.012657509479261817, -0.004128809434880928, 0.0029443092654929024, 0.005247270436429011, 0.00040627092106654316, 0.006370847355798158, -0.001756622778121779, -0.012760120089538352, -0.026318466300583744, -0.02402210063193581, 0.018849605890715167, 0.051785966697313605, -0.03918174261846438, -0.09089433556464135, -0.15092196835659, -0.15390247358159018, -0.024763231983967574, -0.004428394249608827, -0.04411344498957379, 0.059723881409411914, 0.06313275811690032, 0.0384019624147023, 0.004325811896011753, 0.01604362918722672, 0.013683584078922869, -0.0024844273269829876, 0.0022893085912511686, 0.007687359824943546, -0.008330174798089549, -0.000321804614617247, 0.0057172897611580545, -0.0011555850374862676, -0.004629589954485967, -0.0038421535747698394, -0.028857229883719228, -0.025182627682797637, -0.011615520882852866, -0.07523038517370377, -0.003968330652437256, -0.05105300084827738, -0.04946396236614439, -0.046141454458757225, -0.011480868470314883, -0.04530601321524662, -0.013015902747941885, 0.05925101934673407, 0.07683397696096553, 0.2041244859919178, 0.11579740696138291, 0.06966003258874714, 0.07139718511634116, 0.05955060582810991, 0.09428535736067106, 0.05790588893532964, 0.029198112533106002, 0.004314824202885427, 0.00192683552318944, 0.004148434363574796, 0.003296364577640011, 0.0016516932290918857, -0.016189773302657147, -0.026848489714944624, -0.035661565282312215, -0.046562153930505445, -0.11518316048235952, -0.03476718405519563, 0.045353635103294536, 0.05536586167021586, 0.06711373528790836, -0.02613809393358696, 0.09283651714804195, 0.025385971858049538, -0.0419497776606508, 0.04593346898947323, 0.022934248317666522, 0.01332366343283952, -0.11154574606645967, -0.007540623936718572, 0.06941942910098245, 0.07975108525250149, 0.08535620767476618, 0.06333143237116826, 0.03398083700336304, 0.0047356741171538114, 0.005480865402569357, 0.010243451293710971, 0.0010990247444702722, -0.0031007613458939485, -0.02129970675870854, -0.030319168162631815, -0.02359004823649479, -0.14838641417536502, -0.010448240651535979, 0.04770793437154348, -0.05343610836890285, 0.03992278980995812, -0.02131687437844794, -0.045314845281708344, -0.1115604914600043, 0.027554027272475943, 0.10989927306985292, 0.06404972801637947, 0.029609591822317413, -0.028239737327001354, 0.05210869496173241, -0.057385400481380563, -0.05134753720771368, -0.01889982644860037, -0.01391567483419327, 0.04530356845550578, 0.060161589590259495, 0.02264734455518002, 0.007047643152718551, -0.004495333891274294, -0.004114328934659841, 0.0015588009048178896, -0.01808605505892205, -0.0738055747141396, -0.06807792217796384, -0.033078950085126284, -0.025292478523627704, 0.027778521671745413, 0.06809664140273733, 0.04017586578214911, 0.08134873985144028, 0.07530931549919014, 0.0176895318000639, 0.10185225383345382, -0.0007528236448811198, 0.07071101692104433, 0.09724121575509816, 0.053231117663699125, 0.05354378564660326, 0.11593584972159139, 0.12003935440761561, 0.037891601980965826, 0.005255426229089981, 0.04864550474682, 0.07918858046233981, 0.0238447228549288, 0.002818239582569278, 0.0032496247469219206, 0.008134402854492994, 0.0009459765612685678, -0.025324377345754077, -0.09734820177281928, -0.03204892682535295, 0.0013388586876404793, -0.005864888508956261, 0.009568066191087606, -0.011847076838711501, -0.09936071423915172, 0.08674899014414557, 0.011653906102181772, -0.0024989461749226572, 0.04965135818131362, -0.030458006967090633, 0.08210229826035169, 0.019696723945136888, 0.04054692510366218, 0.07136337965542935, 0.21609239633212762, 0.1280711240061343, 0.07448205268952336, 0.16463524257922588, 0.06269597708268655, 0.040650427870841485, -0.002189857763043289, 0.005445176689511998, -0.0001878938487667625, 0.0008129146933490281, -0.0056526770287439335, -0.04152967242918402, -0.026602280981523483, -0.05059076046715634, -0.04345634158926367, 0.0017559709732532425, 0.031946546253577825, -0.022894600036673318, 0.07610250850160341, 0.16939121563391005, 0.05657259896875563, 0.05128779181735867, -0.12901245820245513, -0.17818728458138403, -0.05493363906667569, -0.04825911037016623, -0.021824711328611593, -0.16800299686786113, -0.16194715831151263, -0.003332403266434809, 0.04019918014789715, 0.039810488081839616, -0.0030315760118942332, 0.01035217471808767, -0.0033172807763466095, 0.000889276844465775, -0.003674395029033192, -0.0009041612686860513, 0.012759482665039186, -0.05072070015751376, -0.00037424030183167046, -0.007082381960473236, -0.11366254607232602, 0.0242231887281998, 0.11872212984780513, 0.08943539027130325, 0.08873105225932966, 0.13575609405352815, 0.019544715013508407, 0.023817653095824298, -0.2693616897041946, -0.32051437400666133, -0.23051776990750694, -0.24231422757219034, -0.21303455667427326, -0.327050706012254, -0.26339021526528905, -0.036127379573406664, -0.06559669817363378, -0.11415629241535868, -0.07329050409234066, 0.0014143207207650112, 0.008522793806280893, 0.0017833390332669318, -0.004712606408837732, 0.005359652684139103, 0.0007578214367067482, -0.04212655595001322, 0.012016891524817972, -0.037815514252269714, -0.03220953552639678, 0.10203832143950842, 0.03484045136575662, 0.04381333440531326, -0.04295256631700586, -0.03375106056776417, -0.04028553205973922, -0.0961935341779126, -0.3996319203250579, -0.30035684288003067, -0.12692707218897342, -0.16448071581221935, -0.15783585037307113, -0.10755283056809241, -0.1537229320784351, -0.05247886381151294, -0.14869166951151774, -0.0926999973343205, -0.11635552892409154, -0.025188149149148176, -0.013048216144405073, 0.002790577175496698, 0.00779618278269679, -0.0009139037006503966, 0.00397944573833928, 0.016699773972340345, 0.06733272964765499, -0.027939480022881217, 0.027868906626045874, -0.0073392505002725225, 0.14628581758320064, 6.375205529665439e-05, 0.06328868136053696, -0.002206031313592384, -0.07304061188835932, -0.21460716231843338, -0.2959421991832614, -0.1629671754403851, -0.1449130264836935, -0.15035841266421104, -0.025377383849584472, 0.0894027162617642, 0.15904117270597085, -0.0666970979675437, 0.014648419142385991, -0.02831874241392676, -0.06791388834411938, -0.031948141019517165, -0.0020611923743634984, 0.002066755006575222, 0.0004320485417588004, 0.003864486280516602, 0.008231577901351412, 0.020512398436714728, 0.05688311222668229, 0.11379452385355711, 0.13385721720327545, 0.2028154424760148, 0.006005411656947145, -0.054099071331447465, 0.01416199522292029, -0.004424681922518905, 0.013136723657917177, -0.09629329760600365, -0.1567517800758918, -0.12042007701232423, -0.19512599384971835, -0.057996697093466706, -0.06218466182812447, 0.1351923678864075, 0.12959139400561304, -0.0033088071901167643, 0.11036927397578232, 0.045269408796644046, 0.012642762481865499, -0.024261250271618552, -0.012414219070855976, -0.009352572304686523, -0.000583020830541145, -0.007181412236272226, 0.0010861756857033368, 0.016489975778242103, 0.030228520195813933, 0.10071222695250887, 0.1479736893567699, 0.07673635426009191, -0.014755426246191337, -0.016533169766930235, 0.17526251598579531, -0.021252742846271468, -0.03857409085637524, -0.0690040108964296, -0.08789273084726297, -0.2302190336781783, -0.10039207285108712, -0.04749890453324219, 0.18083116757711779, 0.08965629410452752, 0.15078975829153277, -0.06852471293024276, 0.10022376400068585, 0.07467170271874642, 0.0731570874163828, -0.021969943068724768, -0.0017461665732360434, -0.003883020833585335, -0.00468229547956971, -0.010516705684036431, -0.013273776126655023, -0.039597692227094416, 0.009384785890337127, 0.05351265702485819, 0.07481840771351805, 0.08684789846380898, -0.042764757181585615, -0.026510896639839205, 0.13943775812775913, -0.027457901959909103, -0.03419866294259846, -0.08960894968668726, -0.20716950964064854, -0.25456725778510225, -0.16329558189676652, 0.019101835786166067, 0.17897613589829828, 0.07165873188918673, 0.2129798414756715, 0.03955215663170801, -0.037660348876984474, 0.0755731629159107, 0.06710743755864754, -0.013915353680606795, 0.0041987887518689536, -0.0019474024087608648, 0.009161476309471074, 0.0013475923277600007, -0.0355003888214064, -0.028621352854134953, 0.02572461877034753, 0.011272749753639672, 0.10912271474135624, 0.06738415805073647, 0.02448396025721081, -0.15673673852134132, -0.029600616316542833, 0.02795574704715364, 0.028161122095711765, -0.08981523247468155, -0.2759388156948245, -0.15937474105102112, -0.08537704190381455, 0.21979660390733402, 0.15568884902819463, 0.10776023567831168, 0.3052372893808444, 0.23751210978902976, 0.06475206656343639, -0.053927886996075695, 0.007503429137671715, -0.017837999531687763, -0.00044705885740504894, -0.002215118416066863, -0.006973723872215594, -0.005674002101309074, -0.026448079600530295, -0.015732621257446427, -0.02582805646680745, 0.03318065561300197, 0.12587307146343418, 0.05074059969416212, 0.007352548220203978, -0.10378339331715365, -0.06359695599192879, 0.0625950375835626, 0.012891796435401748, -0.14913755949714202, -0.19284406524128578, 0.07761849915672979, 0.1012062717718498, 0.1969071963004456, 0.21341245788067767, 0.14742191518667055, 0.16255810411024754, 0.06898418235135101, 0.044172996358404625, -0.08165142906574571, 0.024852801563750637, 0.02472212239507004, -0.010256360477873617, 0.003004800986348565, -0.003247507421866466, 0.0033576393630143, -0.02557755467228675, -0.047034916553901705, -0.0014852594581607746, 0.010360383065649651, 0.025962125204502362, 0.16640786110028363, 0.018897445323947024, 0.0005363707815733036, -0.06671826189978029, -0.04022227878454526, -0.1394461355509665, -0.28242405722018926, -0.10384077774061629, 0.029246404707918797, 0.3023749493194241, 0.2218214607805858, 0.14388674514799407, 0.10691701652290708, 0.03638163370838651, -0.018180518681772447, -0.0396209627541085, -0.06612510332369202, 0.005990698769898435, 0.0065451453581133875, -0.007167888773575251, 0.006264556105207459, -0.005854417762488573, -0.00468001135560049, 0.06250736651006614, -0.007055681017995285, 0.07557085511655938, -0.08831553000614, 0.02061898799230763, 0.13370189347234612, 0.1396587160298543, 0.023865000823839168, 0.04465273342741415, 0.04470027458613428, -0.06099754820912508, -0.24241745427829847, 0.00371658683085805, 0.22821554188683768, 0.21159537652655258, 0.1013315243543931, -0.04193558698666404, -0.03832923902700396, -0.05634598188406018, 0.08062570099145809, 0.043282028801409474, -0.06517918776638906, -0.009224324013338794, -0.013681941841136308, -0.0010403189854650227, -0.0030707536095907063, -0.016560055383006138, -0.00017444783688317573, 0.03648075666230682, -0.0070061080726042295, 0.11459859885433318, 0.07171277910064504, -0.00970018005710516, -0.03451186549982346, 0.07429059939185266, 0.03104303688641017, -0.043327842674115276, -0.07379254350239249, -0.14387488352705588, -0.12535253972216526, -0.04893502583773204, 0.10927483478670912, 0.10703328834668507, 0.15861230074250665, -0.038118006064874844, -0.12178020664791703, -0.06450510598671268, 0.013850787252165651, 0.006929925890346907, -0.015425164180746154, 0.02026315252008799, 0.007960046367458121, -0.00754243654027458, 0.01136507983851698, -0.0023894595453180178, -0.002721928018421772, -0.002642310712464304, -0.049640227540178224, 0.06467383629961304, 0.13432751471417498, 0.029625375493717136, -0.015707285743573746, 0.05085858302306276, -0.07581181487016435, -0.04267781783573295, -0.02567154097413213, 0.013283247019733177, 0.039712781444353536, 0.17975902636108707, 0.1417210340313208, 0.1285082849330554, 0.04027101638267051, -0.029326816347587104, -0.10163100631860314, 0.08411309796900344, 0.09019533803904904, 0.005596206360151499, 0.015858054556101377, 0.06377500170041477, 0.008618136038462053, -0.0030962671052689483, 0.0016160018042026348, 0.005106069464195806, 0.0017338283041272839, -0.008458816376252596, -0.03696335996282396, -0.0025215914989174244, -0.0071791945174512865, -0.05744955920803988, -0.0609591381042707, 0.011912692751005772, -0.11624457591410793, -0.06193473295879033, 0.032253636420114015, 0.10177179439873002, -0.07791899431173326, 0.0818543904730855, 0.04844392902306707, 0.12402995107696908, 0.10362379904857552, 0.04136384995544413, -0.018787897530253984, -0.07122202470499114, -0.05146907051956413, -0.048466205046620484, 0.027943696051831238, 0.028355761793863118, 0.008062897861427453, 0.001750198137393643, -0.008730645871281409, 9.735069948973471e-05, -0.005730849448281152, -0.0004971508546592366, -0.016113274490376823, 0.016078919822364816, 0.028548326394489735, 0.06520748663732774, -0.037230443861448026, 0.023247019078661505, -0.16013390311655504, -0.030742717866675897, -0.015996198865521897, 0.03378826785227437, -0.04941289582003219, 0.05672836301735403, 0.016990504127858637, 0.009867738402076378, -0.06989300270774834, -0.1740401926403738, -0.11430623057442135, -0.10354044842712296, -0.055714370954372705, -0.013259992992295978, 0.027828833668414495, 0.0001892092887149943, -0.0029865143028387237, -0.0034251657663796472, -0.008829996085296235, -0.0025787731377693085, -0.003808670563450806, -0.008072366414208708, -3.0802989423733984e-05, -0.02687035777904171, -0.03555022567233277, -0.01297107513402182, 0.041297719888337026, 0.0034417654534630664, 0.01403060176733484, -0.002944467725508918, -0.04268027734341582, 0.022427378258708736, 0.024187148064718753, 0.00029907477855789733, 0.008139800727179493, 0.02046486595910286, 0.10007295880467273, 0.03450073916818754, -0.07359221562247549, 0.0021813099171114816, 0.02474901732984183, 0.010248930659728175, 0.0007440450991834035, 0.00923331799025099, -0.007816917543433482, -0.0012187408795614465, -0.0002071447810271599, 0.009668472238859992, 0.0017065991406345574, 0.0009696424362785869, -0.008533557437634336, -0.02188982516847362, -0.03332050466458853, -0.03763994398756898, -0.02886333667205056, -0.05086189366245749, -0.057569445692617335, -0.09286872248183908, -0.044010095398642174, 0.0776871535709004, 0.010396161928251295, 0.014967093942249422, 0.04297848741293226, 0.05925069850424097, 0.07739112460989314, 0.0557551161837001, 0.027366265981619405, 0.025775077345530105, 0.005708127884156544, 0.014240425442255353, 0.01036076112817522, 0.007296681834765467, -0.00020664610872767823, 0.008566767266137788, -0.011353684127967553, -0.006449657678593552, -0.0009744254884844533, 0.0029793375280873944, 0.006268245683419017, -0.0028279936045014545, 0.0024358149973785553, -0.001502024956182928, 0.004285030802162172, 0.011894706823742976, 0.007136262443960189, -0.0006269830088504916, 0.003941089478989774, 0.002320941609583221, -0.003439432485449848, 0.004646259272956847, 0.03673508120775447, 0.038299952994530616, 0.0019525036149793844, -0.02448836965165099, 0.015196103916647666, -0.007485575051086689, -0.003722992677624189, 0.0027997621870408077, 0.0003341660495461925, 0.0019356366446146107, 0.004592844032678467, -0.005378988881129528, -0.005089725925010431, 0.0020631724692603388, 0.0029482827018117554, -0.003231996413024689, 0.0024285869411204827, 0.007936837103736154, 0.008096272169174667, -0.004817713422242513, -0.004669716844257903, 0.017094996690303087, 0.0014547641951375948, -5.659270971123571e-05, -0.005082470143281536, -0.009867038286818513, -0.0021045267353359967, -0.0026841647196389406, -0.00041962789912086527, 0.004049780258201651, 0.0020073924226755345, -0.007103024166693274, -0.011768334182938073, -0.0031094337473237983, -0.006798957993718556, 0.005962495625301493, 0.002778258707708744, 0.00047306872494980547, -0.0005467549954968578, 0.0007208673748056995, 0.0004661767978999558], [-0.007215486960770871, -0.001082432527325858, 0.0009758908832700545, -0.0004059388660908783, -0.0001767546506223932, 0.0032981308260701518, -0.0022423370381772618, -0.007366900222274576, 0.0037240338826409047, 0.003581624812374659, 0.005960729835975242, 0.002899397505278111, 0.004063626217539941, -0.0014556810766009987, 0.0059991085122783755, 0.0020795430199531634, -0.0017348365241573684, 0.003884457994964996, 0.0033521614811206067, -0.001059924001819704, -0.004751424506897032, 0.0059484120367268795, 0.005136747492325712, 0.0012710765612331868, -0.001323744024597254, -0.002008021578531048, 0.006668671336507565, 0.0006452780723016663, 0.008165535076723273, -0.002509633086920551, -0.009536549701684726, -0.0014184661014717177, -0.002512899197444415, 0.004438914539820927, -8.199757433041337e-05, -0.0020129577649062743, 0.008224814684855898, -0.01078697454162936, 0.005433273138580929, 0.017684796987638886, 0.02436810436778112, 0.007355829662454266, -0.015761153768836886, 0.018009674137476374, 0.05442446823488195, 0.020416816125276287, 0.0024831454715470614, 0.006741548489938116, -0.00346283147535468, -0.0088383511147939, -0.005908514713630758, -0.004540442260846391, -0.003911881218254007, 0.001330986570784925, 0.005161304831531317, 0.006095038079587146, 0.004611870787607822, -0.00029885742451103616, -0.0024388302571209204, -0.003187029850919158, -0.005665327146235751, -0.004787497930453801, -0.0006749524251701318, 0.004617641506246367, -0.00337212352376979, -0.005921530467732592, 0.009854308024582996, 0.006434341502012557, 0.020683236477573985, 0.02647759852999284, -0.010132141924727283, -0.03354861114111273, 0.010078433677804912, -0.018414461783444747, -0.006783855408178939, -0.030297539204516954, -0.04352873496706465, -0.03698120117543461, -0.023586879921418794, -0.010809554506223375, -0.005513622097515666, -0.011155965469928046, 0.00016510363429794568, 0.002298672091401024, -0.0056343948573346824, 0.004105115485622871, 0.007731918824690094, 0.00476114013592899, 0.007749878438263579, -0.0064536828541839775, -0.002118596881152557, -0.007971838183061247, -0.007247790402050908, -0.002405483072903876, -0.0018871638667288105, -0.02783698717687843, -0.02487673604203752, 0.0011220900659064787, -0.0661843190183924, -0.0986884151932471, -0.049953001153398874, -0.11090113339889456, -0.06038002957402727, -0.03562704412414144, -0.03047493309095739, -0.04991981708346566, -0.019065295088522432, 0.007982337596933134, -0.022710941908771598, 0.010811101010058612, 0.005149878139267917, 0.004525709739338869, -0.0013386686862431251, -0.009257841874268983, 0.006387701827791232, -0.0036324544730264876, 0.005476426498081046, -0.002285371144242219, 0.0023731193415678126, -0.01463162073202001, -0.019360884928834067, -0.025129397699398117, -0.027080366533592755, -0.04216820186758898, -0.04678838333940421, -0.01983628371120248, 0.02393173068772272, -0.032757175832557425, -0.05789454902997256, -0.04689035133249436, -0.01504352801001644, -0.038417313711415796, -0.12988572902036974, -0.03368947038367141, 0.017069525232834403, 0.06228070251693494, 0.013800928101549852, 0.02415008380368773, 0.003962680384682678, -0.0007532406221955121, -0.008875379552544556, 0.0026359161668012333, 0.00826314169045925, 0.011752150213527745, 0.006089016898299033, 0.005587949040977825, -0.011412297853395278, -0.00907045780233842, -0.09348105532230662, -0.11777949734196741, -0.061527708693399755, -0.005919717397868306, -0.0401074746042993, 0.007417599339393134, 0.050555411644549554, 0.03251128520696201, -0.02908249480304739, -0.01343260492088647, 0.016872052043176666, 0.09605587354817108, 0.020119552989574383, 0.049405706138755605, 0.11217363111144535, -0.029427120272727064, -0.03614006539565353, -0.048745408800974, -0.02097851383179202, -0.002501692080258542, -0.00385080787901361, 0.002631109904559283, -0.004955719441126315, 0.016903472812752608, 0.008028010655017789, -0.0005280323426329089, -0.03632143185096631, -0.08957363875585006, -0.17879675215625315, -0.248087717666827, -0.16417320932339985, -0.06710699381920601, -0.08482688565237474, -0.13230703082295037, -0.1143326529495666, -0.11152795113401708, -0.07336666749177821, -0.037575641719251485, -0.03273334863290138, -0.0248251810355198, 0.02723559977730654, -0.045395022453986106, 0.013341911430884862, 0.0519438589849752, 0.03616800846751389, 0.0025539069724188042, 0.02856228100276116, 0.006200725362387569, -0.004151264939484956, 0.00040329718739538095, -0.009801569960162168, -0.008760812446884533, 0.02657160009927825, -0.003076980054849436, -0.08424088530347795, -0.12818479585469572, -0.19391624212919503, -0.30811105439891007, -0.20113032358227453, -0.05187808843282897, -0.05121627251675628, -0.08471704678594057, -0.15761033429786647, -0.048116466381343356, -0.05367348143424592, 0.04372811873136436, 0.010825702189536534, 0.006048954625097714, -0.09119366533225187, 0.07421543327765706, 0.04533158333945852, -0.004776547189300227, 0.018168617733930626, 0.02988436995957764, 0.033666965632766985, 0.004234392434881539, -0.009971570875628602, -0.0026647251755179723, 0.004802867836320165, -0.008455142343480188, 0.004562949068346089, -0.019074248164951044, -0.10384180757348367, -0.19000976700172229, -0.24336278326615238, -0.1938169621399834, -0.06816066433418615, -0.053486036486743285, 0.04287394405078999, 0.01884464690512455, -0.021869853923528453, -0.09213732748644513, 0.03491496004806262, 0.031793374092079385, 0.08487184056804055, 0.01144983601313825, 0.030248629608593768, 0.10854440771980384, -0.005828961797018205, -0.07388861204009044, 0.0494751881505448, 0.0019881096560800202, 0.018249541607299684, 0.006366573954513978, -0.0002899842102280414, 0.003381480177221991, 0.005628634329054701, 0.0011179116792258085, 0.02243664274395204, -0.02500792045306745, -0.13474648994323807, -0.18187693088392928, -0.23611447277971379, -0.12649759328386356, -0.0768810790947365, -0.009883956857706778, 0.08061811468661438, 0.205521201755914, 0.07087181170792202, -0.0822579977873887, -0.13168448004341365, 0.0275758516198848, -0.030512923006786152, -0.04086487488951684, 0.02204457337241789, 0.010023721285378063, 0.023441674239660884, -0.014691996139715223, 0.054317083638491165, -0.008561538438927976, 0.009568990634130577, -0.01716823325096735, -0.006024609363375004, 0.009482118335205151, 0.0033729483617358632, -0.01696028137197543, -0.01915200071154965, -0.06060703799306272, -0.12465000918514176, -0.1453004002388221, -0.16848573525645164, -0.07484142307724989, -0.02648088237775861, 0.050946649384954065, 0.1261644341681855, 0.12416500669105136, 0.14794791911115984, 0.12784506155285746, 0.10020100893839615, -0.03168635473768125, -0.10022678719259018, -0.22678353767567183, -0.035003984750600924, 0.029610885685715682, 0.051012586269002645, 0.06960729457777991, 0.0686513790987875, -0.03131495862673673, 0.006434219617469601, 0.004909836253609302, 0.0031582674323077237, -0.011299031217897887, -0.011745238355676863, -0.031785708026721766, -0.048366318497183584, -0.04657274214510286, -0.06780052075436921, 0.013626876652158263, -0.008203900499492699, -0.1060698510761343, -0.1785104256326959, -0.24756879509697588, -0.10675157759041551, 0.19764926234666175, 0.16369599172284968, 0.09874825304211633, 0.1280241454629615, -0.019916425908921145, -0.08037731338030701, -0.12132420439481312, 0.009631347465105251, 0.04231112755163977, 0.0703286722603278, 0.09418734669513286, 0.12576525682461334, 0.025851217001816636, 0.017306065233891856, -3.787209443691257e-05, -0.0076927707923426115, 0.0022841617902434434, -0.017219592736353293, -0.007408969118945865, 0.032102645138921776, -0.0001351627239591687, 0.03567429843444577, -0.0027464038300047487, -0.07690632209226617, -0.07127322864669101, -0.05564886146726676, -0.30374076269642314, -0.26578324762866545, 0.11686095565323663, 0.11831442895967684, 0.08937395651530149, 0.11073479820776364, 0.10165125173848893, -0.10015741477959261, -0.03386590728896716, 0.013456215266703486, -0.04633008394279322, 0.08062129894289041, 0.08102223382374399, 0.06707717649099233, 0.013747803920159347, 0.02745934987203233, 0.005255739849755373, -0.001099309262908052, -0.002154598101346626, -0.003583365479366086, 0.018569721867811816, 0.03725829203214736, -0.04423822862354897, -0.013911157547959633, -0.07716553235022365, 0.00020624339176348049, 0.06611786782848256, -0.11094498682734004, -0.23631448594571855, -0.03614090589765697, 0.044314656730457126, 0.14994355258019504, 0.09266451585919619, 0.02552875420761483, 0.05407520133778756, -0.10732343702304414, 0.014768433041973117, -0.012277089168512162, 0.010726557588838156, 0.0752025762853458, 0.08544536040278392, 0.03572304016855677, 0.0320278653500355, 0.01872515530888585, -0.0011689213986784258, -0.003862973619962701, -0.00436815432999458, 0.01364528699298204, 0.017814377833299956, 0.028243474312518505, -0.008484207528117576, -0.02883479651333307, -0.08976516251518862, -0.0033926530843810493, 0.0056870583657642965, -0.09434983280617444, -0.05943307245902277, -0.07232250146402124, 0.17244740492082625, 0.085578287310992, -0.03145391515506564, -0.05815677302804035, -0.1463349008887823, 0.020817713653474453, 0.005300258591178957, 0.08080558847916139, 0.008809574232011997, 0.019726453321965407, -0.03937914511519958, 0.02689588236214723, 0.004346423172786715, 0.019122382286061473, 0.0063363098085791325, -0.0003300463635191322, -0.003967116814114539, 0.014859613716525244, -0.006761665101715507, 0.08387682455095984, 0.0347078998912171, -0.031350792065207564, -0.06857822658675096, 0.08457619522352822, 0.0016911994721534142, -0.10951591967118561, -0.13838209502101556, -0.0754333768315805, 0.011332832339729544, -0.025373717288998485, -0.10169631014743753, -0.030831851638642802, 0.005092215995857029, -0.06724369122325484, -0.0952958672917025, -0.00484376032429321, -0.12488591038058458, -0.04374923417681806, -0.06589561974196523, 0.012719427747141333, 0.037026667860493884, -0.006827792667262389, -0.004218976482108085, -0.000542238067497436, -0.015741852188343754, 0.009176328119743954, 0.025137410569230956, 0.0696814752020654, 0.04861221762548443, 0.05455791122862376, -0.07403538049200245, 0.012820912814055485, -0.024402950694408388, 0.038111800421876625, -0.07434639850037185, -0.10133119469491851, -0.2088405448032696, -0.01348051588747333, -0.00329816481895736, 0.003292744391510702, 0.011146275160813138, -0.0639818800747861, -0.1366984507938101, -0.12113139779411256, -0.07001549291470875, -0.011430635956193256, -0.00024456423935280934, 0.03444283183539826, 0.0380701721641615, 0.00231381277619887, 0.006649871354280237, 0.004467083644679827, 6.206640571791625e-05, 0.00030466076328361784, -0.0018925913660120138, 0.055199507560942385, 0.10930272724882611, 0.07832284287562155, -0.01116047561663589, 0.08369166025727995, -0.0038861402878264313, 0.014931822925349727, 0.007568653205533582, 0.07348122580499888, -0.05580858850673576, -0.024661959259589358, 0.14310212976630496, 0.1454194951800575, 0.12319064030087394, -0.0432731881034231, -0.07026756005490427, -0.09499086995236548, -0.08390701680437997, -0.058589377397733435, -0.06177271811153694, 0.015159972548888252, 0.030094943126912743, 0.006802794976107472, 0.019069393341381455, 0.00288172259124729, 0.0003807912328767841, 0.00211826652797848, -0.026502546717683477, 0.007611677721212641, 0.09945670923239687, 0.028673462411233246, 0.003329071487511071, 0.07017271150506592, 0.022253851064375985, 0.08077818299977271, 0.0680527683031106, 0.03495072220235069, -0.10927744760062183, 0.0036450943508872405, 0.0420655463467631, 0.11174452531600763, 0.09638071847823917, -0.005911399751691159, -0.12712447995728268, -0.15233234967103287, -0.10365680335105164, -0.04452915042130476, -0.036788930105229774, -0.008045685271982067, 0.027710663111412667, -0.003740263616096126, -0.006638189170545997, 0.002462486400990699, 0.0027611065128637, 0.0004916776677109804, -0.04315637398804561, -0.030579924162096195, 0.10007025587124035, 0.04378991194358876, -0.05249187286339687, 0.07747946704995505, 0.10463013085481461, 0.022531926204646696, -0.07994003678300221, -0.10456969257260365, 0.0480309076172381, 0.12918902878080413, -0.010522960016986417, 0.009081109566527008, 0.05881831091745665, 0.06983273580332536, -0.0825310654014286, -0.14291189685134104, -0.09575244561834345, -0.05267797750422767, -0.017936310445031793, 0.007053627017765936, 0.018732182566790954, -0.007407269390422121, 0.0005766326822661623, 0.0031887080616091576, -0.007083228779416887, 0.0050051745219443665, -0.015888570099778322, -0.02670434591762264, 0.04082248610939495, 0.08608278273696995, -0.04817806446895308, -0.07442807544270338, -0.04339339439558292, 0.0053950887599092615, -0.09499425636788862, -0.06065575722153114, 0.07809177236049702, -0.05952554487482544, -0.027451076943027244, -0.09674356786894378, 0.019772403313642748, 0.04333624491296379, -0.07208985186890526, -0.1656683152917743, -0.09845129089566565, -0.03703636095949768, -0.017977077868519646, 0.003964859709156156, 0.02082329874474008, -0.0076122346145713485, -0.001060336176952764, -0.0121480937061632, 0.0007095056033017607, -0.004638002789858517, 0.01578995084939545, -0.07268661047656173, -0.0057218505311092075, 0.08079013697992223, 0.019053685615653994, -0.07037512009669435, -0.064255877072313, -0.03266999739350107, -0.038581815253857246, -0.12336047965762283, -0.07779150392508732, -0.14155911419512482, -0.04285834157250031, -0.05593396887951116, -0.029193659854457637, -0.05188182236402915, -0.11710656028918409, -0.15729707155211434, -0.10349199969476405, -0.02622378480636901, -0.04481207786089102, -0.009881255618778489, 0.01233293004254587, 0.010952818225521304, -0.005645174355460706, -0.0027510043881517794, 0.0025331460080810606, -0.006937192048652431, -0.0021455162061470123, -0.08867441800266375, -0.04311918992046988, 0.08030115351013994, -0.03800056401379026, -0.08937247875767827, 0.014397332463102248, 0.022737483133010647, 0.05548423133730737, 0.01597240418981969, -0.033991152796025145, -0.03535465580744706, -0.018681630179839568, -0.06822516294572098, -0.11562758185180946, -0.10864982589859938, -0.14957075017712246, -0.12614871893761903, -0.0721292544792284, -0.0456595980580524, -0.027208192578362652, -0.018295408044991985, 0.0026798579890352655, -0.0035642543949098086, 0.008461566537487178, -0.004445999527617464, 0.001561146824016611, 0.005826869859617939, -0.00812880852923063, -0.05025987084539816, -0.05866405228962899, 0.002807238654964201, -0.055542492948337505, 0.04209787960309057, 0.0671874789307165, 0.08003693516688573, -0.010082224355543009, -0.0026514219063451527, 0.028403031167188064, -0.02596075631219365, -0.008048237086635528, -0.05987943390849062, -0.09172419324012103, -0.07367015838236989, -0.10779292209786916, -0.06283702329085988, -0.05895029286795623, -0.03658841523338023, -0.03438851323782497, -0.00015673701539323798, -0.007175589694788802, -0.003121577780864374, 0.002536790142686793, -0.005471858075769491, -0.005293174642833139, -0.00654961458839895, -0.026564503269486586, -0.08367676617720715, -0.08634133882746253, -0.06342196889358635, -0.11033923084008058, -0.1514650184777332, 0.011595024802668854, -0.011469912992660383, -0.08323842279346888, -0.03471627855972137, -0.09761684890800626, -0.041851806270209464, 0.0032750769194410086, -0.10330035544890735, -0.11906413515428195, -0.07090917790883833, -0.12159022830875794, -0.05720313824785475, -0.04317070548500148, -0.03571578843054004, -0.015026508301348593, -0.006615277530888404, -0.0025867324437157608, -0.005697336051991839, 0.0031685998319756713, -0.003479708442249833, 0.004073223822433173, -0.005232579648017364, -0.016430321816294613, -0.05398947336264642, -0.07804444365798893, -0.05788502571211647, -0.09858253225248563, -0.07334875591646242, 0.025960152123378412, -0.034064266620445996, -0.08225648173941699, -0.0598146752948482, 0.0034486442246641595, -0.08182323589164012, -0.08137009979688714, -0.0007583806500612079, -0.021707621139053564, 0.0055711104598651015, 0.011487058938464996, 0.010970438602760414, -0.009167085019661108, -0.025237384680199756, -0.02854363196083942, -0.008319875948154223, 0.004193933006599944, -0.001640843792780518, 0.006673323181663617, 0.00312839005173797, 0.0007595872680955239, 0.0004961736254184687, 0.0041637369995435915, 0.002198867183144084, 0.0009859926045171004, -0.004181416072026703, -0.024773057089202518, -0.015606236165206596, -0.027616768425594768, 0.0074067676648347834, 0.026731787931509897, -0.0033997417013146413, -0.02744205541909638, -0.003195714522060694, 0.039827295493087896, 0.04803932744893594, -0.0012609948739347961, 0.01630060848982413, 0.015027372595192124, 0.007046136217765505, -0.012604794679411266, -0.015062507845902318, -0.011567449770794306, -0.0015725717764191072, 0.005665845574089292, 0.001742893326201198, -0.0039220775570755805, 0.0013203273905038732, -0.007971987233054645, 0.00331952505376887, 0.014218076914163177, 0.00034105285850331813, 0.002830595219851271, 0.0037187217046363327, 0.015033782400584386, 0.018885828673744238, 0.004643268525035123, -0.02011680938131906, -0.0012884093389203708, 0.013863422795272827, 0.004095260566059904, 0.011478200341418122, 0.021391128311948077, -0.0024081857755748233, -0.0059536169752167295, -0.006777078079032127, -0.0049667848404214504, 0.001371855882059349, -0.009440121936444577, -0.00040769835724074443, -0.0040813904809379135, 0.006021395250775993, 0.0012998845083795894, -0.005838612136175603, -0.0026812062856624535], [0.0009616746044681474, -0.010746385309272034, -0.001091977099424907, -0.006318100386423734, -0.004377216693611277, 0.0036913704381126926, 0.006836830295428844, -0.0013707439692218267, 0.0027596540863737, 0.0014893150302635087, -0.006847397776752609, -0.0031563915000972754, -0.004236178523228606, 0.004239412423232475, -0.00013641694922799112, -0.007226677383815656, -0.010380993445696788, 0.0044272414170454626, -0.007763468530816978, 0.001969939031650065, 0.004294676180873289, 0.004461982313017861, 0.0001253674575042187, 9.203701650431263e-06, 0.01312308025289587, 0.003232780502982623, -0.0012766755043537878, -0.0033475566873594903, -0.0017637343261402943, -0.004805834696235545, 0.002800300179591657, 0.0010074625280464481, 0.003952843521053166, 0.00403089414867017, -0.0017259357844325127, -0.0025004195433271227, -0.007474326756512082, 0.007354937304099207, 0.00346320474199512, 0.0046261139224178915, -0.005613045490393224, -0.0008102912544833665, -0.00283296254338542, -0.006922290734679803, -0.011071418968067855, -8.444888696713967e-05, 0.0020515077964185307, -0.005707065312383461, -0.006412539139237562, -0.01028507913071475, -0.002293057152850863, 0.0055178968063298835, -0.003964251806254224, -0.00201681562323474, -0.005249578686938021, 0.002867501297257316, -0.004224755604931667, 0.0025265896945403194, 0.0028052742399072464, 0.0004478549441726942, -0.002857907223766369, -0.009250008983587904, -0.008380119869111977, -0.006471541135440259, 0.0005842040684253106, -0.0028645871075596665, -0.022525102869210025, -0.021469558802799587, -0.007970561976824286, -0.0023531126568972632, -0.007053547511320766, -0.025946130016960573, -0.02779315851885489, -0.00880797608295561, -0.001736392808251566, -0.00359919061911437, -0.0016371044985352388, 0.005571280363974709, -0.0047649577229344885, -0.00016949999094626855, -0.0021130863795777418, -0.0033611511663088323, -0.0048272690173927196, 0.008695917119492556, 0.005754922538147904, 0.0028572696577970243, -0.001232551096288036, -0.0011806609300143453, 0.0002541079513098696, -0.004173436021326504, 0.003913182513514692, 0.018535684172224978, 0.01751628170958577, -0.008055276826521969, -0.01598882978305766, 0.008504961204127613, 0.06351837484564668, 0.017380206856952053, -0.00965600388784535, -0.014058759185737981, -0.01485061520581607, 0.04603546625369447, 0.016272799639320427, -0.012456889388011478, 0.0291224992555717, 0.032836023206036916, -0.007938281907257483, 0.0016478169732712725, 0.0005718692762676054, -0.0041818087384496464, -0.006753284757706673, -0.004467895626520148, 0.00042549826615156553, 0.0021365304870443738, 0.002564260046954737, -0.0022017530602214752, 0.008879355663510466, 0.012601711710538383, -0.020910278127687514, -0.024874956893198918, 0.006655063405135215, 0.00218798153488568, 0.04117613486865379, 0.004041034587660952, 0.04186174314671164, 0.020798437257698435, 0.011425776641416516, -0.09568874010566933, -0.09830081766759739, -0.0775016942058958, -0.02012487488412407, 0.013344854524537082, -0.005547578771059687, -0.004588551920961898, 0.00455976459240334, -0.011960583610039691, -0.01619067047064613, 0.0041750666676613766, 0.005686459929992356, 0.010178898900030504, -0.00026068145217295643, 0.005510303551676693, 0.00307839890417185, -0.0031463151674103475, -0.02490032829941872, -0.021947376390122394, -0.04393616848682609, -0.0017770199610315145, -0.046397013584785575, -0.06405341980906236, -0.054890060183356834, 0.020740054346510835, -0.02572492687893237, -0.08006999171983911, -0.053479820556582645, -0.04045040295900913, 0.022777993148121647, 0.07315717437139857, -0.005018519260160582, 0.052702383199507985, 0.06728169360955302, 0.03140645040140558, 0.05480715695891755, 0.035007254816220246, 0.011639396246277498, 0.017545671383635802, 0.0021744664017620797, -0.003944701690341455, 0.0021502549052629847, -0.006737410219420956, -0.0019862811740002486, 0.012399300354058933, -0.00632166388299257, -0.025110825777583803, -0.08995677899706532, -0.17907718042625398, -0.1837384355583615, -0.06094312392490373, -0.055176825077227466, 0.07919531070971236, 0.06739990651905117, -0.01047455884245026, -0.028398085591246167, -0.02511529909785322, 0.03665388129714132, 0.10513421237349661, 0.10454177551660854, 0.023186485677714523, 0.10953693867358595, -0.04464542977497494, -0.033254447247877524, 0.05737482960093674, 0.01959050548605811, 0.024428184868476095, 0.0012792877168952138, -0.001193956866474481, -0.006449364046427358, 0.0022700635949287535, -0.008085479244466972, -0.013750629891079256, 0.03281204777898859, 0.051086805069292286, -0.12250290827686444, -0.1520193002565146, -0.0754237728816676, -0.20987971767276384, -0.14597903555917796, 0.012448043909633263, -0.05759124668315606, -0.004690988603124121, 0.027305624664441697, 0.02405525312675187, 0.08814525401659383, 0.04831018607137935, 0.10703700904425155, -0.015236177479852937, -0.06442230852227482, -0.005266841950774058, -0.023799554343179482, -0.04345081823803502, -0.011190938104227324, 0.02598018628496575, 0.005635193357497243, 0.0032683599349580894, 0.006246460986194579, 0.009771573305291374, 0.004175292789096006, -0.004540096212987109, 0.06294298923824793, 0.007433995664400844, -0.11013184557914439, -0.11581689046679487, -0.06088249935784499, -0.04324097939296883, 0.001907551713462851, 0.0002914189052574077, -0.10115561061137728, -0.025246048084274476, -0.018051201679375295, 0.003715398612608398, 0.17033170422291563, 0.12064299792433768, 0.05372170628321861, -0.019135787209771268, -0.058911229913732, -0.0039647880037011855, 0.019795345753630286, -0.014978083855135662, 0.021403673856048567, 0.04866644971693441, 0.023698242035282237, 0.011008295763261433, 0.00314121876449268, -0.01618477713570101, -0.005615687445908915, 0.017299393221024164, 0.03862748603774543, -0.06326615564364413, -0.10596417505931832, -0.06664781185789381, -0.04644167847038592, -0.006415923885095239, -0.033756695921128295, 0.14170573641292622, 0.004334395183576993, -0.08104153227276702, -0.07771679723531369, -0.041221271393507564, 0.03443778688106708, 0.04508871751249175, 0.06306221924459504, -0.002973400579348518, 0.04581817891418158, 0.0412826641804259, 0.11527074522742263, 0.11962144340638672, 0.06750504627149935, 0.07223142862686255, 0.005597161008091223, -0.005291622140504947, 0.000705052727763882, 0.00048817054122209856, -0.02333382702088809, 0.050307721539544145, 0.07634978606574852, 0.0477391495786248, -0.025042253267573394, 0.022948598747904902, -0.0017188881659483213, -0.11743983989076626, 0.040506050488514904, 0.1901092661497354, 0.18894726198587705, 0.03390165321525364, 0.056706794386190355, -0.10567740215886753, -0.2029803295527355, -0.042386922616147044, 0.08751146311104985, 0.013387196063918725, 0.03003613265484937, 0.07156305218702982, 0.18231111823590662, 0.12354298034311963, 0.06385953216260944, 0.026347099996308895, 0.011709720251547923, -0.013164320563645722, 0.0014162175483898242, -0.003991822736545308, 0.006220840672555176, 0.04659898555118681, 0.1038833008700432, 0.1118469536645576, -0.0010011347704819015, -0.015545075235708502, -0.03349563264357093, -0.09754501915045928, 0.050250105358868646, 0.1558084599526784, 0.2580403106144608, 0.22260059957578962, 0.09998481392259792, -0.010605830760179277, -0.03336134724835081, -0.0536806521579862, 0.001021340920608832, 0.1080746424986681, 0.06387280662419799, 0.05546556163514689, 0.10550676803534907, 0.08990651329705492, 0.05221829039067877, 0.040436570535372175, 0.014928134482823225, 0.00515998281246417, -0.006062573475136009, 0.0038392961439631017, -0.004070689811325852, 0.031285363573784086, 0.09299938178239259, 0.09905968414091763, 0.03786876614241923, 0.057680134909020006, 0.00020718956497879526, 0.0858744405354061, 0.22982183939552017, 0.23631113968673342, 0.2834898976282008, 0.3538173078316706, 0.15843098272501321, 0.01291990774372776, 0.029427919565885995, 0.05934388998339816, -0.03712365918187906, 0.08745204969477914, -0.03728667973772955, 0.03337779123897875, 0.03411707871018778, 0.06357116120753359, 0.03147743598762476, 0.021904360199135012, 0.005973401548747851, -0.004547958684475858, 0.0026988746377717312, -0.0016740996570279584, -0.004802022444454436, 0.029535853754542495, 0.07149149539218366, 0.08561721100084602, 0.048086456634561806, 0.09234641733322847, 0.1230569762320394, 0.17971618796892377, 0.17139293620226287, 0.18090285080698626, 0.2389455407776626, 0.14590784650108596, -0.0034643456681725136, 0.015355230839237786, 0.013509675017849998, -0.10588493903582445, -0.004016060638999085, -0.003553434018749814, 0.012211690751310095, 0.012924678044452553, 0.036333925360659894, 0.00851034922873059, -0.013095190649232874, 0.02378811751339835, -0.0037888312461418832, 0.0002244233943512481, -0.005270826968390623, 0.009132526834723528, -0.0005442229462334974, 0.024977823378888687, 0.059371353070459425, 0.0532851800361028, 0.0514697411736265, 0.0705065858072107, 0.10214800171959816, 0.05804255288911947, 0.04672639750511502, -0.012921078944102687, 0.09527062213107765, 0.095451210900982, -0.09524643204221482, -0.05231456027339805, -0.01365321304598488, -0.09555180347265473, 0.014100949177848945, -0.10059515476660982, -0.04003473825762856, 4.641111785697815e-05, 0.01395335257487417, -0.030897582246972474, -0.06503855989394214, -0.01325686979123408, -0.00480615716828442, 0.003403675218077984, 6.066191392544139e-05, 0.002112239682038315, 0.014039823023629956, 0.03892888234837844, 0.09489760151226924, 0.052594694445300995, 0.08506875646689163, 0.07345474333477041, 0.043590443781587586, 0.06804747254121654, -0.020488768684818665, 0.02285317941185149, -0.0031282970842889464, 0.04048833605017398, -0.14160968000684265, -0.08649787827956115, 0.04481833048296343, 0.001873179296469163, -0.04800456965175558, 0.04669660958583595, 0.016722104003362496, 0.04774321775733078, 0.018723055228731498, -0.03438033639256461, -0.032058732215768555, -0.0064149123211632115, 0.003047366648122852, -0.005565218407353612, -0.001479863623888435, 0.008224947051390711, 0.01715541264285026, 0.046564229036954057, 0.12713514052569488, 0.0849622592218132, 0.00728551701275328, -0.0021630246505572955, -0.019869408937751395, 0.013476763231304529, -0.03159188765211743, -0.023139582378792684, -0.02975010327496272, -0.05611643071202538, -0.048071640319180944, -0.009566303972988176, 0.04332586891665117, 0.04929261955726802, 0.04825475116599084, 0.08517069374927479, -0.08126242790237452, -0.03614648032038077, 0.01937810846867126, -0.03284679263209447, -0.03639225647089979, -0.0107134965643991, -0.0034121454936935445, 0.0059303902816844395, -0.004103536361402121, 0.003102506121161983, 0.01035207493518364, 0.05458026557150954, 0.11550314766856601, 0.11049159344921211, 0.02501445638919091, 0.017124406724858675, 0.006397968247649891, -0.029366500800935547, -0.17697533033126653, -0.10140790704875818, -0.13891793348441359, -0.06001147904763728, 0.07893381681088457, 0.14185990545993998, 0.1296643716942627, 0.1336188937952896, 0.09178976670916122, 0.03775148518865094, -0.08240583133536306, -0.005085727136093848, 