{"sizes1": [784, 48, 35, 10], "biases1": [[[-0.1923086087322364], [-0.47912049704227216], [0.09273572404402974], [1.093061044658309], [3.118142103701942], [0.2713502667541133], [-0.9265364863518977], [-1.5682316771396947], [0.42634919605468324], [-0.9271731707275521], [0.9575087283045542], [-0.26930696693198247], [0.5437757450184788], [1.066310468161475], [2.499086479757025], [-0.5829319436736128], [0.7241079569581412], [1.1629333776723652], [0.9270368446757788], [1.6710056915656128], [-0.06711165894864801], [-0.7108893946043785], [-1.729542312137502], [0.20571461848849507], [-0.6958344783246061], [-0.8916357636724519], [-0.5988510513172103], [1.4080944830255444], [-1.5765853692639387], [-0.7974432695838688], [0.669772780156812], [-0.8239636150477829], [-0.3563231411367546], [-0.6796320728687362], [1.5087938021405511], [-0.6099209662027459], [1.1420898692195305], [0.2900886170747944], [1.5731972640568248], [1.0901841976154434], [-1.1985027666015744], [-1.6010364583527474], [-0.34678512228463515], [-1.3859928326272617], [1.0097879624296058], [-0.7283766111267855], [-1.0621502732327261], [0.08402030712593143]], [[-0.23777568002643332], [-0.9298700870143918], [-0.6945069179827505], [0.3542226330255512], [0.8620872255852929], [-0.3406553733625735], [0.4625974939435395], [0.3817946396434748], [-0.31884349768428233], [1.1313564688985338], [-0.3382359665016182], [0.6221309780900496], [-1.828974064421747], [0.6509145865870657], [-0.9358472806647705], [-1.0553291697986895], [0.5172026584840503], [-0.4896331997319861], [1.1700346887274538], [1.2856080136050543], [1.3793393312818967], [-1.2071961708843928], [-0.6366209716206913], [0.8349817468557691], [0.2240179621677921], [-0.929775138944338], [0.7440599144958654], [1.0126308046139734], [-2.212949739903405], [2.2568936497436], [-2.215681558113403], [1.0582787458967737], [0.11970372964700737], [0.5126192665386097], [-0.5993824146127755]], [[0.5885487944635389], [-0.3569725199977186], [-0.6201689744722525], [-1.2811589185948307], [-1.7508144084698574], [-1.2120884366744635], [-1.5015343361727547], [-1.154032754826624], [-0.4734932740107301], [2.0245956151794746]]], "weights1": [[[0.002141632527590744, 0.009777250234978527, 0.0037002933840595124, -0.00955218454168727, 0.006242372613270812, 0.001059609933243381, 0.002757862839163824, -0.010877166947531276, -0.004110168217116675, -0.0028567063073960384, 0.005411163769333877, -0.0011441731257088492, 0.0027139421165519747, 0.007836640414529243, -0.0037821846158924742, 0.004051181277978352, -0.00895826518632669, -0.006755722802457012, -0.00549998245687322, 0.0027429556946964506, 0.018503395511247432, 0.01918226885218255, -0.007464291634303268, -0.00787721911263, -0.0020302912734938765, -0.003571264434143027, 0.0023169585231656905, 0.0008249631288931537, -0.011747867079531306, 0.0036262401585367447, -0.0029304093010124464, -0.005684572084958995, 0.00048561226530434274, -0.015865927958632384, -0.004143605846306101, 0.0021799000626974, 0.0016355933012855747, 0.002060748819251771, 0.0013206574303805416, -0.003131874295067513, 0.004538419528240104, 0.010777986971929244, 0.011433891525423411, 0.010661530612100855, -0.018826887837307536, 0.0008349202358756645, 0.011133510304241204, 0.021184460975745976, 0.008548944735005597, 0.022561841512505162, 0.008252616653722311, 0.003372060953583444, -0.0019586037549204163, -0.00117676354776261, 0.005187075849151269, -0.0066135689986332935, 0.0038255405235651033, -0.003154893192569361, 0.002245833698347773, 0.010598603455792088, -0.005404649518678012, -0.001650263634611615, 0.003494251423101248, -0.0018219455692803867, 0.010816381904007789, 0.004650296190022505, 0.00914096671213622, 0.027625149662696323, -0.009068126146895157, -0.021439061357399435, 0.058783276455476416, 0.06424385723028049, 0.03637095334488141, 0.031298801422455266, 0.047466310683536954, 0.05017901130445269, 0.04845203034452698, 0.06220187554037773, 0.031133031130865595, 0.009660716630229419, 0.005278139306052753, -0.004782533580972188, 0.007313166299646032, -0.003023415268292979, 0.0017587758670013307, 0.006454681531418584, -0.024046830133000734, -0.0003683419179524195, -0.005469959643206477, -0.0005257868112656233, 0.00883366277683578, 0.0087196710200048, -0.03626087918425024, -0.05924537296314423, -0.05705040142003848, -0.06254326151191941, -0.0662842630630609, -0.0020345995118089284, 0.13198039190178343, 0.03957606851911378, 0.016804952746987893, 0.04575898823410373, 0.09400570237361652, 0.13117794706057717, 0.17499306460796268, 0.14117471359879982, 0.06586483216292768, 0.023877357485743152, 0.01749972733746212, -0.008583848966221086, -0.0031459060668390564, -0.014402287526714864, -0.002302609954920362, -0.0032992919292886254, -0.00643752679671295, 0.005328437364232294, -0.0017432046785418064, -0.018125710428488997, 0.01777900966943777, -0.054802578409442713, -0.08311726340927518, -0.11147412306985505, -0.07608106773233723, -0.03785330943906023, -0.08032766027619664, -0.05563895077478967, -0.10631530765584973, -0.14597677500676015, -0.10118365193536984, -0.09328022865327039, -0.1136603146759256, 0.06795397345011264, 0.08285135558975716, 0.009368750313876066, -0.07712126971628862, -0.015645665084474354, -0.03481869925675809, -0.020563440954883955, -0.012328424092966285, 0.004635276799882807, -0.0011667700812333843, -0.0009937569623091622, -0.006407962336717049, -0.004066128429304721, 0.021096214070667235, 0.008363837818964454, -0.016116238380247578, -0.08549302418510635, -0.05286530075137249, -0.081047452097488, -0.04588801488042379, -0.11913059573005852, -0.13415868390420857, -0.27212954043332266, -0.2333731820018999, -0.09258788355326464, 0.048095601778422, -0.032160238012550524, 0.012770649261726717, -0.16732264327948715, -0.16521431002137427, -0.09118749290455136, -0.06942820780629645, 0.030164559546130985, 0.02512898394091966, -0.02038407018013625, -8.071212657943038e-05, 0.0008947617558089079, -0.006383491363890277, 0.006246463484092671, 0.010330784105019121, -0.0017660981908300445, -0.015598616823419778, 0.026922755784324348, 0.01635316963020228, -0.06448298365826102, 0.03948656803446325, 0.0064177507542516055, -0.1166631894415464, -0.08022603961769524, -0.02272033029918624, 0.011033361240475305, -0.0582522436975951, -0.01298652342862505, 0.00431554150526942, 0.07798151589708706, 0.08940610633451698, -0.15978173453158906, -0.1674388217653798, -0.08146392353972443, -0.0688830873993616, -0.047140980481219716, -0.028257642925315775, -0.04891755560786797, -0.0180998934399079, 0.004061938372265039, 0.0017265093355881657, -0.007847268643716768, 0.016276970902791874, 0.006711032168681061, -0.004310018729053125, -0.08007902618430959, 0.022822727591133223, 0.026190284800959862, -0.08164913176981477, -0.057582606884814216, -0.2792269647498266, -0.2810086165397298, -0.09272687596279072, 0.13030640955164466, -0.025141660655932704, 0.00550107701524881, 0.032752833324271424, 0.03205058026471108, -0.1158574597614618, -0.36884406239624423, -0.2961614259820484, -0.19312973469974368, -0.10424785690625317, -0.028463838457087904, -0.0567523007682048, -0.04226847186462245, -0.048783615899915075, -0.0035403371492792645, 0.0006180371056400179, 0.016177099573591428, 0.023705545511241963, 0.04028556728996052, 0.08729734123500824, 0.049708295476842565, 0.014419006245549959, -0.053356435231589734, -0.11780721227996271, -0.17160169162394023, -0.07534747111997098, -0.03538462290593651, -0.11339548477859046, -0.36820197146347855, -0.027545251857836236, 0.15245142224933467, 0.08208485110151964, -0.10090766721263346, -0.20881981072087244, -0.4354593417115986, -0.3433365431298114, -0.2274252982106252, -0.22158697903630614, -0.13121572531479583, -0.15156086683098086, -0.10954049850274868, -0.030127761143721427, -0.009243475597559624, 0.011503598154856562, 0.01456326717635028, 0.05407419984936469, 0.05518421110639429, 0.16304912739990615, 0.04751382825182779, -0.012307264015738029, -0.07284160049785274, -0.10867662798000009, -0.1452021149718475, -0.13654663734546288, 0.022618750823853943, -0.01399921514615114, -0.12468137778471712, 0.16882526155504965, 0.27897588512574883, 0.27990938886303823, -0.2377510604291719, -0.2524402615554227, -0.3372831766051422, -0.23538105585262717, -0.13591575951041063, -0.21457409140231212, -0.15187147325757508, -0.19102760422903597, -0.047046582467229994, 0.04130104870534976, 0.11157789916371673, 0.013325270521857646, 0.012079002257917863, 0.05336705481331737, 0.05349105854893264, 0.15511363291461414, 0.08072383216690605, 0.034542235100630425, -0.11179510888426025, -0.03957338039037609, -0.1840002382654979, -0.3025720814386872, 0.033664928777695474, -0.15380631996929126, 0.16112749967351067, 0.32465652100803516, 0.1767487259172665, 0.04264836474630828, -0.396529763609833, -0.22336779752862287, -0.21890663724652015, -0.1809343197942117, -0.17047752881782652, -0.1513277934106991, -0.1320757863721917, -0.05670928649623448, -0.003547119730179056, 0.03172617932087405, 0.023130995116821342, -0.013044825213181092, 0.009245228160798888, 0.11359839474921474, 0.1067452432509009, 0.18593222879019966, 0.15423514303479713, 0.024888935609968896, -0.06590872899231098, -0.14326137592682248, -0.2544413007955221, 0.03254638232254238, 0.18607087207383233, 0.12595248223395608, 0.3639237015034619, 0.25642164353507385, 0.11882952997908494, -0.15676429090021585, -0.21292276224826673, -0.127473087677256, 0.021412957948059117, 0.04651226867376428, -0.03294891797460828, -0.1472171977590684, -0.2456163807267675, -0.30911688288557865, -0.20737673684843141, -0.06869705633848017, -0.005198619211915248, 0.005169553788733991, 0.00989395179871793, 0.0692544579215348, 0.06149534430636471, 0.12029374310418861, 0.09116685159827485, -0.10853195213489115, -0.0612958531124568, -0.11839822079111613, -0.36728162192253766, -0.06336784885275852, 0.346951348230759, 0.29639609670251194, 0.2708687124835496, 0.057619340190173444, 0.15417384389026934, 0.07297990921551392, -0.20496622311348334, 0.011040308145445248, 0.13764991852039304, 0.15471819908740705, 0.09051964622673357, -0.09793861933477101, -0.22355404395854403, -0.17331033159609074, -0.0749261110474766, -0.008401154342084537, 0.020652817218239937, -0.0054336296779780744, 0.006339153222958148, 0.02955272962289837, 0.06949126564530664, 0.10911734288530132, 0.05892867592713545, 0.0022712048698337196, -0.1520034753305641, -0.26077216958771043, -0.24888573993978547, 0.02740265300147993, 0.20212098335956158, 0.18547843248179688, -0.007047400885684663, 0.004440810035645485, 0.0679788534068102, 0.05624299122744179, -0.0486493894091837, 0.2676815975662836, 0.19557648505525457, 0.24756481765439353, 0.08597000202045062, -0.08796621295726607, -0.12212629340850555, -0.14703961058282397, -0.03249645427902326, -0.027429946843278118, -0.009867079629190232, 0.006953120875860252, 0.007575164936141695, 0.02645978037471977, 0.05574282192066364, 0.04805284342797635, -0.0315658061392605, -0.11765504556951557, -0.3133666881592052, -0.1103286791171491, -0.025598287104823165, 0.15108815086932073, 0.16482501711018469, 0.23514982183079883, 0.06474064012105363, 0.09341487406278724, 0.05893424708538201, 0.007798379873382117, -0.13177249399585222, 0.12212453922708574, 0.2999527299707796, 0.151933200822741, -0.001913664998438433, -0.01635557816089949, 0.02529940610791881, -0.17307390916808768, -0.07638039185866827, -0.027313968567814633, 0.001333431461492049, 0.006088247210389174, 0.00863371564727827, 0.003930688211466314, 0.03177356052217538, -0.025953757178950626, -0.10302015566361054, -0.06998623909428854, -0.1835523141236611, -0.18932713068075868, 0.012623430728237989, 0.17019861237891185, 0.15150777106947744, -0.07358394833133683, -0.110515001636156, 0.12777755107920669, 0.17594867922235033, -0.19585836932628212, 0.1191051086310199, 0.17739149183208242, 0.20872386588884112, 0.0994991490579257, 0.05262123763836032, 0.07397804395933315, -0.02784005216936581, -0.12447473297414538, -0.11691756928275643, -0.04361005470361971, -0.0023270426282348674, 0.005480997653043064, -0.006588763628378761, 0.003333324458701566, -0.0011988202001221675, 0.017462243622818133, -0.06973466316208497, -0.05403951204196406, -0.0371160296022796, 0.07645460649212132, 0.13490425722460692, 0.2578576949688417, 0.14067882476635024, -0.11789793250768202, 0.0756643888675248, -0.02763936445089305, 0.0670912866317714, -0.06123382085049092, -0.018662349701180986, 0.08750486405589077, 0.24755129073795595, 0.10798519695902689, 0.08150494547835982, -0.0038216242917137985, -0.09145226798037621, -0.103317023906997, -0.14295815906098197, -0.06126634416595955, -0.01558701888168858, 0.015736927927632406, 0.0047907469457897115, -0.008490662982690774, -0.03134932025583252, -0.02844212949309546, -0.05346561389516469, -0.059072335106863376, -0.14060244799078037, -0.0745567235784142, 0.09208556240741814, 0.13456440012656645, -0.15435548911562816, -0.24055604290771324, 0.04869096600132169, 0.11782313291340014, -0.14698331809283852, 0.04291140223782848, 0.17492486344347907, 0.10043743182908922, -0.05812537542887163, -0.02950598504068839, 0.1081299321394274, 0.03323501436097354, -0.023178966264317404, 0.028548888610940657, -0.04522227291929907, 0.00500266107561779, 0.01097180417925435, -0.0024490517387972524, -0.0029123624086620716, 0.0038248547233153346, -0.04043199126831453, -0.05185505790310136, -0.11845577545918298, -0.1990307703559444, -0.2161445845410219, -0.21138046668732496, -0.17001956952834563, -0.24822340011317548, -0.31440992111862986, -0.13696919373019775, 0.1493084016675063, 0.10199166367549402, -0.01975015795474877, -0.028769978799783102, 0.09407625185720699, 0.006173771731552002, -0.09072575069711375, -0.1758192085955429, -0.02797299481239437, -0.1328497256327633, -0.16688725505936622, -0.09311841072173195, -0.005520440281626116, 0.009268690382112714, 0.012179961606017664, 0.0008002475921686936, 0.002274023191462245, -8.605592521054074e-05, -0.033761427886234326, -0.04823065628019575, -0.13047929262994498, -0.14244469986800457, -0.13940830264549814, -0.15926799099783143, -0.20396691720132373, -0.34200571372731314, -0.22522976035292402, 0.10284408933665834, 0.0869484563808011, 0.07951030869780534, -0.21408979193221458, -0.12781165494448607, 0.011121756346042583, -0.07220594124892758, -0.13179369667951027, -0.2272670539305956, -0.28126794510927466, -0.3386663735788731, -0.26882175133952946, -0.10073149240273449, -0.028081230805570682, -0.01234543159711854, -0.0033736759944682907, 0.00197680311288041, 0.004955384976921345, -0.009991860023059965, -0.012236810969966826, -0.05995433633329232, -0.10478267260385732, -0.1145814424723262, -0.13222544941111553, -0.28168542623639026, -0.19360396578472483, -0.3723659144865252, -0.2412835493989892, 0.06532102231513799, -0.01171363156892427, 0.19824624115987674, -0.06602479376207226, 0.180065884658808, 0.040717980121674886, -0.1716991735236547, -0.25746320690122965, -0.27616727198510066, -0.24570841749464328, -0.21154376652184245, -0.1881862895554887, -0.03580114567680178, -0.01867023439960649, -0.003239924858402801, -0.0028104101309003077, -0.01663909136350212, 0.015477615461817477, -0.0007760239515797702, -0.018007396403950455, -0.08243907951940369, -0.13131658799324503, -0.16595867573260495, -0.2035917470164484, -0.18080579938276253, -0.21122781132042578, -0.2046953363178063, -0.1773216191106975, 0.05215993784301032, 0.015661883528830148, 0.12541010608687586, -0.11267368282181553, 0.3152082588218319, -0.014355278856934245, -0.18470095808706677, -0.2517012243276554, -0.3288749091246468, -0.20703154163965884, -0.16615206498035026, -0.11870833387419799, -0.02542653924434283, -0.009912991500933874, -0.0016767659529832242, 0.0010007344737396, 0.00025233485523856345, -0.0074590201854813, 0.0019128866782095542, -0.03566799236992783, -0.04816064736427573, -0.10775823732441764, -0.18553372946670088, -0.20985192858817445, -0.18634611445555818, -0.21961148175465542, -0.14273004668481504, -0.2264509006803439, -0.07835106020047093, 0.043261438453537096, -0.005183211519480491, -0.021784334006356883, 0.12549759079241235, -0.07653716463334688, -0.1837292328638916, -0.09914837649398651, -0.17318678908422022, -0.15184211491493116, -0.15029364942896473, -0.08017368625328618, 0.00034241094861843475, 8.30799576572726e-05, 0.004830980112256456, 0.007589138138843042, 0.0013075055537509555, -0.008257423159094087, -0.0016598306141418731, -0.018532482563098005, -0.040799108961089604, -0.08793725282280053, -0.12177119109590821, -0.23514207648858781, -0.24853557205998697, -0.17478892022487597, -0.08406971133254298, -0.04151569341776796, 0.08478013488083198, 0.08868633426061127, -0.021007921959613315, -0.2323665948539538, -0.1509345693525243, -0.08061538702133338, -0.07769943361546443, -0.02365398779553376, -0.08683164683235316, -0.11549132800731272, -0.10562790186926085, -0.06714619452238363, -0.0077741139071367035, -0.015044895880499894, 0.01299563502930907, 0.004128417433096053, -0.006543805953304937, -0.007509180981367117, -0.00196659924707628, 0.0027060098367283265, 0.008701288101645499, -0.008442979243458227, -0.055988919910766856, -0.15331544173927522, -0.20851363538207926, -0.1945986248408835, -0.0701046647349802, 0.025180478686482814, 0.02095716931665398, 0.17815905281000563, -0.0762812490076025, 0.014986243393537239, -0.02358748914550696, 0.1431343277115968, -0.059163933414743027, -0.02312798556216002, -0.023082868355560292, -0.09067831932377121, -0.047918128232401914, -0.03292977284304356, -0.005275498556145313, 0.001872472745909698, -0.0035370192082029243, 0.004666199415413587, 0.0031343142167371604, 0.005679379629438474, -0.010833611980220228, -0.01096244098362655, 0.011953597071836445, -0.02289896482577681, -0.03825040084097779, -0.06320329960261938, -0.09592298960282825, -0.08261605419832309, -0.10630448553063165, 0.03945255639582505, 0.04675266142023801, 0.09091864889664622, 0.11924223067457598, -0.013651424812171022, 0.06943761799247568, 0.08569735614068238, 0.028897828859071783, 0.01578268987764325, -0.040911522051100165, -0.06520468036759085, -0.006270410838043627, -0.019179414282252158, -0.007516471240074687, -0.004376325648655428, -0.001446244921158425, -0.0021667241697704335, 0.002146291570291411, -0.017739142779478526, -0.0009579458062838542, -0.004390430290272351, -0.011558973570988939, -0.05469527203249724, -0.03414059796475001, -0.015107010654387455, 0.02317659916539185, -0.014372898083939063, -0.07906098833397086, -0.15335042231624585, -0.031176234716773703, 0.05743159039194157, 0.04027510388323976, 0.054652223023035254, 0.05576200862405085, 0.022389981602256543, 0.04625183581768611, 0.07304456704793509, 0.013856163390281544, -1.7940135726182962e-05, -0.004410248927823838, -0.005062389175048292, -0.0018404572921229116, 0.0036814964756877386, 0.010335748811487905, -0.0063653136651173215, 0.007633008839225508, 0.003179721000818452, 0.014956246652125298, -0.006764388090885598, 0.00552925842832725, 0.011458509303218043, -0.015269303963139792, -0.0048567936658367545, 0.003348742135617067, 0.00499608196073124, 0.02578543657661183, -0.0045233287222336115, -0.008968755066004992, 0.008920727100924179, 0.004614274422576658, -0.019267522391085597, 0.043511926949158085, 0.026632716611712928, 0.00519808294639418, 0.03830623858777747, 0.022844243596787373, 0.02971979737878504, 0.006325127440431602, -0.0006529658336436557, -0.00147419828070954, 0.010402415662595066, -0.009378304842228359, -0.00042071324903225626], [-0.0014200193470129351, -0.00610300907395853, 0.005953208894758848, -0.006096321541931817, -2.4272344983663002e-05, -0.004749085852976654, 1.5649412956878147e-05, -0.004112306049053615, 0.0026721898373893217, 0.0010927553005365854, 0.012078246406480525, 0.0018799797045880387, 0.005287547293971157, -0.0008679085732381628, 0.011877533824045088, 0.010412686443963768, 0.00781520607468074, 0.003418537656921942, 0.006605180475065672, 0.001154175036584591, -0.008588047155378774, 0.0004512284111303885, 0.011544251898806222, 0.0008654749452589182, -0.010373086178687737, 0.0073715691511906396, 0.007718669659890032, -0.0009024362189349791, 0.0030343436432333443, -0.0004540645042740105, 0.01300008501878956, -0.0029416449073841676, 0.0008539497694085435, -0.009509209510934787, 0.0027513152264999237, -0.018036128222346164, -0.009822590713615232, -0.007364533588129963, -0.017043511222377062, -0.01339992598181778, -0.014536191613984586, -0.02112273653088733, -0.013630271493887233, -0.008063695782891619, 0.013567000931541732, -1.6636437370644088e-05, 0.0006921224448267673, -0.008093758354675528, -0.004559926956228721, -0.007689972515243299, -0.012541378650544555, -0.0004974727736169598, 0.011378442967515267, 0.002230127434237024, 0.0038531264884663218, 0.00710200262822627, 0.007320634713500742, 0.0005332492224049041, -3.569089456248225e-05, 0.004706522674433048, -0.0016386896812336472, 0.007325072304327713, -0.008451709153307492, -0.007746014517737889, -0.010908083687740107, 0.010860233856075197, -0.021360244308132617, -0.04313477940128845, -0.03760540969466926, -0.116496355105192, -0.05171240003508661, -0.027331380718285253, -0.03749230826401237, -0.04039322344152436, -0.06575004121092416, -0.09232887839791591, -0.035042445303028295, -0.042602186007070164, -0.03485007528267603, -0.007883489483150895, 0.009823976939198958, -0.001822008174302021, 0.011611426470557282, -0.005358049856896641, 0.004624004582664477, 0.005876605264716004, 0.0052264725223868215, 0.0013092058925261356, -0.0036453347813811547, -0.0034721985379237708, -0.025083403938961257, -0.024427763672439064, -0.01138639036901253, -0.03312144770289826, -0.07984829286374792, -0.03807267770866136, -0.13108176326857834, -0.174345101825371, -0.06844912862276589, -0.07469406824769001, -0.15815605559026905, -0.1587864882378901, -0.23445539267632307, -0.1360701354822486, -0.10922665075267649, -0.10080639087622652, -0.028226119234354783, -0.011559903962101352, -0.0020601800531910856, 0.008382606238934042, 0.004795426067693597, -0.0012545837595505796, -0.0013510279577990073, 0.0038745817412818287, -0.0036137447125327046, -0.000578971132818504, -0.0077664770668891825, 0.00946554568998414, 0.010723575560805053, 0.027736162009728102, 0.028404256638211924, 0.05759146428728607, 0.07525411317894376, 0.03773422976967457, 0.08526962010074601, -0.02240768495555391, -0.1170775343589685, -0.22712716635198565, -0.22357344893985454, -0.11587724779559096, -0.09729147081494896, -0.08887607875833736, -0.08263681706634923, -0.1082224312943294, -0.05173070570776876, -0.030392797743514808, -0.030077963933390288, 0.00156836632425153, -0.0005946621837473856, -0.0025561269173449697, 0.0012827149975610536, 0.007298146512528595, 0.011419067926370452, -0.008015794795184253, -0.018707842528288148, -0.01935688539851114, 0.03650856390664673, 0.05744986771817638, 0.11835176584617547, 0.07185193585080357, 0.048030758031685994, 0.14796765479111762, 0.09320558244009128, -0.02692019931046544, -0.048337922486443446, -0.2258479687913067, -0.07082199661546539, -0.04066807853263308, -0.005239335350377111, -0.18121264436262624, -0.11436225866314076, -0.09383949417150579, -0.04715499365925768, -0.035147741854897045, -0.025739287834344652, -0.0021715824674248415, 0.004922594198835521, 0.008707927523609507, 0.006806438761892052, 0.016966681666160874, 0.00803773318143262, -0.013672591717884732, -0.050696329924977294, -0.021182163512764633, 0.06822957646212605, 0.07193582068333186, 0.1141300543021844, 0.17734017724891837, 0.19146266653954067, 0.06915797654903043, -0.08288389541126842, -0.20330058489709943, -0.1934616919280766, -0.2503825866390202, -0.15489370327935703, -0.18962999033423533, 0.10861168697892581, 0.0646468740389239, -0.044570265653932094, -0.07194501590919218, -0.003786414444571359, -0.07108507563391077, -0.10287075546052593, -0.03617038417976715, 0.010796650176391734, 0.00661571396391379, 0.007943935488695304, 0.002710162905594463, 0.018745446712127856, -0.014815233946773988, -0.07839610149837975, -0.048194027799324184, 0.21001871840820155, 0.31704574162078447, 0.19144207152335227, 0.23985213261884583, 0.08710576189359179, 0.018376954111237916, -0.026257296424687437, -0.057293058731674826, -0.1751734502386761, -0.28708141737130377, -0.05022214968505218, -0.06854448528757892, -0.14952851667884307, 0.09764629728913116, 0.06058947144324086, -0.06519057878273264, 0.003627278905597492, -0.06741541922992532, 0.016449615723319967, 0.02224701812575946, 0.01206516219326214, 0.0031252995310231506, -0.009645062906857512, 0.0049459519715296055, 0.018516704966240617, 0.02332905405009825, -0.007203581792201795, 0.13762745477998603, 0.23609230423709957, 0.21269269924525955, -0.048612201643693724, 0.0941748911512817, 0.22385694328273378, 0.23736857193998964, -0.06338054554764617, -0.11296438377010269, 0.006999000417219994, 0.14437665436866884, 0.02630437432224956, 0.0329659970965402, -0.16537666056415914, -0.12385337275531702, -0.06331181479659052, -0.14714219808768003, -0.09262810745643194, -0.04862966046216041, -0.0326107216005297, -0.053573086859474636, -0.03954548090127837, -0.00941874787216463, -0.006248682477759832, 0.0026687920433098164, 0.016872060962751456, 0.003071013394695675, 0.019681826239175835, 0.13275682047438828, 0.05500751529155482, -0.18997709724773792, -0.16476372873614337, 0.04350102735251857, 0.0409460374462948, -0.044260451324096964, -0.11147271630495549, -0.20200685403892696, -0.023069806874928118, 0.23895797032701135, 0.28708975953071736, 0.1642450775602747, -0.047739932152755446, -0.28637207429594214, -0.21837388270399788, -0.14168020389914315, -0.13979974585274224, -0.1993907430098034, -0.1195718169732811, -0.06883881275993695, 0.0013010226857219397, 0.06418323775082319, 0.005481117722353121, -0.004640631366216153, 0.012089354656639037, -0.06033247149447082, -0.059818541208139384, 0.09783835376991211, 0.10776318494538631, -0.10084890826242086, -0.11599765882647832, -0.04281451283847288, 0.05413472687972834, -0.037986276983867875, -0.22119297533887333, -0.3024390300061123, -0.21069536730776536, 0.29443641462789544, 0.32518637026142494, 0.3799637738129765, 0.18328262088913036, -0.1861520219065159, -0.26356278580580356, -0.0699262985847539, -0.19219833468387298, -0.21478734585218862, -0.11897257782437147, -0.033484227994703415, 0.0012929902464235113, 0.005924472608508683, 0.00379470437266716, 0.00860834498304194, 0.01127668356829992, -0.043401847708713207, -0.056184589485064544, -0.03139446273537797, 0.1428473759524534, 0.15814444480954615, 0.12993048579614355, 0.015484234183350348, 0.051168418848206394, 0.1084210465930167, -0.0693260227900735, -0.3580313911244269, -0.0672635109116501, 0.1681804453117035, 0.3502159882339362, 0.4411240394623847, 0.1521212249802235, -0.1755151079544403, -0.25244741225437295, -0.0841349497484743, -0.11169194856337411, -0.1778843517590546, -0.22891167443862015, -0.05228252820561996, -0.06669527345105342, -0.006196295196947702, -0.0028869976335046967, -0.004423785776728832, 0.016197126150364304, -0.0021646199495087425, -0.06058958425213542, -0.07140986550124886, -0.012983109710840655, 0.11810490051893918, 0.23833361557737118, -0.12494947420924762, -0.176349396718687, -0.11850906059502653, -0.15314691272205191, -0.3218161676098143, -0.0846215425492676, -0.02622691352109853, 0.36353567573265033, 0.42109396831655266, 0.09890665439253331, -0.11371677457743601, -0.2753452082311012, 0.023763452445059185, 0.06498113111825222, -0.15736801520963797, -0.018017304392233476, 0.09817329664969121, 0.02197807097826911, 0.00851941192823498, -0.006754554876440173, 0.0013402790860998993, 0.01706866678061263, 0.006432975083709898, 0.030362205008908513, 0.03339887241171362, 0.005398729782975339, -0.07974696662979953, -0.17680907777860522, -0.3208585788528084, -0.11270301113917475, -0.1386265263558817, -0.3040301362525316, -0.10214894648649785, 0.08178902514152545, 0.12246207420817087, 0.3408415687325902, 0.3623941482574403, 0.04552745832479897, -0.39246653026136763, -0.17824465224631428, 0.08931705770049743, 0.14437503934561563, 0.07316301450351298, 0.024493917148155256, 0.10394590680023665, 0.02839081560681394, 0.013738520275081328, 0.002263594312131872, 0.0074560333255686805, -0.0036882794775992475, -0.012644817604341732, 0.03752042147690341, -0.014170491229710654, -0.025295762065777074, 0.032538721559842505, -0.07345321871153333, -0.15011515085518506, -0.06648909727725034, -0.027213479009570427, -0.20890567023219508, -0.013365478772021273, 0.1602284295147342, 0.20792603473638901, 0.2919614048104643, 0.11792540083785648, -0.23551216591972904, -0.19069489587374586, -0.11439243748274681, 0.042914883462047936, 0.11053133660636695, 0.184259207871366, 0.031202322494599113, 0.06231124380581139, 0.024134204499666016, 0.002097598584355447, 0.008393829170421863, -0.011679887843659167, -0.0039126905885017915, -0.018522585382819586, -0.0492195139017337, -0.09053616923397807, -0.09093199569688626, -0.08265230613392853, -0.03327613466457064, 0.05903051927352875, -0.009448150874185582, -0.15406406391904576, -0.03632562914305753, 0.053407613347117064, 0.19723458247152112, 0.3403019871632472, 0.10549086551544058, 0.14908960817004507, -0.2865617156700885, -0.15029942174834335, 0.054953153534279674, 0.009553451580987532, 0.03143783213196754, 0.05427005323987304, 0.006872195088064877, 0.05644887867943978, 0.061343067649578795, 0.008717158408390428, 0.006025415674406254, 0.0008598117173793875, -0.0035798289742862695, -0.003190025127253373, -0.03381380339332205, -0.13736695156560239, -0.19507568047256615, 0.07910622465493887, 0.08684127324893487, 0.005590047246235879, 0.02599157563841644, -0.16504455225973805, 0.10151000101160458, 0.25322065759379064, 0.2289783534003599, 0.11224163362494731, 0.15511104970049253, -0.007794611213158942, -0.1522889546110511, -0.12163305010795493, -0.01136259824090674, -0.05836766105212703, -0.06061621667797884, 0.026898080071940413, 0.020603139013754854, 0.07698346984244524, 0.05233354593671752, -0.0014381261247531673, 0.005010189913941845, -0.004997221013614965, -0.0074982040947819805, -0.04190752890263708, -0.014166790144539214, -0.0789291529636234, -0.10556450234485651, -0.043753396887389974, -0.11691225810720128, 0.012009290615863482, 0.03418573728633103, -0.0019153068874644106, 0.3747501312605583, 0.2234872401331135, 0.17887136473340617, 0.10442047992840599, -0.025533881519124422, -0.19406733265619838, -0.028506213315344645, -0.17145574676634687, 0.016234530042235396, 0.004597199774182723, -0.07476604505510831, 0.010303418216578219, 0.030079379392531986, 0.07036572142999324, 0.030297937044293965, 0.004747599536114946, 0.012154851794430238, 0.005509598194255717, 0.0024233549172175146, 0.017879550244999962, 0.08582762927477287, -0.041094471857968745, -0.04248241089619076, -0.02642310875650774, -0.0621234945489105, -0.04971755672301969, -0.0015456896798571448, 0.2888544494728243, 0.4526066764961667, 0.181284694737705, -0.14632402590978866, -0.021385369956799464, -0.053338238837369, 0.17165295390801397, 0.2145125148314324, 0.0933004338415304, 0.06981167520928082, 0.059737311486924, 0.0058558048827332225, -0.034190796866411556, 0.11495892910934453, 0.06297929677484972, 0.048376413587397686, 0.019030570527902756, -0.003046246602991068, 0.0024288401569166605, -0.010308873794046169, 0.07114522582902888, 0.09818881954422103, -0.07439023324853677, -0.116115545520753, -0.06746259389614424, -0.12449491817871307, -0.08893856240328349, -0.08061698542289901, 0.05477275566580666, 0.0853615133944568, -0.022819427966027487, -0.2938277781771372, -0.13236421041705224, 0.01012950716846924, 0.1592726344908625, 0.10810627315299795, -0.06616226535232486, -0.037832088534261205, -0.05894958490150302, -0.062029861465761726, -0.11202052910025968, 0.007385149358341841, 0.027813385014726813, 0.019969669877719566, 0.003043173745289529, -0.003884149046660836, -0.009324827567940043, -0.003648269372309146, 0.056948394813458286, 0.04197998160535792, -0.10768018432875746, -0.13213462023789188, -0.09892932420508901, 0.010609102252042854, 0.09342202227910329, 0.07668423595435314, 0.07019625206480383, -0.06114214503629653, -0.1258107360022237, -0.19094988200496246, -0.30408701893118906, -0.1397799670290338, -0.04139421165379456, -0.003197122715322783, -0.2036962285186761, -0.10602268474018568, -0.08314335606093996, -0.14410410148071545, -0.07287382799782564, -0.03154040954193082, -0.0204190577047845, 0.0005812004199711942, 0.006225129152863536, 0.004630564843725779, -0.001980798420811799, -0.014475281737260141, -0.02383312302154667, -0.013674030502626416, -0.06026407432472475, -0.17935698347242826, -0.21348641559602463, -0.04000797690331751, 0.15680247868840144, -0.00581792754620423, -0.11934074986860854, -0.10155569346722747, -0.1920638978537067, -0.22387233740542634, -0.3875417470547161, -0.1988186838293277, -0.07906029912842513, 0.1195896107999184, -0.0584470386013923, -0.13417068183355077, -0.021400295408044383, 0.03145276785117356, 0.07137015134182163, -0.013831299671569021, -0.0011387995262487276, 0.011302828780236621, 0.0012398443050840842, 0.0012452971804544168, -0.006201296192899479, -0.006327910407722296, -0.03014703801083016, -0.03565889911447511, -0.041842678432543134, -0.1127230895204668, -0.09982659823699168, -0.041182209642278686, -0.04141856014648905, 0.05817296903930529, -0.020151936040143457, -0.04187675165807222, -0.15542775441728038, -0.1600801429799198, -0.3479069236722027, -0.18375516891423443, 0.07776930865905757, 0.1547199983440022, 0.061240471369862576, 0.042426244792374224, 0.05137260423485419, 0.05271371622958753, 0.02949328831187154, 0.04467484207369759, 0.01606673564049246, -0.009170053382515388, -0.008887309386854654, -0.002311310228105268, -0.0006690474140958431, -0.011137744057486557, -0.04471971567383759, -0.059363961423315126, -0.08457483009657693, -0.010536218340026226, -0.04201359838353227, -0.1892841654499483, -0.07709548644257438, -0.07721029020382633, 0.05685899307166693, 0.08993621842426837, -0.009862723074596572, -0.15963881522029735, -0.1262300187604964, -0.03609172483985367, 0.08811691081362731, 0.1601502269576948, 0.12006813683114641, 0.054414813212877486, 0.1395700322811554, 0.0007655232719694078, -0.04363715679632673, -0.015221373153782143, 0.004518499817150547, 0.007796985531525933, 0.006127772003802264, -0.0010312213345144352, 0.0029379136482998868, -0.011129984559873244, -0.020895568266062484, -0.018185300313724097, 0.017835405495027205, -0.015884187378743118, -0.1703214654608355, -0.22156428633587155, -0.260466160597154, -0.2674065557733974, -0.20323011731957177, -0.1829962212700788, -0.027252749348404142, -0.13137264604144372, -0.04386859061560736, -0.10282527775225961, 0.02754767130418782, 0.1348587525133624, 0.2107377298930103, 0.13141067603102216, 0.11736592756918725, 0.017418244812223753, -0.033737270971573315, 0.008884625455993791, 0.004797059841921794, -0.003720382789808709, 0.007637719663587388, 0.0032472089653276144, 0.004086735097999566, -0.007254954250382221, 0.015130118649260366, 0.06361519109419073, 0.057913066622605376, 0.046502648390708466, 0.020663259318765594, -0.07850780457464905, -0.18530938417665185, -0.2621662333261009, -0.08955343232877348, -0.21557301909436194, -0.17143053855312745, -0.06210307616207753, -0.016186743070818597, -0.04856525016651401, 0.030275202708222104, 0.04828095874391129, -0.01902154270375272, 0.004247650677164363, -0.033933427486617894, -0.012932270445878644, -0.028434707763514266, -0.015096042610053872, 0.0003478891505376044, -0.0034486426878766498, 0.00041659797448832385, 0.005199435058867587, -0.006025467334629182, -0.0064303180260825, -0.007127213809303615, -0.012203256882528402, -0.005259973028768717, 0.0028118703057063888, 0.024831714011734462, 0.003904064562419117, -0.034500567511384694, -0.06422719259065235, -0.073849499025263, -0.043718451056975624, -0.033514177198371, -0.0501688265853465, -0.09550458779357122, -0.07366284088455263, -0.07351101607838996, -0.006176300650564077, 0.03387939100378867, -0.03350716221490461, -0.03522540019235686, 0.0032969251541377247, 0.0021079745798298173, 0.008888900866790719, 0.008243250867850408, 0.004833872764537101, 0.009080307855654179, 0.0074055605105099245, -0.0024254366212302235, -0.010054641919615604, 0.0014968633956902256, -0.0015193162909643732, -0.0015167314672597557, -0.003123145781059379, -0.003797589204827223, 0.0012723504170468272, -0.0031486386185297505, -0.006319353209545627, -0.008814815192697046, -0.011535168466721733, -0.009012550153411333, -0.025519424234362913, -0.0484429688984439, -0.009910197075540169, 0.014171925919535413, 0.004636399703830966, 0.014006149955909616, -0.0052957722735342124, 0.00685874975199359, -0.004770999480787127, -0.010340079608528896, -0.014661514534947838, -0.002243489570715446, 0.012093540643852506, 0.009177885887455989], [0.009097083922596243, -0.0041091624977708545, -0.00014055597950618257, 0.004301340047112608, -6.746383615195754e-05, 0.0002996141024715567, 0.00021680474046022853, -0.0025248497315932534, -0.005033265029951494, 0.003964679500181081, 0.0007284603159958493, -0.0014478065801801208, -0.011787579362594598, -0.008786674091984803, -0.002883658222786041, 0.0075254383012366, 0.0035694944490589704, -0.0003573552008912377, -0.005634253965400081, 0.005441838760144727, 0.0015152968330295836, -0.009196633048525636, 0.0009656907029531594, -0.0011976711242628866, -0.0035474133311614526, -0.006636253398560298, 0.002140779839285624, -0.0022664606877006274, 0.00033351697091848294, -0.0016466760271080037, -0.0013242550623344075, -0.007458772762609034, -0.009077590186214197, -0.011485210747198365, -0.007345552132755162, -0.02988305746964322, -0.035451569436811485, -0.0032227210249940034, -0.0043106962592519525, -0.014069805680381686, -0.03700373693765856, -0.016227573142244194, -0.018417923023875803, -0.015968032336560387, 0.008280484447935908, 0.005001215076364142, -0.04316194706207928, -0.06925170809217794, -0.03519668526687803, -0.04648665893824272, -0.015369324509544003, -0.010937598929136608, 0.008332417267277516, 0.00484528128673125, -0.004569456816453858, -0.007757755728114841, -0.009285645750243777, 0.005995864241267083, 0.0017411189265927592, -0.01056129980712195, -0.009429197628562971, 0.0023694909696485794, -0.027726748567385367, -0.031014316152788372, -0.05600172541265439, -0.03664039643830448, -0.02928945854287599, -0.035474321933169906, 0.010427670258332442, -0.013688056359303018, -0.10145782521466086, -0.06083801061875459, -0.0662103676721666, -0.05342455183411406, -0.09127692846588438, -0.055310692256737626, -0.055243444962454195, -0.08737678603801666, -0.06230783709421428, -0.02382271715025847, -0.01014701376938444, 7.018817975921428e-05, 0.00032042973129800073, -0.0018964618324175558, 0.012008518994943262, 0.0012226411040336736, -0.006569593278187388, -0.005189637883450106, -0.012770848757807488, -0.004086686792676731, -0.06378966653159278, -0.07546777591333878, -0.060682604140301376, -0.0893771786519919, -0.07278275066614245, -0.06946915333431966, 0.032368181407285694, -0.007140115649112596, 0.008540401856619022, 0.06681546818171406, -0.038366304321063124, -0.07523873626231722, 0.033584711855527256, 0.0018916910523770077, -0.10267264498220013, -0.07481389939859133, -0.07588227459553214, -0.0617824486723467, -0.031026981528643485, 0.0015110810549719262, -0.0020216142677785248, 0.0034938587034940263, 0.0011593347942932856, 0.0006477550885861081, -0.0009561138506923842, -0.0006809793031042328, -0.014280366827772478, 0.04731354717090005, -0.0007109386245298481, 0.01543279667540542, 0.03478025006252132, 0.031123509543843773, 0.007034017230156945, 0.05897225548596564, 0.14816757757367016, 0.1105388920384882, 0.22004564670764998, 0.13066877771168692, -0.17974447898792267, -0.2255544486542769, -0.03814999495098642, -0.012333554186384, -0.09517411485415353, -0.09256988492255892, -0.08084179754486605, -0.05087479530242159, -0.013935591272909297, 0.006612416894907736, 0.004027494055768043, -0.0007789337189242589, -0.01333132130935043, 0.005886936646038629, 0.009139317687898683, -0.0012149637121086575, -0.009015814856362093, 0.09880515291466369, 0.07842146299854742, 0.07929230707403263, 0.07205462407008938, -0.01995627510262471, 0.0018953852740783775, -0.002516000368364014, 0.20634117152495546, 0.09958233557725765, 0.06588028000474146, 0.03754601180234336, 0.044233966520018694, -0.08125507982105666, -0.06342599320409109, -0.1556654591772967, -0.10659641940199081, -0.01308457268050238, -0.06385119956359925, -0.08316383485334208, -0.11317413921155416, -0.035910022313124214, 0.006613888982902462, -0.00707464157849584, -0.0004427379785804601, -0.0011690357407133157, -0.009106417614726463, 0.002037631589913441, -0.028711189887907877, 0.08729874641233999, 0.11504291549443789, -0.0037314859923051, 0.029656007271189975, 0.07201335919182608, -0.04284995060529191, -0.23491621822744743, -0.006087609730181075, -0.09366962797623812, -0.042173356297189775, 0.10643159360307837, 0.11752509623425147, -0.06281040375186761, -0.1285632882273123, -0.09333455936955225, -0.06817502989476112, 0.06549075207300802, -0.07520987648444252, -0.03613294534605928, -0.09647393103715052, -0.08880048356565318, 0.007744175804451328, -0.003575051579226118, 0.004545823884985925, 0.012587716816445459, 0.002865557450541181, 0.00039630989421486363, -0.009826351250090867, 0.044387780187477556, 0.05195485319069508, -0.020054872594620663, -0.07453496205614506, -0.09431491014948237, -0.20632128467240918, -0.002954020510900449, 0.026906698159507716, -0.14051159298093352, -0.03299677221841431, -0.0006869853973595276, 0.04767498514222324, -0.2740774356114211, -0.28108469637604744, 0.03814504210318907, 0.07885492243136383, -0.10698694238352525, -0.04746662035425271, -0.007899243884514592, -0.0035948016031509353, -0.04485551301585103, -0.004927691907940786, 0.0017790162316567476, -0.0002325404923639278, -0.006584869094570311, -0.0022189463584477943, -0.01421862705337418, -0.05046692905933799, -0.0802174756848569, -0.1674891832111444, -0.04712763313649557, -0.2021517823198534, -0.10710928602172635, -0.08636593877122452, -0.1604338677679596, -0.2981918593004919, -0.3182197414435403, -0.15150006135158217, 0.17465642898533895, -0.007755449490288758, -0.20499123235792105, -0.13518813433865687, 0.010799725246769594, 0.017063192907301534, -0.14491956626654917, -0.12472542686284145, 0.07584279081525043, 0.07937710559591261, -0.03207003115519182, -0.03888782374149828, -0.0066633327923098055, -0.00671969815482843, 0.004633658705806073, -0.0038777480788685275, -0.04113391060538817, -0.08714327824916512, -0.12390324061559345, -0.21490720595947874, -0.1620573583141921, -0.1700417469408106, -0.12904920837597023, -0.12322887875376606, -0.22369633096893907, -0.3688226697430767, -0.34389495210083953, -0.20313555703120537, 0.012629882551568362, -0.009256247279155475, -0.1878254762602295, -0.09468528388709417, 0.010955241194382829, -0.060197991762120734, -0.009924787971160821, 0.09684319301885896, 0.0644063767702389, -0.014411657644123565, -0.008125460330345056, 0.02642693353493093, 0.011183746760026836, -0.0050185842631613855, -0.0058358911405441485, -0.005756069964738744, -0.04317796179916745, -0.1323419497920065, -0.148090003129918, -0.24158813392130413, -0.15295683776271177, -0.11360736262551666, -0.28636636361732687, -0.31765828079204483, -0.37185155668152275, -0.28307846453316, -0.34152120976088385, -0.26359647496339167, 0.10853412486620843, -0.10514132132719113, -0.3352250394852644, -0.04560583249041932, 0.08521468386068021, 0.04676027163668974, 0.07889963880990118, 0.11610728686082004, 0.043368873306828794, 0.08597462510802076, 0.08724541035554625, 0.04632897309815116, -0.002769663601041753, 0.006309324257627655, -0.006768600330959214, 0.0028667300505976216, -0.053014028746277524, -0.10836549340497091, -0.18094548345689493, -0.26462260721012015, -0.1598299102416491, -0.06498356685092056, -0.24788406342872335, -0.27304186571512784, -0.40407545987131754, -0.3242380637821157, -0.3657870320482265, -0.16036820026840373, -0.044696144576979485, -0.1910454649069078, -0.3013699567138369, -0.022475835767585692, 0.04760767545933783, 0.04042517120011018, 0.009980221383965093, 0.14199439408723163, 0.09181503274450235, 0.042173290917181985, 0.0848090568514672, 0.031542956725047755, -0.016606734301618756, -0.006189121999483863, -0.003988860706078705, -0.004167351157021575, 0.00047142819886184363, -0.11911916392746251, -0.21356078328221495, -0.22981488840901035, -0.24185324131163524, -0.018479195966720145, -0.08852595691694695, 0.02336024559407973, -0.009451169352492952, -0.054823280515516874, -0.15984323283354934, -0.08814850462211976, 0.028865204241986533, -0.10753429140784215, -0.3830231449647576, -0.14875490971123415, 0.0492027611418612, 0.13336365642452666, 0.07056812159415904, 0.20488064894912977, -0.07684358634251373, -0.028918700591005604, 0.05165336978564051, 0.01407433592809692, 0.00026087308953616804, 0.007588108669134147, 0.0005148218279301962, -0.006703578492628551, 0.012740339466238829, -0.08520089735951442, -0.1400026159305748, -0.14257871702571012, -0.2058627861602111, 0.113062555437499, 0.0802073275509515, 0.2705373666623913, 0.48062338453398457, 0.3329798513913259, 0.16579360433355986, 0.0387394893486379, -0.011132527470555362, -0.21959038057699887, -0.26710423265233857, -0.1313363037413321, -0.07931722119911926, 0.20488674942030669, 0.1988947848397863, 0.025400790924611956, -0.05940499268806156, 0.07651717544514916, 0.08012561209583488, 0.022504976406134723, 0.012406527730022522, 0.0027783547618852765, 0.0053534037273412225, 0.004839156702635808, 0.01205467453442871, -0.010567715762100015, -0.026074612878922983, 0.046091418291016824, 0.09619410808839901, 0.2903918388875323, 0.3940537683255154, 0.3337905434248274, 0.3888211478446985, 0.4845182268619757, 0.1843026875691285, 0.035249876364195465, 0.02581175161803659, 0.03725607383436618, 0.02874171675206686, -0.12202556313229909, 0.03604634390543903, 0.08079647220095694, 0.011609553663877175, -0.027872646540163068, -0.03987676007036626, 0.10542284753301863, 0.02042764240539207, 0.030613093523114924, 0.009717626702993537, -0.0020234604361876137, 0.004319025092980891, 0.0015809225759565743, 0.04040975765607742, 0.04518827939659457, 0.1366903301412268, 0.2692120517339387, 0.2540167118019928, 0.41196665655525727, 0.46806754449369586, 0.30217432070068434, 0.17068177507385335, 0.3075476450176379, 0.10411053192085573, 0.024729902484664133, 0.18634201599461822, 0.07043850159935434, 0.12270689577467302, -0.021851186382503923, 0.09425173902822491, 0.12289761634350839, 0.07799800724681862, 0.14618211330356182, 0.0761265943557283, 0.032301854821796074, -0.027952135976092005, 0.09955120079078393, 0.015225279320841594, 0.0015192779440872696, -0.010699613897115462, -0.0016064380222589065, 0.06151420102548046, 0.07850481177615115, 0.1831351667721696, 0.1379744744718145, 0.2664429813130837, 0.31622076598905563, 0.2507169266970185, -0.008633052689053526, 0.027844482971392505, 0.33334720639204024, 0.24230907633347468, 0.11836307575854915, 0.29375604806631095, 0.21875111016346285, 0.2650736129055981, 0.20931960976936054, 0.1842381491363317, 0.17483690818789882, 0.17774664745188223, 0.0205882573793827, -0.02743789456542361, -0.1163539258196698, -0.05062438157486626, 0.0661546295030932, -0.0002731517718912275, -0.004352669679981289, 0.009113385731855958, 0.006879577072365481, 0.055186523079328004, 0.17286358817968397, 0.22544708045128495, 0.26064587922937393, 0.07052265520714726, -0.06381337543922365, -0.040423010212201335, -0.11540690171152339, -0.10348707620283303, -0.05424252941372885, 0.05048090057451363, 0.3065175744406716, 0.4224192926866188, 0.30783682016981395, 0.13550047773449714, 0.22982209994629546, 0.03967858498935267, 0.032907611888327505, -0.05772895129151456, -0.019918604630831716, -0.03149181311198713, -0.11597720380359122, -0.052523119920389626, 0.04040501403573164, -0.004433692670521519, 0.001229429722874128, 0.012446171921337375, -0.0022016306263229015, 0.03459776371922565, 0.18789987153160126, 0.29563786930118013, 0.16915808960546996, -0.0047064915108440755, -0.061835313244099015, -0.06456777904208517, -0.10767005743989823, -0.16919425833223714, -0.39685877742182485, -0.29584071362476166, -0.12454525156672779, -0.19219827827811423, -0.051940093217508226, -0.02088637560172435, -0.022558909491284043, 0.011284218090986701, -0.0595013301164801, -0.1350023476721235, -0.08304814806963252, -0.002145399591041929, -0.07957247589203713, -0.07310122303845536, 0.01890087565686972, 0.01260440339575338, -0.002647984739056179, 0.009977157209821548, 0.008916574550042149, 0.026716847776583518, 0.07134198694634163, 0.18737947040954825, 0.05590045599698102, 0.03455824049997206, -0.21833657055071665, -0.16348145176322146, -0.08775256088992926, -0.260526162262594, -0.47248683534629043, -0.5066470072729772, -0.48553765437543195, -0.2962632339908214, 0.019081326356739335, -0.002140379591290346, -0.0007940877186329551, -0.06620214209860589, -0.12292567130128437, -0.09355789647913172, -0.038368714557878165, -0.02561561204045643, -0.09048007515003806, -0.04385951028855879, 0.013788197599112328, 0.001338069068753877, -0.0011345601692649616, -0.007539012639394396, -0.017156679357536602, 0.009834635804849083, -0.06113361643355059, 0.004153762367426044, 0.004826770675710062, -0.06185948649053449, -0.2635524212205024, -0.1928147887109776, -0.12164783251269545, -0.21193968856275344, -0.24699723746509356, -0.33622298580046245, -0.36631407962891543, -0.11636710118754699, 0.021933096290546586, -0.12250968352642413, -0.01185837295968014, 0.08199113001107937, -0.031722508472289745, 0.04190972867413659, -0.017765972244703995, 0.019973362413708288, -0.03198744911892466, -0.0303241278007932, -0.00355968054241767, -0.004971084183570979, -0.0006948876680946276, 0.0026720595709937046, 0.0004001980185369037, -0.016812045269848207, -0.000505964112571656, -0.006054252431835312, 0.002398942200378874, -0.10501726884869625, -0.1572195611267165, -0.1661455291363968, -0.1307273312609981, -0.1625701077321797, -0.16970979188588523, -0.19370014304136532, -0.050361062729047085, 0.157523746386778, -0.08790903914424376, -0.15999583571054302, 0.0428642792940605, 0.16012034179650542, 0.04418710105314137, 0.058050938202914404, 0.0017897778768001037, 0.05899235001208269, 0.01247481166574552, 0.027935295986667195, 0.0018263376140418496, 0.0008540645194343298, -0.0016839582750121866, -0.009120715388968331, 0.0038460810973327624, -0.014645532280416979, -0.036779221692553675, -0.06467073139727426, -0.08007402990309483, -0.06185080243018298, -0.11225404161519786, -0.11282917512607589, -0.024142524171934396, 0.05134580447984942, -0.10891523309528181, -0.3410511133646972, -0.0635990920736573, 0.024123475080004658, -0.029661226092586552, -0.19613048678502074, -0.11114208967325065, 0.036632199905301754, -0.1022617809385866, -0.02709347219945613, -0.04045803445253214, -0.02079874742531529, 0.04319921587394, 0.014196944294707711, 0.01081648332181575, -0.0001070725493198168, 0.005707483391565033, -0.0018288914892113483, 0.004806557059771724, -0.0009227906137800593, -0.005953235678879594, -0.07594299896878229, -0.1006321397423692, -0.02548925468494229, -0.08966016219710582, -0.11539598386402987, -0.0845847746821312, -0.08766681851490275, -0.1060881635990947, -0.0541076386566425, 0.10317836778884605, 0.10767123461401529, -0.08328411682106657, -0.16244556654081946, -0.037670316957716554, -0.10716988264375729, -0.12594479042711282, -0.0537391937217691, -0.04695928450295392, -0.008133198771308026, 0.01200963084659862, 0.01980803918406499, -0.003947787285749528, 0.0034559364490876127, 0.008098742048970027, 0.0032654792922196725, 0.00010200653987950113, -0.0006103584884826664, -0.009136648675732278, -0.027383887399425287, -0.043282797593681824, -0.014363780694596689, -0.06320197563341963, -0.11970819164292518, -0.10347536900758265, -0.014285165321485082, -0.0907925203949235, -0.12195168654608533, -0.020726387999895002, 0.0031932701541283167, -0.004173635943258958, -0.020370422164863792, -0.06717403630976207, -0.005613799653948894, -0.01742787325885896, -0.07384939323967499, -0.055952289216903504, -0.04288200966671857, 0.010988252727517306, 0.006024319854457374, 0.008105558787905661, -0.0003814716019362028, -0.017171390226105303, 0.011308578536534457, 0.0031770686829461748, 0.0009918009586598415, -0.0008041670672795468, -0.016092363485655778, -0.012901314766966014, -0.025879923185761232, -0.052025131994241434, -0.06284534469323666, -0.06368879698825546, -0.0027385727313014733, -0.12150679883728263, -0.10539345267759895, 0.027395718761249365, 0.0498000297414766, 0.028245298361221145, -0.07191911010218019, -0.12924313094859408, -0.15011639914547553, -0.09302002068472767, -0.06979011417956936, -0.027303722249134063, -0.00788665802183177, 0.004891883270845297, -0.001964099094894188, 0.008668439428636057, -0.011994600380793138, 0.004761434711035402, -0.0013724171324866808, -0.01051616181125371, -0.004946668112416033, 0.002755409813799071, -0.022067004295752563, -0.03388581181101762, -0.02482015154683075, -0.034321156776262886, -0.02299969822109436, -0.020259744863258076, -0.04184836619055046, -0.05551811649725074, -0.09322889978140453, -0.16245582808856268, -0.11471564822833547, -0.05069812034346909, -0.056562622421276944, -0.12099105342060362, -0.095202131435165, -0.07421249715446664, -0.04988114744958777, -0.018743166007984032, 0.0036932353848443547, 0.004172889028851633, 0.0014163079234323212, 0.011211656847073335, -0.0027269343174704808, 0.007179686732684911, -0.003968246382555941, 0.0033323281870596515, -0.010360784699561303, -0.00990189589957694, -0.00864647561266717, 0.00482050099848723, -0.00048783823953070965, -0.0069964639577627715, -0.0046989095367585484, -0.03622647307845348, -0.017932853012292114, -0.00882168143753711, -0.013354693595212155, -0.016607047665582596, -0.008194917391842365, 0.015493020144155727, -0.005522493677077163, -0.02031938191258483, -0.004655495972655398, -0.01446981498613701, 0.0032643358316315823, -0.006038138828068559, 0.0021842840087612438, 0.0017705874251669165, 0.004362947989414402, -0.004678666846022495, 0.0009475149745340307], [-0.005959372420183543, -0.006022731816934721, 0.00045882969623139004, -0.0009144145099188165, -0.004535859012101591, -0.0025102923635535418, -0.0013746029959145767, 0.006900907040463589, 0.003531797456618326, 0.003565752212491064, -0.007192135214809442, -0.0020008810859195206, 0.01143038614302044, -0.003824561883485409, -0.010170218832489487, -0.0063493304931012025, -0.0071367500018542735, -0.0056733649353418285, 0.001608300737717464, 0.01117076056346677, -0.0026549522084842554, 0.0021993334420003577, 0.005468977447787032, 0.0053437869787498265, 0.008043419065739079, 0.0015863814477247275, 0.009839793607456106, -0.00186414496688933, 0.001640747551856677, 0.002874930147833537, 0.006671921644693588, 0.0023749901173418142, -0.0025599791164777957, 0.011638030419322726, 0.006994652862024834, 0.00835391670691217, 0.0021725192764039604, 0.007920505381318456, -0.0037337912986653552, -0.016406227228009197, -0.021700611186818042, 0.00033104999585524997, 0.011737516361354429, -0.011413864333571461, -0.050566302101831544, -0.01192060090436192, -0.007380476446621281, -0.0014089923087529307, 0.004125161714003158, 0.0023760339881756668, -0.005014328256590004, 0.004154795979674096, -0.006667222297080342, 0.0038540927747413322, 0.004245803271007377, -0.00949068312287062, 0.000675544944545207, 0.017611271917930427, 0.004949836789265353, 0.011191651645573933, 0.005643931456222242, -0.018910021361867112, 0.001134389085291578, 0.011275981294643266, 0.019743480391104563, -0.00239765914441381, -0.013599044804594864, -0.020823768858127065, -0.020189181470279167, -0.031484746349222804, -0.064105445333512, -0.05762184715412512, -0.07017664486809153, -0.05136834639414618, -0.006596318332922978, 0.010777331309826945, 0.006052182354292736, 0.016558094350894715, 0.008237826454458145, -0.0070720876982364456, -0.00317211698342983, -0.002597597650968428, -0.0027720132609802242, 0.001740130206584925, 0.0018133591399262883, -0.001317355693334081, -0.0033660408130113564, -0.008273632832171746, -0.006953805261995806, -0.0007230882107554486, -0.0013260266329244014, 0.019981948286108484, 0.008811132607611037, 0.015316209551367014, -0.015946552333616835, 0.057701957195302654, 0.13275853524752862, -0.07577152680731228, -0.25985970288717675, -0.21677205378500503, -0.22874998592576587, -0.11250321088083487, -0.005173059457300505, -0.02422304561078091, -0.0318977483986424, -0.03974231278063443, -0.01386982480201993, -0.06308189766391091, -0.05873815361713898, 0.0295182216433158, 0.005788451728635342, -0.0015404273798893615, 0.0009658822290143054, -0.0007589509725429404, 0.004573660488564364, 0.010946690108123311, 0.010675107416179396, -0.0012747902659523151, -0.007084596224666719, -0.026702801078211064, -0.04357744398664838, -0.07090732888756247, -0.09664508389854082, -0.07798244948918388, -0.1234215374575146, -0.17637884305819054, -0.17392459648487413, -0.1395796606347293, -0.16818767460862333, -0.12264970593235827, -0.15762374204207835, -0.16778022502325907, -0.1023169342669955, -0.06893228355845935, -0.09393114251578769, 0.006891923494253221, 0.010471216848549916, 0.030900561766613037, 0.017154749127873018, 0.004919974986385033, -0.000274218327560141, -0.002502380649794019, -0.0015567962012491524, -0.006957018180941203, 0.01348997198914054, 0.007258857308365157, -0.0372125095123122, -0.05610015566975101, -0.09165776463641245, -0.10776244189695362, -0.13841976921920274, -0.1359436810440177, -0.13483443883710786, -0.0358654067175125, -0.08254202435301944, -0.181821875178399, -0.15861668956764974, -0.14492536330226072, -0.19740522189554746, -0.10507497281824782, 0.03462335368759344, -0.05856898805132408, -0.05631236683985434, 0.005949256921531432, -0.012411216442837004, -0.028345243554729498, -0.01393245038766522, -0.0034144553808942643, -0.006879173071991872, 0.004680905724469103, 0.0031993734554372514, -0.001046397559908599, 0.01811340946827819, -0.01049050210849738, -0.036420261167735134, -0.06697801306712653, -0.16846309770506346, -0.14163549684059007, 0.021142756145246727, -0.08022702464461637, -0.11558823317095003, -0.035481387320546794, -0.09519871833761878, -0.2957286636248719, -0.28072700213091917, -0.17246900007701518, -0.16939509546310988, -0.109098859621161, 0.03313300464653403, -0.07972606181448423, -0.08961590151330223, 0.004672038865707762, 0.11490918174375572, -0.02584229799871961, 0.011061813306350457, -0.015943438907376633, -0.005499951313741774, -0.010690486821124898, -0.004997022190806742, -0.003729594072256195, 0.043565394963054865, -0.011542028022112088, -0.021599619551960807, -0.09014711522119317, -0.13731388664678984, -0.12185348763997, 0.05480819016105076, -0.0042972680120523295, 0.13079380810478053, -0.11213887035766212, -0.23603824545435445, -0.30176787939829736, -0.1638776075448008, -0.18054912328300937, -0.23000820856524165, -0.1931067250520221, -0.03297123222171467, -0.002427190881896877, -0.07619010717457698, -0.08099549595537042, -0.12446476849880075, -0.1772333836248768, 0.03966161727332198, -0.0065483305563853325, 0.0013514607720768578, -0.0002689155588255971, 0.010815023552335034, 0.01083843773689973, 0.07057244996429961, 0.021449993657635443, -0.042441099526299625, -0.13134653244655087, -0.11405003562718749, 0.050035419173754474, -0.17516680147636146, -0.05330751897083465, 0.014118806428847872, -0.04819728667993521, -0.07473282337837436, 0.1731169719692697, 0.2312578196496529, 0.18843460298014875, 0.0761380733977042, 0.19258807326155897, 0.3629641546996923, 0.22455630166624685, 0.06154765621322917, 0.039369555452189044, 0.06203824035466096, 0.06531361521714091, 0.015055584911599428, 0.004061355675758646, 0.011616586771554133, -8.270168565351485e-05, -0.010265999275421446, 0.00955717994904362, 0.02541167470544884, -0.04382439269628497, -0.07025964443613326, -0.0993245414913036, -0.01976351407104704, -0.07962565535655498, -0.21009069551167278, 0.014189248755059688, -0.017691563892379393, 0.08813729821636579, -0.027498925747608736, 0.2452467793020934, 0.4207647270561979, 0.4809326899111447, 0.5096098049092577, 0.41270131654730946, 0.30349638570208953, 0.1960974171189247, 0.16692704228408833, 0.09348848254834133, 0.13117630605970007, 0.16752273063728634, 0.03978964303998739, -0.027939857691896806, -0.0019966075382539545, -0.0052573150728841235, -0.009438238370058114, 0.01554413809274788, 0.03434556981810866, -0.05875228351708205, -0.01585758918702415, -0.0376732998389995, -0.08441700765257774, -0.04698110736108378, 0.05982971059935489, -0.021578670473179316, 0.02838202358934808, 0.09454436923944233, -0.23372433486283967, -0.18582492966363237, -0.05725279512906228, -0.023673568625016194, 0.14285724938973698, 0.36199023050030443, 0.25413071383661767, 0.24910607156398715, 0.2719932530458632, 0.2075188559641799, 0.2497651872771887, 0.22851105836093227, 0.03281151238453165, -0.004759166246798385, -0.0077235158572009875, 0.005796986602626665, -0.009433233907207366, -0.024307534950058135, 0.019981728025114574, 0.0011679335027440722, -0.02010310418971708, -0.16411456669419242, -0.020469121664669892, -0.04614275766283492, -0.22291767729682255, -0.10288419354520062, -0.09155344014700094, -0.18358578936284461, -0.23042336873355324, -0.21072626697226812, -0.31105540572518386, -0.2068755571457227, -0.13655357069376753, -0.016772631203979548, -0.011614757480756875, 0.12839191028467944, 0.183770088388624, 0.24836499672739928, 0.19495839242851004, 0.17051392720769415, 0.03710840566027805, 0.0065452058619438445, -0.0031593331189415366, -0.007590610775803421, -0.008143945513114316, -0.015498152232217528, 0.011783310013035298, -0.014589343475532417, -0.043688579497998925, -0.011554144368091905, -0.0973339925795792, -0.11896718669327068, -0.1892951519830887, -0.2653623895863036, -0.09581013882829026, 0.004861472139152068, 0.012870442382340749, 0.030904790916152922, -0.2566027801236067, -0.19698408149621316, -0.3305160300412083, -0.250999551384293, -0.1405258059694828, -0.1438443688907358, -0.13396869751142973, -0.1572970349468386, -0.11515357731631451, -0.00791888238519029, -0.0004504590899916439, -0.013886808015596474, 0.006472632035015133, -0.006716302460792177, -0.0035302569983276877, -0.018397805702833885, 0.010721507177464713, -0.018312087559129442, -0.06343091650687621, -0.05955778484935204, -0.04780586704426024, -0.060538958359087056, -0.15031839049773132, -0.23477458680659308, -0.0417799769839201, -0.014760710856625085, 0.021596906037878377, -0.0857040413362663, -0.13159312050049932, -0.1977361328010489, -0.305885493292947, -0.14213102897772928, -0.18359267293098266, -0.17043896903042485, -0.16473405252041445, -0.14771845031086223, -0.15970953988482572, -0.0492077504091415, -0.013135639352598049, -0.009727228277020805, -0.0027615196220570153, 0.009719067801446176, -0.007523795667385444, 0.010193726432560012, 0.006380190757200164, -0.034878877915399085, -0.013148279081691373, -0.07846018520286584, 0.03415227096765912, 0.11038122840398866, -0.029225595169481988, -0.1514443724036865, -0.2003171955663679, -0.11722132981830757, -0.18855595140946782, -0.11483118723156245, -0.040460363132260625, -0.14020924904357202, -0.061260343454222474, -0.14639996650163076, -0.15684161856820317, -0.16246471238912338, -0.12125636698938658, -0.18251956858234258, -0.11854566099737586, -0.057890932151540696, -0.016306711166828112, 0.0019744934659694543, 0.0012314346536998427, 0.0025710462160954835, 0.0032625331733964727, -0.024141425332910096, -0.02322728557436057, 0.09746038212549867, 0.2536613033362218, 0.16127346398009015, 0.11629695901531277, 0.027247438704818366, -0.015374031157742312, -0.02611271847009548, 0.00048553135120418795, -0.2005153205555419, -0.1234507473161856, -0.10290062719644076, -0.050942763893243495, -0.13090328508500082, 0.028867448543721582, -0.2139036050543087, -0.2458598328477954, -0.21529403108908204, -0.16485131171876302, -0.1557293808836861, -0.17507963854872785, -0.07852148672283948, -0.04081639505004668, -0.0003191770155214165, 0.0024711323453797873, 0.00586495884065644, 0.0026539298624122065, -0.03872758634149464, -0.03512436439262922, 0.2016707357798392, 0.14145239171699425, -0.006215477083823809, 0.07780039180020294, 0.1048720505787613, 0.05036345077609381, 0.02215133708393679, -0.035678487113475814, -0.057886241598259176, -0.1937939883384972, -0.10748153909280873, -0.16315139439529475, -0.03808854213245883, 0.0763578206628196, -0.06001898025365742, -0.188413294115807, -0.15647887265280933, -0.1396865804895621, -0.17058657680334488, -0.15279148398936243, -0.08632678441400662, -0.03151763743260939, 0.007156041698276736, -0.004684999093932849, 0.00826155467253176, -0.004942585941042099, -0.04935038720750871, -0.12646259799195017, 0.08407276576666063, 0.09498789827631791, 0.03683021772331757, 0.07193567129788081, 0.14080095123071687, 0.15955147669083222, 0.144758589765837, 0.029080283357119888, -0.06419844731196828, -0.03148260390707275, -0.0023838206021023697, 0.05143853579001362, 0.0911910664008904, 0.15167457967202436, 0.0494150270940872, -0.0042854144718638834, -0.1795221486509845, -0.031200095744302655, -0.11195340890788745, -0.13795783466408054, -0.021706890489921467, -0.032337346150520446, -0.020973594025648298, -0.0005029800574467974, -0.004328879506581567, -0.015406169399192593, -0.09728412929027587, -0.17785456404689812, 0.012259236014777956, -0.07548553908726997, 0.1447248171074877, 0.21584851663025895, 0.19168246520392773, 0.23970963438634024, 0.2661110755130595, 0.2696270516693387, 0.11065903887994355, 0.011970789934458369, -0.07942352145098838, -0.08453881426625981, 0.04862367250581313, 0.14845123140752114, 0.05058219648744733, 0.04026377900431419, -0.19566682452566528, -0.12869697205936878, -0.15625349566912566, -0.13034487407009374, -0.016749354598449877, -0.041697400277162074, -0.028174546034809234, -0.0006016669356347513, -0.022524841993487386, 0.0058317093381362465, -0.13514661676630102, -0.21552514889704882, -0.11672584230105346, -0.03530030852600187, 0.0040937729350864534, 0.1299501251111567, 0.03143996104592696, 0.09145631081810163, 0.0780960851759097, -0.052482100594364665, 0.021563224675541223, -0.029370428410070707, -0.09774118838351485, -0.008039552821771127, -0.0521864691070483, 0.08069929800529024, 0.05862012179694266, 0.008670439387060603, -0.1753983036125478, -0.20997278205189154, -0.12333989744346692, -0.040342065216773505, -0.004800635661904511, -0.02632825969602101, 0.0036348390317052096, 0.01017348740063038, 0.007153668129196043, -0.017764175334963928, -0.155937312201216, -0.2501802220532166, -0.15872555241147107, -0.05299183152675749, -0.13053813993022254, -0.05278741594009151, -0.0194431451481218, -0.07254610404325464, -0.11507298668706702, -0.22672028610145376, -0.13031500501886248, 0.022407047181360582, -0.0710329640046298, 0.032666743403735626, -0.05329999429745793, -0.009744042122278758, 0.03928092119357604, -0.032323436043804506, -0.15369115119007282, -0.07314060936078143, -0.02021113759172522, 0.013375596186891967, 0.006993189277021455, -0.004597506435715813, 0.0069006277372508215, 0.0026196662072171793, -0.005946366733451926, -0.03831938018966356, -0.10757013180499858, -0.22948556882969132, -0.19685780928339508, -0.2305183112312614, -0.22248042999639572, -0.11894911961169456, -0.1031086648668908, -0.04225260227016655, -0.1892024407806066, 0.018132442377669967, -0.0014926950954330775, -0.023062226571114876, 0.052458390882329405, -0.03412557411327094, 0.00819540338468787, 0.03844992914047137, 0.030709326534680045, 0.02944312828742822, -0.046987662839198856, -0.03323891219776652, -0.014490476537590112, 0.04222218792252515, -0.00606366603672701, -0.034882906590324905, 0.0030995698946167144, 0.002109224061032023, 0.003391651738254812, -0.0013076985194249047, -0.007098865422604569, -0.07839867182823684, -0.039685708148796565, -0.07449855070872402, -0.11312061566967105, -0.09825390817792526, 0.038152852312692664, -0.012805475119010475, 0.012321847687333463, 0.08533386621823592, -0.05569036356346485, 0.07022285241606173, -0.06557183891894629, -0.03593172913399966, -0.004298215890021823, 0.03651695683597238, 0.06633059054507476, 0.07951911754734878, 0.01856256210398067, 0.01779207852417795, 0.03069995489458129, -0.0020057727974444246, -0.007622192828118016, -0.004466684432056047, -0.004651602550497325, 0.005917764987105659, -0.005479390621963447, 0.008556666792013118, 0.020773834356695824, 0.0074136136480438585, 0.028450508592518447, 0.01595651809448863, 0.046580715733293976, 0.028664030706592333, 0.017870818150745114, -0.1427121136114249, -0.1343761265433606, -0.006938303593197557, -0.04936634478842462, -0.07781845827593223, -0.15405870911896127, -0.10988234877453981, -0.03396217941025224, -0.025849546610266366, 0.08418254970091743, 0.13147818873180253, 0.025997174033952727, 0.02873047004320889, 0.0052359401747481766, -0.0009402527824950032, -0.007943651638145147, -0.011900594314361988, 0.008737151899173533, -0.0024252549767881707, -0.010096439613019932, -0.010010880949031107, 0.010551549695696851, -0.030112183593872376, -0.05881151206204632, -0.08132190215322677, -0.0002226974353955374, 0.026061138787831485, 0.04850314471260981, 0.015843812585230543, 0.05645321621837622, 0.0215744624723545, 0.07872556263320712, -0.009048606940485086, -0.1113841106029625, -0.015839094818180337, 0.08803609986509374, 0.14547045576710682, 0.09565190524721665, 0.06521856465312559, 0.036161596314815594, 0.04969466438275416, 0.04701056097683166, 0.010034675124690081, 7.04405291249745e-05, -0.007834699538209833, -0.015079864972737838, 0.012124356556962711, 0.0022299134393917353, 0.0172598675292687, -0.00505776803722514, -0.0406863726963999, -0.030260277501579818, -0.06327034087069866, -0.052271443215668435, -0.04330320821380286, -0.026278364472104257, -0.028574873798804034, 0.04484393571034812, 0.04439906390851197, 0.07661683843567896, -0.002321611821802184, -0.011193665897519961, 0.009017189898233916, 0.0844508150570466, 0.1254498982772101, 0.15027782821877875, 0.11564078402805662, 0.10329561381670899, 0.05191170179888994, 0.021371602325205304, 0.017182423961593682, -0.009715856633992184, -0.013940850685356304, 0.00989973442180039, -0.006552845359313312, -0.00044828878507129386, 0.004323873382201992, -0.004873548370224474, -0.00790582854360259, 0.028728448292790934, 0.01103553852536715, -0.0496787832939938, -0.07298248911479437, -0.044480725208121255, 0.018986067451559858, 0.10997271973910866, 0.04207840425991898, 0.00712783975481881, 0.055987660563017905, 0.14554373594793873, 0.10715295107578898, 0.05328539818886503, 0.031906107509800774, 0.028736859430596805, 0.04914305016389514, 0.05396691665606737, 0.008106993585378973, -0.010442324809769539, 0.007044745447488972, 0.00781991089101808, -0.004518668087723658, -0.0002458141560715612, -0.007615929832676824, -0.002817813386143136, 0.0008853152548865507, 0.0020105554795562448, -0.004081878875488817, 0.0028533915067325915, -0.008032362498102932, -0.001276152480755269, -0.01586577150062744, 0.020180256613266976, 0.005156921596616029, 0.01764829971114861, 0.007221239056229564, -0.011010783889270095, 0.00821166623478761, 0.009060076547079661, -0.022604162976298248, -0.02481631894194522, -0.0038411479736606934, 0.0008608319544871695, 0.0028064560212485703, -0.003156339875174413, 0.02279277444447578, -0.0065822804424403615, 0.0021193229682993234, 0.0107237034620113, -0.0047445332112253736, -0.005013695505718196], [-0.006615081261479616, 0.005471258901520586, 0.005463322454178569, 0.0033470611279649556, -0.003549930584242673, -0.001636572756786922, -0.006478027761491055, 0.0025330990132318583, 0.010384880612405894, 0.011296410643082209, -0.0003251357124984507, -0.0024616163787010144, -0.01064088453404482, 0.002866741809040189, -0.0010697863433700339, 0.0032868807280469346, -0.00017689083658339747, 0.008907586084619315, 0.004543164722104026, -0.0062282513784423675, -0.00012951926790821705, -0.0012374070728881788, -0.012763307353789376, -0.0013538838145415566, -0.00018443763820358711, 0.0023031443294006795, -0.003036913189518862, -0.0010237171917478582, 0.0023190831189768306, 0.0077123611959432565, 0.0021183987887198326, -0.0016179441302748745, -0.015679275127137918, 0.0032129287277208856, 0.0009862228514453968, -0.0013896327521527336, 0.001661813481134872, -0.00808986554718081, -0.0032434528543668966, -0.0015436612498678128, -0.0021860344351831706, -0.0009119118600905378, -0.009942619506878594, 0.0034151658335974055, 0.033925240142195875, 0.007776200539165645, -0.007678081951467243, -0.006405128884275635, -0.013598750427691436, -0.004932627506969555, -0.010710003701647042, -0.015142641224697072, -0.007468621540085605, 0.00489536521051738, 0.0027566678940155226, 0.018974828975458706, -0.005704761505644802, 0.009738864327452934, -0.00031839986272360715, -0.0023545283724950216, 0.000287044575188079, -0.0007909507167899783, 0.002265369871756441, 0.003577673096589624, 0.0004675486074087937, 0.0005965949966566365, -0.009331367890397785, -0.007903280578336691, -0.007250348682032504, -0.03265546583899566, -0.04128667290545133, -0.045184764061876916, -0.02928602236480901, -0.02167049378704424, -0.040450919311312984, -0.05150558802685863, -0.04116115766418676, -0.04105063760472936, -0.02453192141504287, -0.0018301695722788142, -0.0009033076753441159, -0.0009585707571678333, 0.0075748649512559505, -0.01313809965972609, 0.005328969618317136, -0.001067125344416475, 0.00857696592692028, 0.0051260369183538795, -0.003911008318498212, -0.0014516087024593173, -0.007492231416274294, -0.00889189243811835, 0.012025964864005225, 0.012983080668258519, -0.02014061554510807, 0.005755370766881796, -0.03743654873895678, -0.026190545348544203, -0.020774777675650072, 0.02038775940545037, 0.03322647860828937, -0.0076433343613934454, -0.0849584732416375, -0.15073255125708943, -0.1392339943347163, -0.056449119870019375, -0.035905551440680035, -0.013656459507975605, -0.020139246708111708, -0.0047157661812063595, 0.002157186378300344, -0.002715140014001063, -0.0006872911205204864, -0.004622947674910261, 0.005512641614948097, 0.0015364135286869648, 0.005811181242135922, -0.0001126542601770932, -0.0018488918080017582, 0.007023814652988873, -0.014236033216500993, 0.02602677511468418, 0.034481266691926554, -0.016626749472819696, -0.06995266422382483, -0.07970155559280252, -0.06042490624391879, 0.010056699267485507, 0.07398186244271776, 0.09685682490229378, 0.0046386876150345795, -0.0996871927898386, -0.05658882577528362, -0.07802311626126272, -0.04089207894869234, -0.06452635702067629, -0.013837138014002834, -0.001078184839556472, 0.007304000810143789, 0.008884639140412655, 0.007672465344015187, 0.00676458531551081, 0.004965202078538096, -0.0012724007438737195, -0.02723476409893983, -0.08510820526515617, -0.09215357330911274, -0.04005886850832656, -0.044765935390790344, -0.0985862135530583, -0.046269060155963625, -0.017383690793798756, -0.09353268706416773, -0.0968723379836994, -0.03447895361311193, -0.04477100865802417, -0.054696415184868584, -0.05177655083894992, -0.05516223355709089, 0.041684899160536526, 0.035619756822264044, -0.013348698348125094, -0.017983450219689577, -0.10038215589570282, -0.03449137041278051, 0.011124489214705902, 0.001788969659646356, -0.0025982292738945243, -0.0006064256289791027, 0.0024505649231563935, -0.004320571508235623, 0.001129859948810333, -0.0347030924246455, -0.11045726657182883, -0.0983560779897329, -0.11563156805498725, -0.1177232503847165, -0.13878248174765698, -0.09245698485141125, -0.07518334552136637, -0.09032265734710974, 0.07340143210612834, 0.06164189578957666, -0.06762429057963754, -0.10478376780121662, -0.13126928117657602, -0.1309494434715883, -0.08217515382709056, -0.04699788287707854, -0.09875318425821261, -0.07650640082815284, -0.07287703580417856, -0.12732259699494441, -0.009715492537070823, -0.01954897717227704, -0.015102060220191785, 0.006002760773773101, -0.004073381294952227, -0.009203283932844124, -0.0026635989432985474, -0.02129330388390702, -0.04851128840657329, -0.07706138734081186, -0.11258104024791188, -0.06888108671602797, -0.04830028819765279, 0.03381339046400069, -0.015067536735243907, 0.04292953405806455, 0.09543243000671646, -0.05894054841392561, -0.14750022821254077, -0.12765289550326875, -0.14260661981604852, -0.06808767863741182, -0.07568897654088531, -0.21221516203408916, -0.21746064363187093, -0.21612563978257046, -0.1327157936298447, -0.09697673627548101, -0.037968962544585476, -0.01608934761867002, 0.0005003744259794587, 0.007596878599850546, 0.009042120128540299, 0.0010431522443533838, -0.010713629933573552, 0.0314285264192235, -0.00041958562375883944, -0.023012099851914058, -0.08071943089261896, -0.034272183956585094, -0.047303318163362744, 0.026428519600632378, -0.03712676987806667, 0.045433810517988886, 0.028597042141054598, -0.10613744629280057, -0.24882881686904074, -0.1512564376533506, -0.09920047921039601, -0.0017129553805536604, -0.12022739161267401, -0.2287022405047291, -0.18187015725555195, -0.14447703675887422, -0.04332829164771998, -0.0573406213456086, -0.05787164369434704, -0.0009824717197520244, 0.0022755015322272203, 0.010907056408481785, -0.006424151305595169, 0.00013610972719261204, -0.0005435737122739418, 0.010801202608776404, 0.04008190855199574, 0.04099403314880328, 0.015799118507175455, -0.013087288380303694, 0.07629588328171882, 0.015409613646175453, -0.03137383746716458, 0.08936647204403227, 0.004865781506106524, -0.12431683138786899, -0.09413900818694644, -0.04423645768520827, 0.029935806002313523, -0.054878172819235266, -0.09405845470693648, -0.10320102935555457, -0.09478392781512757, -0.049685517134963, 0.09240700730027082, 0.006243396960994118, -0.000785876317651927, 0.032082633280565175, -0.023856594121844075, -0.010773581651763989, 1.7643442990118336e-05, -0.021219493021963572, -0.004300627814292116, 0.02550288729700962, 0.11607730501006884, 0.11860191315000725, 0.040663336608498274, 0.016098279006155927, 0.02116671771111558, 0.03276401103452272, 0.029659307236234358, 0.11948380477751669, 0.019409631940868893, 0.09700088049973135, -0.0029885002056629813, 0.13554730233793053, 0.2209616823952444, 0.14997617553463605, 0.03156150485100629, 0.07728465352364881, 0.07925243104879083, 0.18246088553666132, 0.17881430761573758, 0.05530275991929309, -0.0011767506172665051, 0.007824884109750031, -0.005681536825809889, 0.007866326185408059, -0.010946794482149578, -0.016774443413517574, 0.016537329800601654, 0.05078889927117794, 0.10662472836037835, 0.09731377419768672, 0.03303491948474774, -0.00614225102919847, 0.07680681531121068, 0.039585509603861806, 0.13221611151872656, 0.1730218536217028, 0.0698239668054436, 0.13242250522126767, 0.1744834027160173, 0.4087679899949477, 0.4020812185427941, 0.26104290083848714, 0.3536609025951668, 0.21051935367699062, 0.22102916500043726, 0.24628523069073804, 0.1436924067681865, 0.14647533020754924, 0.03781601711297978, 0.005757658523124399, 0.0063743507878067426, -0.004770027578723742, 0.007015004831474107, -0.005523683781806716, 0.03275713333990861, 0.08106802382886458, 0.18331311089400684, 0.1270036033579111, 0.04529212006129614, 0.048981557511993665, 0.16942460986075833, 0.15028061432469522, 0.1262615788085802, 0.01678436672161118, -0.03178701094750397, 0.13549673203463314, 0.14438301384618743, 0.3259940096298586, 0.350978887196468, 0.09853766665617185, 0.35910565091798047, 0.3900832196452216, 0.3400921776167216, 0.23881119179135837, 0.1713549989650201, 0.10751214552169151, 0.021292348641949746, 0.0016532249429451443, -0.0031087249425491184, 0.0004943258040985848, -0.0025465335491428585, 0.00035140362362590517, 0.038336784562550345, 0.06733327256586863, 0.12927873955346256, 0.10002034600284028, 0.06835331216252565, 0.06334904119433865, 0.13642186729556055, 0.10035352141273034, 0.12494636819117151, -0.0018943900820814791, -0.11960215649743648, -0.14547019899751007, -0.03567334717580149, -0.07656286546994723, -0.058146423247860415, -0.023233202594264833, 0.14549660716551596, 0.2693732428093771, 0.2547696883856851, 0.26241599600784965, 0.16384078752665057, 0.08178365294633648, 0.022926919360328098, 0.002103915766335856, -0.0031976263119169635, 0.0003598669685032534, -0.003466960399149963, -0.006879352073628785, 0.0011398518467064583, 0.020359135673780223, 0.06178320554461769, 0.07801611053729801, -0.004780694365553666, -0.05707632553803799, 0.06275410582090925, 0.16654464608574418, 0.12621284113967254, -0.1374039424608666, -0.21395353268196776, -0.17737469894970775, -0.1484418357960585, -0.19048590046581976, -0.03167653227786335, -0.03181597132982586, -0.11564404945969917, 0.06769117995489829, 0.1899492632517147, 0.1595948376641646, 0.11636439080527752, 0.08239990201337426, 0.02170334385403695, 0.012032190406503468, 0.002148445665346207, 0.0023508028307215397, 0.0019173513470634824, 0.004091657299322366, 0.009618811306641651, -0.0011347999048961193, 0.06279696024292442, -0.011376278283953536, -0.005349796611469421, -0.029069034709763086, -0.03318580533532996, -0.002419762088184649, 0.005555076883512809, -0.17974014324818116, -0.1939387595116848, -0.1500647317485176, -0.0942797763777209, -0.0208659051407799, -0.05769857238719836, -0.09244524318789278, -0.03005236913818282, 0.009765045143600014, 0.04837992949947135, 0.03430739718286686, 0.03440289774676235, 0.04675814103106758, 0.02385195457810883, 0.015289365027428224, 0.007320723025876222, -0.004342803322237296, -0.003829190971081328, -0.01644595637581827, 0.019704683353615617, -0.012577356323373192, 0.006231000668281947, -0.0016409436396612538, -0.03852168448143641, -0.1423591502920157, -0.1296851993201687, -0.07505010431461367, -0.1618845494751757, -0.25751497596642525, -0.35922684483335404, -0.17401328876523933, -0.134966227309248, -0.05961480523591378, -0.019633028583180327, -0.1296686722550333, -0.09459797142645812, -0.050376953409613276, -0.019029214551450513, 0.0021938948587856156, 0.021980372941723825, 0.0030119838845820224, 0.033634384755915396, 0.02387922073851361, -0.011334280788284141, -0.0025728619615938727, 0.0022091800526468116, 0.0022707073930421776, 0.013042225276949586, 0.003981772485901664, -0.007676940842871242, -0.1281674586400714, -0.14599257925208511, -0.105370037977465, -0.1471967292961446, -0.17075782460647637, -0.16838470487330406, -0.1103118664045414, -0.16865634161867282, -0.20692974902425257, -0.18212489284839334, -0.07096023661431382, 0.01742734317147016, -0.07896701781918855, -0.08444883053399806, -0.08766434038715668, -0.04941351771888192, -0.07209725538478176, -0.05653928325263888, -0.05910973692829781, -0.003059093626378068, -0.009504517690401554, -7.389151244411262e-05, 0.0021726169358820364, 0.0008284920539614321, -0.010762174002338516, 0.00324614833118882, 0.014117675592967404, 0.003644411742673909, -0.06793723515018135, -0.14804370122679464, -0.13343702226855714, -0.13778692582118734, -0.14831020794312713, -0.07415888698431104, -0.03738532203350244, -0.10352540675870912, -0.09632414438541081, -0.06757325326597372, -0.06979918704397546, -0.05626621606817914, 0.007581196745503169, -0.03125478679969385, -0.020987070930158804, -0.019443741880283902, 0.03648254984961134, -0.002256993625451783, -0.021474426616923614, -0.03015719874650486, -0.018275214436321838, 0.005979522635459981, -0.005925016418452886, 0.022174070152587325, -0.00367008372600401, -0.041808681566130726, 0.009571366962901375, 0.0014486327238412953, -0.0931162554709663, -0.008192776179302835, -0.059919644103398326, -0.18991887673021793, -0.09487406351366076, -0.041326244074516225, 0.011086535152926432, -0.06147691366299253, -0.0530089605183276, 0.013722941161602921, -0.06429441921547017, 0.03230711866299409, 0.06116996116385239, -0.06702947529829636, -0.044676353395030705, -0.08746293020156723, -0.00737402963852383, -0.024936951927678985, -0.055349540871416525, 0.00025503754511682565, 0.008968787078306858, -0.006282545795564806, -0.004098726048292042, 0.0024254350953964074, -0.0020478277078960186, -0.004928987361253154, -0.024685529405347784, 0.003584607740099407, -0.0356480378885819, 0.043408228686427915, 0.03962485432078636, -0.06278481458818348, -0.004862470754286532, 0.10345283047201236, 0.07195917076863546, -0.016858859571197725, -0.08217259973114968, -0.0637487491790193, -0.015771207301420447, 0.0015359314595202493, -0.01892300722856307, -0.10167098462853141, -0.08235282060299662, -0.08794041418132897, -0.09282911744240716, -0.053755909120330805, -0.06875211741252767, -0.003964856413650727, 0.01130451649191107, -0.0004919035487872011, -0.0037027790624027663, 0.015661520829683754, 0.00742645310221464, -0.013354989496964753, -0.031038433160870328, -0.05262366828964688, -0.012225383051730699, -0.021804998560896183, 0.01963470345747732, 0.07663928631770446, 0.056875546221008697, 0.04048753270350767, -0.1175442377133097, -0.09153509192700104, -0.09611906193975926, -0.020494378811710203, -0.04256882375177997, 0.010602077460909258, 0.051770480735573284, 0.003363906194298725, -0.10355427489281202, -0.05242214920640093, 0.021881920147983343, 0.02006732916034666, -0.03573216802761795, -0.005593279221131413, 0.012981106258283763, 0.0020855043185403275, -0.003887249873949547, -0.0015793395441822012, 0.018738804601243077, 0.0029209963348701797, -0.04322555300601147, -0.05693794357432625, -0.02507031376865156, -0.015947954518091507, -0.004121699282356667, 0.043157582013940717, 0.019432189452818473, -0.01581093982432834, -0.09235884111381233, -0.029574199814622303, -0.04290338249588534, -0.004970328554556362, -0.07662475907738102, 0.05000780838342303, 0.12900121719117266, -0.035130162794142945, -0.0948858130896136, -0.020653056682945328, 0.027762864133396556, 0.0221832175775343, -0.014115956255169197, 0.003650595879550626, 0.002712506612264448, -0.002688199061810267, 0.0011228535293008254, 0.006701850903974779, -0.007923572117302477, 0.007270574942927023, -0.03326319088169609, -0.03069345990695938, -0.07636696743743261, -0.026544971719945958, 0.07423903363153346, 0.051783633388538634, -0.00986883870644104, -0.05060472406663278, -0.044992793990786185, 0.037044805584578074, -0.02669057974459992, -0.04437652585568573, -0.10447865774037511, 0.05808699921023865, 0.1001116968674897, -0.07036427717856907, -0.07995814733669347, 0.0008487550298787226, 0.06567730680627408, 0.03439905113749171, -0.006107702430614442, -0.010710920833001463, 0.0035720189792365653, -0.0021399468072981864, -0.0014629658690111442, 0.0019105226704776708, 0.004996894746696326, 0.001567970497852792, -0.04115781937638088, -0.06794579269261797, -0.019889138480155905, -0.015241792993650874, 0.028565853117389968, -0.0041517156704095545, -0.02025286149120899, -0.05932584969244365, 0.03395384652765968, 0.008532926483144037, -0.07984402063662771, -0.14825866674089347, -0.044725882317599185, 0.003181237480142527, 0.10129190026628591, 0.06352638465527044, -0.022975341314545143, 0.0039033230257685516, 0.029836781940687944, 0.004459873118724221, 0.010720019402050491, 0.0026889543335725176, 0.004525939552207398, 0.004763487528943817, 0.00047819345952962043, -0.001999034408110183, -0.0031048996831990507, 0.011118767400486564, -0.04459388965981126, -0.039434623990877375, 0.037134944952000135, 0.004465456802185775, -0.009505312140186899, -0.0333714122586054, -0.0025942182085618537, -0.06722031568761354, -0.07271805297847395, 0.04064134355824846, 0.0287451066156717, 0.030337682693190225, 0.09364999974007689, 0.09992219961222644, 0.047959626901724936, 0.012058775521927812, -0.016143629964909884, -0.013089388059870843, -0.01807922296883822, 0.0012638939545555974, -0.002175578894862803, 0.0010249584946004934, 0.007594494817255035, -0.010651737932770761, -0.0016100270924697061, 0.0064353511851504555, 0.0013949086842461609, 0.011064762013823264, 0.0007855749022810462, 0.018406662393178994, 0.01728000331217752, -0.027284119252343638, -0.0023683877589791807, -0.03296585899564131, -0.034179472871703045, -0.03177801824905436, 0.024854567141711727, 0.008713108447710585, 0.027538581241366, 0.0032191763250836477, -0.007724318007015557, 0.0020654125196348985, 0.013143492077366774, -0.023655166364780003, -0.017574991684267557, 0.0028996902998989133, 0.00016035378805111207, 0.00246863125426686, -0.0020901251357238284, 0.0009374462582416703, 0.0012382983325661047, -0.0043907997295902996, -0.00630473368649276, -0.0004196757057540419, 0.009497268395980066, 0.004334868541428068, -0.006514876302026806, 0.005622333722207243, 3.85495378466369e-06, 0.006906484328161395, -0.006594444633979616, 0.007132526053847765, -0.00843386151365047, -0.001390812820334169, 0.011207572351851058, -0.002246067470293941, 0.009519678765568003, 0.00929341921376509, -0.005230375546436594, 0.0027767367626297837, 0.003906422000396691, 0.0026151892843327648, 0.009780509472230548, -0.0048354085176819765, -0.001318523200672047, -0.008689051595472447, -0.0006117539582807353, -0.002325285420650984, -0.012001033796370453, -0.0037562502022786964], [0.0026238039842393962, 0.005249145410754655, 0.0006530160356670491, 0.0018866350620605774, 0.008249689858724714, 0.006775745636257525, 0.00868211993615518, -0.006462132449711164, -0.002807988492890941, -6.927592927331237e-05, 0.0022701978398046705, -0.007769751377399161, -0.0012426028881866013, -0.0056978859119167875, 0.003476175534499979, -0.00967318375646594, -0.015518900901625545, 0.0038013488369411552, 0.004931674482609664, -0.004536244907593767, -0.0009909620581985143, -0.004588167415633867, -0.003742164084790195, 0.008631688527565838, 0.0023899883902889704, 0.005009713388398789, -0.010038488026343577, -0.006951699774592719, -0.00739875231907158, -0.0006805576476615994, -0.01039115497000655, -0.008019626065587858, 0.0024745541675858236, 0.0009091576185749694, -0.00775818319109314, -0.016840824342698662, -0.04716657669040629, -0.007592444352285444, -0.007068985307368643, 5.316533111027945e-05, -0.031316538873026614, -0.022397383672751528, -0.022348921433760018, -0.00913750037048204, -0.015356385090125204, 0.0020417316938437747, 0.002012115825502419, -0.013012568102795406, -0.016366497156671645, -0.00445215516037449, 0.0022200082129249826, 0.0006260687118244317, -0.002490449467954711, -0.0005432104203762756, -0.0002585054898019536, -0.005557379068927635, -0.0057901490421986964, 0.0033680841969115746, -0.009229981588560601, -0.0012152197855145443, 0.0065056989057696605, 0.0019497048444993407, -0.015412133237081604, -0.03838422991858738, -0.044961626652126184, -0.02764879303001266, -0.04764040544068114, -0.08930043056984721, -0.0745397532606252, -0.0876971065640695, -0.1288421062474871, -0.11021637155993051, -0.12085389434072687, -0.057939773852358024, -0.0461640870397712, -0.008454710618176037, 0.00830056015408866, -0.001222153373576693, 0.002332166274205056, 0.004718644467079892, 0.00877085249404402, -0.0004858040077645554, -0.001388250301927213, 0.008035570510752389, 0.0006638065702479773, 0.004725781503944773, 0.001269831670718988, 0.00351978885757303, 0.00023874232902537824, -0.0010254060684094662, -0.040080977190694145, -0.008979915722575196, -0.04987236852923665, -0.11805110429868565, -0.07441020285865249, -0.10537862910037282, -0.20703766574711274, -0.28812954925503537, -0.2034538575212202, -0.11765675524423848, -0.07314073590954126, 0.03697092434309555, 0.025982031037904963, 0.06193539095319996, 0.05641421579050748, 0.06958280721601874, 0.04017479582353433, -0.011176722980204369, -0.01485622010268577, 0.0004727623093330678, -0.008142568066363522, -0.006370800774751497, -0.0075837129166361405, 0.0018666672224090174, -0.007294436687066809, 0.0029475564777804485, -0.008530380879830986, -0.01804814194969166, -0.032988779896562244, -0.013010055792925804, -0.01881374403797442, -0.08540808648131998, -0.004403440432908392, 0.025912792042347303, 0.005990716852091242, 0.08202990045711725, -0.014703822587098637, -0.17526210032042797, -0.051155737865079445, -0.02753965650727183, 0.06784638979543273, 0.054006984999859314, 0.03364367424995393, 0.025337988924287493, 0.07989725105608578, 0.10407307489848762, 0.062217823471473935, 0.026486741595231424, -0.004275102712516997, 0.005811312219185649, -0.0011700121926116604, -0.008255047775720828, 0.005606538336596668, -0.00175848976383772, -0.026101863186357654, -0.03109147062430694, -0.02689325888690383, -0.007134112874928448, -0.04506317586520344, -0.11826634576335517, 0.061683256445477785, -0.10730335295880193, 0.05295180559596013, -0.10878518302314431, -0.22768346211732873, -0.3339477554627422, -0.4556199494594386, -0.4425218998141233, -0.08564357555002843, 0.03975598672765577, 0.14947852956135835, 0.09585192266737877, 0.15483139719949557, 0.2664971771801113, 0.14066579745908978, 0.008290635141829157, -0.027225831931279025, 0.003538892893039573, -0.014722034449456222, -0.003654221882931438, 0.007589169312386353, 0.011915357935551037, 0.013955385826386108, 0.08114982560536103, 0.006424692814586002, -0.23751414116436048, -0.23109037047100783, -0.19701232926101858, -0.17525335450151605, -0.05713344383039474, 0.20524146120431566, 0.05377975813932379, 0.03421254726643266, -0.31762383738516703, -0.6814457762901689, -0.6479080599504283, -0.3053238549065204, 0.044487583698370595, 0.19400087064396054, 0.33521341359794116, 0.3154473476086916, 0.30184185475869535, 0.11212661913898621, 0.02560519562827594, 0.005660786255115067, -0.004914779692988191, -0.0024296829186893996, -0.002660511065628261, 0.03136345075945778, 0.034947613604027955, 0.013606753313149762, 0.02022961743637229, -0.029625120030895926, -0.05340715289003694, -0.11855437398726576, -0.09892347741628982, -0.21326878451190098, -0.06736005910169003, 0.06821594782520143, 0.27990272655720017, 0.21135781538824794, -0.2945723800793308, -0.49596277131857996, -0.6255037499918501, 0.03537536838870153, 0.07738973893152329, 0.08114084026896615, 0.13574848592460653, 0.15905386841954097, 0.2441420872175664, 0.11591800215957364, 0.039075083643923286, -0.018616047699289966, -0.0015465842480393377, -0.0019408816074172864, 0.004307388800797567, 0.03787931298974984, 0.0667094678129603, 0.014335199993561858, 0.012250959017338046, -0.030710734818316102, 0.16791166175288877, 0.05792316011095438, -0.1847082755026821, 0.04029027579784851, -0.03483911132419503, 0.17668246816461783, 0.13307069935472773, -0.07022033602961619, -0.3977188204474917, -0.7516236281113686, -0.43956301362309647, 0.04780658041731237, -0.06510133441836402, 0.22155200006521744, 0.19360237302609323, 0.20597041768878893, 0.17869132511076474, 0.07673415743914518, 0.014850719012198895, -0.03669225959185789, -0.003352807645514154, -0.0025767193459221636, 0.024133014500332114, 0.048350089099123875, 0.07028580097273238, 0.08524110037109713, 0.16007820444735904, 0.18547061406522564, -0.003030263528944346, -0.02567495770662257, -0.052564574741868306, -0.0096190679056188, 0.22648120505356106, 0.13634194703695365, 0.20000142928182188, 0.19922588980768674, -0.48155178924779335, -0.5742868898307183, -0.15044673167193248, 0.3212385850352816, 0.19889436887615447, 0.29046529717244374, 0.23349591803088557, 0.031183327866347962, 0.17033210587833506, 0.010643560391150263, -0.027360809809793354, -0.054116016408491105, 0.015147437394078533, 0.0022364861064811388, 0.001583906051101458, 0.03012976863038258, 0.00017564769879554483, -0.012037822734133279, 0.12941405393979716, 0.015335376363962296, 0.010655991677368354, 0.20027226283000332, 0.02772890239493364, 0.026036773312515037, 0.1728996389986273, 0.39168963236924703, 0.3891789268211769, 0.0804229820276583, -0.6962836377091783, -0.7030399281605652, 0.0030270402536254947, 0.23206355934948283, 0.39221048254207297, 0.07240610236493115, 0.11013397957722681, 0.04654383372074877, 0.00572423757047285, -0.11180264119125982, -0.055003466306182844, -0.04626001784878092, 0.008504145753154857, 0.006266689840351388, 0.008833606369266864, 0.04549264455351583, -0.010962228618159695, -0.050323441438496555, -0.014672362808736208, -0.0063537189180748015, 0.07905143063063488, -0.08496701099999492, -0.0034072852504607545, 0.0848006143265571, 0.22674010470648376, 0.44065332940871854, 0.4023352664816417, -0.12761679176977492, -0.8918361295367443, -0.6055088783584451, 0.1190980929854882, 0.44821892327157437, 0.29365548422224397, -0.02306962395164948, 0.08238392200929542, 0.04733771725316938, -0.039286875093648685, -0.13947143316925426, -0.059763333827691355, -0.003294707611220115, 0.009988534242925512, 0.0023161449746976264, 0.015932928532004082, 0.04044530744964677, 0.0479146946069173, -0.031771171312937475, 0.007262791759141721, 0.050031581135772114, 0.07742551256966362, 0.13455534408096473, 0.014196684965341676, 0.09910606392027811, 0.21829056584054737, 0.5409013856083105, 0.3456345144144189, -0.276836148753604, -0.5979022114734638, -0.2510702054081392, 0.2098846650457636, 0.4170725191273911, 0.13850763071743782, 0.0032642180962566152, 0.02246966531321413, 0.19347588129461185, -0.20030289039352747, -0.11645418199319472, -0.09331825000236289, 0.029161281839238107, 0.006116008490017053, -0.0022396692536165393, -0.009995622098349961, 0.025791879970763414, 0.0766629768623358, 0.10837901960874664, 0.07770569087277146, 0.1419401246703744, 0.02786448350920021, 0.326413392054581, 0.1294428345320151, 0.15364574485269544, 0.2679396252448062, 0.11061760061376516, -0.2131628954363928, -0.3805917789392345, -0.43535677411920165, -0.27771185944419347, 0.37351332513700003, 0.14797562146077953, -0.21982178987603357, 0.10980829883806191, -0.20609718655373285, -0.03837798160203341, -0.20501363244651952, -0.0812582544996161, -0.030935859118138214, 0.005583833632025597, 0.005374365381537213, 0.002817675824497206, 0.006951467517597545, 0.016576653615285403, 0.023314178812802185, 0.13141991196028208, 0.316957228890585, -0.07226214108536906, -0.009907714929019847, 0.007701629452042855, -0.07364884103939884, -0.08151689251400239, -0.20087517123993226, -0.2275222516814321, -0.3324450272598637, -0.3279481300137829, -0.30303079828866347, -0.2085204201702732, 0.1418269870002814, -0.15250339981747418, 0.11057257638457346, -0.2552101191805027, -0.3306077389161191, -0.08063401543382438, 0.051015968705336145, -0.024224653685175377, -0.05764090356469371, -0.016500962520243957, 0.00755246226368832, 0.00415704284314186, -0.00804230474848481, 0.01937906639391066, 0.05010760751188462, -0.0011444572334235953, -0.04448044287904525, -0.08487859978777501, -0.035732167915988065, -0.08613060453477608, -0.009546242481318747, -0.059240132696781286, -0.15043693002166386, -0.294970026959703, -0.132798278344227, -0.19026501125246378, -0.3389534924561489, -0.366504109292467, 0.03294130279245905, -0.05611098329301294, -0.030225501238464913, -0.05065868773820923, -0.06140395265499147, 0.09550275783364329, 0.015561246411754116, -0.11483644068117783, -0.0771760451101948, -0.01785625290775034, 0.0038287523777865953, 0.0025491322348618543, 0.0017008711851550099, 0.0025109292804091285, -0.003352082935945683, -0.06890689367575113, -0.2394426675895405, -0.1309060952373095, 0.03279146622800923, 0.05269257877508772, -0.2043403561016158, -0.2724193319411319, -0.16762494606176004, -0.21048096362954524, 0.050018847459603825, -0.062308529393555884, -0.11552376526557513, -0.1577028370755996, -0.004536238507482832, 0.010968434021944322, 0.041351288643626846, -0.0218848164265082, 0.14926776267603595, -0.004720369324730148, -0.13649981463931388, -0.13244908305005623, -0.10106207910666931, -0.016608419187794553, -0.004412101867168878, 0.005767704049984299, 0.0016065366186337616, -0.0011982818213089423, -0.05083543284034065, -0.014460596407878832, -0.16231178981154834, -0.13954929636960853, -0.06292058869577524, 8.382129994590246e-05, -0.17279398107936783, -0.2475683718026191, -0.22548521051614698, -0.07324566470165694, -0.03139525548201888, -0.0017322956974952413, -0.18292778215725186, 0.018562159287061054, 0.008662544506057664, 0.27471721565107055, 0.06217971516931217, -0.012900435410333238, 0.17929824468616382, 0.007925112500643107, 0.020987422033938056, -0.027202146019606355, -0.0004479614640344284, 0.010063085089947158, -0.006993218844989925, -0.0030570463555827467, -0.00281946063587851, 0.0034296572486817276, -0.09602678765463411, -0.06441308248376248, -0.036159625959268735, -0.10725168366431906, -0.03196404170128128, 0.07644463183713963, -0.07062862957803195, -0.28563925118410116, -0.08693899921405025, -0.047971126877189095, 0.047436404732093075, 0.0949100918627044, 0.03338527312576666, 0.1266951819487914, 