{"sizes1": [784, 48, 35, 10], "biases1": [[[-0.406972344298922], [-1.4227526482357757], [0.6843270818506463], [0.9054441944997084], [-0.3532450218510154], [1.6100750159505774], [-0.13989552867657784], [0.1153351611721195], [-0.7275767645509584], [-1.0930826288676365], [-0.17047649407309476], [0.7842543180409511], [0.0880671625827754], [0.6251431640058974], [-1.3366045482606423], [-1.8849320368807267], [1.615680225036532], [1.015271387772649], [-0.28308091717143136], [1.6805337639040108], [-0.7833812244190458], [-0.7394764060410942], [-0.5798001295290193], [-0.3073113756126345], [0.7376760363856724], [-0.01669168521287429], [-0.7782913590283055], [-0.8057284954581505], [1.98191977717581], [-0.5302320801201319], [0.715839051697524], [0.536950912192643], [1.0271854940537222], [0.2386436312587035], [0.9621167344310413], [-0.1919197515493062], [-0.8096404692364333], [-0.29228372042032325], [0.1470489272526494], [0.5279123139430488], [-0.7000837547812228], [-0.42677440567877756], [0.1513034972267875], [-1.0384464944660217], [1.4872237664416756], [-0.18687379987059946], [1.749447047133862], [0.6926890453442965]], [[-0.5918987246540409], [1.0738410948347192], [0.0590505785981089], [0.1496214852967959], [0.479317114963522], [-1.2933471787980808], [-0.5826000803168868], [2.048987274678428], [0.13395931391246055], [-0.5730918207843366], [0.4691661333366405], [0.8845160101844045], [-0.4746434940574484], [-0.46955162727023037], [0.11956756404762015], [1.7279095446904842], [-1.1423181061787357], [0.39037107311878033], [-0.605287534229262], [0.22948071324517458], [0.4847406852515522], [0.6404583321323218], [-0.4123369118516981], [0.7444634600252578], [-0.38585701459388744], [1.2082339703553555], [0.477587763851348], [-0.5200794906233668], [-0.7713994851379059], [0.08082587334497957], [0.8675264706072806], [-0.48399876028802524], [-0.4903413445375308], [-0.31957000113713774], [-0.9042902201645776]], [[1.398846083109458], [0.7530105633169099], [0.8367724734281741], [-0.49338170544628857], [1.179118893367508], [0.7520959775560225], [-0.7655310947250686], [-0.12770248806682083], [-1.223063256202186], [-0.27140919413252246]]], "weights1": [[[0.05656784982149155, 0.024704835736944774, -0.01238443820344191, -0.03515761829670791, 0.004162435087137707, -0.004709907214844684, 0.0012616747552787967, -0.03491263658886668, -0.03108334955166959, -0.027768786209269026, -0.0054168333135763335, -0.01957300363674148, 0.08566446546463156, 0.030511827407428613, -0.017429713862155406, 0.03968035628091064, 0.01755472703514906, 0.035577810319563016, 0.023662261428222944, 0.039393677175734984, -0.011255670591859298, -0.06971313237239236, 0.00931300675761734, 0.023792449760305562, -0.007905360543324056, 0.016445864445266082, -0.06106643265903529, -0.050581807608976945, -0.0924856298656284, -0.04332227241382151, 0.04789921774356416, -0.0531202749056779, 0.04001785710513487, 0.03497155714104245, 0.0006263744732107711, 0.04086644724070724, -0.04064416155814312, 0.02242284514814602, -0.028730674391783867, 0.0518501661535304, 0.02909473777789297, 0.04784897272773077, 0.02425161660901364, -0.01911549765166416, 0.027261657374892372, 0.022228523482227053, 0.024002558448604532, -0.06437727553137822, -0.006652892657130185, 0.01564500206720341, -0.011631276635450329, -0.08406078672779858, -0.03425576194998349, 0.0025407267234585965, -0.007375451190896759, -0.015004704858201273, -0.021752187974427416, -0.06577125622091759, 0.02924192689819004, 0.008367044879900908, -0.02133038022502678, 0.008099235503231479, 0.029034903988710368, -0.004936177440766326, -0.007699647636322125, -0.027642058240369163, -0.028887736627556174, 0.008936109688604687, 0.05327400402152248, 0.0144869935857123, 0.095672358167798, -0.04352841714899892, -0.01725161091996602, -0.07543838755727673, -0.00907262228854441, 0.05925123909401749, 0.03147150943035541, -0.05836575542764201, -0.027733639121898915, -0.014134559708422607, -0.019624078876990324, 0.02168745653518468, -0.04113858293397045, -0.009571681803002387, -0.019956531110034738, 0.004033089467526584, 0.004687994712341765, 0.018373989153267815, -0.07662445184598111, 0.06626714980140812, -0.04214027873036016, 0.004037550186537552, -0.030529707757580522, 0.028862116409602366, 0.0055145448957705625, -0.02323227705732907, -0.028234759916387193, 0.0013872636446104504, 0.009329306613883486, -0.008928363864473573, 0.02115029317691795, -0.002632963695668296, -0.01877616005800744, -0.005211805695045383, -0.006514212235093303, 0.006466538423104838, -0.010381119552667564, 0.005112104000371826, 0.04262316503427472, -0.03578482706731023, -0.01610325398809561, -0.000728758884656738, 0.026440798452482712, 0.021392625104190516, 0.002403758050812492, -0.009097549122060011, -0.037665400794492036, -0.05420927391050604, -0.020965016689065176, 0.04895759056941847, -0.10628959259904058, 0.002737568908202977, 0.03559557125957847, -0.051110476653293054, -0.05857162748095417, 0.012275050340593294, -0.06220595859006535, -0.025617704208296708, -0.05850654789015857, -0.0015381439629358388, 0.015115266536435608, -0.04691723862555245, -0.049546121444839934, -0.02179349159186255, -0.04472186615996126, 0.022369885475170704, 0.0026571135173096084, -0.10235726570429501, -0.0033751013390095432, 0.05255829144037549, 0.009083415392243192, 0.002972443958278499, 0.024919975204439455, -0.030208297656985992, 0.024355196035816547, 0.007077511834826321, 0.040950544271958086, -0.025995168288906058, -0.0540610140825702, 0.05125297322030533, 0.007465674126595135, -0.016668465227644057, 0.030723854751084353, -0.06679327787018427, 0.014688998374433146, -0.038520939217053594, -0.04201310272220007, -0.012989147606059561, 0.016580110770974325, 0.007343077987813544, 0.010243918353275594, 0.013463053320519029, -0.01951121341150841, 0.034450379785597465, 0.011013334420544611, -0.003685346038803988, -0.0015697300591522938, -0.057732632765202734, -0.03437918669473695, -0.02370279042685398, -0.0366842248316146, -0.060807037320066724, 0.013980989803117771, 0.07917880357085894, -0.10821889802700825, -0.050579998395180424, -0.005757171527722251, -0.013176399232167225, -0.03237127132901082, 0.01503393437696428, 0.007831498200737393, 0.022932223234158562, 0.05347473314080679, 0.007473946315674942, -0.00666435971656132, 0.047846852920422005, -0.008427711752079032, 0.0008255662411173213, -0.03862993591968324, -0.044718107566830936, -0.02265238906917798, 0.05529318000751699, 0.028590235608877527, 0.026762949494313494, 0.033401759472704885, 0.008822346982176205, 0.01481531478673535, 0.0006005912010000238, 0.05519643057533142, -0.010557147626623204, -0.03354421810520961, -0.034969420292397704, 0.04216559519303437, -0.0023321560885154044, 0.11647243227111541, -0.08869270298386202, 0.08879205846933898, 0.06289951003969622, -0.04784045318204559, 0.016166773348023796, 0.036223548664540146, 0.051928641330923286, -0.007585643753403293, 0.04792058413695053, 0.040094092194574736, -0.02141363960820766, -0.03409862136362611, -0.023968438855872215, -0.04180694085450409, 0.016065795916017832, 0.030365242510852947, -0.016623208642376385, 0.029165821869857233, -0.008842750214937975, -0.05928930569707961, -0.0253514493081169, 0.0009726318648450264, -0.007919753899747695, 0.002116655755505462, -0.007119536112437863, 0.009268855097312748, -0.022362037459585985, 0.05838422723267047, 0.011447129547028567, 0.006094031620250586, -0.030861364288488402, -0.0038245515196272083, -0.028512763787393036, -0.008840707984947644, -0.04290650085180856, 0.07449046467804912, 0.03428216642161635, 0.0017839630710327556, 0.04607530773865145, 0.010239219131442845, 0.016361671865185088, -0.018395332567107386, -0.034796677226596434, 0.07730396750207756, 0.014504550018562604, 0.044331693859862284, 0.003942140608640708, 0.0523246836153143, 0.01961316866265812, 0.062111491586679175, -0.01667112663473961, -0.009420443005242298, 0.004056241020979946, -0.049262491608916284, -0.09983419667353131, -0.013242237307348744, -0.047937853197454784, -0.03733790546242792, 0.04243276375489872, 0.016049104902366496, -0.007063461850012547, 0.044533760200420644, -0.006858791939461839, -0.06063342387711822, 0.04222302941229948, 0.06209118781779061, 0.12153945844215255, -0.079064951321749, 0.008349017211034109, 0.00585475900567956, 0.027189399532595564, -0.09306446680652948, -0.04812868762991338, -0.0068385495422938775, -0.049253097006112044, 0.00042761488493452734, -0.040024796464637476, 0.00027790383490227023, 0.022601073168569543, 0.10669849822388804, -0.018999815968246507, -0.0024248185021237107, -0.044332792537148655, -0.07250810714454718, -0.02918048928470763, -0.06029146074675639, -0.055127374694728705, -0.027033513355162138, 0.08756418297344737, -0.023546808764615505, 0.014428953946629968, -0.08151302909823235, -0.04251204369593948, 0.004858052503292951, -0.0304445514214604, -0.08415698110294545, 0.015133382808723348, -0.0036355313851259064, -0.07371959789110905, 0.010291326029964262, 0.0005998020018335904, -0.021617447997126133, 0.007119076152148018, -0.0007144180697038819, -0.013732194004244016, -0.005726483568402858, 0.003018734302611864, -0.011121880675248717, 0.029586359809980256, -0.022149789776919553, -0.03423844838603042, 0.03340503210216848, 0.04582219769990046, 0.04986885889984139, 0.0959475353318056, -0.011094040323675997, 0.03273999330203485, 0.05734830678784917, -0.03215663849848318, -0.006500485643932801, -0.04770897049554552, 0.0375053362816592, -0.0009393502458436103, -0.0018625752813935924, 0.042849359424726764, -0.03865921393267702, -0.011973156591549365, 0.03096457885119454, 0.007310487776785041, 0.05198490567587556, 0.04302958641396208, -0.05497888530329477, -0.008985486282579797, 0.013445139774857113, -0.006600259378344812, 0.016870069662891174, -0.006575044732561888, 0.0387709122098654, 0.02985408525203247, -0.04363065452537967, -0.020637423694595064, -0.024466712433921296, -0.02365616198975203, -0.030009706084234308, 0.049282730710680005, -0.08387897429040668, 0.02590832667070757, -0.032922188827332395, -0.06148902103299118, 0.004291378625789413, 0.05586228137798337, 0.024678668412400708, -0.008011093661377451, 0.049950254945029304, 0.034870463362847076, 0.0010546241837891255, 0.003204129276206909, -0.03787036713539542, -0.05307550090730211, 0.03480367360675216, -0.07424919979954736, -0.07234259560069115, -0.00942632406841771, 0.010092451905924785, 0.007334180751098895, -0.003210845561841646, 0.032068267659191546, -0.03062874036025373, -0.052910016127979895, 0.00325575591853847, 0.004429351554272904, 0.016353260559998355, 0.0048348906501120255, -0.06853439719322446, 0.009641849498782577, 0.004931573663260432, -0.04813095513748983, -0.03297507976577115, -0.02635357249768092, 0.06453460348828054, 0.018053313216453846, 0.01415731938889707, -0.0033915340937942583, 0.06307036810104094, -0.04693488730114221, 0.02338240409742237, 0.027511458020210353, 0.0547486711100757, -0.014179980711309664, -0.0018518650841850854, 0.001284350924314942, -0.04085158426253161, 0.06354365971821078, -0.06275152217429039, -0.006321068835810082, 0.050172537891858424, -0.012295113706735817, 0.02704019473345928, -0.053105508562000574, 0.12584844347095828, -0.04644904384981452, 0.04489882200598363, -0.04106570098483387, -0.07992255444407327, -0.0019604901517407845, -0.018133411094897887, -0.005416447443118702, 0.0564177606075583, 0.019782416554794794, 0.020522175977636687, 0.013689006256035871, -0.020535572825769104, -0.007795148252967466, -0.04153881420019094, 0.016992612949826673, 0.0359686211261992, -0.04820030547038069, -0.058886898544072024, 0.057122821613786255, 0.065997369053282, 0.0957455321801356, -0.011666658445159666, 0.0026155746966514053, 0.019576921070785656, 0.03776975200798842, -0.006460695986232205, -0.014043291259604716, -0.029412204600641142, -0.037212544243943387, 0.007629136229155257, -0.0026177100326474794, -0.03034003311328478, 0.033452178612564006, 0.017161176958880486, -0.026074473616107863, 0.0255674359823346, 0.0182438707634198, 0.029329005248024797, 0.046247689785316126, 0.04440954925960346, 0.023590726996786, 0.029018926196438286, 0.019222659974488073, -0.03460738297188295, -0.04122935181818961, 0.07419984075692991, -0.05486762829017685, 0.03328546254856946, 0.026388996188136223, -0.005741476709687692, 0.0468341235056162, -0.04612007276445381, -0.026850106692331035, -0.019875585503041037, 0.053174366888405565, -0.015674017845105862, 0.020637790312695255, 0.027635429621801117, 0.018959296414416436, -0.02830524243303586, 0.05093508559828761, 0.011183298929631864, -0.0037273583409041093, 0.014921486865059522, 0.01734606764405047, 0.010785985693003418, 0.02742831002201041, 0.03350561550200477, -0.030515451516121127, 0.020533551101240326, -0.04382808155869965, 0.03639674105961804, -0.004296540529237303, 0.014501439715710362, 0.023694082342686974, 0.051206358180697346, -0.007213935434244911, -0.01995993887502253, 0.022770832760284975, -0.03956795489092978, 0.035479718273342356, 0.011087804125530148, -0.06642815176859176, -0.023658515938190534, -0.03724912908800269, -0.03462645811085296, 0.04712091392735455, -0.010124471826808942, 0.01935830373970409, 0.01825301414847593, -0.013160604825394431, -0.021536428980940124, -0.016024749346074993, 0.03923281791066091, -0.01790977916958191, -0.02330043147659533, -0.02122381979856843, -0.019910484410168898, 0.013309296330558024, -0.05590683036477491, -0.037917664448942866, -0.0002877067796223253, -0.010867242918044933, 0.006126504100490236, -0.031206666403682255, 0.025303406269447874, -0.028671848952313315, -0.016396593542724713, -0.010004418205144857, -0.019173558965328404, -0.02370444462173649, -0.01838225995840568, 0.03166028108438872, -0.024963725185350383, 0.04220806875656389, 0.027165493663423156, -0.02082982249046192, 0.00477217501927651, -0.0034665526162983304, -0.022878861449848947, -0.004726600122755787, -0.027801870676059444, -0.00372717399558959, 0.11607438846178364, -0.0313900775476172, -0.016440024209303895, 0.05109483613025106, -0.006204339110962102, 0.006219148896265106, 0.018011782935522302, -0.04926400648981544, 0.07673991212722031, 0.033941619093129365, 0.0018574265685251889, -0.00027334921714442623, 0.009857314544840729, 0.05744858157717314, -0.0257141977027722, 0.0343340518832999, 0.027097877313151292, -0.002504581242334611, 0.08474392520349017, 0.02911620257608705, -0.01647029992869329, 0.0512698400734498, 0.01403999722029033, 0.03288335732946254, -0.04677192593944402, -0.012031801751218084, 0.030712221762561463, 0.00480659980919059, 0.029323574614435872, 0.03151513462961322, 0.008069406496918601, 0.006675428124784799, 0.07070449476229078, 0.006809804037826128, 0.002292843743358699, 0.01262141326598198, 0.011503745911565796, -0.0010079317581805592, 0.027803140252087855, -0.03494184702148728, 0.034307415952262034, -0.007462236826329777, -0.03076988174029974, -0.0064422025034611115, 0.04433394437529951, -0.07395244283964984, 0.03005820777875201, 0.009798757613065107, -0.02015022002709411, 0.0656792020759577, 0.0038713472204729344, -0.06269647926625184, 0.015611859942755333, 0.06210737699467907, -0.025500466077128435, 0.019664624437980723, 0.015479409074462606, 0.028771016844418306, 0.046634865953707305, -0.016535174971912626, 0.008772539686474217, -0.009300307009327352, 0.0030475685901570995, 0.008874691077907858, 0.036846032963707545, 0.029017042214750828, -0.010828669830145245, 0.06074094307023199, 0.0036114648606441033, 0.006608115219076585, -0.016654919966291728, -0.014555372404380386, 0.027985170818131726, 0.003909675367893098, -0.04080965561302884, 0.020050228058932616, 0.0115113848618649, -0.0877884468802216, -0.021387183889934623, -0.07101906184311897, -0.0068432388754074615, -0.011712189946801042, -0.008479708711278924, 0.02872546050761848, -0.013515748712383239, 0.035847893366931324, 0.0378866927828408, 0.0427307254669428, 0.04972413244218839, -0.029699946273550045, -0.015346776649070446, -0.021255098543781208, -0.04920256335542296, -0.04267247144890186, 0.016965226914637525, -0.02281826662453133, 0.024202247692643418, 0.01774165574969123, 0.08140480947618914, 0.002539014517061843, -0.017230213873872666, -0.004543177711847269, -0.001348912399278489, -0.022738000271325144, -0.05165100043539401, 0.013719677643272343, 0.01325097480049082, 0.020102817334070374, 0.0026028921824569284, -0.027458422299431656, -0.03801428289656856, -0.05507567030242881, -0.012564127679456154, -0.040643431337724564, -0.026422412411105673, -0.04264444206917909, 0.02381319195419933, -0.010753010508652879, -0.0017001658958810853, -0.022213272599916758, 0.04414930228216992, 0.002916474105379478, -0.03770610022707751, 0.0004873900551818973, -0.043579552143911536, 0.0319544663729741, -0.02720071918191287, 0.01347358585886713, -0.027765199101847497, 0.003342862341694266, 0.022363076992282814, -0.027238550171607808, 0.009928015026891336, -0.013899152390839688, -0.03517335788511696, 0.0279027244288983, 0.03017492582629621, 0.00808769290063186, 0.02117884114320986, 0.006447376637527089, -0.013943473500208563, 0.004706516302346773, 0.017341191695165487, 0.008639860338543345, 0.0008367028897698501, 0.02214157889091625, 0.04524888812013671, 0.03831280609692415, -0.027773980107223314, -0.043147852318733235, -0.007758015678329502, 0.003548806810055005, -0.053855050677981776, -0.06692129297219267, -0.026099076137133394, -0.02321018417131707, -0.0009984656412631665, 0.049495276993702084, -0.02075907756292671, -0.06953226203197994, -0.013204129167666414, -0.008949037126317337, 0.04333220108272378, -0.033340706006612424, -0.0036134199382161906, 0.022784791083296025, 0.042400168423963505, -0.021737472876211507, -0.016052949408276646, -0.036235378325795674, 0.026764805722531013, 0.05718072496392, 0.034199185794450644, 0.013001915949671521, -0.011163453463177302, -0.06259765286577205, 0.03635300175829966, 0.019443583532402157, 0.013142558248782773, 0.02957522672815221, -0.01912330837773729, 0.039310615456973085, -0.005839155792490948, 0.004694367369326913, -0.019027712788226885, 0.00113753280215019, -0.03587038276418859, -0.007394181301074194, 0.04358105795955509, 0.032223482672518, -0.0550575246796912, -0.03327485509725942, -0.02665730079807437, -0.03978598706073346, 0.004985580567253058, -0.003902645083667621, 0.011566219726626697, -0.03268747007814913, -0.025750602269851486, -0.008533193358280396, -0.02035173500154645, 0.03317804471757727, -0.02404101533223554, 0.039534963379700534, 0.055445277484244805, -0.05785810183961445, -0.0847211987095642, -0.027713765640212273, 0.02825987628341273, -0.03816680635659586, -0.050073472397563726, -0.034335252644755114, -0.023507313612562013, 0.011322890306672861, -0.007730778636112873, -0.018516003836326584, -0.013851307466332032, 0.029826448167377145, 0.013478761952999633, 0.0282952722001455, -0.08782984444074494, -0.06512223747630493, 0.04546666980323146, 0.017973955510083958, 0.022157087086908646, 0.03261130004916018, 0.024736801200782865, 0.011264969920666132, 0.024035707011903527, -0.0029006324478138066, -0.04414080916420076, 0.019941941618587117, 0.05968384246426606, -0.028558070631051865, -0.011546893004396595, -0.02478308614578093, -0.04153381929662054, -0.008466160334056509, 0.002085533914878306, -0.022556571956481274, 0.044732235398145255, 0.00529915118608476, 0.023289246386843064, 0.0332420306837951, 0.025077993244352694, 0.0583902627406029, -0.09208975894893898, 0.024816891163315317, 0.027348711411898145, -0.06612039708100162, 0.007101275097417961, -0.054595848546825775, 0.0602202289001073, 0.024731115054384346, -0.00440254607546325, -0.024025880890341432], [0.013862013189447053, -0.03888107123860002, -0.08619962182405848, 0.00474401059769173, -0.004709578393331234, -0.017148335263628082, -0.04092813185906741, 0.03274914261674587, 0.04786796342649076, 0.026513607498747076, 0.01377964441823734, -0.03309951709149351, -0.007397033444541054, -0.017995083198186962, -0.015723134887068106, 0.05873733700067337, -0.07786608190036715, 0.0042936284609302626, -0.03699880625316872, 0.014533422314627367, 0.07001157867315366, -0.005720133431628961, 0.032165264814328756, 0.04090626534577951, -0.0029760658166729805, 0.03631345081091087, 0.01794113460071615, -0.0034472406636723804, -0.005585634535068469, -0.021282249563365024, 0.01957192369462008, -0.031102509816345554, -0.039641311982088874, 0.031113507309816234, 0.01162070488224648, 0.041084590575402036, -0.007474217959363648, 0.018553096106923368, 0.024376647751835435, -0.029136827767393875, 0.010477515276139411, 0.010592182985674216, 0.034387352559268045, -0.014953752572814895, 0.05510074271794868, -0.07625902698035293, 0.0030101255299037036, 0.010974633058076414, -0.007340556324459818, -0.019836395861658786, -0.01474947434648717, 0.01091990471417641, 0.05196318628222546, -0.04925502851528242, 0.0037336082506684164, 0.015115826815240556, 0.0249762170484442, -0.038168323720919876, 0.016975504489790353, 0.05283899654266515, 0.04641608817591781, -0.060647531082995254, 0.0033953187552676076, 0.026314893746706643, -0.015958463788975686, -0.023314441783180994, -0.03720633044047826, -0.11962034531880582, 0.024040816793678182, 0.07706044437115449, 0.013493430709269604, -0.033408886601090086, 0.021970921182640425, -0.016932899358198757, -0.011906546130458122, 0.010019265435374968, -0.016298749653476042, 0.01622342589675673, 0.04008718178736663, 0.003095605294694503, -0.02334164498706711, -0.03216038151558096, -0.04243922232938263, -0.04593623606075602, -0.030344225896277822, -0.02093806392841716, 0.042959207629786236, 0.03152675458785558, -0.040411278568909366, 0.027816827456300264, -0.01361770432336497, 0.04125188529199318, -0.014854673206000271, 0.05509403429663633, 0.006724615851784682, -0.040174706913293654, -0.028258295204601158, 0.012692792125695702, 0.009682467203449467, -0.04447012383841122, -0.06457242989126297, -0.012827947087093077, -0.049758244875712884, -0.03463290246378671, -0.04092130679002594, 0.02170378028490641, 0.007187621393574743, 0.01164143431960317, 0.007384769127064042, -0.031065609046728688, 0.03176198929265766, -0.006930801943643404, 0.03793598852946458, 0.025756145018338134, -0.053511795233340986, -0.024356088124530387, 0.0049456288635144, 0.02446188582219657, -0.04564692196137682, 0.004472754182490782, -0.01851048340787223, -0.03821108256286069, 0.029052746032514575, 0.00604281927855726, -0.025683522504867155, -0.028710123425061164, 0.05374605255197084, 0.013218471582320049, 0.037029950071614484, -0.03230288383389505, 0.0010777735618922456, 0.026227369392602562, 0.003430173116856392, -0.016499610014789494, -0.01732878385953305, -0.01611084285082276, 0.018142443666117912, 0.032212865442554285, -0.0017612081172407958, 0.03375586325759304, 0.028578505245809765, -0.010985124606681858, 0.04417851794416935, 0.09996721121696209, 0.03150431993205784, -0.04895355144422654, -0.0016936890733625068, 0.025051688968152706, 0.0025896931504548744, -0.004304059401862749, -0.031340619548124636, -0.022841899356099264, 0.06734520979156977, 0.07992307190776535, 0.07179476579417174, -0.01860526331581153, 0.020302941058555266, 0.07400639164294362, 0.0001628032510358894, 0.030456900700270788, -0.03266650221172177, 0.06699536429559669, -0.0015669341932445415, 0.053651486768577346, -0.03701788211570754, -0.007965869351949014, 0.03234351420496916, -0.038861689662447615, -0.012786042488105314, -0.01723064501731084, 0.04188794663054929, 0.005597788712596454, -0.008899220691692388, 0.02454481352543881, 0.012005303832331919, -0.07223675677374189, 0.026325588874167923, -0.030397180308656825, -0.012031225413890142, 0.04072122459658145, -0.07083190171336133, -0.022722376208477675, 0.04664036108485874, 0.007827015789105123, 0.06746133265034672, 0.033549737948490595, 0.0018313383723123234, -0.02175270210054709, 0.01346208141010692, 0.03181013277917053, -0.04660459825250857, -0.009641781327100604, 0.014450037028985977, -0.011798500463627066, 0.003959885220163841, -0.06758985421037784, 0.012812862566109596, -0.0037245505648157385, 0.016989648474055364, -0.0259279084814199, -0.040059806466054206, -0.041087970269807074, -0.03269316900731996, -0.08111983251946688, 0.012016888552222394, -0.00014091510742435443, 0.0076824580599482535, -0.05633996660609689, -0.007496289124675356, 0.013187711030232486, -0.03647305882073555, -0.0037039532081047342, -0.006451130746405132, -0.02790981908795908, 0.003897842950104136, 0.01919207886063987, 0.021162980991122265, 0.018583771835198964, -0.025370072729691506, -0.05113922567102274, -0.02336299804991745, 0.03497645123958369, -0.017376537215467277, -0.036417936457328715, -0.024195690308169596, 0.01167017482561603, 0.0032850687188855777, 0.028597788605593255, 0.06344030895489845, -0.018574474038613193, -0.023207032286536793, -0.03279204139057299, -0.010131814147021278, -0.004760844188742842, -0.002164485229512216, 0.0066160285991260104, 0.009436700161117294, -0.02354667424436166, -0.08728908846451532, 0.06178385050250722, -0.04760509571714922, 0.00848381813673674, 0.026025408292347618, 0.011434565126843611, 0.024612936958354557, 0.005208396924268966, 0.016664299661876953, -0.0009715012211149429, -0.0016065150900246698, -0.047388887156498125, 0.03024588255775838, 0.027330595524335845, -0.008379481651699917, 0.004142845623833438, 0.022885510414129322, 0.0016151077561790054, 0.05471476539411542, 0.011624972904233016, 0.017215228336786393, -0.02242375807508375, 0.01154366912550466, 0.023925559975033827, -0.010746500622596442, 0.024338311820969, 0.044549674164461865, -0.05839586764492411, 0.017613285052392756, 0.015234172368903037, 0.014831523513866832, 0.02951271498815297, 0.034782730958531065, -0.009726698031640111, -0.022955401870229902, 0.0005449792106952014, -0.02400010230287656, -0.02204515256921852, 0.009082351423972531, 0.021884766275254215, 0.0247454818078491, 0.07213870505136208, 0.026613416468918506, 0.05717624871895649, 0.03669570291297146, 0.010390568070901, -0.014556955606399828, -0.025779074634593852, 0.05062085383061331, 0.03919417156251381, -0.03147353816269894, -0.038935351194037356, 0.041750390661728407, -0.03914618150212746, 0.02064992384959277, -0.07229967005686742, 0.08926913717792996, -0.00153751586495782, 0.06220332412006492, -0.008924965859930746, 0.015694437260913248, 0.02198804851539649, -0.013657440209959208, -0.06022463678614881, 0.049987656980927886, -0.036314107642449946, -0.02643234519538797, -0.040033352286578686, 0.03576781363480836, -0.013847205920688081, -0.05195379530491142, -0.05595800919725776, -0.0023119582847861307, -0.018567682624263154, 0.006524730305481668, 0.005190573385039253, -0.014001860317554658, 0.021900296280006275, 0.0006397956319478416, 0.054601980408202126, 0.027281575788344958, 0.008872504829294248, -0.017219391499810117, -0.05221388449520809, 0.0020808262181422556, 0.012129214185625597, -0.004811310047830429, -0.002037421870889415, -0.013309530698341352, -0.08107279632048713, -0.04765812919525359, 8.584251005406774e-05, 0.041158512408309644, 0.03132772175245201, 0.03928553354818808, 0.0631581212375744, -0.015488939229687708, -0.08397315956922999, 0.09946455133916558, -0.02342143908407261, 0.059773700738535177, 0.026489311429738205, 0.024660208524980874, 0.04016981507225503, 0.024547332909200605, 0.0038343178863625804, -0.012208349378604233, 0.05742153579451665, 0.007513842974270839, 0.037493639026687134, -0.05643664010266992, 0.004045091222687131, -0.019139730510702384, 0.025245942124258795, 0.03473190814123692, -0.05188179884761802, -0.02015164741631146, 0.01717182995552973, 0.008414396243464253, 0.02754420888996842, 0.0027152308604645003, -0.06157993914073947, 0.021065855818375945, -0.01578730033415447, 0.04829153007405571, 0.04432949442519655, 0.022472641043355356, -0.02279549677378471, 0.011021401556573236, 0.026180723468682453, 0.0023689082847719706, 0.04058193406521331, 0.0272863558791748, -0.004095576597697903, 0.1033023834046967, -0.026563236954280124, -0.0467157422167606, 0.05037695248742659, -0.02546098130497657, 0.037498452380633034, 0.01291824481592523, 0.08636382729318166, -0.025116377392279343, 0.013393294861789059, -4.0975026349431216e-05, 0.051173393297302694, 0.041734146678174454, 0.027323661619968354, -0.050955570333487146, 0.001306236256776219, 0.027968064724737063, 0.031243580226116435, -0.0308800204642543, 0.03380120486866618, 0.017569655519460766, 0.02477922278601157, 0.05819806143969397, -0.035910860014913136, -0.009494419808384036, 0.061202624978208865, 0.06001004835485725, -0.04115714766227644, -0.059551675734029814, -0.03279163987015475, 0.08592349486036464, 0.007706992109771055, -0.011093089593375682, -0.025922365513911905, 0.013749361035408053, -0.04169174163154315, 0.005313389939298795, -0.01669221266776997, -0.03344181921805609, -0.03471796697326298, -0.004319913794375124, -0.0514569341306181, 0.01317233483974217, 0.1022357434253722, 0.002027453556791119, 0.009104512316864918, 0.015515931283656208, 0.029452355823058936, -0.038193530676248186, -0.07683722360465162, 0.0435936952877486, -0.053870819654825645, 0.01737609626218093, -0.013028762511840519, -0.02141839029082126, -0.04014107445248598, 0.0032777606535940784, 0.004395218739776921, 0.003818692449346031, 0.0033008245346030592, -0.03719427847307806, 0.023177555626035302, -0.06909864595104548, 0.03471456027773025, -0.010132286523151762, -0.016304460947478585, 0.026765040754975367, 0.05421804615881617, 0.013648878600076469, 0.02675826117704084, 0.008573980508745024, -0.03998311299737021, -0.05589985666864301, -0.05953139051594405, 0.056832143314587594, 0.008981856838093777, -0.021770807076397964, 0.01384376830016901, -0.043090705213250924, -0.0665222335312056, 0.011382222254572305, 0.03306296846464405, 0.03766613009166386, -0.024034669638724367, -0.031218585465568206, -0.08946708002130528, 0.07541482561999621, -0.021822339311836258, -0.0013856313828573602, 0.09152407168626274, -0.03942479320677288, 0.00823591972398932, 0.009977386761884522, 0.058857697260487486, 0.060282403274013276, 0.06926999373670865, 0.034735538389589905, 0.0027702412128940775, 0.005096186605890616, 0.021466580853225947, 0.03235230991313539, -0.019860940029194144, -0.016182634364064596, -0.01996395441749857, 0.0058523243878636074, 0.08413964842448622, 0.02889312850001698, 0.044246326379735544, -0.00504909513140432, 0.008088511114561613, 0.048987731053012844, 0.03320076070174286, -0.022728435352421396, 0.03202950447470622, -0.03486139056399766, 0.013335462367392756, -0.015448292103255514, 0.06192952881310559, 0.001890352230011538, 0.024660823718613896, -0.027111818090473475, -0.010700231675600103, 0.01074628991549303, 0.08822933967698807, -0.037395488626221926, -0.05706124963331557, -0.00477462979498245, -0.024094469842986934, 0.06573338669569556, 0.02197873630188243, -0.03449755865319095, 0.04267041451795091, 0.029250998740348446, -0.02234451536477102, 0.028650400794973305, -0.030304308991413665, 0.028050881791115218, -0.0015783857016813817, 0.004399262839076315, -0.04120207649073231, 0.016904366006515004, -0.024916517176405927, -0.05767720180711628, 0.017466530675756646, -0.07126537154004063, -0.00530173928137611, -0.021870190815931896, -0.06307405824566677, -0.0011685803951646718, 0.06948827080421549, -0.0016682155129063116, 0.017914116450576122, 0.018493049670155717, 0.02465772021032276, 0.040467700453584665, -0.007017618735415592, 0.022822614943683935, 0.010792850225503973, 0.027632238678419564, 0.03746124749803659, 0.014140981114563106, -0.017383133157069092, -0.05336587927714266, -0.0033437996146727816, -0.00879648831233809, 0.016823429976716025, -0.014535542800806472, 0.060431865355150174, -0.017156721763207768, 0.019311157624211938, -0.022812133054911754, 0.005405219441381651, 0.029796995891387512, 0.005781948850332113, -0.05096717533971861, -0.020147623330678804, 0.061175194927715344, -0.03612311978456902, 0.0022490740293921547, -0.06665988259795393, -0.011068885201335811, -0.024755250238053382, 0.0024553049602487774, 0.026211041207648382, 0.0007133433795865487, 0.04536173882550999, -0.02144574376946847, -0.02437878253197218, -0.006706095292333054, -0.03742825712360319, -0.055276764878713955, 0.00118162363165771, -0.056066473453521004, 0.029471530144425873, -0.044174648083500793, 0.064336574544099, 0.028200515147173467, 0.0020611042790237835, 0.041047196109432464, -0.0173304569673256, -0.005713841788469883, 0.02286538359650867, 0.052179151816191004, -0.05529182626246155, -0.009940413792164472, 0.022762624424655157, 0.008851160555366156, 0.006538834588395265, -0.020273296880321878, 0.0081913241077517, 0.004718980609328435, -0.04257918580775928, 0.0036916656724811127, -0.02783561167804078, 0.017296657251683896, -0.007917357087094342, -0.016822371506839177, -0.004473508125157879, -0.039489321589363656, 0.024897185589736057, -0.031181862408477062, 0.027195390857435848, -0.02679637990949247, -0.009541087156429085, 0.023035633041667662, -0.005317765259001063, 0.0012415803072673268, -0.031147080892160124, 0.027247167302129536, 0.02298849189167221, 0.08501025885564126, 0.013005491259125996, 0.006990215284550456, -0.015272300036231557, 0.0025550876890402946, -0.0267001584346701, 0.026554169833690414, -0.0012954002854291622, -0.055848100427234426, -0.03787681032537515, -0.003367805379179421, 0.024872015637655443, 0.0003285914816164131, 0.040732874601409945, 0.044860332326135455, 0.04883113400229587, 0.0728666732166067, -0.08880854536674208, 0.0668872303865912, 0.0050151390525882975, 0.03627304500120216, -0.010173159205668565, 0.0641835358104353, 0.07714874846086203, -0.001960606465428662, -0.0011580249982702773, -0.017624176295710704, -0.009295017902650615, 0.027491643058026406, -0.06297230869857086, -0.054256671594174674, -0.0857477535284924, 0.024632429930210527, -0.06437967622973337, 0.10398024850684781, 0.024376315473440262, -0.03904715383139572, -0.010248806818032622, -0.03804373261104318, -0.05105637048711949, 0.005715509236675421, -0.00021935307481464736, 0.030974066082927163, 0.0035034574884949014, 0.02798739694895743, -0.012632028829768322, -0.0618936984388641, 0.008131585580604629, 0.003502643262465098, -0.01597296126524473, 0.010241072433444765, -0.006532596632779901, 0.008066230419732487, -0.024801763150552512, 0.0020500980019283878, -0.009511086998021815, 0.0845808536963304, -0.008717936505000294, -0.038703545967690475, 0.02738964029133358, -0.03726883847202165, 0.03155141802469529, -0.015795603129152253, 0.003110487373488934, -0.050255103187742046, 0.03139138759124245, -0.07045457012616373, -0.013732081462599953, -0.061337575902114264, -0.05062070464716999, -0.005816700441859089, 0.037906650651728435, -0.04691029436747192, -0.035776205443926894, 0.040626840388042616, -0.030251625477026912, -0.047253706966210896, -0.003457023875936023, -0.0028300942994667656, 0.008238758182250852, 0.05785207787865121, -0.0488853083221906, 0.05105311020106707, -0.019328977771055595, -0.02418734867103396, -0.03160745938263642, 0.011403995980524285, 0.06421310766258564, -0.001778535621303109, 0.057909634036274533, 0.00681453028999506, 0.025222398201846085, -0.04112922087323889, -0.07638413298007476, 0.012066668690303312, -0.0034916223319913756, 0.03490944279206583, 0.018844673173305803, 0.02712494867062215, 0.031211942040225562, 0.03855803910464458, 0.016095132261686945, -0.017003231173900374, 0.004106117091412001, 0.023712563116669087, 0.015265275222353377, 0.033629660257547316, -0.07592335051333303, 0.033064673405719995, -0.05164276471868095, 0.030214914776761883, 0.0278460948315954, 0.055314344264525146, -0.059930405110789904, -0.005255004579040803, -0.006139694629747901, 0.03345920314973606, 0.07030757374790478, 0.012010112029449379, -0.035813393059546055, -0.01009117260799, -0.02132187031772752, 0.041152001206098056, 0.026507028863826942, 0.01627434478331655, 0.0014806332865989473, -0.04610634662740388, -0.06349190536518946, 0.04826880276966406, -0.008559331370592472, -0.018922942723174074, -0.039068217839368806, 0.022547569552042068, -0.06564683817696362, 0.0013380955813539275, 0.04597751032189778, -0.06385460064157698, -0.011983567476576648, 0.011692094666478485, -0.03762612207467858, -0.028044862618266612, -0.0009910709838600572, 0.01605961934100464, -0.008011625452569383, 0.03434355643777752, 0.07172726483172971, 0.01904690841440468, -0.026973507635780887, -0.01132331120827034, -0.008640115624584891, -0.015778207721529162, -0.01606230619183074, 0.04410943410014662, 0.054238729046634813, 0.01804142971476743, 0.017893539243423233, 0.04814442772459483, 0.035412033252634846, 0.023458895541704383, 0.040211910837249565, 0.016713006436510736, 0.031085977784022466, 0.0347781958852859, 0.027212573241133086, -0.021653763322027102, 0.04004146461740683, -0.030701841856375537, -0.0026932543132201087, 0.002744445118460241, -0.0156316084135329, 0.009427193810665162, -0.016648519138738486, 0.0032313764721557535, -0.02482036598449105, -0.02245697553431162, -0.008240813999065774, -0.053777175132222466, 0.03502160755212776, 0.01093792089399898, 0.0035414893730246803, 0.04456548026611389, -0.0014421645926649834], [-0.041151921352583505, -0.05524281852025302, 0.049778865744894256, -0.019091108548970774, -0.011614250978837101, -0.04607525623666468, 0.02929124438300255, -0.049324294638285034, -0.0023803861397719444, 0.015945190076236303, -0.011169634185160067, 0.06908133445093192, -0.010328631424442085, 0.014072576522621985, -0.006752610982331475, -0.008939645822955098, -0.03337030362914722, -0.03375021375815119, 0.04261669554219031, 0.007644297044166097, -0.012215534343075115, 0.028853351016163372, -0.023284653071680334, 0.0007136905479396802, 0.015506861007556105, -0.029614642513599385, 0.0109053855338856, 0.047926601603076754, 0.017802644295372004, 0.04010491295487795, 0.04798480040921894, 0.018577363008327907, 0.00020304110521826473, -0.024243457747048003, 0.02504259068589137, -0.03179265286019763, -0.000828939201141487, 0.08541956928950607, -0.005992048602386636, 0.02898594171589091, -0.02045690234978939, 0.025963479657157812, 0.02019102222978846, 0.031012207992374124, 0.030064667464973854, -0.00931004242132242, 0.0069763984703444, 0.04608186006345253, -0.0005836705283563983, 0.01818042714079019, -0.012710425908566534, 0.0003228304387346489, -0.006881448391967303, 0.013548252707450633, -0.034727440437709596, -0.05350923024587713, -0.010940530517279052, -0.022772056391544147, -0.03249819906797406, 0.037478747123283106, -0.02746953191226018, -0.03356840932270423, -0.051548447177755516, -0.006879109062988891, -0.039892790607696925, 0.03952758952902941, -0.006990188856291016, -0.048377219527595515, -0.016614055048262407, 0.06695744822295217, 0.07967671045185873, 0.06320000711099302, 0.019336974379935278, -0.022082951240402354, -0.020575620972578368, -0.002480624988405878, 0.020086340496497084, 0.04397588885469136, -0.10618192193270323, -0.013708810596485476, -0.0341128573955693, 0.0023239199417999534, 0.012780833552118152, 0.05581400955957525, -0.025426204156181485, 0.031061869482617244, 0.002059153758919114, 0.09133451430640457, -0.02039792625051589, -0.09453886505623557, 0.022531804590576528, -0.043224359340198144, 0.012359777731123112, -0.013315514470783427, 0.03913913630900979, 0.018248485047416326, 0.021970535870560776, -0.03178868218236627, 0.011469858888880465, 0.04443517249229869, 0.0473412723820088, 0.0009082947037116019, -0.0362488765665359, 0.056063748378719004, 0.02063072071764369, 0.016428504668617193, 0.007389750822302187, 0.014551368498639852, -0.02142391922879281, -0.003881256865395539, -0.02372817965260116, 0.08088171934193589, 0.048692851313111844, 0.008905188962348634, 0.036185936418868116, -0.019801770376634432, -0.016637366254632562, 0.008298538126548825, 0.03800416470772609, -0.0005817318482434316, -0.0022264674343257366, 0.030150219829397647, 0.0010613834435234143, 0.034593367497806324, -0.029331757578077707, 0.028589136219388623, -0.059349402717218905, 0.0421592758002925, 0.0268461138904006, -0.006280067673165633, -0.023105335913854993, 0.042007141847037834, 0.016434040742520188, -0.05224408159928646, 0.001345573550471668, 0.006345616371825103, -0.06280765663699178, 0.06682861152027787, -0.03612049857285745, 0.01446343312148809, 0.04751843386679352, -0.031971690983769785, -0.03223459007139348, 0.041212318828094965, 0.0014948267423368418, -0.031362434285165455, 0.006240000624943076, 0.0002789201156086215, -0.006546000056784006, 0.010380585842537825, -0.030005235672790904, -0.07122287848832852, -0.029118341673018085, 0.02086864144256178, 0.04483174200767072, 0.04066314465614005, -0.02299629398066159, 0.035355389257924946, 0.030763835474866354, -0.04231363520588947, -0.009632496017439294, -0.029960380330139, 0.04251723537555953, 0.07158521387548387, 0.01766527655347694, 0.001361361962746164, 0.010355822790462228, 0.03016462299673308, 0.005173167338700856, 0.030383851324129508, -0.0016577659911549622, 0.005609563990502364, -0.06864891924266893, -0.012408869988895342, -0.02798391315268095, 0.0019091990096927072, -0.00745722820953486, 0.025121765396569233, 0.000558704027366601, 0.03790903619427276, -0.025215860750606674, -0.04770352346833733, 0.03232674676090287, 0.011862358793500342, -0.03628521736040672, 0.01743846112289913, -0.06279231833429609, -0.042475275199856964, 0.018486256299881564, 0.07131026880584225, -0.008831941425611311, 0.015682870424021646, -0.002703282541446393, 0.04759174329002842, -0.04792193281640609, 0.04176550805801242, 0.0255510044367069, -0.004987971487396618, -0.028657568440975053, -0.04508555010481586, 0.037006841668424884, -0.013819324717232023, 0.06042347519513692, -0.011154827727080218, 0.027149469449751436, -0.017280489765371155, -0.058409181453477524, -0.035062165409166325, 0.0009067349077298013, -0.03934902108649714, -0.04174876256551296, -0.01988380067410092, -0.023717691894433273, 0.036951646731278334, -0.004493619730944955, -0.019947549790072117, -0.08116977057039845, -0.016174028907017073, 0.008124056760339091, 0.04418504575172842, -0.00010422781810292594, -0.039239527949607035, -0.03809641781479119, -0.013153289649237706, 0.06301915200083558, -0.02345950902455155, 0.010969566350580901, -0.027617910104226626, -0.008679019230992579, -0.012825541578599374, -0.00570122342833928, 0.03414329808578557, -0.02401744756998236, -0.03679762376011909, 0.0162118731435111, -0.03131095857989948, 0.05436318112851601, 0.07578095881515015, -0.024181519263258622, -0.06639519066457404, -0.015075856747571689, -0.03204968630449623, -0.025648592425722223, 0.021255546513446216, 0.06375072694535042, 0.04632876551840125, -0.004477526561506394, -0.00896388724167252, -0.03714716305197903, -0.08159037942623482, 0.020391766708136493, -0.014074165748442726, -0.03487765981483272, 0.04493390685517976, -0.0506402958097078, -0.02549246685978424, 0.046533452231399694, 0.10518487394214447, -0.04195645501222883, -0.02127283244475649, 0.04034422139127009, -0.010021026521573996, 0.03547349339266022, -0.012187492794125886, -0.01698773084706615, 0.036933422257832416, -0.04729248001415119, 0.052886400631916956, -0.020568305999092595, 0.004081097377284266, -0.011646748787524737, 0.020488660690633757, -0.0509209285378183, 0.014705471357076975, -0.02386686395251694, 0.04005154856646899, 0.060962760643774795, -0.05946593619385404, 0.032577500425934436, -0.014847986498944582, 0.06271522404735733, -0.011519820042704123, -0.07184158116821852, 0.01587957790306622, -0.060387320633709766, -0.06155058063754103, 0.04712206917470592, -0.034400361585504406, -0.07166284265430681, -0.02929399697370144, -0.05765619290982121, -0.019829558538607062, -0.016322131440422605, 0.05319292987069311, -0.013839276323362775, -0.017563032991155275, 0.028033478223040604, 0.07535109706160147, 0.0186992580604349, 0.006340008520076305, 0.007293593775442581, 0.006416794336310587, -0.008552343659775164, -0.004862727182308585, 0.027970112492233416, 0.0010484342334744503, -0.04412958389834106, -0.028608415905419262, -0.02582890203454596, -0.02172792875105404, -0.02600333897045729, -0.002905711268378912, -0.02087580298671208, 0.012397551930580498, 0.0031772852002505954, -0.03686009175338206, 0.019909686768723785, -0.0030319546384526617, 0.0002920584198187852, 0.0027578398895934434, -0.005220365688783543, 0.05859303950368872, -0.018516707343698185, 0.009054107612062965, -0.0317157312404721, -0.028807802165904377, -0.02317133495821153, -0.015311336137459454, 0.005170085152503845, -0.03603013838751425, -0.004516739448879494, -0.029191234728632807, -0.019418693539495296, -0.011414346470971962, 0.05724950934149388, 0.01250524038569654, -0.039850229285096, -0.07642969347463599, -0.010165727595045674, -0.009663781931604398, 0.05029964951041186, -0.03670041943701874, 0.042285336197437594, 0.01973533950911292, 0.04175353071921762, 0.006210631335586604, -0.046173233428737456, -0.008142715896923941, -0.010339272796230595, 0.033887347826573246, 0.002733365964946996, -0.0322411148142066, -0.03529654280183582, -0.0654735201068264, -0.0029358524445027346, -0.008366491562234521, -0.01255617288663879, -0.02532438104396461, 0.001499478172293504, 0.02362213479804682, -0.0328225116532774, -0.02578898912031918, -0.06812360870159888, -0.014222981105027014, 0.006982011104140999, -0.035833734997971524, 0.0011340600186841997, -0.049848135067830826, 0.061540846510540884, 0.02110768575418221, 0.014579394893036503, 0.023328523825811878, -0.017240805690424667, -0.007948271866938018, -0.01781183229616982, -0.0839944136665306, 0.021702420399948963, 0.008221389351033986, -0.0024881381566892635, 0.04577918585455266, 0.03565313207257912, -0.027052909631959603, -0.005412058934627417, -0.06041789103727108, -0.015150206476041884, 0.04051539154799065, -0.05162434007214662, -0.05606378839117649, 0.05923784316958687, 0.007782795916665512, 0.010161109288976474, 0.017064247640021093, 0.027549536307525654, 0.06568961781686189, -0.0076900623027396624, -0.0415071984058623, -0.10302370282272799, 0.0403095093219929, -0.0036848235677913884, -0.021603812786684353, 0.002661324234485729, -0.04685110756501059, -0.00831581573089627, -0.02088744719657324, -0.029820796254032406, -0.01757422268085346, 0.031440616765878546, 0.024049760220008355, 0.05176565264773465, -0.02760313926434462, 0.0019710827873046363, 0.07360070221441574, -0.010531198937503431, -0.018939549545494084, -0.027532654209921875, 0.03647261640619247, -0.049442403094215215, 0.028468990062056932, 0.02989236714877428, -0.06102254781790916, 0.02381157606216661, 0.021155749574865677, 0.014522147849943389, -0.024692222051715146, -0.023304559655965014, 0.028305376308932446, 0.030943984926000246, 0.025497908031800208, 0.01117668423746902, -0.04891775122587456, 0.005706070932424306, 0.010857532451426854, 0.010314480089870232, 0.0638050340581705, -0.003559017494087082, -0.07247850103547822, -0.03032974297485731, 0.05521724777981886, -0.025554881456941826, 0.07183606369431177, -0.03207517690284662, 0.003071345735020043, 0.011538998598184998, 0.040377483991189386, -0.07004179774468096, 0.017939962208014696, 0.011759006016529742, 0.022787432026515203, -0.07511223849227029, -0.021517050798306184, 0.004709452892905156, 0.014952304456923539, 0.032168657036996326, 0.06978466403034381, -0.013501256725151031, 0.003347645904223207, -0.0675616690427826, -0.004460312619649918, -0.06850098347456819, 0.031320005311295106, 0.001052324889223078, -0.02391661919686122, 0.08024719741375616, 0.029767664491462616, 0.0423572976820586, -0.06082326335746702, -0.013859593178342502, 0.021031971935506766, -0.04161030681509736, 0.023370019463883236, -0.04152608323788404, -0.01669902892660479, 0.016963158578875107, -0.03229148327419494, -0.03207713104719646, 0.009382601852982772, -0.010561765302862805, 0.03701365944651842, 0.038936734847548095, -0.01359357537466434, 0.012195542562046488, 0.06315681405240847, -0.015245562052927247, 0.04062216040864126, -0.023457941471214765, 0.014660826155460346, -0.002479394359557158, 0.012853471230679725, 0.0031667524236708646, -0.04866121962837461, -0.022967186005320862, 0.01741854630067875, -0.12286800567466372, 0.07855785850622489, 0.0324702301491931, 0.002876629829247836, 0.0014302992210195613, -0.0016225447569977298, 0.012993680786729906, -0.03216738698402843, -0.025212215486258554, -0.03423604922337852, -0.026667041250662098, 0.08949900385580285, -0.0346966622168474, 0.013490101826387416, 0.003479358261734276, -0.03032991648893118, 0.030978263710066792, -0.03492041057020862, 0.06415521020820214, -0.11105505311019516, -0.03129195563913955, 0.011260457591325443, 0.030942600476296017, 0.02050891224496703, -0.05043255464819707, -0.020619720143423694, 0.04108757973703606, 0.006427796731378649, 0.03011427996295213, 0.002264305499421379, -0.06253224814834317, 0.06132293082015076, 0.017747047563244436, 0.007862230059455558, -0.05837553007396419, 0.03228588816423346, -0.01238925509532081, -0.009829155723367924, -0.016594417399651947, 0.012178426410770713, 0.00650831796600457, 0.01147550257470518, 0.030699926467257284, -0.041015747308498655, -0.02356689673171808, 0.024059890452798733, 0.05249141151485368, 0.0009990614416525434, -0.06342075169867026, 0.025356753158762457, 0.039200227901174764, -0.0956317933835671, 0.04702234731052367, 0.0053765147010671225, -2.107644247963203e-05, -0.0021509989938598593, -0.05195193706481457, -0.03059602968402034, -0.007678855345601611, -0.073653382780779, -0.001947962591275289, 0.038548583199163725, -0.009228347507598975, -0.02418710655839395, 0.04386687107653653, 0.011233006266436849, -0.04587495562408882, 6.850329716868383e-05, -0.022046444123864018, -0.056695769197128106, 0.05263906854297527, 0.009842862297181367, -0.0326178492021299, 0.018581393164191416, -0.050953017959190335, 0.02673926755944205, 0.0548899733606101, 0.0504675527620821, -0.004699057827685224, 0.053971668878275474, 0.025795399412552683, -0.07272327576328726, 0.025504295409722377, 0.015076547259034722, 0.00901950154992683, -0.0220678609986616, 0.06494140126664424, 0.0017459886210656921, -0.026760906653685468, -0.06761888401996474, 0.009294250333645377, -0.0002066061091638416, 0.03064629376382707, -0.005565290817474653, -0.0031088676037721546, -0.009452603512844398, -0.02659591449211166, -0.000611869974939469, 0.02142826445407277, 0.011887037492437571, -0.005764387286017553, -0.004337697535305754, -0.01947196620630795, 0.028402619896754983, 0.06130792627009397, 0.06630922981037103, -0.03941890073199139, 0.004914887562626068, 0.04401331227631172, 0.027363104043425335, 0.06363324447330083, -0.04221175092654119, 0.05182424588720431, -0.00026450186634499617, -0.0009452705994864521, 0.049964492603344804, 0.02681341291234252, 0.005436021350211858, 0.023351438322629862, -0.010648674943392628, 0.03935253624431171, -0.06746543032994541, -0.05443030234177691, -0.07783253372654263, 0.006383380682403566, -0.04573419167031384, -0.04897239970154931, -0.04418580677070322, -0.007086776326236359, 0.028030378236504984, 0.04702270957092031, -0.01105250535041623, -0.030719807018355055, -0.038116812737850024, 0.04012033834781536, -0.02326060089362835, -0.03449557604264317, 0.07495222394688927, 0.06817149696182352, 0.010502312341273459, 0.08953304893108593, -0.002461313868724273, -0.006140215886636853, -0.046261082696758174, 0.056318300930415795, -0.039733704162807214, -0.03548715649757237, 0.026540385074678062, 0.0666834084081925, -0.07144530177892228, 0.00019656209167387453, -0.0019881138914524536, -0.017654131862802784, -0.004229847995542887, 0.0031430242331969777, -0.017609759186383394, -0.02496070154004005, -0.009180516552875563, -0.03850101874698214, -0.000538873298163267, 0.02048093121001812, -0.011756367218475953, -0.04620378316068309, -0.013323629422523091, -0.050729608858369024, -0.01563012180588914, 0.03721047933604494, 0.005990087905210666, -0.039656981762743695, 0.037075764583980965, -0.024370924018648932, -0.03589045240809219, -0.0228390772969266, -0.0009152011063030678, -0.005177618929180419, 0.05292210541550675, -0.004983366411026505, -0.06346976672538199, -0.045211016864267636, -0.04988942123678487, -0.05509577520697318, 0.02229700413194129, -0.007109951961615726, -0.012051209850278759, -0.05941897922267042, -0.02226941180376963, -0.011118910907134655, -0.015942395857093103, -0.052528531691495815, 0.012150773569933857, 0.026018637522384685, -0.038504145196949925, -0.01611678964062598, 0.021010636668252702, 0.024374197382969868, -0.02589353020055585, 0.01595782245147296, -0.02635854350496789, -0.00806936758857794, 0.015106954552985136, 0.03949261580465859, 0.038571547465648705, 0.009051839036133904, -0.010654724749555264, 0.033190041587470895, 0.012258994409783923, -0.010955669795644394, -0.03239038286893251, 0.022476230378686766, 0.011871937409910353, -0.014934418649470772, -0.06039011037522216, -0.009569980385299047, -0.008555859936866753, 0.029745798739767324, -0.025979124095609426, -0.04481888069638058, -0.005189102516347395, -0.033271823531630246, 0.01374841367428864, -0.033498610637061506, -0.020062248510261182, 0.04617234118597913, -0.016096027375556335, -0.02260235824793749, 0.04815413722993134, -0.041240176619800305, -0.05517730225985782, -0.017226989199630536, 0.04853097772785724, 0.04836139219408254, -0.03253558952958479, 0.02402775954685652, 0.017985781139726986, -0.023549232102711513, -0.03665103490593653, -0.10705766908383031, 0.03501746100852369, 0.033856736534195755, -0.03178632808369412, -0.008321807445315856, 0.034831833345364216, 0.010517030550089344, -0.04894753194189031, -0.03995694255988321, 0.0025349029544372674, -0.011556520894915573, -0.019158425637025394, 0.01579915403192142, 0.011024413120624512, -0.02118074355607927, 0.006723225414966401, -0.05849138102931635, 0.003519566479387981, -0.024502399605447284, 0.026401936255675225, 0.017897280021572846, 0.012618552585849681, 0.050800063726708845, 0.008008512360564077, 0.03259887182817941, -0.0183339500392036, -0.043656401153321686, 0.07926861764466608, 0.007109891042544952, 0.038702641867329315, -0.059219339627328456, -0.02859141352447609, 0.01314480963235925, -0.006080334472776588, 0.002535999649073542, 0.04161613899812637, 0.008684036659725811, 0.06332674446290455, 0.010644813784529432, -0.027484275763038198, -0.054160559898720415, 0.02803164034270623, -0.06379467357382324, 0.020799750144914635, -0.02538092329267777, -0.06472409322156579, 0.012288869555358238, 0.018115607636232066, 0.07217549239352146, -0.04176288894988367, 0.030183335455008457, -0.016661259363403257, 0.0011823765407408518, -0.026220096015666307, -0.05840473135646606, -0.00042252875239925215], [0.04866976119005889, -0.016788557024060673, 0.017607208645499892, 0.03644267734940976, -0.05435639962738242, 0.021779091004452918, 0.0026649869303683503, -0.04508656607803983, -0.01936323231414238, -0.05290559360181297, 0.017966736389778113, -0.009418643246756255, -0.03145141837484496, -0.020195054719634235, 0.023897341552069483, 0.06520825985555764, 0.03737119560639661, -0.03523657934498785, -0.015459661723071857, -0.0033297764796477213, -0.10840734416798493, -0.06933130516218212, 0.004002112710902091, 0.011054708524644066, -0.021762089902494886, 0.03403046920970402, 0.028402969358396386, 0.052250733745025014, 0.015955580419035196, -0.014055766554824167, 0.07843213446095769, 0.016978540460042955, 0.009392837244689244, 0.014113653611272549, -0.019625220050374974, -0.04164938595569535, 0.06937643929024048, -0.050906346342949674, 0.011609747333817944, 0.005747999013372855, 0.011628865727675816, -0.022308830821499655, 0.012280948544674982, 0.028369366670060868, 0.017169950828146825, 0.005269178931020452, 0.015877172113666228, -0.011658260423658412, -0.011321577884177116, -0.0413356589327902, 0.020222840609252696, -0.010426411259865308, -0.036092499131091034, -0.000650651166267348, 0.00038017031722778103, 0.010949686547173904, 0.0046162608403636785, 0.07390487897450747, 0.020978242834732205, 0.03432669275873897, -0.026092744096571186, -0.004180147057841448, 0.0961197295393749, -0.0597522073999976, -0.04404174119046223, -0.05734489224229349, 0.013247114455587903, 0.028476903885526532, 0.043922089837654485, -0.048111285749324696, 0.0737566856937708, -0.04056285767117606, -0.036688397005161445, 0.04475332052567528, 0.03215903935801257, -0.024481664848264636, 0.04325532852887023, -0.02140358369577846, 0.007813937847983466, 0.09276150333313628, -0.002404072484831292, -0.03707421564913117, 0.013578764853812101, -0.008982003388958219, 0.0027225469631382945, 0.025106479142023293, -0.013867168021366037, 0.05208593137285007, -0.03446147986956433, -0.057067657128154196, -0.09398821447874485, 0.011565281283348591, -0.024344212914953808, 0.05785119134375582, -0.07678149176315593, -0.02159411491800015, -0.04418454169724278, -0.04567620574109999, -0.08324424466192727, 0.014416941605677195, -0.022924213951305856, 0.0625184879177915, -0.02738025585057356, -0.033249325233948974, 0.026674316611566017, 0.012527683277552411, -0.013983843724261837, -0.023390098779029332, -0.06402856705622863, 0.03337467005937813, 0.05734471129895382, 0.008475504655448796, 0.019567110960814985, -0.046112751877901995, -0.006762046855132307, 0.020843228009746344, -0.0014606674738321494, -0.0644988843381525, -0.012794609214666209, -0.08413362960775905, -0.01589064717599781, 0.007254986874920185, -0.03633550434651145, -0.046655155552731996, 0.03645078097830649, 0.10485284434871088, -0.02189639562570658, 0.05101973791867227, -0.016608457677828627, -0.032350970136556044, -0.01069175352493451, 0.02111765726325429, -0.008370710855569693, -0.009789849972385332, 0.025358916092447746, -0.016804065839896885, -0.041623758569178014, 0.02383222780844269, -0.0007017828078413927, 0.06845609561642937, 0.045531763280694144, 0.014444408535972366, 0.05580794938625323, 0.025408897573740864, -0.014470790177382429, 0.027690418897114603, -0.014635781171895623, -0.042319843605471044, -0.014141079985503565, 0.02130180702638573, -0.042649820046106963, 0.05701964681865791, 0.06523684148058248, -0.0333184809064164, -0.013114973820812493, 0.0047520982152672074, -0.05109880114371223, 0.030129455010781847, -0.0871673960956832, -0.09890729961053316, 0.006101001536760575, -0.015390143962738965, -0.008885625180696358, 0.051336536585383306, 0.04535624380247381, 0.0016567707276838658, -0.013329848294524988, -0.022053325765398205, -0.029229088126682602, -0.026597058097931107, -0.0038243419040577243, -0.0038684356984851737, -0.017598295460973853, 0.047797160844773486, -0.012590764111086268, 0.014422844215974505, -0.047538625197772834, -0.01899179841053398, -0.02213393287113858, 0.014308893997777697, 0.013961430463140091, 0.04074852014265113, 0.04671111908590553, 0.0007788496116977076, -0.04506257356871005, 0.0843822539533833, 0.03357726653846522, 0.005005142581713485, 0.006025174858729232, 0.007057190734471698, -0.03764059846680121, 0.021661546136238614, -0.05612935552880085, -0.03656420624435264, 0.01093930545963967, -0.0006314903260914068, 0.022545584535383485, -0.02689655175537861, -0.01827119699335223, -0.043249690288122415, -0.008492007748223498, -0.07678144188696456, 0.027226514756785582, -0.017481312362052342, 0.059198096978603114, -0.04225853026540822, 0.06667255511086384, 0.007597717077072806, -0.005970794184451891, 0.047194230446195924, 0.04791065810137222, -0.028564368018270173, -0.02380137272455481, -0.023243494607009953, 0.014356103044117635, -0.02902272958596081, 0.059707021072322106, -0.025888132899427898, 0.047275106958264854, 0.01134599923116796, -0.030468403076495943, -0.006566872445171175, 0.03554279770144693, 0.03542002680412389, 0.042235374305223394, 0.028152150353576037, -0.047831941502039364, -0.0282505913343995, 0.008304798856314658, 0.012264905596681322, 0.02908025423607458, -0.028454510035533866, -0.028567698117031536, -0.014053483835233468, 0.04941749834388456, -0.017284780154184394, -0.03588273728029052, -0.030823120625482474, -0.016519919345274536, -0.008491921759896515, -0.011529748278339285, -0.06263469684195894, 0.03057578627138082, 0.03027050326715924, -0.06393079970016223, -0.01491507442024598, -0.02231259884396339, -0.003616766476919273, 0.06978810188411559, 0.033540539510020756, -0.07110260919373036, 0.02239235286760672, -0.004837278624672092, 0.0024461892562491583, 0.01865271366252269, 0.021642731644521802, 0.021807759024254608, -0.022333132253187133, -0.060574978813138156, -0.022161730916219015, -0.02943497107487777, 0.07906163303506328, 0.016778670658251976, 0.029048549786942025, 0.023803271539341923, 0.054516338286703825, -0.00020460824125091505, 0.02524994372853005, -0.0007898014132614263, -0.04381669559308338, 0.04451914318302025, -0.057998715255151115, -0.013880627383019628, 0.006121898441277221, 0.02527985601470668, 0.053922949169246316, -0.08250821313415443, 0.017525589735702337, 0.024860507012210337, 0.08187324075341477, -0.047885472555914674, 0.022544515388604004, -0.02210593808215145, -0.01500389935217759, 0.052950227372954996, 0.02108777736942211, -0.026729053576597325, 0.08018097280642345, 0.017398570131461906, -0.032307291403750736, 0.042422840229983404, -0.061001368049703165, -0.0432131619814114, -0.044346816616773574, 0.007147465590548488, -0.03197492367182612, 0.01114371778144678, -0.0003424242750308776, -0.0021726408666250577, -0.03987795044400318, 0.041825563000728774, 0.01091928066736261, 0.020468514661917247, -0.01705031979731454, -0.003261496795357663, -0.009586137689872732, 0.04790432153704965, -0.046533778171247875, -0.0031166645119729366, -0.007727146278537929, -0.019518129699545004, -0.0032996333317103256, 0.009930564368770134, 0.014290854442282513, -0.03268597834796762, -0.01141890536579197, -0.007529475647416927, 0.04374554055181456, -0.018621839886066815, -0.06313383675475177, 0.0196488730538163, -0.027635817578704563, -0.025736492494166412, -0.0500435623311119, -0.0329140676469379, 0.04176245520208562, 0.008671410206244437, -0.005388422951474642, 0.03376233845933534, 0.0829773606447514, -0.060056929329603055, 0.01588787721976517, -0.007060929202819392, 0.03810830730602388, -0.01353704360703308, -0.019255839765388427, 0.035909710685230314, 0.009922611145505134, 0.014238314575035537, -0.012511164189790194, -0.0011563765956972337, 0.00476749371379324, 0.04987965712642097, -0.02688100993637862, 0.038006020754094594, -0.05429784039454461, -0.047185278579393516, -0.0677436265260014, -0.02447781937473106, -0.04525496817151251, -0.06917476929828194, 0.021014281540722924, -0.05172978106207936, -0.03574261951484322, 0.0024928348750634043, 0.00561189184381877, -0.025670739151312374, -0.005924220333440736, -0.020898658796518848, -0.002390899055389816, -0.03121773761532859, -0.03215617071442633, 0.0742288502364086, -0.051766317858816836, 0.04279474969451417, 0.024515123223502768, -0.02722866541636096, 0.015765817512582717, 0.02896042366056661, 0.02885481315115509, 0.020127864976757098, 0.0525152107741216, -0.001064998636508049, -0.06325886687111901, 0.018226199531615573, 0.055317347453996295, -0.0070817467354938116, 0.048119213484799854, 0.011849583212660364, -0.017808779674964283, 0.011659310025775629, -0.013242001795300556, 0.017677235069901577, 0.025866749479007377, 0.10662457461939708, 0.030148371012760362, -0.018295611298416337, 0.03422090365057859, 0.020753969744781414, -0.02605396532424232, 0.02336688528743955, 0.05253548325951692, 0.01896214928564446, 0.011451772239377087, -0.006866664684337251, -0.03688623316599502, 0.035679931820884817, 0.03479376904833052, -0.016997968366945847, -0.05530353667224599, 0.05156967976977326, -0.022578032130477786, 0.014392472154707861, 0.02785509780221463, 0.030018715229114395, 0.05084502206319563, -0.04004181880642761, -0.017820744118481797, 0.032815193047997404, -0.06931844785240791, 0.009020789432308779, -0.014231570899306531, 0.012933799998400572, -0.0364045448142109, -0.003154620122523854, 0.029800397898660853, -0.015448290636827051, 0.010578115032065905, 0.010680346152149337, 0.007797213560806339, -0.011709653856244357, -0.06262432147228472, -0.052489775700539386, -0.01861853610578672, 0.009763308602157907, -0.03022456438689648, 0.05424712168035165, -0.02660540535512907, -0.03238045576605712, -0.01691671975816912, 0.009510209254745482, 0.0015036494321268596, -0.03811754782083937, 0.02223471829512973, -0.028467988582716004, -0.030597430484993214, -0.011270140459359469, 0.028490746812646458, 0.08219399301428898, -0.06123612160047381, 0.009991983557089953, -0.0041453868630000525, -0.06335742521458597, 0.06586828768828852, -0.026942741858178406, 0.006581746784398539, -0.08161751070039534, 0.0405909234683191, 0.0013509899784383116, -0.028919869597201314, -0.012731449161693777, 0.026453429625142966, -0.009881523127863655, 0.01383467351357112, 0.041198279857063334, 0.03747565289403897, -0.03907431873874221, -0.016385450512664535, 0.008649383186097963, 0.013256397963496952, 0.02431496203906813, 0.04891642359259757, -0.04243079129200472, 0.011983012956694721, -0.040880545532037, 0.019980619869537402, -0.016681708772771454, -0.0066164741953454315, 0.057780911316803796, 0.031202241998500368, 0.02853671386362807, 0.027773966917856024, -0.005669664812897683, -0.013573127310654357, 0.05797743092711823, -0.006730973574413269, 0.023919882401702057, -0.004678997281424553, -0.031962793322122054, 0.051838657021565586, 0.02487908839454985, -0.010053409801549963, 0.007336811951126551, 0.0447751788861382, -0.014162848083719265, -0.007346345949395469, 0.007387909070773584, -0.0005473750326445661, -0.004851296112773626, 0.028480318585097784, 0.04615079729933529, 0.051440500093816295, -0.02740600961207466, 0.010499850591423054, -0.023332092955694436, 0.014517709923298108, 0.008524063828783039, 0.02441142407735117, -0.007344789883958836, -0.00529195310021805, 0.0067636020623591765, -0.004373097235636279, -0.009186732110622778, 0.07948149799218797, -0.03264893335647274, 0.04073814097658, 0.01082363530297432, 0.04755309129939871, -0.012088899018709005, -0.008135367888271515, 0.03132611960136574, -0.07885988633062672, -0.01060479848982339, 0.04196700708305157, 0.010027896729945187, 0.0032842229993283226, -0.03666776066405464, 0.01414085830897086, -0.020330517811772333, -0.0031925920882662274, -0.01399274382860873, 0.0027141725986473157, 0.0019394898236093111, 0.0009286375287148854, 0.01214494708679889, -0.04686576345279333, -0.010531721559381977, 0.06900068247644423, -0.010617425826120198, 0.033889815094727396, -0.008061725631055509, 0.0075323922598703056, -0.04319780839535476, 0.0011675090753433565, -0.011642253034158294, -0.03047942492615612, 0.025591709572912992, -0.00028639608706307963, -0.03843112089508472, -0.06604340543049325, -0.03212089217787709, -0.011200263038143305, -0.029313044382010173, -0.023888190018631177, -0.00022689367338309813, -0.006326104913966562, -0.013264747985798337, 0.042193029414791784, 0.01251632163714923, 0.0733614351884958, -0.05296483742904158, -0.04668356800129064, 0.029270641596177382, -0.010379317357064015, -0.06437399647463639, -0.059362929300170834, 0.021668481604939605, 0.00788344406124636, -0.06881400542870754, 0.00852672704989009, -0.0009780433957472766, 0.027502007527116786, -0.02934037355209574, -0.01760226100964809, 0.02139229018825586, 0.023875360176245513, -0.004687159991436389, -0.027581318257172218, -0.04203812766798718, -0.031624650061006634, 0.06219535193861525, -0.014288555299476802, 0.02666318467726762, -0.002518512854338922, -0.040808803899163956, -0.01789213216071877, -0.03435457721328204, -0.02690300045563563, -0.03798453548942323, -0.0696598448142444, -0.0402101882274139, 0.05493996171937828, -0.01002023177093069, -0.04713769361141913, 0.03306789298031104, -0.016139484682796162, 0.08735765484985972, 0.013420081772825486, -0.0016230190197658015, -0.017113258384257465, -0.0040246507989409866, 0.0017749815193254628, 0.0043836620269534715, -0.011992070862292753, -4.790732683264437e-05, -0.010629771500613972, 0.005692777357091589, -0.012683203792152865, 0.006803353169468846, 0.00666407963732117, 0.05686668065612438, 0.016399177802520745, -0.02601987578216564, 0.0030590905764906313, 0.035880766187057614, -0.04862363814834815, -0.05374087646926188, 0.019926343461247793, 0.022152552456726173, 0.032811328669362164, 0.0024444321868350273, -0.03555397674144768, -0.0011566318318515457, 0.06348455540986743, 0.004735305942545169, 0.0006778287155458691, -0.005208470957091388, -0.003860514964476388, 0.02882980219752058, -9.9853200098249e-05, 0.005193353843244551, 0.00212256954415611, -0.006202611331676931, 0.02916570298228966, 0.005007833927142372, 0.003223266622099119, 0.007114467336510131, 0.012441752307398541, -0.0326075125224649, -0.03576674991283533, 0.024951938819704682, 0.009699203700179583, 0.018917005489013285, -0.007371305320645871, 0.016832951545810944, 0.0048227000236736725, -0.0002134554304035455, -0.026198249641376712, 0.014103828489007401, -0.007522289787792777, -0.03343392541565212, -0.0024957635505911987, 0.05667425217973757, -0.007227706169047291, 0.02373760545241735, 0.04426581568948907, 0.015917395444205878, 0.01672814390558496, -0.006270391746987852, 0.07742264453821593, 0.00895747391821745, 0.0019068115170510133, 0.0018804809860438908, -0.011902372733592235, 0.03579929728410628, 0.0450521404420936, -0.028838277869670772, 0.0776033727677017, 0.06388466706864797, -0.017626351160441877, -0.02163089632159344, 0.040415491698999786, -0.040413012338659314, -0.05349492810920304, -0.005236241469848614, -0.009904615907650552, -0.006089275096097882, -0.028899962239320103, -0.030557624962618535, 0.062498155052477425, -0.0006433308633722323, 0.004146730325031819, 0.028302417569361284, -0.019951906803581367, 0.0954976315501705, 0.014308962445397982, -0.06698409206005512, 0.005662275843249244, 0.07993199161689064, 0.036147589690716256, 0.09123748779177257, 0.06700566906705203, 0.012272522828850172, 0.09421185041078096, 0.011187150464614284, 0.005722220970074751, -0.04373881699207034, 0.07677978636616152, -0.009282942932500692, -0.044169025914141104, 0.0495866833459188, -0.0030216349681807093, -0.0438102948518428, 0.023476347458475693, -0.018699871887931756, -0.034592950166614046, 0.013806963661864641, -0.04219120750908294, -0.011327051743127056, 0.022927415011120104, 0.0026384111401507628, -0.04682402268393608, -0.002599570667787266, 0.01979872121497858, 0.0654949757999093, -0.053199813507140536, 0.028642410735775985, 0.01338532302222776, -0.047958274611058324, 0.020695827723423772, 0.045489966454793196, 0.032190944002343576, 0.015233249204707073, 0.00548183000910842, 0.0076003450503442, -0.0014898855903151364, 0.07596700109167188, 0.023672553689941943, 0.034725442521071424, -0.03159126513147718, -0.03185338913206383, -0.015592815898750322, -0.08169491330396987, 0.04632619476647133, 0.05016875519698795, 0.05307086237708628, -0.03338953626349762, 0.005078106882346655, 0.04962004534619126, 0.005131999969110646, 0.011195285163842722, 0.024308703603567027, 0.027509778516749055, 0.026370331327196277, -0.03908819599558405, 0.007599444536396221, -0.07885484139788376, 0.030442849725040685, -0.03838198915629941, 0.0010045716696743103, -0.08805459402486453, -0.015567144608126058, -0.031488351025949726, -0.05494263589332686, 0.03989100127967613, 0.004777448744563975, 0.030141785551342958, -0.015292469614602575, 0.027114918741773093, -0.029565390230205758, -0.08142902704500579, -0.009485972987894385, 0.026716380434058194, 0.0132797815958323, 0.03017186603463021, -0.026082492549929996, -0.003547310014921691, 0.018849581280284165, -0.003258984944663726, -0.035624376761740524, 0.012334576128722052, -0.047746068751389044, 0.0068321490595209585, 0.009080363781668344, -0.007612017592452098, -0.003845819816890079, -0.04452712863225626, 0.0018465080775427912, 0.05594916632262791, 0.01593802986596867, 0.019926316083507672, -0.05369730004244994, 0.04171042395405696, 0.01695496788325098, 0.04847371539382032, 0.03655706711522148, 0.015066388579955644, 0.045420074626879296, -0.02783713498833375, -0.04804483539330112, 0.07081052651457172, 0.07412458301343929, 0.02454196524553397, -0.0010432913229966544], [-0.02653718954120468, 0.01749947378693173, -0.06875936728205585, 0.0016050716896254347, -0.01928090260717105, -0.03571927653700777, -0.0001296290047339952, 0.03863699984032073, 0.0050819445568048545, -0.01171729524780935, 0.04003040366325383, 0.01813181570792079, 0.02647974826104955, 0.05109591843547185, 0.0011951011346430234, -0.014566404021642738, -0.03369320859058072, 0.009380282780162274, -0.024774785558954127, -0.034704533621588596, 0.006606665336986147, 0.018432148882923455, 0.08568477325418582, 0.02118749344703383, 0.05241410055628148, -0.040215439976221776, 0.009101143605020566, 0.009242300208947521, 0.012412679181994669, 0.0005655655953366861, 0.049924693817177776, 0.04317659981200732, -0.01873997553666955, -0.0007272836704454911, 0.016588164602699133, 0.057190414323568146, 0.032817309723679286, -0.007697819075607264, -0.025160504651380526, 0.010769232449090607, 0.06099450551387131, 0.04076360341220315, 0.04147574751347417, -0.009227239802915278, -0.013419990905804749, 0.009130624862060068, 0.024045475179896587, -0.013518669370581687, -0.010594559069819568, 0.035914026388414, -0.025421966772170106, 0.08871162704980806, -0.014079244063227487, -0.021923190425751454, -0.0020941072876820032, -0.009708465508530205, 0.04971511935989975, -0.010655728633674076, -0.006299765476614821, -0.016603205494913762, -0.02918041556812989, -0.05091070715652226, 0.010901745699414617, 0.08335001768767705, 0.009246692292015246, -0.0024186334694745806, 0.042825619264784606, 0.02341934531225404, 0.014712570005365634, -0.02532790616325632, 0.0443834053775742, 0.055554494849322344, -0.054898935444610386, -0.04004119036762618, -0.018921055707597886, 0.018698765540967225, 0.06721577210693538, 0.04514770749260733, -0.00380206660921793, -0.01632706832475567, 0.005177034015066718, 0.0031509849004357493, 0.009407186645910084, -0.03394417615810149, -0.00817547299176987, -0.035056546641740835, -0.01672098232924941, -0.021697349408725607, 0.011357950847770805, 0.0486857282658885, -0.06858803480405548, 0.03955360052585609, -0.003735688909998176, -0.01583657126556946, -0.018524550507873945, -0.012626662245529751, 0.037816938427392796, -0.02977960684802001, -0.00878260531548893, 0.06392017436100553, 0.0476731170878145, -0.04109716455058554, -0.017743283389485283, 0.015975430346978296, 0.037386115024320474, -0.04121812356393752, 0.020442213957608767, -0.09993231517142323, -0.006273011427090194, 0.05040280715151899, -0.03199021340958469, 0.03535427507283765, 0.06616119923198031, 0.004950145074503655, 0.021903712924378673, -0.06045901408718617, -0.016418762605965958, -0.022964110502406498, -0.017393442949097164, 0.034923749584785, 0.021290234051879513, 0.04463184344597444, 0.011716505899822104, 0.022939907077012954, 0.023184380734989775, -0.01962291678207978, 0.05128797980707421, -0.0016081993868462892, 0.030011872276493285, 0.06304987487396597, 0.019619829184927086, -0.03525876194229266, 0.03813244963543579, -0.0017163127025005877, -0.029789081398429923, 0.015675626850635636, -0.00926201735376926, 0.02016444111848315, -0.05809950156012078, 0.044732825797440014, -0.005098689853225769, 0.0041069844043125575, 0.06593282970719602, -0.014837172124697845, 0.04817503936621711, -0.011454532137677682, -0.04257027916689449, 0.0011420579222599426, 0.025633056591794264, 0.06316082677817371, 0.06209374454334781, 0.014712984073199755, 0.014877925005192482, -0.024818990931695883, 0.014303949380532869, -0.041271319206237576, -0.022181023895879646, 0.008347347422401416, 0.0005283578521005481, -0.06191414543138629, -0.004874304254572799, 0.016222661691200506, -0.07359847799311356, -0.002684920149916867, -0.009271422461142998, 0.009682681644212116, -0.03554559288832978, -0.021081705585658788, 0.05531996938405045, -0.036777643859832454, 0.0031588664264124025, -0.08121621157411332, -0.055776793671466034, -0.03222965148000279, 0.028075501553906985, -0.03626510112874357, -0.02390708539420453, -0.03631584803764667, -0.04527400793462558, -0.04245530186806812, 0.015816283776596007, 0.0033699725770484083, 0.03678289992372329, 0.042929104525888835, -0.009726447581584665, -0.01497615257328828, 0.030350751563800783, 0.004661990013911764, 0.014853899293852923, -0.031144943776740635, -0.0526298283737019, 0.011415421016708827, 0.036137194807525266, 0.017066435751442822, -0.05502898743077265, 0.007387513365895439, -0.00854664234454689, -0.022141989713021032, 0.0036532768668532975, 0.0401916805940762, 0.028306234552431263, -0.001438682373239392, -0.07729058071535701, -0.041557538798506106, -0.027599275476384858, 0.034184491062986336, 0.04350231917616319, 0.025191330073390528, 0.0007350740573100011, -0.01628563283553126, 0.02046101134435922, -0.015214781167153335, -0.021204517867621602, 0.019493338510842284, -0.020778275515756086, 0.02238606287607525, -0.06636366129225028, -0.0573205210317667, -0.06357495075132961, -0.0037829181284961015, -0.0020617787127004917, 0.05448589904975457, 0.002015552824203727, 0.007572238737412667, 0.05839007092801146, 0.05733311627249908, -0.021118699290681546, 0.020338877418898123, 0.057220859432549565, 0.047368869674457144, 0.00014315152882898792, 0.02227511030726628, -0.07466732581661382, -0.08147047635847723, -0.006702396156017155, -0.0005055726136485866, -0.035585603879197056, 0.055535481918947145, 0.007502088974294908, -0.011281393258646896, -0.004899051034847455, 0.0010453504765513305, -0.009145863381555491, 0.020494701936590195, 0.037348252320987305, -0.009515511389267527, 0.07840397476464213, 0.004785048323147534, -0.01659171209369386, 0.034192516823366235, 0.009942010838247707, 0.03973169672788616, -0.050375841522420486, 0.03205837607652096, 0.015787856127251955, 0.02343213095887481, -0.012411598359282591, 0.030930444424611042, 0.03020755876474015, -0.01685362621099613, -0.04479598536644971, -0.03304689607638876, 0.004950462091722732, -0.03870776698599463, -0.0353719770912646, -0.001861377008783766, -0.021331114863709148, -0.04730521986515808, 0.04713675209495962, -0.002950630734538067, -0.004961408144595686, 0.06329075684445076, 0.07966005385964946, -0.05706803294529117, 0.059118838531392895, 0.006005016659129027, 0.08129488457241803, -0.0166704495561509, -0.008766308168914402, -0.008885236448392467, 0.03181557733663083, 0.022495493621674627, -0.04137021020378461, 0.024872293512231133, 0.04153431855073626, 0.0007688065232806889, -0.00016945351910665937, -0.03163850292605077, 0.034662217946147135, 0.02230588951349736, -0.04268933968795261, -0.03403476849048377, 0.07847277922730693, 0.03537964714235667, 0.03654128093156781, -0.010553050093984884, 0.0721908083350538, -0.02197134181284746, -0.012545830285024966, 0.03474006918168906, 0.030495639158875595, 0.1108352183440366, 0.018792790123728007, -0.015983796559789105, -0.045382339525311115, 0.032931570358594196, -0.0016450222630621494, 0.0015516520888083747, -0.019807951274409815, -0.022341256149885632, -0.039948228316073066, -0.02546582664045164, -0.02355160563170211, 0.04088604822030238, -0.0029135933593931267, 0.005729806186355305, -0.016588424598366756, -0.016395375179015115, 0.03867892266502187, -0.045621473592104646, -0.036172652062209786, -0.03323308288587875, -0.00028535475819545036, 0.021234236312604165, -0.0003195482096526408, -0.036961017072966444, 0.022369944278661746, -0.04484526234064966, -0.08673168448216832, -0.022503866250030185, -0.025092202311809426, -0.05175125556729636, -0.05176302282685202, 0.07772103171786762, -0.034597806346826666, -0.03460449686318588, 0.052272404076771355, -0.04058346520025223, 0.05328671617649026, -0.0286828640020958, -0.012949358863663676, 0.02768858847039046, 0.06207809400519182, 0.023835231130667954, 0.026000913722354718, 0.09025544242426731, -0.0614127919116659, -0.023171425575222285, -0.0004837780889766241, -0.02299979395321967, -0.009067411226541136, -0.005064245727550569, -0.0221095115957049, -0.02324234848510522, -0.02404664266624072, -0.046162560415528575, -0.05331475531018436, -0.029098789581512203, 0.0034078994682384097, -0.01678394059182762, -0.02904660263483928, 0.007542995804238403, 0.04869316490363872, 0.009356582707004766, -0.039638717859884355, 0.021648686204696184, -0.07237499550817705, 0.03243402920039172, 0.03074132871241664, -0.03620476147711008, 0.031422146206004246, 0.0030867423465704884, 0.07133272323991333, -0.004077869846582034, -0.01449155560090829, -0.014603831309226073, -0.07385190666672359, 0.016098560886257277, -0.0022349613246986097, -0.004737930993972524, -0.00856024733121273, -0.006651647983122443, -0.014098765269134629, 0.033076913871317525, -0.026813379408579387, -0.022474214700855515, 0.024031623687482694, 0.019916533039180534, -0.04303525795705822, -0.003088189605780854, -0.01933346601682186, -0.07465058278775294, -0.029798233438056147, -0.055356217049840305, 0.03231750603170353, 0.03986272709792986, -0.023638483373616882, -0.1042751329895136, -0.058364063845343296, 0.024394132620731444, 0.03924901304517396, -0.026821147717098728, 0.05836590731799706, 0.0023177293231188977, -0.015670555135717655, 0.005244503228041845, -0.03854584675368811, -0.0181363363875806, 0.006265295323169091, -0.028564533130748436, -0.0026947780373567693, -0.039263813744482574, 0.03913089416804777, -0.014623789718654842, -0.004512884703222486, -0.10144559412407554, 0.008577158398760732, 0.027989743416945517, 0.014475396983329114, -0.013513492432360562, 0.03413924135168719, 0.0360200986913521, -0.08895774472144088, 0.005162468590151179, -0.0002304035167381366, -0.03912624921338508, 0.020123079284865123, -0.007346579364307351, 0.05274829370814382, -0.06620873117922645, 0.042236575829092515, -0.010113553269455854, -0.00529113573713804, -0.011286378706220597, -0.09226093505127637, -0.05561879195702165, 0.0692108211909108, -0.004144191073994263, -0.020686695494611357, 0.0204899838868019, 0.021928743234937275, -0.013298456427890668, -0.06961805034420097, 0.018270082782232272, -0.018337540915681332, 0.006772587206208928, 0.03447140144820569, -0.0664241022912981, 0.03141348356353395, -0.07330642766855754, 0.03231307664179274, -0.061625638323502444, -0.006034985909093069, 0.013867821998864063, -0.01236932899610162, -0.03932197627053473, 0.02475299034121587, -0.006713453403320464, 0.006489990097205811, -0.03505031585995259, -0.06387320710167514, 0.0156965903564947, -0.0008548663249626578, -0.0024345616846019997, -0.07063683676269662, -0.036794599366325016, -0.07105698015286203, 0.010622852282355514, -0.0057023599402163325, 0.06881784716866834, -0.03204286163891111, -0.0555456308962898, 0.011406261019719862, -0.02947210166484301, 0.01404411151093463, 0.02209584240643525, -0.04512806214172304, 0.027714067730091115, 0.06938752068269372, -0.024040049355285104, 0.010527183301194612, 0.035609166863817814, -0.05785205547912507, -0.06032645859811867, -0.014959354260351996, 0.012364589094593426, 0.05543650433353915, -0.014579250388733875, -0.008059228980881614, -0.008931942689821679, -0.004262741353231112, 0.07233551150174745, 0.04345718929361819, -0.00030366536956344815, -0.054290202998110666, 0.00867689547563673, 0.02942966197774064, 0.04897829801566321, -0.03210698158862211, 0.05240945126963519, -0.03752067579820991, -0.02168797312415316, 0.0221131542734824, -0.022393346696018245, -0.030048498280685544, -0.007018918394569537, -0.024454278448978527, 0.03549124945564326, 0.014487917403284003, -0.004963149505287863, 0.06243378468599588, -0.008311184007146064, -0.0832321989646609, 0.006916653435369611, 0.016046194623911374, 0.07616744885504223, 0.002801721443983873, -0.008803369446504014, 0.028256915578370366, -0.009436989510700183, -0.05662161151175116, 1.483486036783511e-05, -0.030857094805911044, 0.040310755260833143, -0.03944114323471655, 0.0230464949537529, -0.019789111914707936, -0.023058854473560396, -0.025062905232652456, 0.020060829188034198, -0.027926368110605167, -0.004632961866894179, 0.04511717762432231, -0.02457851412350587, 0.04265760539379609, -0.03497770343731288, 0.02281771516612936, 0.018871730062699436, 0.003023733913259912, 0.010267352583483333, 0.06931316689073232, -0.01542227274743227, -0.004555878077740035, -0.004214053720770655, 0.012526769513730576, 0.009179420565096897, -0.005550060135514456, 0.03581064331181216, 0.003303050892398186, -0.03330260246562374, 0.09068644251541402, 0.003580343485751879, -0.0008418369686037203, 0.08731135764311918, -0.004164052850793787, 0.031708701030816286, -0.011326563167640358, -0.009534405638200375, 0.04873735556330471, 0.036057130366179815, 0.05310474193399314, 0.07676855392313138, 0.000154104907063052, 0.010284355852311966, 0.006596058119484646, 0.056708669297958515, -0.004240425717012512, -0.05822162952563501, -0.0375133850350834, 0.01715443781850701, -0.02422391684123998, 0.02956487433594952, 0.0015083362850368373, 0.05909769897226119, 0.03992409697085172, 0.06730770665282446, 0.005403555111911926, 0.03653920502442676, 0.0734975061528964, -0.029269706172862862, -0.054093390677028785, 0.049536652310575434, -0.002017267862549629, 0.05842897383140475, 0.013970541406751146, 0.006378839741059231, -0.012220081493865489, -0.00451906205307172, -0.0764954290737448, 0.02651728340788731, -0.007991033522647784, -0.012221406709051861, 0.0059874524290848925, -0.004690616856698593, 0.038814909260264534, 0.037847667171547014, -0.004676147848259768, 0.04687257365600095, 0.016906285671671142, 0.018043449241548132, -0.030509843664759537, -0.04218974421344406, -0.002773762126283113, -0.014647747982773211, 0.049980843867344825, -0.014724696175122667, -0.01713963248465783, -0.007604001087143966, 0.04402876336835942, -0.029082937221195194, -0.04303146539229934, -0.043460014923147494, -0.01884539990211148, -0.0351232639242159, -0.0092568299781825, -0.03682077479728751, 0.0051998164753972965, -0.0024078207221718377, -0.028117533952663254, 0.012442841755755019, 0.015903218258034178, 0.028781583217121365, 0.08848407151385233, 0.0025195567836230064, -0.007796072100487355, 0.02333688597199446, 0.03146629415471234, 0.023357889492529576, 0.06169945988707086, -0.02563845449997132, -0.08234652101311399, 0.06275814368608446, -0.0004614584515846033, -0.019904590725951413, 0.02985553669336241, -0.02787984951731145, 0.04352348280142996, 0.015038574531625758, 0.01007580220106981, 0.04929797751190823, -0.008277689205913022, -0.017099378272154978, 0.0012323038137684711, 0.029322573547471163, -0.09055602348021988, 0.03415131937716725, 0.03471894558874096, 0.028991398824092053, -0.010783506680650038, 0.030714783093999366, 0.009323513552642259, 0.03970498064573841, -0.01708581425101211, -0.01844385636768073, 0.06705639561194028, 0.007866803130312534, 0.03613565440554876, -0.07704111246622505, 0.027855709124342137, -0.03103118611395056, -0.011957607871819336, -0.00449817415292482, 0.011718294589261121, -0.023104161304979953, 0.0050607652525981135, 0.0376448537681534, 0.09006579236631732, 0.034530507396834165, -0.059595641451109384, -0.02260085345671826, 0.02208202688698551, 0.05366236252464002, 0.037644963682392334, -0.07154218145574713, 0.007430999839760128, 0.018909390720896563, 0.053658485683090576, 0.021965036887156585, 0.012611762253149401, -0.017011619563901563, -0.037335510829797025, -0.04964589934703103, -0.008345852670428295, 0.022081721391430564, 0.006231762909746591, -0.10446137578783457, 0.053311069006084184, 0.019293190215034613, 0.04132358571593196, 0.019958174931231056, -0.013927595223557911, -0.01076379604498251, -0.039896860191806625, 0.041114519679777195, 0.04086428794354193, -0.03801145309612738, 0.03239535475343727, -0.06574643755009654, 0.03187534988352953, 0.02660265710180363, 0.007822320199023878, 0.0016861111285287854, -0.03914798331546789, 0.07784985170184026, -0.03186049507906059, -0.001147492472456323, -0.05551505366650903, -0.012547235202262497, 0.005699150943393799, -0.022123372355944425, 0.04019044476894222, 0.026888368093913113, 0.06478994698631675, 0.06181762994034936, 0.03209734830213355, 0.03528197745282791, 0.034322365658997905, -0.027689207930221674, -0.0352748280726114, -0.014727079119347867, -0.003957839450459538, 0.05030896946241108, 0.025804410124211554, 0.07336309602790958, -0.038472801534287594, 0.004090193676755647, 0.07384479442830627, 0.06459568410479105, 0.021874688200664738, 0.032598014805983906, 0.042407268440625256, 0.058843481574097745, -0.047442573196644425, -0.034888285068169246, -0.006615405794396034, 0.06761544901146094, -0.02872518421558552, 0.0053475654452599134, -0.03856286622921915, -0.0371038316856503, -0.032223803465111035, 0.011195645290928565, 0.02124758674337065, 0.03110357873907229, -0.061209293429636394, 0.0028869115535650495, 0.06640001776525441, 0.03312513662883409, -0.03648291186133618, 0.03264239307875238, 0.011885249688425456, -0.0006371034332108023, 0.017726071023895538, -0.015492647210542027, 0.03813570226023016, 0.005339690858066897, 0.011717853628068597, 0.0031795205796564456, 0.0009789328370910658, 0.01585315771155227, 0.03373938774810082, -0.0427421906850395, -0.033678881588564656, -0.005976454764862286, 0.04185507838048432, 0.04806283659007521, -0.023907871418609727, -0.03986026938846128, 0.001166997985389323, -0.029075195949463905, 0.015628925770411372, -0.0023748246423333113, 0.062400948251238264, -0.0556541910534993, 0.01220871261334434, -0.010243497939038688, 0.07129657496581453, 0.06169397643801865, -0.02674879776931502, 0.052944302026774415, 0.06282782585823421, -0.04513065634463943, -0.05143001034311945, -0.01986950177915151], [-0.014816472357830556, 0.018186322347610466, -0.07200232718846912, -0.08370640841936502, 0.02314671024698528, -0.05655704102668681, 0.01859998117064861, 0.04110365110485772, 0.024311059798796424, -0.04797380509661716, -0.030171151213649824, -0.057398683166796395, 0.0030603975930441063, 0.0015960052698164985, 0.028427973457181142, 0.06131734312476129, 0.019853740870342175, -0.07702877572752052, 0.0075133935227624385, -0.061844118095821805, -0.014904625180635641, -0.01668772261064997, 0.057155551455988225, 0.00883240540022799, 0.005081981826414411, 0.014524079631401647, 0.05230510530069528, -0.01629951091926352, 0.019483381173582566, 0.04422150858469786, -0.06603746734027241, 0.009046367527841164, 0.03064045225294102, -0.05750088769328463, -0.0031006284371765808, -0.055396067896331634, -0.051271558190041165, -0.020445368039545893, 0.0053008373375579365, 0.07163513051262818, 0.02441666333388898, 0.008735567218682185, -0.058988031367120206, 0.009478473718075116, 0.06843129121764588, -0.06521871553424206, 0.04149324652675578, -0.047822464056963075, 0.004604433398176858, -0.07503082520091071, 0.03156263347480314, 0.006531842644907625, -0.019700384505747244, 0.018255987289480878, -0.02101891783826886, -0.021187219147432046, 0.00671421039735882, 0.03816168486523224, 0.010342807506160427, -0.020665478509544026, -0.03983141739255764, 0.015706903146106434, 0.013611615848409187, -0.05249522663246948, 0.0037188113353866952, -0.05300638758228064, 0.11745527043552843, -0.06036461762333623, 0.016548172704817656, 0.009100240320488886, 0.04079706042037875, -0.05300860839063587, -0.002539756431116837, -0.01923887978724526, 0.008661571422599077, 0.017562890632268423, -0.026619650042467673, 0.02873727418028895, 0.04375186996619758, -0.031102371702362016, 0.05193116880887252, 0.02803419838667368, 0.016345956042750506, -0.026607093644705097, 0.03919820550709146, 0.008956629928602551, -0.012103745490770377, 0.031299442273862374, 0.008502133751369451, 0.008506210282204251, -0.03561830040358468, 0.03066220548756557, -0.013091407269273115, 0.01920002484401814, -0.01610938412869053, 0.039577289741527515, 0.03770604881713866, 0.029441726696223136, 0.029665741147663297, -0.028586272359745955, -0.027929048466132145, -0.05049116764049021, -0.009489635049329325, 0.06928960294676487, -0.020116323350889063, 0.01567100507165043, -0.022463099716797642, 0.06430458045151549, 0.056123812302302414, -0.04851390566939718, 0.03640323237132862, -0.03183625089459949, -0.0072475591263551215, 0.00816656935612889, 0.00506018290580997, 0.005767527237395639, 0.009408510946286098, 0.0544409132596757, -0.016459529186264806, 0.03885764092065645, -0.058900777775088634, 0.02708501878403536, 0.023109412403963858, 0.0405664391518447, 0.01842985706468157, -0.028382407901881013, 0.004278474486541692, -0.002677833010398554, -0.07825797904736409, -0.010072048990819859, -0.03616263070984393, -0.03805034044044252, 0.0038222334591705535, 0.028721700069124702, -0.05785765692934876, 0.032775956678379244, -0.012829063138277997, 0.008740595361808044, 0.019952979654590818, -0.024318356125868627, -0.030932341000725932, 0.01006370154647546, -0.046775094042399754, -0.057536560304643054, 0.001483396777412602, 0.0011787151537888333, 0.017622744691028463, -0.020505893519761086, 0.010282604225763022, 0.008123530632799993, -0.02834401075103331, 0.027653025527125084, 0.016798136227145745, 0.007816664873225897, 0.018941236232914084, 0.01527695958614729, 0.006524545614007663, -0.0850445305823807, -0.07756178296488876, -0.06241598928967663, 0.0269601029997778, 0.03821800119276781, 0.013634592152492062, 0.0012553091537857478, -0.010363288102793954, -0.015189761651892031, -0.049377357296274, -0.008416162782394107, 0.05996915323649822, -0.0004080064433720798, 0.015574621706355454, -0.02271719504140126, -0.03388078823303205, 0.001905253173287401, 0.07501808028255151, 0.03365415362863961, 0.009645813756986074, -0.011882148258671833, 0.1203949949181846, -0.02585696890333732, 0.01817406338684233, -0.006204321221322425, 0.03795858911026633, 0.012538318298763432, -0.014214433164122709, -0.05821659875371655, -0.03351185233624504, 0.011905827563778315, -0.019221453897157372, 0.08164466093443815, -0.028967743079615717, 0.004468607541673647, 0.014762754927391156, -0.0008783308708294888, -0.021295747442606174, -0.04779503428487835, -0.046072069972341735, -0.024055196228055846, 0.030854087453705503, 0.04869642016895911, 0.002958598543266671, -0.0007176602991056715, 0.010509776654758343, 0.026086156324125923, -0.057868262720089526, 0.0015595345690401076, 0.04530512532816818, -0.026263664328674823, -0.053297270876408946, -0.005973688630646296, -0.052702260216372636, -0.008499189121960751, -0.010184662096702563, -0.012427555947113107, -0.019379480446666007, 0.019772483856712934, -0.03126377381664698, -0.01927938943678351, -0.026915080164754114, -0.038089261242745365, 0.027226960006242102, -0.01268693140838151, -0.003536741476809849, -0.07475484700030044, -0.09036589218960456, -0.022872169828153325, -0.004463728582187642, 0.005639009913507993, 0.07381714848810615, 0.004500713313479885, -0.020178362802780566, -0.03925077474441589, -0.015799838868132722, -0.007134450879308641, -0.013195687324823334, -0.005051875529056069, -0.013497602751399287, 0.05015742334021124, 0.018965084908376974, 0.043557131978598916, 0.03618373548034317, -0.03397833930176642, 0.049691072890773624, -0.04759962150559258, 0.011808895087382924, -0.022674518732099976, -0.07539442547511213, -0.03211714522934874, 0.039404708863435105, -0.03203699870234804, 0.012708313174078958, -0.016800047822246793, 0.0033834759362137185, 0.07038914878529269, -0.02477549186465394, 0.01580428968610082, -0.011403133918546766, 0.025966297226614532, -0.017043055298347272, -0.010998499079207913, -0.048749632665986566, -0.020000327544972957, -0.013503592064015113, -0.0023785395048435487, 0.0332504684154923, 0.007269358675296781, 0.028047600072351308, 0.042014918673907886, 0.03796853530674709, 0.015882043438739682, -0.05168419199542579, -0.010287396896998322, 0.013808914628350965, 0.035425202415806524, -0.03156410117423052, -0.030661439237399397, 0.03983992680347694, -0.015506244110471676, -0.010146277527353503, 0.014392840838473534, 0.037960881792565425, -0.0005383037699674993, -0.03987976506961281, -0.039511249580143744, -0.07066599734845044, -0.050081789001470534, 0.018928249734791076, 0.007368341069534516, 0.04888643441293635, -0.00208861351986422, 7.281758534136116e-05, -0.00566081966745492, -0.07247923807489351, 0.016354482770375326, -0.018375423046014562, 0.055296141138184776, -0.005727165200635322, 0.034638646389606814, -0.04081039156840355, 0.018698680462539547, -0.06981296838445082, 0.004175269729617692, 0.06392492469236663, 0.04878912396103088, 0.004448395461346952, 0.041331028589395254, -0.034039285900102835, 0.0021074023164692015, 0.007315174949495816, -0.03211431448497925, 0.0176149609725034, 0.01746818917791122, -0.07351076785984205, 0.08875631746058354, 0.02839150597720334, 0.009810282201899308, -0.04058466526798472, 0.027477200405798742, -0.008701778067423902, -0.07279578936112749, -0.04770841935040709, -0.00442008744256652, 0.01130705071948829, -0.033564735215096245, 0.01636540351973778, -0.006052120577650961, 0.019340421150054802, -0.028749744291749535, -0.019171008777672277, 0.03663002233442637, 0.0021712309283133872, -0.020024365648704596, -0.016310104373715516, -0.025273204678527172, -2.552220653373138e-05, 0.04256659780720744, -0.05944328652895413, -0.03148038176493112, 0.0349609514515216, 0.006898855125838368, -0.02992362675594856, -0.007637465185786579, -0.0516593245131639, 0.023592419753125017, 0.020050333734156555, -0.0016781217388896692, -0.04856483847910461, 0.04915633433629213, 0.03764022555544923, 0.05829997278524485, -0.028959587427671497, 0.09918573821599284, 0.05323528039423254, -0.026096043793440184, -0.028082808757689297, -0.062970592922305, -0.05484252146393666, 0.044602306746143135, 0.014550484462763403, 0.0090402084009553, 0.014291424081508014, -0.030008308903917334, -0.06641560254760955, 0.018606170445362696, -0.003888099237437316, 0.009408017541331413, -0.011363445034935287, 0.053682169912396306, 0.021727975036421283, -0.015907537133737593, 0.038271818298245434, -0.02467435037623707, 0.012709754493370853, -0.02096994049978636, 0.09865517973920797, 0.0030290696694681186, 0.007216747333465877, -0.08482172619113494, -0.013693225872821527, -0.007078319713555597, -0.024532393348698677, 0.036091520067775995, -0.017960275463381904, -0.010442537103815897, -0.010479197326659232, -0.011620564191176143, 0.013789323418583297, -0.07562117864241216, 0.014751536917762787, -0.010078081432131777, 0.011472138902429615, 0.04768963989468833, -0.0013331506963508918, -0.043125746848430534, 0.002481098440393954, 0.0664369879792107, -0.05137648449679282, -0.0266458893312948, 0.060652359038211374, 0.0060654479692992865, 0.0451472040063603, 0.004405038469430394, -0.005346347304534716, 0.0059014047751452916, -0.01920973879746384, -0.06163747597282776, -0.04282266979971706, 0.05574263165912541, 0.017869764240220097, -0.02896677779203847, 0.039186359449844874, -0.013708569348071516, -0.03428974892525691, 0.006830402417947466, -0.02779949690233832, 0.04971724236177315, -0.01696103322479452, 0.00864359799237925, -0.014671753593850494, 0.07866501503755345, 0.0038299645915414017, 0.03244893354568794, 0.013666200709858646, -0.02253165796341831, -0.004512441934218616, 0.020097330816857828, 0.03729697551938575, -0.022242164571057547, -0.032496330064524716, -0.027333611562701053, -0.07273730560106066, 0.061479287682298656, 0.003864148890044303, 0.024463998090076076, 0.021662829361394357, -0.04089173796503793, -0.047069118894979646, 0.03637379883513438, 0.018843413435556327, 0.0727638152799185, -0.011702459445552291, 0.01763042894031058, -0.010916937135985025, -0.06570114349816586, 0.034078824159349284, 0.10188856959242244, 0.032671028758386005, -0.006832684757055251, -0.05128627192282822, 0.00222681268086197, -0.0203014194077205, -0.03155337272115359, 0.042580175643488816, -0.028141039540441535, -0.013744622478902135, -0.030832494524686803, -0.01778649189190544, -0.009493379730369001, 0.017709795385175676, -0.034053533598089096, 0.0026252878786598636, 0.020792635737205942, -0.016580424480391202, 0.02360255673164906, -0.028783540120850982, 0.002387098864831094, 0.0022144705552714088, -0.05072181358778881, 0.018353512117394933, -0.04667346525397629, 0.004137092356813899, -0.025411171725954966, 0.04333091063903311, 0.010641973031080379, -0.0036013926792904933, 0.03235514043496913, 0.023966972771209287, 0.0001267398611801971, -0.0015710688525630498, 0.003915243383970707, 0.021393314434932472, -0.029789613404456024, -0.04742669520456675, 0.002644622372368404, -0.02894891857364536, -0.015795357352777678, 0.046996327520510035, -0.0550692386348202, 0.023646997383823753, -0.0002476854929673804, 0.010867325252675374, -0.06357960035948254, -0.006548491163360954, 0.04444022333265686, -0.04495928186618002, 0.021473621205106114, -0.012526214260117527, 0.02203730531125676, 0.05732961287439576, 0.09110876779923019, -0.03140090927184599, 0.010521757681956888, -0.02952163352163335, 0.011515460227195243, -0.011443899668412022, -0.017329834999982356, 