{"sizes1": [784, 48, 35, 10], "biases1": [[[-0.4673090170828393], [-0.5809780933884902], [-0.3743363440421086], [0.734955634921576], [0.36642306210876263], [-1.5315397378143296], [-0.5549964279406937], [0.0037737643252764557], [0.6073166989004846], [-0.15187021395389766], [0.5474898292586267], [-0.20020042838987318], [-0.0318650460793155], [2.1172522673726566], [0.8527756456157845], [-1.3285867046183126], [-2.0316870848032416], [-0.28796024722666763], [0.26166639537220016], [1.4799055928767644], [-0.4110425344551039], [-0.2717737738132655], [0.19497552190410333], [1.3060039030960449], [-1.4817346578631807], [0.5330975027975083], [0.4269594586672544], [0.8236881643422582], [-2.0709168182841275], [0.21820424479746942], [0.8170481420017447], [-0.311550333713334], [-1.4212876335471762], [0.3205728681336756], [0.7191701737274621], [-0.12638475219554293], [0.9889212872157063], [-0.9688936783055794], [0.5378292980907022], [-0.9204243687836318], [1.070080839143948], [-0.6831143437294824], [1.813443869331081], [-1.1962742379518359], [-0.7466092980968045], [0.5173221605542829], [-1.2046200696031895], [0.7891128026218195]], [[-2.017214984721544], [0.14715768242515176], [-0.7471976746418897], [0.09567159589515313], [1.0654374365471553], [-1.5728703614015305], [1.087111616112431], [-0.37245210634949805], [4.197510707495772], [-0.9304622589233126], [0.029698380510611976], [-0.9421742540740582], [1.365291831984072], [0.5443128220851401], [1.51264300306905], [-0.49535583601265837], [-0.48318664865292], [-2.2604557633991704], [-0.23422881048262745], [-1.1662689244556912], [-0.01808967389620787], [-0.7512742696854783], [-1.081691872273127], [0.06683109556470455], [1.7210920326158223], [-0.12829551833885341], [-0.2837122835842895], [-0.7564590656143519], [-0.32350995722884685], [1.0968899487727493], [-0.7674167801486358], [0.7849987570824192], [0.8897980133807857], [0.3510879559968979], [-1.4111318691816712]], [[1.020229649495297], [2.338526905473123], [0.45075834017172856], [1.0376874264523963], [0.1977371164855697], [-0.4993906616702211], [0.6406005068495144], [1.076180876052599], [0.680244999974253], [-0.025709350825937703]]], "weights1": [[[0.003559091858022042, -0.0001271073883212515, 0.0007790556585066004, 0.0018219299449925592, 0.009875834720713555, 0.0013867280512395435, -0.0008434894596711325, 0.010788824706161562, -0.00551405700177531, 0.003954231750275729, 0.0025878867211986878, -0.0024184226058831058, 0.00018904949672683946, 0.0010330656302588637, -0.00027199791378819654, -0.0031030737214668342, 0.0016538816393765511, -0.0065245226104337735, 0.0019304604590493564, 0.0010410639972124798, 0.004846338239637561, 0.0012454365569630808, 0.0003483853543579879, -3.766079944265244e-05, -0.000614061756839483, -0.011098484486392892, -0.002761994687065929, 0.0011556473595558067, 0.004348709645152228, 0.003368168661585233, 0.006778334157976555, 0.005685069760284101, 0.008966448043001604, 0.0007581079974522866, 0.007142303755114307, 0.004446348900597143, -0.0047886078523963265, 0.004849058507370135, 0.0028010513149551754, 0.0018246560750440457, 0.01673526598641883, 0.012554372602277859, -0.004779030073209428, 0.01214393354768669, 0.01871490493273014, 0.006987278691493243, 0.011795833205388472, -0.008092664115342652, 0.002355562563373936, 0.0062715403765013595, 0.010317149963204712, 0.00025929039860736914, 0.0067044194777007736, -0.0036156769131420498, 0.003759898352788202, -0.00125002230591833, 0.004640282841509627, 0.008589839000883946, -0.0017760604697938413, 0.0059331272527114245, 0.0073263464031129944, -0.003093923362806767, 0.006737693144078629, -0.005167789056068738, -0.003422418358249809, -0.021182223058821125, -0.017977637393397628, -0.0006479840610905492, 0.011867257809189298, -0.009837032451157688, -0.025605217826103217, -0.01887185492022934, -0.017081796181703145, -0.008174422496734057, -0.006801171782586121, 0.003065012750664809, -0.007922038167653196, -0.0007810061431053532, 0.0037364096926927096, 0.017082177960039663, 0.001987757493605673, -0.00048370264798777, -0.0015059317524741833, 0.00037446404337777606, 0.015590247868160304, 0.0027492859415854517, -0.011323837533444178, -0.0034694727280407084, 0.002727721429298843, 0.004927244620192746, -0.023371564139384703, 0.0029635225710620905, -0.012663435044788965, -0.02768264014193902, -0.033201650374506834, -0.058427804817642, -0.05914414000975043, -0.04711991295582224, -0.06405901118244224, -0.07659760437883002, -0.06386426321451234, -0.06517913678825799, -0.056566149339646606, -0.040687766132062424, 0.009122948705587866, -0.00340166844596119, -0.012682878662403904, 0.0003422097907635811, -0.014671002087628433, -0.00025127390444212795, -0.009958922339123702, 0.0066680676380228825, 0.0021287658566663337, 0.007497729410334606, 0.003229491769780983, -0.0027745208835696198, -0.002186640556783097, -0.018866003290403766, -0.009516937205812185, -0.02515320909090615, -0.02439293186894742, -0.04822360810971791, -0.09185935719152004, -0.14191654051804886, -0.13908516285332762, -0.11004483307031249, -0.12199934411640574, -0.0786494358378966, -0.00021813378994251005, 0.04977620734479523, 0.027143477062351238, -0.028452602648357528, -0.09325852929915643, -0.0023305853579083605, 0.0018562321475072512, -0.03943607968190895, -0.03796432418141487, 0.0003359445534702974, 0.005591961671961655, 0.006182647960060543, -0.005154789297464358, -0.006931114151828921, -0.003410624666276479, -0.0016089970551896693, 0.005236687257068285, -0.01779962897637143, -0.015400085304073068, -0.021913046730667216, -0.04518835603163138, -0.08093959561236488, -0.16892734441933496, -0.18319930730825434, -0.16822465687413782, -0.08841664386193258, -0.09622391945698493, -0.011125265750452439, 0.020061773252892726, 0.10224189460270176, 0.12851746084712853, 0.17006559234926255, 0.04782465999857842, -0.021421071787670328, 0.015372320327227114, -0.11733844318237135, -0.08188850751472608, -0.020265246692041383, -0.0045636879238619525, 0.0019662712538333787, -0.0023799303220980316, 0.004460512865675437, -0.003904833850160292, -0.008198869057902135, -0.017644612890768237, -0.006040888742444031, -0.012268939837023929, -0.023745823245535147, -0.06302642920471886, -0.12527212537500795, -0.14337429624536113, -0.16000289322469555, -0.11911175228455965, -0.056957658553844444, -0.10040160444537893, 0.010504358774100742, -0.018525505917712376, 0.03013475734592373, -0.013681939735016737, 0.03384198195002166, -0.01879833185413729, -0.02392680226205542, 0.02170342910202563, -0.06923564771412678, -0.042644934450838924, -0.04167590314872369, -0.021586748356015314, -0.0010606120377769223, 0.003243047275553561, 0.0018732251625694172, 0.0025387348019705745, -0.003464085376310073, 0.007222416658522163, -0.017066872180694, 0.012328456990232243, -0.011889298201879943, -0.05679429507085766, -0.06275372863995823, -0.07307615836651422, -0.06487657489912001, -0.026915931386382326, -0.0016248853218462885, -0.017942866824752945, 0.022692288257668735, -0.062020621641012325, -0.011399730604094887, 0.0446256627159904, -0.029099224641799367, -0.13184685526060136, -0.03950668209709576, -0.009188084319459878, -0.02619958237622828, -0.0024379753802014734, -0.0295042523051333, 0.009725694351776327, 0.005706347779839433, -0.004427438333285513, 0.004688299314145329, -0.0005232034256418815, 0.005056076771130124, -0.012106779599176394, -0.017420330400342025, -0.04351103388995863, -0.0461885089158834, -0.06059646180644506, -0.1359371780315859, -0.08968760361194726, -0.09973690322545928, 0.009461974712691307, 0.11168356379494898, 0.2203974694991028, 0.026255458772313455, 0.07737328201693074, -0.08940143231393664, -0.06263685923790933, -0.15311215130096098, -0.11663489334823211, -0.03485385707260754, -0.02941958464265224, 0.04512299689179561, 0.06992096148357138, -0.07213738968288222, 0.019704537545542248, 0.0043550047087106, 0.003120977182625912, -0.006597762332708407, -0.0004951624753319053, 0.0002782714148978133, -0.01348619894420238, -0.040917789617501595, -0.05857139825373963, -0.09651133083614073, -0.11859216976112716, -0.0770380652499222, -0.08678490190618139, -0.0762852217745536, -0.0366951909703453, 0.1811531631466236, 0.0668563646489519, 0.03519402656705854, -0.10321605416948625, -0.07127577407895573, -0.0894257205535523, -0.06207699867456319, -0.052989892563464515, -0.08069118567764348, -0.053012941488816225, 0.13566805144182112, 0.06673226588384853, -0.033006038079373676, 0.014944121765430451, -0.013920853672240777, 0.010541814590478123, -0.0005294040782979957, 0.002926536287448865, -0.011534554702308544, -0.007045642071924431, -0.016244962151064683, -0.06441234107506394, -0.03256436441667197, -0.011998995365260537, -0.027974399053605225, -0.13458242580221608, 0.05143781718643874, 0.027706567352857567, 0.0775635200020185, 0.1191841458598418, 0.09959719372999938, 0.04318613020886989, -0.06415558136277004, -0.027047924219473142, -0.045031080771972334, 0.01914366320914207, -0.0604452412897692, 0.07772297308267129, 0.10140817521757857, 0.04424378603260033, -0.1149639586904665, -0.055920864738651266, 0.0017778934125837083, -0.018815916749017614, 0.0005372957137991261, 0.009814086684348492, 0.0015095618663199639, -0.033768295122466346, -0.04135167157421851, 0.02866855770960308, 0.07528034089545087, -6.2706720000744635e-06, -0.08494961141727722, -0.003520507368012579, 0.04565086253525486, 0.002076303755122391, 0.07482907717245159, 0.08198931305294573, 0.031114826231848063, 0.00754945857696722, -0.10682656615671644, 0.0143926548527179, 0.041971889029961906, 0.07587682061709812, 0.05676100588682636, 0.05636633602236464, 0.11109953187244775, 0.12254978420899984, -0.046257630957569774, -0.0031426496419045876, -0.005028338279506146, 0.00273955132728344, 0.0035932095974405454, 0.002031467933915537, 0.007137281757829119, -0.007322764700313352, 0.03422626540245747, 0.03967845513859553, -0.012559923986721669, -0.06833921075260092, -0.03726007705090151, -0.012519153875992829, 0.05276615995340393, 0.022662072687546282, -0.013321188298925615, -0.05953010378986916, -0.10541507662938347, -0.04546154434625346, 0.06243941424484511, 0.12558114098608233, 0.0785065148590066, 0.10910759350387304, 0.09248121521940857, 0.18902545057643458, 0.2052429437503703, 0.11317114590841337, -0.021201906169467988, -0.016286478617572677, 0.0014832077453092577, -0.012539202257567836, 0.015272076161741258, -0.0049751697854393765, -0.011505294550250377, -0.028606530373083132, -0.013660615326540313, 0.027490652398356966, -0.015205748205751381, 0.002914871490067217, -0.00991979808039662, -0.012637082289799415, -0.018459331063854674, 0.12562083907656352, 0.013637134065446987, -0.045833909583081624, -0.07454952502458242, -0.042394406615146804, -0.05054455468882127, -0.041442117576806874, 0.03286218250979076, 0.029917957188113672, 0.10897399270306671, 0.12804978323137134, 0.18502778702833272, 0.07659751280318751, -0.01979934410932965, 0.002613591149209982, -0.007335752066361558, 0.010530523664688986, 0.010403988325808664, 0.0036397428118318154, -0.024996185222506212, -0.03607334111437449, 0.010291187273048757, 0.03378796157669122, -0.008338456754371037, 0.0019649245757675927, 0.005958569038118293, -0.008412373713245557, -0.04535622635902884, 0.03321211513721592, 0.07937846771124508, -0.006222977430328303, -0.00011248986621632565, -0.02749559803620431, -0.051040070717367256, -0.07450658182784518, -0.03169526844630331, 0.08765649505184014, 0.06305192648205386, -0.027715415567207746, 0.07085327257729744, 0.013878602133320801, -0.018511831514737183, -0.017704669987889603, -0.003583487009671024, -0.006124270242543349, 0.0005304437989049616, 0.0015800608345965595, -0.027712487689132047, -0.009687954240943417, 0.03761904814355266, 0.009156480917077953, 0.047083793449458865, 0.00735374085118285, 0.055929608257216164, 0.04232092501175288, -0.101636085399781, -0.00343617091974343, -0.017677584720561863, -0.03878748404328435, 0.026270705553151252, 0.03885814364060885, -0.04669703745588515, -0.0490649190249949, 0.024248173041132092, 0.030153472122174993, -0.04598985467398686, -0.015265259911814958, 0.07088652256631871, 0.05287854180097279, 0.001695799236842726, -0.02667451782545603, 0.0032320819599845185, 0.0013984466501726122, -0.002355260838302663, 0.009326336106491447, -0.020241913525717574, 0.04297899620197265, 0.10213854485692271, 0.12465978231242705, -0.04844883399827343, 0.03023366965877595, 0.06898539457896714, 0.14683943870606278, -0.007559497044912159, -0.0712246876553301, -0.07757043033370702, 0.03278785925978805, 0.03602408559344229, -0.028727948613406436, -0.01024896935283244, -0.08382171830936289, -0.04812383298072358, -0.056349848551311026, -0.06460737673454477, 0.03124060590836059, 0.041577963535962284, 0.04667333120920467, 0.004197316456980442, -0.002719587352570858, -0.0022227281253767617, 0.010833172161987157, -0.007651739145560738, -0.010099916453528536, 0.011694978673777712, 0.013076447488680474, 0.07800831099564913, 0.06454798414111786, 0.03129050163538181, 0.16645983794076932, 0.17329915077716238, 0.1418838321383465, 0.012346456521826737, -0.08569311248944252, -0.008558185560514523, 0.0888237900578562, 0.001493025573300163, -0.06155324945626654, 0.0054380702315813285, -0.014854401238692222, -0.04534835098556755, -0.08011588486098083, -0.043941451249354745, -0.02362148278371092, 0.00794875679255796, 0.06653914263271367, 0.0195650982761388, -0.005061887112519164, 0.022925095271587228, -0.0009131122499497965, 0.00425735658633361, -0.00844824832776196, 0.007835901392656509, -0.03954842405441528, 0.0065128794314394155, 0.06932882378361167, 0.07195583264082456, 0.08268327136090192, 0.2211597016213158, 0.12199474638798496, -0.02902113391775529, -0.22641738943939668, -0.17436551178612372, 0.013098733261470326, -0.02016605372150407, 0.016841230612372214, 0.07451329889643582, -0.004066169380567303, -0.13169418193741989, -0.029956042855963302, -0.017180958247563792, 0.0040680788099150145, 0.00431809579133521, 0.0193907106489836, -0.01307170504711357, -0.004808821068736849, -0.004642090269554969, -0.0055243839501535495, -0.0036780896858268656, 0.00022675325594065683, -0.011816032318205858, -0.000584412902180278, 0.05687791640200021, -0.010771949680161128, -0.05682388504575507, 0.10251821343498982, 0.11007721731926592, -0.02456799506921493, -0.1855337870246504, -0.19405872855395206, -0.11610805464188367, 0.09723270618613852, 0.06416699250071577, 0.07907785174341699, 0.0667577750167299, -0.004566639279092468, -0.04331965427566341, -0.03148550308257191, -0.028182146930888413, -0.03158545570337386, -0.046034222256308266, -0.00642193610980608, -0.013640847678484891, -0.0030707965596759286, -0.0003983010457743859, 0.00023397005958532337, 0.020837286933936192, 0.004912969693073394, -0.012470985902853067, 0.0059793740980115875, -0.04342267517429744, -0.06278486823178757, 0.03057958035798829, 0.1287746779101277, 0.0393784697619914, -0.050389064059895336, -0.2371755528630178, -0.1696751035925489, 0.01270757385987361, 0.03915466066898702, 0.02795411491638578, -0.04246310808976004, 0.07521437927652944, 0.00950468451343945, -0.07154468673085626, -0.05821575909090501, -0.12497764184730521, -0.10122404859819126, -0.07498579805637832, -0.006083284831275177, -0.003676088954667633, -0.004999533435609122, -0.0038688969039162844, -0.010432103015310874, -0.0058777880567547295, -0.008933657575269614, 0.010040088268461972, -0.07922742489149526, -0.03526507990386061, 0.0458139358383326, 0.09585168061271965, 0.11680473804770786, 0.05679529413768473, 0.002594466074148268, -0.08212499665565394, -0.08473686577456163, -0.08123978782265974, -0.10634624016625416, -0.1038238508181452, -0.046756717950670434, -0.11207948064468921, -0.04823892417302546, -0.06683439720365755, -0.10251935601004973, -0.11208708070348201, -0.04974365935149123, -0.05769994704231725, -0.02630762204309254, 0.008402427209493841, -0.009911380364815698, -0.013278674400963161, 0.0033367335255358294, 0.01418504035327029, -0.0022329003893670624, 0.01557045196359372, -0.09427173484117361, -0.08150084412705812, 0.08785681308847985, 0.11829314677608734, 0.0033866963209640078, -0.0060691146368889145, 0.1086724940230951, 0.06905443197207448, 0.06916578314509464, -0.004075948082151902, -0.07913071905996105, -0.09630895148909357, -0.21443497153877206, -0.16124272454344496, -0.10701061901834359, -0.054195578845394235, -0.0942277176258144, -0.03395608671732917, -0.01709452592913382, -0.037657925898621526, -0.039933447977281725, -0.0011802450749563355, 0.0015112238560709608, 0.001341215041418611, -0.015954696795005267, 0.003985105815557435, -0.0012822706942425299, -0.010794003732481525, -0.10539217307359412, -0.12403352418651169, 0.01823402769592168, 0.10872961467734925, 0.16489468627665435, 0.023980602900309657, -0.0005900800031049847, 0.051885380344113136, 0.039244291021405996, -0.04881517313259065, -0.11989002797623159, -0.11271179179124834, -0.11756075258204289, -0.0602542102700909, -0.03798797078534254, -0.04793422632911898, -0.09153936186189694, -0.04820006177739296, -0.01534143096192459, -0.014992647160078285, -0.01789889018509636, -0.0014109690387664972, 0.0045347527661965415, 0.0009862751742555245, -0.003244554729954485, 0.006462167171086405, 0.0015664480937355523, 0.00012390666993991262, -0.07428649215083544, -0.05629966273678817, -0.02764252080002286, -0.004643156570098788, 0.045993718690578146, 0.08670851799892006, 0.005262034408280494, 8.464441535492961e-05, 0.08266983886333133, 0.02229718134661808, -0.0007022975847149122, -0.05954051832332249, -0.07355407218066876, 0.003989634771574801, -0.014561967495802802, -0.08073928832746169, -0.04001827658407555, -0.02750203444418142, -0.007953047372742272, -0.015982256658971378, -0.01370910733200269, -0.0012539172367845423, -0.0038577993875610578, 0.0019256019751705228, 0.0018682135139639964, -0.0016325942899869886, 0.006413088278577243, -0.006986615137030088, -0.03333124191609683, -0.04842653496264819, -0.023295166893594413, -0.036937052793139434, 0.0008247133812641739, 0.002336977461840943, 0.007422612559397563, -0.005724145292978242, 0.0095698741713102, 0.014667554577640737, -0.010764464303286278, -0.051606377587526855, -0.013251525355498473, -0.021537949494699362, -0.022564287100536703, -0.009929241000012334, -0.0020567343695284987, 0.007187176414674876, -0.012554368180006943, -0.0051873400450066064, -0.009724518127660882, -0.0008605041178712871, -0.0018294553363856325, -0.0032056780577769403, 0.0018131025075754262, -0.0002560357450574302, -0.004317909001743507, -0.008064017882576815, 0.004713329160393021, 0.0064623699471985305, -0.006788491935861267, -0.015979786916462436, 0.01718648321654357, -0.003981343797540159, -0.019673716277102953, -0.016749722107310294, -0.003572901260371372, 0.011213841962687866, 0.0062091319023404885, -0.015363232147254338, -0.0027195833084209422, -0.011681909128276654, 0.001456907726566655, 0.012465707475550763, 0.0024316755138848807, -0.005441170126081452, -0.003279746885936446, -0.009325228427414213, 0.001499498170992977, -0.00047031395724213125, -0.0003524921384628791, 0.002677038349423444, -0.004012234903758916, 0.007881111650718938, -0.005842717683499157, 0.0037265244365624847, 0.0024184823099172694, -0.004149025201832945, 0.00495727465068634, 0.003920515221896071, -0.0012304228550157358, 0.005926475338983412, 0.011083301460760137, 0.004176307491465576, 0.011873031966415159, -0.004836203808027366, -0.0055790749657007605, -0.011236969201938635, -0.0029596794165273423, 0.00146788958472179, 0.0034200842922886302, 0.0015971947591475403, 0.004913870984612357, 0.0049828451945040635, -0.0005521629845517537, 0.0015529241329153662, -0.006672600275510702, 0.0027330044978469883, 0.0024051110767009283, -0.005041129695731076], [0.004124817510785551, -0.00451310985451664, 0.005907524562495309, 0.0026953694533343414, 0.005568380005748262, -0.0024912203526729075, -0.005540028009557372, 0.0009295757602106641, 0.007986063141828707, -0.0027030966079286977, 0.0034130341633733354, -0.0034494301825094558, -0.005813559975922717, -0.004709097568669503, -0.004258740179185393, 0.0010904019575144832, -0.00020023910680587882, 0.002037032059388816, -0.009446676445072518, -0.0032003070807699622, 0.0002084356058729897, -0.012693437634324393, 0.002029756811400292, -0.013289142689948174, -0.0030342031724431354, 0.0016586952018320042, -0.002389111110117942, 0.0028763953812535044, -0.0022640997305362095, 0.002635158188140769, -0.0023470523261424413, -0.005296480127255268, -0.00881985207142037, -0.006746804856678945, -0.0044785424151643815, -0.009107033723017452, 0.009165791939714191, 0.003502951036036288, 0.01173672889442207, 0.0002509501004669376, 0.0004554706344750606, 0.007371213487354964, 0.014505221624658806, -0.0012356977460694662, -0.00028190767823098626, 0.014072926907572848, 0.00489668183938096, 0.00696567056794106, 0.0013619566923649305, -0.002636554263833011, -0.009631275012227656, -0.00819366066161547, 0.0037036919894655514, -0.008112727970277738, 0.006379839405806473, -0.0007559054893174074, -0.010850041707370332, -0.00010809590465543901, 0.0017382975833773362, 0.006578225488210906, -0.010065137567504283, -0.0010535471511880807, 0.0002610635389824195, 0.0018381236273442704, 0.016986512488385817, 0.009713168341973086, 0.0017947873184600398, 0.008135747851489985, 0.02247680470246675, 0.06157551125298288, 0.005448552558403496, 0.014816150522040638, 0.020600483420369065, 0.004083131813921217, 0.014280563509463875, -0.0033124367794958045, -0.02196563890885815, 0.0006142078552203622, -0.004878458120702045, -0.00041166956421713653, -0.0020728017193484363, 0.0005413133942713554, 0.0028527695199509003, -0.01484916369581916, 0.0008899439343454516, 0.007075520007277128, -0.0007421409371665213, 0.001990028226892802, 0.013048960827953423, -0.012044543097534433, -0.013963442235768253, -0.013560590348688464, -0.012941045662464772, 0.001165167131988961, 0.010368273863205593, 0.030374529690095124, 0.06407658097068832, 0.06672445311342824, 0.07838652292501277, 0.05905756620729593, 0.04084025630958121, -0.005085512789726948, -0.00022749735296447108, 0.0002719555073955267, -0.00888955451826601, -0.00034047415544442606, -0.004370993302619586, 0.0061142456704478786, -0.009257007644923135, 0.01227065977064669, -0.0006450957316566688, 0.005246519116255274, 0.0034925924886066054, -0.0005145652511336958, -0.00041537280612673585, -0.002870972125681347, 0.0005737462613593523, -0.011670459942051037, -0.009559869233145724, 0.01934962463039188, -0.016064100906076052, -0.03051636103444541, -0.03990019077228041, 0.013090559040193583, 0.07493034797984115, 0.020183528188997355, -0.00459519384522424, 0.014933145230685204, -0.012227471686604516, -0.024318096690169502, 0.06970066456534879, -0.017570227182030607, 0.016265677053093, -0.011716430388040286, 0.04541849585018264, 0.042209059884592164, -0.02020047505206491, -0.010972977056118742, 0.0016687372418472677, 0.0027343219909025493, 0.009454176132644885, 0.007278803131675222, 0.009340974022806127, -0.011581958985115468, 0.014240165597291953, 0.003677254370220839, 0.054789903863100675, -0.012054162206528291, 0.08030625906295578, 0.05338622053142154, 0.04791006677274128, 0.03546065652373101, -0.01862871673885503, 0.08584923997323855, 0.061052530148556404, 0.12135870330837832, -0.03654551283514276, -0.07906554599844706, -0.02658686003114636, -0.03813755965982532, 0.018550267904754402, 0.011209409905420048, 0.03227494666098018, 0.050093779874610105, -0.03041400128492952, -0.023549543260957387, -0.007730199934610531, 0.008217373679095398, 0.009694428427594066, -0.0013290908307918277, 0.008221565578694663, -0.00762634673934475, 0.019237967781571424, 0.012164864876493464, 0.050402871209705054, 0.06495559819621458, 0.019889254481175154, 0.05086224615718731, 0.09822830496820438, 0.09680342316083747, 0.07346844183013478, 0.023096511993757448, 0.1498650603399056, 0.034358645885910616, -0.03984590036845314, -0.1104416507718845, -0.1125877903266459, -0.06642792180192454, -0.017660643706076305, -0.04050061798525792, -0.021808939979234866, -0.07248691225775368, -0.03250290615894761, -0.022094045300761644, 0.0013187859361856755, 0.0077431279843559, 0.0017031490730311195, 0.00580009594242685, -0.0004832986817996212, 0.0032116512189596554, -0.0052253997614213465, -0.009927973161311655, 0.05364146255080159, 0.026332365917394022, -0.044509092758167224, 0.01901396891595212, -0.0005077877711078329, -0.014005415357901584, 0.08152707395828121, 0.05876360778817726, 0.18162149251913492, -0.08928439447349468, -0.18338852857809387, -0.10927015748810769, -0.06091636088368372, -0.031155588771802405, -0.009323649843249859, -0.04749557680347851, 0.0063973939382666115, -0.02125339312405998, -0.009500735664333255, 0.018442484310119044, 0.0047744830074589436, 0.006303629200449014, -0.006478843277518774, 0.011757253640064748, 0.0006877699038512148, -0.028993720737323894, -0.02020732187522155, -0.015928337768392625, -0.044922431208725334, -0.101320235685715, 0.04481339801767414, -0.07240250485451474, -0.15207070894143504, -0.04055858533423693, 0.08125215192129129, 0.18263491056456654, 0.07527033477842561, -0.11469380479997172, -0.15947612841186953, -0.15805360848195468, -0.10286429494733111, -0.1286785461607336, -0.06031475653486929, -0.11100897714317591, -0.05070845038467869, -0.017459083326479646, 0.03402714484967663, 0.024085435812350883, -0.020038839206603425, -0.001419292284189707, 0.013396944532610897, 0.011665630837502015, -0.004093159568186875, -0.027024236261421215, -0.01400737768718405, -0.009664251082600786, -0.10015786715496312, -0.039290505595736575, -0.007199824121889881, -0.059284518349315925, 0.03417368573335945, 0.10225787642795477, 0.13799831902725712, 0.1804221090591707, -0.1135652723936601, -0.19344822954949525, -0.1552469530374155, -0.15750284632306924, -0.04494167899105467, -0.12175655234199846, -0.019652515871969076, -0.11424341589837525, -0.053082869426330254, -0.002232225281662263, 0.02011592729616928, 0.00705357105332183, -0.005765392720973482, 0.008900268365302411, -0.0023194108465277624, -0.012463405699094144, -0.005411610975075375, -0.04331350432365403, 0.0015051446743822828, 0.01470355017255798, -0.051903765089177926, 0.06034488033711872, -0.022492264365098432, 0.019837179558106335, 0.1412867585287235, 0.2878173148312817, 0.22110090382307568, 0.02337876561508349, -0.24196452122109105, -0.22814735467778322, -0.14033590694977768, -0.2161968577434844, -0.0797273084577129, -0.16628212005319915, -0.010004468131016759, -0.02514108895971943, -0.06061086130145052, -0.11309462107387454, -0.04829666861346755, -0.002921168803479288, 0.0020162694655611133, -0.006343718282998804, -0.007329913580507166, -0.009843162141169502, -0.0005216474497208815, -0.0012344607781920923, 0.021997036721428498, 0.04723087280185348, 0.10488988578409164, 0.17333043155711328, 0.10578598272150422, 0.08193227263819787, 0.1893431634980871, 0.18889584116953828, 0.15648000083890412, -0.051387430838717905, -0.34816327768234195, -0.16976922315767295, -0.0864146254294617, -0.09339819558529579, -0.009197617532680809, -0.054344863017590325, -0.08961734654086548, -0.10414002080402296, -0.09323080241693522, -0.018648057464150675, -0.038578815210308655, -0.04290893720439912, 0.0018794052776211817, 0.001722612509513889, -0.0024684843261385094, -0.0006505696389403444, 0.007035481897287868, 0.0072970148836976724, 0.039874189880896534, 0.02349415426620934, 0.13716585591703256, 0.08387291987649276, 0.14011287457112992, 0.1907435700781626, 0.19140043931360282, 0.0410332034553244, 0.08599602313240257, -0.1638460253200522, -0.22516563570321962, -0.14369003324399476, -0.04908376197506628, -0.09251971675508326, -0.04530361426883745, 0.011025709233356176, 6.042684471809525e-06, -0.014122444504015386, 0.10414222846311577, 0.15535192934764225, 0.027623962650516996, -0.024535753537386535, -0.004672017108626114, -0.010304221296508154, 0.0003459659707281862, 0.002117286512741503, 0.0033909643591442484, -0.004789960955032839, 0.08876722389836936, 0.0999062593546571, 0.12209041512731598, 0.19102753120603963, 0.06565933417548762, 0.11614572341700849, 0.04200360780773274, 0.06463755424366802, 0.020052456906923272, -0.07210167333925899, -0.21839012975561414, -0.19912934748533934, -0.09559002791703698, 0.04261758827154136, -0.04945267782496266, 0.034593292254582936, 0.003605291480942989, 0.11734976170165033, 0.1874321380842669, 0.21629608705454226, 0.10894437569717179, -0.014840592635846778, 3.325097004214372e-05, -0.009376816495605067, -0.005627484044406516, -0.0022421338844332084, 0.008940035290185383, -0.00896462991183303, 0.1012567284757815, 0.1429660829821713, 0.2482124387837009, 0.16599531298847303, 0.034537422123310915, 0.08622175336577366, -0.005844486890877291, -0.06618066814612257, -0.05785170968703893, -0.16765133833955612, -0.20098079877236336, -0.15962447506736294, -0.06071195093393015, -0.04640412038060558, 0.11364681693152473, 0.130661742814939, 0.1713776938809338, 0.055253516595118846, 0.1466344578592903, 0.16622694132556273, 0.06517311572283761, -0.011591838972529163, 0.002965373260769148, 0.0035288515279557962, -0.007415046911216048, -0.011088168400587498, -0.01255627804847251, -0.007080926756098044, 0.0684629259699517, 0.14311790186034914, 0.11380036572325028, 0.11296021581964165, 0.04369175226807674, 0.019546959539276453, 0.07971755917901492, -0.0343053820296204, 0.03322598577820284, -0.13970051140696607, -0.23057212154115883, -0.2769238381037165, -0.039418549450414786, 0.10153192681498381, 0.20637322795462879, 0.0976884280658508, 0.09696470982935419, 0.011962542429015113, 0.039675925787357895, 0.06395818228599195, 0.03204185909218935, -0.016520010118152337, -0.011951610697896714, 0.004224226538050476, 0.009492034095199761, 0.0017225042858148157, -0.023054616758016417, -0.0027615722203715083, 0.04567423035231444, 0.08401863411075507, 0.07180075730333574, -0.030469867199535965, 0.04213442893262691, -0.031563304871886924, -0.0036036562710201493, 0.03471143410296304, 0.021933909080484128, -0.19042101166086692, -0.3014198582739329, -0.30471867757587284, -0.02940322502188401, 0.18718964518715206, 0.22017122847731777, 0.07530384237501811, 0.09785942825638617, 0.04761934399320612, 0.05852526859286027, 0.019949660555484437, 0.009475486823064205, -0.021884325671313522, -0.021681695959852337, -0.0014492722363746882, 0.006946266963968044, 0.00398188388735371, -0.015781378598295957, -0.006717401884507767, 0.016827016727927045, 0.07628443511019783, 0.04628026906943838, -0.06265663946054681, 0.059051894628525746, -0.017000299637529206, -0.11241449288379592, -0.04234098349429395, -0.03179014620752341, -0.22272823946138792, -0.2846069213581133, -0.07261378916523367, 0.19232115971007227, 0.265472562192613, 0.08109178260202166, 0.1366701337021189, 0.09741404043087895, 0.03248729095956415, 0.019119954165392344, 0.001616385766245379, -0.02799120433899612, 0.019366516082852815, -0.00206290290080433, -0.0016329621899178444, 0.0046066998376202315, -0.004715560425637616, 0.007504685283287187, -0.049012785768953876, -0.032393198494325676, -0.030064749011706096, -0.011511855829191104, -0.10244543990178509, -0.11696325328209711, -0.05154189118254337, -0.14426550252328602, -0.08158147442551626, -0.11458536124508817, -0.3499198610323726, -0.23609066581995375, 0.028037978817594445, 0.42458596936293175, 0.16351181619778518, -0.007184707463740313, 0.11169563050612512, 0.033160393617503794, 0.0003406442904387225, -0.04088941043752501, 0.008247238186551391, -0.008441325731315116, -0.00151253115898114, -0.008886574030977987, -0.0002631200490303977, -0.0014856958410626345, -0.00648274972559049, 0.017359937777018192, -0.05044879799424209, -0.022169516326401933, -0.018288906332846532, -0.045265326026798634, -0.0365156904218801, 0.010394745834430822, -0.1702297426197696, -0.10032344014969873, 0.05645270104049404, -0.099833077295635, -0.31484615863223675, -0.17852536374114975, 0.2381253849498197, 0.30196434794080346, 0.10013726536836226, 0.011293817421003875, 0.08073355819092587, -0.055893173128991946, -0.03181579524582532, -0.030088578006948547, -0.04088432936012901, -0.036485181998454755, -0.03231580693374343, -0.003751575896144163, -0.010787698103924907, 0.004437265982091322, 0.0010081682477870442, 0.02091840659298071, 0.008918136954886186, -0.006556343282229017, 0.1052571863140301, -0.09114807070855875, -0.10488225580523705, 0.015911497818629425, -0.09076374442690853, -0.15521799204407774, -0.07668721093576987, -0.03939805979951763, -0.13430334951497175, 0.0362752391495262, 0.2075143387351511, 0.21009768129398032, 0.09442877334509515, -0.009372154684144804, 0.01485158650372327, -0.041068889021607526, -0.03847584468833646, 0.0038541562443320816, -0.03078886735042041, 0.03325106191257547, -0.01733833703615663, 0.005915628988912829, 0.0002811567529943381, 0.004113415298242829, 0.0016888968285847102, 0.010629232252024936, 0.017679085414042443, 0.020218217379194287, 0.06309991257470704, 0.02594801021644421, -0.08568668622384301, 0.027513778374673517, -0.05950360894388286, -0.09780248549079495, -0.07179641337147072, -0.052220801609645276, -0.01772707220472747, -0.0076267625657130255, 0.07870351441346478, 0.16564444474262438, -0.013281287656149183, 0.03218257472252565, 0.04944843532459931, 0.08183639036116214, 0.010248203537869446, -1.865453880489214e-05, 0.028201560471645258, 0.04580627123924593, 0.006492414576107837, 0.005082926433698396, 0.003475583771263216, 0.004389600361049967, -0.00048433222762040784, 0.00827385973291255, 0.019634925812300988, -0.000669644988944758, -0.021696879773271432, -0.05977398128665347, -0.07194843971337317, -0.034177925879593805, -0.09982386308938893, -0.11482813672679586, -0.059076999274894224, 0.06497569128111397, -0.006337319024837071, 0.05453726090389313, 0.039761339417476, 0.13312556696356087, 0.1718539625859812, 0.18320224925732098, 0.01560268836189559, -0.007416817319886118, -0.07204930207513534, -0.04355274849808938, 0.010305855915956352, 0.004163811726537704, 0.004841779611970482, -0.0009978249142953571, 0.0026648109539631885, -0.004232055781080055, 0.0031830867515844, 0.008763578550631675, -0.0008417794474396938, 0.00228155540781296, 0.0013412028429543546, -0.025760033602167668, -0.09051623771751716, -0.08498644776930483, -0.15320787103935501, -0.1559047927950843, -0.12204459486762569, -0.025787816517836064, 0.03056131862495117, 0.0914097226884401, 0.1088775930980182, 0.11956489753194166, 0.1323459390178762, -0.08129799238233032, -0.05659368659611158, -0.020653424756065627, -0.05193362870309191, -0.009936635083573014, -0.01282305862433395, 0.0004082867921055841, 0.011188899171250918, 0.010842610518838813, 0.002649624742652446, -0.0009466165933296823, -0.002163193920791992, 0.007816043943584686, 0.002770477258134231, -0.018434405186614662, -0.0068461201121255135, -0.016314261760850473, -0.034066808838908204, -0.014804703801027318, 0.1323241527217648, 0.06779032281911111, 0.06023454483188046, -0.0026658113695124746, -0.03178491131198594, -0.012928184717921249, 0.08589309252386088, 0.07789629554812445, 0.18012173633550665, 0.1432646125419036, 0.056790224227604685, 0.06604835727837659, 0.02143126534842853, 0.029478600901896374, -0.0038475679665115462, 0.009499059679068503, 0.008178665557583967, 0.0035157419272780375, 0.005032167386662439, 0.006841665900472947, 0.00466946697700841, -0.00512791090440893, 0.0032932769503324064, -0.014806797846920496, -0.015738156451135812, -0.0206808618570419, -0.03154292270028912, -0.04376230682590302, -0.03825282245728655, -0.0733807246637946, 0.008751616558268992, 0.05782903045173198, 0.00720922458372255, -0.020897432038083124, 0.05144386753811405, 0.08010014919569398, 0.145430213576378, 0.12143325414357625, 0.10904702382491167, 0.059760833904980715, -0.004052062346009447, 0.013177541342740589, 0.008673317154125528, -0.001955696727456282, 0.0068714645538728745, 0.007604712032260614, -0.0063887563769045, -0.0010617707842796374, -0.007409072705218281, 0.0005981366394997719, 0.0016252288442590486, 0.010152617398376963, -0.009749199146433659, -0.006382786271834366, 0.00424995856415399, 0.0018669790530347202, 0.0049090219557375745, -0.01240875675299607, 0.01084773528992407, 0.01766364397316616, 0.0005539048887488739, 0.036572774148825836, 0.059230080504446704, 0.054853787051510665, 0.047716164273271085, 0.02335028860877529, 0.03697395598764416, 0.007044106085594899, -0.004829709361787264, -0.001676570171473966, 0.006967381010030868, 0.004971151617855949, 0.006097484808085189, 0.0017285132219860293, -0.001243106803006039, 0.005868515594738257, 0.007344818593778138, -0.006845552699067309, -0.0012008308890454657, -0.008553911312554988, 0.003574965908466613, 0.00037622545197404884, 0.00897682312627211, 0.0024429375499489085, -0.0010305306525519294, 0.0010861276221259533, 0.009936333046022495, 0.005311962056709244, -0.002162632659426982, 0.004162478521274257, -0.001307606367824779, 0.007460783590209677, 0.0029275346337937335, 0.005373771250915133, 0.01703978586303312, 0.0008754175004887817, 0.002678789230207976, 0.0018404312610743304, 0.000750180946087864, -0.0032731610391710186, -0.0034792201553805815, 0.0017314603784973077, -0.007370893064807311], [0.00208469315826506, 0.0030662845864778947, 0.005755779167932654, -0.008800492982113592, -0.005893773962524059, 0.0030920050170148736, 0.0010757838159407187, -0.014525014900753374, -0.006241902202144076, 0.00015303227154348124, 0.011416300245297089, 0.007517392843178876, -0.011126929335894877, -0.010508789164882907, -0.0014030202253917325, 0.0034018904136404976, 0.007107624629877045, -0.0024116337344922325, -0.004230419343943853, 0.01019219466782651, 0.0015963183030429286, -0.00018650712839089336, 0.009149863380829017, -0.0023330506179471363, 0.0027881531646264325, 0.0029520054591473752, 0.0055093804734609245, -0.004657087284795531, 0.005832594818844526, 0.007921584858464685, -0.0002589413286567885, -0.004544608410982257, 0.002862547157107294, -0.0010849537906116125, 0.005413125051814377, -0.001029520426375837, 0.004214121914242253, 0.00019324185204943405, 0.0024763827308069463, 0.007973523209607867, 0.008480234279611441, 0.010705228522180024, 0.021387059480010028, 0.0193000888774699, -0.007109373047045072, 0.003457536729837461, 0.0009764491137024474, 0.00718472037283297, 0.004963856027599931, 0.017068888760987246, -0.004577584256713396, -0.0010307830225711344, 0.00322729805127241, 0.002342114050561565, -0.00536151569763037, -0.01205260218029066, -0.005330342542612282, 0.0016025008592696417, 0.002395604198006168, 0.005664730029386591, -0.004324163544834545, 0.00933561528151507, -0.008806784760083694, 0.006939720801559727, 0.022264433816735093, 0.03094302379082378, 0.0445249348804242, 0.03253152133974198, 0.055440188868436546, 0.07605603247689861, 0.019838970125379565, -0.0347687417901263, -0.008878036292937817, 0.021632664605947795, 0.05735412867678287, 0.03574985216876379, 0.008919257655190051, 0.02275876115242057, 0.009769063363467263, 0.003382298415437863, -0.00586371668440413, -0.004414956976747625, 0.0026732385213140038, 0.014936210466979336, 0.008938024105434924, 0.004999813775316427, 0.004860376835141678, 0.006459044570399283, 0.0034906638121726553, -0.007362132909841083, 0.010096092819229902, 0.0016854259438940096, 0.024762514067894523, 0.04788098247052064, 0.005901859207968765, -0.02887634769887715, -0.025471210843190012, 0.011123070444263038, 0.01911917458926883, -0.0059549044298517415, 0.05294466699429454, 0.07460532907806433, 0.0586484560017612, 0.06284234498982129, 0.08238846593682535, 0.04076365528703625, 0.036566957633502484, 0.015342636609734265, 0.0052329487844634875, 0.004497395191367962, -0.004421670618932672, -0.0038072756990152282, -0.004324509941690647, -0.007115988860333065, -0.005655061082765076, 0.005422656829163629, -0.005488740602250588, -0.03475813944598565, -0.05074840319006691, -0.019637940782780788, -0.034395992399464295, 0.0131436789750677, 0.023407158510392927, -0.05648867411764933, -0.013045122715728628, -0.0024311863419464843, -0.03736557800789017, 0.0001140517236098626, 0.05778845231896982, 0.09842069407933196, 0.09153056342679446, 0.07804652644880476, 0.09922876281061063, 0.05612520230408465, 0.050014500203001314, 0.013054261774545719, -0.01386667640945514, -0.021996788537367532, -0.004898635601455689, 0.006701758090904575, 0.002407532557917145, -0.005672231380468815, 0.0067500159269756, 0.010436974208182116, -0.01030999079208714, -0.06781902939716028, -0.0441689783440418, -0.035637920460764076, -0.018081643628820046, -0.000692455776649259, -0.009684518713217545, -0.04184831696777515, 0.0226948860920214, 0.06594551202110895, 0.021583546638534117, 0.011833342279032693, 0.04335270052742673, 0.08042736591695859, 0.06392262752051171, 0.10925704043947909, 0.06817828058296078, -0.011775776220768721, -0.04001970280613536, -0.020884668664450313, -0.04752015060806263, -0.023180988266922484, -0.008663827467034983, -0.003387653957797765, 0.01190747278037558, 0.005724544921430683, -8.75565776738032e-05, -0.0003935858610471538, 0.0008091581240997122, -0.0033740950077847656, 0.008873213186508825, 0.0025785732589885214, -0.009413513414387077, -0.07259072755050203, -0.11373912743513163, -0.07390249949039883, -0.018301908500692028, -0.056960482630377736, 0.025366773154390464, 0.03509447510830415, 0.036311505946476086, -0.051815102478780725, -0.060380601455864144, -0.01810901530314893, -0.07674633579794524, -0.11737745094135836, -0.11799096769969886, -0.10204290095697312, -0.06297520562218595, -0.0548903736580477, -0.014994576076809154, -0.005267387911294923, 0.00187772424666292, 0.0026952068327559015, 0.00017236718233036856, 0.026293783100753854, -0.0323099663189393, -0.029500563553956895, -0.02867390560157646, 0.04519908018430576, 0.0831309226345982, 0.015384242160195948, -0.004065075690182544, 0.01244236057342489, 0.013334087730587998, -0.03151972875084395, -0.021672050930499703, -0.09451682902697035, -0.07606675901124266, -0.1093648087960378, -0.12582184384257364, -0.12609645308891884, -0.1456531752914493, -0.1557851617359474, -0.19092535867647037, -0.11458018090163119, -0.07535333509741513, -0.05779039005606542, -0.013213322477294063, -0.00533827285567768, -0.0029441778294933656, 0.00730632817908105, 0.00020786234532157972, -0.015868293904109446, -0.07805293664805261, -0.05684444763942214, -0.08481605392617315, -0.05063592014011368, 0.012275019362610443, -0.09173634952659383, -0.042674332609960036, 0.03762683640051905, 0.007892365525037073, -0.009050227876507179, -0.09200025840043055, -0.14742966078493971, -0.135113614919418, -0.22497983982442807, -0.18709982001366646, -0.2121266774101221, -0.15358196159501575, -0.16711099003469965, -0.17049783055020765, -0.10398747246066692, -0.06499099500700843, -0.04555226782409759, 0.016115371003470543, 0.0016662666059072918, -0.00661907009132458, -0.0019783453825938896, -0.004371047751546795, -0.026537347261581832, -0.050497839126469476, -0.052203407688971686, -0.05638137729088643, -0.046962367368241845, 0.007291056123190279, 0.05271807778890644, 0.01655537689790765, 0.05343840272152658, 0.0828281030089641, 0.01988403231962418, -0.06744397184070393, -0.13412037996302031, -0.2200471957938743, -0.2244693246695311, -0.1840646806830692, -0.14125120073979802, -0.14354121904106149, -0.1512123861650194, -0.11442848366443334, -0.07925717983731428, -0.015683501065835437, -0.02136606156525163, -0.00540348223856809, -0.008249182686603719, 0.00893903138346814, 0.012724031467608457, -0.01781790108194129, -0.010388660039904392, 0.006755520816877824, -0.006267978759905889, -0.016306428906695314, 0.024906809892871553, 0.0860731391020439, 0.07480524293302483, 0.051217391387143735, 0.06907531083402835, 0.08175468777640765, 0.05298026818675602, 0.03853876823098031, 0.019037623861180686, 0.019865321660221584, -0.021657486412546893, 0.0341710186652433, 0.0010384982828151102, -0.08389405719553258, -0.10372595678128603, -0.05715216974290437, -0.03631841916978221, 0.022694045908413285, -0.008890528962325776, 0.0032757969977417725, 0.004954655759563378, 0.0061598592435244, -0.0027135152560373724, 0.01728928021096514, -0.02028248149972602, -0.006664977125310834, -0.00634263692115572, 0.03935251547877741, 0.07389269993738774, 0.01585146719096767, 0.003170967746411619, 0.009863317446830396, -0.028624850429647884, -0.0024430441189293903, 0.04757764067128838, -0.06252941541862109, -0.030543371023363623, 0.07332064720514675, 0.08582887694899406, 0.18681532205252524, 0.1057362422513476, -0.033200116611367944, 0.013362740245937543, 0.06188746505541658, 0.0796971463063316, 0.06461026685808723, -0.0008594206229636721, -0.005603790169639392, 0.004447268971802384, 0.010575325805620017, -0.0019425038435788864, 0.004514796346000201, -0.020092700951554722, 0.017184649152516804, 0.027840751107480917, 0.07705389001590943, 0.035509579016100405, -0.06993598164018967, -0.0002681495251658102, -0.039582393255458995, -0.01569378910944132, 0.0798318984786934, -0.05048950267491025, -0.1351847489664547, -0.014423915780182673, 0.05009447095029458, 0.10699185817677227, 0.09217392106814089, 0.033645376666665956, 0.02196117454697697, 0.026645093271199457, 0.06090149768243513, 0.10399650020243065, 0.03997716913148184, -0.007486484221714624, 0.009601185525536272, -0.0014620756267971612, 0.0025374802773262283, 0.012128957197260808, 0.01316602609013572, -0.013732213737229585, 0.0145322806584811, 0.026524550864661503, 0.06911431463386972, -0.008101580050584275, -0.06819826761399439, -0.0533076624647105, -0.027651468148397598, 0.08237065500674215, 0.038841388590816636, -0.10820639454841446, -0.1703122931084988, 0.015855185703563934, 0.06490488394841588, -0.019286581358265147, 0.011531060921450257, -0.04233232087741069, -0.01932701532944162, -0.02663893185137642, 0.06826783969965759, 0.13406160214236304, 0.06357968016385038, -0.008040007959694766, -0.0004938640958823685, 0.007716282077979259, -0.004277845479296031, 0.010156090984165282, 0.004000674609294592, -0.02488814536076593, -0.018831655341356487, 0.014897658344858103, 0.0022057610181639513, -0.04115273352264932, -0.037874642504205934, -0.013270225899323633, 0.10013911254486395, 0.1283691451876133, -0.023695804794989724, -0.13056293336254476, -0.11615078759189515, 0.06257791457594693, 0.1264938759109655, 0.044515127236875174, 0.035360922595920094, -0.045058146617795634, 0.038429346172839655, 0.05263809321015694, 0.0510058098412147, 0.0636964131819831, 0.04588698050527464, 0.01023464256676717, -0.009702861583614792, 0.00108193869279996, 0.0038349086806424826, 0.00023678912504972462, 0.013420093219460144, -0.04307850106370146, -0.030458018427133346, -0.016880936271331873, 0.013546745396491257, 0.07067648728519603, -0.01489137167514904, 0.004694531782737038, 0.0805318454802885, 0.0020130908556564363, 0.05297121252713558, -0.06683217882723388, 0.016847395682030177, -0.01926177611159493, 0.0339415599289336, 0.06881040164005238, 0.09916469818733355, 0.01569058148167498, 0.034275689627914004, 0.04622075233373383, 0.018912322182967872, 0.03530796185858056, 0.052779388957408455, 0.01304466106092239, -0.046273730376021935, 0.003912466220509226, -0.00633098072574225, 0.003338983269037845, -0.0005827815870856048, -0.027187899100149848, -0.025158849036477592, -0.011305509452912546, -0.02881763560968429, -0.04766953119620439, -0.008889346094234321, -0.050391542954760594, 0.010869326868762458, 0.0361699926895497, -0.07290181883870905, -0.09762309006538644, -0.04427274428739964, 0.009183902106488681, -0.02943993654897727, 0.026971452542333584, 0.0467387908329273, 0.055526896347693394, 0.07682462953854931, -0.03489101162491958, 0.03142689682732786, 0.05177344573683733, 0.005701917248170838, -0.03220835455152982, -0.04374381560378344, 0.0063621282209250524, 0.004455238272310354, 0.007717610155355764, -0.0018376626449955063, -0.004773735271946069, -0.036054300187007476, 0.03667795335738108, -0.008975165832485399, 0.01750500269970066, 0.01962229088897031, 0.0010488121093945447, 0.04432600705288868, 0.12393995817185084, 0.011320751538795784, -0.009491684708446808, -0.0302509490617146, -0.0768660253299448, -0.05241642023458105, -0.010343600419398637, 0.0325280666302803, 0.009927082998724211, 0.07772140737179543, 0.02614122965014227, 0.015864960860374477, 0.011719231861963367, 0.0195594188108351, -0.059952092625491483, -0.027715880987616074, -0.00044839788612036053, 0.002189653875024117, -0.01625909081101801, -0.006358201637309201, 0.022527743373825074, -0.012990006105674301, 0.0416805282297799, 0.007706637195411971, 0.023972464944276056, 0.07968129452554669, 0.11764256902631166, 0.14798387153134274, 0.12410074162481714, 0.04273694066340829, -0.05128645819071312, -0.0671289865822357, -0.05167491036001781, -0.04314441949448354, -0.004883683027659749, 0.0650851088019559, -0.026517207738699155, 0.019265678637080612, 0.04291707552510171, 0.05124001623915245, 0.010541727358730333, 0.0010490136552943415, -0.08321184246700156, -0.019136074954280744, -0.011329788565865192, 0.006770841653918483, 0.001899148898535195, 0.009021970359217191, 0.02291190809898198, 0.007123532381667961, -0.023062140135385847, -0.05095677331144233, -0.12498348894784161, -0.01232449929894209, -0.01343656920109445, 0.0407450602011684, 0.12932072896763266, 0.06500999977641315, 0.004050700407955474, -0.026445903365440136, -0.04823619443866242, -0.023768953395353242, -0.025605747523689097, -0.0024564014057761917, -0.050008770784601246, -0.04983255268025823, -0.01394274183710033, -0.02202557113191821, -0.03782112930167494, -0.022206594024582686, -0.07843184263742609, -0.02684256910705107, 0.0032253405564099938, 0.003311418841378683, 0.007107655067047941, 0.006190194673504021, 0.012130868815112576, -0.01247148013637539, -0.031232764124867224, -0.10559293224310615, -0.1467590383354913, -0.07135094202164628, -0.02712182573184706, 0.06489702190348584, 0.04677024242499415, -0.02999405864075418, 0.04148845354381435, 0.04012147565747869, 0.08552585042973836, 0.032580722207040516, 0.04200558128751628, 0.012089900064125851, -0.023986927183805296, 0.009125514147864078, -0.017497226191124086, -0.012118890141562592, -0.005332655294399221, -0.0024525807071678757, -0.011969420193271511, -0.006018078698305441, 9.154158024406785e-05, -0.0006741371218102443, 0.005714207018877403, -0.0021368806942489954, -0.011064823504511795, -0.046346712732831925, -0.05043994105781669, -0.07558879112181932, -0.04503262322070255, -0.02549169472516638, 0.011843983142094967, 0.037869874481719475, 0.080945174331516, -0.05198201376156476, -0.03122823179684313, 0.06581038906488108, 0.005938010930596278, 0.0006538758107662395, 0.009804531418204912, 0.011317643478623827, 0.012232557241181856, 0.04677789637612354, 0.04285767764581549, 0.0285649831108453, -0.008598659918726288, -0.026042407337231847, -0.02051650350649649, 0.008179562811394581, 0.003928896274158198, 0.005005353753379206, 0.001959150544943126, 0.0034522717642934257, 0.005114122624373088, -0.054841480378590386, -0.07346516475220359, -0.09331871992310473, -0.06258839100976406, -0.06079559753980386, -0.012330105717194355, 0.029760672077836933, -0.001932423155168826, 0.03101253578086639, 0.04925126076703981, 0.02699170114021139, -0.03756283746176351, -0.0032108312620684515, -0.04034518556742563, -0.05055591394862502, -0.07564572714058346, -0.04163246547789072, 0.04349703457245263, 0.05079329937665512, 0.01376040183983243, -0.01614667965561247, -0.006388642748473606, 0.004947598802238224, 0.0060250235335019275, -0.007304059181203908, -0.008931710948351487, 0.0032737141473994876, 0.004315539583501849, -0.022431563764643295, -0.01827304121750205, -0.05360562131030842, -0.030451532016755385, 0.029852245092948444, -0.02352344024797121, -0.059575568645905845, 0.0038440029133013096, 0.002521301467391227, 0.041756879539164744, -0.009358005654053512, -0.04326402252076898, -0.036180492345085045, -0.04277223102857703, -0.08736970790149283, -0.08983951647107473, -0.02452624218806604, 0.004383384848365748, 0.01358898594087822, -0.005981932829981503, -0.008195513229455423, -0.004017806925357768, -0.0026181366124106917, -0.00015413489375938754, 0.005814842124900437, 0.002099870399549063, 0.003415718401258817, 0.0012705053964638649, -0.0025991298578480746, -0.0015061092580559918, 0.003989302770375349, 0.006611470184503902, -0.008139043967378932, -0.004206035073073199, -0.024544881001348474, -0.039391460778713895, 0.01699303395431497, -0.009799618051464488, -0.0368066069661079, -0.053291037158222136, -0.1428258374011411, -0.11572520003219634, -0.08967282378416415, -0.06636515594291392, -0.04002953812157798, -0.024134437624191277, 0.015085467284320668, -0.005111249772652939, -0.00928222022286268, 0.013754742537018288, 0.005907880284134192, 0.00018281119495939553, 0.008590970018097147, -0.008867707899502456, -0.007099610725152206, 0.00784364802552537, 0.0006031458587895793, -0.004989623212231476, -0.007806291044780084, -0.019605192904764153, -0.02024929401517452, -0.023656560464887625, -0.03093385776492632, -0.0511174038908807, -0.07347542974166646, -0.0955780380194643, -0.10925282355791947, -0.051622388539989766, -0.06057711070005842, -0.061062605585601386, -0.01722110953101386, -0.013533901960978685, -0.007200029232146702, 0.0022596051988739616, 0.007471432854244891, 0.009712315630444286, 0.008914326841382162, 0.008291056780196844, 0.013036118088947942, 0.0054346727364940695, -0.0052723568899633606, 0.009437735542078302, -0.011899881590879713, 0.007519098487657953, 0.0072888637170323775, -0.0062084894069986156, -0.013507251038429388, 9.221249387485777e-06, -0.011718338080339325, -0.010493049294371594, -0.018287580187548644, -0.005033366425189561, -0.014788708940751641, -0.02002468013180303, -0.013766723955659251, -0.011117104556211026, 0.0017034960650479831, -0.014210452159447592, -0.003710489485617675, -0.002309972176001889, -0.0011377432374325986, -0.004798010358009137, -0.0014293105797500115, -0.005978524320351107, 0.014539659241573901, -0.0010652252109392638, -0.010508705146460308, -0.004320019489943803, -0.015201070828274493, -0.006894341362716471, 0.0012388073846057513, 0.012967228784205621, -0.004838779206738876, 0.0052363704136824205, -0.00739898692643751, 0.000976684715847657, 0.0013974481223944563, -0.010339459243736993, -0.003983179179832393, 0.00043608951770006345, -0.0052219303957809085, -0.00032753208367149286, -0.0021531301321627244, -0.0016652239568494612, -0.00426604645572731, -0.008642253319474054, 0.007891194914233313, -0.003012260041818414, 0.00043786060697893753, -0.003643924819717666, 0.00028440971002337924, 0.0002193259374718172, 0.002371370480184905, -0.006148455739881695, 0.007783039758543014, -0.006413996986740709], [-0.014855365144324164, -0.005320780998669845, -0.004783395504999065, -0.0049440663194326466, -0.004504503545898967, -0.003149213968143753, -0.005351410765539731, 0.003000774560099397, -0.00015155913085376877, 0.0016754351494296402, 0.0032157283739690247, 0.005124446838285189, -0.014172061153003396, -0.004140558736837786, 0.00027057423362567885, 0.0031344603373441512, 0.006826964966907097, 0.010491235847199229, -0.009317317186990946, -0.00463113274413477, -0.009544831977468663, -0.005094709025953494, -0.007147582803299704, -0.003752420772523127, 0.008505641713776917, 0.0027142482451430923, 0.0068370533119977124, 0.0015916754238913952, -0.007441368551957207, 0.0025924116861601385, -0.008425965999045567, -0.0011549983394227165, -0.004018213616228988, -0.00043085306308915773, 0.014439546472131453, -0.006057870828432628, 0.0045768667637674735, 0.013703703352522724, -0.008811489572247625, -0.002549155298832681, 0.001437428840047349, 0.0065763623389061875, 0.0046935406640792685, 0.003060460725152794, 0.0006586775584276405, 0.009389277733583322, 0.008042685447640356, 0.0020776687193441922, 0.009202347861382066, -2.206226408311433e-05, -0.0016368701501571872, 0.010856810521833881, 6.910017385093788e-05, -0.007239074403432702, 0.007487720297887824, -0.0003274866269095025, -0.0006273914295450163, -0.001622474003951704, -0.01504799675242782, 0.0006657440999275078, -0.0006720473272876711, 0.0011418820485957042, 0.010366933145532364, -0.007528893512899653, 0.013115923196899776, 0.009818072878686485, 0.03722971899196143, 0.027383284123096714, 0.031457689782803014, 0.042402877059671724, 0.0444338119849234, 0.019154040502298318, 0.03285745383779716, 0.034748422860140106, 0.03373833904022032, 0.0162226635772189, -0.0015575517752850158, 0.005277368924789837, 0.0010597284550645943, 0.003971094605528097, 0.0019024914925616244, -0.005145661300259172, 0.002021202557426468, -0.001311689553898375, 0.0009034419153400103, 0.008595355339903766, -0.008810080743082463, 0.008095746345045583, 0.013735684883276212, 0.0035046126598023025, 0.01560676395032154, 0.013097037539894035, 0.027108178034065695, 0.04461248268702496, 0.05706942722466861, 0.05684525003999131, 0.04877248536697311, 0.039863687485093655, 0.021718040755989838, 0.06487892979000504, 0.03166485748589131, -0.01162185937825439, -0.04885265177695435, -0.05189484220860535, -0.06553397314321567, -0.0364979471166424, 0.004414499076176763, 0.0075028929649689465, 0.023276049743879073, 0.01450253994484418, 0.0019180639919060486, 0.006488265445631872, -0.004053537749787101, 0.007130925172258878, 0.004996216276437468, 0.004210241806156148, -0.0008932052187492883, 0.00861468031588466, -0.0012086562959364934, 0.023741134867235333, 0.026909477919600133, 0.08013497291133966, 0.09766895344255645, 0.043977041594561186, 0.07395896998818198, 0.09343366935603897, 0.058777930746858456, -0.027552533257210042, -0.08786126831118658, -0.025592689472862393, -0.09349072476891852, -0.11683662323864365, -0.09714057660155775, -0.05248588663738443, -0.03021509423559756, 0.007491659727206186, 0.008688725782942488, -0.009671636469061624, -0.02163122097971459, -0.0010644442078379221, 0.0003916839594474001, -0.00972330684778312, 0.0016467996749061917, -0.001765832487795798, 0.003396423482972017, 0.02276722028017522, 0.02176961262437531, 0.01819657296273005, 0.053502590758665786, 0.04900815510138832, 0.04181960808164829, 0.08994181888976942, 0.07979943103481227, 0.09326003963403937, 0.09003365252137864, 0.060454364047924425, 0.04210408776583207, 0.013864798955673828, -0.02883981200398803, -0.07498127200327744, -0.08092660961463706, -0.06445183860452854, -0.03651409477790298, 0.037504613552924934, 0.023076020233609485, -0.025311378483122635, -0.02061544387205234, 0.0006906978133991891, 0.00535072259796625, 0.00026166858711357933, 0.006276827181972244, -0.0032453610130087768, 0.00394056294206643, 0.021213596013583712, 0.028647337319770535, 0.026531850480860663, 0.02294506635712105, -0.007810605269636362, -0.03303432217492017, 0.04058021561443468, 0.0822400957321446, 0.033523291905520246, 0.10034844125568612, 0.015927222405618082, 0.09366117976876288, 0.04800874615214847, 0.02349819109971765, -0.007556612413093094, -0.11912058850191298, -0.135233474203438, -0.1271722663104288, -0.08479677719408775, -0.03861886322009379, -0.03674911884966581, -0.000982829876549764, -0.00428172230982185, -0.0026122025882573123, 0.005185968171035253, 0.000992991110163867, -0.01372678286463313, 0.02900011934368569, 0.039296474199518504, 0.07529034476453644, 0.05621574466667995, 0.02393541828078136, 0.05190469123575954, 0.05892862272825544, 0.01405756668622344, 0.06954279530050939, 0.0967698606210233, 0.05617435320365484, -0.020837536818018625, 0.11960261097542613, 0.14201839622656587, 0.10404786317875964, -0.01705426947490172, -0.17318411944185969, -0.12728969660032421, -0.10926105158998684, -0.08454368540937776, -0.0943688217053811, -0.039932702156096, -0.01446333233706195, 0.00175421784023114, 0.006162072079759572, 0.011153920011963957, 0.0022904468795029286, -0.003834456216685991, 0.00458525180583126, 0.04840478465340846, 0.09138408469620118, 0.047349950509684005, 0.07368760283968424, 0.042283092844311566, 0.11760383146414823, 0.08731084416535231, 0.012347671038374308, 0.00042703613089817164, -0.02443640772842122, -0.051799326934185, 0.04583161502715803, 0.09943382193723221, 0.027998741414647157, -0.05971094402291509, -0.11327385755058626, -0.150247613798785, -0.11470815317524773, 0.004454971614755684, -0.020358880896934172, -0.023583779205734085, 0.0014898603348726066, 0.003092708504676284, -0.006514670120169551, -0.0003890211911406036, 0.0022120635546938046, -0.018460291298336748, 0.04262670755832007, 0.03538879694619868, 0.06878441376899785, 0.045693179822622686, 0.017641894038892037, -0.00019560527092253772, 0.013119695111844146, -0.1120332070256097, -0.036023507519932316, -0.03791873948961058, 0.04868826279839226, 0.1344677078490826, 0.18781467863079812, 0.09446787279412379, 0.024356147662199314, -0.042936859008432776, -0.14181493528384304, -0.12942054672376943, -0.09444491688593927, -0.03172857816453792, 0.06533897211119713, -0.007015885826819565, -0.007640427174611117, 0.0066643156341666164, 0.008254049944248812, -0.005659199666589534, 0.005066608445653035, -0.008505765703272453, 0.020215470773945907, 0.021328473527855354, 0.04649413005159451, -0.03770378519421804, -0.0833206224093594, -0.04727328262791649, -0.0919250758971392, -0.07635058225148253, -0.04223649904058668, 0.03119420093394612, 0.20815884662346693, 0.2728887336410514, 0.16785546884873595, 0.04023479786210461, -0.07178660069522688, -0.020212225454168602, -0.10943532837848238, -0.0371468151298107, -0.11512721865821517, -0.042218144742669335, 0.04963634883238415, 0.03510737439267164, 0.007643890086029258, 0.006128868301344353, -0.013775403245697536, -0.011409826818777715, 0.0055642174903710205, 0.004978294528134819, -0.001274643329500973, -0.049663968500717054, -0.03282939539843721, -0.09712296911253174, -0.1273764300604856, -0.03191862595027386, -0.0483948902385949, 0.01901519434123263, 0.1334917135589595, 0.2630578898408147, 0.15512508743883072, 0.06412081778685125, 0.04924079832164112, -0.11412643659561605, -0.05491344984577087, -0.039288677278404904, -0.044466637059386555, -0.04411248070939941, -0.09600384110369961, -0.03699944224941171, -0.004326894190388325, 0.0020178515163901778, -0.010019643167979441, -0.008662832399403214, 0.0050673146862528756, 0.007828936753936673, 0.007284123925451624, -0.014197211150766161, -0.017908791720755952, -0.07651354664687124, -0.041530489577634, -0.02509952606427771, 0.017710047904182846, 0.08398861553051613, 0.031339842600866426, 0.09508530275181008, 0.08383991420127736, 0.04480157998090098, 0.0021648430948619348, -0.055423774750573175, -0.014941298954948792, -0.05788232975086291, -0.03703383635787972, -0.008215086211597257, -0.05794290081565384, -0.07948121250298326, -0.0883833851147289, -0.04001842112599736, -0.008716382693661073, 0.00034212759715331677, -0.00801526448334196, 0.0009501733110661261, -0.011462340097398422, -0.0026151354554171703, -0.004325050814294548, -0.015342663752513447, -0.031321297794110706, -0.012163642946406613, 0.015738408372760394, 0.07685558830561409, 0.03870856474867595, 0.11032354961064758, 0.08090430603607382, 0.08286302394911195, 0.015571184667871583, -0.06908867697664098, -0.03761595578791242, -0.024447920142520653, 0.014012570917001303, -0.04404212640527553, -0.07189752758580008, -0.12749452632619038, -0.08932503263804621, -0.017798571334999323, 0.024144581705289533, 0.04920265486690011, 0.04311640915125899, -0.012862273666467559, -0.015523613445824442, -0.006026350421109962, 0.0006075292544575081, -0.0019653263725721137, 0.0008926836062784236, -0.010227700007372584, -0.013955107765279159, -0.016169237646150147, 0.04312919436629495, 0.05363071781070545, 0.0868683079052398, 0.06917200987767878, 0.04957221335097982, 0.015057545363856964, -0.031607784571624956, -0.10028497689394565, -0.005542205287136646, 0.050852589041591234, 0.021350923811099147, -0.11428931766407258, -0.020145087146717665, -0.03016143004840359, -0.017692326596223933, -0.011299816702350082, -0.019813398104717262, 0.03605477003693225, 0.01795836653537916, 0.03393094626054192, 0.0020609396373828083, -0.0012650346127755215, 0.0018886869529520036, -0.0033209335839484615, -0.02079335044429892, -0.034740807471683684, -0.07124772453600445, 0.017839468108472225, 0.0701741135757193, 0.031196661784521372, 0.03370023377063188, 0.020523655027523104, 0.07075328370280885, 0.023177509462239655, -0.026104620260329395, -0.06336344501398603, 0.035601497769952646, 0.02482064901125508, -0.08182784722796786, 0.027603583747491688, 0.00968563955368792, 0.021657854847744427, 0.023373567301762484, 0.06359333766678903, -0.005127347435504179, 0.010666778974317464, 0.01378001693389741, 0.056306454459205096, 0.01908775633859667, 0.011762462166648046, -0.0007825448319046271, -0.015286660190183014, -0.019247452657894817, -0.06318310029346377, -0.07381128726471427, -0.015651792210641873, 0.06263482020727869, 0.011018480943933305, -0.019499443868202664, -0.08925648515553297, -0.00536403960261041, -0.14686752414363696, -0.1512732277694085, -0.16073431300749522, -0.040175030463721825, 0.010998854996113475, 0.07691566606083078, 0.001520315549166944, 0.06718139821542148, 0.04668386059901282, 0.0039041251295413915, 0.11305552932750064, 0.06937688108816814, -0.005632434176255226, -0.009801663955112321, 0.02701018092379483, 0.00472845060844904, -0.00041806799643381496, 0.003074943324597196, -0.00467134157057832, -0.025402358883574637, -0.06682260924481019, -0.08446793056264938, -0.04532728702117173, 0.008878909827198765, -0.008485938759279284, 0.04810193976316992, 0.01713666913255636, -0.058647695007749044, -0.1826779265148576, -0.20403375959290698, -0.2051584931412586, -0.12531311470134165, 0.07291390904452592, 0.10635721887914582, 0.027036806594026356, 0.10404759357522332, 0.029377158238960106, 0.04488103662771231, 0.04219528756093123, 0.05600448359636538, -0.020112913937049705, 0.00015347925400727389, 0.011056574320669782, -0.001713843523178057, 0.006695916348892238, 0.0018070975091540853, 0.0027328357094965703, -0.011436661933568144, -0.08346197946390402, -0.04227241005524197, -0.004138464016188411, 0.014044941453279239, 0.025598799205203394, 0.015175703453015258, 0.011034576491373996, -0.048265206513381294, -0.11689658711742013, -0.12954187148411855, -0.1255114939706158, -0.06571982557157614, -0.05238784383715539, 0.10184118380872419, 0.14469795855403944, 0.08308540458528965, 0.08649420566314255, 0.08942018021414769, 0.04931205097739977, 0.05527177910793375, 0.05857890068141767, 0.031564348136757084, 0.01737549213287057, -0.005786678806949641, 0.008909004041888966, -0.01563766682811061, -0.007766210762450643, -0.010334916571401254, -0.003339146844022844, -0.0127728448376639, -0.0803180587168362, -0.06147510337461999, -0.04074417831436833, -0.0514168303504147, 0.02772792718435251, 0.06848629355500216, 0.10201147382544651, 0.06342703534098965, -0.002633293044378936, -0.06052283547945754, -0.13186018546967693, -0.003622858198381767, 0.02399417122562155, 0.05048685506105914, 0.03991932135693606, 0.11543329482493545, 0.0935691248392037, 0.11052234556799805, 0.06969245013316795, 0.030470559604206422, 0.0139770634062995, 0.005323045667033221, 0.006208132748493962, 0.002074408636879963, -0.01468992823711297, 0.034877723143014856, -0.027811522732116283, -0.0912648599443825, -0.08955042330259856, -0.07412852470201926, -0.04337304104263067, 0.06521254469569726, 0.0176794932793884, 0.005453423871534455, 0.07097249573722689, 0.04811859905229706, 0.003353660014581741, -0.006285544698625273, -0.04229386969165312, -0.0809843766393895, 0.031058157859019827, -0.029448879804095968, 0.01238060039397318, 0.08082514592914816, 0.08222760713546073, 0.06171761151666143, 0.024920076161902786, 0.010954342756285214, 0.013935248837864948, -0.0022295545559199185, 0.010511777419929744, 0.005752964106875252, 0.002355742780146326, 0.027008346923035567, -0.010033963055811739, -0.0628769732927409, -0.06112067652251994, -0.033806974130432904, -0.07066246085931153, -0.055859873719785236, -0.03387283977702598, -0.029347930546058193, 0.05569747988959985, 0.07601106836674985, 0.020696698376369796, -0.010408145023531733, -0.05792832935160305, 0.005417625910736049, 0.03572154038004547, 0.05999326678114438, 0.05013138219361307, 0.0696794594207779, 0.0760112334576372, 0.039673504225740036, 0.012572054256691818, 0.008006131474447505, 0.0042227477471629225, -0.005117895412464581, 0.0011054163106109613, 0.002013563691142796, -0.0011981610399022784, 0.0070526899433496675, 0.010115798233067177, -0.026341324988332627, -0.09434475035613604, -0.019354101265376098, 0.02310587831106324, 0.03508205302860892, 0.042408559780791256, -0.0007747378689472971, -0.010471856246031678, -0.006946567596151914, -0.04938552027956695, -0.031255639623022434, -0.05957641660208784, 0.02807551089311125, 0.04347754550888672, 0.07889750530407241, 0.03820216210329081, 0.07456278471773185, 0.07329567112304418, 0.04120944256434122, 0.00769662881243499, 0.0018433453478324294, -0.012507263132105569, 0.011663700941442078, -0.0020605692061596115, -0.0021896282823004112, 0.003979812319366203, 0.0005117404108506484, -0.032951752229282795, 0.0032235313288697083, 0.012559200915603546, 0.00046116228143524353, 0.05136699224635695, 0.09292001148551896, 0.04717750627565378, -0.0011127756672087612, -0.040389984757162774, -0.04680107558082859, -0.027028077919681273, -0.05333267280598712, 0.012961037902297289, -0.013986185151162065, -0.021128842204228126, 0.040634347968928536, 0.081621817025033, 0.08050262597271551, 0.054274619441696384, 0.027559995750763063, -0.004664024520080529, 0.0066270366041369004, 0.003980286933788108, -0.0061773016443701385, -0.003900525738177439, -0.001622983903277572, -0.002786705663987509, 0.00295408895361531, -0.0364873451570523, -0.011632137743445773, 0.03853759860072984, 0.011377515310270031, 0.05336803792577448, 0.026525778342695042, 0.040689230267428864, 0.0534438974419365, 0.051884836134328205, 0.08351854199208496, 0.10233056392044078, 0.05517705022602911, -0.012700172160104304, -0.08822069003800147, -0.10354603745317324, -0.04652491938165048, -0.004829510762713149, 0.046145653159770816, 0.029666785063819406, 0.009603264355286223, 0.012154928877755364, 0.004313404860354671, 0.00782521989726946, 0.0001855920075864921, -0.003351846724289256, -0.012128242476019806, 0.0019740997756804443, 0.007932140957963796, 0.009727670694453351, 0.016334363777894833, 0.029596384658369265, -0.0011460222604899064, -0.008858788306177551, -0.027152178062374025, -0.04101771964059267, -0.04891376417374473, 0.019905177433722502, -0.02450996520539488, -0.05189875170831328, -0.042258651534229315, -0.04274049952301085, -0.046534620653144024, -0.009551534417245431, -0.015178762593410845, -0.0009964951721126228, 0.045700783123613656, 0.02912665901447642, 0.003210508114188052, -0.010360487313445426, 0.007532844794880641, 0.0005783792435901157, 0.006708934860544935, -0.0013403298700557305, 0.003011406796472525, -0.009290608364958462, -0.00793564816056847, -0.0010889730554914765, 0.004319198224191892, 0.008880524130419284, 0.017726069674172916, 0.023545506428630094, 0.023862582302630636, 0.024353599606295778, 0.028646540870520276, 0.029863732043169923, 0.033330932125141904, 0.03343615113859364, 0.017798073089169683, 0.0072883077223733946, 0.0023650435440509534, -0.002522675108922091, 0.015987085559241745, 0.020768466150856358, 0.009019312256759466, 0.005052694052201342, -0.000591956533704891, -0.005104993917300384, 0.0027983887939690044, 0.006103850359463332, -0.004223911680686182, -0.0008402656395373746, 0.0003541519015753092, 0.0028856208202818335, -0.00020080822989528284, 0.011580445001337493, -0.00824935449050267, -0.0013544350732467506, -1.8895996330784444e-05, 0.0019238652017674158, -0.002236623330865465, 0.010160253435853408, 0.004859411342107217, 0.0001488239538128482, -0.0073383968526472875, 0.002132012455501264, 0.010692759572405664, 0.003852254122092796, 0.011276235947141805, 0.004418887845337552, 0.013738204456676862, 0.003929747307606764, 0.009291810647990369, 0.0004419402886342356, -0.010757381418310476, 0.009857259161346638, 0.009475003348147258, 0.00408650429995444, 0.00702479734393102, 0.0054015320453823425], [-0.008402733034729064, -0.00012576840075131148, -0.010214056432475497, 0.002487944958542547, 0.002564628842181507, 0.0055944922868697115, -0.0013274264908994314, 0.002541946062803216, 0.0010824354957855915, 0.00541768791426661, -0.006249324528118253, 0.00546016326984238, 0.0037447254441204925, -0.004493687339559822, -0.002244175930277629, 0.002074849156557583, 0.008358792795273991, -0.004316929668014192, -0.0036913370943754973, 0.00704349472503906, -0.002027256949081824, -0.008450534300594108, -0.010781882771893375, 0.0029261185394304496, 0.0033003747371365727, -0.004857926562047005, -0.0026620068808697835, 0.0013767258499335722, 0.006268164433278107, 0.009921809093770372, -0.007720669832160147, 0.006004728568037159, -0.003607784779134274, 0.00406063186341943, 0.00015226476506306015, 0.0018681722301206987, -0.002368608676106896, -0.0013404803714317849, 0.0015091591700320695, -0.010638768976619311, -0.0067144173731298225, -0.025387832523197425, -0.010328440179303146, -0.022511620524635755, 0.0007680150202371218, -0.005510564547224405, 0.007644918806239333, -0.0032896865747215442, -0.007229732030197634, -0.009062486713550994, -0.011624649450139671, 0.007052532928504486, 0.002744761273377775, 0.002993295159201398, 0.006993959652659815, -0.005292988895103365, -0.008012493475852726, -0.005706229616952462, 0.0033264659057301964, -0.007524944414414972, 7.62183916502009e-05, -0.0008441052644086802, 0.011141340442010317, -0.0036925626567741814, 0.0036828075263189105, 0.010378551542644268, 0.002517087959220508, 0.0040708125365611445, -0.012565364297935405, -0.007660093645617225, 0.011873841264024956, 0.005386339488381479, -0.011861797790400147, -0.0034541785317332113, -0.01738448212380256, -0.01638345714887678, 0.017835577868643496, -0.00959849356719144, -0.021231463699608245, -0.023320007947669384, -0.01318037410615412, 0.004285556539039474, 0.0042781126794469325, 0.0005848643751067094, -0.0018382491080752455, -0.0005682939775800783, -0.002329746785802233, -0.003820993969955755, -0.003279890973880033, 0.013062726996815684, 0.007480737053257518, -0.003629207597028026, 0.013615298959378954, 0.024976764981394586, 0.027349727424152113, 0.0353756585213851, 0.044106931973398766, 0.06571836958621272, 0.11567057524388918, 0.06660557605403226, 0.09535356216219876, 0.06209552198369705, -0.007561817140674852, -0.0040702101991460125, 0.024679147044989806, 0.009375063781107841, -0.02108213171548513, -0.00915338069720294, 0.02293904787687133, 0.019489193446223078, -0.00278619430497942, 0.0021705631987899133, 0.0004397847835596573, 0.00801177547237392, -0.00657651639278799, -0.007624329414449917, 0.009845708121070827, -0.00804474059344377, 0.011903836310644155, 0.043253885907024746, 0.07523011617844581, 0.08558575992195051, 0.1500689825927269, 0.11139289477452982, 0.10004057518701902, 0.03927355108258045, 0.019442873874896887, 0.060890199307309885, 0.09138892322743074, 0.06484641471694678, 0.04078688653166098, 0.02983536950419374, 0.049536621383253814, -0.023570314291898382, 0.00899314091696494, -0.008230916735540961, 0.013667407334367004, -0.006359405228414331, -0.0010211867622561147, -0.004757188606875228, 0.003786310297650591, -0.004526737578459579, -0.0007817412323088975, -0.0004538750640910908, -0.0026583734262778493, -0.0006565827299845484, 0.016141268551863583, 0.05670498018253081, 0.10970151799360837, 0.05955902295845108, 0.14664708957732359, 0.016863408853131957, 0.02444756462600114, 0.011124448102515283, -0.027743155450882448, 0.03143538061518194, 0.09648238936687227, -0.036751867422754186, 0.009936195716890759, 0.026091812031039104, -0.013760229846715193, -0.03666049139035563, -0.029420322527310735, 0.02125857861029467, 0.0307811628929858, 0.005802522566118224, -0.012591452549859135, -0.00333760361818371, -0.0024544312309209273, 0.004481541928255537, 0.000536700527232229, -0.003176847545480418, 0.01265004666256088, 0.020835116256682912, 0.0318408732809032, 0.08296049178367317, 0.1516838828982194, 0.11503546625831917, 0.07783607064900853, 0.025886273917995268, -0.004597874077022981, 0.036285858991379975, 0.030486664710261575, -0.016719073467393805, 0.0412456655920869, 0.005190812076057381, 0.00232727237162714, -0.03552825120230141, -0.04222310339437579, -0.046858216249778595, -0.0373543558115304, -0.04884647544388544, -0.052577661873403785, -0.028618766952366502, 0.004678176338017101, 0.005793266772977261, 0.008799755655511722, -0.0014140486680188679, -0.0053544372730634955, -0.001975165114150811, 0.002755896840334861, 0.04173174831700179, 0.06831509965019786, 0.12365189274696582, 0.15862444310655774, 0.0960121814503347, 0.05090016503052851, -0.010798237285319135, -0.07189354337786268, -0.020229891464775402, 0.0018176161412910567, 0.04580589897441934, 0.06788495560797574, -0.02066359207333406, -0.03363973101406486, -0.031330546569657475, -0.04657280031356797, -0.07329436727358242, -0.00412427927424655, -0.09523923611744604, -0.08380731609562266, -0.04756604266616401, -0.008314272346126321, -0.00616734494634122, -0.0004143662629045363, -0.005032365810927678, -0.00030205422708150064, -0.006291195713252906, 0.02080893713317227, 0.04175904375099066, 0.027888329582190237, 0.09308868442637798, 0.14259408524344233, 0.12705123226832862, 0.08228281693517155, -0.0029820022689981836, -0.06820534495665538, -0.05480936112892169, -0.07485444150699513, 0.01037424785317557, -0.010158000445801497, -0.016136727195900716, 0.047788866228014995, 0.04014442449003025, 0.025812021548281057, -0.0516686650082572, -0.01833668636016637, -0.054007521208061196, -0.12072447862195931, -0.021041080105034537, 0.002085719748130022, -0.0030711418198675414, 0.007358343915771443, -0.014120274397220833, 0.0028027398613959887, 0.024089770156034834, 0.007329352707880268, 0.038925872850497895, 0.06871716533543393, 0.11816603680646291, 0.1560870048289948, 0.15961686348318835, 0.08110199507906403, -0.005275971641392921, -0.02537395566987354, -0.0790521883001083, -0.06830673941023908, 0.04496120430324666, -0.007997949073493655, 0.019440393312721706, 0.076159523241316, -0.021302597987725595, -0.009748740267876794, -0.05046831039565772, -0.02968819964060796, -0.040133033243227804, -0.09359856995973893, -0.0394601836577499, 0.006279069389067515, -0.007477265252943329, -0.008893944364253932, -0.0070885068334561995, 0.008679887685060842, 0.007958799318693066, 0.008699893658019854, 0.041594532402296776, 0.054722888292812626, 0.12472106185946379, 0.16091379455468663, 0.10297403346583306, -0.034487302147149686, -0.013988253571027353, -0.09303668661143669, -0.11388898520028551, -0.15777862609026425, -0.00411498494915474, -0.0011190826123933708, 0.07150523946270289, 0.10568130906165232, 0.032146233113040254, -0.06083981955243475, -0.07886037615868, 0.0011540617152144023, -0.021663593910871432, -0.092445507726557, -0.060807743577722936, -0.008682239801018402, -0.0030163018037953787, 0.0009697707811996602, 0.0036604328169730785, 0.004308177382951318, -0.008178795155689493, 0.002349253901116331, 0.016180441103965413, 0.047621935826483434, 0.09396640325097236, 0.09931598418178848, 0.05408840792277264, -0.06925361914434279, 0.002340469204269323, -0.014779502060624618, -0.13158589573623763, -0.07351100745180378, 0.015223367668357265, -0.021181667028905216, 0.02731338404863043, 0.06382205703938335, 0.08278648415628725, 0.033491643718984054, -0.001961270129440827, 0.009837307494235325, -0.06342591952603001, -0.05532863140242784, -0.008436352193832375, -0.009189022279184486, -0.008815024466657741, -0.003131707031334656, -0.008405373460122084, -0.004375114709255666, -0.009380268220788803, -0.00869684760069776, -0.006419370974142124, 0.06680935039536931, 0.0946525501843354, 0.17846547307708863, 0.005838702328737254, -0.03594517335816743, -0.09653096099075913, -0.14387286618204745, -0.16224445651322475, -0.05760383521062033, 0.01922150116604932, -0.00768774416303815, -0.022483561255445206, 0.040501033189867565, 0.03635357794554126, -0.017459080643924638, 0.019890848265287284, 0.00584824507215843, -0.015773752210402964, 0.040886267865458396, 0.06662228192370176, -0.005280991660192674, -0.007345477580207826, 0.007717984815599377, -0.007785511408106213, 0.0029427687520135427, -0.003100388136067349, 0.005330275328622671, 0.06395100174609972, 0.10504923609129047, 0.09514052251619821, 0.11358790883935366, 0.020778331628164216, 0.000501285553816668, -0.1338466098713473, -0.23038324988306894, -0.07352400825018257, -0.07449513591744801, -0.017711510247347843, 0.017138144141752302, 0.02061946033275063, 0.11172629218386003, 0.015227975180451868, 0.02750243984253278, 0.029002615946054282, -0.01484136986951972, 0.04780664258101429, 0.07861577362886621, 0.039795453754071675, 0.019806206193156685, 0.019430780549848252, -0.0008537456333390501, 0.0012930992365581403, 0.002617587520719723, 0.00968346214841717, 0.019774914964509026, 0.047504407168027576, 0.08900966907860831, 0.07178908039507233, 0.06217365921153108, 0.053836343996407986, -0.031182441896630574, -0.02154496684301161, -0.11607419632589866, -0.11326287342385143, -0.06849068493840448, -0.0295884163665721, -0.0028591387841445715, 0.008829981903196886, 0.08846776043683938, 0.056375753484086584, -0.04399743195057453, 0.02634619736299153, 0.02532077991721288, 0.10802308469059069, 0.08708252311434135, 0.04200478605251791, 0.012330965688282788, 0.005179293806699952, 0.0047453224480584425, 0.001880024554599713, -0.004214571544579031, 0.010343779759304795, 0.024112823085973605, 0.043794967001841136, 0.03687977223173518, 0.0275897203283271, 0.009614826824081513, 0.09066681779780074, 0.01845492750053505, -0.011777053994120053, 0.0006557055543528819, -0.05160430314856587, -0.06667185907323703, -0.08304500709451025, -0.04318273336811761, -0.017718142249835558, 0.012286909348422359, 0.11711162957545458, 0.028502436838159565, 0.015262747153509988, 0.07836234282986108, 0.0948407939057183, 0.07061549757556998, 0.041440605931326396, 0.017161779773156093, 0.00148683220134315, -0.004275977117962865, -0.000988127756383939, 0.008560282551454359, 0.03582379552016542, -0.00603633475942747, -0.002745961970674383, 0.03364791825834524, 0.1698730605907003, 0.09947058100267143, 0.19652949208012505, 0.06569090213595205, -0.04399579648083831, -0.014552290217225188, -0.06552182203445846, -0.07530026473642328, -0.04335757870219181, -0.040084142699023814, 0.05798437145541174, 0.14201240808601887, 0.08502418920981193, 0.05935129212735122, 0.08217220157815215, 0.1019748415112642, 0.09199959762827543, 0.08144335616810908, 0.051056734199629694, 0.0404085085818869, 0.0019138983622607624, 0.005871182182601558, -0.00222107294223119, 0.016327680197048774, 0.04025979046079976, 0.03820148650165041, 0.014263112756812413, -0.0387977338186637, -0.0183621481579769, 0.03454264568816072, 0.009625292989812566, -0.01770607053891104, -0.05182590751908768, -0.01838853710186586, -0.00484139893558485, -0.0066280918213406405, 0.020571707897456527, 0.0013119162165325553, 0.03932131938992676, 0.036037444811169404, -0.0019377344180374237, -0.018173509727224882, 0.12852628456115484, 0.10881905057833015, 0.07921243618640124, 0.0720735395556688, 0.04256593454824109, 0.0194719497294455, 0.0020012644583385967, 0.0012766440712198327, 0.0009304866320602197, 0.005077012165615232, 0.08216346845746396, 0.10864964224795941, 0.010254952493214283, -0.04829896586277913, -0.038013786264733104, 0.02319488011322671, 0.05722169959055819, 0.011468476394210439, -0.03743176015082381, 0.023172925749597388, -0.028589685485245035, -0.023931181129540048, 0.02866186254758866, 0.00934956831918846, -0.02770735153346624, 0.06231786893250176, -0.010747041847388051, 0.012705899276942292, 0.17572549267762985, 0.1789986708728244, 0.12487309833490888, 0.07144350369447959, -0.0023622929023087696, 0.010016926123994059, -0.008623726493650657, 0.002063664759344784, -0.005440485175003146, 0.006439715579226811, 0.0774914952633156, 0.08714795181619035, 0.0323128448360664, 0.016937922326734998, 0.06962847388371825, 0.06482350339050384, 0.06662878485509922, -0.04340122419993916, -0.10102734582117326, -0.08166818591064655, 0.007363370429606278, 0.004006449926315588, 0.03140257963502953, -0.030959199089630487, 0.09584426236059024, 0.10782740206982437, 0.025576963842422522, 0.029209236920680656, 0.13937135061803077, 0.14805313549276455, 0.08291825132507706, 0.024946123172061532, 0.006127172164454147, 0.004946156260678415, 0.007153663393466178, -0.0041580888457579315, -0.0014636900848856947, 0.003868342544774911, 0.07276653481227055, 0.10531757180713837, 0.07650502698983465, 0.06311728940190443, 0.061852086849468614, -0.020698122806421512, 0.07420817968009087, -0.032329334665227326, -0.06435025403551646, -0.06375724778466091, -0.03843464332271466, 0.10775297010054562, 0.06417465857930153, 0.014533323677227672, -0.0027288091197784177, 0.03774916037320239, -0.0328750872810942, 0.09394866213299495, 0.15006314333778886, 0.09006987416520718, 0.04825078881079229, 0.008875363203880183, 0.00754871519147159, -0.0031111182861962537, 0.003986082553989682, 0.0025453764239882085, -0.0009070456320884441, 0.009114738838131138, 0.025290848866342832, 0.12041758635889031, 0.13090201130674736, 0.04344385226785625, 0.060334468504180665, -0.007600360874181238, -0.009087650266017, -0.014277933612385827, -0.08046129067847532, -0.06228610772837689, 0.044405058957440784, 0.149818636964779, 0.11117964279625761, 0.08705375917850225, 0.06418350236478781, -0.005540888148319116, 0.034493259234048154, 0.09768063402503536, 0.10699997414421611, 0.06633497771482262, 0.04715262164043334, 0.004733433927425261, 0.006997148778731185, 0.005013186261922273, 0.0065560764618141825, -0.0016710366012488527, -0.0036066586019387003, 0.009861987808976827, 0.024840837393364294, 0.11614756317490241, 0.09731335795575967, 0.022615088467721405, 0.010337229297573873, -0.0007362492831346115, -0.010899562142768444, 0.003694073435898269, 0.011715289083865045, -0.08970796251716896, -0.026633754144732534, 0.06565459341075681, 0.1133444551042286, 0.0375962340593175, 0.03648282997869476, 0.10495979785638733, 0.03317746353701425, 0.11778547611647236, 0.09629654072669652, 0.035314796717486115, 0.006073292100519947, 0.006051188414982428, 0.005944369701511599, -0.002709979782919784, 0.0022254163519070847, 0.00466376472364738, -0.009332021190626252, 0.00019658792622159632, 0.03706946932590395, 0.06905415977587301, 0.060016292346248, 0.04914614221522013, -0.043125299454839804, -0.06700877823054974, 0.02618300601832549, -0.02790656382391884, -0.09748652201895987, -0.11845040088725003, -0.045539090363136886, -0.06377971664259352, 0.00020472587355969033, 0.07462492163298284, 0.04919642952208173, 0.050319571916813424, 0.04376851232824831, 0.09225849329395107, 0.05214429713540761, 0.03636271780605371, 0.01247243302652023, 0.022413486942602433, -0.0004469929904119431, 0.006127984330551021, -0.0017548737946469805, -0.0014129287503285156, -0.000859977177077727, 0.006640078946573668, 0.01843845684791166, 0.023509691417271366, 0.0006239731847147385, 0.019321778715022494, -0.033058070387327505, -0.01794669954205251, -0.0002601203256848923, 0.04749317857419321, 0.03758396275209976, 0.014918284159628106, -0.07587073548399198, -0.04302312116406105, 0.005294405026496755, 0.06244888977204776, 0.0809911481921694, 0.04828272490385494, 0.05731192363151103, 0.04389403334868315, 0.02873054285167048, 0.00933779670263079, 0.00020332156836185767, -0.002774399329813292, -0.0008624903526426534, -0.003077925081419622, -0.017545519840992042, 0.011178382846055417, 0.00021752871420335448, 0.0026471560637767537, -0.0018674024059434173, 0.006100377731776806, 0.010741075475339704, 0.007051231266945671, 0.009520655806961013, 0.004501246504417024, -0.00894500743627144, 0.0050821243159599235, -0.0006927891552841537, -0.003974247712524521, -0.01240621041284162, -0.012606183112428752, 0.022384769767436877, 0.034772436537202085, 0.011163983937583704, 0.011069297485728064, 0.015876364013147754, 0.0010731515190364018, -0.005015295366246317, -0.002529590749445689, -0.0020496793860514525, 0.0010154424373480723, -0.0010896999411979071, -0.0016464224862886782, 0.015270021433218532, 0.006674522253615221, -0.0008740689981180341, -0.013812176955671463, 0.010054261167356292, -0.007488171129394323, 0.00713278565533406, -0.007628826989179184, -0.008981515065760023, -0.015448480198507043, -0.010184455940638496, -0.0036525981809159857, 0.0004654177546392833, -0.014578852711864626, -0.019368469035767538, -0.0074632590881567405, 0.0042360437332590595, -0.003408358368045524, -0.021306736051247905, 0.007285268637218535, -0.0012301435853207651, 0.00467195373988284, 0.0026005251208111343, -0.00925891909064673, 0.000871228304183816, 0.0005598773193716301, 0.005171985282421418, 0.00598469469126259, -0.001841196578078671, 0.011420992089921768, -0.004248324465423842, 0.0005393564075168817, 0.00041197150098364304, 0.0034649975792922084, 0.004458201598533181, 0.00043132889164964634, -0.007975761579851226, -0.005116449482750402, 0.006701859568966541, 9.351306458116543e-05, 0.0020180127963888897, 0.0019377410219735792, 0.003930286790967671, 0.0011845345303455631, -0.01073331318224322, 0.002749498602292524, -0.0022517972622330858, -0.012219231714667681, -0.00362676154149197, 0.013525916851838208, 0.0010152349806238044, 0.0018119686899190717, -0.0032303789726488875, 0.01026749531763485, 0.0027467948203281816, 0.0064413394833310956, 0.006787958192564014], [0.005363545226137306, 0.0043919438257088075, 0.002319795464275552, 0.002924784502246338, -0.002740698171807644, 0.0012430183440571604, 0.009933321225400445, 0.00041731433678467215, -0.002528791086692316, -0.004287426779717905, -0.0009218189771756092, -0.011877510664426352, -0.005711840745238507, 0.0030596600478165125, -0.0011319786737111195, -0.006111022706334329, 0.0008596545510318477, -0.00152480165001741, 0.008850706938713685, 0.0026838074243059596, -0.0027346041884877496, -0.0011762688009724568, -0.007191020604765747, 0.000883492073871624, -0.0008705705614813042, -0.011305821614007998, -0.015031027657388176, 0.001057762789094773, -0.011479061229142643, 0.008151994781962267, -0.003229609209256649, -0.0030864747016657516, 0.004109742427742825, 0.004776750740625107, -0.01016248468635076, 0.0073146183905211425, -0.005039028613187829, 0.0011298710471852717, 0.0038973023876308433, 0.003273472418357867, -0.0033915640799359716, -0.0012446960260570452, 0.005243503081881688, -0.010975101031302047, 0.004652109439688379, 0.00024404094170191827, 0.008487458099974192, -0.0035553543762797965, -9.50911093916691e-05, -0.011977367180045944, -0.003455964118120519, 0.0051677641716990136, 0.006899279837035055, -0.01352466358817502, 0.008835001931572946, -0.0069127139969315365, 0.0010292991251846558, -0.0023103856599723995, -0.007056928563953293, -0.013774658492057166, -0.007802701856930989, -0.005524706429667698, -0.0022543265937695124, 0.006367827168789549, 0.002571381586080813, -0.0009203618594526149, 0.0070960990330834715, 0.013309066636170932, 0.007726741950106249, 0.002114822210314886, 0.0054131529288892945, -0.01412250100471786, -0.03016899577350593, -0.05210341377144952, -0.02061677220341161, 0.005708124524941728, -0.0038085109866016387, -0.009287722555736757, 0.0016926111464703553, -0.012855356198035527, -0.005060265025473303, 0.00805746720023711, 0.003189526428568813, -0.006439819706911446, -0.0039031995364120532, 0.0022519257190637175, 0.002073006410100204, -0.0016947789993152582, -0.009309076874467356, -0.0055681509579855815, -0.008719252496303025, -0.009076867588735618, -0.025033851600082542, -0.03371799282940455, 0.014996346279737878, 0.004821732140634097, -0.0006299909805578778, 0.05059100750910227, 0.08860319829299639, 0.05749207977165168, 0.11307692777579241, 0.021502039841351808, 0.004488210809424873, -0.03761459326771241, -0.07220718405988337, -0.054990503040310695, -0.015782853092265986, -0.006169258227899052, -0.0021576428830130056, -0.007598867199712311, 0.017595608130918136, -0.0012519651530479114, -0.0012386419223261891, 0.0029911982903103483, -0.005680875958382331, -0.0008024042775585141, -0.0016542729771969501, -0.010602168557512977, 0.005238055703903316, 0.03422761077734891, -0.025309352399418648, 0.02093156019374396, 0.09143083109729075, 0.03773866387641182, 0.0010265556566355649, 0.08453520363274228, 0.050191426462882056, 0.0746901575282937, 0.10412301857512937, 0.10280825979843085, 0.0980007169854953, 0.0048141132116754064, -0.03472123845581485, -0.11640675476146362, -0.055312070979003924, -0.011915294608228225, -0.008801037708593995, -0.016686934716797174, -0.006449665277993844, 0.0056496570982940844, 0.0017876109826348132, 0.012802422090480154, 0.0036272594326586206, -0.010656589703223335, -0.011736787712665687, -0.05676022010666987, -0.00892133781794132, 0.03007419421868976, 0.011446424895485814, -0.07252479936916946, 0.07538174363400676, 0.14400729156253517, 0.12269981551191553, 0.034778378189651744, -0.05409408949073283, -0.05901412889756917, 0.06538206622239304, 0.01166417150916971, 0.03710093058620476, 0.06754459918053207, 0.10920769357203958, 0.08086011337224754, 0.003156690302501604, -0.004759982638058208, -0.02179208003847291, -0.02160571048046176, -0.00141566327863876, -0.005040688857717191, -0.004297431642850202, -0.003368368398202077, 0.016095123097600163, -0.015839307348307786, -0.01599664461824305, -0.025386955023211876, -0.002191203607208667, 0.02618703200807852, 0.0013007836628025652, 0.08003107075122788, 0.10858138408089675, 0.04684031552606428, -0.03161160730493208, 0.00510746944991379, 0.18096465769504685, 0.07656345527084502, -0.015105357884965009, -0.05435725944192913, 0.06529710262568794, 0.09963166700121995, -0.024702092699480135, 0.06555113247885797, 0.026583013894183705, -0.0384809590397783, -0.011599022771087635, -0.02788511689713193, -0.009849613306900856, -0.0027352536200426327, -0.0004755899580639974, -0.01080894149095609, 0.006909271071579606, -0.007586301842961335, -0.024385257883864968, 0.016017716368179353, 0.03916565469908164, 0.12857984786263127, 0.025889726923447258, 0.024985745345497582, 0.1333221000696924, 0.10410846173051333, 0.0018516984113983116, 0.021862767815149023, 0.09412572120114891, 0.04464203628409507, 0.05297176054849883, -0.04142856186078044, 0.006508622951164227, 0.13379418889599035, -0.05922949159130223, -0.05520364164880149, -0.061809542143889805, -0.03086881477095074, -0.00676695743371612, -0.018008687190688998, -0.0016236846819366161, -0.002130170389048769, -0.014382541613422195, 0.006581465173859391, 0.0027674199301190618, -0.007041959293708708, 0.007908082088530121, 0.04276725797747358, 0.03688642005937657, 0.011418996387639456, 0.041104328141988056, -0.00759907432899629, 0.04117856560237203, 0.145798079573109, 0.06573615464124917, -0.05017831541376328, 0.016628283744909978, 0.028752767152393267, 0.04178555854231782, 0.0044427533586785355, 0.009758078571530859, 0.0320273180970799, 0.02519238691278205, -0.021610274806369723, 0.013787600502624715, -0.028373601948140585, -0.020975569214766752, -0.01558451354550519, -0.003788903118062401, -0.0043305304551527965, 0.0031992705359677478, 0.015115764635398847, 0.014500996919623648, -0.019359866151467793, -0.036907954021362696, 0.08373728277073318, 0.020858595685803897, 0.043480166982023435, 0.08381618407356496, 0.07935208130215614, 0.07533581665360739, 0.13960366287380846, 0.06291190157622324, -0.0646166619099073, -0.10165122346763523, 0.09851816118955511, 0.08655103770999992, 0.0109181206378328, 0.08026960630847692, 0.06575432551441253, 0.014730962876161931, -0.02096775859188384, -0.010339969039664656, 0.00036115860092839536, -0.030519661449376616, -0.01168517203325395, -0.02245067194023263, -0.003096459236521708, 0.0014256804968248598, -0.006676707201602748, 0.009528203358385902, -0.01643742197243885, -0.036716588926785296, 0.06264100920873718, 0.05279244651741133, 0.04816971082199909, 0.09709388691599197, 0.05992808858952846, 0.15138782760871106, 0.15932789255215468, -0.1030998278365627, -0.27837179245103855, -0.14775628732431628, 0.16752065784443337, 0.13454512178559555, 0.08631134027636352, 0.0429947865387698, -0.00942329084422539, -0.10366236090208863, -0.021137877672105843, -0.04046822026981074, -0.00735506100132025, -0.02467170151594461, -0.010187995438412908, -0.005108018063157422, 0.0005624364825635528, -0.013634656216104536, 0.0038817415225094183, -0.002906102671081854, -0.025179386202165067, -0.026984148516406802, 0.011104997038280273, 0.020660765070103247, 0.00897177315464813, 0.03638476481050406, 0.10200711167087025, 0.20595414075105456, 0.025168732067659502, -0.21735771580610677, -0.23111294380677463, -0.061965164660504994, 0.09724464709466087, 0.05017100732490997, 0.07362964687986809, 0.18011426392344343, -0.025703059493299343, -0.05709039137498673, -0.011999674301299994, 0.013171643826078811, 0.05186457668423483, 0.0197999193126517, -0.0027132447291887815, 0.0018198634931822397, 0.010290644937990163, 0.005880562528579296, 0.001721473516206778, 0.004291208107185991, -0.0044821516694925866, 0.013248634938579595, -0.031282895358160076, 0.07110409202198198, -0.007756435408595563, 0.06430758817286916, 0.07986935962441731, 0.044941243750192775, -0.12486199376659134, -0.32377878954869216, -0.27866642075648673, -0.10400000437963536, -0.0873008749102722, -0.09698473457371157, -0.01285272906793605, 0.044198983716689136, 0.0599495986728357, 0.05097125611211428, 0.009268137859608807, -0.024447665928854712, 0.059230459697191706, 0.053698762295961815, 0.0006557172962158054, -0.0017005739741282585, -0.009657877601371016, -0.003958953188223616, -0.003451731974519836, -0.0019335942091474824, -0.003623631061895536, 0.030365842880106818, 0.05684275258125465, 0.07756868334012877, -0.019301532182637793, -0.031309913443771833, -0.02624031789086161, 0.0027130093262905486, -0.1939437390658736, -0.2613117807639354, -0.029415669371317434, 0.01380934364849017, -0.11228511861082749, -0.11669089243566091, -0.04926509840651298, -0.02933871002248308, 0.08057545818035021, -0.04183508581825509, 0.01971276415711746, -0.01982894285706357, -0.00475652952598176, 0.016660488958808756, 0.011507518856386307, -0.0022722145494125604, -0.016337698906876093, -0.0098941312114779, 0.004935639631914497, -0.004412499329580749, 0.0026065519090729583, 0.01630668951879493, 0.1473585094975561, 0.12172578966190709, -0.034284857070181335, -0.04473016921293363, -0.07622395455449467, -0.0994549389184822, -0.20171623822871526, -0.15840008464736663, 0.005347944346214747, 0.03746870289428508, -0.05347263732958924, -0.0812213334578532, -0.046054934263463354, -0.029829915700540142, -0.002309461531048667, 0.11885861767408507, 0.011171712798147907, -0.008025846186213565, -0.04868059730438855, -0.018912888959558564, 0.004417773134204764, 0.010452472068738885, 0.006094369934798574, 0.003957132959888383, -0.0005998529497354391, -0.002647086939814656, 0.006737472873175762, -0.022560397730244416, 0.09639042063659586, 0.03568670641648526, -0.07490236968160797, -0.05529714808932434, -0.027790566603320053, -0.06750316017644901, -0.21645612665931396, -0.12296214801160499, -0.04298980257831199, -0.020201993852511365, -0.1754483356393615, -0.07429866970430797, -0.06317343116278765, 0.0140106637084046, -0.06764604869694898, -0.010505256683640616, 0.05784578835237534, -0.08513112508524034, -0.048165398478157644, -0.048943536619799055, -0.00333763909950099, 0.0028525175838171827, -0.0009298782654793121, 0.00992202122716872, 0.001608579423014189, 0.004304039334210928, -0.015445539956397377, -0.020122148965225836, 0.06967929237654691, -0.01895887783962584, -0.08986764193072037, -0.04608049848147507, -0.01142275689114884, -0.051996247974212456, -0.21040441596739698, -0.1596598617173781, -0.02231549049506556, -0.03321882847261974, -0.1450750191529979, -0.23163001894471114, -0.22441256393728304, -0.12330351980876862, -0.07232532581437401, -0.04686115672654647, -0.016146283441670996, -0.0749056167191091, -0.07915912621703969, -0.030763968699823223, 0.018331545076412114, -0.005498694432198419, -0.01292535452813431, -0.0005246913303077448, -0.007028047343938089, -0.007815300705708945, -0.026574662743746542, 0.010470297714606744, 0.05111712202851857, -0.026897974596416723, -0.0732742804997938, -0.11077927763748344, 0.04046001162886374, -0.037626638052322914, -0.1447310108486081, 0.01478276004946783, 0.07460213323610007, -0.1414233255872498, -0.30497459068986205, -0.22565292325660163, -0.1768366691208747, -0.11850403117406054, -0.09547427309363908, -0.10094605734529513, 