{"sizes1": [784, 48, 35, 10], "biases1": [[[-0.42838959060307585], [0.1282562144658264], [-0.31808817277878804], [-0.5830437983627904], [1.6196183919238647], [0.1889455700743714], [-1.0133788317514254], [-1.4332940315469875], [1.1716969972244902], [-0.9288421641383307], [-0.428358530322371], [0.10917236093441013], [-1.5741192596786084], [-1.206774897620051], [-0.05946836409489621], [-0.025136012371215863], [-0.8130632886053338], [0.08015233064107427], [-0.3342988084186969], [-0.3843910558276984], [-0.2970131326565482], [0.779418338673092], [-0.6261019562721101], [1.4422525110837143], [0.5197531502701614], [0.6789564444804408], [-0.22248254591832087], [-0.06454450729354397], [0.3620985253768077], [1.1509353701170588], [0.8074584479907745], [-0.765270196081946], [-0.38472625678207734], [0.17665855570210237], [-1.781759351401154], [-0.5407417864017503], [-0.6461112582573515], [0.9449815449221496], [-0.6324747024358821], [0.5742850643699882], [0.5289622788404572], [0.06119841440405597], [1.5045169037070723], [-1.327209424980422], [-1.7319375131460724], [-1.7872078408805714], [0.7791409782003226], [1.6883044344658198]], [[2.4819755235343313], [-0.003958843203014299], [-0.12813567279589136], [-0.006704557107388762], [-0.04948247177682039], [-0.2492994666951394], [-0.06996395498550029], [-0.6866163358654972], [-1.2217015062018548], [-0.5464703104456662], [0.3015493588000317], [0.14189586893697698], [-0.3403689889192929], [0.5814295137540877], [-0.13198165235632703], [0.2392586634799094], [-0.4079674021289671], [0.3154981498273245], [-1.177151110395894], [-0.16556858208974506], [0.8930418868657487], [-0.24508502071690444], [1.871287085719463], [0.5570419790227861], [0.03295824172322053], [0.3470323596611987], [-0.371636682006224], [-0.5766643659023492], [-0.3584830575945949], [0.37060372826539634], [1.5307514093983385], [-0.1572700227326517], [-2.2247648452230595], [2.778365251513072], [-1.2389073232151007]], [[-0.08161856989755974], [0.0717972762706956], [-0.09148209363558978], [0.63626037048456], [1.4728723243016641], [-0.7397958943424416], [1.0126535711262261], [0.16365858411858336], [0.9594343738940114], [1.040398338492511]]], "weights1": [[[0.002755304106274713, 0.007434719687073344, 0.008483097978553627, -0.00645534499235379, 0.00286292317216176, 0.008612762386276212, 0.0005344643702968923, 0.005883860765019341, 0.0033108191867471546, 0.005118568440419532, -0.0015516034841130842, 0.0003628125734431429, -0.004251069346350364, -0.005996853122501982, -0.008092214476402274, 0.003337292425113542, 0.0017961732786237832, -0.008584054391668493, 0.012246410519552497, -0.002027480204768182, 0.0016833013089275907, -0.0018243518484257625, -0.010834370546081452, -0.0025116486353119025, -0.0011326010556480608, 0.008578729193284309, 0.00022314076210907394, 0.010159314093076733, -0.0011498609600915297, -0.01547402504025714, -0.0022004410224765176, 0.002896723580214219, 0.005229267789370137, -0.0016803835798124746, -0.004516194550500172, -0.011397159759276666, -0.03545072882396977, -0.003307600390734001, 0.009438132552414498, 0.010169451457046882, -0.014944112502554681, -0.020492670478718878, -0.017960609253742977, -0.038606961249227294, -0.04673378883581483, 0.0022589017899391555, 0.0009169989307190342, 0.0022945960989504614, -0.011201725450961425, -0.011812133102462298, -0.0063775795361185605, -0.005162709727741018, -0.0016936955766580248, 0.0023371232973860775, -0.005906431944393584, -0.007256741529615928, -0.012231143642456605, -0.004684604872443764, -0.00043939482564713276, 0.0006953261181855158, -0.01032850819782939, -0.0032886334575194767, -0.0026304995651324405, -0.019342786796256596, -0.045082926757817554, -0.030839260846712242, -0.028989554859718537, -0.019000330016087495, -0.045161371694142645, -0.04569471402939028, -0.04505785896325714, -0.010047284407941228, -0.005197895095952317, -0.009596385354345817, -0.005724219865321277, -0.010343578954171252, -0.006333210155044576, -0.016327086061638338, -0.0032271183993461063, -0.011596323238509192, 0.00801534834679048, -0.005448416667340223, -0.010088146039953881, -0.0042722719307363086, 0.003605341336481562, -0.003787866166405527, 0.0034506716524979335, 0.01004449155026549, -0.0015208190155067956, -0.005715271090206892, -0.02552297675365256, -0.049251147352518135, -0.10333671197193295, -0.13603977755303187, -0.09385223906352327, -0.09028627380011375, -0.08060512305407225, -0.0978436730264617, -0.06437817167626611, 0.0022059630151847883, -0.017407606655661653, -0.008087682170945625, 0.015101502131433785, 0.03290449411497035, 0.015199094645355406, 0.03690957785576082, 0.012367949441401063, 0.006182488512084677, -0.01436649315473144, -0.007712294454895362, -0.004561034927048725, -0.002932794273257166, 0.005264644020628277, -0.003998328784085903, 0.0016492265991250043, -0.008955258134461066, 0.00814835890333016, 0.01725448465260445, -0.02387705704328373, -0.005993852886661955, -0.06128896401937548, -0.0748292797776405, -0.07161637074462186, -0.09017945193413195, -0.0836553624150911, -0.00046602978449700503, -0.015536663213502814, -0.005179309132473491, -0.05063716195765003, -0.02204109743841736, 0.017531884454656577, 0.04998860695929142, 0.09121812082045419, 0.0986157872206006, 0.0786037017498192, 0.02651003734440684, 0.006365177767589368, -0.01123692181613983, 0.0016203723775254071, 0.0009039338593921989, 0.011249674605071999, 0.00563797646430273, 0.009236999061573353, -0.005983673267862097, -0.014044546400681564, 0.031159576991597656, 0.008311540218107746, -0.005813678051184237, -0.03761337051151611, -0.011336562302137731, 0.03759284225642516, -0.044930115406457916, -0.06453730204363504, -0.26787128018061473, -0.2654350107783585, -0.15005410287311452, -0.03422592754090689, 0.058959139484477695, 0.07182323016005784, 0.05210581700826392, 0.0027541773577919463, 0.01954171560642414, -0.023285697365244384, 0.007843786323834463, -0.001463294530336539, 0.0023329515253727425, -0.011620195490891291, 0.008019607373709938, 0.0006680144957677559, 0.009520418178367412, -0.0006856592938796852, 0.00833645466005789, -0.0010534398792967359, 0.055268079483571195, 0.06483627970393113, 0.06962929940106612, 0.10484924420986708, 0.07772585532028103, 9.157704098304325e-05, -0.12394131058805428, -0.18677005249276388, -0.43768576646881885, -0.49418653916334565, -0.2376441743267707, 0.006396398892442365, -0.003820753137070568, 0.11888716770171938, 0.06004499286394219, 0.04696830374909928, 0.010973112059016325, -0.019839171883854537, 0.05861970658616064, -0.07738778061299849, -0.02416120212048062, -0.004371552730928134, -0.010576904507538327, 0.00014867812613357216, -0.0017549445937887155, -0.004375029517556926, -0.00578850371022436, -0.03777296903960046, 0.08114518421563205, 0.05187770412109655, -0.004045565880598692, 0.028545428085032333, 0.09252361460756306, -0.002049316071256819, 0.08077066135808074, -0.01234154578923703, -0.4241372549936087, -0.4926215594490835, 0.017428734340250863, 0.2414356755528304, 0.10180016689744048, 0.1130548989782608, 0.12328661221213587, 0.12585449596963164, 0.01465114618294386, 0.056857224905953616, 0.03543546710410288, -0.08682036246701491, -0.025471126884276146, 0.001973432151958007, 0.002246709777785483, -0.003292989477221252, -0.014169051383717464, -0.011723609715636912, 0.0017930606917611325, -0.00770548127195868, 0.09724470286161603, 0.016879463928315516, 0.030432084687930582, 0.09494748783929227, 0.06488660261950646, 0.2044620522589643, 0.10087749612015218, -0.1253817829245294, -0.33836102165786447, -0.2733707324364842, 0.008272517304825719, 0.24974439594898967, 0.12781078647529936, 0.06235191835837761, 0.0005624568560264549, -0.011658806351164844, 0.04865839321594718, -0.0518028205350924, -0.03835954866350334, -0.08658841364103566, -0.01024713698323285, -0.015460875999874623, -0.005183273159642303, 0.007623288566718961, -0.004331406379829868, -0.0016881713773187624, -0.0037594868218582644, -0.01667771351466949, 0.0739835933740249, -0.001046218367236677, -0.02895913449427316, 0.12840956803746184, 0.09252345386305158, 0.1744793228173531, 0.05017358369161177, -0.09477984937374394, -0.35514228207763926, -0.18124539159452668, 0.07932573527400874, 0.1525939306729634, -0.016308472012212367, -0.09147398897838477, 0.08508598211683119, 0.07115419219266819, 0.010374859241472597, -0.037302539799317504, -0.07348853595700715, -0.055830031592840404, 0.00844049977911109, -0.00222437033059432, -0.009953411815089803, 0.006326575327967667, -0.002771518735176288, -0.0015795022217225281, 0.0014362253262268432, -0.013038712994992959, 0.0852028494778968, -0.09902514881751169, -0.0003028377707791532, 0.11864118084905358, 0.061905113174184116, 0.15018434781950407, 0.08703039403618956, -0.15404153378121155, -0.3267605364483441, -0.27051961983334644, 0.020573749678035796, -0.03399036529050139, -0.011058891336915427, -0.012885919912505357, 0.1150357744658043, 0.08574051401151098, -0.05277749965194482, -0.026956154744498844, -0.09755496750821263, -0.0010820263291270577, 0.025916750542147735, -0.008619055601743301, 0.005726652012897984, -0.0004706137957754487, -0.015853308019037733, -0.003686117706025482, 0.01062655782414707, 0.0018054839027662746, 0.08772505108342186, -0.009136452590947398, -0.0007721508072527156, 0.013488399288189314, 0.1201865635519962, 0.23888018469120478, 0.03653261638255779, -0.19115466232539108, -0.25273426624181267, -0.19122712188813223, -0.11861688734351084, -0.003146516937395281, 0.005070977145423718, 0.039003578079155776, 0.0588644397856784, 0.0535615895772882, -0.037468631286229084, -0.07536615609435784, -0.021457659249621768, -0.07149905366503788, -0.010169179222198888, 0.008097785000039341, -0.0006351226911859897, 0.005704128849978474, 0.003052495104039314, -0.011796239775634442, 0.0179571027913639, 0.004788471292097376, 0.05952627277408037, 0.05490965632881808, 0.060798518143555316, -0.03525298065167867, 0.06815709165443883, 0.0855821319172446, 0.029692055807126284, -0.08420997608251533, -0.11625153090129374, -0.1154359864257127, -0.031033312472051947, 0.01307885748979449, 0.019839774346815546, 0.11980519258133102, 0.000967173885675447, 0.0334398364529846, -0.02850034979345164, -0.043361506534860116, -0.06879983215968384, -0.046360368293208415, -0.030838305071083986, 0.004921958751658355, 0.0025455499652043806, 0.0009419749619887966, -0.011696322457454361, -0.009870490692844399, 0.00779761848804531, 0.04157484323765889, 0.02078566912762155, 0.09935598762854518, -0.02382699534363413, -0.01947704218268235, -0.03290942629611283, 0.010072693961501239, 0.03155477145482604, 0.0049454709335781215, -0.014851408067420758, -0.03447919619888385, 0.007221333096072083, -0.07429285738000305, 0.03405296543962251, 0.13205497276684067, -0.02405523633002593, 0.0638234878538169, -0.04033124435778731, 0.03377560009028244, -0.035489691088022475, -0.017169704735743942, -0.02297236534552505, -0.010965630692612952, -0.004164274315072836, -0.010094583334774242, 0.0021948471748699195, -0.0018585522421830333, -0.005046438921850323, 0.051848293018436284, 0.12871570486617875, -0.0038206128649503394, 0.03854878800087094, -0.06911910253086649, 0.014759218143831248, 0.04026984600748474, -0.042657335246970754, -0.11864994439305163, -0.13685395229874542, -0.08692149577682975, -0.03713867768222226, -0.01876960134892984, 0.07836120388052803, 0.0055188074641134835, 0.03135603596967974, -0.010466422057254673, -0.023431385522608848, -0.023931788015423318, -0.0785803838234612, 0.005708767428117644, -0.03248466795183638, -0.008456274182515176, -0.00041924618252051017, 0.0011148304482757258, 0.008974469216921658, 0.017011203621715133, 0.01030302641831642, 0.0477818169605523, 0.04488297348831052, -0.055819057375901225, 0.09773152835589126, 0.061166422549398455, 0.11578812701345499, 0.025106352635387737, -0.07029205990465079, 0.01700030118871652, -0.08393961617426186, -0.16336988363983077, -0.06591831999802282, -0.031967763285590436, 0.014071170071504486, -0.09369569879484337, -0.052144608710948226, -0.006957344555900503, -0.062036308480261634, -0.0025217693838788615, -0.08497984701855109, -0.08379501374757399, -0.023025420019644412, 0.0304253094075494, -0.0023086737168640198, -0.003494373066830987, 0.004523869246665991, 0.0029853585001426383, -0.029138799347407904, -0.0958334877458015, -0.0666990811966568, -0.02769785408695737, -0.04284590022841953, -0.042963655239680563, 0.0011478823723831378, -0.07522066111966752, -0.07922302798281868, 0.04841969274387088, -0.06144518421616165, -0.11055891967557833, -0.04905895337608151, 0.026474711017337997, -0.08555238953039493, -0.0024047286355363645, 0.03655577224422006, 0.08359788884288581, 0.05859689641474442, -0.09434180254650684, -0.11165687563254188, -0.03566073950024924, -0.01124687383629212, 0.026699846376309865, 0.002350226052067415, -0.002289570128243261, -0.012126069641615575, 0.014631947293209538, -0.05453228873548846, -0.030994586950722696, -0.046829697058270614, -0.029131386910207058, 0.03962959472589052, -0.020524116514345186, 0.05833461206764857, -0.029958650719093965, -0.07038799218045812, -0.13458765718145338, -0.12193729006538097, -0.002388824721436046, 0.03791488541312633, 0.005929400686878113, -0.0070179990820714655, 0.11104042089585797, -0.045368784086243154, -0.03374549741614127, -0.007016431089431711, -0.03355270843758899, 0.009029365864195095, -0.0283344927633827, -0.005943360756900306, 0.013970290828507348, -0.0007216554997570688, -0.010193066703584419, 0.003794325167127642, 0.014508618208201844, -0.06245951576086829, -0.03410044666138263, 0.029918691713174538, 0.05280200004069214, 0.056902657453959005, -0.03135525194363811, 0.06992558646954664, 0.0406462654914611, -0.06786928606094039, -0.1146342294810496, -0.015862225562423664, 0.02654439529055909, -0.024495384914858958, -0.0422970818739609, -0.020776837551278734, 0.04541529908744302, -0.10000622299951202, -0.014054690426495273, -0.004034045757528515, -0.004941783584110066, 0.011580353781706776, -0.013822641648010225, -0.024662157541719434, -0.0019660720902012546, 0.004716017856340731, -0.0006510201546447309, 0.008122322023901719, -0.006408011789127944, -0.05811839938237987, -0.04149345620704924, 0.02189156823266782, 0.04839781105909195, 0.033667723290071734, -0.04569726768456297, 0.027092858852642048, -0.06752640595908606, -0.1628449732821883, -0.267043014800385, -0.05347749772342811, 0.07187789170223757, 0.007154235046094493, -0.12162426132768496, -0.06954442834436556, -0.007918431538763584, -0.07783250911192334, 0.10539533349193309, 0.0036462745807559166, -0.0034354734261485614, -0.022237991569155968, 0.005605454518088839, -0.004353230489260587, -0.0025194467037319423, 0.0022099867786369025, 0.003014000892190871, -0.01198802363845253, 0.0074849026399425745, -0.005149099263009237, -0.029033482452053717, -0.048944319030222914, -0.02527276849463211, 0.0021599929326548205, -0.020963179357340794, -0.03838307536295513, -0.08621350129151327, -0.13714963776224764, -0.14370783663525394, 0.06646488118728289, -0.0257255808408115, 0.12502020124458899, -0.08835601586576357, -0.05097165485274863, 0.10467019728994707, -0.005548003276358682, 0.032734954174725335, 0.02321485035609857, 0.025191499222092097, 0.021238805895943985, -0.00680442951691595, -0.014559140305889645, -0.011317321380886904, 0.0007315121806141534, -0.005648876630341715, -0.002818239176876792, 0.0037638931695390806, -0.01497123095095928, -0.0168194995681609, -0.03010918464114761, -0.02516684338398348, -0.029994934344919195, -0.0019006556860412097, -0.05139975701634683, -0.10862686481562706, -0.1062919399139203, -0.06820713604624627, 0.0467312435379508, 0.003769186183014091, 0.04621471431038267, 0.009742586886574481, 0.010689010130391856, 0.058735313069833595, -0.05443007764804804, -0.005958388690267047, 0.08707237931622137, 0.06399251285964459, 0.027079172234189167, -0.004922889442183466, 0.003909720924148417, -0.005513389994175323, 0.0006039418052685007, 0.0014067571666703505, -0.005926065630805108, -0.015491606538240643, -0.015305421782777424, -0.020137634419851887, -0.04626310040863642, -0.04855342983031047, -0.05874756132036197, -0.04778566862905436, -0.1043918685917132, -0.16831367695774338, -0.14797139388901118, -0.0813875024551612, 0.015706419201707997, -0.060400560114160055, -0.03572067629760276, 0.01872728834476306, -0.054253420822296325, 0.026583167395361578, 0.09791286638033665, 0.0513886064794713, 0.08264826440045876, -0.01279032311531803, -0.027954635290868474, -0.021662460488131922, -0.00783361597472698, 0.007429962765791647, 0.008161571625092845, 0.00552613771117836, -0.00017769445055576747, -0.003374246414816404, 0.0008708444076628089, -0.00630002627456601, -0.017221454671974838, -0.04765728183600455, -0.03782516764035008, -0.055053010887207154, -0.09062621898509875, -0.1476930971750106, -0.13709714639894088, -0.08950323763879488, 0.009194984928360317, -0.047255190321552024, -0.002077701816062396, 0.10304402493927119, 0.06230867304258512, 0.1662863590142499, 0.028826663896169613, 0.009282119381425669, 0.06496352152841706, -0.04645426367207424, -0.06453690834935656, -0.05235971712379889, 0.0019810956085297617, 0.006354077939602882, -0.008686366852454734, 0.01228704896854029, -0.0044511466209463555, -0.0026629441616220478, 0.003907523935190766, -0.009309432045727015, -0.011525216334532337, -0.019529419294542563, -0.026147504928640243, -0.03127316725580337, -0.05711278237373497, -0.08002826625560852, -0.11663953227989307, -0.10072946910641267, 0.10469503968596416, 0.09612576514980377, 0.028894908467306694, 0.1612201030699745, 0.11712680942278933, 0.10720293265478463, -0.07691702909021124, -0.12542927913014693, -0.039919705552656407, -0.06239399108911034, -0.049915391241512945, -0.02130575347606375, -0.006640740103163408, 0.005950243672016396, 0.007610511197197125, -0.002704585671656967, 0.0022313788683586237, 0.0026158297036320477, 0.005060240107157034, -0.008347237758015451, -0.015029384306325213, -0.02270273869826676, -0.016937386903286653, 0.0009494131597097831, -0.025730816259564793, -0.022926381848378547, -0.04080572980864544, -0.03243870776439672, 0.0849158554706716, -0.03236763434228608, 0.0573576987982564, -0.009798359644086716, 0.08150536544208796, 0.10349701026584932, -0.13958096542563578, -0.14739156286566077, -0.08583620088321209, -0.048000226371852514, -0.027096053044937174, 0.009583973472991572, -0.009080619788768365, 0.00907905012014462, -0.0067977205681008694, 0.0006416198447473873, -0.00542141705048916, 0.011504328978916865, 0.011312555967918133, -0.0011520753999535633, -0.0076631449299853155, -0.005727711794031579, -0.011714724499439107, -0.0048539014547540685, -0.0005416784773886325, -0.0307436081172676, -0.023685508167931843, -0.05584443294858484, -0.10401904205568727, -0.09335896978144623, -0.020572908118052253, -0.08347520556910529, -0.028311831853992026, -0.07023690431633932, -0.07890844547631061, -0.1186689430436148, -0.10023679618163443, -0.017993285844314595, -0.01807710404478725, -0.005234200432002373, -0.0030634584883137035, -8.158929091404025e-05, -0.003243635525918455, 0.002597025170928522, 0.0008077220519007158, -0.000764556427779419, 0.002054448777697335, 0.010153806171041042, -0.0016683766016635099, -0.003304085758297835, 0.0007572660603072743, -0.017949299771438335, 0.0038675785578971924, -0.001810444407907962, -0.01362602129166151, -0.014482818852163385, 0.009873446561687677, -0.020515761379641204, -0.016147997499556255, -0.006061476877434044, -0.021105335731776875, -0.02500589627273817, 0.0024543284565798256, 0.007216456371092864, -0.009301727022093158, -0.00485145904551704, 0.0005674866794125986, -0.0009401577966330304, -0.00048106217425996956, 0.0010711648101970487, -0.001637183888543562], [0.0033010781104817594, 0.0065980924033396835, -0.004178350285328658, -0.0024360216033347515, -8.948480209390818e-05, 0.0075167620687682, 0.005113010713714901, 0.005137761722129504, -0.005207054514290144, -0.0065333683865275854, 0.006674541262804818, -0.0013652097641487595, 0.0025050396393612273, 0.002330569635571425, -0.0007415791435800811, 0.006987337095926762, -0.003299711524589979, 0.005963240389910705, 0.000971751606271629, 0.0031389427117330376, 0.002044226280778065, -0.0017573752523396546, 0.0005707328141937414, -0.00013520067468979343, 0.006361175539683871, -0.002735751578048007, 0.0056401067145321155, -0.005260628892603861, -0.008147403880480119, -0.004023537466213789, -0.0027309154785242463, 0.0012368480404989196, -0.007346237499078758, 0.004773435242396128, 0.00520441026169056, -0.005435189300785655, 0.0068740587927662005, 0.014914471115686851, -0.004345057782900363, -0.0026147989194152624, -0.007787191736134281, 0.0005358297066034465, 0.005144625187528427, -0.0040292560382757065, 0.006970187886685077, 0.0018142907035906166, 0.006311934962969475, 0.005919248784023681, 0.006555513198041023, 0.005162965668786459, 0.006194785372482246, 0.011269055239410363, 0.0004894445526164147, 0.0010573324170649841, 0.007592942803768849, -9.30259356929568e-05, -0.0003485172875807636, -0.005095893966410984, -0.00015617786189562553, -0.0047546765430445705, 0.006686297367143817, -0.005234670499309016, 0.0089802880704959, 0.003425311478532151, -0.0008061227187280956, -0.0015078786834535856, 0.0024592748349428145, 0.00521010382909606, -0.0052446003808108614, -0.006494444191909188, -0.0062107885286326915, 0.0026207275536494086, -0.0030424051377013687, -0.006856503367978059, 0.0037659619787113233, 0.0019073864511205104, -0.004647898631502502, 0.00905790132860163, 0.004047501572705497, 0.0023821941565495886, 0.001947833710009304, 0.0041660854580866085, -0.006554443584590849, 0.0016570279577401382, 0.000918334369459143, -0.004797779712830409, 0.0021707196675588244, -0.0018993514084249769, 0.008932001353240149, -0.0034028593809093954, -0.009378876293766917, 0.0024767120541400304, 0.003906474840854814, 0.01174282621834229, 0.03391410255145456, 0.0077432469623897006, 0.006044943472640067, -0.04227075168777061, -0.06548861209965398, -0.024807651432634692, -0.03791816314158544, -0.01639835868967055, -0.00956054471660512, 0.012942822662438519, 0.013725305038243638, -0.006591237144370544, -0.014366510009706167, -0.0016669890386339713, -0.004251563215122736, -0.004046463928415542, -0.00016222247815488657, 0.0029196280850997984, 0.005798821174265009, -0.010228494665822669, -0.00607889017806507, -0.0038770002908092684, 0.007989293159768707, 0.014911252915880276, 0.013870063348323546, 0.02896104481568934, -0.00342465045560936, -0.044379429538678336, -0.0022912140235864516, 0.004686021138306114, -0.002902803889178695, -0.12594576652786393, -0.1742580274506676, -0.05747096035588764, 0.0011693528229454989, 0.06095877323693845, 0.0235204788141775, -0.021461034084757913, -0.027110818285324884, -0.04366463460984762, -0.009894417532252862, 0.014842345983362438, 0.026013746969048242, -0.00035947054253669686, 0.0004716221993880526, -0.006496165545315011, -0.0007316698037353701, 0.0003995785970114803, 0.001940150158505367, -1.591529503568151e-05, 0.015786809540856393, 0.04837003983694744, 0.028606084760052802, 0.0033296017691024494, 0.025530357755966696, 0.0012959550285667593, 0.027990627688862322, -0.031876817791053544, -0.09111295182043032, -0.12148548674743437, -0.17390568281848148, -0.07059454621195997, -0.0381283327217994, -0.11290325697479499, -0.07871266442800162, -0.0028244470229360687, 0.054197952908202, 0.06769796434165837, 0.12247536071039591, 0.09516462004707069, 0.04542415750209196, 0.00442604125226088, 0.0106975930670963, 0.005960532515055192, -0.005809138873748809, -0.010087214556828084, -0.012938653941425739, 0.03236432814423762, 0.06952449734850331, 0.05332041504196446, 0.06318157941628633, -0.00601972914697694, 0.032891594669323676, 0.11115308804634276, 0.09888574859744029, -0.020535721287306, 0.034273168432810544, 0.0789898267098042, 0.14045936236377973, 0.05491375925931559, 0.05532705619232772, 0.050959822834320594, 0.017019451592237448, -0.13294315174653926, 0.05954957822414386, 0.11707679998663957, 0.03607423903922223, 0.009978632005047663, 0.052767209944487865, 0.017693566150148356, 0.009171262289526817, -0.0030728074926810118, -0.0016844290170485064, 0.007701211431845858, -0.002570658253817643, 0.009262856257847521, 0.06781028703931376, 0.03770625750731454, 0.04970478922616234, 0.010509704703064636, 0.16279826970435723, 0.04238542364996287, 0.11938564531043541, 0.03824841011777508, 0.1782100447567731, 0.16037458558576653, 0.14133020248852793, 0.02658185527217743, 0.06600157652114014, -0.09133874296349068, -0.12513021558182943, -0.11953835668752655, 0.05945094398954408, 0.03326157675417287, -0.1049088218692565, -0.0783382253327712, 0.004636591194459559, -0.004885784962857253, -0.008800545464723504, -0.007075294497207785, 0.0074427282840000735, -0.0011823828675235214, -0.012229544763874103, -0.012556628018533703, 0.004988091020712328, -0.02474787967312942, -0.03274742019862626, -0.04926928346792887, 0.04651333617036027, -0.0046231611352788304, 0.03261378551789589, 0.10340060531074853, 0.1480986673805263, 0.14088768450302194, 0.13100980716934743, -0.03669778865339089, 0.05090200148517844, 0.010710943433309745, -0.07606759525081551, -0.05939148545707092, -0.09984174129302806, -0.061893144976346584, -0.08005109661986978, -0.05474310325384386, 0.017820694170671822, -0.03123229312557919, -0.005231325209345601, -0.0057014107343541015, 0.0003969622114443087, 0.004857112485422403, 0.0022378923147907473, 0.009886850636978792, 0.0087658294010847, -0.018358528734321627, -0.02352581777833565, 0.02565050761695064, 0.05417034896482922, 0.04845478158848626, 0.1672393099870411, 0.10131058818636107, 0.06610536328518701, 0.21340698312467235, 0.14758728919344025, 0.11015252937420365, -0.03787027637818671, -0.010550299676450808, 0.016962940572753972, -0.06649066938669418, -0.11698859949330245, -0.11508957461949697, -0.07083017408818965, -0.05640555618045357, 0.041886119483551094, 0.036204039200250976, 0.025535113655720098, 0.04509527084737478, 0.003761778587076513, -0.0017095325767105573, -0.010979180957092962, 0.04925085341162517, 0.0240975903518827, 0.0014771931698533815, 0.026812751844478608, 0.006840195550223395, 0.0857587580352573, 0.004065636821114346, 0.15384940765296862, 0.15187918033858844, 0.08212789547654546, 0.13675947037995909, 0.11162237660432182, 0.022276292181635446, 0.025459765743139677, 0.07256294099009418, -0.02191370855512744, -0.09231372865831648, -0.0471664709329154, -0.041918649151683765, -0.0398671616267978, 0.035225623434842666, 0.06963509570346789, 0.034301521468311, 0.0372200563004058, 0.013977136503897838, -0.019624992558682112, 0.00302705529356586, -0.005080040732350489, 0.02915098567022668, 0.047289755485135386, 0.04387296942617896, 0.037238615008048745, -0.04394445753718793, 0.05344082042522652, -0.04588965020694726, 0.05716561402607795, 0.17675152625183443, 0.05300737487280454, 0.09056427460081687, -0.10435588073427574, 0.026018329452581774, 0.034499908654170505, 0.055813406406231614, 0.08701435915289202, -0.105858607810621, 0.0017245836922763188, 0.0507624932867189, 0.049972221426647104, 0.13420670347457783, 0.027619024812868126, -0.00525193264809485, 0.016492279843901943, 0.0008732095071988274, -0.00822007997191694, 0.001472455966274565, 0.010860002880304476, 0.008357853360205192, 0.05286018764901436, 0.06385200195922769, 0.01044762671692729, 0.017367699794960598, 0.06260866351885286, 0.10456540809839485, -0.007533919788969063, -0.050532655087655066, -0.1372501287811993, -0.15484358551196717, -0.22822297280937784, -0.07914973872798164, -0.11236946722446445, 0.10846924981032185, 0.0031905918516232593, -0.06442060146694814, 0.05235345985084996, -0.0276878599381236, -0.006692206902902264, 0.061121051582212704, 0.0014169333889366689, -0.004405592521105808, 0.002113221819360762, 0.007792182688498749, 0.0055892171838141744, 0.0037753086911792447, -0.01710961798826225, -0.005040318015228129, 0.020431266933901758, 0.00426333331970643, -0.06215816733029464, 0.09573911176655268, -0.004923507889588696, 0.03619959457173685, -0.12341997536435524, -0.10995566453982966, -0.09614213839208757, 0.017683487434514936, -0.026940602316698134, -0.10889464860066644, -0.05521710609172487, 0.05247032149254991, 0.010333026720402568, -0.030107695131094025, -0.006678390162507166, -0.12344617935115808, -0.12355681115062221, -0.048496586906937346, -0.019698650020981, -0.018617191512310945, -0.0033619106312283487, -0.0021574344928134035, -0.003292203611260056, 0.0062517709899490145, 0.007427877568091719, 0.00545214592061339, -0.007774366356877554, -0.13942368731150978, -0.07450365539874797, 0.06049607541633524, 0.0007738278879868251, -0.07564390921302416, -0.08545860742874568, -0.04036570046434522, 0.008658080848639239, -0.0638225257823497, -0.14612881669737424, 0.05595066437435319, -0.05037487632023683, -0.07124645394877302, 0.0007949184592223137, -0.06337818398234607, -0.04433448556584969, -0.08096566615011597, -0.13054457611326875, -0.02674770084684285, -0.014539540216419296, -0.0030538243616727, -0.014326396412812744, 0.0007961668007158543, -0.00167834234192217, 0.0056768628949766505, 0.001589808981597676, -0.026121306695861685, -0.0529329500732081, -0.06984759466040678, -0.033592687223700936, 0.0005310021219241723, -0.013621401070586648, -0.025207947257422394, 0.015447400216425003, -0.040457669677984816, 0.012081878410395958, -0.12607957302711997, -0.10173052904088097, -0.08975427107290827, 0.011439562674269446, -0.0948501547732284, -0.10136812670979634, -0.09481982669866394, -0.019922997008297617, -0.056771940449967806, -0.11606482511806529, 0.029948804535517057, 0.047740251871622674, -0.025859439785526468, -0.020493405557060196, -0.0007216877964142315, 0.003835083997129386, -0.00556394955173237, 0.0031640269324190334, -0.0021345992706692167, -0.03143768187994707, -0.07189334968096724, -0.05739529281134824, -0.06829060246408908, 0.01107492096138185, -0.022173930360107837, 0.16659639882949906, 0.04888414070472514, -0.07352516339571302, 0.05396374350599389, -0.08453849299437831, -0.258219542136817, -0.1605662501593087, -0.10440950916650694, -0.05680753003624564, -0.05025792429025212, -0.1531490029003701, -0.026565103795327782, 0.026100539027984846, 0.03864243331599488, 0.04719601985136105, -0.019995377610987786, 0.0027506243302873254, -0.004957053824011443, -0.008215628322185444, 0.005053649686874722, 0.015817761054899127, 0.0019936639036982847, -0.03522032992222467, -0.05981834747788007, -0.06777454498835492, -0.03674848872632304, 0.020760874643827927, -0.03169749826914391, -0.0189603043394538, 0.0113444113603284, 0.19370679651837658, 0.0892829067094255, -0.1641261331294936, -0.23588970645145835, -0.17368835784446746, -0.04332481908531782, -0.04951321268880629, 0.033624525976635566, -0.07625956915225546, -0.04546314709969972, -0.030180732216078757, -0.03287112299845055, -0.013678987073934482, -0.012531491293982249, 0.000991100550613521, 0.001621724465765639, 0.004266710704978998, -0.0035487359365424355, 0.010941163350386909, 0.0005931640889652269, -0.01314105651031836, -0.054329529497583906, -0.09087466888248605, -0.08247627823372133, -0.1023918226367613, -0.10379322320964561, -0.11935698545515343, -0.06801947572352997, -0.009319759662767857, -0.21054996435984738, -0.23473821572446643, -0.25137423787034013, -0.1710673827202618, -0.0787505063294545, -0.06523855788915883, 0.006830018401731904, 0.013881917956437293, 0.03508158332638401, 0.07345540253427864, 0.024210694377060738, -0.05038269376044154, 0.00029819822798365974, -0.0015579806977432163, -4.727733220517091e-05, -0.00177130453559502, 0.006141769697169979, -0.008614995100990338, -0.005871058546760184, 0.0055235817097148325, -0.041745979872866726, -0.12764417031445127, -0.143702231490188, -0.1405448393717358, -0.18347206653872936, -0.28946729871982413, -0.26233801423223085, -0.2674488063042554, -0.3297601554822016, -0.2853143547772126, -0.19494852415645578, 0.026784928110851945, -0.03640948383005029, -0.02886350334956408, 0.0877763120729933, 0.07730237867173638, 0.0743567417712416, 0.10917820634905745, 0.015139916961549212, -0.040434499734875964, 0.003750545730300955, -0.0006939687798162617, 0.008261534014060356, -0.006850072209671192, -0.005979994235567995, -0.018627405930534146, -0.012832152807232905, 0.0005202451258839231, 0.021440828237980342, -0.065466542397412, -0.12363777550691732, -0.06841262972871998, -0.09764076244363164, -0.30717544018984194, -0.35247793642558434, -0.35996171349349515, -0.20385984292797557, -0.05397771231902806, -0.03935118302174116, 0.14744697829222975, 0.06340206228574241, 0.07024893443513015, 0.1470424880064224, 0.12142816346719475, 0.04683466049976602, 0.06263072749086174, 0.023235889582719323, 0.004397661785618512, 0.02225764444137202, -0.007356530008454501, 0.002498289208148871, 0.00565568118427613, 0.0048798411520874375, 0.0036847105552611603, 0.0006554343557836636, 0.017481655298457778, 0.0015003070155207277, -0.00828868802227615, -0.07304979454083582, -0.11191012189322791, -0.15341522090889115, -0.15799334874390736, -0.10623628473377084, -0.075402038837354, -0.032476015583311896, 0.05407530798578763, 0.10011878569122946, 0.07606895576286658, -0.04130582980308077, 0.035186766181424835, 0.009269809462662612, 0.13798403468778184, -0.061353059525959125, -0.014976499030922255, 0.013958558977079417, 0.009916657610817444, -0.002158196412852451, 0.0042227253381824014, -0.003610227870582292, -0.006585323838609142, 0.010368588925649673, 0.00045624750910368235, 0.010958355969000603, 0.023258499163150207, 0.01919152641591438, 0.012004324029378196, -0.0973133780740827, -0.06817338062133821, -0.10323276356610799, -0.007539015768605226, 0.08334678101391096, 0.10216716300084486, -0.009483548957647352, 0.04873278196479664, -0.00561175804099139, -0.03710711948908054, -0.06939815258052191, -0.03380758369350953, -0.09793233517605213, 0.015445912734984104, -0.07612734179898052, 0.00048583404132176094, 0.03236656891528425, 0.00035225611661926867, -0.003874847389409314, -0.01044762932521636, 0.0005721457473770087, -0.007870715232456344, -8.414656122841623e-05, -0.01361389474968154, 0.00824004920459092, 0.04220940288434324, 0.023307151291178278, 0.053202474591064135, -0.019983461447446196, -0.037452101890141316, 0.06319842897340366, 0.16575435872554037, 0.20236836027807237, 0.02367948047035235, 0.06818022261551468, 0.022753467587779637, 0.028843770715264883, -0.04247980195084108, 0.031839483843454884, -0.012459938264461921, -0.10101308269999376, 0.049733450676431284, -0.015977867450648605, 0.0431555171095756, 0.05705516148018203, 0.03321202017696509, -0.004692386794067099, -0.0047551957237273075, 0.0004278855153993486, 0.004966625775641984, 0.01023856061142943, -0.005092164022216542, 0.008189604253930022, 0.017408545018977928, 0.018200227360090682, 0.09069593456333509, 0.06274025713651328, 0.0273432143614204, 0.1703631512488061, 0.25420526306243063, -0.014927503193728637, -0.022408245606082535, 0.11738347111293299, 0.1545294974303238, 0.06930907348140915, 0.05750317416468862, 0.10030384422436327, -0.06818742563169496, -0.02188391423718975, 0.0006320406091909291, 0.01285896070236385, 0.062339780069976335, 0.06593728251647758, 0.037670283836798435, -0.006574262261163792, -0.006977324297291723, 0.0008455885234852865, 0.012417737009281159, 0.003632529583329669, -0.005633372014106959, -0.0065845685144988115, 0.0016137356699803679, 0.04613271103071221, 0.08450481492746732, 0.06578459029416119, 0.0666657758955562, 0.1186057406341637, 0.15907928097885687, 0.07970963187070498, 0.03111701707576792, 0.04852917421087498, -0.027860122307652804, 0.02161052176691288, 0.11399462403328943, 0.13772265598515163, 0.07076328998932048, 0.1799860395860741, 0.12158921813198428, 0.07538155578231805, 0.06231862467249691, 0.026425382464285056, 0.012015871520560365, -0.003916816387765644, -0.0009505053964773693, -0.010172517296568947, -0.00016884356425266833, -0.0005339007102795784, 0.008998534802863372, 0.0023643606003528566, 0.009574433189226047, 0.021025910537475986, 0.04574519895212071, 0.027897280937039165, 0.03818496470893186, 0.028520124625546515, 0.013231086732910438, 0.023615136236359004, 0.05341397963083014, 0.08290814651180456, 0.1328913423547717, 0.11469107640150308, 0.11578505142797893, 0.07301324864793135, 0.05869142447535734, 0.05908818792315582, 0.07322061537219825, 0.05437144945593795, 0.006220499431062872, -0.004473900247350983, 0.00010705394474255435, 0.0015576901912550667, -0.003731025749687816, 0.002993012739205795, 0.0015851717841182732, 0.00011096261602748811, -0.007098005167127511, -0.0013211341519732088, 0.0036169357230328015, 0.006623260792828737, 0.008639996413998798, 0.029879249589762458, 0.02040348160438597, -0.002342159018472199, -0.003916382283411167, -0.009839709340639335, -0.0007279248903714756, 0.0059907278621895085, 0.021089811764805382, 0.009208940374954159, -0.005014918904980463, -0.0033983126300796453, 0.008210412269372028, 0.000353554256171447, -0.0040304025555320385, 0.001966002866716657, -0.009409320983628882, 0.0005733666293311619, 0.004986281387564481, -0.00023438470953351985, 0.002643961807311193, 0.00015321389922633835], [-0.0024261458806408196, -0.004880197182746432, -0.0047962563312357225, 0.007301804809196313, -0.010085928049984167, 0.004133961241132759, -0.00034350080680640196, 0.00514664004189583, -0.0008287422454854435, -0.005206613377106008, 0.006260172337026423, 0.001176964172855934, -0.0029052978094646297, -0.002386735660669981, -0.004314944771508204, -0.004211559175745055, -0.006115685835495894, 0.008841591591890418, 0.0034233893641922902, -0.006362652335369973, -0.0023500877937800324, -0.002661502823883506, 0.003117215118315985, -0.005777362499779852, -0.0010673471896350299, -0.004439224472540474, 0.010578424732646086, -0.00075842787022731, -0.005226389195036297, 0.009849882992862604, 0.006364565316858445, 0.008309351257818379, -0.0113956117443712, 0.009241271357039, 0.0001799890048320131, -0.006012647236916358, -0.002415793527491979, 0.0022361589542357146, 0.004249271891468464, 0.0004640417479468694, -0.0012712540144104736, 0.004555873877629723, -0.006087017246200596, -0.015643353783813436, -0.01741196096379875, -0.002354540854516333, -0.009506037585575201, -0.0031905262986489324, -0.013300763168627076, -0.0007616518412910621, -0.0018713888592574487, -0.0005885869101628322, 0.0020049019243206117, -0.0034176654691496213, 0.007507399712040933, -0.010409824085674603, -0.012670073879402397, -0.003736768315546945, -0.006657726050842038, -0.0062932748856239845, -0.009883732563945561, -0.0006124205432081035, -0.006270405273642502, -0.0031897791133561346, -0.0011662263568214238, -0.0019695352547018197, 0.007471644250351709, -0.009243447085345226, -0.015213638586916033, -0.01717055310752864, -0.022895496687521513, -0.034798977913905196, -0.029732912750746427, -0.03311282297870855, -0.03562753297002545, -0.004004309905835009, -0.017680561229167495, -0.02017694800827918, -0.009221203965481687, -0.0005480908665478345, 0.008109937593839439, -0.0009448988862198624, -0.0030279288610065426, 0.0014409516176251828, 0.00255891110482699, -0.008201644089442205, 0.006508329540680644, -0.003048703481381168, -0.01378473003356287, 0.005857045494229378, -0.004740695643165991, -0.008329566183243462, -0.01611517553967065, -0.025115795483595972, -0.012175998161421925, 0.006233305821201475, 0.015638235572413187, -0.003941159652127695, 0.0031302563786328235, -0.006515968516313021, -0.011466089315207139, -0.014721007062292468, -0.01043701397200335, -0.03574912497027374, -0.04887183422098461, -0.045654622670485374, -0.019119650137540987, -0.005916641825436176, 0.004001254821467389, -0.010380595897089263, 0.011976313432776796, -0.0029023090024005434, 0.004833032741280048, -0.003267279170060893, 0.0002548451593474366, 0.004725035949898333, -0.001126473998464438, -0.010352668524702832, 0.004531165396335499, 0.0102740647898526, 0.03798489518329848, 0.08795611177600722, 0.13612011331141272, 0.07599724504529336, 0.0656343468795611, 0.03285150032618911, 0.0028149002933540892, 0.03696781023451135, 0.09729549057821797, 0.041379650108936156, 0.05193309328031224, 0.012856552610221273, -0.011007858521328392, -0.018997548362580254, -0.0015789622166819915, 0.004401747705991964, 0.006193939539868183, 0.010648773845609508, -0.001754614612270466, -0.0025370173657054806, 0.0014609762526215985, -0.006301326425019238, -0.00856081447412171, -0.0018190759051527504, 0.0034132364967273273, 0.02319230757967349, 0.02705297456943758, 0.04462362563125767, 0.0381782938681476, 0.0381203979857777, 0.11843232657794071, 0.06046806627361058, 0.014824329429808816, -0.02533072751378529, -0.06082686698328951, -0.05494588324083966, 0.12997496607164474, 0.1258802245378485, 0.09533398760003794, 0.10521625755254223, 0.04688052837661949, -0.012149865819144377, 0.0007258305730036963, -0.012922523559155078, -0.0034250537221696283, -0.0003831329982655261, 0.0007530295375005891, 0.00010628087680955383, -0.0018551985374486795, 0.0029750465904746924, 0.0003211976720216364, 0.01524112174561741, 0.0026887088007642723, 0.026421182855847925, 0.020383299652902243, 0.0395261501368168, 0.024015489054821246, 0.025413215138336068, 0.11008755260484256, 0.02165344465182179, 0.0588537836506222, 0.042229130617492276, -0.025410941346459784, -0.006331970214057498, -0.08144090953859998, -0.02161770507113259, 0.05415431110215432, 0.09054395362610884, 0.07696810292194267, 0.037381297969666466, -0.02084736231034514, 0.007292791971423902, 0.0015423780331525348, 0.0005522026523330138, 0.011119362866215579, 0.01168394781931511, 0.0038438785439895732, 0.007323203718054506, -0.010887290833705246, -0.0038899586595602304, 0.0012329456054614599, 0.011729051816603945, -0.02185308250246287, -0.029085789867515376, -0.04047392961145865, -0.05016175936235776, 0.0408965192099668, 0.09212019480528169, 0.04083999497275986, 0.05629728288659688, 0.01119657399073056, 0.01609591955219562, -0.05661509543788477, -0.0419256179790233, 0.020196665442785717, 0.010418322118533132, 0.0019420228950332405, 0.027679010164363634, -0.061083462713591434, -0.04585935332716858, 0.015762709427249697, 0.0029066902909257652, 0.013877530606308086, 0.005992271900219363, 0.007573955458526929, -0.0006108644923581361, -0.02025725202454653, -0.021994703280587887, -0.033197236015433194, -0.03012494253514985, -0.05892452319073944, -0.03323631045747934, -0.09302098884500508, -0.04069037115172781, -0.037707475838268015, 0.06642101103788574, 0.1819271234370157, 0.1643004855632588, -0.041911758290784966, -0.21227189399653965, -0.05533098184769784, 0.06214390314748529, 0.07676722592536817, 0.08339384484315181, -0.03541603975579407, 0.03358391389783944, 0.029442482370142648, -0.06324149517821012, -0.011987907333820743, 0.04456836641134131, 0.01770283555448356, 0.005157310038043398, 0.0038359928980851513, 0.0018872354345914977, -0.02186169015263538, -0.0315377979778009, -0.05145790621226094, -0.029204287359982806, -0.010835506703354123, -0.019847141410256623, 0.018736704662252184, -0.027806693775727306, -0.08666118738776744, 0.04776418537066308, 0.06298512884933304, 0.023618831803355837, -0.03272829679325787, -0.06606640204562218, 0.0916093857322457, 0.08152327486521647, 0.042793532200221876, 0.0519239590377437, 0.0017527044861632111, 0.02419297946708155, 0.056526759488494165, 0.016781801655594418, -0.002919705768690887, 0.057722096934831026, 0.017598240241816172, 0.0010698882232955868, -0.0034899750895126262, -0.0030687850954004676, -0.03682043613574383, 0.013396104650714944, -0.030795543039844532, -0.032366177028912965, 0.03236066607407807, 0.029796794534603356, 0.09869621446737016, 0.011327428042559998, -0.07738770524865694, -0.04442343538668291, 0.04147742231603104, 0.09755978119310645, 0.06470620285035818, -0.005138494143832754, 0.10520671786274897, 0.144931289199535, 0.10829783125224944, 0.11275070972278203, 0.07637876029179042, 0.008816273362469715, 0.047618069890073146, 0.0579646120960759, 0.033560002508886654, 0.03214998948243987, 0.020284277126088657, -0.0007510801396077314, -0.005158705568470706, 0.0016203385276823254, -0.023241242360605804, 0.0010254040591373063, -0.030535936667939384, 0.006929829919593639, 0.02949035309971862, -0.0014758777278986207, 0.045774203462382354, -0.005870212936041809, -0.10993831642045215, -0.0687014258510183, -0.010798468254449948, -0.00823625190493377, 0.025152928727140877, 0.02319634377264659, 0.14616783764224767, 0.1258071647817105, 0.09416222332341267, 0.08310934615961428, 0.04448017646269005, 0.031158400295556887, 0.0361830075930323, -0.015567086681724822, 0.007363554823617217, 0.028172576319508473, 0.005390490913183492, 0.003965258024599252, 0.011187250684462564, 0.000952157783872868, -0.013997828335956735, -0.03191825592453026, -0.05754398025619124, 0.009930684068153398, 0.007491980499631971, 0.004898680935443324, 0.0005275404967365296, -0.03369121202788777, 0.05390495682804535, 0.029790132985237718, 0.022175599590672525, -0.030523840346572195, 0.05417581970842699, 0.11436725961671859, 0.09600196905940941, 0.04103384095587538, 0.027778772395312366, -0.028425360554984052, -0.020034072348605332, 0.04981991249701755, -0.06417367958022267, -0.06852865276150183, -0.02291789140420315, 0.0065885105329953385, 0.01412829316151516, 0.004878438610694985, 0.002774331436395676, 0.003645296620336084, -0.01678138695911414, -0.024353533948511388, -0.0891651005338042, -0.03697035024427753, -0.01650958500440469, -0.035658001210941974, -0.003729088580082601, -0.049780269685864915, -0.062154917337571926, -0.07282679424810466, -0.047989685874253764, 0.007621702387533212, 0.09495710221476202, 0.0405255463928347, -0.0228505700455591, -0.08189812488937731, -0.026534227822066304, -0.08066962613642067, -0.03076542019164586, -0.037397291204605373, -0.08437206621024754, -0.054658464616266236, -0.030914093421953035, 0.011023740275631865, 0.0102489631307944, -0.009530960955440884, -0.0022833227888105533, -0.006138097629109398, -0.004436838746996894, -0.04768631422419392, -0.07451188149104805, -0.06268464049115531, -0.08821041471821935, -0.08217784298436913, -0.07608683984558962, -0.08867396382618019, -0.07335324419739431, -0.05170915435414919, -0.001349701885830054, 0.08663429988922154, 0.15681849468581813, 0.12911373402529797, -0.056298382370603466, -0.11746086188345231, -0.0814927921796671, -0.12041345290710635, -0.07006116097774778, -0.033732898857585056, -0.044532071546072596, -0.04633665963444596, -0.01528653695386596, -0.009370956018746317, -0.013411072843644156, -0.001119646757107642, 0.001976816297727575, 0.00408210110154258, 0.01293204872979722, -0.04132422262706866, -0.053421474571361934, -0.05620309448268858, -0.057875964894903695, -0.05034960097017113, -0.007690013083968202, -0.049077027040182714, -0.07452515211152051, -0.056928871404815805, 0.02246235526948005, 0.14438285487805935, 0.2875383882621614, 0.20154649375656603, 0.062381883914932025, -0.06526174341666573, -0.1381437028876412, -0.08187893203423949, -0.0738039035108878, -0.05847556524861045, -0.02894077181306362, -0.027576688080746828, -0.009748431364651517, -0.008992419673692999, 0.002464594297736211, 0.0017402113596452753, 0.002320948657280964, 0.009159259521377715, 0.03044360065538248, 0.020860541508465415, -0.039696361749642396, -0.036325545098546214, -0.07282972715932391, -0.05365592780835084, -0.027306932214194793, 0.016096039572633333, -0.04457372969254819, -0.07025480180567287, 0.032033436545769255, 0.19425145843765199, 0.18993945783677602, 0.10138435927627687, -0.08350504182259667, -0.18725477862007325, -0.1418163888378409, -0.09228503861399359, -0.09394204939347628, -0.06962979301229193, -0.05018179984497775, -0.009751121710079262, 0.026466646675236825, -0.00265239939989273, 0.017033574499192877, 0.0034602803645268827, 0.00622881424577809, 0.001649552028304122, 0.03729951453775062, 0.05870154322626065, 0.02199788365440357, -0.015307714864327592, -0.03331104407828699, 0.013877704897122173, 0.0086545030161727, 0.0012053721275416933, -0.007969168999474932, 0.020850076983686083, 0.15599774531534857, 0.23089566693457259, 0.0975142767698509, -0.034451815244421514, -0.1914208664175234, -0.21471717700348938, -0.19877344481784437, 0.02755006587496683, -0.08419407225387113, 0.006176608415079454, -0.02861773713637434, 0.04124683391291831, 0.02665897635225046, -0.01033492928693754, -0.003906364667835758, 0.0002917315909109965, 0.010470438005573778, -0.0003146163834569011, 0.020893069797877847, 0.05291767976535178, 0.04366714975219977, 0.013835239000463134, -0.04599665503357935, -0.01892308407122643, 0.07169419254731113, 0.10148050085045075, 0.10895718060376176, 0.1152673620844877, 0.26430639227726105, 0.28569864916049037, -0.056038707096281636, -0.16700607698008102, -0.1829284603536956, -0.12994583784805996, -0.1045297216135694, -0.053897888619182766, -0.05553046782170619, 0.034041103694836275, 0.08915125634422053, 0.09992218609349379, 0.01816930265992662, -0.02981429944548371, -0.003997330173608039, 0.0002976265714012831, -0.007190709049865822, 0.012019450895323905, -0.003123548147072521, 0.02531299647750354, 0.01577606521787597, 6.995701535253503e-05, 0.010239863073072725, 0.003169166251723421, 0.06189020877620836, 0.08583980199079407, 0.17008990489303655, 0.10649807813553631, 0.17746064639814574, 0.18430936173732107, -0.05037864606507138, -0.24741230902264905, -0.12636944912237214, 0.006550220216840963, -0.007944738062000627, -0.096927193039878, 0.0411898774313498, 0.0951861933264995, 0.14682931623166817, 0.08444245472490351, 0.01289877533381596, -0.018226266383950116, -0.004592149183990132, 0.007634000998345412, 0.010711282154288883, 0.006463221532167563, -0.03052951234041987, 0.017491795496374665, 0.02880041380241521, -0.03946492906687557, -0.012590030790271956, 0.05370543470604353, 0.02567994420520567, 0.09288665676617944, 0.15086643352966986, 0.12092948431173557, 0.11651829563815419, 0.09270595569646607, -0.12455835770859335, -0.1883679060024599, -0.05363155140494228, 0.026804794241777515, 0.006427585020826663, 0.04963236381565685, 0.1566763684305791, 0.14493035752352604, 0.11952993889993183, 0.08028614753277974, -0.00020080180967458326, -0.0024681973448265077, -0.0025601564244238316, 0.0015793768470850568, -0.009398092316184097, -0.0022018172097540848, -0.029309365252494172, 0.003769808247450815, 0.03445748239726726, -0.00315302343325286, -0.013304650527109229, 0.11257833258745285, 0.08575473148778885, 0.08591847035829989, 0.04076098030514139, 0.05275701433063834, 0.034867000731613175, 0.038625553057088556, -0.1056596841385031, -0.1380723011525329, -0.10052666834068191, 0.024611471951802123, 0.056178906911212585, 0.030735353631404456, 0.09771841619737066, 0.11520054647840304, 0.10807464133576704, 0.04207921133493543, -0.0015478419306949587, 0.0009810164629359597, 0.002882041384779672, -0.005711221638897646, 0.0066790125644587955, -0.00416036435866923, 0.00334916845245904, 0.02269828488771594, 0.03297245911897048, 0.05591914222649576, 0.06103712283291201, 0.058439941873874184, 0.030627660439603088, 0.03824747001055446, 0.059494173354868146, 0.0027418641787496354, -0.0663239680922313, -0.07777151818096102, -0.06659183616244424, -0.09625785499431942, -0.02688587243051768, -0.08189002187048434, 0.00015418488124158258, 0.05188401840156658, 0.048301018378970044, 0.06857953996919787, 0.07290530309315432, 0.03148184196639239, -0.007193005337802851, -0.012669826515539565, 0.0030186148776703355, -0.012053386285880196, -0.008765290849327546, -0.006306517671908652, 0.006081145113641753, 0.02581619771242581, 0.05554125613362302, 0.0626834947308936, 0.013933036585433132, 0.026643493701815076, 0.042283016445850634, 0.05264194943788416, -0.02492371949139111, 0.0006197433662983974, -0.06621985204694171, 0.032066540574463794, -0.059881553887544195, -0.074299077644971, -0.05623053733713379, 0.0035647774320953242, 0.054632559972210865, 0.011894490041410232, -0.01947365958317504, -0.0401188809521803, -0.007136798455905071, 0.018835167745641593, 0.017048404033964577, -0.002606425287656646, -0.0019014776995610056, -0.002278087940257228, -0.006018842767840767, -0.0006933248043710284, 0.009452276961253787, 0.009177222935268872, 0.010840587176415086, 0.05810767349677559, 0.106893142072558, 0.06018168767385534, 0.024842740550056492, 0.0313212640477463, -0.024976572520054606, -0.03332332545916922, -0.036582977373752004, 0.0035036628221554625, 0.015143663165346825, -0.08643189678790526, -0.018553948346065923, 0.0190549072683784, 0.0016310658936111247, -0.04980550086367286, -0.07548005999579505, -0.02442059094468849, 0.00434540305181649, 0.027515310733349955, 0.017638508160346938, 0.004968673516116871, -0.008221106117595295, 0.0046911834582071855, 0.006057505808609006, -0.006073876867934825, 0.0017283106724035656, -0.005128682247085752, 0.002295209970687873, 0.05496445713856208, 0.08032108180352598, 0.08413912800245901, 0.07735279619543675, 0.09282086164921276, 0.15189412971278154, 0.03859563901312194, -0.00905248154645735, 0.11688108440501577, 0.02860404230830649, -0.06681668500787527, -0.03316905963466915, -0.030154503769414864, -0.04041557396734398, -0.03291303292628827, -0.05695856748162383, -0.0383378928059757, -0.014154528016375751, 0.012550986275688954, 0.012911255534274085, 0.0005660752771134871, -0.0014351702832894558, 0.008914038445721145, -0.003988348193668256, 0.0005149162629367336, -0.010212482336586084, 0.011150898360303927, 0.002845895329450153, 0.019156454030182377, 0.02686287884760164, -0.016223680841831657, -0.017064581159886537, -0.05702170604600788, -0.031328205606710284, 0.048803976947130456, 0.04952056448960224, 0.008326837505948795, -0.03872660551038561, -0.03812313180898897, 0.0014869785212494617, 0.00589304076330261, -0.013689965366166755, -0.021749249910015468, -0.03132557415463922, -0.03258433321291002, -0.0008407380779830492, -0.0032325359981460705, -0.007585426708719016, -0.002182535451218788, 0.009202945456026141, -0.004529579095941765, 0.0066538330252891905, -0.001492727724970798, 0.0031778636329347246, 0.00707693317589177, -0.006368636223160269, -0.004127672229542078, -0.007163571609931177, -0.01050903606621326, -0.0029180419783025008, -0.00439214339219051, -0.016386929068793292, -0.008433028355420584, -0.00161428641218977, -0.013088673651726503, -0.018562324321705837, 0.004159253531272698, -0.0005689207575751754, 0.0009790268214652715, -0.006914438448072207, -0.007605325037722574, -0.004765865200757339, -0.024964841549126288, -0.010590998082155684, -0.0035830060655916117, 0.0013717311707996845, -0.014701473786312903, 0.0014137400706667096, -0.00485650246841737], [0.0005742618984690129, -0.003248513876351963, 0.0008861945301263162, 0.008352658189414221, -0.0002385417780630482, -0.012172501321669894, 0.019111944717822058, -0.005842808045361056, 0.0009376195028897086, 0.006681697987362807, 0.0037247999323053883, -0.008577480224828559, -0.0120635620993013, 0.011601213499838546, -0.001987317456897097, 0.004515795809412833, -0.015180149182632153, -0.001329385702924775, 0.0040330219135940315, 0.0014404990958901036, -0.003582415669069479, -0.004756071590118216, -0.0006319500530715914, 0.0018314322651789674, 0.0065172126010033535, 0.0028472406908096382, -0.00011093971051366361, 0.001486941937032723, 0.00908463887437682, -0.0030136293602036767, -0.004669867764979883, 8.732077189326821e-05, 0.0028255929770235736, -0.0030256530924208944, 0.007501054406884725, 0.007362612946297059, 0.0031583750659343202, 0.0033212373675849454, -0.0013998643772299068, -0.0017927960935586187, -0.002451727250720028, 0.0008599048690037139, -0.00605193382846067, 0.006776319250285159, 0.005583617920536013, -0.013371067868546093, 0.0036998358154067307, -0.0026645045375410913, 0.002293661851907516, 0.008237000570551696, 0.0017711330199836669, 0.002598731873707363, -0.006502915542228432, 0.006498777566410946, -0.003200290234948007, -0.0001706269217450989, -0.006942811989985254, -0.020771574554034025, 0.007843269106486977, -0.004589058430672, 0.006897079912282827, 0.005517617670542849, -0.0026527577854733066, -0.01173104459151242, -0.005709591910669496, 0.005416760784368081, -0.007148072021574189, -0.0029766282107696823, -0.0025137560954665264, -0.017037404303626037, -0.029412461722619538, -0.01758994141879673, -0.012390964701015049, -0.005804409833900447, -0.014689954261452033, -0.0036302034354117672, 0.0016743868854624192, 0.006847937826670258, -0.00503044342222874, -0.003147240328957381, -0.008178741864208035, 0.0022519516588093594, -0.00028389784219322707, -0.006529962323319816, -0.002137386332414245, 0.004170154888230485, 0.002460946552955249, 0.003439505292021753, -0.0008691871301407755, 0.00531999262644999, 0.005732212429958516, 0.015730949844109172, -0.003083195517684306, -0.0059551697790424666, -0.006866007027463258, -0.011385923614037423, -0.005958037931435275, -0.011113394215365453, -0.0009926967482301445, 0.03820907822407548, 0.021746583414721618, -0.009810406758872528, 0.0020784029446375917, -0.014336562757099618, 0.014506980904481296, 0.006750533370907186, -0.0050965443902848415, -0.011814081195312373, 0.008644418284596743, 0.0008695995304447145, 0.012214598929067424, 0.00796780580980916, 0.0019670587629482842, 0.00241510462991148, 0.014933079968054798, 0.0032479081182145305, -0.0018541082899187831, 0.008983055232547483, -0.0011870783041742535, -0.007486447134578334, -0.0013441391296716008, -0.020299827676074293, -0.02593396800871007, 0.012214928618873034, 0.017892286818505666, 0.0077958537017987365, -0.018011277927668004, 0.04848081964524216, 0.017587668281293017, -0.036935711078299654, -0.015128900295839435, -0.0269384250548959, 0.0012226814967667406, 0.018681461918572895, -0.01025719025217174, -0.028002381861122232, -0.010354385514464558, -0.00030417296400285374, 0.0005916062471923448, 0.012864777249595019, -0.0031683565479097473, -0.0011721975673131045, -0.004360566462155791, -0.0016499330538607988, 0.017363203221115762, 0.049966036280140125, 0.04782724831469437, 0.022247983623020738, -0.058559990712688775, -0.08440502506330261, -0.024316064196224316, 0.07622435464996005, 0.03087272285406704, 0.03460759691205352, -0.029201616972924872, 0.10880048922967822, 0.09857893433259911, 0.10316881479139994, 0.13816909879261716, 0.07613360399329486, 0.1082042971285805, 0.052924224900111894, 0.05388637234478622, 0.011116431012502342, 0.009093121967976263, 0.025285693420280694, 0.021585337896109873, 0.017573816887663414, -0.002626678770218303, -0.00306857530682998, 0.002605117990749593, 0.008790796732242675, 0.005486627199780572, -0.026578227610172308, 0.03411780878068426, -0.036181503465123, -0.0422862325601477, -0.00014181107661482206, -0.023317846540238742, -0.013216702226868434, -0.08298832972059848, -0.043108891794064574, -0.011396467807161585, 0.005890109338133164, 0.12066451853608978, 0.027218357241006182, 0.06188744255173715, 0.058541120200881355, 0.10561664530830751, -0.012555084065994752, 0.03577608051709192, 0.03766371920699988, 0.0702018464803331, 0.05491332275900798, 0.011443632803766418, 0.0012821984367873145, 0.0034317158222965894, -0.017040416567980728, -0.008629906261264923, -0.022395167112009968, -0.010940665456537827, -0.04784979028449609, -0.05745960281999835, -0.11968740926161449, -0.05786904564958884, -0.09207165267530022, -0.062003395107916984, -0.05033440823276275, 0.034624770763007094, 0.06248663022867915, 0.07257959208284312, 0.1785575642381787, 0.1016379245026332, 0.028054185992108713, 0.049374478040800404, 0.07143947417336019, 0.0969388232186752, 0.07005543072412282, 0.006815014505689504, 0.024841581416568444, 0.05428616327552745, 0.05246765024212035, 0.0007066220242606076, -0.0013497470058385437, 0.002076887650968045, 0.006069804778839695, -0.03564080637071715, -0.0410624548037071, -0.054286863993372556, -0.041825228171550426, -0.006552754932577182, -0.0392208455024879, -0.0077712838635744476, 0.04980283546705946, 0.053665156484703117, 0.03199381590422387, 0.07067900070276131, 0.16523748580922998, 0.03495391731345121, -0.11057543711875883, 0.12066132142461089, 0.013465018697694824, 0.06964602574178494, 0.1023984635765019, 0.0868318866617013, 0.14071388936820423, 0.10025785692696293, 0.03227626989540206, 0.08701319172703482, 0.0664568446063541, 0.02606103238349873, 0.010815208990206599, 0.0031603907317500845, 0.0027395048881533983, -0.03330466641696658, -0.04413266523018483, -0.0426375935049947, -0.09196152908665674, -0.07092314668565279, -0.0009552298220991813, -0.010383167165554506, -0.007562435143634947, 0.129437982963127, 0.13151643792564785, 0.009788442842023876, 0.1028794254486203, -0.09963362105095715, -0.08699565386181413, 0.081412361378886, -0.02559347243435645, -0.027180344194445073, -0.07799071928400503, -0.019690273675827125, 0.05531675657574146, 0.07731754582362206, 0.11966478122929207, 0.12672832477008755, 0.07889624321669142, 0.030423746725218182, -0.00038764073018048825, 0.01006162815272758, -0.010864450235909658, -0.02213220038440027, -0.0028284651903683453, -0.03432981013259825, -0.08526396954484393, -0.10657013621456675, -0.06638291422507236, 0.07475060208959425, 0.12145244811437314, 0.12845159103352038, 0.11455236704327774, 0.06497023499566286, -0.037968185442061146, 0.11346142684422775, -0.00495840001960938, 0.09315457693002831, -0.028724923157521662, -0.005142145246611831, -0.051717766755934445, -0.01231151532970127, -0.03620445883109404, 0.05715735619983403, 0.12288102583809948, 0.13753653759407544, 0.09534756966556113, 0.02865811302189085, 0.009698811097161123, 0.010701476199937592, -0.00554292159313134, -0.01410437753455793, -0.016869370175278165, -0.02960987204097002, -0.055581345936687496, -0.06507760458964106, -0.023342643223943978, 0.10513724089943005, -0.08134786911142078, -0.16910160849132033, -0.01853918573288154, 0.08575450904670841, 0.26714891117427453, 0.17927448099328147, 0.1313190849948357, 0.059689774816693644, 0.02095851994686325, -0.008946344173428758, -0.19536012820440365, -0.1709620048509872, -0.13233008866978543, -0.020653800577984497, 0.02214764026476401, 0.05305310090088659, 0.048514913756312, 0.014705588999779556, 0.0007384446804555094, 0.00239489253857701, -0.0016950656294088763, -0.022908837890702822, -0.046598338232355346, -0.042019593601025355, -0.03613338433320507, -0.021288751902867154, -0.01773440675706879, 0.0316705838009367, -0.00983082081633299, -0.07333805633676878, 0.20512655682963815, 0.16436396430657804, 0.233113087419695, 0.28563957016759933, -0.006854018593003919, -0.07570314788897131, 0.000274652737698683, -0.1354111605816574, -0.22654352588389653, -0.2549838528190034, -0.20354048632083532, -0.1059385135720559, -0.002424832765639806, -0.0051338130018686624, 0.017122495387632417, 0.007182774794752248, 0.0035516224000146056, 0.0010907457809153343, 0.0037998581268037577, -0.013957078533086151, -0.01641669314095197, -0.030593337357829084, -0.02174394980432363, 0.005826933438865948, 0.013753436118599536, 0.0061344793066819645, -0.030301109028400452, -0.1251528795270442, 0.0012494619611278844, 0.14112484226058938, 0.17868271371085245, 0.12623704560293664, -0.10412257891154567, -0.10286184182412937, -0.17669667763418231, -0.10477951324761897, -0.12742641549188533, -0.22734763922879656, -0.17975226533978478, -0.1025161735062416, 0.006714268557857239, -0.0006920379469373641, -0.001332735800722631, 0.004821793519915213, 0.010912961075869459, 0.0006686327970015516, -0.004177110035325874, -0.00909183405635835, -0.00438135296660158, 0.026100451944526447, -0.029135364229278014, -0.007074505604802992, 0.026587039499711494, -0.018537390787244323, 0.002239137580480882, -0.10097590896683238, 0.002258671097805348, 0.18456935225680177, 0.1703678021433214, -0.0386393233370532, -0.11769311857390444, -0.14179045004794721, -0.1786794396923763, -0.08058339362462773, -0.1286925032145502, -0.06668636911957977, -0.1135658471958412, -0.08559521297163615, -0.023136542409811917, 0.015628827324704015, 0.008323132794450083, 0.010247769572445447, 0.0019032885740148334, -0.0006253787023404107, 0.011137821097816157, -0.0011953054906847032, -0.015091966499619617, 0.016194265855930624, 0.07526942415182056, 0.0031578192751902886, -0.010468915011849772, -0.026165282992835506, -0.07332574214096656, 0.041473373419618244, 0.12133635580373557, 0.15496389463680818, -0.05030173934463581, -0.24852047880543604, -0.3215108014324764, -0.002415777666671098, -0.12363918615011157, -0.005481968383920343, 9.750745780768698e-05, 0.00811542711095743, -0.11158766920769023, -0.13139641959407936, -0.021619183583086485, 0.041233677791550724, -0.0054118325143682495, -0.029721194535153247, -0.0034071862913020085, -0.006487401371227876, 0.0004724266589256071, 0.028225638009115102, 0.0025618853534311982, 0.009854890943820707, 0.02037293364632969, 0.011231194732441887, -0.013530368434509946, -0.010113960398144637, -5.713929597682321e-05, 0.01951770547802737, 0.007187875781881823, -0.20064318006399304, -0.24916971529721677, -0.1754789718512534, -0.06949629446299987, -0.018156515292528038, -0.16695547150148835, -0.05182746798582223, 0.0879854382341415, 0.0870925616659642, -0.03359832446046702, -0.017690759447001936, 0.0316112682330982, 0.10161949379560245, 0.0038261533857765536, -0.009133567965351691, 0.0035714889170713787, 0.0008130095499343783, 0.0059882008934863526, 0.024694546186753638, 0.06713879671551552, 0.014943598849115948, 0.0002611142445722537, 0.0628153430532189, 0.02390523402096342, 0.002083936685511568, -0.09527594860060594, -0.18760005815824213, -0.18239579995911423, -0.34217895028686884, -0.27398726908399185, -0.14413996165446882, 0.045782171865447294, -0.12729892236995108, -0.062221584354264156, -0.0739241050014177, 0.1864413813718226, 0.1253831177717511, 0.04105539744737824, 0.02480364616837978, 0.02129787313050256, 0.06293409821065199, 0.023246615195799084, 0.0010321066804131781, 0.00030059735386370564, 0.003880911894975307, -0.0034823285667346473, 0.0027909637647209667, 0.08074780541332399, 0.0322332743943686, -3.7198002824073805e-05, 0.026432893058604037, 0.02746114032974355, -0.008378292994560431, -0.02733502968536531, -0.17354486904306443, -0.24547906046920628, -0.16652664113683754, -0.20817582605156434, -0.1359678365166454, -0.05454187722976871, 0.059967613927621975, 0.12795303204399056, 0.10943557906022085, 0.0893519370991343, -0.02935789407533123, 0.03456035692480307, 0.07931925973283738, 0.05279205960381433, 0.05505435666409095, 0.0263827221989237, -0.012896999766022477, -0.004831189049070844, 0.001666990294891886, -0.00010906992270059167, -0.00048435876471820987, 0.02223670995770864, 0.029555873677519023, 0.05183643904607477, 0.08501141953529624, 0.05801171458936814, 0.04769639201232189, 0.044511805615417066, -0.014851216201707986, -0.12350966839185931, -0.18072070036208493, -0.1432417768005201, -0.04306537806945367, 0.056539454571252874, 0.05918737430219247, 0.09004450177940478, 0.008058196221925225, 0.017351059006487247, 0.023713623645106183, 0.13165551154337296, 0.1314041913077583, 0.0627749615146327, 0.002636694004222639, -0.0014900597030657252, -0.00463729282114094, 0.009672798108604722, 0.006777643819669972, 0.0020778369674802504, -0.01845826821116621, -0.010679848790854492, 0.026589668278305965, 0.1117473054546913, 0.11614973685920298, 0.06792563117227443, 0.02420310724719017, 0.09092018463699919, 0.14027198502477328, 0.1093835822359203, -0.011361264149410437, -0.018693816636848767, -0.08231549468069752, 0.08656956936608853, -0.042502420698151716, 0.02548434328730991, -0.0398559809474975, -0.021577967590899916, 0.08183141846868652, 0.15250342392870678, 0.10791900348130944, 0.011019326479083756, 0.004897327109363093, -0.012373188782454008, 0.007022999583991146, 0.00274738004047868, 0.0014065986430700837, 0.0071630523479177454, -0.01765878967973781, -0.01895802073450535, 0.0015672442651261803, 0.04135068297276511, 0.10614827987492532, 0.15624383251423488, 0.10626143279087895, 0.11815775658797358, 0.06689305832494634, 0.042538954812265224, 0.13760343263098204, 0.03966564685576041, -0.071373886304581, 0.024187452052326416, 0.04020768426554165, 0.022609221067324606, 0.005669618409787983, -0.02086148691809868, 0.13119103556382058, 0.08808904643575982, 0.04119286616615246, -0.012537488406638339, -0.0064230440983813674, -0.01262173722546334, 0.009553465977344971, -0.001998384871519902, 0.0009847098407737356, 0.0044427348755879635, -0.010624682062573622, 0.0038500000337973357, -0.014757727556802857, -0.032305634938182955, 0.033578187522421914, 0.08837587968958369, 0.11383005169964326, 0.06455258040363, 0.09411806371246106, 0.1255447158929495, 0.1958864299103652, 0.06431932585910251, 0.0014441086682811341, 0.027243246510955502, 0.05467513099981792, -0.06695908925316656, -0.021762183996005397, -0.0638165180803818, 0.02873664285911335, 0.0021272161182421794, 0.005428837144963152, 0.009008918999908225, -0.015589555116874565, -0.008226691003199093, 0.002298352800095579, 0.004438610686324906, -1.8846287296448437e-05, 0.007446960689444039, -0.0007904884352401651, 0.016821360563106753, 0.0031376784353819753, 0.027065191143670012, 0.0059683382654768715, 0.13109774624460238, 0.15545294198137624, 0.004643571990749428, 0.06640932475896931, 0.1199054987279435, 0.12299107948990538, 0.08896714878792915, -0.07771806197724224, -0.017709866982334246, -0.028425292014802057, -0.09159252294245014, -0.04070895921101066, -0.10709463152314272, -0.04785048582720854, -0.05426527632098333, -0.01021107511120269, 0.0026638511677339522, 0.0026442040809226625, -0.0009962047832187675, -0.004311572560422536, 0.003121562961741099, 0.0019810035695231277, 0.006305882502499483, -0.006427497047451375, 0.00679100090722419, -0.012781418295325189, -0.0145202535237194, -0.021606061045071807, 0.08947188278302613, 0.03806126062730032, 0.03131076180435503, 0.07574580746689075, 0.12307159538512712, 0.0726540770360305, -0.07244298826282267, -0.030041909720769897, -0.022625122978744493, -0.055042228940157, -0.06008817587749852, -0.05781318111964179, -0.0939486278286412, -0.06868731064449093, -0.051681453023339895, 0.0012902642047467317, 0.019836941743097223, 0.00785139681970957, -0.0023033084192441945, -0.008657583411511483, 0.005861909644101539, -0.0006651166209335696, 0.00793065859087139, 0.0033172305693559803, 0.0021958784408924203, 0.004621275310252633, -0.00044116426647788297, -0.01363018945598814, 0.0071428994346744955, 0.023697475467483596, -0.02939031593371945, -0.003650568464567284, -0.022496543084222193, -0.054059314412074524, -0.09701416834578905, -0.02047847855022375, -0.040536282835123165, -0.016604396474593632, 0.07650992103771154, -0.05112863182701281, -0.040047242718356336, -0.0040087228677564216, -0.025291489052402423, -0.006372695063416183, 0.01658857753714682, 0.00588632622533304, 0.0009967670036845457, 0.002794696357546478, 0.007048372778799757, 0.0064279263089535585, -0.0021016371538969715, -0.004258372825239554, 0.0008469777079242144, 0.004527295011087622, 0.016647950430967774, 0.00132621081779593, -0.028915140848651093, -0.02058974296400421, -0.026594869079029446, 0.06422317122858562, 0.08913190084399264, -0.011424181387822668, 0.026522298454623696, 0.046886083708999965, 0.05703668267694541, 0.04139606866738834, 0.05808914034503475, -0.015612747036801083, -0.04375776096318054, 0.033293773063700766, 0.004847318848912532, -0.0262152704960625, 0.004415879451397433, -0.010799571837779092, 0.00754334070623622, -0.012409340119695524, 0.00564838502540508, -0.009443846111975875, -0.000985680789875203, -0.004898084309436414, 0.0015146917489300502, 0.0007758648687159804, -0.009240483634402212, 0.0035925119569881433, -0.0041089355432374205, 8.583468267552622e-05, -0.0021050989947348376, -0.01540091608928845, 0.0016962444863628473, -0.008123754092291883, -0.01972757260980877, 0.00071917495938232, 0.022842166042252837, -0.00028534083295518446, -0.012483020286297958, -0.010623274665631191, -0.01611392625985029, -0.012812526012223411, -0.029378530080857664, -0.0317615471186098, -0.003210345059275154, 0.0002170402456578865, 0.0016109378831982194, -0.003174265809352046, -0.0016018164879276636], [0.00325935684985911, 0.004217285599313691, 0.004213021938319663, -0.002985925219609935, -0.007681601010247665, 0.005215760588094574, -0.00033187794776360366, -0.003837049545501124, 0.003491660959396942, 0.006047853101126953, -0.006694340624567098, -0.009290353154012537, 0.001475300278561138, -0.005759177667701877, -0.0001322332599576491, -0.0028554542175853945, -0.009293725047937601, 0.0007477445056304533, 0.008058213142538692, -0.005050805155019754, 0.010688364535477517, -0.00766267029545576, -0.0008760541447918129, -0.001745051514510277, -0.003337437276757021, 0.008401849403374996, 0.0064465658185801, 0.007030817625223625, 0.004716982443687302, -0.006121029433844846, 0.002412273389731304, 0.008843582398027412, -0.004645008586071285, -0.002433543652629013, 0.0008406371595807213, 0.000860244605878821, 0.007880607321214041, 0.008158781064124756, -0.004205442718155991, -0.0030407303954985312, 0.001800427450612629, -0.0005260230832998285, -0.0015317007090839224, -0.004696976804809472, -0.0028562530623951234, 0.003296342380838045, 0.0006324810454368609, -0.004188102637424456, -0.005574975649685544, 0.000568887550036193, -0.005338761088571516, 0.008414069397681617, 0.004067851526893785, -0.0018282681014043, 0.007693877611903056, 0.008426445245491004, 0.003297368004636857, -0.002391166226827625, 0.006364775532222105, 0.008240367936266183, -0.011375252947563563, -0.0027543465043563978, 0.00510869515947205, 0.01693774621549274, -0.004687942678226435, 0.008108734419902234, 0.014918290488032147, 0.012581222883942245, 0.013229919635455575, 0.005249375962777104, -0.0005548682145801214, -0.0010714821618199094, 0.004579384302992332, 0.011222847890359247, 0.006708492005155967, 0.004500540665248821, 0.0043448406521750926, 0.001282726178327325, 0.013623638770683845, -0.003635356329288866, 0.0011932867340114994, -0.0023508057468597226, -0.004604097167065572, -0.013847706061662716, -0.009724638657710012, -1.741037083594e-05, -0.0037902868218704024, 0.009368020855304533, 0.003446401691670245, -0.0022149017837815015, -3.365063723465663e-05, 0.013417524474355805, -0.0010378430959189213, 0.0032441546577029324, 0.017639393829981857, 0.03137878746048753, 0.017835755231670164, 0.01719488926519697, 0.06869364486547767, 0.0826285094716306, 0.04879879411221753, 0.0006545672593134682, 0.05086986964872918, 0.10353458206019392, 0.06728513566609667, 0.01514288978261734, 0.00040615760356979677, -0.0013370067092401924, -0.0009711017446557051, -0.011743147570998801, 0.000437549942013042, -0.005077346822685122, -0.00262967436286819, -0.0011650131287714693, -0.005068039179202773, -0.007334260663728999, -0.004682977414555455, 0.018397236499125908, 0.030688220670750332, 0.026650621623055218, -0.024302858509794776, -0.021273766072526613, -0.04842151661260916, -0.005118848340316733, 0.08356506193051305, 0.13874560835955932, 0.08884890923434946, 0.050585074489376505, 0.08070722249646155, 0.027675872350241174, -0.03593696663800979, 0.006019800762669884, 0.046825159071464034, 0.07639808991653058, 0.016912666147992635, 0.036535230470429, 0.005452825992670471, -0.003290634425337986, 0.006020760476435827, -0.0021333556557468765, 0.0013121954854964253, 0.007507630045115483, 0.005536974326045322, 0.0018961398511442306, -0.02048771104445345, 0.05864826030972802, 0.05463473196649467, -0.05604084184780879, -0.02023657511686097, 0.10576776649584638, 0.02281990585902153, 0.048820839780884445, 0.005425001633002633, -0.003668098854350165, 0.12778327718245006, 0.14094657858201012, -0.0264483648842804, -0.061549106268607726, 0.03596399759403891, -0.0328706604011262, 0.030443873815713438, 0.15204867692558235, 0.048665761733861806, 0.05911877837293898, 0.025486264232046436, 0.02156438192606016, 0.0017095886209532736, 0.01412200907886793, 0.005351110881100882, -0.009297596199399353, -0.014490406735904543, -0.02072071654323193, -0.058079110343370044, -0.01084836561773202, 0.007469141496642376, 0.05982466151744426, -0.03750523659745348, -0.060719887199372984, 0.06956917412398562, -0.02713396012002665, -0.08208443321352303, -0.16323784829822285, -0.06262485541875869, -0.06963893164604949, -0.04825979116063829, -0.07836119036931236, -0.046805866707871416, 0.025306934780226446, -0.14812507601852468, 0.013357541928815808, 0.02524850461073785, 0.034795972213188135, 0.03994976441817167, 0.015742834517062147, 0.015069735605288233, -0.004663720994461151, -0.0027801744492583227, -0.012015219153605329, 0.02566722950846617, 0.0201137670580953, -0.05260731701673283, -0.06018943918852397, 0.037940207103452465, 0.042670711389946915, 0.021763643114717946, 0.017823517052449618, 0.07670974797975269, -0.0048311853327836435, -0.019837933190790292, -0.04976918722899296, -0.04360060770624552, -0.10708313327238829, 0.029810489799044583, 0.08200668189725678, -0.03807258818332777, 0.016368561225383542, -0.004981846551061693, 0.13124591347903378, 0.16313839279638526, 0.1026105596400328, 0.09855020707778578, 0.07888521088849944, -0.002565843999208089, -0.00017222972286549907, 0.0031902935252060057, 0.022010741431600134, 0.010189527311726176, -0.012047609469707139, -0.07091568006929365, 0.03636001270458714, 0.13008674994411584, 0.03226626631931557, -0.01906235549045707, -0.0688835271744202, -0.1470585791728671, -0.11290208646965053, -0.04935638728176347, -0.111758399542946, -0.042468689926749945, 0.08717104558704648, 0.031697061412716304, -0.00963509506204563, -0.02553221565365735, -0.028876140478657737, 0.04770413560505406, -0.010865412709516584, 0.04550961310878922, 0.1880248911140071, 0.17823234726082346, 0.08631356866745539, -0.004820736461760929, -0.004178155116016817, 0.009158708674937937, 0.011507857361231996, 0.004734809669618772, -0.018811925762731687, -0.06164877429989895, 0.06638188573842334, -0.029887451672905168, -0.15448826704251814, -0.1574537323977456, -0.12058880697783979, -0.15386173637842784, -0.12000690272832854, 0.0012338628488278232, 0.25590501023794354, 0.29745094642258807, 0.14213110179526509, -0.10181800890745103, -0.08653783613114958, 0.07899610392549086, 0.10509816894763281, -0.07304724056229087, -0.07877596337900396, -0.022402708248460287, 0.04095148638890479, 0.14592934521713458, 0.022038291414107212, -0.009365383790589286, 0.0011722325813015408, -0.003569878836688026, 0.009461954946262962, 0.021641850406608223, -0.12055854800024093, -0.039528075035813764, -0.06466738208449073, -0.0967286993768805, -0.2371408691914699, -0.16634728290076475, 0.10101192980771098, 0.10587910047085619, 0.2671969285605159, 0.5357509838557654, 0.425446433332104, 0.1469087169516364, -0.03487811526005898, 0.021473606289134323, -0.11775808635882408, -0.11828024264723418, -0.02425724431791209, -0.137027794812148, -0.09744109259694209, -0.013190060660674461, -0.012990701427173935, 0.08040412608783935, -0.0002467801647785742, -0.006369437497728624, -0.008362204427541691, -0.0010907722751215942, -0.006681638217673013, 0.020761036406059315, -0.04843686182399451, -0.062109056699319876, -0.05058279238687134, -0.042755975422515344, 0.07778121267152051, 0.22706937784644443, 0.5724995045369482, 0.6829046582996253, 0.5355526427281614, 0.27400825771021475, -0.19756237576739297, -0.29757794222996253, -0.052701859641684924, 0.030774381786040098, 0.04883776714170149, 0.06363000111237375, -0.035309445370972706, -0.1278254810937237, -0.03935057304553513, -0.03304429730753013, 0.017662492423707637, 0.03366119219549262, -0.004781093411782871, 0.00569095138685832, 0.013421084057025292, 0.005582768966928837, 0.00882460529178906, -0.000502572624855832, 0.06707151620376042, 0.05430882724990895, 0.08987534894098949, 0.20682138153122775, 0.30241068622864586, 0.5507676450791125, 0.5124090151551065, 0.17029716861647667, -0.13651952898359693, -0.3230526826756814, -0.3579036713541422, -0.20187497993778825, -0.06618636505727712, -0.06899810017082421, 0.07148161894229184, -0.16423135959061688, 0.13782829883519576, 0.039556878829588256, 0.1091149131314865, 0.0539558231212335, 0.07048384054850247, 0.0031779773103863154, -0.00035226815069567364, 0.012931576240704564, 0.008307001542094251, 0.005573379628071896, 0.006826699933626112, 0.00779333369069114, 0.04763562632248797, 0.1539531483970634, 0.15011575244527617, 0.2708295443884897, 0.4279743988997564, 0.2368083452707288, 0.21830251919676424, -0.09594696270994457, -0.11955470291588507, -0.1466251349926345, -0.10344729400644681, 0.08567566058382897, 0.04462275698735592, -0.0953077487821316, 0.06257247483787452, -0.0310513195407259, 0.06981105739971478, 0.15775531862334974, 0.11765546070647966, 0.18528279815231374, 0.10712078450792711, 0.02356645326590253, 0.006532265927167109, 0.004118805764563654, 0.0268177674404647, -0.01207127128945368, 0.0032509072859878006, -0.001796736002992373, 0.018453612160048746, 0.07465345011034645, 0.1405250054677138, 0.18319964602737623, 0.18150490922252158, 0.001691200064272444, -0.05670101851665621, -0.034810585654068624, -0.13085647626083108, -0.02717953339016103, -0.13577318358978352, -0.15269379600661795, -0.07589510387188386, 0.05105004463953127, 0.051584544663297045, 0.020942917745818312, 0.15590861469867703, 0.1274091494275631, 0.041373423165014134, 0.14523216613300913, 0.13658841008481923, 0.034143665693779975, 0.01801306466277111, 0.027498732765603506, 0.017949433619514815, -0.00010891536712347405, -0.028739406604780818, -0.03553941358833715, 0.001293577398120884, 0.03885576862820953, 0.05353610607732628, 0.047431038057976986, 0.03118258003611309, 0.12410811780273205, 0.07146816703755444, 0.060155499076142406, -0.05099184312321859, -0.08779118502677595, -0.1362086158106104, -0.03798552360246427, 0.0013542176964930982, 0.08681005832824966, 0.06492529278736286, 0.05958298673807899, 0.006157375812802062, 0.0013936242617119765, -0.10976442642634454, -0.04950190925240313, 0.040952381785725085, 0.03929154907734569, 0.062230823849375894, 0.020078383046181182, 0.003111727777207185, -0.00035219950612280413, -0.00667610400224748, -0.08389509417126577, -0.04859772618074948, -0.009858750034836074, 0.03316792110842866, 0.14728326964855573, 0.116190067690089, 0.09820006389326254, -0.024317810659092994, 0.0762801895925948, -0.13039636596858525, -0.19644981716779325, -0.1664862376446042, -0.07196720359251077, -0.12138734446043929, -0.03856297174285627, -0.10461793972224734, 0.05542396496317561, -0.022400191995559402, 0.004506615187684298, -0.13340496525807266, -0.024640492086829023, 0.03996013134966664, 0.08302332933691273, 0.03111543509069887, -0.006020310591997681, -0.007811507344969587, -0.0002761694912598079, -0.007756641343122046, -0.07623645666362262, -0.10659272543823341, -0.009303273867959514, 0.09609059536400918, 0.24186190051051554, 0.08190516185175525, 0.09914381329483117, 0.28387646625662216, 0.30041393461587956, 0.19281759116138367, 0.1269270215390318, -0.14257797656434604, -0.0923465665313321, -0.03118673230910777, 0.030739026185864316, -0.03481202905909633, -0.0701291091913602, -0.12132742672028411, 0.002184588363308281, -0.09127355820512974, -0.004890999854192571, 0.06145421138605732, 0.1340304217549859, 0.03237048254581008, 0.013927222950034885, -0.010631983639895946, 0.005275533218079074, -0.008155381298137318, -0.04609918520576349, -0.11622992398685536, -0.04240858365848367, 0.05039176796052292, 0.1519928419937751, 0.1217638634553001, 0.1093308846228696, 0.19438111015088874, 0.28131043962212526, 0.37692776123904725, 0.39174834258998437, 0.42423547287562824, 0.2594487290239189, 0.02720540694608473, -0.0564161750470231, -0.06570539589748839, -0.06507159422087028, -0.09616783066935239, -0.14978223031732021, -0.1587359371988997, -0.030362650734096403, 0.09045438901021163, 0.11595934923687547, 0.024623119829925204, 0.0031273497238793082, 0.002198342687512434, -0.012213800071269099, -0.006257597900871787, 0.019194365462954072, -0.04624185734392288, -0.07030405398379176, 0.008148347616857513, 0.04493876497500553, 0.03677527161684182, 0.08453638355148255, 0.12363557752423827, 0.17595054257809625, 0.3332481822026214, 0.43343845018823074, 0.3309420063180858, 0.18690047755409722, 0.04665051299202963, -0.030155956560338624, -0.047211405193724826, -0.06389448541051679, -0.07771367100442728, -0.11364809973257803, -0.0644813991541277, -0.034897538490128686, 0.06638218375688379, 0.06590417940573104, 0.015041628775009723, 0.015508247397821612, -0.00655048628273643, 0.0032992768235340633, -0.00014978087833369006, 0.02585506208492041, -0.03042552115864704, -0.08100731705747176, -0.11255879710778358, 0.03221018974137594, 0.0447611990389342, 0.0629468651294931, 0.024219019764735648, -0.07147150073829475, -0.019308693748333227, -0.03032154390014191, 0.07813207480741105, -0.06567139054108177, -0.035500118650164246, 0.14182579874985443, -0.05100129775428824, -0.1410039218692766, -0.09957763009972721, -0.03586882902468495, -0.04782830886178546, 0.043848292407660694, 0.10960925911073081, 0.03952219461297144, 0.015708630809769537, -0.005339823653382879, 6.829251136947875e-05, 0.0013344127043100843, 0.005795635513222342, 0.017685329613354568, -0.050673426591853823, -0.1859256163192807, -0.07739223859024952, -0.043501890020384196, -0.0691206424534017, 0.05383227400436723, 0.1075009471455899, -0.14233153954977365, -0.13628137457045492, -0.21112414475597432, -0.10980843751096467, 0.03794719656533664, 0.012139019694725351, 0.13498568010549317, 0.006151812128496654, -0.04102121032347136, 0.0241024115097382, -0.07085226385052346, 0.04510065361497685, 0.09474297129022344, 0.11821652345983864, 0.04696806323112011, 0.023082336519275982, 0.008669679065644871, 0.010737639419122574, 0.005536392738074924, 0.0013234430680753348, 0.018706563458778403, -0.036354548847833165, -0.1509370811762138, -0.19221853488592483, 0.04800149148916172, -0.09301883066603511, 0.01988430718032401, 0.03831029591786454, -0.1242538049105282, 0.03293959721375594, 0.17313449092618388, 0.054933739288211506, 0.083403577772982, -0.1280834591662116, -0.02539061090614317, 0.016933868663939075, 0.08148600578157378, -0.0760746920546591, 0.032692797042259504, 0.03883281558824682, 0.04678408998804836, 0.03898903835579699, 0.02423261804483699, 0.02635983257374002, -0.0014133402199887966, -0.004394005098055992, 0.010212831738101119, -0.0031577952581097893, -0.005320813949442453, -0.0443118558384796, -0.11428102649205925, -0.18266290615091788, -0.11889695048098112, -0.06891122906271901, 0.042054202314404834, -0.03214665134116626, -0.1451212729343876, -0.021679620474938793, 0.11111884985018415, -0.06741391571623466, -0.002119830561994384, -0.08253139950823093, 0.12466007207467719, 0.0377300579537593, -0.023185914761544583, 0.07536235332365016, 0.08700245307615502, 0.0664553988060631, 0.0367513325891664, 0.00945771582758782, 0.0013524181513346395, 0.002242918727787997, -0.0009669243799954481, -9.690772181638059e-05, -0.008221072424178053, -0.010894354016208424, -0.011916378506865466, -0.03643594015846194, -0.12379225677963787, -0.0798705752923136, -0.15816550018515313, -0.1176335706218038, -0.01105922807195639, 0.0309471168022739, -0.09412012319878305, 0.03954231340813562, -0.07419870867512708, 0.032093278799051196, 0.0633253952162377, 0.12456318629921187, 0.05603156810226998, -0.21816786452633116, 0.01746463859661606, 0.06377772799262593, 0.03303393778596778, 0.016729266414025473, 0.005126098434387148, -0.0006345883646661455, -0.003931996790386509, -0.0003104234993730162, 0.0034644079435249115, -0.0009043892074407307, 0.0043232031531789, -0.002931954405383205, 0.005803262823173554, -0.0015278284859578607, -0.05554820260847454, -0.1003438204750782, -0.05628173726262844, -0.020223337427718716, -0.08242186380562125, -0.053920764274977565, -0.08133501935154987, 0.05134132425813348, -0.03481101471562433, -0.060743238173126206, 0.00020322368186118084, 0.04454867051583012, -0.0730098944994491, 0.0014480327070284277, 0.006043537878652598, -0.05389792230111719, -0.013038766074823915, 0.016852445924420523, -0.005463956985404124, 0.004774088055235122, 0.0028364466508304853, -0.0005837681681529447, -0.004099215556884344, -0.008455545510638233, -0.0021939270095391416, -0.0028564714819754636, -0.000312089747824193, 0.006301329330975124, 0.0005600671108958001, -0.008115731697829883, 0.00885109506852893, 0.01758216462602639, 0.018128778725573252, 0.005400416013724445, 0.022377270335255564, 0.030468152410365438, -0.014050255706327482, -0.00215700037615545, 0.009463888978184653, 0.010509603111076115, 0.029166378039309798, 0.0004976568727676938, -0.0491466053338516, -0.024255808453126776, 0.01948762567695785, 0.004812992344859796, -0.006876396769944554, 0.0021069597498839915, -0.007753414522908467, 0.009585383469116629, 0.006996825484535964, 0.00862672864170965, -0.008997168055758141, -0.006967431367461595, -0.002320184005340788, -0.0005723154343125783, 0.0052103566809521005, -0.002868170691964456, 0.006479611209066858, -0.0033451889621768515, -0.0028391493851380395, 0.005608095989588805, 0.013818164574860748, 0.01137273705075114, 0.011210520149228617, 0.0004398875783207417, 0.0032688685610548747, 0.01753363799257271, 0.011777216529945626, 0.012609628250940025, -0.0054120291674096856, 0.00031364485335523545, 0.009933000080553624, 0.006834726418765881, -0.00045315777555651, 0.00431792797584496, 0.002443147463831007, 0.001119671329214798, 0.003053715865291472, -0.008967891032104994], [0.014060685884472656, -0.009184699011666618, 0.004619059648946678, 0.0013978099485543313, 0.0002869483924381572, 0.005906014278970387, -0.0025257178921865, -0.0020496723453637027, -0.003880910096653729, 0.0050335797063909265, -0.0008121918551581689, 0.005326646152230229, 0.0023941772480334444, 0.014027709771838422, 0.007430231336507741, -0.009206735173527967, 0.0017891870563795697, -0.0016173726823200893, -0.0017889847546569966, 0.012610579338137253, 0.006298513083589415, -0.0013095375757028644, 0.004953283205173436, -0.0035005811041174967, -0.005577357925200033, 0.0047733416471233405, 0.004431049067664556, -0.004214447224642199, 0.006995013017755273, -0.007196981295192651, -0.0059517620576751236, 0.004337124563509656, -0.005465173136209553, 0.0003691528899602848, -0.00014404118734317605, 0.008433193270551163, 0.007172729166791829, 0.008903087810531968, -0.00389378852114044, 0.0009848053787731926, -0.009475476689908042, -0.00029512856712890154, 0.006355246460449918, 0.010421484430594576, 0.011814892433475013, 0.001798807588800132, 0.005415694392477874, -0.003682458428727831, 0.005187310662643363, -0.002623459294376985, -0.00454873126949065, 0.005571690866715443, -0.0002989776154616745, 0.0019375778271915002, -0.006093732873310068, 0.0057620978391881164, 0.0009177797785818302, -0.003447497459880361, 0.0014604968050636912, -0.010639795197946687, 0.0030581730836079166, 0.0025300132821821416, 0.011673950475426935, 0.020018334184435722, 0.005202885489088164, -0.005806755488874791, -0.005061661401117156, -0.006240945421529452, -0.00754068161145517, 0.0016795563795505752, -0.0006506145713493116, 0.0046590414180052424, 0.009125982620261461, 0.006429137627424152, -0.0001645354111599675, -0.005746410561018216, -0.0040914276472926794, 0.001472608685557485, -0.002073147864086226, -0.0021733572680245525, -0.011200912291617703, 0.0014752822939591995, -0.0022059747727084062, 0.007452092947193269, -0.0009543682969432595, -0.005785520745563468, 0.007646869035876564, 0.0007839869510994974, -0.005749001771665926, 0.013353686400226144, 0.008870067198627866, -0.007475589738133759, -0.004418118282797633, -0.01991936356764255, -0.01663815034234882, 0.008729310920510026, -0.004382791953141227, 0.008198643236326665, -0.019950429296945106, -0.041319088792880564, -0.03543132718551544, -0.02687310227203492, -0.028628514252932565, -0.028320128246420318, -0.01853009147770326, -0.0206517495124284, -0.014051902281945203, 0.002870657039672937, -0.005197938205811031, -0.000730253193736294, -0.012910279091277403, 0.005450425438725388, -0.006249845688082855, -0.006053857366905192, 0.004020185087267558, 0.0132673411671288, 0.002221573070416638, 0.004938662069003733, 0.006980138687111468, 0.0035510970988078187, -0.0019505174168716964, 0.019804427378398513, 0.09127003001379272, 0.09492140098116172, 0.08497128603753974, -0.0017851011229836934, 0.01693499724800681, 0.06133093555330104, 0.06858925010432392, 0.021757199692634552, 0.006338043347126619, 0.010930795031475222, -0.013424608443005389, -0.022491006130627888, -0.03462197019882133, -0.03454086843041378, -0.0370226022034917, -0.022099796971818773, -0.006586946521775375, -0.005528402480173389, 0.012815595686451077, 0.011951559481545089, -0.0005364342588771596, 0.001092564570267568, 0.009124701565148309, 0.036637617401265636, 0.06825531583290555, 0.04723506956785956, -0.029269827944683923, 0.009154962130402379, 0.059830398018688204, 0.08978001423805514, 0.10412883567612914, 0.1369038320834655, 0.08775674576875067, 0.16769190880181192, 0.12953410851715152, 0.08221981467844083, 0.06460242559263629, 0.01628659329873868, 0.013650742304594855, -0.010092187775555692, -0.02404762075325156, -0.04995867409374393, -0.02363187134266444, -0.011105740513909518, -0.009482116523656011, -0.002336475986203427, -0.0048277565069052885, 0.004487309722407679, -0.019761967750285207, 0.013801091672523295, 0.01942389074627441, -0.03354782174007899, -0.008885724714647335, 0.02711341858963435, -0.030801424948816276, -0.006419010791541482, 0.1514051023076146, 0.3073085717194909, 0.18679973487617882, 0.12175626308415374, 0.018933354416978306, -0.0332055862076831, -0.09473267883768127, -0.06974429442501869, -0.08341007024495427, -0.047175745754963125, -0.02325756995105339, -0.04617987918875876, -0.06800523224676434, -0.06780868371961743, -0.010234849949740244, 0.00990685064133791, -0.0053897795699884244, 0.008585066643346679, 0.007420440584075654, 0.002505420245057337, -0.0023658635533270168, -0.014443921735701576, 0.00831577166472986, -0.015244691971019707, -0.011898221767515649, -0.04663415127514695, 0.0345452962786042, 0.038055611169971845, 0.21914478684844915, 0.20973180014134155, 0.06909278033693889, -0.12220868146932391, -0.13154686630099297, -0.11283178499133226, -0.13822068783686317, -0.1906306439865257, -0.09396683156274908, -0.05245610201264052, -0.044913266153393715, -0.040310341769349986, -0.060039690251928915, -0.08693036900771565, -0.03741788242063501, -0.0010925663155770165, -0.010879019671669682, -1.982997548072106e-05, 0.005490114924050175, -0.002505621032915464, -0.015592209885940752, -0.006833163866759274, -0.013483145039447001, 0.008952417866299881, -0.0059177988874624735, -0.05558442008250591, 0.08562944288288295, 0.1641709242121239, 0.13528198707929046, -0.10771286410938508, -0.20697131900957666, -0.04557136123752881, -0.012371456057905551, -0.06501616503837303, 0.015097424726284791, 0.06906089530564455, 0.030435242328940862, 0.03009389960045557, -0.08667920606739962, 0.010593417590660265, -0.032906899037866366, -0.10325156922315898, -0.06120689160070418, -0.023299250979288214, 0.01013666358929607, 0.0019381286051851354, 0.006729303955867546, -0.004246890337667544, -0.011192652040927356, -0.02750290915126874, 0.018958450827916973, 0.032885956781122855, 0.03195178721668689, 0.035256920425487934, 0.0798022829748904, -0.014262617532514328, -0.18113062188666015, -0.19659414790857016, -0.21028286188869813, 0.034653292592730915, 0.11599184635089282, 0.055062209322646896, 0.021803703980820138, 0.01694456336748725, 0.06542784318879906, -0.0066589983959385425, -0.024395233727438584, -0.009949599985066788, -0.02118107747203485, -0.05927538164127318, 0.007479763856609123, 0.025312563731746163, 0.015150470665886387, -0.0054574601762292785, 0.003505821230857578, 0.0017990861315745814, -0.011136679829236924, -0.032269664369647365, 0.012065483973137696, 0.06910953798621754, 0.06279399130427565, 0.024281328579146503, -0.006636403701336262, -0.15296838727147338, -0.26171361925505104, -0.12496670901159262, -0.1150186439403036, 0.08794930523984029, 0.19182531873474684, 0.06193472137936963, 0.1523865979977584, 0.03366869749347148, 0.09453914991018632, 0.1209548911301947, 0.09031121596729359, -0.02152517203435787, -0.08336246545302897, -0.05590076682518546, -0.04751069353305913, -0.038353441059894994, -0.021487545137981883, -0.0011269184182083932, 0.006130174757253855, -0.005136014944427498, -0.03399229507745925, -0.03547582058164716, 0.0023214134149457475, 0.04646021612161345, 0.02223742111937224, -0.035629416183671804, -0.15263025175569886, -0.24270708793482443, -0.2702911976366898, -0.15127081260941053, -0.04170931290543433, 0.05031327725396983, 0.18273212799163577, 0.21152899687965762, 0.1275575299885918, 0.013606452492945408, 0.09815184463576251, 0.07419626235293052, -0.0333132954720565, -0.09787059684430365, -0.12626895205983843, -0.10948733291444193, -0.04724811867794492, -0.027444678470730618, -0.005990585660918153, 0.01284710811045147, 0.008740420847322234, 0.002723601213494843, -0.017458165692431332, -0.03884059403902431, -0.0020350871287363433, 0.053991430177788576, -0.04638105935756454, -0.12765635458353589, -0.1983468676958464, -0.11467568426791726, -0.17728971151283762, -0.1086758774245059, -0.1164284074748279, 0.04272988898064867, 0.2835445773629549, 0.1380110387137677, 0.030131629082515356, 0.014878677728195417, -0.05568809122002622, -0.09436733249448533, -0.13000019491883597, -0.1679105808428038, -0.11736478699351595, -0.09438951065309256, -0.03257986389389633, -0.0072392916939741266, 0.003108231085827895, 0.0010384415771784285, -0.0004843936171073781, 9.073774192822125e-05, -0.002174088083987768, -0.01226196493681762, -0.01577381866248061, 0.030941187554118822, -0.07665447092475505, -0.07354429106433143, -0.08438819447523771, -0.01955318270257447, -0.24909777265236568, -0.09550872915575304, 0.04901483039656859, 0.05143623738882663, 0.15132520483051276, 0.01597182789893146, 0.02186532498064869, -0.04816063997213306, -0.08543626718315306, -0.14620313219597877, -0.11486297540808271, -0.14949997467643672, -0.07108504936407933, -0.05701755089845462, -0.024715036157650763, -0.004070689001209421, 0.005956262063951299, 0.0046603603318788765, 0.008630488351936036, 0.005042103382131466, -0.009489439848416784, -0.0033271264771919324, 0.01384075756351185, -0.015922376976788426, -0.046792215839140665, -0.01021377806787101, -0.04037587015606936, -0.03533678880584002, -0.11221842393005363, -0.08883238110609643, -0.017320491886517655, 0.1120869660306366, 0.05499653589498952, -0.09358414600397857, -0.12155086728058959, -0.17991133824133781, -0.0731682322719176, -0.19387368884798892, -0.1102541692743756, -0.10017218960596265, -0.025037560205607694, -0.07027527896004783, -0.0184412603690759, 0.016484226682776448, 0.0016045465458747975, -0.00548822605532441, -0.002213190228173769, -0.004027196878361376, -0.01135863695765521, -0.006460912683976461, -0.02432307451234558, -0.05406539321972072, -0.0226224783134483, -0.035171507561351845, -0.024552334372863423, 0.033895510094360516, -0.02001602926517944, -0.05028097245074083, -0.018100379549771638, 0.08719068491405625, 0.09546827959114068, -0.10482800183950595, -0.10294958476948869, -0.12369454376775077, -0.10216550392004814, -0.055461822377654964, -0.055778928103187526, -0.05457855325000755, -0.004961029248254243, -0.01453486295281138, 0.049818601330118735, 0.055225458962968724, -0.004512824052687823, -0.005645544299713712, -0.004031914098138463, 0.0004346250017627214, -0.005463057404288389, 0.009455686863654233, -9.559792834303013e-05, -0.026549640395610856, -0.0342399092260007, -0.06482439769639119, -0.0407792551511095, 0.012846602821762422, -0.024137798130708096, -0.16631466367585956, -0.16959156934826258, 0.014469060661871055, 0.09192054875873844, -0.08441076272870804, -0.05106646457309303, 0.0015698253269487248, 0.07446297297739397, -0.012170338812810513, 0.0018606082313181653, 0.027872562214124156, 0.06962811545191741, 0.0777923560539307, 0.07752364454036624, 0.04570144306986104, -0.002221090890086997, -0.008110733771493933, -0.018464843702953083, -0.0047385354338705206, 0.00023433803043703555, 0.00461733213432035, 0.0026233380580303212, -0.01759828309556405, -0.0797783465765695, -0.06444856989841875, -0.04653893584976938, -0.07421381415963307, -0.06299920672727567, -0.19090856953024593, -0.12863714771166337, 0.0136145286638594, 0.00035818987750996196, -0.11598907992302895, -0.020556008786389943, 0.09888255774420407, 0.057211088265347244, 0.09238238518877775, 0.12992372208257627, 0.030985361982156994, 0.054943634566114785, 0.05630689103961961, 0.05568651815612005, 0.024562501974732767, 0.006480398999153225, -0.0038816725949980327, 0.004190304482507684, 