{"sizes1": [784, 48, 35, 10], "biases1": [[[-1.4725920319733663], [-0.2747168995044937], [0.37756092840451805], [-0.08063660839976071], [1.0138007676987195], [-0.8153659726069217], [0.6684672549884453], [-1.7047688726483659], [1.9758132047254946], [0.5157116669254614], [-1.2491726594098327], [1.4392279160503327], [-0.6063220402834909], [1.9911929086941882], [-0.4940131111061849], [-1.654857522912846], [-0.049951849136065915], [0.627021380259657], [-0.6548825203739347], [-0.0856869810678027], [1.1987695850016944], [-0.5429766432993952], [0.41966160279314635], [-1.197887478667609], [-1.6892716088833037], [-1.371669469989286], [-1.4411446910383312], [0.8897037241986189], [2.0831644049119236], [-0.6754301022547189], [-0.5107477549630546], [1.110423090789469], [-0.051298358933342676], [1.303198527542583], [0.10684479933035548], [0.30048983801697954], [-1.7008970139592123], [-1.2188230610398865], [-0.08221933359731733], [-1.0054257545251977], [0.9752398593971291], [0.5780240276058131], [-1.2524721340968141], [1.4866394037072777], [-0.9225470993379759], [1.2306172203523003], [-0.07985816146572244], [-3.471866929858912]], [[1.0281014030684892], [0.9743269193185794], [0.5316211825500002], [0.07071331897737934], [0.8189190093866255], [0.8474705628404663], [-0.1607696395134385], [-1.3777406260946758], [-0.19565439723970454], [1.336947636395511], [-0.9375102946586995], [1.1443357765473623], [-1.6007535622259748], [-1.2768534253524546], [0.13065120682168943], [-1.355114752336548], [-0.2585756241220757], [-0.37670496506900963], [-1.6430421850282193], [-0.5541297406063325], [0.9988794675658823], [0.9704311102619797], [0.6235507114603578], [-2.278505536454821], [-1.151322760355607], [-0.8374435149336579], [-1.3748896138190563], [0.4974388029814328], [-1.4052974940334813], [1.6417647919278322], [-0.2614825421680734], [1.4956697571102386], [-0.9196253579746568], [1.0628970493934475], [-0.21467164888721618]], [[1.0531010072996752], [-0.11091426338878405], [0.2437516070555507], [0.06440160200540342], [-0.4435472030700787], [1.1856168464695283], [0.3397997600962752], [0.5276432571440767], [-0.4455174257934251], [-0.01877367825528812]]], "weights1": [[[-0.007300403526812785, -0.030793793241447754, 0.022416790781202376, 0.03821397388887617, 0.03852100127301739, 0.045771768885843576, 0.0197460003061995, 0.03646992381771335, -0.04412766885963719, 0.044742222434666655, 0.041327054481803405, 0.0192371095288722, -0.014632408991303757, 0.02350045025193636, 0.012667414234043908, -0.019604736112724445, -0.018713875731722174, 0.004791221365928929, 0.03923132766895388, -0.049909298190883876, -0.043653937675036655, -0.06742188558041486, 0.03913911747394218, -0.004888944970768706, -0.012587303786232254, -0.05066518677353337, -0.08425991043851563, 0.0019748223358206658, 0.011903999872375287, -0.03579094364435619, 0.04995884956799897, 0.034326770744949074, -0.042282439146796205, 0.017800076447862894, 0.013141988528219687, 0.034919352045630944, -0.028243466448939096, 0.018783737373576893, 0.056879271303632864, 0.058431837026266045, 0.017388179045368036, 0.008886436885441728, 0.003289155946044412, 0.003571619967319503, -0.037180721964859866, 0.012152319934945132, 0.028791426227556403, -0.018042621770134788, -0.05635858041108834, 0.050563053673005474, 0.0330155187829413, -0.025070747448814046, -0.05742462039658351, -0.006164159654302946, 0.008050986010482956, 0.04068259481788634, 0.09718506300482697, -0.043161497767766586, -0.01927837393821277, -0.022956843503807053, -0.03785525449749673, -0.050827218242866214, -0.03722678712306375, -0.024363849108619964, 0.03517228022454801, -0.010479212498785083, 0.0017920790631349057, -0.04972154947959946, 0.0040064459799560295, -0.055057916958871, -0.034925322243432574, -0.047763526014642274, 0.030307169679841005, -0.0108223691776772, -0.052794662465531286, 0.008689223057668094, 0.05399788615701388, -0.029801682457372934, -0.013982298003884733, 0.01512731708718325, 0.04048908907731157, -0.08284269667377496, 0.0022157810813097922, 0.007547589324673765, 0.051970447535839445, 0.02007677892417704, 0.07560347932057976, -0.04856288865518667, 0.004840855375292674, 0.018711920612821484, 0.044988563702505, 0.00010435736892177642, -0.03847278474582635, 0.003653399178018262, 0.003207499227364415, -0.01051548889197528, 0.02801159234345804, -0.06139753826912754, 0.019339670562794724, 0.002835274525332466, -0.0168886980269633, -0.012730130536150557, -0.026173658351186162, 0.04303087784886756, -0.04749614236401929, -0.017526393538725458, 0.021612534799297, -0.0039042446581662392, -0.020637837687688586, 0.048402326019277755, -0.02117300485502343, -0.010641845602108518, 0.01978743289833304, 0.03444254525496726, -0.009611115860888303, -0.012089473610990734, -0.03511912615865291, -0.021510901218640587, -0.02985890478559598, 0.0050007455677631854, -0.01869184607295806, -0.010472064742078848, 0.014722952179996697, -0.04920613813952984, 0.040437075627987, -0.026510181304057516, 0.01324682071289562, -0.022157121593877196, -0.030161897442025375, -0.01445063589581431, -0.03178267499310598, 0.07004162114883525, -0.012468913576605881, -0.02652844962005717, -0.018639235473672158, -0.029121508659435785, -0.029674051081088917, -0.029484067712845324, -0.019743397008531696, -0.013823322224912064, 0.025729871678946782, 0.012399043499658627, -0.04568899797975997, 0.003937479775912628, -0.02767440319910838, 0.043340974058036094, -0.026803890249373543, -0.02495861021513554, -0.023217148473318634, 0.008405138755919389, 0.02788874529206331, 0.061139214642041174, -0.10226762784977701, 0.08030354048087926, -0.030450226142600262, -0.019233634809065887, 0.05449887081059618, 0.00246889252684857, -0.08320703968576086, 0.006960608705432657, 0.019050605059154877, 0.017066086530326614, -0.00734232623169328, 0.08245162302766351, 0.0033848677306355553, 0.006040842968214741, 0.00739796982268158, -0.023775665569116314, -0.04031586402636452, -0.028414018867035935, -0.007118707939946587, -0.04493277341396442, -0.019539911779525902, 0.02348894647650484, 0.07962548560725823, 0.029665443676835816, -0.050930060591945596, 0.07601215449280718, -0.029006605889274166, 0.055955543895814766, 0.006312067259182784, 0.04320116695729285, 0.017331814179668694, 0.013509786055561095, -0.011003266666751792, 0.019151994137828837, 0.09043747277658708, -0.019617319353285558, -0.03520660029817806, -0.016121661526280036, 0.022310200001705766, -0.010262649698553465, -0.004075180746256892, 0.0410037172388663, 0.020012168468174163, -0.019965251421907932, 0.022110486077314948, 0.039278529244687464, 0.015088820896302984, -0.015259435008910265, -0.016533790674904007, -0.002401068796760625, -0.01232898517724027, -0.05615505702452251, -0.05028466306253006, 0.022673725333864074, -0.013442569541676467, -0.021166875049341134, -0.029763038967279186, 0.012561051971529612, -0.047344895100940455, -0.0627968296704702, -0.025453260477888897, -0.021618897490070982, 0.021372416086759074, -0.015793136745600733, 0.006289527964220935, 0.055411176595316594, 0.018755323050808508, -0.02310092414743754, 0.016498156233341436, 0.03974560879124928, 0.04734680512195277, 0.008248528051356287, -0.045907744984997, 0.020194816768970506, -0.05984362139704108, 0.037091190165248096, 0.0009214593892586992, 0.006967688833399768, 0.06183678576473023, 0.007905692604171248, -0.016890196518475172, -0.016775954422390042, 0.03668827942686042, -0.04362632952166269, 0.03664656377305027, 0.08859188780969851, 0.03018159660927864, 0.028869124368386113, 0.036316734046990685, 0.04290315311805809, 0.038764548147438224, 0.008806375917783214, -0.028651208218523478, 0.01895537461093608, 0.008297131603636166, 0.0016059186439247683, 0.045647843254577436, 0.021806574443296665, -0.005798473137938042, 0.05957471595884522, -0.019663159955949364, 0.03689013300824813, -0.03671836312930533, 0.004754862456486632, -0.013542845292140542, -0.0015508871580242423, 0.05200495216708122, 0.05752656042355394, -0.023603495032887088, 0.023033954009433696, 0.007332460434942589, -0.03168282594670232, 0.06329503813027516, 0.01927796294455938, 0.03643061883685727, 0.0665903503401062, 0.03432310194315591, -0.010625024857228141, -0.05761386740316676, 0.02354395688147598, 0.010956068057692631, 0.005349117563491044, 0.02750251298634212, -0.020231841332731877, 0.054670575507023055, -0.020115229805284046, -0.0085587983261864, 0.06653300896509048, -0.04747094171575047, -0.060928657990586325, -0.026432766323546176, 0.020649256646191112, -0.055267014618749846, 0.019795925261835958, 0.06909414214775433, 0.017789948535851953, -0.01899419145080266, -0.02678950272499683, -0.002547945284836639, 0.000815134563781126, 0.053451087794709314, -0.02436167547729446, -0.02263088009015767, 0.024955938402302695, 0.010567247051871856, 0.01639978602468153, -0.048833852292894345, -0.04648771239217175, -0.02375870021737084, 0.005309158001238769, -0.009359381421666296, -0.013853553872073657, -0.047438673265094, -0.03447139884796309, 0.034950846726167835, 0.05554988829984681, 0.048241175480366556, -0.029168218135611268, 0.00863697019175588, -0.016934345088358668, 0.010441292751811307, 0.046881675523929335, 0.012315891013898175, 0.06553007189183001, 0.008955984160676129, -0.04068925660856644, -0.051238276771066904, 0.0064212478558829025, -0.03513816497176471, 0.01211850006004834, -0.02651342077172761, 0.008756013404881758, 0.043453391103969716, 0.04462655808152759, -0.008923104278668836, 0.022399604956726975, 0.005657375867262684, -0.01576283199716584, -0.02314518377897225, -0.030578295361497358, -0.06716278688543273, -0.033260078931619814, -0.010472208784250503, 0.019641761929414324, 0.02849806086525646, -0.06500067268136074, 0.013445164460367993, 0.008141082999458862, -0.03463400533373292, -0.04162336769898107, -0.022351541543738425, 0.0386008498743146, -0.016663128555335298, 0.02142720602407297, -0.04937472997720899, 0.03567221881185374, -0.002661025823171265, 0.042723971208557546, -0.02557820974161512, -0.008066964955275853, -0.061491272951623724, 0.009421869339739366, -0.04779219709923376, -0.039115115335786134, -0.009764132465485287, 0.02912325412202121, -0.08976677660111246, -0.015620582559234628, -0.05290349943353254, -0.0030428508800187104, -0.01531319964195253, -0.037892808033611676, 0.03862930911066072, -0.03572067948875001, -0.030690243298009394, -0.03645955350098864, -0.02147185024448023, 0.014906591533055208, -0.03466132078955348, -0.013010606793599272, 0.03610706188735739, -0.04072321860910594, 0.016762801412880984, 0.05278184552441322, 0.01782902542890295, 0.02745919105192566, -0.03387158875056048, 0.05710470568794696, 0.054379830070576486, -0.04087611045746741, -0.031792712161792164, -0.02309453536668896, -0.027316317315104626, -0.011713088792829538, 0.04402801888140229, -0.033753238258157216, -0.015201455472052244, 0.048358302581154804, -0.012616303219774676, -0.11850366599019808, 0.04217044236161503, 0.0503067544943404, 0.014253074716693516, 0.04690764190469981, 0.0075011856808090025, 0.026840871310078045, 0.01992198562638754, -0.001703453847614569, 0.015251900423775394, 0.008463874714555914, -0.027194990503167014, 0.004556998526189399, 0.022772007764800015, 0.07224150846210857, -0.03834334976723103, 0.08543425388909912, -0.04053008586144289, -0.06112961308695457, 0.016904388742501202, -0.06800098117974498, -0.011827146123280572, 0.01934114345988679, 0.025920517203332025, -0.043313843381956915, -0.07764657717972692, -0.033564933513992944, -0.017339463059238443, -0.017392735615041396, 0.03029128150990588, -0.06220161490213788, -0.0065173036341950675, -0.03043346649025677, 0.0034862602230407115, 0.0011085712249400393, 0.1028304320100788, 0.0030112845768022916, -0.006724953755372355, 0.006921258968482421, 0.06802648316502093, -0.008270100000413337, 0.030601475903679922, -0.0037667470327012445, 0.02108733005885654, -0.06025018723559551, -0.013515449020861492, 0.04893812441560983, -0.054181079203484896, 0.09652832812736993, 0.03232499472639512, 0.04387862678996257, -0.03341020007812591, 0.045689832374052365, -0.023528187368230764, 0.05136197988923086, -0.027795128711761853, -0.034775409455997476, 0.02964814495662897, -0.029725154040875786, 0.0072161613217532625, -0.07591359885162752, -0.0301575571280015, -0.0463936987792201, 0.04236194157146099, 0.047939596090750554, -0.011613123418637973, -0.009496663317260031, 0.0844128399726111, -0.05648800170545658, -0.041787632456354404, 0.0071574063126864295, -0.015235971841793396, 0.013207526290936664, 0.026873744028064677, -0.08216207510392638, -0.03565561548929223, -0.006809962411016563, 0.03668674792210811, -0.022587331260675275, -0.05096427895504935, -0.02340954946949669, 0.04324841859293016, 0.0067557944159912, -0.004378879422976532, -0.032613232367029496, 0.0793225335802391, 0.030019269270971812, -0.01593611961693615, 0.047273140821645944, 0.02010750979053453, -0.02955206378864919, -0.05283150712979218, 0.007462779909066032, -0.02211889696305979, 0.03999164157135461, -0.07432944011423086, 0.05491787438436428, -0.025218247522557035, -0.010858313293936305, -0.051631411264101916, 0.01760171756308272, 0.010387401126697966, -0.02791953989774395, 0.011778151729243675, -0.042539006854462096, -0.025666088156027833, 0.010261823450713038, -0.07154022276439195, 0.07401541200114334, -0.07098355599459714, 0.03333119434296127, -0.081399809975702, -0.0446007636981366, -0.030905212848969243, -0.023076350062995653, 0.038601297958596126, -0.016301404118740637, 0.021438905431588155, 0.020687826744480255, 0.007052001704208601, -0.007285877724106339, 0.038115044967501906, 0.00828553858462634, 0.10150442994666053, -0.007523090303340696, -0.00539929758436542, 0.027503338209355143, 0.01823564682907177, -0.00525360813841168, 0.024033197701612292, -0.024074447076106797, -0.013002946106459645, 0.013649171906949564, -0.023227848572620724, -0.00411199055949872, 0.019531318571289615, 0.032542170717970234, -0.05844350870949939, 0.039470447733054415, 0.003285118549408131, 0.03963364088320403, -0.07053752338998888, 0.00525259915456241, 0.016145804375158532, -0.009407370310068967, 0.046477013568205404, -0.019862737048985595, -0.048834859109568564, 0.04653756625851602, -0.028738276668438485, 0.013544444109491413, -0.0077754931678894615, -0.06021967491519464, -0.032637144720076984, 0.036397715732822244, -0.040532349267950754, 0.0007886127742486728, 0.01969083602980456, -0.01602603028661287, 0.02331831925620933, 0.030171966466118413, 0.06312815064097986, 0.003790530896880545, -0.05218593998299512, 0.011200517750835004, -0.004407224392745378, -0.016572431287665192, -0.08682371829867506, 0.007425828551044894, 0.05166277769226817, 0.03932830390643572, -0.05293536703570225, 0.0018363538031179723, 0.04156155184458367, -0.0004602136632078896, -0.052950112437066224, 0.08839563773088158, -0.05863019901424456, -0.005269690163264067, 0.030352906507885503, -0.04069910683032699, 0.08994068519675226, -0.0018658517928035264, -0.008892365886303889, -0.020136746321990338, 0.005296590064643803, -0.039857407671947634, -0.004529835249015957, 0.03797625176287224, -0.006921107733078441, -0.030120252539773327, 0.0008925489908008542, 0.015089290470696584, -0.034915277722709734, 0.017982855102475378, 0.029383461776043875, -0.011219893650223195, -0.008161944588517446, 0.008959773293440693, -0.011197548904848692, -0.025039631787116073, 0.008764209101125664, -0.06882309502103443, 0.04401520611753264, -0.02240748583155533, -0.027058383740300562, -0.002171616381724559, -0.04492867309556666, 0.02445071898984464, 0.027492047674792967, 0.008933770934091591, 0.01480479064346194, -0.00510972655902647, 0.00688552282403065, 0.056198883154061775, 0.0030825007372708773, 0.014532203948623822, 0.02534014004457419, -0.0011817234876645762, -0.017728010228109676, 0.009320387348163697, 0.03110193560245624, -0.03891571174318032, 0.006802065019130831, -0.037196183246549566, 0.011711416999354785, 0.014623981220251955, 0.019783647641667335, -0.009224063159019871, -0.056963916773637525, -0.029159179348438875, -0.0170795243082981, -0.043548173254067804, 0.045430116229688323, 0.031472497691026606, -0.07878184379079879, 0.06237000289347517, 0.05065859506479376, 0.042836772367604185, -0.013233892815929906, 0.04480616488480699, 0.058682423042717265, -0.001030685847346233, 0.0042486365172005715, 0.04727519363804158, -0.0004883636895680898, 0.0855443039945134, 0.00718280527216511, 0.019590152958139682, -0.003636348097265154, 0.018467124686344493, 0.03088649542569741, 0.022352117318864665, 0.023712258414204823, 0.06309796447167143, -0.05922020012001185, -0.013860892987082816, -0.09463078199988596, -0.09286543304909245, 0.08503868105043513, -0.10895509152047884, -0.04023797852734504, -0.03821149761461682, -0.03794067905813422, -0.013158897141044536, -0.020135833618150405, -0.002548604007774968, -0.03868529046218069, -0.05784436356438504, -0.0033873839131505147, -0.00014244019754176636, 0.06761637073781916, 0.008832953383836955, 0.0113552736322833, -0.00013952783018173642, 0.027000273351508612, -0.056351961335091495, 0.005812247084678761, -0.047033985021087944, 0.015873805153173076, -0.054653755542362854, -0.009905722389305396, -0.03989642804484347, -0.005278600941053251, 0.014845363999123435, -0.013502997326304998, 0.0010384781835835184, 0.0008156110708068533, -0.013862735205102726, 0.02536681336597093, -0.00161802585235538, 0.03541615675002851, 0.032716372035371664, -0.039541677381584414, 0.018555288779445, 0.01621169971055626, 0.0272991635605217, -0.002596342932065927, -0.05408180346851614, -0.017372676520244015, 0.06690439271032654, 0.024099799277566256, -0.018652238144228495, 0.0033129441522472035, 0.0378641604324335, 0.0596772689538061, 0.006505751848023696, -0.029740118543387456, -4.5073054141991875e-05, 0.047278402965551566, 0.0043285257400905355, 0.005953010053813989, -0.019584924510329317, -0.03084752579428984, -0.012018180348787108, -0.047484379826551605, 0.017821399349456653, -0.008187807595058176, 0.06303189769566495, -0.048444324270052505, 0.003615732344683168, 0.006244556196307688, -0.04517018913661352, 0.005101195198552527, -0.03754808203680865, -0.00036861098791242337, 0.0017800219729579285, -0.05906363615749765, -0.01911459399328736, 0.00445460529222498, -0.043780283710591554, -0.001622897525489358, -0.04013521454861498, 0.029892890353254053, 0.04967871620854964, -0.005410082743531145, 0.00482408226430224, 0.03427628009811049, -0.07594232561859325, -0.004545442888957118, 0.012172568830875405, 0.031390980142998674, 0.0705092632556589, -0.03686112176780628, 0.038157030303872984, 0.04369806319121196, 0.024985299004124707, 0.024315866293388128, 0.017586384233255214, -0.027841537046623472, 0.04043282898997858, -0.011093387889167685, 0.0029188618328971237, 0.012529474294745685, 0.016303897333584883, -0.028451014527856484, -0.024048757602442128, 0.0018182706662229196, -0.010015222693550737, 0.04571932582810667, -0.03556021936156774, 0.007488486061298659, -0.011347279211555292, -0.04937999557518636, -0.038545838689849135, -0.016458503137010718, 0.040797732265417795, -0.01734579061215404, 0.029075564789149033, 0.000700234294099923, 0.05154645045621707, 0.06052862620823073, -0.007502572495173576, 0.009998544937257648, 0.05870061740773297, -0.05975867006463078, -0.018059335340878363, -0.04924824001596467, -0.048137978162511016, 0.02634871315645743, 0.011837696113725609, -0.006896105467658202, -0.10291994656738133, -0.017147976848870938, -0.042045588103926314, -0.03954682661384508, -0.010870841567469522, -0.05825464546750457, -0.06917578687707895, -0.03663435287930407, -0.03677051188746152, -0.008732720213358655, 0.07307499433603769], [-0.015232659025694938, -0.04032677046108251, 0.02924555790450209, -0.02462530993487851, -0.014478206282628586, -0.0047276729293278755, -0.04270740001065506, -0.03558224299442593, -0.004706474177277091, 0.02228244070134355, 0.03155700188316766, -0.020520716256198616, -0.09093860222020604, -0.02171422881305193, 0.019348034686191114, 0.0020398569044624264, -0.018003432137792926, -0.05091345559041271, 0.021229413187242863, -0.029427621514755448, -0.04219845825198622, 0.04066682151395801, 0.04048194448913666, 0.04207502176506033, -0.06839159438965174, 0.00011511205944448836, -0.011914633432751454, 0.03898382155141018, -0.04207814549685925, 0.059418022135436344, -0.026795663833584917, -0.04988786277368946, 0.03642980508622336, -0.007501773840300519, 0.0035885078834908568, -0.01411320349015366, 0.005585399310287834, 0.02043122506278012, 0.007080311434518955, 0.027498638168426022, 0.03498328424047262, -0.0203053324401292, -0.005708987612758532, 0.006876883931790012, 0.06559242097322618, -0.007453348763681583, 0.016389891249961226, 0.06434048237061242, -0.022011240541650066, 0.017038224983096244, 0.013177785808847653, 0.07300683045808977, 0.07862398518838401, -0.02816571580179786, -0.011082156504780534, 0.018935214869094417, -0.009682580074740915, 0.013556776874183435, -0.09823478111004684, 0.023563184552377804, 0.030360904737791978, -0.005140071657091434, -0.033152805832488856, -0.019189097596663707, 0.036857563044852534, -0.021228508794327694, -0.023537777368810242, -0.04256302884860242, -0.00859271264975675, -0.00041463956765434504, 0.022084479261207275, -0.006935451782542917, 0.047126952020466184, 0.03882206171169133, 0.03756822220468562, 0.03473943520329033, 0.04446329678100476, -0.04757773370842274, 0.057095735012993476, -0.024887771131858187, -0.052961230486265616, -0.03714931873341848, -0.006685684087322427, -0.025498304095833972, 0.049597024152250875, -0.05493108912393846, -0.046422300607642755, 0.039627943414618776, -0.03982659318623068, 0.017650652080330467, -0.0061214462239636575, -0.03734543848982515, -0.02803970939707523, -0.005405777450611541, 0.02556056175998647, 0.015289904151571344, 0.003914662433341936, -0.01603476077473123, 0.0312017461482225, 0.025620120725942976, -0.10527001835219398, -0.07253643219567162, -0.05817245135725785, -0.042720964637285246, -0.004523936812496604, 0.023134070341957226, 0.017514389018011865, 0.02216803022061612, -0.014107207495371114, 0.01602691182925807, -0.020920858318935677, -0.008046628314746968, -0.029038515950330406, -0.026526327745638862, 0.011301283762125225, -0.054313117510094766, 0.028470001191406597, 0.014991832568273475, -0.008893392642356968, -0.06599757311591893, -0.06659069850171309, 0.004742449446307002, 0.02733300946573882, -0.03786310384621515, 0.04786491177123026, 0.039416705489931654, 0.007477894462956319, -0.001819238466241499, 0.03582181541580888, 0.007007495736819345, -0.0027839401579162625, -0.029153251363623633, -0.03419098930880222, -0.030949042006061987, 0.0026628417630660925, -0.009457284265645563, 0.004219175674417135, -0.08650047115363334, -0.051235066806207714, 0.047868854834182725, -0.007789669297116415, 0.06478958236624359, 0.004307726283791004, -0.0056302306937378675, 0.06369319994838123, -0.02088553502640947, 0.002204409698747919, -0.01902586959564684, 0.03912692698584119, -0.022663066950679992, -0.018310219123590866, -0.06829128067791507, 0.01778047481527229, 0.00041049935045730764, -0.016910408964143774, -0.08673371061240094, -0.09473167603183252, -0.016204291369404215, -0.0347936755549574, 0.04199674357972166, -0.03123278599657633, 0.021530215747500952, 0.034802270811410914, 0.0229667649261581, 0.02474717101582218, -0.0002211504829984437, -0.006057008027216029, -0.057004900665308784, 0.01380948501122757, 0.030635079176370685, -0.01639746491519243, -0.03352518887656535, 0.03981866887914866, 0.002015871146101892, 0.08274927305786398, 0.0012782115413530661, -0.026107539595472545, 0.026807353550873315, -0.03649815201574676, -0.01354496415479341, 0.012763590047222013, 0.0019028801321838722, 0.07057947513480886, 0.01209943696377842, -0.027559029079379477, -0.030107200861663234, -0.009233475586723874, 0.0245002587592211, -0.05089897784156776, -0.013078373062732808, -0.0800488713527615, -0.014230499037124393, 0.015309240979801905, 0.024593277477251062, 0.01651952529454271, 0.01312957480016837, -0.003629025328160795, 0.06995607942015997, 0.01268672930678616, 0.010052269877955869, -0.030518441860716276, 0.02632805931222442, -0.007787579698124568, -0.004189528647494298, -0.008476366178906888, 0.007082838200144137, -0.003849584505033176, -0.017986956763281402, 0.0025147134490261405, 0.050091090090910784, -0.01119838959458905, -0.054539170543318076, -0.007771656683332987, -0.02472536984238439, 0.026272047630993164, -0.05830073291474063, -0.04739365248347382, 0.05122773111807226, -0.059952713546754875, -0.01956476724121532, -0.05831297856104519, 0.0036009507801476543, -0.08699830697799411, -0.008444941063306245, 0.01551186057106828, 0.06787864367792401, -0.013127128552799197, -0.09219512924004837, 0.03729172560988584, -0.03781753978841425, -0.019783334378365405, 0.06662115933584066, 0.0040949039274129325, 0.08728837914625441, 0.02660312935552375, -0.02397205741644128, -0.030885691967031278, 0.0035546954258244582, -0.016137633775067318, -0.05406640468489615, -0.045255199142739365, 0.016492188189899747, -0.0028218735842310784, 0.013313570718070582, 0.02134133138663625, -0.019154683917746922, -0.04209283114138481, -0.05966367328907647, 0.06442394162188246, 0.01023631159614507, 0.0017260903327428097, 0.04753635770271119, 0.026936815295784254, 0.0010231808656015126, -0.022143149132219996, -0.023536771953850958, 0.026468072068630406, -0.006543396681004239, 0.05764990971878471, 0.048746342451048676, 0.04175709976060742, 0.03536140731297333, 0.025612117924159513, 0.07252894258167344, 0.017537252738722937, 0.06505065472679487, 0.05413254177580995, -0.009470801515247216, -0.00809192406990898, 0.002663288582696107, 0.090937777013429, -0.012952709632410343, 0.022822434784588497, 0.02340415988457729, 0.08324575304594391, 0.0019135381173836028, -0.02926939348247321, 0.008017162715400162, 0.035560380556567475, -0.016884139619264445, -0.004263335213453845, 0.06530679032288153, -0.05445378737658203, -0.007977326354867488, -0.020154297839525565, -0.09501061548202863, -0.06787667912717037, -0.043948554724563625, 0.007589144396487192, -0.09314104963374267, 0.014586518929192088, 0.024021040496618205, 0.05460212335860905, 0.06835917839397719, -0.0017342772851264253, -0.027749445137378294, 0.022167042670071833, 0.003558454756732475, -0.008802836961504353, -0.07166435931811725, 0.03649529107624539, -0.0605433411219032, -0.06644481051634331, -0.0015376776887289167, 0.04686932507690917, -0.0545259151716906, 0.004554086267245382, -0.004812656505769884, -0.08657198357119471, 0.07082092796810713, 0.04659669232197535, -0.012625039185378977, 0.026423240975490443, 0.00919614886138873, -0.021870490000929405, -0.01852393085546669, -0.048043665603643225, -0.02466700748037211, 0.025162122673623877, 0.013232300503050626, -0.029325350071210555, -0.0056155768205810004, 0.03352508116083528, -0.016838762280771035, -0.009537408071529878, 0.0008513564621917252, -0.05291452552080567, -0.049075216936120526, 0.0013832272193807862, -0.04109327218004778, 0.02345521073264587, -0.05060394162991777, -0.04467610738049269, 0.03520139413589203, -0.038706697218594696, -0.0024569372984660012, -0.016250127106073604, 0.012960140718500435, -0.004525453247146319, 0.020649543549474597, 0.0034750998778568976, 0.019838549271194387, 0.027861679817099128, 0.021994512733069217, -0.005047158128958127, 0.019731004584103366, -0.035960625420599544, 0.003525839706493676, -0.0003793832387572778, -0.009527032228556153, 0.00032646808539075464, -0.06402414339281234, 0.014623603699768459, 0.04538573336070001, -0.077502769337743, 0.009978404510469411, 0.01979438498120965, -0.001898659358947049, 0.038483562404799394, -0.009001711176370136, 0.0647615972593167, 0.006001483998533112, -0.05231210908544853, 0.015201389867582068, -0.02617836069205919, -0.04235763976599204, -0.01707149669855868, 0.009673565755472483, -0.006439271496475671, -0.03499311560586268, -0.020476329563966618, -0.05444635620069086, -0.05003656007095816, -0.10038029258433505, -0.015626059389435638, -0.03769187813465443, -0.020320229513012312, -0.030071873941591366, -0.05940765709708405, 0.025043987966667153, 0.04070652258797274, -0.055951132199305746, -0.014944478438037383, 0.012542849930980206, 0.0238496356579013, -0.06418180236511413, 0.00849105844578771, 0.05980435045065095, 0.041484827469693446, -0.014791772564489153, 0.03366198881384351, -0.05838002302860218, 0.041876620205254886, -0.006256379750389208, -0.039295837024105926, -0.01558411310439296, -0.048137118766410525, -0.024697612452317136, 0.04024912024740629, 0.007075406545964467, 0.046500581244347965, 0.0714152918601104, 0.04741173405091424, 0.05191348003626218, 0.02929295710865997, -0.03491028542867742, 0.005908966312227764, 0.05479039458765638, 0.013816454098183667, -0.0710221195821988, -0.011509862997037129, 0.03554949261790765, 0.0666545970892563, 0.02997361273608725, -0.021573210247834342, -0.019053462370531824, -0.06384186095327705, -0.048692778102966, -0.045857848559730185, -0.013314123581010376, 0.008736682378038372, -0.024842516478471587, 0.004344854835307997, -0.037143186400847836, -0.03071453454569212, 0.05730489139541387, 0.0036655594503974286, 0.02145901800826639, -0.05797393511908966, 0.024169942937455557, -0.05902854918047584, -0.042005460501652776, -0.021794378527310095, 0.046846269426448026, -0.08788022738274527, 0.03170628615231572, -0.03439614895148937, -0.00464352937797941, 0.009091629537061437, 0.015720177851050704, 0.04053010922057152, 0.007035249038052219, -0.06329823258948328, 0.004330362406485216, -0.022151026017065308, 0.05045378124874971, 0.04407607685967672, 0.0008170896949158738, -0.034789084947718284, 0.002575937300664129, -0.04603597270236252, -0.007130945541525571, 0.003938294668976414, -0.010688227334410758, 0.00523058845315389, 0.00678807574871259, 0.061591540673029924, -0.02530417553789929, -0.04682451016758588, -0.042723773552170066, -0.027672760463289686, -0.06404883247310829, 0.020342497621282738, 0.06292280449439829, -0.03218249511964962, -0.0021997316096727657, 0.006470726612029034, 0.00639250422075438, -0.00237229480579097, -0.007512478225207962, -0.04621231313245964, -0.03295938497071653, 0.0020450092147167994, -0.01168914272295723, -0.04955373960857925, -0.0036016860625168188, -0.0038749840767616462, -0.003543284832859404, 0.04583277284155257, 0.011201153279929819, -0.026120409147532168, -0.0018533544811997328, 0.042895564232675716, 0.021391349477694607, -0.0018820984130150911, -0.02210877559363435, 0.07988139236957395, -0.027651141842613414, 0.0061083620097633585, 0.05428674866876624, 0.017241836289377078, 0.01815535182679425, -0.04693743944002934, 0.021420428315313166, -0.04336097197697696, 0.0006070377497237055, 0.013019980628951117, -0.02353342756896861, -0.02226283027557072, -0.0039394201322847855, 0.041340856846749895, -0.01844486105470152, 0.014168100081032252, 0.01631842059468411, 0.011888990578502042, 0.06648280882924607, -0.04730311922370043, -0.020916270257011038, -0.021556326945572156, -0.005382890531313556, 0.005102426793032256, -0.009421330461631077, 0.08152942496488415, 0.061698034001236, 0.034864762075309294, -0.0029298033734034543, 0.043254571027123837, 0.03993519009956082, -0.07624773347392107, -0.02487364120408608, 0.021367142003642096, -0.021299675880392353, 0.007466188625148743, -0.04376450568957531, -0.02484762365697386, 0.02992886822468096, 0.016660328782977407, -0.005128173088284386, 0.049672540406461976, 0.06348263997404278, -0.0519060180397957, 0.05695777357192251, 0.03710625096616293, 0.01878989588414145, -0.01410480830308439, -0.008304629571657467, 0.013084765594498102, 0.02739012061217652, 0.013637003731569591, -0.0010109317007634397, -0.013833305185936135, 0.0031536229239162495, -0.00511124849460312, 0.09214014355814126, -0.02139257474671555, -0.05436357592330138, -0.041314917847913565, 0.03346255287812904, -0.011696900854443176, 0.0041855543915190665, -0.022184530361804712, 0.04523774581694639, -0.03286664964812121, -0.04203922303625244, 0.018965790206831805, -0.08244177997020405, -0.03002350189662176, 0.024103645949967317, 0.03881783697312545, 0.010373371075545855, 0.010203191476414688, -0.08361363107614579, -0.02019616966212689, -0.06843890782487153, 0.045280618935541264, 0.05853702987563053, 0.03442523944121822, 0.009147622757398957, 0.055745650210582455, 0.046801754142974675, -0.01604941944545831, 0.007744869698822164, -0.04675243317160643, 0.051264044488055445, 0.01635349990311131, -0.08930420894478416, 0.04104972738806985, 0.04362992353729415, 0.01848946694004003, -0.01651115056512093, 0.0187609893372887, 0.02522035482232614, -0.04857275281151806, -0.02118061032327077, -0.06702262623078102, 0.010781651390014638, -0.07189226306091175, 0.00567794235288574, 0.01078633081142677, 0.02065895768704712, -0.01292280945754994, -0.0005985447369486074, -0.06950164012021313, 0.011273678401802822, 0.040150727503928826, 0.0014652677580602423, -0.06443308559496709, 0.07659188246277673, -0.04144737976681563, -0.00856284662376893, -0.02118441782873971, 0.011752940628503425, -0.04296071335249061, -0.06744091668861348, 0.05620434394152902, -4.019186668528082e-05, 0.023391343808694596, 0.009582284856402884, -0.012337879095574296, 0.010777471901627284, 0.005522925755029336, 0.03738777009154467, 0.013110579719113311, -0.07144867677731717, 0.015374202020354347, -0.03174192713915883, 0.011840488469066617, 0.012612212562992945, 0.02691876846915266, -0.005126277924509579, -0.028680405707627803, -0.06502361264152602, -0.03787491467903516, 0.061055047909191765, 0.0015661154041678893, -0.04426657993184554, -0.0017062902296121581, -0.0499898861940361, -0.0020069895878272012, 0.037788887703315385, 0.02346802628133777, 0.026378034068785413, 0.014697305638039672, -0.041800794298569345, -0.03893778666171623, -0.03660202943574179, -0.043320595560966436, 0.0656520658553197, 0.02903545989538123, -0.05328416622683439, 0.030274652460000034, 0.0031470529126837255, 0.007850855262199623, -0.010573328824528805, 0.11427018835815407, -0.0475092339143749, 0.056555903302533385, -0.007859776968796158, -0.026822959593542188, 0.0058835418371705325, -0.09759068697620603, -0.04055903637602214, 0.05806414217761019, 0.057169498622796834, 0.0779173073376481, -0.022793899414432002, 0.03229670248779669, 0.01690642036734537, -0.015480715052398144, 0.001143163145431158, 0.06770166897779008, -0.031128214877290682, 0.055717104752775394, -0.06529660118077903, -0.014044683660711679, 0.017157571592061164, 0.032869414709418225, -0.0291153764118668, -0.010475934162932242, 0.013864219069633726, -0.04722893894225004, 0.02169980506512707, 0.028581325330214076, -0.03070515886951466, -0.002435664930296961, -0.03800440302948567, 0.039677537465645986, -0.004728392041940822, -0.0169520890140554, 6.762849030995192e-05, 0.015133589267057745, 0.040335613870505486, -0.019937098935728707, 0.02715349106434866, 0.013040848125108844, 0.06644949132841135, -0.06083440874471823, 0.060095126141680645, 0.006215364495431862, -0.006859253192555165, -0.09036282622017955, 0.03757812409856533, 0.06504588496616939, 0.02285723323378477, 0.022753463638729408, 0.022087274549851547, -0.05889083139201257, 0.03641614061819972, -0.07283551324298161, -0.014536565903225787, -0.01583104635829177, 0.012356912206060834, -0.011444058377262284, 0.0674465338578906, -0.0012366223596615206, -0.020356569899132405, 0.010729563635424157, 0.03211491005140132, 0.0626795638629001, -0.04178962265826328, 0.00551475668645063, 0.007281623576007196, -0.0652663585468212, 0.05136323143964474, -0.002369962565220827, -0.05727624194704316, 0.038325033348502534, 0.012523040645953071, 0.0030917371775155407, -0.011505802984339657, 0.0010844230398889844, -0.08867571198109572, -0.012156913031577066, 0.03377622348308641, 0.010474408588284842, -0.053179239720134185, 0.021298920344835288, -0.06072916692528714, 0.02545038296242032, -0.07503060139526915, 0.003951796458753304, 0.003064758264653853, -0.02410314570023171, -0.01433893669797753, 0.013958196377964267, 0.04366638712624947, -0.013389440638547847, 0.01430487258707929, -0.06666928380119909, 0.009854683299629909, 0.04572808534023788, 0.01613383037390985, -0.011930139138338281, -0.024207851725887696, -0.03491968776830014, 0.007456042983231084, -0.00015637844340051158, -0.021387245372976958, 0.020759580609874796, -0.006897772424250692, -0.005962547502017065, 0.028470464326002257, -0.005601457616546813, -0.0108974671228178, 0.04356081728462472, -0.0022966003135463813, -0.06434489697953392, -0.017345518380512952, -0.015478650399630903, 3.955200485366108e-05, 0.041230585746335924, -0.021481340160521233, 0.06194387795860889, -0.013561027342320769, -0.04107892950290117, -0.04072027855788175, -0.004973688875285031, 0.015397822607297964, -0.036162733194033785, -0.022808756910179917, 0.062167454613008225, 0.07448635426433656, 0.019919598654767716, -0.009632371505198373, -0.032058464200373026, -0.015527837717857389, -0.028955588464653757, 0.007681482949548477, -0.008338305488745633, -0.009927458567058803, 0.013454128853150981, 0.046072217524204394, 0.06235910053709088, 0.007825357810552823], [0.056456831395138844, -0.008373752573342242, 0.024794672163049224, -0.009378648768415276, -0.0019287251851040452, -0.027390934221039432, -0.012030626762925165, -0.035315266793270295, 0.014992985654663825, -0.08271430688115035, 0.020104428375004358, 0.03432209564313954, 0.011461885564123666, -0.05075463571475133, -0.03168558167061395, 0.012457936369973065, 0.008221991328865088, 0.047284021040645344, -0.054045386369793266, -0.027411635710882093, -0.0023795193573763335, 0.03761143406911015, 0.009402255790162824, -0.0034466849435815456, 0.10849232042107226, -0.02269866612665038, -0.07315318634483955, 0.07879160083579607, -0.010914224082761511, 0.0038178815280499627, 0.018381209062104647, -0.05252161083271755, -0.024791022399357595, -0.013579491401382374, 0.00132663453950431, -0.04078669936505765, -0.030222531848177876, -0.02146114515135567, 0.048916870801061364, 0.013310200228372534, 0.024014001180971252, 0.04941637939565459, -0.03286814067938932, -0.02657585465388403, 0.05707635548636809, 0.007353587531003652, -0.03533498763065349, -0.017350770887061273, 0.014929789684992862, 0.011619780735623154, 0.0040632444953677275, 0.043235620835914694, 0.0036503387608288963, 0.043011361428930014, 0.016374223384041386, 0.04069226482546502, 0.0015784922066074268, 0.05563491149838593, -0.01678572347943181, -0.039653949086383096, 0.027306948650189157, -0.011680269436146116, -0.0021353267644152554, -0.02384024868526418, -0.07015797128710985, -0.000981827296267537, 0.021361813257497697, -0.008800372493429987, 0.016212170363782412, -0.04241046831329286, -0.007146176954761788, -0.06274660380729373, -0.04963456081241853, -0.017471980509263584, -0.0077213316708796675, 0.051246182490423946, -0.011606077729883838, 0.010177615776846605, -0.022824249313504883, -0.030503915079514218, 0.05137791719745035, -0.018927839733058248, 0.03968200664812365, -0.02936751929749165, -0.0645877390662835, -0.01019675865609951, 0.013544206406450201, 0.02120066918910877, 0.06146137978822531, -0.06504950764211154, -0.020057708348207175, 0.024220968588066747, 0.0037919240900838717, -0.04339495598584229, -0.06575219408847925, -0.0009762314201364539, -0.009127618923010738, 0.013615205306203148, -0.010394232475605484, 0.032385628004921854, 0.002892654563249626, 0.0637107090996845, 0.013714458620708058, 0.01013732390973272, -0.00846297704542193, 0.036311557459458334, 0.04121780133278135, 0.006442009653234266, 0.027578964728069522, 0.00687299068980648, -0.020364728499872576, -0.0001723609154411642, -0.04252727062640321, 0.013398765823008769, 0.02289131483080086, 0.023195045996199128, 0.016157042077581025, -0.09389570783365857, -0.03285184128576229, -0.041026553496079365, 0.02001115089648007, -0.040154884420729745, -0.02544580596691064, -0.07441679314578235, 0.05620007816303833, -0.0684573041165788, -0.02362328029512256, -0.07712298027174257, 0.00338219315399645, -0.03934822404359467, -0.03483069305633658, -0.020156876711911957, 0.0441519480922447, 0.04054322984899438, 0.005989888662299327, -0.01957297422952086, -0.005137560357096725, -0.08515786627164755, -0.01674418233230155, 0.02143548115607478, -0.012933933030578023, -0.025775642600597223, 0.026573301219772274, 0.01643873436011106, -0.031204610662320307, -0.04483004497908916, 0.015547633736556722, -0.009455449617154308, 0.036096307761668715, 0.019395746254277313, -0.025417200705992855, 0.04669973148583016, 0.0310882998184877, 0.005392044358679915, 0.03338561577583984, 0.005841175690150484, 0.005301480995188124, 0.06292466321340486, 0.011732038441680687, -0.004872759397367389, 0.011915246760712766, -0.02888529783107605, -0.0220659793901389, -0.019353355674213153, -0.06178384426621792, -0.004124720010446993, 0.020248724362104554, -0.017213393063135202, 0.04804158582738716, 0.002269383676742059, 0.06607101869487646, 0.017570339854444613, -0.0014729298914952596, 0.013192735774181844, 0.07669951009980139, -0.04399444992208828, -0.02743371860708683, -0.055223415920227795, -0.02285151546526574, -0.03449600092508643, 0.02759469773296908, 0.053360604305511636, -0.028321616818629464, 0.03279844308414336, -0.05332443112508206, 0.0029360581255390883, -0.03784532933159083, -0.02563146929702168, 0.013487881786997358, -0.00620992922037187, -0.06768659370111925, -0.0413875405759143, -0.015110669347975796, 0.005313722893696905, -0.0036873598305560335, -0.0315595489539597, -0.029362451984798144, 0.0285753722122559, 0.0033422209615097407, 0.04359018659096233, 0.024016254771299865, -0.03411530137483695, -0.057081308644314245, 0.03563280134291171, 0.031849219177429534, -0.03692124176154599, 0.016469178703968745, 0.03232947126962938, 0.04328513716495929, 0.024242672880451958, -0.024271443770319808, -0.007621393138454018, -0.06932309145748813, -0.014757361260407493, 0.014685289117519715, -0.04379082748730323, -0.047536076102322085, -0.004997116739018086, -0.006927842478195336, 0.0699897114918186, 0.0020385639292707963, -0.0279248899237101, 0.014578230196749729, -0.03524703482691869, 0.004391568411842902, 0.006599077425030269, -0.018931619984414807, 0.04168722468613105, -0.006194935985786591, 0.012939394627537492, 0.04642598614619999, 0.030898721041024424, -0.07583151233447546, -0.00940133262394873, 0.06457625392841851, 0.012085550673379936, -0.06109128845433288, -0.02342280761579048, -0.005593712669421158, 0.0860329207744994, -0.01593573283956145, 0.014533841378794177, 0.041663871644095976, -0.059342108810351436, -0.05415591976319668, -0.039588700029917656, -0.0747463267207383, -0.03074160206809887, 0.05719137661463968, -0.010910933137846548, 0.00457288644560415, 0.026686734193066237, -0.0039012489711724853, 0.002331189630936276, 0.006738259390001604, 0.012778855873543845, 0.01641184645846646, 0.017113162549642794, -0.044643313050742275, 0.02744599679253476, -0.004414122815508829, 0.050124370372088646, 0.043613333718256216, 0.02403996355320146, 0.03559826998079471, 0.05291652682815096, 0.02903286918339864, -0.02912720554836493, 0.024247293392007763, 0.002449829609879007, -0.02896086403762017, -0.0034468325383328357, 0.029916420719822683, -0.0007174569041178943, 0.026706900074791335, -0.033188088964922424, 0.07228724436876145, 0.04722864707634252, 0.05610147377943934, 0.03605319078984141, 0.010292425479370395, -0.017971291331155295, -0.022376245944838374, 0.05125202184913461, -0.07196261564598486, 0.016713967711694946, -0.005352288479570698, 0.027451296565314115, 0.04675761732963195, -0.0032432639247195415, 9.806244678670951e-05, 0.05124257215622602, -0.02775401642117954, -0.03945552079790115, 0.04882740356105551, 0.040823663136172875, -0.004339742676674071, -0.007848580972374564, 0.014742970668943785, 0.10944407357748896, 0.019570126015057598, 0.014007802917589397, 0.022927901892549656, -0.0174542717375337, 0.01213877452664898, 0.005700418549768901, -0.023688544614815225, 0.0273924502621242, 0.015343574185596323, -0.0031674827901790603, -0.014002238376001463, 0.013149278652833999, 0.029810875951764078, -0.08588870939856572, 0.01129555323169593, 0.0022122436626755095, 0.06702579113566524, -0.0035594978511218566, -0.0167084221650634, -0.0045630646692513864, 0.0005599767324965217, 0.10591155361041697, 0.04640124351773795, 0.018429429615368444, -0.0022057308913696555, 0.002848754803343351, 0.06732386377799672, 0.005107520915747845, -0.0047201112031230045, -0.0331698207270991, -0.07611325473367621, -0.057943287367473485, -0.027897824462587102, -0.037751666843889524, -0.01374562467322957, 0.013941792996742988, -0.023860176299529735, -0.0223592129294991, -0.05087366240836505, 0.018968504306886597, 0.037557719749122184, 0.004272751033285422, -0.0157642222799144, -0.008947239745643357, -0.03554709872266551, 0.04803151167239467, -0.016562501254136965, -0.018118816671290717, -0.004476853882581318, 0.0072864937969957634, 0.010018220404111261, -0.038853696047815175, 0.03931194976301244, 0.0347399627426309, 0.02949710001135091, 0.00972008901255915, 0.06840838463470347, -0.05590783976428302, 0.010779019060136749, 0.04784798421369731, 0.0015038282841590897, 0.04218504265350849, -0.00218461957516851, 0.003215499426027224, 0.010032035000700518, -0.016111216461784126, 0.004043363566866907, -0.04027149167401974, -0.006334251874814056, -0.013586875464698082, 0.040787030266187865, -0.015220165719734977, -0.02862593981933718, 0.028172055444049722, -0.013722300461066, 0.0938377569202625, -0.019680303236614884, -0.038403482111590566, 0.06577205294306245, -0.05632374117752646, 0.02792436056569575, 0.018915652770284706, 0.01566690316389906, -0.020498050017206077, 0.04624726129453308, 0.0373557968072592, 0.013997257176582647, 0.008608562457982541, -0.025877688668469217, -0.02205805666982457, 0.009198541202644682, 0.020223356289237427, 0.015329874293610976, -0.049592091984050804, -0.04342825782959179, 0.015950004976730534, -0.04119253856738125, -0.021606765556060063, 0.03446751610097829, -0.03337470439410978, -0.047502284653121105, -0.013099990504153202, -0.09945927641144078, 0.010358434340441048, 0.05351498054806699, 0.016462653408289583, 0.017881259561280543, 0.04714439234099027, -0.04179832854754134, -0.03147495414494789, -0.0021598384602870735, 0.027346726608358952, 0.01048962906131978, -0.04290579334099794, -0.002518655653673322, -0.015338909771217876, -0.06350472263456118, 0.013912388889844527, -0.02278395730425976, 0.049106360319848705, 0.0190534578913855, -0.019492550675617625, 0.015731675984613436, -0.01264829868438867, -0.018979842145483785, -0.044782855001547786, 0.022000296468642627, 0.03732351686927042, 0.02048948306854143, -0.0350419002999161, -0.0011783937450214226, 0.02480662793061103, -0.030498038367718604, -0.07524034876994477, 0.030571944515508067, -0.013915554816478064, 0.013812103814535731, 0.005907141304085592, 0.00909555630914318, -0.008243474565301263, -0.012507189062669831, -0.048860665249874716, -0.018566065192029527, -0.024700052129259513, -0.01956909954895994, -0.0024759423952692033, -0.00108106166692333, -0.03420295840885582, -0.045724074212027795, -0.005373134986438715, -0.023949862314848202, -0.027740745940509837, -0.00891443497985161, -0.012432206281338759, -0.002391913499803764, 0.0439893743796722, 0.0030238553811267623, -0.037717297165149995, 0.001746158503440212, -0.006869228603667015, -0.00037711028767490636, -0.015427041002218683, -0.057278711618900344, 0.017726244965641295, 0.004063936556500941, -0.0003643793585382772, 0.05889707011739977, -0.030114589299640317, -0.01755813324872255, -0.036077383505106156, -0.011544012239075346, -0.01969292229064567, -0.00784847382987481, 0.03648286297764159, -0.05185911004592103, 0.029015057381215115, -0.03815113485596997, -0.007443926018316653, 0.03208357385792739, -0.07101946963567708, -0.019373407202176358, 0.017501936316558445, 0.0031032342757955434, 0.0013820495696868172, 0.017159382289363104, -0.0005422887706113178, 0.023975644178425466, 0.01765017219030693, -0.03784252297533055, -0.013576439136054094, -0.02331628443402858, -0.025483392768563505, -0.005989941685283968, 0.03876785201568391, -0.010924218332667577, 0.06424749808722287, -0.022731587834711468, -0.03297135539802826, -0.04518478496728203, 0.018269227179261636, 0.026254675689222823, -0.017117298864537576, -0.02679596029253975, -0.03579009160247547, 0.025445996085263132, 0.027511748943546695, -0.04423209140431299, -0.0334596917511996, 0.009892153726575538, 0.006309169906486412, -0.02670389913572934, 0.07131794968160879, 0.010321536826315963, -0.0003882753616284589, -0.050017386862506244, 0.0027110424809266573, 5.4682965896541165e-05, -0.03198113480557952, 0.014345244956063614, 0.010857673582838867, 0.00037139699576699546, 0.011626044281636381, 0.03779420159180556, -0.040798561272473756, -0.03800603900057522, 0.08924874488665901, -0.008472715701073988, 0.06717352352414864, -0.015841188712586704, 0.04041899117095525, -0.004247739987348524, 0.06102780731138168, 0.037318094813947586, 0.022239383615737025, -0.08224088608700528, -0.012082204327767266, -0.05686670435598811, -0.009581286864203469, 0.0076874032993562574, 0.0041918113767614625, -0.012438210110222806, -0.03754013174770108, -0.029674180391458176, -0.01202769523802405, -0.014469836036373081, -1.5994511749411456e-05, 0.014098064561109219, -0.01586139345999891, 0.004988571540544084, 0.027931953871338185, -0.001318136009565568, 0.030528548427128294, 0.06157498629480202, 0.0008146518398162414, 0.02148175566638389, -0.017465000137342555, -0.03810074832229531, 0.034055157992614944, 0.02589506042810612, -0.04129807102926005, 0.019518362395183796, -0.027682990962342734, 0.0035061807083609426, 0.055843378309639376, 0.024246655253140268, -0.041584433020630904, -0.0221909855137962, -0.00888571375826737, -0.036140973923811916, -0.01937690788737379, 0.07790409766964933, -0.018111562909010497, -0.0011269135813962783, 0.022540758100845607, 0.001905190806046519, -0.017884987146860175, -0.00727016201842507, 0.02027332244847067, -0.058968866178662864, -0.01877405369407874, -0.0353394746623569, -0.048250284377447224, 0.0414873241243593, -0.024261595500522263, 0.03064971458221549, 0.014145089055177158, -0.05037207406972733, -0.025510574511726235, -0.08187833774814901, 0.04281715678687629, 0.0052442515384422, -0.03934883254558972, -0.045890889214077024, 0.008702034205013618, -0.03902250167836569, -0.020176618347641093, 0.03664441848271643, -0.008638490424987256, 0.04887477791643062, -0.007331211737650585, 0.019915827835203043, -0.034833949450389305, -0.0004641370104305124, 0.03227664541450138, 0.04023419991909367, -0.02073213762246428, -0.033128012163987336, 0.05284946132662525, 0.018457499546146495, -0.0315086047862557, -0.010208063784903021, -0.0433288692837578, -0.02964208185704566, 0.05347193681820755, -0.0399212328101126, 0.020311620610405458, -0.027186335384781678, 0.025607970252742578, 0.018912908197767225, -0.002082049284597393, 0.010308007678068875, -0.01577961988814956, -0.04916103245191817, 0.010884320050343534, -0.06518950283372156, 0.04882503899068719, -0.014901660397908047, -0.006565152615948553, 0.03726788140307036, -0.01503265369526828, 0.09330652942830299, -0.025213395426156266, -0.03455089060855407, -0.012891874922053752, -0.009952077703111614, -0.04176597412644162, 0.03806142685384202, 0.02747859682216581, 0.004071428176048077, -0.012313873721510656, -0.006064765339453266, -0.013419289229351154, -0.013435372656124725, 0.013155550793564787, 0.041586163096776374, 0.0043320838371672015, 0.061440101853677785, 0.04038755707684889, -0.08572975759084349, 0.0251407074860393, -0.006095030406909568, -0.006361902624833473, -0.027148249142527392, -0.012586039680577454, -0.00955186747347117, -0.001667989477516505, -0.07593848822185781, -0.04876661489253235, 0.09320534099848081, -0.02078764543662099, 0.0014016891132198506, -0.014198845509042022, 0.03858236526498356, -0.0244938126537382, 0.01703516008433772, -0.02522702755368594, 0.01030935012402085, -0.051827014341198394, 0.007464438453717176, 0.013587936332034381, 0.0253839677296443, 0.03839459412914701, -0.05235056497769356, 0.056264311897032564, 0.0397033345881734, -0.0476370564639795, 0.036508459033793204, 0.06086639651586822, 0.08891698451539069, 0.014628309674674253, 0.0010127856451034448, -0.05207252095563369, 0.021423428106652303, 0.008156085773801119, 0.008103373594901769, 0.04084315101284932, 0.022889283238203127, -0.03563774433919539, 0.06130710936566562, 0.02687117023824055, -0.02841005420797199, 0.06427134762429858, -0.020165590095254895, 0.006400989195232351, -0.009062775464816887, 0.012401665929055753, 0.03570338369363746, 0.005452905193452108, -0.018937258796664833, -0.008158128340028265, 0.006245922928628871, 0.0025955674057122867, -0.06876648243322483, -0.025417506224820315, 0.07657486779209093, 0.005633371677706443, 0.0114186261422097, 0.05632218047159106, -0.04755825105633706, -0.023476963891209363, 0.06911883372697204, -0.021275460842821437, -0.05331327893655724, -0.0218895421845688, 0.029497746694288063, -0.03293550211834496, 0.023671230345675726, 0.020431149054545777, 0.02844160094048941, -0.02598376407228587, -0.02547939930959414, 0.009065285166164032, -0.06547695693719242, 0.030420865180964395, 0.043056067689022336, -0.011904328115022867, 0.021318630413518915, 0.0011252488907100547, -0.02321086341336278, 0.016598588984758748, -0.06115178123741682, -0.04040223454593047, 0.006179519871003986, -0.010128480689851435, 0.003555796581141702, -0.09151602826771378, 0.03192050621913275, 0.006754941458968276, -0.029269363309477096, 0.05165016123292009, 0.0272999602573832, -0.011097169732119645, -0.005705595021756867, 0.007760024413533652, -0.043667626850860224, -0.032592099529435516, -0.04004805356429753, -0.01092833350914883, -0.03723028553995452, 0.02391583466393616, 0.007185054919789082, 0.05877332968416756, -0.00762495730373971, -0.007658846390460579, -0.012059292994453127, -0.03549787895754234, -0.013848289205647898, 0.02476053904772529, 0.018659899182141528, -0.029358827732665682, 0.04618301814699049, -0.009014132528335621, 0.0427002819311763, -0.009693994314590618, 0.012094257242043981, -0.004918168955666997, -0.06100344965269979, -0.028903059200082803, 0.05885155000386026, 0.019615438914128418, -0.032162375410420996, 0.01732949689515704, 0.012211105446053038, -0.021362514741713468, 0.030274451239547345, -0.03753121753736466, -0.01986397545847522, 0.040387461037252, -0.006104716550877034, -0.005610244203135001, 0.10879106974588378, -0.01782184523783315, -0.009840089260246928, 0.05301160058148703], [0.031452826385040725, 0.0034981750414306667, 0.039277906388305826, 0.02880896052609641, 0.018898199240615848, 0.021026363838102493, -0.029355563093531125, -0.014089950959178634, 0.012718321387393035, 0.01320512737343216, -0.016455150899659383, 0.045737478950334316, -0.03217033055331846, 0.1007670789353954, -0.017465041924881162, 0.023546026601202412, -0.03529903025813288, 0.06245683506874039, -0.015805035875060314, 0.02152512580552927, -0.06874734029279309, -0.018243677657745226, -0.06557513004231887, 0.013914226194760104, 0.06654338028365861, 0.04627305015000028, 0.015769438075091305, 0.04312607760893889, -0.09825246743754171, -0.011487485809229484, 0.06757363692948826, 0.02879592331474151, -0.0044958817489240115, 0.012454005463811904, 0.04266927813303679, -0.04300099351529961, 0.023033173749902165, 0.020221019803455476, -0.017805264335658974, -0.02004254645868319, -0.04159548572236898, 0.020180353390503922, 0.006763812234081337, -0.02126077019057243, 0.09155873185817065, -0.027939765480202328, 0.00983862992245255, -0.016817315692668696, 0.044223714210714214, -0.05789966924569923, 0.014680180737105, 0.0634909425435512, -0.018820662491952942, -0.007971166940781978, 0.022307970983239167, 0.017592417094110434, -0.07546231809747243, 0.04528416654247071, 0.001875182379357018, 0.07771088920554962, 0.0229262447171821, -0.058312243724412884, 0.009388608120287797, 0.03701934994997116, -0.02317623880867182, 0.01469573414757088, 0.010822772244794363, -0.007069636841591881, -0.0037804039531274926, -0.01728851150229491, 0.03191547667966592, -0.05560812548855376, 0.027866667244513466, 0.04155573859460111, -0.05621198302649332, 0.01332160657989574, 0.029775475236832334, 0.007658123095645173, 0.05088230681308332, -0.08719771747847367, 0.029193157801734045, 0.019269745369472627, -0.02449465083582334, 0.03889758819161627, -0.0016326498602326131, -0.06632293877661997, -0.013327791903775256, -0.010905038402621525, 0.04134151835059073, -0.040378624105298445, 0.03633080715315379, -0.0434166468683435, -0.02820545612849341, 0.03102295575894239, -0.09412275886930528, 0.04731180643303211, -0.032675427544919956, 0.007659138143154665, -0.047715221797697285, 0.004969011158683316, -0.006116432441646201, 0.011512780776272994, 0.039264733403727346, 0.001664912912672039, 0.056329095976253026, -0.055440045329220554, 0.031395942594241354, -0.01145202493195127, -0.028009318500751806, -0.020107399955659553, 0.01671454616017424, -0.02997324605948954, -0.005167538934802841, 0.056569727620265395, 0.0084920859877793, 0.04095988194377553, 0.1513653185128899, -0.05747546648387441, 0.03666665947750713, -0.011091817061811917, -0.027560221942851956, -0.010099544652206431, 0.02400365481602398, 0.035507025207933855, 0.00676673383773778, -0.021105437047406753, -0.043183184027299884, -0.025035873797464324, -0.0061514334670309, 0.009490879500714396, 0.0863278838120832, -0.0064265518054255856, -0.05043116243409383, -0.003902996517921509, -0.00023903741602051935, -0.028146610667083433, -0.0027100357925495602, -0.05593558117140974, -0.010463333989810019, 0.008120635391230218, -0.05792603179337658, -0.016327366862035293, 0.0031537493710358526, 0.04211289196086685, 0.04915036057311529, 0.03995413525245922, 0.0006766760699030022, -0.04409317251292335, 0.03938775334161193, 0.07141828329680025, -0.0221174530434818, 0.028697944364418037, 0.005437945034270495, 0.019189127642580458, 0.07460527813050714, -0.01464663112741268, -0.0069175655685460085, -0.014472956550303675, 0.04708400869208307, 0.01699435387918178, 0.016635884500510654, -0.016683056356084684, -0.05600037710067097, 0.022615580917945192, 0.037465586103070735, 0.05223283728335609, -0.012904103934742393, -0.020564306892283054, 0.01663189071765109, 0.04507889845174972, -0.03504798895476853, -0.002063568697829476, 0.00514262465603302, -0.046220487873551694, -0.007659628114082567, -0.02182481485641785, -0.025403045587533063, -0.0048034354867175525, 0.015972502405464512, -9.346327213674041e-05, -0.008941716184202005, -0.027147286556278117, -0.017719255650100747, -0.03142934643774303, 0.011879741225955105, -0.020423163189504788, 0.002573137402801989, -0.027638409370639907, 0.054971185056344254, -0.006339085405053546, 0.03172103480173871, -0.06178895948516955, 0.008859752654255143, 0.005063544672353324, 0.022604418751544997, 0.005982234011500119, 0.005361227258801222, 0.03180577117330918, -0.0364821274294081, -0.03356229827059356, 0.017606237230871694, 0.048606704268420266, -0.017751050895617602, -0.06359359395308044, -0.012930830186975351, -0.016631997122316056, 0.057272788277676324, -0.0021351954599537894, 0.045800737595408904, 0.018884705964778904, -0.053128719496898895, 0.03380433911331674, -0.0055437815229947155, 0.06400316189437076, -0.0030494645118104803, -0.03817433448468447, -0.06316311626286193, 0.07579850898767085, -0.014415081999878973, -0.006035069809994932, -0.022056824707441976, -0.04746118539460533, -0.009836037353808355, -0.061199508727427014, 0.007247325332873001, -0.05445563170204556, -0.04571366539364188, -0.04657967257640811, -0.05034955568349129, 0.03415489868698517, -0.0565438518287193, -0.0013441698620953262, 0.02128380044164591, -0.012240876208935467, -0.01582060616201841, -0.017070027433428354, 0.01831029802880529, 0.05652381104559497, 0.01007255895069767, 0.057285571281965486, 0.037251266167277794, 0.01729606748010853, 0.0064393655378507525, 0.026537720393802224, 0.04769666278624545, -0.012630272816011893, 0.02539161113299349, -0.10510794514090359, 0.045506779780866584, 0.04535203892052249, 0.03798908558949948, -0.10408958766703018, 0.04560934128594806, 0.0007651921984220738, 0.04904257652484236, 0.03551591042937242, 0.0026070610159421555, 0.07395879703656574, 0.03043402912296077, 0.06423076156556672, 0.0015473198573934383, -0.02061369194742549, -0.06157066120010061, 0.0489740056401693, -0.04446784698662955, 0.05964942820585352, 0.016018740963405522, 0.05216137205354182, 0.02422232294172888, 0.012549987611898055, -0.007401113171132421, 0.07688660179545506, 0.05819400902832956, 0.011547584030064936, 0.02839953054452584, 0.010305021166373324, 0.025040615147066066, -0.0645066191636522, 0.06093398787169992, -0.02915122593389888, -0.029241362757976442, -0.010813019286026498, 0.050793875850773065, 0.018920079339644177, -0.0055029275800248575, 0.059689468549933046, -0.049034368896996125, -0.012552883249895872, -0.008524985457015155, 0.058994694680711036, 0.0878293371599538, -0.01423497773405567, -0.0009169809601955627, 0.019506025553408506, -0.02664954911203211, 0.0047794119915784816, 0.01899300119363672, 0.026718524857422227, 0.047969631635837076, -0.014626363044243676, 0.01105045406807716, -0.04808618808302622, 0.006905173919031616, -0.011988198008174009, 0.005935239688920244, 0.02869490355296761, 0.011381545418538653, -0.017427439226931112, 0.006695423931807833, -0.0216850478813666, 0.022036006094904352, 0.01855869089229937, 0.010225080854178727, -0.0111187470470643, -0.05138176989702962, -0.02451034847327335, 0.0075784959619070525, 0.031089918548271308, -0.02539466685004817, -0.0031811115269133015, 0.046754169676805825, -0.013233509495798965, 0.018120637673835305, 0.006450790788839401, 0.042622781153411574, -0.051752371879059, 0.026152372787208996, 0.06511830143811333, 0.014633450499450352, 0.0682951105499911, 0.0017163192403389959, 0.03934180671112309, -0.03644982318854518, 0.059982650378081974, -0.00582548391147098, 0.042281153535528186, -0.014805408858759845, -0.058469383402325256, -0.024920490380434136, 0.018301852867326135, -0.04795746480458342, -0.06502158154934283, -0.06434549356440715, 0.006911241761260462, 0.047648345170629734, 0.00022292930778801943, 0.06450339231707276, -0.053510907134102004, 0.024088488429472317, -0.021061231514116586, -0.02735807492827783, -0.0006226315854609307, -0.09427668066957451, -0.006115904444615075, -0.0007743502021428522, 0.016777432201623855, 0.0027353769106988586, 0.05589023575276799, 0.026209942743712012, 0.04075100031474332, -0.06628145393369388, 0.01033884158295509, 0.04162117007282879, -0.083260596972093, -0.009104201613362936, 0.02668682017809762, 0.0031411661754872588, 0.03838107154543711, -0.02545609317133734, 0.03815297877621497, 0.0334835349154036, 0.05725619528386629, 0.03506628804156319, 0.06399054739831482, -0.09657395986899829, 0.0004755642853364886, -0.005329611588183408, -0.021088248275368017, -0.006844274940893923, 0.0515796312529332, 0.015056011512356417, -0.001432752982582715, 0.04012796228696907, 0.003299983799806635, 0.030917840367673026, -0.0006250535514943046, 0.021628853839387542, 0.02631261383695768, 0.02136904365726228, -0.0220052467155615, -0.021527074485487612, -0.008941823783398542, -0.04230138555698275, -0.06576997903235661, 0.013851649634842414, 0.02782160571781306, 0.021015242167451743, -0.04367690379541806, 0.04448019016350347, -0.009170904125851965, -0.019814689866762363, 0.03555031882401551, 0.016901280968516546, -0.02515893860990228, 0.03723858330956097, 0.039466209979624904, 0.04227971706205547, -0.05049873667409467, 0.05367016668929255, -0.023161138305051465, -0.02888824736271574, -0.0002573800489760412, 0.005250043153780433, 0.030064203069482553, -0.0606657318836706, 0.031499231557049125, -0.0029772876946782207, -0.012321546186928994, 0.007136033478445151, -0.026336463852171504, 0.005547228307982809, -0.002778269429883988, 0.02715349758586628, -0.02049729546719569, 0.005578178154149042, 0.05288376272451121, -0.018575078523771493, -0.04663632243493967, -0.012175137460078908, -0.007831885335111371, -0.033916240451749166, 0.0116501365534604, -0.0005232970775628135, 0.04777395500712662, -0.004061934830950113, -0.04210711647169048, 0.0018027540653822464, 0.004282139232105038, -0.007490344588700002, 0.02362797579754785, 0.001817924742428875, 0.03747278297835927, -0.02538935752540539, -0.03452511388042007, 0.018172724149493124, 0.013096021196038875, 0.02186888788455719, 0.008577092027295622, -0.03161237101526865, 0.0002463304940670255, -0.05980063763136279, -0.054497779090591565, 0.028198462286218272, 0.0680080552224092, 0.01625669495320857, -0.030338460526520696, -0.0012642824516978027, 0.022804302948794763, 0.00984920859896648, -0.00650975496678827, -0.018522680714106343, 0.02982243544003154, 0.023064462788889722, 0.05531448226598955, 0.008316113962070163, 0.019542578328490334, 0.03394280869350072, 0.02578246375370679, -0.02262495670825051, 0.04854554395566836, -0.019500484115539153, 0.022283734386172323, -0.0355666767340513, -0.026799165964606454, -0.009908882825051524, -0.006521829001816515, 0.009031584396198344, 0.05299279184730465, 0.007984026382850052, -0.048265428261118855, -0.06900524717510219, 0.01346560439908444, 0.07580526760945368, -0.023879142286920146, -0.03786976704755463, -0.03508892045054256, -0.0012743800904436845, -0.041563021816582744, -0.048967247188515875, 0.013176140274675369, 0.004970466498950359, -0.008112059797272508, -0.042092931188503414, 0.030650566972374223, -0.02863018592204761, -0.04922678506062967, 0.009342130440750945, 0.023739405582221918, 0.06854675409943815, -0.011336098812025719, 0.030558011928059882, 0.02360548785126527, -0.039297157451377886, -0.03614674886823433, -0.002637027549180405, -0.019467702867193504, -0.016136049243198183, -0.0036510725701967782, -0.02689056779886103, -0.062122189697674544, -0.03519214113741183, 0.019540643901879477, -0.02389154133294907, -0.02833826268487451, 0.049894983300781015, 0.01920271598002601, 0.05698003545451099, 0.0062649241602727905, -0.009268771679245358, 0.0631941897710109, -0.005113705709099391, 0.07939394668316338, -0.04582269026327368, 0.02595948957635885, -0.07731612875999762, -0.048201656237345916, -0.035208275204312266, 0.05025987468225318, 0.013000078926357388, 0.01231993434325043, 0.02738026605274056, -0.005498648692999357, 0.04659744582152253, 0.012445041331429556, -0.021385641237420573, 0.05301262835800108, 0.00701734959171959, 0.038421356198788094, -0.03574696125133852, 0.010168729196730172, -0.02751686487756399, -0.0017299675446773627, -0.009355123870380786, -0.03259668272522038, 0.0472760883604252, -0.010358283377134894, -0.00681427456019399, 0.0051631401481196815, -0.020972314533344052, 0.05282236960743646, 0.034226736856833, 0.009022601256036017, 0.022083631681509917, 0.03507966445133782, -0.01912186312356188, -0.0054585570053012076, -0.00322682453425228, -0.007599039327761305, -0.0583451827162023, 0.012539348864511113, 0.027294681196290863, 0.04205680666871453, 0.007875703486130745, 0.018891068432943452, -0.03680737166513892, 0.0560759757312164, 0.01597958268109414, 0.03145618024905345, 0.0413378941909502, 0.03816693992238879, 0.013824453840948775, -0.06047406017894537, -0.03669540852347397, -0.07326572140765907, -0.016117029798517566, 0.015770843186940938, -0.01590486839847848, -0.020627507109075068, -0.01994050183967378, -0.03042716703081033, -0.02265822665364037, 0.0315906174609071, -0.06646999106377159, 0.03737331101624999, 0.012119633609028574, 0.033572068109843124, -0.0026466509539131025, 0.013791430315159503, -0.06974482533519484, 0.019115199399603322, -0.009997482055204067, 0.007202914927971106, -0.01829839650415547, -0.03317664613844929, -0.0656042048319104, 0.023337045686174944, 0.03302223832525312, -0.057813327547296685, 0.03152186875819527, -0.04240601411275618, -0.022179300436401244, -0.021354626683627285, -0.017411610432968818, 0.01068022073057425, -0.03682048387254716, 0.009445867758861292, -0.012936350314555738, 0.01504637961718612, 0.038949680358062476, -0.00189139649726814, -0.048239032416629926, 0.04309873157095038, -0.016159369986896675, 0.0055272767050738416, 0.008563684598647167, 0.06143196495096583, -0.0028169669648506375, 0.0574566649878719, 0.020158548604910946, -0.011692535170909277, 0.02167959473420749, -0.0385000838849452, 0.022209953439550293, 0.025282144016942787, -0.004384464215415548, 0.015962047153412467, -0.012030561361495367, -0.06210742033714018, -0.02354928352486391, 0.01865510029615739, -0.02172393393606829, -0.010393722825691981, -0.06330655886645829, -0.027587889815948886, 0.04767322149525634, 0.08892993852901375, -0.02692321448752971, -0.026724244728544157, -0.004652072989666036, 0.026339055493384188, 0.03629497099045936, -0.026946713553061587, -0.01021465938821991, 0.02357930967615332, -0.012004745137920414, -0.06944474762363163, -0.006784119022497232, 0.0013978504666846494, 0.04280257008185121, 0.0025430799505018705, 0.037741999925043845, -0.09807559510215239, 0.005789554008660504, -0.01288836360968502, 0.010678689522207638, 0.02319144960353867, 0.004205386227767126, 0.022482870530958494, 0.027389802363432296, -0.009557902595180698, -0.01716008946430517, 0.03358626924883039, -0.038666279763798106, -0.053713781388273665, 0.003797533848718833, 0.021248899497912623, -0.0017629729334112394, 0.00782250344327453, 0.07896724319978388, 0.010230403003585556, 0.050043556867361415, -0.03845451399074835, 0.005166147085683565, 0.0363945336095129, -0.045798967727657125, 0.015369889530204838, 0.04453981347096209, 0.013436089825682592, -0.03428439736389389, 0.09497518438485877, -0.038950799876529565, 0.009827940319040497, -0.04227035834994368, -0.05182079331132976, 0.0436931273916189, 0.0029689435988777832, 0.04411968179825456, -0.02598585041801813, 0.013438844963902744, -0.01616069567741816, 0.017872954421301112, 0.03131193704268203, 0.012226840260282788, -0.01818091089937124, -0.009838173568863583, 0.07501526395521907, 0.00454838511900334, 0.01667592450475052, 0.01690284392509273, 0.0025647365946114583, 0.03616077310933508, -0.04832194331857358, -0.03852509155116633, 0.04168662702063291, -0.03877523629188998, -0.10374543871048567, -0.040373262612802774, -0.0028435471624276665, -0.0464767456747532, 0.032150509892712724, 0.09239093406294363, 0.0008704558805777858, -0.03874078442548807, -0.04725557311586722, -0.0638530773712446, 0.04340871753885411, 0.01093199909178544, -0.03293695828818032, 0.0028900368511132228, -0.020699123018590854, -0.06651037593890465, 0.008648040558341726, 0.06211841075100033, -0.012305129726564123, -0.0022401955366243022, 0.05131344670123265, -0.024189414115314164, 0.02554425702705418, -0.026828354927822855, -0.0077474510996532004, -0.005264918050201169, -0.03474416946868565, 0.04481605100669922, -0.00838319101181891, 0.008149010466836292, -0.016084240437839348, 0.07577121066630442, -0.0058477262215375775, -0.024867731956296123, 0.03525572735595169, 0.024275118938641645, 0.051426473108228274, 0.03598343818723921, 0.013101256784243832, 0.0042417684702925305, -0.010672328868642996, -0.03487264311165788, 0.0032396179247161727, 0.050792719789516896, -0.019871207089578593, -0.06676729849184401, 0.051862286037084725, -0.03030433297848726, -0.028920315610363956, 0.044929471548691084, -0.014490582569862239, 0.001042223785898906, 0.058842088596712916, 0.02916924981646277, 0.01239282957374835, -0.029294277961691786, -0.02417083528684549, 0.06603833445909998, -0.023411888154710358, 0.030888088442629563, -0.0813301726826894, -0.0007422045912170502, -0.004328588046428419, 0.014909912517523388, -0.044824455876209236, -0.004465303425361277, -0.0012545234255036653, -0.04684389532907075, -0.07564882074299138, -0.030559412704642238, 0.02683094970844251, -0.004328212381121038, -0.04098476043688078, 0.010364381898462486, -0.04036719159262287, -0.022734682065347435, 0.04420845288601085, 0.024841322026005475, 0.06527291843224745], [-0.002208331334141952, -0.050309569269319454, 0.012903304553451834, -0.018506432403845745, -0.04048122235706594, 0.030387733500078923, -0.0021890237727512267, 0.03713119357286832, 0.0323015592020318, -0.025703569936560988, -0.06780613529319253, -0.04042790986887914, 0.02011823146343918, 0.010716435216081857, -0.02223000328541398, 0.0011076517126565597, -0.014827624845798889, -0.017018236144911294, 0.021432386085818777, -0.024276188864119995, 0.0005069463561075277, -0.003816333033075003, -0.01825831049541249, 0.025782273374339023, 0.012208162176044188, 0.025650440603410787, -0.05970264590284618, -0.03275867222787012, 0.01107669978921272, -0.06129941932773926, -0.03144125861390666, -0.004464092961093056, -0.05148876404597007, 0.010021186815093234, 0.015967458629023577, -0.0860003768019383, -0.02365501194548166, 0.06045532015186355, -0.013719103053248851, -0.007239569323478907, -0.0553169849785897, 0.02367284279547043, -0.04600007627186668, -0.004570687643160833, 0.043495833325347254, 0.0008084970624230529, 0.01166402358418184, -0.0041167983457319705, -0.037662217839608325, 0.02999372498042504, -0.03447571690156144, 0.03616345632767195, 0.0013918101147118742, 0.014268899703348574, 0.030630180141141033, -0.0483910068044218, -0.010497291240624292, 0.003515473112995386, -0.022037660594971423, 0.02698094316723239, -0.036725522704905825, -0.014564540325296164, -0.026856768706283434, 0.009961880321154947, -0.0017722366708058442, -0.0012251312765972837, 0.0024858053434102445, -0.03427978740224191, -0.0011069019561100039, -0.01542314959691019, 0.0028737796397705416, 0.03623278669833905, -0.030813293143195742, -0.05375047170053542, 0.040805535963838166, 0.009572737831819344, 0.013287043798724639, -0.026538233580420203, -0.05973979771070163, 0.03599912204916667, -0.028505028018743255, -0.02321179361728843, -0.0074920762376076, -0.08700164408654514, 0.06289855592730682, 0.08322883440867386, -0.07360290898693353, -0.02167105458480456, 0.020512307117388127, 0.01665377572672348, -0.034125906512927275, 0.03260340887944703, 0.01138147427081748, 0.015134389157902642, -0.034383536302563, -0.015310549503284823, -0.04295286732451257, 0.023080675425655235, -0.018479204251743823, -0.0241332042587948, 0.009676251070715014, 0.04119055623213408, 0.002687040594909787, 0.02872408785954256, -0.004928620053216151, 0.039518274798355665, 0.03453870937627822, -0.007128685453528409, 0.02713657091652855, -0.01790814057023905, 0.020907439486376248, -0.023282350657262748, -0.09872120961953536, -0.09305975034849744, 0.02587910358221046, -0.011790949126875049, -0.014111999805498444, 0.0018448478064188052, 0.011469026764547224, -0.06181073546626321, -0.011784763279556631, -0.002730413900296171, -0.005991197367334245, 0.045028830424164036, 0.03037244910128755, -0.05111214604819447, 0.0017677865777791012, 0.037641841144429325, -0.05106254431495217, -0.04236869642806949, 0.035971745365183425, 0.054932513724652306, 0.021184277725332906, -0.027749880522374676, -0.033235174389552105, -0.000689139059317823, 0.005821275982438984, 0.015182884302928053, 0.014683911511966935, 0.06273653715539147, 0.00566864799964991, -0.0004133341193144377, -0.012810547920904308, 0.002571775795217824, 0.04299783517014793, 0.0025339562576486923, 0.00036445549659425115, 0.020176934050445756, -0.03734150301215744, 0.05467790044236725, -0.008255280529944379, -0.00020012039873683758, 0.04650695054971162, -0.004361825237524293, -0.01237265942895695, 0.05282392315159697, -0.02887388842383623, -0.01541297312814775, 0.01066603845668089, -0.0230392154590344, 0.019795776064537425, 0.06906947135364092, -0.04208191438798373, -0.019814470941707688, 0.09106650484505811, 0.021520352584896787, -0.049881996207692854, 0.06204837902114855, -0.011016460517132188, 0.009421261460777217, -0.056108615928017254, 0.023608575020291046, 0.05416569657422939, -0.07649413843693863, 0.0019324570281507025, 0.08977177793778689, -0.02421813557958537, -0.060126559165440165, -0.00202513577033376, -0.03364471061518243, -0.004058663815199396, -0.021971098239687143, 0.0028392133478408687, -0.024470768019583405, 0.026012269852166873, 0.03009773959079425, -0.030810506800712283, -0.016806370980088265, -0.037158308499641524, 0.009868509887532245, -0.02670197051518081, -0.05192905564101315, -0.013547609005675117, -0.0018923220317809877, -0.034842624744298244, 0.024411748083692793, 0.08599047538155584, 0.032584127120968365, -0.046760882888207685, 0.03523178532209194, -0.04390794239773832, 0.02776117716864785, 0.006047876990586247, -0.012132154287574868, 0.02035323605910102, 0.02818077750421382, -0.027279431720079857, -0.06411559730138264, -0.06462407706928788, -0.03193074320929605, 0.028968710422606875, 0.015172808606672028, -0.028608930254023158, 0.04918653461347827, -0.008999652451689806, -0.02250967799416751, 0.015250023137924793, 0.025274492822553778, -0.048818154688767636, -0.039439799650660225, 0.006667118972857198, -0.021531325900905292, -0.002803314705998277, -0.013770874899687842, 0.013248944889669236, -0.03523619049731992, -0.0067937861023243465, -0.015936410771166393, -0.009597127022353564, 0.018049754809599215, -0.005967014859393478, -0.002291757943683942, 0.0559267877246392, -0.0022060035625673224, -0.07623281275888401, -0.015018421431593598, -0.014032015141993941, -0.046806293245076076, -0.002542546566033274, -0.06131677804854679, 0.010111766950132871, -0.0320958067772612, 0.033133777799180565, 0.03271192626420594, -0.011048239630461575, 0.04714388517059453, 0.021145621582828712, -0.09579949152008214, -0.027538484162565307, -0.02552690979031662, 0.02342574730736251, 0.013439748110995655, 0.026440886650386457, 0.03187512493323248, -0.01787073091298191, -0.012253301082007647, -0.07906400115342793, 0.023099204750812785, -0.02209304390633068, -0.016224204904487723, -0.02409057005821261, -0.07299121304958853, 0.0465908799572316, -0.04199087562271368, -0.03767996808019718, 0.02135293873004079, -0.0024377797031228973, 0.09239740457437882, -0.035437666745339776, -0.010292134135532255, 0.06583360944100226, -0.08846107198243651, 0.09765555778212709, 0.04166821569849762, -0.06667902894736454, -0.015412469559264234, 0.008752300236544953, -0.01119328148321587, -0.002493531955707158, -0.010411288155852164, -0.02484115462214168, 0.05748852036474517, 0.011844865562449855, -0.0007908327763002272, 0.01690571960223743, -0.04497621435475701, 0.004546286867390329, 0.010767634992814436, -0.0012753913531234177, 0.026892199899871176, -0.028585035282333228, 0.03378003764013721, 0.05038604789046615, -0.03733261911658382, -0.03110763128645606, -0.006150526740799143, -0.04073336747574042, 0.02987173091688092, 0.03160002086483143, 0.022285993424770906, 0.034124463871326796, 0.03406945322733414, -0.013697421973239855, -0.02963890343732264, -0.005318715737807912, -0.032688562348494696, -0.00685053273110517, 0.011040228569904836, 0.03772178994942094, 0.029351774229003147, 0.022994073939926724, -0.008590628994271926, 0.029959610172773293, -0.062150160551443845, 0.03086560709240058, -0.006827156070823319, -0.04192668155549679, 0.07376322065865515, -0.04089951752568938, -0.020100913717787373, 0.028381469255140457, 0.026498004394262663, -0.009057781352160638, 0.010008128609325673, 0.029120605800903747, -0.01084616262996557, -0.047770468851153734, -0.026964113245758144, -0.01674987012593471, 0.0634939758206365, 0.0012545334892682216, 0.019747040420511803, -0.003049674112738276, -0.030089158215100047, -0.114401845212647, 0.007282526645563504, 0.0047902964282599825, -0.0436451055824832, 0.04622355082421505, 0.014594372810114201, -0.01350957318165165, 0.01708519034827524, 0.0038377167287938795, 0.03620540853537085, 0.02247391827125778, -0.021571384940269743, -0.045147946206321635, -0.017257266614478118, 0.0019497182262179483, 0.014592856849561743, -0.05519275039119499, 0.011676526452144868, 0.02827632417309514, 0.05212867876267557, 0.012632122890712694, -0.033388397011255046, -0.009278137916184379, -0.005848510342284494, -0.025236866903409396, 0.025400083235221638, 0.01413155925929111, 0.026796923726270183, 0.05112328668810323, -0.013722672181845742, 0.03615822601850699, -0.01434469208066599, 0.057953993332045185, -0.02517062163607022, 0.0037470258848717186, -0.055764875628985765, -6.579924697985228e-05, -0.006545029706649019, -0.009578248131734296, -0.06539617962165205, -0.03795473784372298, -0.01896666493927593, -0.015794094954821113, -0.023275246553247312, -0.00524472057723415, 0.010288155764643026, 0.013126426309548514, 0.010438542830647688, 0.04067778568094582, 0.05040629053405859, 0.040616646301931715, -0.043072334459897846, 0.002935865396835957, -0.0429898600831109, -0.03295542583519658, 0.056009827271419996, -0.12007490611456216, -0.03832570892044664, -0.07366031198756277, -0.03330879612302755, 0.003450708405642061, -0.08033061694873746, 0.02846881667950365, 0.059697250154201735, -0.011195237195401286, -0.0627212268354702, -0.028035906147153875, 0.046833012274222, 0.0032846068372368305, 0.05330414178040023, -0.05226343093763238, 0.037670905896732554, 0.06250730826726222, 0.07177808380369052, -0.0096357129863371, 0.02235783581618983, 0.0024959760782272446, -0.016012495953172477, 0.023545331734170487, -0.03115462869555142, -0.00210202805079585, -0.060304215898092706, -0.03971309928002414, 0.01113094149203222, 0.06096610496294714, -0.002445804400717612, -0.026286874481452366, 0.008344528898637278, 0.04163712783764573, 0.05413840555228938, 0.0479834006929525, 0.0222420301786641, 0.03296679775129043, -0.0346950803808081, 0.01170498702233777, -0.008969309554830185, -0.03695446633106126, -0.03657503622250931, 0.027292554094495748, 0.04541736904938531, -0.009443765672200188, -0.017115794693106836, -0.011718776997785455, 0.023502389188082385, -0.011230138347208254, 0.045529260362045444, -0.03121381770434858, 0.01995516256062262, -0.012865348121480295, -0.0296150763937374, -0.027526757052302762, 0.06421935381470942, 0.016259594964861696, -0.013921976508383333, -0.007574300706729954, 0.01887901582784202, 0.03635456688100302, 0.00875964510745882, 0.03820408655707664, 0.012147076276185512, 0.09282666561697117, 0.021412101302836474, 0.0038456837736643157, -0.03082922228926396, -0.07837873424804799, -0.023157024288506405, 0.03241331410145869, 0.03536171176338682, -0.005535084789540261, 0.018536957350474226, 0.024274563089987156, 0.0023799069955553896, 0.01797283884044434, 0.02849296188945707, 0.06517260448147572, 0.03460806957788583, -0.016436340373942433, 0.039390892900224066, 0.025327465037492235, -0.004671112020617113, -0.033508026975819796, -0.07063167246480068, -0.04132186232303825, 0.02128995605390416, 0.06849224381550105, 0.048896490900112784, -0.05634100593006702, -0.04779055571254186, 0.021737508080628676, 0.053760811712498954, -0.023155644754443778, 0.013821473007448059, -0.014970586076706274, 0.015554577231818948, 0.020466296097126684, 0.0023349671483974322, 0.006923782357308958, 0.03780006865842409, -0.0439135145604314, 0.03391049129197623, 0.0012310544346202878, -0.025226422743253395, 0.07978972974832008, 0.03145323581313172, -0.06135625657158096, -0.03186736388449669, 0.01783971377767547, -0.023031556220470897, -0.018887552261290793, -0.052781004160300626, 0.0015694872410839703, -0.009835082555541644, 0.020288841345042222, 0.022053331382690566, 0.053643338359227875, 0.03183545673984366, -0.026701108427956605, 0.018449439838164446, -0.07752096595424587, -0.04930867410687763, -0.0136878203081091, -0.03978661485577802, -0.09150932075638764, 0.08759103610875486, -0.02017623432996733, 0.03186062639131492, -0.01971898703999775, 0.05153485815931136, 0.02039690269446403, -0.029026480278474546, 0.042834025002421894, 0.009744339175947426, 0.00298565921016284, 0.0049544525637595675, 0.014030084870897058, -0.03393024371145078, 0.00011845196267365671, -0.006038246359387145, 6.080075412056067e-05, 0.07500957373530481, 0.03988516035268396, -0.03956397096121721, -0.006227660429404105, -0.005575453194819704, 0.06699427842678381, -0.032459105266749756, -0.03327954264895953, -0.025673416714938436, 0.004132023775798617, -0.030015529371950223, -0.014957792255796352, 0.0622320363461701, 0.02622860319573273, 0.016426134504220827, -0.004556813734857959, 0.013814388783561742, -0.038992788530979185, -0.06391060241457946, 0.037827953314209586, -0.008783331424891523, -0.012112531741911434, -0.07578762923631817, 0.011417588088646916, -0.04111751165669327, -0.0020729193925883302, 0.05514444623076598, 0.0165530884509461, 0.04769893323177661, -0.0033077837589934335, -0.029200271773403834, 0.06172611696087693, 0.03683040866350696, 0.0161544983703781, 0.036411389993321046, 0.01629418547273673, -0.005912170169836038, -0.03259129498408442, 0.07013811745629701, -0.03639335624888933, -0.045832688786900375, 0.027684536678188376, 0.014390674331047942, 0.0015970230033900148, 0.059754388494607624, -0.024905758219293538, 0.05642679440460054, 0.0003094709622024687, -0.000960980984176384, 0.03232220218800166, 0.059051211776292294, 0.008848893284753448, 0.05041079204696928, -0.011158520690338517, 0.05523948666482979, 0.0666222672935401, -0.024901104874885862, -0.013111438287340552, 0.009211941427281557, -0.027751929170420093, 0.04672961937314201, -0.03251842785840246, 0.020401482781915566, -0.038079200827714876, -0.0002481193420160894, 0.03950622252231122, -0.05016474335190241, -0.01649932295552891, 0.007763666728873232, -0.043759306872459484, 0.016320771226134994, 0.021493903052129653, 0.012923744534282825, -0.06594877914465894, -0.005034404242338396, 0.020953536866125468, -0.03189147603623089, 0.058215836793005515, 0.04428179238451271, 0.013409916133567141, 0.04220057439615781, 0.05490838294675645, 0.005653730548099219, -0.015367766243672485, 0.061157367334590394, 0.014411194375270565, 0.008552801116406807, -0.039621128990097954, 0.007485159432769462, 0.01384301915430297, -0.02036958448154158, 0.030071682473820055, 0.04111499500322424, -0.04010898316647128, 0.0020264080626623054, 0.0660814379322492, 0.04101140408755568, 0.002309414782606902, -0.01236568298767615, -0.014654820153894162, -0.009682247963393472, -0.025867250335978236, 0.046313837597216405, 0.0018207569194867545, 0.021880463634228933, 0.027391519660714774, 0.008507982856457921, -0.06420734221515985, 0.04395223330316737, 0.00426307089379657, 0.07891948117260582, -0.0343763769417907, 0.028778893015345173, -0.04479978372352601, 0.025611958719556627, 0.020087132985263923, 0.09870384235934239, 0.0028407694878923545, -0.01378588830703656, -0.07358577887036508, -0.009662319885964816, -0.009469138784386962, 0.04797505439156962, 0.03287048964027517, 0.029947979548898256, 0.03341934820275682, -0.0005545792023153242, 0.02821337124644978, 0.013465265913216881, -0.05017863479060166, 0.00012085050898106732, -0.017411196307816384, 0.05831978237786032, -0.0424077808030645, -0.03183179649495143, -0.009750534037815284, -0.008738181077189483, 0.03553242999448823, -0.0006792918329334207, -0.007466934785251465, 0.012796380904524866, 0.02356082783559288, 0.03166700495843762, 0.026176596561393917, 0.02778206674494223, 0.08411976870588275, -0.006249317222311268, -0.010465668573102677, 0.008688383672544821, -0.045584401162907975, 0.0035660154044773002, 0.04170526543590305, 0.008400492575819696, 0.05987870378471062, -0.03472661468137568, 0.030088605939930093, 0.025271904752920883, -0.04551608105616266, -0.02898692740496382, -0.002761931472674166, -0.016650902414162033, -0.0706063294112225, -0.0658914618484383, -0.018365803410366626, 0.005105828554334704, 0.05567590878049943, -0.007135064575262177, -0.023971659184760973, 0.012408271561112457, 0.027222255118685194, 0.02747339891998098, -0.013521820443881517, -0.032848994775270625, -0.024775129311441123, -0.06336571181142578, -0.027664121596029493, 0.0070226923061402925, 0.007647211915065216, 0.03538145169094104, 0.01677877284036838, -0.02278577023156862, -0.08276507688275869, -0.07491655201817782, 0.03755908754594959, -0.041017783328204556, -0.061908708267433686, -0.010068703861240978, 0.008506226217972583, 0.06587211324967879, 0.026486254272553588, 0.0056704429843865605, -0.024603305268708166, 0.01844693445273953, -0.09011314579666099, 0.01705532863152405, 0.04897469479026423, 0.009469084942508133, -0.03718389148370642, -0.018159688197453498, -0.0015070595285717743, 0.002910885033131606, -0.011636423202943924, 0.0141720433158498, -0.0428270305544312, -0.05570464049571574, 0.027441003863276255, -0.003742178053058731, -0.008967362303676533, -0.013502541166750485, 0.025378642323956892, 0.016788744464847797, -0.1163848492795102, 0.06741254104094638, -0.006099238349332685, 0.014212602857161059, 0.01522987909218712, -0.06448916496201866, -0.00468392604834676, 0.031805859988149346, 0.05555992037908221, -0.016476510185893765, -0.037644588830980694, 0.017683966947462694, 0.028294052715154252, -0.04299508689578102, 0.021130953682952414, -0.0019854967147480205, 0.010779222744504184, 0.05434574466685902, 0.010319834139376274, 5.164561347093225e-05, 0.05054318915524458, -0.06482959788875284, -0.07043894685881875, 0.035570867827788594, -0.015451707426567821, -0.035061340198894286, 0.01776344374352135, -0.020906198878614196, -0.051078714147919944, 0.004621732813875456, -0.004270151273014634, 0.0053764955001992494, 0.020840356902326267, 0.04340937817151109, -0.0006344484600788301, -0.009304576783389862, -0.05447531953482869, -0.023626900944906028, -0.04566957240822127, 0.0143069693825427], [-0.016915034190070736, -0.0182983581597717, -0.0014551341168093357, -0.013858093668013797, -0.058509138506680346, -0.0038058032418155324, -0.014638232233183482, -0.06187199573580908, 0.009630299884948085, -0.015438556252782848, -0.03397693885468293, 0.054954774350175505, -0.008196534505592075, 0.009003867146630904, 0.025306703852023014, 0.04484408999231717, 0.05123004156159621, -0.07251654944012083, 0.0566484447536264, 0.007157184607254911, 0.033709204465762484, -0.03265346131789735, 0.0053609288728459084, 0.03123673692428005, -0.0308165367943394, 0.03472368378912173, 0.04742484268486002, 0.004437375226938625, -0.01850701558360095, -0.05829792425872821, -0.027026197744339307, -0.061949819699404655, 0.03333322956132119, -0.04210045258675576, 0.022344078188852954, 0.028684127129477145, 0.0384648347987764, -0.0057977623703019746, 0.0420957904728435, 0.05592867311927535, 0.030902163311984896, 0.04705609661767435, 0.009828011074602207, -0.05106533010892074, -0.02841599767484129, -0.018576245366211188, -0.007509923595995582, 0.03343213603407552, -0.03473051850918098, -0.022239984581634342, 0.05807655543905059, -0.020833976639857758, -0.03439623677641563, 0.015541357824508545, -0.013837218719904936, -0.04663816594032858, -0.043862679664386055, -0.05580298752984434, -0.00037861833870344534, 0.031574698701028026, -0.0045084730032747735, -0.006333442711776328, -0.015375884811783055, 0.06080414352148318, -0.0037805894781002963, 0.04282683903040381, 0.010778592671399306, -0.01452794355336513, -0.024508023229270565, 0.04716517791535244, -0.009665495227265317, 0.059267142694066, 0.01453284220344101, 0.031848999257481775, -0.05522619644795489, 0.0374145777221666, -0.042959906970776396, 0.02929460283456097, 0.09614360346464774, 0.0046291793425998744, -0.04413279287512597, -0.02064169086083704, -0.03767094396866927, 0.031107103310106042, 0.03628885384473513, 0.011330511460765, 0.025740445627411724, -0.0006961769725236265, 0.046206701817463294, 0.012464838088380845, -0.06897966130688007, 0.009967733228133564, 0.008888080774894084, 0.04066511056254922, 0.00658986054354386, 0.007079703997795713, 0.04798571632842498, 0.04490038101543209, 0.00275767098905231, 0.010825324364629709, 0.020610838432723846, 0.006779114238716105, 0.017222713208592352, -0.008093586828409853, -0.03421639964810567, -0.020555262375768577, 0.02301974847009698, -0.0440416256866375, -0.026133598558490987, 0.008928110584658446, 0.03361100593832457, 0.01685202387441135, -0.008584707037458703, 0.015708229515752226, 0.055364015285814035, 0.009376897886194738, -0.0015977569222991631, -0.026070385731387778, -0.04634163700998876, -0.04155237782914243, -0.01540254229809025, -0.003469389589480272, -0.021235705710265118, -0.06346711163629214, 0.049655375691994894, 0.05909400627207826, -0.017911552057463725, -0.005066070924004321, 0.03594242458907008, 0.02258396974119883, -0.023378489694620395, -0.03167375691784964, 0.02296847068504645, 0.0011329197128409957, -0.0004543916861561165, -0.04302656478913504, -0.044891183907955066, -0.02380276472616034, 0.009842032292856673, 0.019797727534361535, -0.015182660487508123, 0.012461186957388959, -0.022723391209947614, 0.0414147792232387, 0.019687678655553355, -0.012015689675662411, 0.07879269557690101, -0.002495338881248743, -0.059535737486659565, 0.06416043334675543, -0.0568693789853658, 0.013737744066312962, 0.02698439635771522, 0.037883567970670884, -0.026953337046779633, 0.0628852244513827, 0.02107869913061754, -0.06619916714447069, 0.023372512899018132, -0.03201857576678, -0.028296113930109685, 0.026809754409856588, -0.04024880058592072, -0.03763749214936871, -0.010307944213908826, 0.07206747232299716, -0.045689500255546474, -0.011481092505181586, 0.023457060188226495, 0.01664448735633598, 0.03567508885168762, -0.05879908262815858, -0.03735768576838293, 0.0521089792457015, 0.027310140371502423, -0.02859727905982722, -0.02881851221949453, 0.05331713703964332, 0.0300390445411925, 0.007662335002832949, 0.04868918490943093, 0.024436347237922238, 0.05249125673478699, -0.02329973483872277, -0.07132250048945606, 0.0033823014528268094, -0.041633400598977674, 0.1051344364204588, 0.0018952147752459099, 0.051907765082700154, -0.005221807106574147, -0.04012960739533446, 0.038177083151158434, 0.01384991140320696, -0.01631919212088, -0.02089973675303054, -0.015363636063011336, -0.009815698374933152, 0.022004765255022447, -0.045982761845476006, -0.003049788010337489, -0.04263176773563987, -0.01232475699837579, -0.0006723781255402165, -0.03978638604394361, 0.0003218009750919475, -0.0027155797782424567, 0.030114134738869824, -0.015353959030066562, -0.06114841955578793, 0.009010819945054161, -0.06443131118704555, 0.012422725842168511, 0.015899515870017623, 6.69435623752513e-06, -0.03572302582161952, 0.027549462081606628, 0.04290394205273656, -0.04107380088862256, 0.029414592035916582, -0.024022672207210247, -0.04053425959870986, -0.03402405339945132, -0.008046032522693647, -0.04668656050604668, 0.0017845670310818295, -0.07667132122735612, 0.025445512054094146, 0.011303595105796736, 0.04456831238740122, -0.04174120119927603, 0.029868793640206153, -0.004130185011337822, -0.027625303251735456, 0.03680747132318839, 0.03419796423000101, -0.1048061460733769, 0.01106167139499869, -0.0147762674665331, 0.041721975520713224, 0.018724302999172476, 6.70104622703153e-05, 0.011287988965765447, 0.06308077117146703, 0.059123593785105184, 0.0011445538235676281, 0.02262551939120843, 0.042715593000671306, -0.05231340322380754, -0.02088819068524789, -0.0349579054011061, -0.002012055524327006, 0.006486173601861091, -0.003776200906580264, -0.03754098598799843, 0.028538768186405668, 0.002049223405468569, -0.022676442616085007, 0.013617245689473543, 0.004294420911431633, -0.02012732503699524, 0.05353963199467109, -0.05293244504483829, 0.05066939812692806, -0.028289381673205365, 0.016725565509432713, 0.039597803245561405, 0.008642894593461105, 0.015934828419417364, 0.06914662726366025, -0.031159868238715086, 0.0154538348389105, 0.004263386348523531, 0.024769852259036645, 0.020265304684349564, 0.0665210852332578, -0.05222168370777869, 0.009030014426017622, -0.003160967944395997, -0.052702917566572464, 0.025618424277219883, 0.0006526277027824974, 0.03281775639531042, 0.02701939145274234, -0.08141840550213982, -0.019568407808429254, -0.08249389117556569, -0.028688707590257316, 0.0005164223242068144, -0.039878037380450045, 0.02780395973741798, -0.04719186652563694, -0.012851649923930095, 0.05065153388111664, -0.009371421479758446, 0.0065097979288123746, -0.05287191451921384, -0.0345522980251484, -0.06481771733456686, 0.00234249358143371, 0.016982182088399463, -0.023605154372947464, 0.08370116149312674, 0.0592207229413264, -0.037928451103223446, 0.0020718610768670114, -0.027070157627229727, -0.015002042748222439, -0.013289494356791226, 0.013543888487267943, 0.008330319255692416, 0.03399644217741482, 0.011399321070165997, 0.026797487409477048, -0.021243334736556294, -0.021076889289367896, 0.08735595055447777, -0.01879041646486463, 0.009232168332763569, 0.03249024763245808, -0.0030352149291125114, 0.005917548468502004, 0.008784210035462635, -0.011640865669661249, -0.05613873324107682, 0.039200983362273165, 0.002968541343212473, 0.07885762769460204, -0.016647135589307957, -0.04601759447386462, 0.027540944941808847, -0.019903863837833772, 0.054637063172120456, -0.00834445112304989, -0.11475685896359046, -0.048911217105338405, 0.0041339068383583946, -0.05905367405636859, -0.002100437354832473, 0.016914307067684483, 0.04057316676557506, -0.026226925772362623, 0.08983722157313137, -0.022841769600639102, -0.013414990398277687, 0.026082218619719464, -0.04890973712569051, -0.0011944442158829118, -0.015751806409265042, -0.022224613784906106, 0.06019265914000675, -0.0251958584476386, 0.0322193296330087, -0.06279227035959448, 0.032850368455103376, 0.0005147322752356847, 0.011961936434747475, 0.006429888002613251, 0.050104820884701674, 0.010524468868865846, -0.004393661644839598, -0.02862084532732195, 0.03584531881282956, -0.009134246483421786, -0.011080830260629898, -0.014628633289551803, -0.026128135776715182, 0.0395981138019878, -0.05965177749531535, 0.05520869505982253, 0.031086185501170437, -0.016842585532080102, 0.03332331066726244, 0.01274572082400936, -0.015701795731906682, 0.013731064876807083, -0.016370936618229564, 0.025372900368106653, 0.00808842509280319, 0.039619952260040114, 0.10729581943658226, -0.022650956303691665, 0.00633256317883248, 0.018087131917575636, -0.012437540971054947, 0.06679707447142968, -0.0019231775683914262, -0.019932087747681328, 0.008473943952573865, -0.025816729770897003, 0.02391735757536958, 0.014138866745620949, -0.05299371066678007, 0.05744125888194266, -0.008662729723140458, 0.04378408869103623, 0.048693265689904106, -0.01574537840341995, -0.024858542303775915, 0.012311192193742031, 0.010294358471859761, 0.06290127333386046, -0.01920735614948318, -0.010753156962019847, 0.009246840173994495, 0.04223022306723058, 0.012653792774043932, 0.018277206444668088, -0.04380258745433036, -0.01702729783854184, -0.019015455402508874, 0.03042856561483547, 0.025910578069944724, 0.0025217563254234486, 0.028522862669823252, -0.06515209883398597, -0.006089960642136391, 0.049368386670538604, 0.016724675985795003, -0.023144419507343233, -0.0004129314337835026, 0.016282557991592023, -0.023899212992183946, -0.02445005800707316, 0.014655010200820984, -0.045470173511567166, 0.012780004079486677, -0.00778134166285878, -0.015683194214309304, 0.015852074455402158, -0.015174627995296992, 0.06571068495458571, 0.015242481876474758, -0.01811981250026054, 0.06705634307038806, -0.006227984043028753, -0.042624930839288255, 0.03664390357728404, -0.0257911874148675, 0.067860569113697, 0.02253945648889496, -0.013539092157274012, 0.025644303135416078, -0.11584469088565345, 0.07659295219247395, 0.0042981453265088536, -0.061814957165284824, 0.01586198918161994, 0.015207074448958137, 0.04905211840133494, -0.014962285585359347, -0.035626069643228904, -0.03426187478539876, -0.02591549703689054, 0.008019209614511752, -0.06881999727838896, 0.009501667488541657, 0.12556512719689178, 0.017540404720266838, -0.02678414886848505, 0.01214590540766944, -0.009721444008859216, 0.02721619906461615, -0.025438071270008744, -0.008343361424415567, 0.011980518363981582, 0.00015035557091129339, -0.012248019929050422, 0.008927069544204715, -0.025173788600088887, -0.03864657609798391, 0.017230423253889522, -0.07903782487950847, -0.037330545139169245, 0.03176217959182094, 0.016326988983081162, 0.02201223341830085, -0.05936173025855944, -0.015761578341652923, 0.055916446412387376, -0.016629782603126246, -0.017647376717692013, -0.061807564160575694, -0.007126368461858737, 0.01794857722531876, 0.018885098859376764, 0.03641233453655309, 0.030333250953879544, -0.02722552739219995, -0.007779354998736997, 0.028464805550710338, -0.014206672965699019, -0.04623307038748461, 0.036444924998014105, 0.0012254442441074341, 0.028420210147685122, 0.028869566454735856, 0.025393766528223626, -0.030284347749795635, 0.020131009521071896, -0.008239635003848661, -0.006867026785102439, 0.02483701773797653, 0.045468431822653387, -0.019077943808924986, -0.0006478791588549539, 0.031241574285566544, -0.03545434062216758, 0.0028916310715045106, 