{"sizes1": [784, 48, 35, 10], "biases1": [[[-1.4238180625205898], [-0.9825548876506002], [-0.41369827918790913], [-3.5116155779343505], [0.0107880580817278], [-1.0876338747220642], [0.2913414752243237], [-0.33828898220566617], [-0.1143766437337452], [-0.4337393929603061], [-0.7628431761638984], [0.08128708635430623], [1.0347207823326392], [0.3298417965739966], [0.781311283009351], [-1.0028223666090461], [2.304424558600839], [0.745409410908409], [1.22550407879062], [0.16860228703403393], [1.0154780105677088], [-0.5616046568023868], [-0.9891369071143268], [0.6955825654325525], [-1.0793374371926234], [-1.300953806995417], [-1.3987406543797318], [-0.45901381573832173], [0.7464512765310207], [-0.15563338087889628], [0.0071572520350472535], [-0.9657939509406908], [1.35525247248565], [1.6129766372608063], [0.1608957664284597], [-0.09298200040918991], [-2.055517998603192], [-0.21169350945231705], [0.93956874219993], [0.9679365337653657], [-1.564196901272299], [-0.5149718611108455], [-0.7797039815138984], [2.580639445123676], [1.881531647131321], [-0.15896459081028166], [-1.985184411855877], [-0.27876477329181143]], [[-1.5786805652476705], [0.3199075285525639], [-0.13621150445332916], [1.7115623925731034], [0.6516604426938981], [0.22593294452216772], [1.0418654833779888], [0.5107138185722799], [0.914603599135925], [0.9443444038216977], [-1.326586188377759], [-0.5343450116147376], [-0.848174135429275], [1.1557319145473106], [0.9188435327322563], [-0.2334181323500237], [0.1603541271634732], [1.8437386234402549], [0.24561719585942746], [1.3670845790086426], [0.6133916577153348], [0.09170985637285077], [0.18280241353429863], [0.656800328582832], [0.742728290942769], [1.2858894933654614], [-0.38767963294764957], [-1.843394520138539], [0.1031225154579295], [-0.8293025202613192], [-0.9407142706162673], [0.02828082816399478], [1.2156618404927213], [-0.9893718646268345], [-1.426814050026327]], [[-1.6041709096716001], [1.2149224195890223], [-2.4614290354797737], [0.5602095975574841], [-0.8799027816797729], [0.27349579395745205], [-0.07358704690327945], [-0.5153968420673087], [-1.017189494216248], [-1.6092953948811832]]], "weights1": [[[-0.020172430154799, -0.05935504097809763, 0.03543938231954237, -0.03258845767971141, 0.02714953854876389, -0.04378782275923654, 0.05261240971612108, 0.010011437857331416, 0.024355434188639734, 0.0016454727373981938, 0.0869798355644645, 0.03217934780303696, -0.06024102711153682, -0.025560794925031716, -0.033691873790686756, 0.004721993074163275, 0.056069333463648875, -0.06449238234522021, 0.030615415626609226, 0.035524226177082334, -0.030018274891371276, -0.018542875700773148, 0.008313375023199199, -0.011998349237723754, 0.05530457441941698, -0.020404105755294943, 0.025243891799221426, -0.0009931389036959522, 0.017691977101722635, 0.049252406748252, 0.026092242340012266, 0.03371153764745499, -0.070332794384467, 0.02836012259074349, 0.02377666678758261, -0.027184049060827137, 0.0005675774973844225, 0.060055315618164386, -0.0016819630520597249, 0.002842306056371783, 0.038066414952000804, 0.010840850158935947, -0.05778024870302338, 0.05074820506209027, -0.009757380856119421, 0.0001743034006248519, 0.0548285871652068, 0.016819034299150312, 0.031116404749543063, 0.01766896279789183, 0.04951203124656634, 0.027636180815720703, -0.029493536423973787, -0.05299053268108256, 0.011659297653073369, -0.027125438654903244, -0.005045012167664021, -0.02093987638039254, -0.015629923938643615, 0.029894962132939525, 0.01082420899396794, -0.0647562571938333, -0.013376253176864496, -0.01770856436892015, 0.053145284085920654, 0.018054024523943196, -0.013530526912624541, -0.019460564941732574, 0.013266267841367474, -0.08412481474430274, 0.05253826160985181, -0.009026931747438042, -0.003387459113410214, 0.038909653651402046, -0.008374102419164947, 0.0006225661841243726, 0.002773922354986648, -0.009548126797359528, -0.0030430424369899092, 0.0651852448136035, 0.015687916852607786, 0.03261217205936167, 0.02514260448991782, 0.023950274678559234, 0.05416044756126277, 0.08040577370455682, 0.02057062404227425, 0.011217839664488442, -0.06365582069186061, 0.006052514448494256, -0.04641741870835214, -0.023125287659242297, -0.017390434740868106, -0.026898260401594633, -0.023134700211463737, -0.013110996082869709, 0.04904400869875548, -0.04050521194117029, 0.01688759444129657, -0.010292219474974468, 0.004040444391773567, 0.014679428810529952, -0.012644646834338066, 0.00020277139073806525, 0.03331128695171306, 0.027177577906188962, -0.051925601741580826, -0.014121570842683697, 0.020568050335021827, 0.003316112991883512, -0.01654628237888023, 0.028251152345887303, -0.01540945168412471, 0.015427310188390178, -0.027136783778877415, -0.0224182312969387, 0.014375760714227876, 0.044377179379556785, -0.04992698547869136, 0.024094526481178696, 0.07822183324713074, -0.00928829625546056, -0.0009244747519562508, 0.004779724140556136, 0.023237133906722024, -0.015543923928386187, 0.08518409105542664, -0.06033962840747244, -0.09948918686429357, 0.006115707368818629, 0.014674819438892178, -0.027818829591567035, -0.00486682742350887, 0.05101354979885607, -0.002414773054787486, 0.017349361311475707, -0.015664791605777877, -0.004425136562056633, -0.01104112440836812, -0.008932751756773714, -0.000516305844255748, 0.018063736094195003, -0.03821387177705389, 0.020559009327178933, -0.0533170179702802, -0.01890513747496012, -0.03958188614027243, -0.003727815653324744, 0.0021068203328148487, -0.0023396948618385287, -0.051228491510502405, 0.004200911102983676, -0.017832536939375022, -0.020528526975953094, 0.07523431164152537, 0.014476132486850703, -0.02177832581571793, 0.050550280879657225, 0.019591136624127706, 0.040745361206516624, 0.026128698511988253, 0.08995369793824981, -0.06557038425758412, 0.036134409533569944, 0.012389523487781235, 0.03230062306649033, 0.020447751675928248, 0.030750299651357973, 0.11123774228506571, -0.03299578829331747, 0.05028005581319289, 0.0338222046595203, 0.056084392483608254, 0.010842826792055216, 0.04041770117648968, -0.0349099353651777, -0.02912712162501203, -0.0054597293974374544, -0.020562070628384204, 0.020471913814128228, -0.031343846317587215, 0.010695054160101363, -0.023178812246875093, -0.02045066592193256, -0.03537307894110708, 0.008529951314044644, 0.057653256015465594, -0.041404438613891426, -0.03239164646981709, -0.030379353060641014, -0.0316375247042434, -0.012163979856650731, 0.0397535902520839, 0.001442526745825064, -0.023223225258624528, 0.03716295113675656, 0.0243108703312144, -0.05326269883257528, -0.008993129754540632, -0.0627756365382505, -0.004642886879741709, -1.4620773155720975e-05, -0.016468045599823834, 0.05074782553226916, 0.014162971629077967, -0.03363340717854941, -0.006069218420950931, 0.02973688476740008, -0.05982195072955233, 0.030058399525560442, -0.021785502278881742, -0.008681020410655608, -0.022896542684118473, 0.05777954072559209, 0.004891817795304532, 0.005879870695635442, -0.04651544587699448, 0.019789852676362647, 0.030220241341257784, 0.00011117733665624251, 0.018731537963523, 0.05525891948061444, 0.00378951358802197, -0.07885338282759878, -0.056223853105607215, 0.009279729610679924, -0.02082805576376856, -0.0326956674834422, -0.04901912325747807, -0.050200509156778594, 0.020931896687655233, -0.005712076768252603, 0.04062772649544639, -0.012295600495520932, -0.02772591752565031, -0.007442498390935416, 0.03467237215073083, 0.013567466854499385, 0.011145132258104767, 0.03210851160679415, -0.028147202220314332, -0.004495093011403924, 0.04899354526929866, 0.054628913875978506, 0.05128884583174469, -0.03595133800907458, -0.029891834987616616, -0.0012311015933270232, 0.03701644065544831, 0.03190439343193184, -0.05135328310173277, -0.07561662753232534, -0.009369662231806594, 0.02149919247115293, -0.059183060392126056, -0.0029028522818609933, 0.004807097358892585, -0.049264782500695915, 0.03313824222283197, 0.05492589444538879, 1.742464819934662e-05, -0.018257854361491275, -0.009688693280897909, -0.015254424257010218, 0.0034061698542771253, 0.04670856435312123, -0.0009852606450856068, -0.01242933072933003, -0.02391889047291874, -0.0375501335159585, 0.008313464400716892, -0.0025931109404255448, -0.0623328112840676, 0.035019989757979195, -0.034669762826215166, 0.011773134532549833, -0.04459906351382818, -0.004410092130847747, 0.024630048373213292, 0.002050082587216407, -0.022801865190741337, 0.038157103437947586, 0.011301114438200284, -0.0070055948772635305, 0.004169869105284334, 0.06266218313064643, -0.037267137811576576, -0.01459705858201774, -0.00031155767517818285, -0.018969852497982578, -0.015775612681950657, 0.017594482913005367, 0.018299334982823236, -0.011330473385378173, 0.05194680116955558, 0.04932714509017816, -0.06528443740308562, 0.02295950379643403, -0.00566056950435464, 0.03167574241986119, 0.06804178483739433, 0.047251417637856494, 0.006997548604679468, -0.003427392441056188, -0.058616315607333415, 0.011311803702623077, -0.024093938342158682, -0.04760425940023837, -0.06068985370760794, -0.005482898246969526, -0.0009572771747155112, 0.011582717261923017, -0.037150182214751144, 0.048516559478252515, 0.016262919730477367, -0.010704687922998836, 0.02627098443952483, -0.010049396924728478, -0.04556214284958134, 0.010392168849472078, -0.008642071374362143, 0.012994317172730701, 0.02480213534741257, 0.03405323829216382, -0.030523759529289596, -0.000319059066725759, 0.012060073559844441, 0.0496296095711619, 0.01822613470841228, 0.019862500885444497, 0.0019161972737107267, -0.026667004400298542, 0.07754345828548186, -0.09114540103501045, -0.02469507884594371, -0.009534295683185414, -0.0055905547550923725, -0.0019574808313092607, -0.1081942535025391, -0.03993439491083843, -0.05100983728490825, -0.010619609069756035, -0.047960567185558654, 0.01749262006367771, -0.03162661084943959, -0.0023401328662176262, 0.08779982197937852, -0.03026162915764904, 0.028412583409003232, -0.04217892635749933, 0.023648893560060825, -0.02882615466997752, -0.004514886627541892, 0.057082396133488, 0.016517709032532638, -0.055438745780426325, -0.01513926747811911, 0.0009125241243971611, -0.12274325836660314, 0.018981866077881715, 0.01943827630163892, -0.005314371092594547, -0.06362423671096716, -0.046779147260509975, -0.0022013376954356824, -0.04733760464019926, 0.0028422895802234283, -0.02762694146752623, 0.013123977263391021, -0.03315092096538327, 0.029995522476174003, 0.07559345040557701, -0.015169721202003493, -0.002189424240179665, 0.004810281600224747, -0.04243159368304001, -0.012336606585915537, -0.011971496267100019, 0.005836081341408576, 0.031236277629110184, -0.06121179922016432, -0.014131589403171094, -0.023977352500776056, 0.012829291677484684, 0.028075910104333534, 0.004377253804964168, -0.014937337354696614, -0.044454021363266046, 0.012979203840386753, 0.05395457020850631, 0.02572506029146011, -0.03308088171198022, 0.05018669719230506, 0.018286030797419365, 0.01333106399817788, 0.024023982810117455, -0.023914570335507365, 0.027131166284766937, 0.00017573707855544075, 0.0349762657509523, -0.017984255134780747, -0.012951362854850568, 0.0243463577625909, -0.05391604673091797, 0.015581421638820656, 0.03998673527129017, -0.036990334865532846, -0.03752709788032641, -0.044652320366247604, 0.00849525193997332, -0.03977434088825983, -0.06767055285809767, -0.053709002486374835, -0.0003249690048514607, -0.07371141573146807, 0.050557149614588674, 0.030981014395153224, 0.03310672636781215, 0.09148157899578166, -0.038121003918606476, -0.027487176739584614, -0.0014422045049933276, -0.02425505724089741, -0.046892029921655705, 0.024659780435147546, -0.014298339333091548, 0.0003672660828159905, -0.05844523115704315, -0.002293236228470281, -0.03440953019192109, -0.00879174378636705, -0.027985625466827032, 0.0020469182030460006, 0.05883813461714176, -0.057124278256380064, -0.06616466161201608, 0.012823047039575377, 0.014044828947774136, 0.01270432943086422, -0.07313512121790892, 0.015159996158339817, -0.007850157975322467, -0.01633279978075375, 0.040948558904111754, -0.09839988984217697, 0.0182308622893294, 0.006157023339238435, -0.0073303755430870945, -0.027562352185736178, -0.0008226701305141095, 0.08335175002133784, 0.01485532696163791, -0.016109235952630214, -0.013647101378003932, -0.013656507613971398, -0.0650312257991736, 0.011249551463332572, -0.026751302928284076, 0.024767159259583147, 0.0005106669486887848, -0.019353679874431273, 0.05356652481389629, -0.020372186792086244, 0.007099340120068429, -0.006655954154673086, 0.0068279598720689455, 0.024146762534308364, -0.01873839354980608, 0.012111434152636576, 0.04315156446969143, -0.021849868469583263, -0.02140461749687592, -0.005340131840649752, -0.06305196959198478, 0.048530267806426185, -0.021114566572778153, 0.02721569477829665, -0.013865023492776454, -0.01995498983538502, 0.008378698890987918, -0.01613949295456519, 0.011829675138226003, 0.05742175929312808, -0.057961768911292184, -0.025441170681960713, 0.014017116031657433, 0.007903956291401426, 0.013324126847670358, -0.0035261491887448207, -0.009721527891998566, -0.001982474870182905, -0.00012608432715682523, -0.031639004119197914, 0.0632841769026708, 0.057398103759464594, -0.03831410397411054, -0.05160443677565051, 0.0010645016797138315, -0.0063822161614744116, -0.006208745560576449, 0.025729460144964966, -0.01840160351868921, -0.03867568398898008, -0.03144049914849457, 0.02112765307697608, 0.02639611120115223, 0.03998425281948238, -0.040746471869446084, 0.031114823584646695, -0.01091296434004517, -0.018121393459042918, 0.03129212339328273, -0.005647627098828126, -0.02422827189687676, 0.04106355711317979, 0.012945921811712722, 0.03856049048634412, 0.03391662771384544, -0.0013900981815544962, -0.019900848052244423, 0.022060790315877304, -0.04371722167807944, -0.007138747156594826, -0.03275266029870078, -0.054850728026235585, -0.02247315530842195, 0.014559935066974386, -0.02346268295590618, 0.0342447266998362, -0.06831658790319182, -0.013770308200269225, -0.02448057632555444, 0.03272849716989878, 0.019966866656035812, 0.013350249703020439, 0.04788624131344702, -0.05788205520574686, -0.03952888535072924, 0.020801768570285623, -0.006384985399761624, -0.04323146195183125, 0.02398719289124427, 0.051211899493123596, -0.017312826671061685, -0.01796049194891754, 0.07470364977732344, 0.02301900983500401, -0.006066133057990812, -0.031941019838097544, -0.009691718915002045, 0.0037170226219796353, 0.06070034828887076, -0.053952566606325636, -0.034565751853099645, 0.05299032756776525, -0.02755646947945179, -0.03745216983664545, 0.02568249697114583, 0.029978827596679452, -0.02290953320981077, 0.07097909659602733, 0.007168112402649375, 0.007879081903473884, -0.015515452544731346, -0.052827555503553635, 0.05830470507059749, -0.041890122086048094, -0.001019522560902416, -0.013041921146500815, -0.0031175383211901565, -0.04358147740740904, 0.02247656160649724, 0.0029895627892514505, -0.009663047371895486, -0.03758569753697194, 0.03882449227979653, -0.025424107805252918, 0.002044842105611653, 0.07294193093177397, 0.0418420036358507, -0.0692567324567733, -0.015483783146356013, -0.02359000599553999, -0.014775184757462536, -0.004041934946038867, 0.0006852476797583492, 0.016382902520241733, -0.011879226472167995, 0.06459794910840692, 0.027649450226498333, 0.06489568102227943, -0.01723955507945066, -0.03088282462761957, -0.04596225859738262, -0.00011574304975386802, 0.01808250153864232, 0.05070762969563698, 0.06642811957643775, 0.0619746366583684, -0.015865339236641757, -0.004906804331890007, 0.013671799336755238, 0.045159613297829984, -0.011820983541306559, 0.00280480567628804, -0.01997930819319579, -0.01775993445910382, -0.04458537325015934, -0.008393727906612527, 0.0824083625751306, 0.016113542496367886, -0.008071631739933261, -0.057474388571126835, 0.017215825771429463, -0.025158308491646377, 0.032318421395280156, 0.0005256348757350682, 0.015964386663057974, -0.011072093443159736, 0.028293276598647405, -0.06834628177547016, -0.021421838957621956, 0.0061287300980034844, -0.03744985237990099, -0.027653204188208984, -0.03795435959847369, -0.025555268669926016, 0.008259474534080064, 0.02962409734261834, 0.027302755471594286, -0.05667723282374408, 0.020783199288562402, -0.03872028997083387, 0.019996998801648264, -0.03363688080921682, -0.014393394330642599, 0.0046886909860390244, -0.08479283695632234, 0.03138973516102497, 0.0073742735537785375, 0.022526841833712754, 0.024083780382329778, -0.013849814727135338, -0.03393910796699767, 0.013503490055372946, 0.028456231636336055, 0.054355419909310546, -0.060655567676807444, -0.033706660540449664, -0.02431075025204987, -0.07597478032377887, -0.05827756877748258, 0.0045188160791330145, 0.017338778895764375, 0.011776194732083493, -0.026393720455625002, 0.029955757819640487, -0.0009163062973726494, 0.037333274644982824, -0.02335045503532382, 0.04400149551993587, -0.0021838947209957015, 0.002445101228076781, 0.03276468716038976, -0.055801139063013296, -0.05179787446289967, -0.037127545340166955, -0.03546544331817637, 0.026803309704630757, 0.02848366037772774, -0.02447327616779759, -0.011733729997540004, 0.033838683800879475, 0.01112839491150244, 0.0230506942113464, -0.023429977559711185, 0.004912428664259594, 0.012609834174674026, -0.002835408559393861, 0.014755618402242071, -0.022675359551220575, 0.0005304893382860671, -0.10267505855649575, -0.023189667700309106, 0.03272273420206181, -0.036809656909693685, -0.08303527739135316, 0.018959202720687966, -0.0032367521881286913, 0.0329367191200926, 0.027551766356427358, -0.004371450932283817, -0.005265642411666056, -0.0637551268147586, 0.011522400140166667, -0.03228486807719032, 0.021211464401397078, -0.015527025495331404, -0.04025410879016695, -0.05143551175150924, -0.045498192132552746, 0.011838140827750835, 0.03545643089289063, 0.014208104170561422, 0.017644973331134316, 0.023764738466508614, -0.06502894618422485, -0.01921224225561365, 0.014786437764167633, -0.02599719701695271, 0.05066277370489585, 0.011004817747706216, 0.030714045820565, 0.011416594573516124, 0.013048043700518722, 0.016807673432331235, 0.03006654235667639, -0.011851792526408736, -0.00582523501538542, -0.014670554501726026, 0.03901309845412797, -0.06151011897609739, -0.007995205174825765, -0.029894927338212984, 0.030092897552109837, -0.061329522676340766, 0.044475184076124885, -0.04507621066088182, -0.0035869218381618492, -0.05154262868551202, -0.06899868105714331, -0.08694834046796747, 0.05754771927607396, 0.059567307312487584, 0.0021655643026202006, 0.012546882130517054, -0.016859621267049842, -0.017785788994040753, -0.0018255224985867812, -0.044910674627362875, 0.0065376499795369745, 0.037402717068773926, 0.017712321854569977, 0.02124195389451431, 0.06403463880885434, -0.03412832396801162, -0.04607357014645198, -0.0035218820400671745, 0.031432862870715235, 0.028808647008168153, -0.033719210415468624, 0.01635432583201495, -0.029414160740490313, -0.0302906323997957, -0.0011343951233951416, 0.033546530355860756, 0.052967271575562594, -0.05917071222104066, -0.03791529977629005, 0.05334499250672542, 0.004523709599034828, -0.01731683431904426, -0.03657937730011592, 6.937748730405994e-06, 0.010999498031955485, -0.020761824857839152, -0.014718730603647298, 0.014052693198259952, -0.0011743812640630726, -0.03131676661045727, -0.014046912296060357, -0.04877809420089539, 0.023830727148737765, -0.01842018451542601, -0.01655020293803729, 0.027007157235632687, 0.022949433592863777, -0.05687855414664412, -0.06688956861569305, 0.06451628282603532, -0.028579892124277917, 0.024864129776728777, 0.029249373073888075, -0.028506671430579722], [-0.02142546100887604, 0.0065956098246597854, -0.012572355633768366, 0.04196095008378502, -0.04692446089375648, -0.0008690936289060555, -0.07521891069908712, -0.05319358311819208, -0.042122133214945665, 0.003947328183018158, -0.0498804496761862, -0.012309252983219705, -0.04028873410222469, -0.0018073945272674887, -0.0024117605318918775, 0.001433121573946693, 0.00258047245256829, -0.03985249337746717, 0.016071930205062666, -0.035492780434166905, 0.006006945116713259, 0.07133539096412342, 0.031937064207337905, -0.011928844573607432, 0.04613870761121038, -0.01848390122206216, 0.0065946829914848085, 0.024144228482982925, 0.0284510720318768, 0.014876862565042398, 0.026275942310549232, -0.01405777563626759, -0.01790567906652806, -0.0015155695128126916, -0.02550188218845393, -0.007045870182007149, 0.05454260325261234, -0.07119599856075906, 0.0512309613011777, 0.04719488572226059, 0.0077032920438236474, 0.029134369206433985, 0.007081618481114771, -0.029892451888132228, 0.015445275646160416, -0.016456737836879416, 0.03547568407137972, -0.010263303222728523, -0.021580714147342688, -0.017693474962539583, -0.025282552531906807, -0.002060891869763394, -0.08147650596638936, -0.0951317852162952, 0.05286963645964192, 0.03737988207152603, 0.01214898865086363, -0.004227371625712303, 0.05355105909791569, -0.009594851277918886, 0.02847068047379268, -0.07108437779222888, -0.0555835624551277, 0.011012545419264677, -0.023655284240436333, 0.011801535732308731, -0.04201565704706455, 0.008740376414449755, -0.034627217615991863, 0.03296730888290468, 0.005724190253514024, -0.03867446338081975, -0.08391473096526673, 0.0022613917538475206, 0.0032009254574195053, 0.01927294885700737, -0.026938629698001287, -0.008896387606561163, -0.037706580359040516, -0.022445891969672116, 0.005490487070397341, 0.01786444257236721, 0.004243127120112783, -0.005242251859388099, -0.007906316364667985, 0.021854875568563952, -0.0051446359812026944, -0.011080298479762747, 0.03674650848469652, 0.01473834687360265, 0.05532761305864126, -0.001296027021362816, -0.020901127762260385, 6.127887544234098e-05, 0.018625514244205887, 0.026787840040327582, -0.05420607614516968, 0.06291908933496496, -0.025045295286906348, -0.035147857692819647, -0.007560435996001788, -0.01671405395968564, 0.041023187529966414, 0.01938400184930315, 0.04704748306717229, -0.05001251613683005, -0.043385544387530124, 0.03292556497252101, -0.005092679049571297, -0.03226929221402719, -0.021020944516836882, -0.050457233545267696, 0.015342428311609256, 0.004008376627141611, -0.04836036803221484, -0.017773710064672647, 0.004193661540908381, 0.15774026290513254, -0.015710713058855748, 0.028322511146005553, 0.05339196269761466, 0.009406182096305593, -0.0761945820671516, 0.012773390167170913, 0.012762749776820627, -0.01580191759894548, 0.047586723342784784, 0.01824439493797297, -0.029060637137682938, 0.031184684990059813, 0.024503269442490202, 0.01542960301538002, 0.008181365356171415, -0.020878968407976352, -0.05056438825705255, -0.042690849124166194, 0.011186275775624104, 0.013929160500966976, -0.04173700177047517, -0.026091887984797175, 0.015493091130773868, 0.007508860245584362, -0.027542832071928407, 0.035911003786416935, 0.04979329511175714, 0.014167691365506498, 0.043578603438935014, -0.05192609430115068, -0.051906025898026356, -0.03535960704296189, -0.04080951399682895, 0.003817642007577522, 0.04894817087852197, 0.03243954224824149, -0.028433168995958907, 0.024792394449382436, 0.026899984288197648, 0.0454118909578789, 0.0187483813630769, 0.0070065895395565025, -0.018718662179077188, 0.012122391849507055, 0.008589357658616766, -0.06567886908289475, 0.01599782893304504, -0.00372988705057123, 0.02590856553875801, 0.04080724673839068, 0.03462453032841619, -0.0066950150841077905, -0.034496957237233235, -0.018492325073707037, -0.007807193672682959, -0.011660519395381482, 0.033355710521954234, -0.038114029810045816, -0.07474285182759978, 0.0432692114156286, 0.011930826529707964, 0.010899206113882723, -0.06870409204657392, -0.012916557283687116, 0.037608601381689956, -0.02103361564082345, 0.02382666112988443, -0.02703082549015522, -0.015306937925733352, -0.04181595543572665, -0.06032532570764987, 0.02173013335514103, -0.019210979608157406, -0.03875241399061626, -0.039885719239703486, -0.04369910603956688, -0.010488711347771277, 0.010018589563693902, 0.010567342238285107, 0.007971959563019012, 0.0447453508343631, -0.027658149854354403, -0.017924136965404073, -0.006114707633291116, -0.06014557724713109, -0.021930246898643323, 0.019333359932012788, 0.030133188399903484, -0.03864246262499371, -0.008737611836378641, 0.0011562717298726252, 0.03139531480666181, 0.026058463393981452, 0.02350218170655669, -0.005699129517297677, 0.017402300227655352, -0.01437534879658009, 0.005642125304326629, 0.0037237587521647465, -0.010908156916999858, -0.04401590454072896, -0.0009136712893778383, 0.022719894343911272, -0.011310066113194241, 0.03202206662903078, -0.04463223649160936, 0.017069106389389056, -0.0043257023565994755, -0.008165688540967246, 0.04409330632021979, 0.008001376957888552, 0.01470813924294703, -0.033813420654003105, 1.7731723712345985e-06, 0.026383942724586686, 0.05176974983467333, 0.020083093833174578, 0.01999395989019288, 0.03158037066227151, 0.04383648024595982, -0.05079113050028058, -0.029764897027315693, 0.028758994369796165, 0.005364816658002859, -0.01826376892653046, 0.03124253538043515, -0.007344830378668141, -0.06408900084348748, 0.06300019320762666, -0.004590350406594544, -0.006274070821232077, 0.008462164826837091, -0.005250243718962226, 0.01371340297872202, -0.030000747714734412, 0.020812684304907066, -0.04299490590377298, 0.022191388550040943, -0.0045708702264998236, -0.06390832218493434, -0.024032469906505757, 0.026221384023487015, 0.031432157659302816, -0.04922287614352454, -0.014973084154590099, 0.00119775731572584, 0.009023563990214322, -0.037910443220851534, 0.033670121889301165, 0.005978376710032154, -0.03214246394682401, -0.011419560649916794, -0.041934824014997756, 0.039382302449287074, 0.022889127885946454, -0.011884294458304244, -0.07664167963066205, 0.07886480143342338, 0.04094195930295657, 0.0037662158126090125, 0.045543356256342225, 0.04601470374183807, 0.03630136954488188, 0.02440090689198714, 0.008480662777148259, -0.008153899746923134, 0.017079157117540454, 0.025098351679106047, 0.03469166388440476, -0.01264698835601215, -0.023996307478083356, 0.008769284825984571, 0.03501861275441234, -0.0052881713895511955, 0.022734509895676745, 0.016861336639717915, -0.01756668968356589, -0.025662243107745317, -0.02075315470271491, 0.0027527958575246196, 0.011983691789414844, -0.0015881774075726372, -0.009464990451031899, -0.06385137000577021, -0.008904963214006937, -0.006103421671344705, -0.04424860188368993, 0.03635104150821268, -0.018063617686422284, -0.04086286957577666, -0.02102967692628866, 0.02090213040427053, 0.040087051857361646, -0.015025631573207104, -0.018896828842996243, -0.052615733425029294, -0.011783672154649883, 0.00751692364498012, 0.0034233760847151113, -0.007046115021530136, -0.04348442070529847, -0.03623321148483744, 0.053094810984273426, 0.005815369755884391, 0.0027391242376835594, 0.018551406290988948, 0.0378718219628477, -0.005171618429253827, 0.015989310089105646, 0.04472472635176943, 0.01320573410032357, 0.017047697313496295, -0.008378498609391612, 0.029243365399111924, 0.01944350863121028, 0.050957053172139014, -0.003873571069680253, 0.021372942946756984, -0.062101993232507195, 0.04005574652193679, 0.05802139786644174, 0.003666917903260464, -0.006032322872250337, 0.0012395227929908313, -0.03397928871408158, 0.024161153721170503, -0.01615761798250131, -0.01011614433035067, -0.0443198401802012, -0.013628957852229574, 0.006220525284113277, 0.05171421255502863, 0.02974671341607783, -0.018055693000824852, 0.020780196842877633, -0.024167041114380332, -0.02819343537993529, -0.10913270119625118, -0.04606462872510365, -0.08588776407589815, -0.003865715808684858, 0.026383756557345883, -0.020179653251870985, -0.009555784308688055, -0.013895289978806286, -0.03596378503441342, -0.0016740419671035845, -0.008028512334659519, 0.02313167607838921, -0.04810330613525256, -0.06304334928543348, -0.0528953094035965, 0.02584959303234951, 0.031901715802891625, -0.04156811356902412, -0.018659906193887334, 0.06707138419515955, -0.012552702492526128, 0.03048337060974434, -0.04000600471069693, 0.04972942249441783, -0.01068755899607798, 0.05933331931541968, 0.006259084671201965, -0.03828324253460845, -0.03738550932057179, -0.0016826347876410638, -0.03325467384762352, 0.04614767995933046, -0.040858970849682666, -0.024887451199752827, 0.03162246704032058, -0.006129968405380916, -0.038631292956995356, 0.0029893589112333246, -0.02211254064011078, -0.00612353720834808, 0.04059731020917627, -0.004337978720203306, -0.03549311654468706, -0.02085503232156845, -0.03618171628256228, 0.05759396263713412, 0.06146053536020307, 0.01257013300369882, 0.09840355433180316, -0.017990364844503948, -0.0559002212854538, 0.03621105175037983, -0.007410536413694539, -0.00676352832329795, 0.010382178652737096, 0.014810430983137324, -0.034263555826612384, 0.06157677150580675, 0.029229240054569342, -0.02808397060436437, -0.03982411202848966, 0.02122965909972921, -0.019601457383518123, 0.014340644878034716, 0.021592798097858714, 0.074398859074975, 0.016649476181929166, -0.02777876291637039, -0.027067976377228, 0.012121209275969696, 0.03897472497259054, 0.007282668956253731, 0.09765044187958176, -0.01696429024890018, 0.02331126274461568, -0.043008282407722406, -0.014723075559339337, -0.011129696196893104, 0.010580665321491012, -0.012315656723292859, -0.02501786390682403, 0.020542713079898474, 0.009582991940946129, 0.03158755227709652, -0.09097599267361903, 0.017421910290817206, -0.013945683384357959, 0.013903703913232772, 0.02482730150045787, 0.018492439543720065, -0.012714885345793006, 0.07879040820735346, 0.019168306690803917, 0.011347330585062177, 0.05124588653642592, -0.0058414887409452216, -2.1552871117407703e-05, 0.005371181588913013, 0.012564070672266833, -0.05443705728271051, -0.0044687968470254425, -0.060898292638277444, 0.014806576154798476, 0.008146611677607473, -0.0035457764191921875, 0.0074919392004392585, 0.017103926835993547, -0.01848126861704528, 0.01425335307978959, -0.026283986614730175, -0.0028198412941771787, -0.00419467089270161, 0.07708567012936006, -0.044230513336140385, -0.014647211384511636, 0.04960644243515911, 0.0702878788916656, -0.02128669047210314, -0.03429543687628249, -0.02944638346969789, -0.03648482649929729, 0.020453048725488483, 0.03608630576700768, -0.05320351472271047, 0.04024947065860467, 0.010102955652057202, -0.013443389123028027, 0.03245710795630656, 0.06874208648220248, 0.0460672194732405, -0.030416933329422247, 0.010451713688698535, -0.050340784466434044, -0.004931280340045958, 0.015977098090234697, -0.021850477897811797, 0.043872039494001466, -0.023499977867337853, 0.026553066259791976, -0.0017919451243310531, 0.012209128479577792, 0.008528099859944068, 0.007052123528388749, 0.0011405594214022384, 0.07672056472035597, 0.016065360923773985, 0.01616364257659493, -0.04832076853145769, 0.04025762485882216, -0.05140472496875681, -0.01874714316799849, 0.016325242600620665, -0.0010609495840908302, -0.011602047004131186, 0.04509686052788893, 0.023880635562429847, -0.06438238999681353, -0.021799138863692284, -0.058461683991527076, 0.038586246300366014, -0.05615153499242319, 0.08062703144332588, -0.019463319455963444, 0.03189542402643435, 0.010741814090599709, -0.027460177967730405, -0.06951904985932836, 0.07997576586313866, -0.030523562806422103, 0.017572690464293248, 0.002454112185058229, 0.0395656127275784, -0.026514287701665817, 0.04892135852267623, 0.01173197721044961, -0.028086971254114707, -0.03872521139311935, 0.01716211086477964, -0.01648452442710865, 0.04662611455271775, 0.011125802081716069, 0.0013874021734228109, 0.02673580274163641, -0.05407414916059422, 0.017454013037200868, -0.022479115464319188, -0.015321047936122902, 0.028523793175984035, 0.003541387540973455, 0.045791569677620436, -0.03058242624720594, 0.01948918226845978, 0.044331493993891746, -0.0015777967502543927, -0.013634358661226604, 0.054475038765512684, -0.0018071031451386125, -0.08767638073245757, 0.01952778340736461, -0.023515358560267857, 0.05313593768129452, -0.03834618562656017, -0.04777773046287389, -0.0122744235909876, -0.02951405274131382, -0.0391780364459976, -0.037199779354684284, -0.013608000852101235, -0.04274068598997365, 0.07809641761001784, -0.004652993710188823, 0.00034582756806865575, 0.013275899438421963, 0.018211105260165943, 0.014900394107849598, -0.02478074472631084, -0.033506197601779045, -0.02633088173856153, -0.00033247744916899884, 0.00025979131717335105, -0.010264353222692063, 0.012063784099848799, -0.07095793376797423, -0.01601183263665662, -0.02333472391781199, 0.05564579650057956, 0.040521117956603694, 0.02183625640800204, 0.009048067995296302, 0.013496497900437516, -0.021376987965961155, -0.006297642920885358, -0.05576215290812179, -0.009757452830507236, -0.004090828977401907, 0.001249873620102485, 0.020455128389753198, -0.011827916866049868, -0.04522809432089258, 0.018521349575567645, 0.05565429314328851, 0.022599051479115707, -0.014861063588540635, -0.03621818449070651, -0.0017359080200408299, 0.008372256272815301, -0.0353033863767846, 0.027532117156647436, -0.003038384733549489, -0.002283701855444165, -0.023696206458964506, 0.06735920050206065, -0.033860798977888816, -0.06381799367522936, -0.020520736453442618, -0.0027941548594907196, 0.024147652098594014, -0.010087582912539762, 0.040476227983448236, 0.015009926572631244, 0.032472508291795724, 0.029703801351159694, -0.0066291060725915995, 0.006585474186447331, 0.025075646649805, -0.0456690726533327, 0.012183166988039321, 0.05358838962704431, -0.04917930026077548, -0.014373098482624172, 0.011304972914149477, -0.04578069599787201, -0.06835170651921725, 0.010917694817452141, -0.01555953280678212, 0.028094290998560652, -0.019447233992454318, 0.011662202296572378, 0.026545538998532674, -0.01176663611965569, 0.06502724653764762, -0.05611446271946734, 0.003962369813306044, 0.028658704922575304, -0.034319677614967466, 0.003104606692639282, -0.0286097082663336, -0.026900705014826325, -0.06159059191785551, 0.0027575688110994187, -0.03137240132989681, 0.031118705918855565, 0.031005296353913313, -0.029874030022471555, 0.026083515011488843, 0.002025017738317313, -0.006417421627311653, -0.0314837564977936, 0.019727760487657415, -0.04402057644398445, 0.02602047293999352, 0.0810640497021413, 0.00682974551170943, -0.026838034160728257, -0.012494105430991002, 0.02284388265858896, -0.0026064926977632436, 0.03844885307877949, -0.013251470234600512, -0.021518144977029436, -0.0106017934831043, -0.019154392060587295, 0.03208603876832269, -0.007798052303217148, 0.006592337232634729, -0.008735434640291325, -0.022710837030872445, -0.027667568105416658, -0.03597400862510849, 0.0369696956805007, -0.014040105236588154, -0.05582850451072524, 0.03038181160591847, 0.012112009831816527, -0.03707338660426148, -0.025037476517353625, 0.01584585332049795, -0.04425073791223399, -0.001090141806465261, 0.057883292434583115, -0.01632258095658524, 0.02644351508525563, -0.004465617205574624, 0.05720881390955004, 0.05874516467109865, -0.044382806112931286, 0.0436548481778018, 0.052066688155063816, -0.004835000948411904, 0.0332985696694006, 0.018242745433854374, 0.003514877281852296, 0.03773820645789955, -0.037166009838582405, -0.0026580332079607157, -0.01890277386915151, 0.04018563884505325, 0.022175545312983398, -0.04892385119684493, -0.07948050794956195, -0.01302650453056539, 0.042985256743542186, 0.03717703083814807, -0.00247239602535427, 0.06249252827138068, 0.06179394328116694, 0.01382833997583054, -0.025234267369377335, -0.00042064151373999046, 0.07780499092639308, 0.0666682078341755, -0.05106917465679504, -0.0030479185785840515, -0.010690765565407196, 0.041980489889419555, -0.018918076747751887, -0.039225170725105, 0.019803048416009023, -0.01882100349776039, 0.07203025221319062, 0.08070978352782651, 0.032044597151408685, -0.03208667353334437, -0.004121671873878478, 0.0036777848413628842, -0.051258113945611535, -0.09244985228766874, 0.015023570774540033, -0.016690282864222698, 0.05277542097688138, 0.043946846781693256, -0.06114601938808382, 0.034050831339144015, -0.05265531309318834, 0.029499721940637786, 0.0182331351335246, 0.02445864591263849, 0.024931798912051047, 0.028141928778867335, 0.0025828132027520385, -0.023007171806874498, 0.021511745965391314, 0.007035643588970796, 0.012535061571005545, -0.025010815663651837, 0.04263149534277905, 0.03979802043688231, -0.05225097255370054, 0.002871751208315186, 0.007237280725042071, -0.04881569166253829, -0.02813908841228956, -0.017814562669100403, 0.012951773614471153, 0.008838407017497033, -0.05458982913582082, -0.019002311950780205, 0.009917506860668146, 0.03129674383035453, 0.007007472839023679, 0.02972851555707005, 0.006206900359876754, 0.02882528797897426, 0.006854610375924258, 0.0656799180488418, 0.03601143952002295, -0.04710034384277236, 0.07006407089977326, -0.0336631764514615, -0.07591932057446457, -0.05545413045581138, 0.011738288052746404, -0.05632371661492952, 0.0057408754132614445, 0.005761167016248024, 0.04280395186892404, -0.0023212199307766205, -0.07501776151271684, -0.02383538739030716], [0.044026246651486696, 0.01521812299183156, 0.02932635701462132, -0.049623591055634145, 0.06726529032581138, 0.011778415130143199, -0.013482984702216956, 0.10163920914048033, 0.03241695230598164, 0.030386651671452106, -0.016714960296150015, -0.0716556274553227, 0.027740222543848888, 0.0360958508162839, 0.02746323178687352, 0.08744353206670175, 0.023087606872788553, -0.015809570164669474, 0.017336927752092647, -0.04842839937213391, 0.006590245012560968, 0.0007554483700521152, -0.03272520606346898, 0.06582696899386634, -0.025260022092490782, 0.044316311240597, 0.030009725096427197, -0.011839342291787057, -0.010493438173787308, 0.0053654900143231465, -0.011956576163623073, -0.016495864878461816, 0.02756695085888041, 0.09092190168373891, -0.02998448803929904, -0.004938385146546725, 0.06417133632727834, 0.03233152140253998, -0.009849821779732428, -0.008081950296499116, 0.0031838472657532814, -0.04065573721968602, 0.04155260340918778, 0.02546494874380345, -0.04818579940006319, -0.049514739951307625, 0.08081717885221414, 0.03328864074635187, -0.017991533579778254, -0.03645799269028117, -0.022528132247757, 0.09227890030491627, -0.06469180445569957, -0.00011846848302427267, -0.06337445172283683, -0.049728768554720866, -0.035695852520464345, -0.009018974631535667, -0.010128245792790938, 0.053737466815534166, 0.018278434666081405, 0.017992963394763892, -0.05280796682597474, -0.03922738263068767, -0.03336402920435984, -0.05519946850805331, 0.040854584535424045, -0.020512981698733047, 0.010567921221494017, 0.0347865390955892, 0.0014389966323434258, -0.0048474370590642695, 0.05013889534347695, 0.0295354914009948, 0.022062440417529163, -0.056849841307697005, 0.037723443885516024, -0.03946624045592618, 0.004332185858734595, -0.017078777868833928, 0.0615916744805983, 0.06583395418213504, 0.03709042173740691, 0.002516088860180974, -0.009897128543972537, -0.016528726889562303, 0.032464872464366676, 0.006404568227305088, -0.0674936031104155, -0.04085621405127932, 0.031378033467222295, 0.007053196211593162, -0.025557438584765495, -0.028630560001516904, -0.043976044550000856, 0.00032025049221395027, -0.021642796986252356, 0.029355437032941547, -0.1212689451351497, 0.05308584854056786, 0.012192473094351283, -0.007250611561189018, -0.039293558343689854, 0.01192517553870909, -0.019334032402099112, 0.05553915600778418, -0.0385081696546581, -0.002377325207819509, -0.02059230012517619, -0.013068187805444387, -0.009909960548875054, 0.08752382535939283, -0.028671313769296432, 0.02493421576518004, -0.04473552294441493, 0.004082279054657651, -0.03813903528811911, 0.021517230045212006, -0.003925920603045972, -0.02261442471671767, -0.037176185616731035, 0.024807716251232036, -0.06204024862782875, 0.08006529614800542, -0.037756522627332804, 0.05233193289524921, -0.029427877874408658, 0.03768616036154212, 0.0030717396304939084, 0.026720321336820264, 0.0351286151359143, -0.022031911592550888, 0.00030170934598203853, -0.023989728734888055, 0.04612759546045695, 0.039695069149046094, 0.025241326282757704, -0.02423587053677016, 0.012166195590725239, 0.006974415029650826, -0.026931399204938734, -0.007132756633809399, 0.028810444634035863, 0.04171337243935293, -0.05012649956253385, -0.030257456807753717, -0.02646409112172898, -0.000793390622053634, 0.03062327995946021, 0.0551465885670423, 0.010269965317571192, -0.03667089863367644, -0.03389475250224205, 0.06769911928250617, -0.056484911272374136, -0.03745178787671889, 0.018112806471164138, -0.030019076611562234, -0.006393237639092342, 0.01180973942073352, -0.00951187111732262, 0.018232080977037803, 0.0032577167813432097, 0.022714400430865794, -0.007651693096766779, -0.02681816347719933, -0.006834491390803782, 0.022197468714351236, -0.013361061021763699, -0.0036441339986791987, -0.010888937738040937, -0.13939424417436205, -0.04151913345487214, 0.03989387477860833, 0.04190324069728287, 0.04993066071899345, 0.09172245256124026, 0.027621374965848263, 0.040418238710440584, 0.043625071397987304, -0.013457981195103831, -0.05226169550218963, 0.048354118735203996, 0.03545211417339788, -0.04875937558047703, -0.014369222566024936, 0.12051382954459555, -0.015345822705758072, 0.02703555032093279, -0.041763919222941606, 0.0207432770195768, -0.04328886181624035, -0.07378723858896338, -0.009760259843294317, 0.04249437747827122, -0.01853994806539527, -0.015211479649306523, -0.08538046026792391, 0.05004170712241859, -0.07786027062437832, 0.05816406601152967, 0.008174281851576145, 0.01616301907225097, 0.011157264225902182, 0.0014848908976589678, -0.049005997980380044, 0.05802651846807362, -0.024693801799963392, -0.03881408713146758, 0.029116831943117726, 0.02330751947407656, 0.007230412002355196, -0.005648886783518549, 0.078296254223484, 0.05422350329322454, -0.0393386942826182, 0.03625210355801185, -0.018642016313609622, -0.00536906223007897, -0.01183451177644129, -0.03607518073650644, 0.025416421832957805, 0.010563807499238142, -0.00716517151641056, 0.0023320945410164862, 0.01103013972442567, -0.033117626648693145, 0.015384358168776521, 0.01215505499403077, -0.030519058651567295, -0.09844726082766853, -0.040856737431224824, 0.02670402550112916, -0.015094435715986657, 0.006853785703037009, -0.00631084259239542, -0.00871493352786756, -0.06997386960485395, 0.02960864236655304, -0.10334384705522133, -0.03172870865816751, -0.02566537450081655, 0.04274010033488734, 0.03767980845429075, -0.04772479634948741, 0.03967565949247698, 0.0020892649832822815, 0.021502636824498236, -0.0040891024870458835, 0.0366162822310197, 0.0038567290094579268, 0.023705873623996124, -0.01540440162805698, 0.04074387368407504, 0.006577114544268568, 0.03307416471935546, -0.0024944783756293463, 0.025145168896063132, 0.019776468888117467, -0.008576100361284514, 0.020682892215227934, -0.047865147631446205, 0.011900229046360664, -0.0008304936803447394, -0.013761767860949431, 0.00519221561098203, 0.043263914347088005, 0.017505495435252, -0.022180309562801512, -0.03055883653365218, -0.0065271770754999495, 0.024868318637672016, 0.01838393668810596, -0.007127582875569078, -0.03481206595450139, -0.01119044957424816, 0.004620694410712363, -0.01643630663714527, -0.023052588288661156, 0.026897277687501674, 0.002453066135545029, -0.06279497997728654, -0.013435327437986104, -0.000805337454635476, 0.02479727740662997, 0.013258353597124668, 0.029177146836151753, 0.07944786101252803, 0.007681671082822818, -0.00677959601251161, 0.056556590518999375, -0.023658441368916486, 0.09409177238455509, 0.06385255518276432, -0.01479165143282218, -0.05389783613979574, 0.005516908862114345, -0.018144495795985448, -0.002861330195905557, 0.016578271307567116, -0.02499795245400074, 0.03323973378473951, -0.007013046055927877, 0.044165610008778104, -0.0323771267199193, 0.0023216141813910797, 0.04930721421599233, -0.007290717868956982, -0.039368732738872626, -0.04541880390138908, 0.049456648419820774, 1.1432463803970626e-06, 0.004865041761006532, -0.009825421323737081, 0.014203368312901588, -0.007003402491289695, -0.027519512762981185, -0.013539101521096516, 0.0452254861732989, 0.00011421107269680422, 0.0022239169668736088, 0.047453076773464796, 0.026897758887454524, 0.020732102346170126, 0.015697769918810327, 0.015475343775723382, -0.011866935317534757, -0.02929842216908965, 0.023028729678637477, -0.015222352550081624, 0.026970041125887478, -0.02840875705060249, -0.05605535434132678, 0.04534890222955489, 0.0240312924934377, -0.0002540468260663932, -0.018112580289324862, -0.027457661398542204, -0.006803681321773651, -0.00018074399243277084, -0.034420552898728474, 0.023996992389886528, 0.0123701759299948, 0.007433810172448722, -0.0015959187841323402, 0.017337821503272902, -0.03387099490108687, 0.0569251675431388, -0.040618547663379204, 0.03839797374427863, 0.021096697033093605, -0.007601785625762207, 0.01821666298746963, -0.05620201524132888, 0.03727677371899692, 0.03334931087323588, -0.0336442495197838, 0.019484734590030937, 0.010081937318912701, -0.03448994330260401, -0.04750342113552849, -0.009521781890343453, -0.006538276413840616, 0.0024704818504251067, 0.0010902705510122358, 0.019745113944678042, -0.04318611656583236, -0.035665540795478866, 0.024311439127428995, 0.022870561934223398, 0.04417055479523408, -0.03239310250255627, 0.029024035066482882, 0.005362877983693545, -0.03025143451521454, -0.0197125347414144, 0.03622287162019273, -0.0013285273241787526, -0.05335931817715071, -0.03769100968107609, 0.001685429830218889, 0.04976860842825873, 0.007848390721967333, -0.007742280686328515, -0.004134569393997728, 0.04481156440806106, 0.006924358650320465, -0.018471522814763407, -0.01689285650154704, 0.03181113025951342, -0.04625760530417978, -0.002445083236298836, 0.015825107522687454, -0.0635581074261194, 0.008962296279818168, -0.020722746594964342, -0.04928323976556397, 0.00428440731587535, -0.0013778004417042313, 0.02133131961549673, 0.008286423844328835, -0.03575836075119498, 0.026810657921660302, 0.040156335938555686, -0.06265622233547759, -0.0077403477127267525, -0.01579604098688872, 0.029767312853421678, 0.04074431670560807, 0.08286577416504153, -0.03069938256767282, -0.02297977199494958, -0.0003231295043537198, 0.04270818073912436, -0.042670561994595346, -0.003294477880600792, 0.018616907199299648, -0.011381294098666363, 0.018106306825580915, 0.05844648346626179, -0.0344943313679688, -0.025110774490830847, -0.040603830834575576, -0.006489534434099801, -0.013307425219083102, 0.02604133620889701, 0.011756726883039007, -0.06448045669572101, -0.055801194123830354, -0.10014330665957662, -0.0728350772238371, -0.002594750773456403, 0.02666985737450378, -0.007098556020136309, 0.030684932720255863, -0.02933846875547111, -0.04007350892461458, 0.02629156793744733, -0.0261637743805261, -0.03680856100137081, 0.016852036255741505, -0.009122378891612267, -0.02969027061472695, 0.03779927736768767, -0.006050180349332628, 0.027895150072267356, 0.07331490128361887, -0.042809497646181256, 0.04047818853169149, 0.026480498770224216, 0.028795700744340427, 0.08136693796058922, 0.06548814681721864, 0.022538251628853284, 0.01341740073126986, 0.02529929997594157, -0.026595338365559974, 0.02611442977661443, -0.04557912002322707, 0.03668984244318736, 0.010236766818143244, 0.04286607822287667, -0.020274606093585164, -0.01789626788128796, 0.01687479830868788, 0.017309626897082542, -0.026461823996522072, 0.027464424576550805, 0.0029265544219875895, -0.029979365142818393, -0.039152988090287395, 0.01919404546721538, 0.004974033807931511, -0.03501169844286839, -0.06153810593679593, -0.023895527394166238, -0.006040446653751518, 0.011508758547190995, -0.07540628280387787, 0.052108838571094954, 0.0023079575653744038, 0.020901676771481525, -0.0016000528985768605, -0.07386841918242448, -0.07502046680628656, -0.05668781735492177, 0.006247918690466058, 0.0022113575476566203, 0.003509312874262601, -0.042629044438839594, 0.016566475853825403, -0.01030917529148424, 0.028919352495159378, -0.021413218893522712, 0.03497496639829174, 0.018168659433287798, 0.05337264157086551, 0.021729605844173876, 0.009730614901957781, 0.010761668971938832, 0.026783872624518004, -0.00726646447968216, 0.0658643281301556, 0.0038176985250481066, -0.00269055071117771, -0.040542237156074065, -0.07758582228845456, 0.08766291389400578, 0.03715833596751556, 0.055926857918545514, -0.018640186472879527, -0.04678136758807106, 0.010488338993395865, 0.014279246328971127, 0.02251162967748662, 0.043397584285772985, -0.03079467892038839, -0.02075213325633011, -0.03803697410106157, -0.02782872653132683, 0.040597810223199346, -0.0865088890600285, -0.0382654802716222, -0.017150720427312135, 0.011433450349040366, -0.037282734254293806, -0.005860543160769696, 0.02491206332537021, -0.041965996264209555, 0.05595421597085815, 0.004039399942740383, -0.014521854821216557, -0.04563641577685477, -0.003591450584295549, -0.04667648451031764, -0.05754808370875745, -0.014818697807955738, -0.06336604921353002, 0.01599751740195832, 0.038526319962269025, -0.0061685808318972845, -0.02465214357744879, 0.0026498820005228596, -0.011405974108638467, -0.06712894225990372, -0.05068246121820097, -0.023825922724015545, -0.0054936565643665, -0.06819657558243707, 0.02316808820127646, 0.04925170322328672, -0.0267856857391572, -0.0018290815968841142, 0.013848952574579363, 0.015782047101873108, 0.0006169962126914527, -0.002660167395417673, 0.06353990921118362, 0.004112496277303881, 0.00629546293852964, 0.022364632726876738, -0.04071454905696383, -0.12203866088468981, -0.00290811789620903, 0.008570937340879775, 0.06821927701916443, 0.028603473099808357, 0.07679627329499938, -0.006676792903207422, -0.0035142356475118966, -0.013563059561500149, -0.014021826301872478, 0.019681356784593266, 0.03719259791988394, -0.07911724038438835, -0.02121865850990554, -0.04065700704620714, -0.00028635147339234763, -0.020112748026065868, 0.0037968733269724423, 0.005681860342653032, 0.042122068140916354, -0.04671580597545766, -0.0015923093263221662, -0.025424085178108558, -0.004276394882896146, -0.04056516963314964, 0.033068155315570245, 0.034999760736363274, 0.0626029709466004, 0.024891220321511087, -0.04945441554033813, 0.04476338767216992, 0.06842758247642576, 0.0110835596916043, 0.026206547890614478, 0.017653285102123887, -0.017438265232062034, -0.08677029113070711, -0.01588053750055025, 0.006532236410853512, 0.013315086399110087, -0.029840694654553784, -0.02375802968648413, -0.00752505337209299, -0.008038661187545674, -0.0035611744956631185, -0.04929505535832446, -0.07318187559337734, -0.012721100256632704, 0.02648527698076788, -0.024804251202397893, 0.0029371311340311056, 0.043926646295906424, 0.05534822473584465, 0.02304168781045062, 0.035797752652881785, 0.03382850275014795, -0.022862855855993007, 0.026456769730502535, 0.037559067957420096, 0.03178089037064914, -0.03171104484306803, 0.015240254684377551, -0.008738842320237483, -0.0057440801167870665, -0.026634913305490338, -0.002754632456351995, 0.055443599681846444, -0.029512714358376574, 0.029853381926397467, -0.04583831512203503, -0.01942121361055259, -0.001379659617406542, -0.037509591814626826, 0.0038132535344841023, 0.025164948154838832, -0.049295639945155824, 0.03823582464842411, 0.021618320824808978, -0.06944900701475505, -0.0034577655429807934, 0.0018379649058830108, 0.008855034814613735, -0.015859197227796062, -0.020678947836304976, -0.0018341248492362127, -0.0011304732661385844, -0.02294036455536175, 0.06123294075324088, -0.032461648469609646, 0.02736475905306662, 0.014698695336113843, 0.018338785778119256, -0.01578768210059179, 0.012112701608320517, 0.06040599675483971, -0.010710655462539543, 7.944452000445579e-05, -0.040493949271577276, 0.01976158685412822, 0.03423215621618033, 0.013688638267452173, -0.06246442848133942, -0.01927736039208734, -0.03644402896568439, 0.021737660539684494, -0.03256223571309269, -0.03814181218314511, 0.008530354266468212, -0.004341398509571991, 0.06244875964062962, 0.059934125548035413, 0.03075203712568298, -0.020832344759978427, -0.05320917123815797, 0.04785690268023523, -0.03190226369833461, -0.006659124550051468, 0.026805787597504127, 0.020099153469818654, -0.01083867663670455, -0.056552688938980515, -0.008595120849792668, 0.03493843579069825, 0.013894472549809545, 0.03727602984800018, -0.006745797245549204, -0.028266141439930288, 0.004156650105845768, 0.009760247812778483, -0.027644747442830502, 0.03790796663101432, -0.0890174776706107, -0.019704931160130085, 0.020271507752670382, -0.020351397055835534, 0.04620507647093468, 0.03799125072733804, 0.0014974114606538182, -0.04467980502054688, -0.034433431721499694, 0.020543733722602656, 0.036047803143399275, 0.10150188310799856, -0.028452776278619817, -0.027646762556791084, -0.01638270298856979, 0.03286715403725083, -0.022387347292894186, -0.06360796681048878, 0.015562646240549783, -0.07379111528362857, 0.006862440768388396, 0.06781308224604406, -0.0010411634542652724, 0.02489892964950144, -0.027758792531622008, 0.04672812182605691, -0.03765148863859812, 0.04576814528777166, -0.05057337095776836, 0.017234378184432946, -0.013687920596134748, -0.032839929439207126, 0.024825034429592652, -0.01903382136336359, 0.049247642921592394, 0.0480646520211493, -0.036936406503097964, -0.02928586591012791, -0.011741522585578295, -0.02340590886227639, -0.010016773087027095, 0.02835465312444237, -0.02814050978767011, -0.0030029243774519613, -0.008110565984303935, -0.08610969623800364, 0.05532763350283758, -0.020758390600252745, 0.05525968974984476, 0.0446914607793873, -0.0628354539484078, -0.016668570630740665, 0.08757364712246085, 0.021031232177969022, -0.04893268306656639, 0.02076122008226845, -0.0006398712843129901, 0.035809974682303194, -0.04449407736325616, 0.0037442471162586624, 0.04014426884296578, -0.08974537335169838, 0.0006126035410316327, -0.018270843931949502, 0.07501675838539514, -0.04863051094801903, 0.03565709767813085, -0.02172082872666284, 0.037098488008865546, 0.04661658945857551, -0.02109791878724664, 0.05970683292664274, 0.05557440133784743, -0.012451274086597705, 0.009266725781366352, 0.021280822732075773, 0.012020191532982246, 0.03311453700568119, 0.026090375629171624, -0.052050621765581416, -0.0008584808890692081, -0.009703182704088218, 0.0032505259890639134, 0.017168558841219837, -0.03869298994163272, 0.04189877646094775, -0.011905131005873143, -0.005642833054231501, -0.04074931909343671, 0.0018761854403942276, 0.012034891167905664], [-0.034146862395524544, 0.018012058020748487, 0.008380036570788668, -0.03724112223401029, -0.04696454183331516, 0.003970846926033182, -0.007050972209478898, 0.012710012459119707, 0.01333929019169248, -0.04563712822379286, 0.007443532264185757, 0.00044306463319196643, -0.023949914514379663, 0.013128392923926308, 0.03428240918745775, -0.009861810083357351, -0.02372693094270194, 0.018728827832821232, 0.03477142086018588, -0.03229015035381329, -0.003161651909245423, 0.07432868647364718, 0.05579699565661148, -0.011862194896081797, -0.017568043143665828, -0.009587909473529747, 0.04480670141510867, 0.015564491678223064, 0.044111756240480866, 0.05691615811209021, 0.06740866977763717, -0.012435258624884964, 0.011116158887407043, -0.01248921840697079, 0.14571155861570606, 0.04955665556377077, 0.018658297721198563, -0.045060521816556974, -0.020870304345414304, 0.032000634337409614, 0.03290555688027617, 0.020821631659188395, -0.015027088492176358, 0.0035855635583760927, -0.03112056743183449, 0.027899104426616805, -0.025030513777842156, -0.007766803383914708, -0.06068867264079829, 0.06315392613758035, -0.009386728294513117, 0.01713205375022754, 0.07368729572590008, -0.004888856304183149, -0.02459282873384549, 0.038107033597005464, -0.04819447767477651, 0.005807238159329922, 0.031811653749631914, 0.028893686423518947, -0.003772870439221586, -0.04538250222045614, 0.020227296758657226, -0.05585881418871757, -0.012260040789456233, 0.029860424243485888, -0.04266065253608704, 0.0003610024770658092, 0.06884255558409491, 0.04232718251405485, 0.036404317333234994, -0.006159178429922108, 0.036610103200848655, -0.022378254347532874, -0.04784106354344731, 0.04454439606386914, 0.026296051653733294, -0.008596620092756786, 0.023826506283331998, 0.006217792909259716, 0.040294313551269535, -0.0036184468156134223, -0.008914123559197863, 0.0032062942864346023, 0.009097984833476477, 0.0066681493250378265, 0.006164285011939351, -0.009433265145500507, -0.018051669726847377, 0.013207905778394381, -0.005100502598897286, -0.001967840079385368, 0.039963137823821306, -0.03491601916384767, -0.02275441256231795, -0.013074191893804621, -0.022864639404678987, 0.050856277794849844, 0.01814787128382835, -0.00926385906634519, -0.0379993930524853, 0.04986454450804882, -0.022589483071975894, 0.04801408189505021, 0.033154468895680377, -0.02387536146874904, -0.06392278568724111, -0.05518160616119749, 0.00838424334377915, 0.04957109493610089, -0.020238087630620523, -0.03898795029036362, 0.03624538958735187, -0.03085055403917766, -0.02775884449306464, 0.006554786771052265, 0.011674988958037745, -0.027033611466160515, 0.006641672051469444, -0.058423870905411304, 0.03188410078892049, -0.017731190440258122, 0.016684276527364827, -0.019383350201517238, 0.011571647838891615, 0.006708801424713568, -0.0654759035913122, 0.02791928279593939, -0.021478239325584902, 0.01328366747859514, -0.040545714076639316, 0.024114897490464995, -0.009507242444927287, -0.02110035208271133, 0.0022607757629815343, 0.03710204235038285, -0.04686629473726013, 0.015389537207351417, -0.036307240728986126, -0.041395345709840284, 0.020785763505563406, 0.045039323421454905, 0.001959630523308264, 0.05605289781822118, -0.002807373771739163, -0.019000427360172618, -0.011263744426296917, -0.025587641221442966, 0.011249237470707935, -0.027084015919730666, -0.06026213654776992, 0.020985927309759015, 0.0076399852469717245, 0.0070054921603125144, -0.043598052213830465, 0.014196316883327292, -0.03800373652301333, -0.015537983927297647, -0.05684540733185826, 0.06476170265913903, 0.05235532676375689, 0.014904111094241033, -0.059625655274977464, 0.08804619250316323, 0.017126391547605167, -0.057653709440283515, 0.024936584152259005, -0.014655550896279545, 0.04729702781435917, -0.05364574677778008, 0.05676493929523983, -0.0055641536093055995, -0.019831674425467506, 0.043880558503297695, 0.021117829413960343, -0.03561890323970211, 0.018084429062624478, 0.020748430948039204, -0.03727032594199984, -0.002391534952710582, 0.03750239710372422, -0.02552451643094828, -0.054464091185928105, 0.01421884918145549, 0.06410678634394494, -0.011365144819304082, 0.009501396746526091, -0.019779752987439395, 0.06622437730155793, 0.012498110312468927, 0.007458770291895788, 0.05458434391070127, 0.004767165865628808, 0.05360819547386146, -0.023541914659745457, -0.0480550637177487, 0.002399301801002059, 0.049776280436236074, 0.003985838930070776, -0.007377666954462969, -0.0011493130148417733, -0.009486905130015, -0.050182026258831794, 0.046810395536158254, -0.02096536591447156, -0.008264959518342944, 0.025287737734957048, 0.006274367589106914, 0.034440488767747156, -0.09787281358152708, 0.00682783676010524, 0.04748795833348806, 0.068267951421834, -0.0038591143836053656, 0.00042707540950991986, -0.0553525844794993, -0.057511676898757254, 0.04695943341700481, 0.014621037949429344, 0.03709721318214188, 0.01053904485160591, 0.055957983954345904, -0.02686131481917233, -0.02664210063386193, -0.03561027337460998, -0.05415881600682184, -0.02915688067922893, -0.020122642062190065, 0.01578080143206406, 0.008580708391265405, -0.0446088380541032, 0.03167178604751121, 0.04750614610420195, 0.07087088815059149, 0.056760811068810445, -0.11811475525514814, -0.02510212520625869, -0.00631596069660874, -0.02891117450532461, -0.0035947570222587227, -0.04801207426921957, 0.035146823059135274, 0.017314373068600796, -0.006231350465672767, -0.008535162971740519, 0.028500140846735612, -0.032001317285328894, -0.014082020177400323, 0.05958298194427001, -0.03207180991959653, -0.03748697315399628, -0.006120105804089271, 0.03396023433323838, 0.010636230741737685, 0.07390018731132501, -0.010196917788347566, 0.009205099980141225, -0.0065307581614341415, -0.038419102066308816, 0.009084608888162113, 0.0324717302804733, 0.007418314410593198, 0.03582960177353657, -0.020601762054988277, -0.05719037203281802, 0.014891740013350419, 0.00013926799500141486, -0.03747365046899347, -0.03782555072412135, -0.004768804128494148, -0.03821390177001804, 0.008746252065991502, 0.0053628454773300294, 0.026941786358396873, 0.017714730170678695, 0.043799215729511946, 0.014043873725241306, -0.0638886077931879, -0.027843643059634358, -0.015762390478233364, -0.03151885203626816, -0.007655925895730181, -0.009757099916521654, 0.008575664476264643, 0.06298035537172512, -0.05314494496321716, -0.0009938929361749565, 0.061520734268221675, -0.01906577464429187, 0.0012269872022466735, -0.013713834118193675, -0.07050193633923844, 0.009579878764394617, -0.04768100282189717, -0.012054534750902957, -0.0337459013477097, -0.020031163697436957, -0.06207779658943051, -0.017734458923132572, 0.009488523272594793, 0.05361004231210714, -0.03870342247662339, 0.0008671218909345928, 0.028821171664502068, 0.00960320142275264, -8.769266133189764e-05, 0.004348711334511107, -0.0053257491210428115, -0.0076840235567820344, 0.01996485644565823, -0.04123141048428501, -0.05242642485518353, -0.038895029290177234, -0.013907296601686894, 0.0327992313363961, -0.06707397972818983, 0.016585167191854672, 0.07166378373335373, -0.0007370438140838681, -0.010007422584276619, -0.013446446199048254, 0.026272011620589848, 0.025121224926051813, -0.002307828218031025, 0.04295484677844498, -0.008079444322314529, 0.018750174432714834, -0.021235009234256162, 0.04619931842593244, 0.023405785890334447, 0.029475567095854582, 0.011470733882990239, 0.020074731862446883, 0.014602559870266457, 0.031889027494028, -0.0236830307782275, 0.048568155926913124, 0.06380206421511384, -0.02782095673150105, 0.02945590036822738, 0.03779688122610297, -0.005795425250175159, -0.0113386292712689, 0.015082784927025115, 0.052184752541914466, 0.016955397382885606, 0.005356274667386321, -0.018313785960307166, 0.02752463208326903, 0.07000228368836468, -0.02374428301335794, -0.019870652324342406, -0.01744194003361864, 0.0721963100368805, -0.002621968824146905, -0.09471559915247214, 0.030764835055274505, -0.0038749855235666883, -0.02742035373332585, -0.06457155979232594, 0.05516134616834116, -0.035885178666771135, 0.07343448386919812, 0.0068918808848340545, -0.011453612731513314, -0.016066475912487173, -0.02187766135162631, -0.055432629292793766, -0.05879740090257792, 0.04296328932486595, 0.08966005739730143, 0.010887278816121513, -0.016811663213905242, 0.0021430858973714773, 0.0034199159512357698, 0.02161278798880481, -0.05212469940386264, 0.023241946690072117, 0.054371122350710656, 0.028155650250635596, -0.025871204472156413, 0.020050824320229792, -0.10006432165895895, 0.04281331638766805, -0.07605098296511717, 0.004246652072679755, -0.027141867823616043, 0.023671798811418173, 0.005138793044107582, 0.04069845110965957, 0.047241069530675375, 0.0045596241418543754, -0.014273732113740627, -0.03156287309847221, -0.03600633839601845, -0.004505184976124015, 0.02109545247238778, 0.002135817112261161, -0.0018157912431927953, 0.034444180326402646, 0.006829558448567405, -0.10428214355195485, -0.01850173198215179, -0.022981662860528104, -0.003748999711891583, 0.03125222066912484, -0.007996616079900114, 0.019258660384192668, 0.011818384367474398, 0.05122566061986028, 0.07141179548115036, 0.011695067704890169, 0.002176556903779732, 0.06896332042953196, -0.030527814488691265, 0.031136176382767382, 0.052808930405865394, -0.020120208585957013, -0.0027792368300969712, 0.03137299822323976, 0.10362926954630393, 0.006909120229981054, 0.08097447366461452, -0.030138175737136143, -0.009173379717227214, 0.04633440730827714, 0.09262776031089058, 0.038968376403145606, 0.03394834193896341, -0.03515201935002233, -0.023338555633562654, -0.020209291480692133, -0.00506711821627535, -0.0242093298204627, -0.029904507812838193, -0.021235324556060357, 0.023648164504329387, -0.00011689843040285797, 0.04354321194543605, -0.0011580983074134992, -0.03568807639293234, -0.006399894401295003, -0.001800075333391774, -0.032185568805323486, 0.017802880460033237, -0.013266434642201355, 0.030250949363732033, -0.01605593125932438, -0.00896704387594235, -0.010346089359823766, 0.04457670918793206, 0.028901409644819697, 0.051381725457228904, -0.01669047317364605, 0.0730997689235837, -0.01786500493723405, -0.03133018727318891, 0.015296208083899194, -0.025474651340179583, 0.03138080252890994, -0.03196196887558827, 0.017150609111800424, 0.01900354842606936, -0.013154134018375804, 0.016925475543293527, 0.037492991743090696, -0.02812666564443576, -0.028792511709259234, -0.0708864725662928, 0.01031471437196684, 0.029849164717179272, 0.02908664774470768, 0.028139711416722873, -0.06392445418958614, 0.004310469617381312, 0.011807379461179615, -0.01080172483118069, 0.03034057860310908, -0.09213541423899052, -0.028023640790630956, -0.04723288014158548, -0.028254167658050066, -0.04358121754442198, 0.051140855421522906, 0.010632511226039419, -0.015273638104788979, 0.023820925574453033, -0.025065523298252672, -0.012833967740766476, 0.06791851564205001, 0.033337208064253616, -0.04992305997396772, 0.0353607167189907, 0.008794082398537278, 0.018569842485798786, 0.0033611338758947206, 0.03956946753493865, 0.013943304513865282, 0.04682263481023773, -0.006221923979550364, -0.025495786524683067, -0.025634136610164057, -0.04185717105558983, 0.02194288396773556, -0.03339786315726786, -0.0014745772637287276, 0.04118543127993944, -0.00504503560978046, -0.0031177330688358196, -0.07348056172605322, 0.027458548834528647, 0.02306400198533374, 0.0014956619100050738, 0.042654299351354244, -0.016843351076131514, -0.056299445548180026, 0.008434065851028738, -0.010914249105050894, -0.026946395924218557, 0.03754289822586292, 0.00139880226928262, -0.00511641879959864, 0.028547233772002162, -0.0483715295363359, 0.004273396255967958, 0.006284172817940249, -0.01099771149153351, -0.0418399480048909, -0.04427489667201806, -0.017674831279795543, -0.019660566832634983, -0.023664048557520422, 0.027877154495367866, 0.08165869243519439, -0.06386943003438243, -0.03138340411166207, -0.041159546732476564, 0.007620963199813487, -0.02274667162685141, -0.016588244915892007, -0.06741347875405318, -0.003100932586934338, -0.017027729900881878, 0.007724301976477753, 0.023138144740510257, 0.005305152039929173, -0.02431560640207894, -0.0047551868076684285, 0.029930855132702532, 0.046797032763336424, 0.04744756641338678, 0.06462967539536688, 0.0006349505410919815, 0.04511180093216226, -0.0012294025434467437, -0.03664555374388629, 0.0062978895752505495, 0.03040034266925707, 0.002481048660927768, 0.00427710547669932, 0.03827385802841565, -0.006098089520088818, -0.02398115571511444, -0.05083948955201215, 0.013225140797447589, -0.0038022991991724904, -0.02553892331756909, -0.05473464429868199, -0.03798653600748736, 0.02634400864249243, -0.01182037232177322, 0.014114437601675451, 0.004419218263723741, 0.04684614698953136, -0.03159622376202024, -0.034202754870399525, -0.01563046203595226, -0.032427275160801225, 0.0019712183577349847, 0.04769188469913736, -0.004546704789437902, 0.0032949741530117036, -0.002856565878430799, -0.015261816154540865, -0.03072084795990308, 0.019199992336314208, 0.008323912405879189, 0.01843850892921928, -0.03685373748647903, -0.013361608741637864, 0.059693119789092024, -0.0019289180756925772, 0.02662122808656645, 0.012543128161476668, 0.04876239488668304, 0.020346924287972263, 0.011533749106282475, 0.09143832020411627, -0.03617589825400668, -0.015578563794980627, -0.013988998638465908, -0.004696971557919027, -0.007195329108835793, -0.03485823014537885, -0.015132918138149312, -0.018789204519301644, -0.02639688772570342, 0.011491086727049338, -0.039079403864662965, -0.042320777254757254, 0.02554421370261545, -0.006715046790054182, -0.0011656254289758342, 0.005591949733865286, 0.0042287066177057, 0.01833378091070828, -0.0576497616025685, -0.005808291140604611, 0.0657344120056596, 0.04620810024779585, -0.029381328358491693, -0.007292719892724341, 0.005840844550161401, -0.03477249369812159, -0.01588253280722976, -0.04720874411013382, 0.02245695334119808, 0.08222303684154446, 0.06384693273101487, -0.05287915344494481, 0.034119750051523616, -0.03953765582840347, -5.71528362596802e-05, -0.012045124839802274, 0.020282658408253107, 0.002719345853532424, 0.007237397817700939, -0.02083647239256129, 0.0742810847784054, -0.048026557603569164, -0.020406270001965897, 0.015091179463557935, 0.03508771726184705, -0.014935098308366757, 0.004622369730062807, 0.04296849327355688, 0.029019846192939923, -0.040555587026406194, -0.09897053070705575, 0.03273779709551698, 0.041156969211588554, 0.02679670106760741, 0.022485929162390773, -0.025766389982464544, 0.05420556244425843, -0.004977700416318033, 0.03869287671948083, 0.027106061099348405, 0.05163330292125092, -0.0193007365313641, -0.004968832176552133, -0.024325530720202986, -0.023723068442126315, 0.026704700719548773, -0.028312842927506843, -0.013282834109685619, 0.030179679077222323, 0.03103681279712872, 0.017361422930478508, -0.05085838846662115, -0.023615486461796457, 0.067972217236983, 0.02684209900863223, -0.06341944335553631, -0.029206097870580237, -0.0466530370248131, 0.014789986770620617, 0.04198816321431225, 0.016112792837190987, -0.035748120481342294, -0.0393267889688867, 0.04163173415765788, -0.006313467383366252, -0.02232129049131492, -0.030528721366244824, 0.0044449909210235936, 0.03159365045186357, 0.047398190206437006, 0.027179248010261583, -0.014625228445641198, 0.04457595018323363, 0.03398620629511614, 0.036818977995877925, -0.0035977705864033314, 0.03270432366244887, -0.06807879563923573, 0.00366161451973732, -0.10073337034426828, 0.013832466029411733, 0.016565217178294442, -0.056078479530382995, 0.004214935400888809, 0.032065292332614244, -0.037913268605284524, 0.009690613543074876, 0.013847257595499079, 0.003642234939651885, 0.04294452531253728, -0.0424672566742265, 0.006541849969307813, -0.02700821404808913, -0.022236793446271753, -0.020869941575542554, -0.03050420752411468, -0.04455924114162689, 0.04590069685537617, -0.06149711769195696, -0.0025704363710533913, 0.015544178446839448, 0.0003074407263757044, -0.018265839756447078, -0.03364439605042292, 0.017987482588531396, 0.03747042304186954, -0.003834701960121158, -0.06126352562460975, 0.01380954369046314, 0.07098224041883142, 0.016287376410606787, -0.008454358615889753, 0.03933020212548346, -0.08353863400606143, 0.013365387449090771, -0.023385867018208672, 0.03672991369831997, 0.008590163121421886, -0.07530810035933778, -0.011366027086304797, -0.050814722914415945, -0.06700665894162502, 0.008273157736223615, -0.022481486050640632, 0.04265672721263273, 0.011935702247714454, 0.008070516455160352, 0.022225196942460147, -0.008796077773437355, -0.06445839779039954, -0.045152914047937275, -0.03180942017559153, 0.010104720368267792, 0.06888677512753918, 0.029178444862483503, -0.006594119376407511, -0.011562298495751872, 0.04265933434475556, 0.005016235668111059, -0.005004047528127968, 0.010958987559077846, -0.03885412284403171, 0.009352667571748277, 0.04710166838622847, 0.060903355245366116, -0.012345446002083456, 0.027375120029256076, 0.014940874324446273, 0.0620676121307833, -0.05747179974726415, 0.0948480654362904, -0.04528301011699654, 0.014809324839846238, 0.02278982035694535, 0.0222495741374066, -0.042298586614189525, -0.043192222852323055, 0.0038222414731347637, 0.025632558213008364, 0.02469192435058176, 0.004058506221361118, 0.030039042234940725, -0.03830235837051089, 0.03457760994878396, 0.035706325703111996, 0.03017463321834656], [0.0013658296659435018, -0.024016186453852777, -0.03943927547945951, -0.03423161715836866, -0.05934594062500537, -0.0038949500392139276, 0.0035034184093751717, 0.019241983702069133, -0.059393660779432936, -0.02705386871363773, -0.038039359433396716, -0.0521430282539337, 0.0278094711644967, 0.021755110813810815, 0.00488376796624985, 0.019650567342336688, -0.016073540283196432, 0.04816963818611858, 0.019723964795527512, -0.03957703223136997, 0.010421673525010984, -0.028988564828196253, -0.015102951085349791, -0.015756210651438764, 0.031015303502849676, -0.022191207197162575, -0.0034173433476892483, -0.02689844247570672, -0.03361908463689329, 0.09387093887775479, -0.013899032123731904, 0.009901729515885513, 0.03586899929783124, 0.014912272711745209, -0.007847508780774807, 0.02159145285514447, 0.010479845328313702, -0.0016303031772509026, 0.01658601849024929, 0.007879767514041435, 0.04907200035443562, 0.02518202347136448, -0.004504932840785714, -0.04355137480111915, -0.02082530463753238, -0.017845963822019577, 0.022233159389818978, -0.048864743647949384, 0.02270715006579425, -0.09426337611846765, 0.09548446598541208, -0.010412050382302567, -0.01745226266079693, -0.02126416048306792, -0.016737164098786245, 0.005007428664241145, -0.025396878342566927, -0.07202497388496998, 0.015838139042073634, 0.028865521192520525, 0.02146990779875534, 0.0043208600649413, 0.036216002706064725, 0.06189931424291973, -0.04797448652645376, 0.09108421403204203, 0.03916920621854553, 0.0769152744954008, -0.06627984980231746, 0.007451168066665803, -0.018902083790267792, -0.058832262087894806, 0.059134554688129316, -0.0047983587755290585, 0.001804643935190425, -0.018738574763081346, -0.006532266188346439, -0.04741222868515652, 0.03702295149564039, -0.05611301291401528, 0.031058209643330923, -0.03586451265013984, 0.024050908159845785, -0.030063170359705314, -0.03180576512022189, 0.007273177924761942, -0.015351381304750583, 0.021350864551176737, -0.08578701427260725, 0.00801918889304789, 0.043847162483498035, -0.026651744632773113, -0.025340571180602123, -0.0045022510304624135, -0.0006445296810636724, 0.01957441546116886, -0.027753088829628854, -0.04071198730898016, 0.0019768092178166136, 0.02669231139936769, -0.03173697005047505, -0.02924730210113541, 0.03181694351071641, -0.02050585401571994, -0.0012413457654557765, -0.022956876719088852, -0.000386450918535714, -0.014493495922460655, 0.05969887860666249, -0.02319837545902445, 0.11415691085038657, 0.004649754408117262, -0.03428844445672096, 0.005285399418768997, -0.00938733749616358, -0.0135381784590579, 0.031091978208283494, -0.021239588394117725, -0.02807894415638351, 0.00047576463007576684, 0.04891354466471952, -0.019554212132462424, 0.04814184117698459, 0.08134648544231311, -0.05488363808862075, 0.04884020904537677, 0.054395581042938006, 0.023414681326918197, -0.028592393511990926, 0.011846140450353716, -0.005660332720052818, 0.04789392206871845, 0.02665189945234043, -0.03680146944609582, 0.039166833522733105, 0.028246542696360226, -0.05519375824746307, -0.0058532994633889255, -0.003267681134834212, -0.044524426380475005, -0.014717910534349012, 0.011975025500832154, 0.01608870002163507, -0.0395269268750004, -0.03520000128708891, 0.028637202486603817, 0.010243799281064643, 0.01752440806960587, 0.029048654336500362, 0.010926778220771871, 0.02177512600240574, -0.027704946008275923, -0.005960515993097969, 0.043966552022119486, -0.014844366107424298, -0.0010878520863152213, 0.05399991255309731, 0.05218149361511538, -0.04133475707698654, -0.01992974037306017, 0.008963854598627015, 0.03341252834816059, -0.012752472144126628, -0.03594957264950023, 0.06096784154483079, 0.028481633953250013, 0.03551362411945074, -0.003732164719154838, 0.004656505144379395, 0.025708002682476003, 0.022253642312507826, -0.01619085944681325, 0.018756473591793887, -0.010207919566191279, 0.03732515991216157, 0.08554812469935989, 0.05258294246559234, -0.039021398213857354, -0.03512786788861442, -0.011240947906226848, 0.03608282870763042, -0.010942159568447926, 0.02167427912331839, -0.009481366329110582, 0.10718631544612223, -0.017728056014802842, -0.0003315840731759184, -0.02658174902329043, -0.025856626454027247, -0.06827435741750963, -0.04443606164305313, -0.01990249524666818, -0.09003353240448017, 0.03865874019600444, 0.003780874449734105, 0.06832718188901807, -0.028739866896965567, 0.04508530669246819, -0.1105910501208094, -0.05224134286832195, 0.04032089128836266, 0.004228910726778072, -0.035593652665407684, -0.10462203397130299, 0.013562844389502, 0.03489695350335376, 0.014423936414079982, -0.009474480423817077, 0.012541356475194545, -0.03979235189301437, 0.0025342602440424555, 0.01779678733392728, -0.016263952772911785, 0.005830736346951852, 0.06560715766956662, 0.03329871163275299, 0.03537918900718966, 0.06319007775645644, 0.012373529535631264, 0.039696018494601006, -0.0011839633008463863, 0.03991085467411691, 0.01494197726910664, 0.020025329012687925, 0.04253668492859101, -0.05710789183524775, -0.02924335300006939, 0.01929825894229865, 0.023414490831428336, 0.007722840827546373, -0.022920058997103022, -0.04797544698239296, 0.03209048761595725, -0.024442737037762917, 0.007564640466037978, 0.013755534331298535, -0.01784308595844369, -0.021294471669430878, 0.010714572287214489, 0.0385390660939219, -0.0036975965225720894, -0.026822178766104265, -0.005791648323392094, 0.06485292200310873, 0.0033004482497625545, -0.0442710838428722, 0.004102940000459972, 0.03712766376670042, 0.03317669167793504, -0.03674616817466343, 0.03067401018765268, 0.013071783660197765, -0.005577116576174408, -0.05434129476184406, -0.029400221467643154, 0.014309419682419557, 0.034192228785159, -0.05414404390605444, 0.022984025424972705, -0.031324592266776856, 0.015081676725709857, 0.0027836030268125695, 0.057481714364863754, 0.04383975042793505, 0.02963663999272876, -0.012635426391669697, -0.015580123110998313, -0.024101036574225763, -0.019667598278350375, 0.08114272757977593, 0.004926592919172449, 0.02635207711114942, 0.059336715205397454, 0.027567514597259833, -0.010748034294620224, 0.04159516592896241, 0.05083341495435639, 0.03019909139236365, -0.0476297605063325, -0.025405248752102188, 0.012824039240964659, 0.05580357110967295, -0.009308306652529016, 0.031780007669912326, 0.04320231581838004, -0.07137004504630458, -0.04651231265021956, 0.0018260753886342289, -0.05730231924675173, 0.020760325057159724, 0.014590179546236173, 0.02793234917945284, 0.01829777244894204, -0.0023463275641085143, 0.002756866754395282, 0.044523500363601066, 0.03104656899010405, 0.06566269564314008, 0.012873585564882025, -0.08721639047032405, 0.010646744916863234, -0.011731523302902988, 0.022853709824343708, -0.0020127551361387936, 0.03167544469892601, 0.024174429002393305, -0.0446697958036036, -0.01108514014558879, 0.04241336957688618, 0.048626282449714585, 0.030766666914256145, -0.0380574756126426, 0.010046901159546399, -0.008210172196120566, -0.00631836332457472, 0.03156422386058071, -0.010264612454117522, -0.05100486530960279, -0.03151111129783034, 0.022391124223182585, 0.03772162334729504, 0.0358177179085316, 0.008756276383047238, 0.0180815989714468, -0.033835479756228096, -0.004017412010178965, -0.0353941723363035, 0.01123386554542811, 0.05212630004091879, 0.027187012044023955, -0.005286450985152473, 0.021857824578510102, -0.012510065444416189, 0.06211089828579354, -0.04595305079070704, 0.01539966852378881, -0.03458274824802532, -0.004771418038118732, 0.03215903769818409, 0.007980420036847633, -0.024620287629689236, 0.027068418543910032, 0.01758217124764059, 0.013611172007129451, -0.014677090150104858, -0.03821035482158284, -0.040206750054692195, -0.012294654336027028, 0.05803894576375095, 0.012093701188643705, 0.03303846748422706, -0.01238289008623605, 0.027590363965064545, 0.052849399447892284, -0.0568236359720724, 0.021920672845149862, -0.05597508826004257, -0.014734174399470234, 0.015428054605534059, 0.019255080192376702, -0.002458358282998939, -0.08172153172392016, 0.03500234464977398, -0.0112764965134679, 0.019873180815366827, 0.039250739288560786, -0.04229265334281229, -0.025571404472703115, 0.015197805509541662, -0.007294821165711013, 0.009910472255622058, -0.011065355466774304, 0.08700516474839234, -0.005049039633523073, 0.001308889250716434, 0.02497291088055877, -0.009972820269424403, -0.040552738552693715, -0.027315367898888644, 0.0018786818268477377, 0.017662657608786898, -0.004269179127763255, -0.03551011357306001, -0.0014638891696965345, 0.05598096105902762, 0.014714190115830384, -0.03872625172847707, 0.03400145134339461, -0.07037547185562885, -0.05901905789671113, 0.03350596956640766, -0.019607021007505804, 0.013215815283512167, -0.05649045224569661, -0.04690919915298785, -0.063628157363654, 0.012507632502671345, 0.016849381667251286, 0.010802524126630422, -0.01256330462549077, 0.02938783451553778, 0.006472541214735026, 0.011022079053249768, -0.004365067667145074, -0.09957903471275341, 0.05409817453239185, 0.08152706444491707, -6.2580584339304e-05, -0.05355003694457338, 0.049143728981645075, -0.003994678971142556, -0.024553165437114253, 0.031150258793608537, 0.04072409838801355, 0.013811916329082389, -0.07039814346076775, -0.02078703318009723, 0.017968211663521135, -0.024115358985978573, 0.07136824196714696, -0.000931684088426971, 0.0010424065026485383, -0.0627739447059893, -0.05999843999564124, -0.022954016623757827, -0.02250172837565325, 0.0009442229506478049, -0.005415097520905921, -0.05134898919527198, 0.0357639712514387, -0.054152091880118644, -0.009682125652684956, -0.04046321781263793, -0.0028781004970381066, -0.08646642542568043, -0.045035128585343934, -0.01766464748373901, -0.006103256643306397, -0.03896961101157233, 0.015422307447472394, -0.03347335176525252, 0.029146915314844122, 0.03293670914433078, 0.005384085346981532, -0.0033830384350256822, -0.018170775557890522, -0.04441754508361518, -0.0494713380857232, -0.02750463150570199, -0.04158678080677958, 0.05573245330745271, -0.038382469313413534, 0.039843580418562466, 0.02057053906285414, -0.014247800448444177, 0.012806873391397007, -0.020510545729506523, -0.036569163418448236, -0.02388814673617411, 0.03183824989403597, 0.008065282842591948, -0.005838721280419618, 0.027313379548920987, 0.03414237053288322, 0.0358040443086747, -0.11400237115305752, -0.045895123818038064, 0.0459443465765087, -0.010915642162122015, -0.023219309744825382, -0.006918019111063225, -0.017225362883700013, 0.023536757066789066, -0.08354672783922175, 0.005968244792477931, -0.03325813707007034, -0.04030612042741257, 0.03799072383006509, 0.0329974921049918, 0.04646083395649762, 0.004899942299181443, 0.055434022427365726, 0.048065104413929874, -0.06656948932802527, -0.04193816640450702, -0.02293033767849786, -0.026953028906208005, -0.005978821323106913, -0.04945888068155502, 0.010665295381135836, -0.0750611750500521, -0.01608367636989668, 0.01544435211167823, -0.042631744628581714, 0.0008301270997084899, -0.010701597717229925, -0.002818290941733474, 0.007080727009926423, 0.0875603807828852, 0.007479317518877916, 0.031703300213020265, 0.01228455502393525, -0.04970084631183348, 0.04469093641654907, 0.05534189248105798, -0.003654754945338379, 0.08287145613869255, 0.023712315575598688, 0.029498021115083706, 0.011901878552103465, 0.03334076036239308, 0.0216583313549506, -0.021063716586434782, 0.03205783923191105, -0.055080052753081685, -0.05169957754857076, 0.05914856682813451, 0.04974911399159447, 0.053788979737030174, 0.023327908290899042, -0.020489556569404117, -0.00981797389146187, 0.007339666092990479, 0.0634226676475892, 0.046174297917629704, -0.06712514263672728, 0.012974948773050785, -0.00855018147665825, 0.09533780163411064, 0.06399536730539852, -0.03887682602972573, -0.0694275987650783, 0.02247935307493208, 0.019055688764032266, -0.02878507493763604, -0.03636809903548942, -0.04056648364281957, -0.04401579400605383, -0.05326620875639896, -0.0426468029995257, 0.012516630629686191, -0.035416800237933484, 0.003229020396575273, -0.003918546850162971, 0.03628889423371464, 0.046228773252738296, -0.03769488594643349, -0.04371415766242014, 0.031270540908111426, -0.008562820355617264, -0.019007252154848813, 0.06343223943424768, 0.014355280527741316, -0.029234911760702968, 0.011115754761811026, 0.01274975356053791, -0.05276723164964434, -0.05015720490565993, -0.0018852288959225443, -0.061438249914097964, 0.04370686761075596, 0.06824187614955493, 0.03954047468899079, 0.012404227785882214, -0.04071784680443725, -0.019115454763972205, -0.06059282064849767, 0.03102338617508862, -0.03185067624253302, 0.01674893384497385, 0.00551199250372915, 0.04596397248547141, -0.020404555790882625, -0.08042435849843256, 0.05729252994008434, 0.042657174477984935, 0.03238502997600299, -0.0185850936817395, 0.02597224013492261, 0.03768793154944687, -0.031899148375141524, 0.023166273661228833, 0.021920843320748333, 0.009575270553888656, 0.04404378724405798, -0.06436680151564621, 0.03301234701311965, 0.07862834540613499, 0.01109050879360772, 0.015263519219687922, 0.05925890613871742, -0.02422592780824438, -0.0018669996901146974, 0.07678385750856125, -0.004119872210330963, 0.04592358361600289, 0.032543874532290844, 0.007726607438372962, -0.034141260834541595, 0.030418925469081693, -0.05653219977230014, 0.06270657402675382, 0.003339286011760134, 0.018801349034109332, -0.02056707959873061, -0.04354503755885584, 0.05784371274611305, -0.030383955183049035, 0.04258350343070818, 0.03603622524180195, -0.04499518012180196, 0.03935992957457722, 0.00030489907245080585, 0.06217415674573982, -0.025321719577771132, -0.002607127339981613, 0.0236699854469821, 0.016780001810609065, -0.04472070613204753, -0.007428336053041474, -0.053853672896962114, 0.014097622410442196, 0.0036347826697724793, 0.07676334647651266, -0.030425491899002344, -0.025192916446592863, 0.03404427174689701, 0.056898957814214016, 0.00673305448534976, -0.031113016520820092, 0.08223775673680843, -0.06940815026309796, -0.004576617876128053, 0.022608518820980732, -0.043832140292579196, -0.0028284732503618165, 0.004877387751490198, -0.009641046372459149, -0.0167183557795448, -0.04622240927531578, 0.0011459854463072173, 0.06151623974263182, -0.005685353565189454, -0.01731702935059465, 0.023460684667131932, 0.023011845097563554, -0.002396329376639711, -0.010580730792567272, -0.05320960125936137, -0.03821183309150074, -0.02090839561172354, 0.01162397354613702, -0.0433850862912031, -0.018401505166803524, -0.028320386037636026, -0.010493304867471727, 0.02458612438825373, -0.027355278436764257, -0.004627744199790643, -0.05619605238382834, 0.06071631510263721, 0.015281842766165638, 0.027965330152579255, 0.026232732807886804, 0.024549546672986224, -0.030027219020444255, -0.008331825453930542, -0.036380127285586185, -0.031143769016259294, 0.027224689374097662, -0.04997901647294215, 0.013973811743047956, -0.044618166176802414, -0.03832150267728209, -0.010836660645623658, 0.06709222022155455, -0.04100058135619798, 0.03296365513939263, 0.019071531495089434, -0.009049121615977263, 0.056377532192602185, -0.02029766051000592, 0.001392289912602788, -0.01944313138315801, 0.012684951535746726, 0.034059083832129924, 0.04472688865688195, -0.04163855567113191, -0.005296882846994674, 0.03145247581682253, -0.016585083545062603, -0.007326766319202688, -0.012570876635731814, -0.03948659733067437, 0.024817862727958, 0.003912646567722457, -0.01781588209018121, -0.04594262845888431, 0.002089078255931963, 0.016623242507305146, -0.06145562329593098, 0.04231760934030894, 0.009191288531857284, 0.0541931650122578, 0.0011793500431928421, 0.019287996747780794, 0.08352515569526964, -0.017306655556164695, -0.013631865887354811, 0.07427929374472739, 0.005016667294459412, 0.046644265690276576, -0.02884560047415204, -0.022989890671582653, 0.010870750306602938, 0.0650299035878238, 0.0032346553592296342, 0.032149314215991494, 0.010054025999032502, 0.03293862265145089, 0.015469356902899866, -0.023224456316088708, 0.011332820134806064, -0.06801025425184662, 0.017737917971226792, -0.02326763830782579, 0.0197889743425838, 0.00010108643217856544, -0.048070252824429845, -0.012638047137595088, 0.07197873363221018, 0.002363301978968183, -0.03647146370558908, 0.006450574119769988, 0.08935162528717529, -0.008835985356173389, -0.02549143873594612, 0.004862429264972869, 0.02391309033294315, -0.021265352148928714, -0.041082192041689614, 0.04524593323973053, 0.02531910707032431, -0.06532567321307373, 0.04189916824021295, -0.012960164351934365, 0.027626551223532043, 0.006618522960634307, 0.02235237303773085, -0.015804634512682453, 0.028165462860171464, -0.002302679495316102, -0.04245439699500396, 0.0069992711118443155, -0.039303636624920646, 0.006811172555198543, -0.026364292858470917, -0.012728565737092287, 0.011658270410265755, -0.00958110520727605, 0.030451655485680466, 0.02833871130310852, -0.04545553875748227, 0.053790061219669554, -0.014899691096201076, -0.050287549825817325, 0.02711162503306964, -0.028600759521976542, -0.029528439763880227, -0.004264423996944649, -0.026476839600916957, -0.04055309728298606, 0.017672140441708804, 0.044446901978009566, -0.0015951411355414218, -0.007445957347737017, -0.1069222218744931, 0.008639558761736598, -0.0102369124507304, -0.024290924867147127, -0.020793114775222516, 0.017782330593626185, -0.02520740597396123, -0.04412524065214552], [-0.028927856066142597, -0.004010175840681802, 0.014526952665178876, -0.05492795202338436, -0.05612270623945614, 0.0324245479031011, 0.008950463872071308, -0.026296680482887934, -0.06571558619183525, 0.0014811076711241128, -0.002038577359963945, -0.08990914691869, 0.07957427615577087, -0.02014153347301409, 0.014900981811142435, -0.04828735998047183, 0.02494870516567643, -0.008788483293278165, 0.0564864151982104, 0.001549443023987446, 0.012131641557810805, -0.0066178611362105256, 0.010830397618756484, 0.018284334313498022, 0.02925506917497871, 0.02502831056234183, -0.031156336293675205, -0.03941686323853775, 0.10548836037794994, 0.006581410223027905, 0.0155102749103089, -0.00675739277621356, -0.022349491719169556, -0.013776219916922114, 0.030557935409006257, 0.020390038641738856, 0.05476456033390822, 0.006790397017714353, -0.008715194967488137, 0.011255225836339379, -0.045641274895718884, -0.0703577823355968, -0.013505493937096495, 0.027739143822600888, 0.011320595147227457, -0.10364555187721476, 0.018070309733726888, 0.05581811703285847, 0.061114125241774085, 0.011538720383937317, -0.0485614064997908, 0.021330580935244082, 0.01797901536940814, 0.01493644640601176, -0.0036661341841029717, 0.011431395679306748, -0.05421559965720872, 0.05387102972336655, -0.054415203142711595, -0.008306387165674615, 0.04811529207661757, -0.08255660368342856, -0.05056029417025009, -0.02040637009794971, -0.06517390086692004, -0.027202110003204088, 0.008733882573219094, -0.015124036621770465, -0.04845269137150299, -0.10436398659527077, -0.030668881941106542, -0.005482693551659835, -0.03063049445963115, 0.01555551120898542, 0.011233689541368167, -0.0020201258123290614, 0.0029551622838267346, -0.032949676194737064, 0.03919250352720036, 0.029453896097371823, -0.03125984401804647, 0.012813462608183456, 0.06137465318380022, -0.030023208744977197, -0.02986761089747006, 0.04066959295998313, 0.012082212227253555, -0.002610338382489367, 0.0235173419779272, 0.011417132578318124, -0.055590488468216126, 0.053529845639432035, 0.0012739307464401802, 0.03764276893975983, 0.03790903506080202, -0.02053905369409349, 0.08418648233378787, 0.030294836520723307, -0.0351321596521293, 0.009339086429100899, -0.040671356108638805, -0.030339319232598055, 0.049794974738175804, -0.00047864895215156487, 0.00505943368221041, -0.023197397641612133, -0.008021227654319027, 0.019007017361167666, -0.003870599461356563, -0.06831752653200297, 0.04131132555597912, -0.04004200033206995, -0.007845176641516799, -0.016366203794258873, -0.018296711079192254, -0.007751975150711336, 0.009306797647091273, 0.014494541119409213, -0.018123926163658932, 0.03891577895555324, -0.024352464101693956, -0.046439335931792655, -0.07296044651955502, -0.019023326083629274, -0.03187833464079008, -0.04026450374895041, -0.012367145510774299, -0.007367447982606914, -0.06854751219176046, -0.02625026125216596, -0.006233554656460911, -0.028675245430866848, -0.06583108582063087, 0.016386611280659786, -0.00888145947881987, -0.08006439707798271, -0.025094924703430676, -0.07254002113293401, -0.032134854481385096, -0.037849318793172625, -0.03236359924652044, 0.08814500304225655, 0.04530083646719336, 0.015006385828437187, 0.003927460504694238, -0.06704255647933852, 0.04448841190023713, -0.07849093765036397, -0.0607938476037983, -0.02439933704782457, -0.03892790114333243, 0.027470848108334944, 0.0365849630715978, -0.02794353985746149, 0.02500588925651937, 0.07872523260027572, 0.04882523147029686, 0.019562724175222913, 0.021550335343097107, 0.04038922171866718, -0.006655416916265757, 0.033284312731583124, 0.04602956589000915, -0.0045257759069359475, -0.009211801787429294, 0.05085001454897288, 0.060133513469225755, 0.042491177869612776, -0.07445471586929812, -0.04109677561584, 0.0016907635307591225, 0.02388210747797297, 0.07750786786224537, 2.4501702846331335e-05, -0.05705866637206692, 0.0010003182117148336, 0.049987323092314705, -0.028530791517147155, 0.0002490604322852038, 0.02462090497513441, -0.010469231572619846, -0.041945862909836755, -0.024479380105840526, 0.026102570419467404, 0.015394535026491856, 0.005353290552198031, 0.0388772936971842, -0.03135809979640553, 0.032317137825637325, -0.0097669039240154, -5.2413623529374754e-05, 0.048656279094600276, -0.025002662190087243, 0.005334303219909654, 0.06294236729443996, -0.04375576507289982, -0.014898164350216594, 0.022074512452423974, 0.03447890883197389, 0.002113020224620197, 0.00990864138636358, -0.05504885361677773, -0.017397239388512918, -0.027145585010977285, 0.052240986976879115, -0.0213605158265527, 0.0169846809624784, -0.023561433375270713, -0.04355602920913711, -0.005194293913970844, 0.0010023515030309234, 0.044068558071108856, -0.055737118987603536, 0.028623609598032177, 0.024062355509628968, 0.06662777332439739, 0.018293084288493407, 0.04443302969640778, 0.0012691094307890178, -0.03140833814368499, -0.006798606092149592, 0.014829425222987557, -0.0004220747595600622, 0.021065946313275276, 0.0047749378926301295, -0.040824404492335466, -0.010382048372992904, 0.009131360559411893, -0.037486116812338356, 0.04184395939525267, 0.03298166254459438, -0.01680976018122262, -0.007558667761892033, -0.00249783099522044, 0.03257715073996386, -0.030375391252229652, 0.046077738068484184, -0.03954633635811754, -0.012577349891041617, -0.02626646836308386, -0.019594723538801633, 0.021171913985014803, 0.0004111416135720441, -0.05735054833627571, -0.034271439488011965, 0.004649584561146588, -0.05421672009335599, 0.013149059705311614, 0.005407273486039193, 0.0032799325176739425, -0.003804816719367206, 0.032990255062763034, -0.01950494578808999, -0.03447010137365877, -0.011855213851173534, 0.008848259711610065, -0.030138660218606637, -0.029956610094451563, 0.02015322228621075, 0.013533075718523652, 0.060809718124528685, 0.0028449288077867204, -0.0020698033614185, -0.02367696872819186, -0.013703479628226314, -0.004076001662526281, 0.0034837427307579188, 0.019587501211016767, -0.03385985381820538, -0.0011462044088294749, -0.006440636692228045, 0.014500939975971433, 0.0708307661091562, 0.049608896687156685, 0.017328513475638675, 0.08747760077437754, 0.06286290568755923, 0.01642806516354366, -0.019707342177043126, 0.025928307662967737, -0.003868134314584719, -0.05550562176215649, 0.013106098329465651, 0.017919875640353834, -0.030029207049013823, 0.047275865145656695, 0.027923687063144447, 0.0496815713338785, -0.06808475227857844, 0.008242737392930197, -0.011415730967897011, -0.029410914416191695, 0.03319640582503512, 0.02757690000463461, -0.05011678099774748, 0.012412045140856314, 0.012494291320402707, -0.013507734046522163, -0.00553969071307363, -0.04376098058190873, -0.019768475153614098, -0.026022365183272472, -0.018470946208545194, -0.007598250308680881, 0.00014169482919427302, 0.03263358818539265, 0.03175085985614927, 0.060966053089836506, -0.0844626288585899, -0.027866088074717427, -0.026540127725540836, -0.033877248272216214, 0.010073104867532923, 0.0011263620658062564, -0.03671531837631743, 0.0126033990358387, 0.03945765760685321, 0.04801156857886958, -0.051294512913452786, 0.07613609179210433, -0.03454053050771175, -0.023365254107296982, -0.040394923092070045, 0.02562277618035385, -0.013628033403917274, -0.007018523301111642, 0.04124859647635954, -0.009115876724058678, -0.00035379106603039757, -0.0006669739192029094, -0.007829740621793601, 0.013709115349228492, -0.006884328666199169, -0.05726137700734717, 0.02209155189640428, -0.0158311052349143, 0.009966858972267402, 9.71769888775899e-05, 0.05606609651047042, 0.02037076929911776, -0.03879957092444046, -0.06412862882544439, -0.055056316096311106, 0.05384965422673866, 0.009025756643982433, -0.008862317252931474, -0.008242309357623647, -0.02950003272803569, -0.04103670786273337, 0.029566160725066966, 0.008759093919732907, 0.002543646122420437, 0.046946495089051174, -0.024340395678164796, 0.012087774778099126, -0.05066384767714057, -0.0195371628717454, -0.052729893719451235, -0.05003987755449405, -0.027870922781712482, 0.025562582195855443, 0.004725302183968625, 0.03531848217620518, 0.03646555671300951, 0.0019449164287968555, -0.02219796373330779, 0.027704288195126624, 0.04469744023594925, 0.047174889895873165, -0.009744814239217012, -0.009806630383986246, -0.03294180105309829, 0.06512387826814099, -0.032184829731429616, 0.0018153122347245782, 0.030821730844805356, 0.01469076735623629, 0.02244188574714987, 0.015902265052158075, -0.007985565557937514, -0.012061268005927018, -0.01727431372897314, -0.02181692836657006, -0.03148457686218097, 0.025857940478407237, 0.03939319299327223, 0.0024849496646202657, 0.0314834955366131, 0.04516769333786146, -0.049605783053310155, -0.04450030119550909, 0.0159221502031334, 0.025297241403488185, 0.004037683741798066, -0.018911769254331613, -0.04730884165611594, 0.01727906115943567, -0.035853157473917006, 0.02107854087646453, 0.01963508122573088, -0.07297307339577443, 0.020234022163401203, -0.007112720965356896, 0.009020134948715059, -0.040622842018077636, 0.03060340959335047, -0.02893643859266693, -0.03159644644707083, -0.06316247627099074, 0.04441269072970623, -0.03975093189232094, -0.003092425120154004, -0.010940418544969441, -0.036486251867416386, 0.026609209684473712, -0.018008392497331493, -0.008157300369659885, 0.031464293792220106, -0.006616460257515682, -0.04214775458448379, 0.09268297627299638, -0.015225188073580528, -0.01232358175425745, 0.0018212446976052347, 0.00589107323207636, 0.02440658182584391, 0.008080310281949624, -0.024692142659313052, -0.04258980620290968, 0.013780285346689689, -0.027977763188943284, 0.0013970042754556198, 0.04150584900333299, -0.032382569769874685, 0.009579229179022403, -0.011334226194862981, 0.021108372049101015, -0.012966526762651557, -0.03881892463637116, 0.0019842128081183504, -0.0015741157235843327, -0.011499607949212998, -0.006037587915237186, 0.04548383528544147, -0.03462345732485973, -0.026010884960143903, 0.058661669182278726, 0.03304352273379986, -0.05113833722936433, -0.009249475483661387, 0.044821221042692296, -0.013697728287261113, -0.015027570639112846, 0.034189516514375594, -0.060233542475482474, -0.07349997646033123, -0.06875114834372688, 0.00529682079240527, 0.010158324739097724, 0.0008415068446917149, -0.005486721951708713, -0.05182568766498242, -0.006352296068453546, -0.10756166162523831, -0.024303245054772802, -0.013552083160597903, 0.021890714702218105, 0.07742057992243996, -0.012512873808527506, 0.019195651215881786, -0.03633040207592804, 0.010661012105018073, -0.002151804717984798, -0.007454175235155046, 0.009951201469220867, 0.01585644355144641, -0.04616231614674462, 0.048911179211305784, -0.01233507451665963, 0.0042847803970692275, -0.047195334618723425, -0.01013565286283451, 0.005032205554175632, -0.06711894720581099, 0.01795955664069599, -0.001899077345204758, -0.012523738902309926, -0.0018847092696091118, 0.022744260509118614, -0.03135697813408961, -0.03163844532479349, -0.05730292496975193, 0.004163618457655427, 0.03764584407950905, 0.02722916610683813, 0.03593597090081384, -0.04390802953062881, -0.019655989662219077, -0.011393968785221384, 0.01578667514958874, -0.005357475005856849, -0.02134052323153122, 0.04801561751871575, -0.014217996116251972, 0.023285332744346274, -0.034295147920307786, -0.005181054236014805, 