{"sizes1": [784, 48, 35, 10], "biases1": [[[0.49027679716511113], [-1.066507299335873], [-0.5711671592384152], [-0.6545297207027507], [-0.04250997689218183], [-0.4495078811008407], [0.4795281570226446], [-0.5770365456163452], [-1.0598831946547003], [-1.9997309131164973], [0.2712593337909796], [0.43544604669626696], [-0.30739971303479136], [1.7624045752847441], [0.16005393167869497], [0.17103881233727172], [-1.66987448012598], [-1.051504128389705], [0.5320530806514709], [0.04204664030568816], [-0.40250340805486967], [1.2175030076066884], [-1.126137964458299], [0.07406046721912761], [0.14192979986077153], [-0.5827680871592246], [0.19874754837748418], [0.3728554067445191], [-1.1950737845611357], [0.9584087037164737], [2.2855152745008085], [1.6570699523984238], [0.26019059011134155], [-0.890564141960947], [0.13994318018866606], [-0.4729454308723608], [-1.0635888617582305], [0.24991506012223347], [1.9499028095928252], [0.28452790453725985], [0.5932983162757804], [0.733542447303988], [0.3476634680931648], [-0.9856978454693656], [0.7780235884631447], [1.0535431074444108], [0.06317448852341054], [1.6452609034334469]], [[0.035485329730850994], [1.1509371636793788], [0.6105713780594789], [0.9934960570369229], [0.9779690129362241], [0.4226306838293449], [0.24670609388432332], [-0.010166504218106533], [-0.0809767823148413], [0.5725709295674346], [-1.9111450814788042], [-0.8938001809470917], [0.5032264888192187], [1.6521583606833112], [1.8062076656917185], [0.3421370559376062], [-0.6763090878372078], [-1.9824190082697926], [-0.2627700324816907], [1.0279673602462858], [0.521537514805257], [-0.12860926215509258], [-0.699167524196773], [0.5858443945876689], [0.26938932219671896], [2.089569967217829], [0.9765904732106395], [-0.11100946534653877], [1.6672344048314662], [0.2872539328383967], [0.5147814852588118], [0.7845349660503725], [-0.5047013810405022], [-0.2615766341899867], [0.9748954653201429]], [[-2.2143892762160053], [0.4909839761924416], [-2.6640091502247203], [-0.6235169562342047], [-1.868920035542096], [0.8768402674588067], [-0.055079259044835724], [-1.0359838236397603], [-0.41386474366304615], [0.7159774718636611]]], "weights1": [[[-0.007616328688543357, -0.0019314333488399085, 0.0036398816580878093, -0.017519280278283856, 0.010591608899637724, 0.011282125230515614, -0.0019476472175522783, 0.00455419069616209, -0.0031801960305402437, 0.0007295167724989465, 0.00331812833142527, -0.014440338371355853, -0.007854066875857607, 0.011834362175753873, -0.008536880400238872, -0.00880194638659671, -0.0037593669890499544, -0.007980056850410061, 0.013778835131590473, 0.004392129942475022, -0.0012648964607121828, 0.00434689344516495, -0.01717264324245456, -0.0010734572487433134, -0.003736301546163076, 0.0064732015849360185, -0.007455048929828471, -0.0029563125659145067, -0.013853306531582283, -0.0008863097149232473, -0.007344625932857509, -0.0027067321577842296, 0.010748391158414803, -0.008379523483764315, 0.0017236394684338404, -4.907008931103367e-05, 0.019979188169915695, -0.004889833915836764, 0.010431486565225894, 0.010728061347605004, 0.01989462554346616, 0.01010996589441408, 0.0037776486839328455, -0.0061092762431552905, 0.019630083421072277, 0.01149352001323134, 0.009736753071842626, -0.00032122196373449917, 0.028578280566011305, -0.004261003890861886, 0.02052973108860674, 0.004451222085136232, -0.015622666210271944, 0.008663311274354862, 0.01020151280733648, -0.00494100984154278, 0.006218147852252458, 0.00778708442613409, -0.010110784278269344, -0.0027463759751717096, -0.003554232918300394, -0.0017837583105581901, 0.008610287742792226, 0.011569923307947552, 0.028200705174207488, 0.019507441247398907, 0.02330900376413524, 0.026776330921519206, 0.01076573568423298, -0.05120317808361482, -0.004563646314214163, -0.009709764005939531, 0.0029299649208685903, -0.008573237012130067, 0.026665846189238777, 0.028923394613245737, 0.0014811429032878744, 0.02297159178246392, 0.03474317959268161, 0.02273885921308371, 0.0029096250522897445, -0.012631521862379149, -0.005116490085508061, -0.00790700783097114, 0.0030081280278862785, 0.0073010757912804125, 0.0040011426439628605, -0.024733316260969758, 0.0009459055624902643, -0.012442829623739032, 0.020287993382880093, -0.01071994627803183, -0.007045681729898311, 0.03432023023197654, 0.04430148552902176, 0.031582512719485714, -0.056878775383510334, -0.06060575126721559, -0.03390046750110308, -0.09813625614315007, -0.08969919113896503, -0.10469553277811552, -0.05357340864561979, -0.02026860601252675, 0.016450083595744253, 0.09719237412698227, 0.048898511200214816, 0.027650867522557486, 0.0019463493079927164, -0.004301698232434616, 0.001963270045297447, -0.006342341556019885, 0.005347818026148405, 0.007180095031656035, 0.0066505444076688834, 0.0024718787660074483, -0.005082951296753577, -0.021373965432079613, -0.019873435726009896, -0.009508388292272227, -0.06380092077474644, -0.04659774884479731, -0.025929515447268854, -0.009071475105273693, -0.049921791916168544, -0.05164914227000709, -0.08993117742790172, -0.11335447186243026, -0.04023361845952389, 0.06931522473101936, -0.062487613552455495, -0.0372765897053897, -0.010651297756619198, -0.03032274654913947, -0.012723243176321813, 0.0024476942615744277, 0.010489140924357997, -0.01000295339861917, -0.011535241499213929, -0.0004091357089847107, 0.0009619280050633106, -0.0026702712968312858, -0.0018545624387536687, -0.003554018128213626, 0.011925190716929683, -0.07742457405301653, -0.06789095762161373, -0.04640733183098866, -0.05040164080637318, -0.07333794025056874, -0.05160981210702292, 0.06972838188832178, 0.05183923843986575, 0.004669728248507129, -0.058983792145286006, -0.04965666864448997, -0.10635153705175314, -0.03402246868654431, -0.03925375907478657, -0.13589683917035905, -0.08535683797918998, -0.07592795077889963, -0.061972781501685684, 0.009803153038493218, 0.05973011818405876, 0.038430437497781474, 0.013846075020773852, 0.004295144140430233, 0.016120562066743758, 0.0011034609878265464, 0.004765363888468363, -0.017728796049989025, 0.004152266026683997, -0.08706646080166276, -0.06778463883963093, -0.03125297387486215, -0.04176460025486879, -0.13792597970795217, -0.07623652564696784, 0.1929479018387549, 0.26072237266379955, 0.03920246780636339, 0.05366020487706242, -0.15937147617812564, -0.38707413663170454, -0.20026156346998628, -0.0016432237202394996, -0.16526807671087168, -0.09377025457958074, -0.09301324271592475, -0.09382842303456257, -0.025410456158015522, -0.008580651170000201, 0.004906457324178332, -0.000572732684253342, 0.017520280451947225, -0.003973265133620722, -0.009027673615703133, -0.0013731218302899502, -0.0015548601171134545, 0.004322945158676843, -0.033716168952543146, -0.07725625702539235, -0.07956442548053871, 0.09004128337980269, -0.047145370234125385, -0.07925585178031012, 0.14932419535698732, 0.07820234864043993, 0.11359534339025491, 0.024643115429433003, 0.014646562923639101, -0.35420703248087165, -0.17010497224889487, 0.04755414053412787, -0.04552271020976406, -0.02828145373423241, -0.03446620591466666, -0.039787855314641726, -0.0930261954084172, -0.007681630599280187, 0.04775955756689995, 0.003401826009371432, -0.0034917859122191443, -0.0052560938503297015, -0.0022451919552405005, 0.013472277225419544, 0.01724933689358855, -0.0006806571965546241, -0.07662890568703655, -0.09850077368372873, -0.12679620817168236, 0.08924113877498395, -0.07862043849086794, -0.14499501997846778, 0.044890222145064294, -0.0667168985054401, -0.005150338317995331, -0.32254717609606565, -0.49219899056671423, -0.20785315596076115, 0.021142097850274415, 0.10619305246706397, -0.060435629307862906, 0.003956423780505, 0.03810738547623874, -0.05761452128701311, 0.007365966902931133, 0.05053455810707297, 0.05065166068217213, 0.02393739069911645, 0.011938409342234795, -0.007502046997432203, 0.012446988178212352, 0.0024277411727175804, -0.006982203727355259, -0.028285383399958213, 0.0021901474636658097, -0.05078459302970855, -0.01695683982339128, -0.06362979024359852, -0.03459752337790566, -0.05806140313020236, 0.11900216880075853, -0.015478242031185297, -0.029307123196766486, -0.31213256535243794, -0.3266365257077216, -0.23480801909708304, 0.07474769453505443, 0.2852547779024915, 0.1932707903326805, 0.08181869780429042, 0.12769160575731808, -0.03618330311822696, 0.03307294376991389, 0.06918983386245302, -0.0006400987255153652, -0.03029515692098387, -0.03874768926266683, 0.004499689435073543, -0.005158302642288598, -0.0028364852110909526, -0.011469964925807688, 0.03182976447000716, 0.0859773977125115, 0.032305839071186566, 0.030972001093513224, -0.01546514487672874, 0.07468924890019724, 0.13812879317466317, 0.47451663593052557, 0.45022695485596276, 0.11913946769820283, -0.26279007974026813, -0.2780582288767497, -0.05897373600317054, 0.2293937888167099, 0.2999648301568874, 0.05887843792855604, 0.036690203943922535, 0.09931882982322775, -0.08473702854054074, -0.03175374962664457, 0.027839860363915638, -0.04429566353781514, -0.02425411763414073, -0.014713163872886648, 0.017085086390056826, -0.017431305522930724, 0.0032899098021991723, 0.0249555885213405, 0.0989762629126761, 0.1596094842507914, 0.13461532529391848, 0.1406363763604122, 0.14136487263497308, 0.3043116202000165, 0.3962715301557058, 0.5809082107646633, 0.5195388469997323, 0.19753443942804697, -0.3169377291455119, -0.04203867380639964, 0.1108498971814103, 0.24571841932357197, 0.16222128949097356, 0.018935848973545805, 0.11709746560157931, 0.10564785675567685, -0.07514603452823175, 0.021487379892382096, 0.05679329472370894, -0.038744303893514666, -0.0020544832567349776, -0.013864982201573815, -0.005058234419608027, -0.011669965917483541, 0.005315365879954479, 0.06804718215841633, 0.20198956225074433, 0.2563588691403805, 0.343311535548946, 0.3286662076674293, 0.44008777559351286, 0.6775141031990206, 0.39387212876096245, 0.4159199526343762, 0.20511623506744625, -0.061860910601245406, -0.18881031970200082, 0.013320306721463084, -0.05064491229658178, 0.2065207347703048, 0.16844291904467645, 0.08174880078828223, 0.040879177798063306, 0.03796601628799865, 0.07194432715535719, 0.18711537778226417, 0.04036761867976313, -0.05791049835205109, -0.005445278778407464, -0.013746371768062265, 0.0028136059103282566, 0.010577211339094983, 0.000344384048615762, 0.03361610146593361, 0.20563024159059087, 0.24483670171200175, 0.34638024819819363, 0.5104890882031436, 0.4998397902895772, 0.41969149395708233, 0.18642585302240489, 0.02721726438074204, -0.11273145758197921, -0.24115407421476848, -0.1505508025159997, 0.012032967769778925, -0.08587749088528512, 0.012935462938630791, 0.19660844086385948, 0.14749450333991695, 0.031922224781615056, 0.003691036046840057, 0.12704658803034707, 0.21993315335220162, 0.026799684153164856, -0.03529957717653727, -0.017753224825938736, -0.012190812074133734, -0.00881705543693433, 0.015092217892760499, -0.012316154265724136, 0.04331948683959918, 0.16387260660810352, 0.28510503912321017, 0.2909658921331572, 0.31066725130474865, 0.06246549883957499, 0.03555760183229454, -0.06193923869925933, -0.06465244246093876, -0.3490855451095375, -0.14577420636758875, -0.14623555588504103, 0.07477249412228602, -0.0509451240320721, -0.0903437954440094, 0.19800364326681263, 0.11773976621921661, -0.011949530266863032, -0.07418019678027996, 0.10309078720516286, 0.13476808263329676, 0.050768942241216086, -0.0031522127862214145, -0.016398323611695322, 0.0064802805402021145, 0.00966306983477513, 0.009941097199534947, -0.014667359436766728, 0.03380734061552187, 0.09878162930578713, 0.12922106399277394, 0.06253591091808815, 0.15303053940159023, -0.02079030001953151, -0.34555242664496033, -0.1023557859640148, -0.0972279040597954, -0.2516690743364708, -0.18968754179096659, -0.0620331611472606, 0.11626468894363795, 0.04869120488348695, -0.055525716542802445, 0.11213087068512229, 0.025408229338120154, 0.03162685986962837, -0.04171655094588681, -0.008030821741693792, 0.06331319425480252, 0.03396492211263091, -0.007887756679987971, -0.03567573303458688, -0.003223788346390188, 0.0023032823242085734, -0.001214314673322967, -0.008964404418643337, 0.013492751520038147, 9.005008731994188e-05, -0.00519868164939504, -0.026166060876748623, -0.00897833207341748, -0.11216867681568206, -0.29185165038333766, -0.2318089085691135, -0.13470114155384313, -0.2209980977751932, -0.0818587569920113, -0.04754263745179648, -0.09689560416890296, -0.05410452037612714, -0.16565820972908757, -0.0509722879378808, -0.14494995178591377, 0.02450139157417789, 0.003419784710935273, 0.02848797994260962, 0.04743694486535997, 0.036879583621051225, 0.035143249402547545, -0.0003261686610011671, 0.0021325470897973543, -0.003251572252089535, -0.0024245371309057073, -0.033572124291053766, -0.03720490114293799, -0.11217211964996847, -0.10078731147118784, -0.10691411857776092, -0.11382018325090554, -0.20086461615644358, -0.23446413950893888, -0.2841007640669504, -0.1714033623602098, 0.12134980391689244, 0.006068355176400881, -0.034435140554963974, -0.18520687967908922, -0.12697741677553906, 0.004595965322001493, -0.0514334950719097, -0.04666845372786012, 0.08180967744014239, -0.018575591335372628, 0.02903731933264145, -0.0052946940227935205, -0.0014842844917785502, -0.0043647689055435306, -0.03383957072970868, 0.01195469645293021, 0.007874076331863454, -0.004143378835591624, -0.019372378687642522, -0.05396307668135166, -0.15948371694451613, -0.06451817197662217, 0.0031672455285286748, -0.08229773012831457, -0.16162698815697568, -0.2056136434261234, -0.08100530199405205, 0.09285181436809582, 0.3498462756304877, 0.15743673730038596, 0.13484310594109034, -0.09777654172274744, -0.02971004395280357, 0.03259385082210435, -0.009493211523890559, -0.03333463959910974, -0.04285244757880118, 0.036689530853208516, -0.013038879598851829, -0.020090364223223075, -0.011886069188126343, -0.00906838875667444, -0.011962383038727832, -0.008102289533593819, -0.015034102057176762, 0.0026160520380998885, -0.006440198924244892, -0.05181549216219549, -0.09919212524578641, -0.056604872213218305, -0.06601633264108085, -0.10911411843275702, -0.25488693832047715, -0.24729724688002688, 0.044156539348674875, 0.21917774695233588, 0.3088364888328256, 0.11520130642742785, 0.11491806934143832, -0.16633405677202168, -0.2802858268772946, -0.19483390185669897, 0.07262023284729187, 0.11440675209653747, 0.03378739429455458, -0.002160943469338112, -0.03840090807726085, -0.020288470634540506, 0.032723673261124214, -0.021844846494739372, 0.007953094966280144, 0.0046746903894342665, 0.007755243428145845, -0.014843686405450482, 0.005623492672701588, -0.06072373618975428, -0.0863306184980173, 0.00615301145497115, -0.05955859926368656, -0.2881754045985988, -0.3456692096710676, -0.09304314560480789, 0.06026457774272381, 0.09735949290359334, 0.12752427816824918, 0.009898401119573684, -0.022525838248326893, -0.2544782673026033, -0.1726373203659282, -0.15502764696954735, 0.058086485101898774, 0.17289915730161187, 0.0038147405356909916, -0.05488652264734542, -0.07495784581566693, -0.07032083539952909, 0.06886623105892122, 0.026440685519908476, -0.006636826912264754, 0.003911663252017985, -0.011960114150881544, 0.013502372304874772, -0.0029870412344170745, -0.041965769122322624, -0.01806573947676084, -0.01662473595912691, -0.17209287221735223, -0.3121489011504286, -0.16722709227664154, 0.03741856417897305, 0.11936023852111043, 0.1304001454167915, 0.00406102512004008, -0.02866757158353775, 0.0409169651437707, 0.018015495197872485, 0.05334036369633552, -0.048199001780450314, 0.013287193587025889, 0.009464017932835984, -0.035514272390268956, -0.07306936081300827, -0.06140529031098421, -0.021699748179118544, 0.019337831661092392, -0.012534572417793483, -0.011134890991827266, 0.0005506351025789839, 0.013924584357689791, 0.02052063433597941, -0.024648349056230735, 0.00626357450169493, -0.06786136204215648, -0.059298753727391164, -0.10117477494582693, -0.2274099314113205, -0.12476427926078193, -0.11116643647984996, -0.03892705673466126, 0.03389402415727329, 0.024154209874439496, 0.10956199079853804, 0.2246041875893234, 0.1034455334385847, 0.036249432751543846, -0.12988414072861035, -0.01808529156453745, -0.029661122319665993, 0.03828472860947193, -0.01402881438074091, 0.0225990278470775, 0.04179705143358839, 0.03369931507142136, 0.011358042783121504, -0.0005414781250219362, -0.0026820510997793544, 0.005627744922461405, 0.0050112948337894285, 0.001677065628537244, -0.003267876762200623, -0.08631974215291414, -0.025319905032679276, -0.03868881837890314, -0.10161010529148182, 0.05388192418453115, -0.16761970890441039, -0.03655541334486651, 0.03728101603491904, 0.091578727967969, 0.16874311736775738, 0.22119874944743392, 0.07340895377183736, 0.023588629174374206, 0.028478920631816947, 0.007861576962772818, 0.04551606709815904, 0.026481572134914887, 0.036026032894363395, 0.0809926945467761, 0.0641027490003261, 0.027826823847090468, -0.003249141469014112, 0.005119681274090387, -0.0005704456998528864, 0.003219054572820399, -0.016521217754200908, 0.007517314527874025, -0.009861536300774885, -0.029419381886327662, -0.014941455214808084, -0.016582775478860293, -0.012206283313962058, 0.0173474348009471, -0.042008061516758156, 0.10590603910579637, -0.04512468353832623, 0.02343146270937383, 0.12285426961666562, 0.1641052697046054, 0.1577793025668373, 0.14782401249721508, -0.015146592194295516, 0.05833045690938443, -0.06373535194986465, -0.010722580948195845, 0.014776916227206336, 0.07819017203697663, 0.038132806257118304, -0.006762317327697668, -0.006342091158811213, -0.002329776247077299, 0.008884898493342912, 0.00651032769671514, 0.0036195505013790112, -0.010319755619060327, -0.005851651576084539, -0.04014720856951977, 0.03167148534546318, 0.08566718862950022, 0.03806203931825714, -0.06379485635893828, -0.04255099676199023, 0.07546557638394885, 0.0752972196364541, 0.04597175658717769, 0.1945933380058521, 0.14162926300250261, 0.1033293455470269, 0.16539304958950618, 0.2756966439295213, 0.10315525987436394, 0.004292463931943731, 0.0659040876689478, 0.0681841593147544, 0.045193798656939406, -0.010086208554548445, -0.011413266425620091, -0.0009884941962131197, -0.011878298628224745, -0.0011580884978818528, -0.003237914239777712, -0.0051532971695805166, 0.005876093862758066, -0.011085640434249625, 0.01082378388502062, 0.1054770278907174, 0.10127607984502977, 0.03646124112658887, -0.016316137416420008, 0.036398369562756355, 0.008886494340259676, 0.04918599035699248, 0.12450805280001519, 0.05584280298344395, 0.08724040546725266, 0.01468653067922924, 0.047198408576263166, 0.09624829422275678, 0.030549219439526862, 0.006286863055844735, 0.06236867922478483, 0.042608488634854794, 0.01668147064912261, -0.0074987258316123314, 0.0004374719051658393, 0.0017275461392318439, -0.0068898815956717286, -0.019277812738600214, 0.016405848894365367, -0.006244453886138102, 0.00602173390806166, 0.008868846687660657, 0.008707968547980355, 0.004819085050871339, -0.00018743344381104703, 0.008309901984146379, 0.004018176798380547, 0.004037157691605229, -0.0038309932378368253, 0.0034405764234162442, 0.01217767088091368, 0.005198425747448562, 0.017451590196418974, 0.0032538229610443044, -0.0061251633851419065, 0.009365382331767279, 0.025274343313592452, 0.006544195344676601, -0.0029208785383280874, 0.003054960972698119, 0.016984248093338716, -0.01564415187124929, 0.0075322260175343875, -0.009641599594758861, -0.009991620859052116, 0.00910563418373572], [-0.0020764572044545517, -0.0022862701719142077, -0.009590314500161989, 0.00396152960973082, -0.003194019136196053, -0.0059257861561652905, -0.005604654413837591, 0.008938173430075948, -0.007050672875407174, -0.00599162534006467, 0.008571730500462883, 0.00021157258695006132, -0.009021560863892138, 0.0018046369157332651, 0.018492247065978927, -0.001737881438385124, 0.00015706767339185925, -0.013920283057545049, 0.0036037611773288417, 0.00589454245729812, -0.0024824945026482637, 0.0035836804288318616, 0.0031404973049083637, -0.00030169960917196266, 0.0045830053837608645, 0.008973550679692202, -0.005671162637075309, 0.00016496667110855326, -0.003712892666827292, 0.00447796116364899, 0.010685225157109379, 0.001687392188129144, 0.01735204751252245, 0.0037574024481135055, -0.006306860986520367, -0.01202861684318102, -0.006196110682706149, -0.007853318464798864, -0.0006789041355025983, -0.004728998825300284, -0.03653123072904222, -0.002073349912981992, -0.011922729307699031, -0.011908912769349342, -0.01847625611724567, -0.021585831723914498, 0.006620296198848012, -0.0160156397185752, 0.014593183130886324, -0.014237342952914475, 0.00649020760926521, 0.00939561209328347, -0.0026040196967461898, -0.007337492470243147, -0.005660739551848469, -0.014815187112500006, 0.009167713298731058, -0.012474349982206995, 0.002788605643012187, -0.013213006529836993, 0.012718610551413528, -0.010226729871222293, -0.0029431842580471042, -0.0027924792542526927, -0.015497085284377056, -0.014565584587538712, -0.020374092310837227, 0.008674900707889384, 0.005606430811905319, 0.023884335078986647, -0.006553388734022009, -0.010053342045149119, -0.004937472847035304, -0.031720375240551255, -0.04339627640096071, -0.023984600599782503, 0.007425557430260757, 0.0016295674626537226, 0.006328678198293074, 0.013623002106131031, 0.002963926321095031, 0.005291737018489327, 0.0063637420593231665, 0.00674570127607886, -0.002314412019593581, 0.002088841634474321, -0.00768799547715082, -0.0017900730411062914, -0.005647116884145443, 0.018826501673236434, 0.011308553884601705, 0.02562560140299556, -0.01904305182677967, -0.06924133688986069, -0.09812295954105586, -0.03756448029528819, -0.02607355950502477, -0.05987891911146982, -0.025042138242046395, -0.09124498643126744, -0.02141171335689592, 0.061891278184446695, -0.016087702051824495, -0.12079679683973703, 0.012160943203725263, -0.023846349966145028, -0.004566933810356416, -0.005475919819863042, 0.003423044468135583, -0.013275169726893242, 0.00454662809984558, 0.004814340636644986, -0.019103723131412263, -0.006482644699323616, 0.0035937065813230027, 0.004622947040280588, -0.006918055318640624, 0.06542055088733421, 0.026606718040335566, -0.004058300650549006, 0.017263571217401658, -0.028455231208438708, -0.0010912597552798953, -0.027243635041078504, -0.005602035114051494, 0.059496982074928026, -0.033343227946497835, -0.07020107333724941, -0.03341658751022978, -0.09891027153388697, -0.18873286466000597, -0.05548105878326697, -0.003011552803073946, 0.0656155173023027, 0.08221041817082694, -0.016424122235743552, -0.044038965297318274, -0.011512565033657591, 0.0030868071067268505, -0.009438831358856552, 0.0037473427535779954, 0.002730420101928213, 0.00033192886082569816, 0.017711410476775314, 0.003915010111581341, 0.041857124327861435, 0.03568355932685688, 0.03800198147349972, -0.03699350450851858, -0.1507354929612592, -0.23938370703485976, -0.28391330438834744, -0.12357491212788968, -0.12934103662004942, 0.07804641885442512, 0.07606709989249473, 0.03800614568377776, 0.042034359133090136, 0.08125090937554141, 0.2677862594638852, 0.11359105108803895, 0.053301419102223635, 0.012199166521578528, 0.023963645556582175, -0.039385564399413875, -0.03931975088190421, -0.0006998889917888948, -0.004400029943404969, -0.0005200532897439631, -0.004733382150712933, -0.007319640433200256, 0.019470057088028986, -0.012251958615088918, 0.03366523429861221, 0.0514181370179303, 0.002243688460944669, -0.07659412811595, -0.13216243292263946, -0.2061636059578772, -0.39896040019906925, -0.40821884943189013, -0.17804260657014553, 0.04561932268828982, 0.238582261959387, 0.3046602681597579, 0.24322464726446966, 0.3173754498605694, -0.0011249935614375895, 0.06419314170944498, 0.052559642315470945, 0.003294559574374074, 0.085009918955199, -0.021245026846582755, -0.07498152978505583, -0.01612107775375827, -0.00989813951702935, 0.0076701782735405545, -0.0066697973205649165, -0.001574233355430431, 0.042271170141095174, 0.06707919270635401, 0.06669467575006263, 0.038511268414957174, 0.15116815226760455, -0.062123866905026776, -0.1289031841802725, -0.16288778633886342, -0.41890988591857675, -0.5789897147943699, -0.09654870411579893, 0.11807577953539522, 0.14066781241728263, 0.0823522032301222, 0.14280618447990762, 0.14944021840448393, 0.06489159089641203, -0.06693341836718271, -0.13097155932703775, -0.06274028192603423, -0.041190038620301204, 0.009007303773605818, -0.08388553440598046, -0.021529891248766145, -0.016314819855230586, -0.0039689856434698394, 0.00021838937408426794, -0.0022835852486780576, 0.015691340967800723, 0.08144558456674679, 0.04546129232755016, 0.0450832857160844, -0.003963495260011788, -0.219143348992315, -0.1068669683828097, -0.04746195741376852, -0.5264074290184276, -0.2262459882821198, 0.3253275236822741, 0.15338658080322928, 0.04296687397728785, 0.04175675980329271, 0.08969749213970099, -0.04196136556037269, -0.10668537463335415, -0.23187897661087248, -0.15238505087631718, -0.05687725003351911, -0.09002636860933971, -0.18510321552232298, -0.11637429447669181, 0.003235357642822801, -0.0015117117271857346, -0.0008455553958919039, 0.023399274589685375, 0.0044810232314604695, 0.002545066848601519, 0.06550971343886511, 0.002163849308906787, -0.02412300455581746, -0.31636623779954076, -0.2441970279939419, -0.07823608459170073, -0.3503130751719838, -0.8067123255669291, -0.06797754634618808, 0.5687808265298845, 0.3674951019992821, -0.05087828700787136, -0.026306908296268975, 0.028165834774561308, -0.05108534280989148, -0.01925766360212107, -0.12297596114663059, -0.09800907684149178, -0.10926531779164401, -0.07270542689907245, -0.18840974046004247, -0.0861944294772471, -0.014024333129092044, 0.008325748696747761, -0.004183667957671758, 0.0013156675475494797, 0.028210347774140016, 0.005208871299426125, -0.07283408489000878, -0.11924411299289384, -0.11121749343210074, -0.20398884706177162, -0.33354889354418743, -0.15594200755330867, -0.6350390393665751, -0.47681203888606605, 0.10694637689737367, 0.5154393505841757, 0.3079132779150626, 0.14578739505045754, 0.06105210702730742, -0.059333827511198235, 0.15632216426188844, 0.091969245225378, -0.18797376259287524, -0.1798530963961201, -0.07342429048093714, -0.09231863030707725, -0.1755992642439183, -0.13027159300935007, -0.015260336367354013, 0.0021255678655172, 0.0018330821627532694, 0.008597716245203961, 0.02106726625504627, 0.033807350950339904, -0.004226961366391005, -0.10396768377240936, 0.06584994001282077, -0.11957228062585144, -0.10270629196251889, -0.279511644378728, -0.5894924728144748, -0.04866821517116518, 0.3604414173560426, 0.46708086839239105, 0.47514463278543567, 0.2704887361820591, -0.12108322717883674, -0.20283241686161682, 0.05689314245075048, -0.0009147995829914738, -0.20981198381504784, -0.2540773571908446, 0.005628468689072455, -0.006763709454281178, -0.12139497756571277, -0.06498828282945025, -0.016166165954296152, 0.004398108870976419, 0.0027375553864956523, -0.0057660017291177946, -0.0004999027498388624, 0.023517871583572814, -0.07647438356672066, 0.02568217975865593, 0.04325622250081733, -0.15232595707122196, -0.10576893974189078, -0.44878173596515847, -0.17050849515862934, 0.15031634256460755, 0.4446713894149428, 0.3571431259596482, 0.4072512271855504, 0.1901680140179999, 0.08064154491060953, -0.025598024167876647, -0.01980065044431122, 0.0437038134795777, -0.2470570575578139, -0.09386815837937859, -0.11124100388969295, -0.07363447297569754, -0.03603326792757758, -0.0024902009880751084, 0.00828153640144228, -0.009059810263928662, -0.007312104256734698, 0.0012806042145732236, 0.022789978028845383, 0.05079244311892551, -0.05637711772914453, -0.05105032674889064, 0.08869551500027081, -0.3187746036406345, -0.10947733471021281, -0.23365749851175144, -0.04711632608134846, 0.29001863080611634, 0.27351371841428757, 0.22350533104417192, 0.2558415179607551, 0.30307093042093286, 0.05944084911427463, -0.11061727908405658, -0.001088177788435685, -0.07492278012922851, 0.08038666321736997, -0.0338853970496105, -0.04670626386934042, -0.0926639097940677, -0.059300581555061266, 0.024798036313337945, 0.029236851253240805, 0.015574954022401317, -0.0028338276581931538, 0.005446853586215777, 0.014742741205853178, 0.012766305636401295, -0.02737002262464665, -0.06696289831347703, -0.12977487960861614, -0.2046686213645844, -0.12070733719313893, -0.19291862482478334, 0.1023265458783812, 0.32444353976653445, 0.3767476149745465, 0.2430411820337679, 0.3772253716411764, 0.46988980721894985, 0.00890693098289516, -0.24750402429161325, -0.020246564148550358, 0.04963081459731943, 0.0058717817386483165, 0.22853716410206384, -0.0045270511308024945, 0.010457230129503992, -0.12097540602915058, 0.007585388746098441, 0.02250444938201782, -0.00510262516265497, 0.005125678853023459, 0.01270483002124712, -0.00899128761885948, 0.018514516027664206, -0.00516110239085609, -0.1901451479992844, -0.18631336782026783, -0.14809044380697922, -0.1717097143082236, -0.1361324373687169, -0.13380108979942218, 0.04843361928943465, 0.09873023135170157, 0.22971991153303073, 0.43049314560106716, 0.29554607180682363, -0.13816197500073432, -0.154401243271125, 0.05423120797896292, -0.09240756054972407, 0.10127240221097618, 0.09987545645246441, 0.14027099496594886, 0.026040963045308944, 0.05379446642059783, 0.010086022472336439, 0.06055817301313322, 0.0027997881277685463, 0.010790717150520752, 0.017635081174213453, 0.006768059740798946, -0.0035520738378647778, 0.06709483208919856, -0.13360612493879293, -0.09690412450049438, -0.054128586646592924, -0.32367051727677143, 0.04678935269260972, 0.1726234551007109, 0.16432704357573377, 0.26637388087443686, 0.30400117386723985, 0.3823657451423907, 0.2615943248052483, -0.26467436559109975, -0.13675181585943114, 0.05542435538176005, -0.018512677043096885, 0.06764902270425456, 0.028390320840172727, -0.006872983154583954, 0.08441820316412299, 0.21413133470169793, -0.007654701404443951, 0.04194964029986952, -0.0052636454857265804, 0.005226303212689985, 0.005276777636553029, -0.002379838016365843, 0.026814368339898295, 0.15242571124907148, 0.0772749091120333, -0.010715523726176481, 0.04031565288183952, -0.06486229304856989, -0.11516426559593722, -0.1587043139279257, 0.017699499868197948, 0.2670440043310042, 0.43918164811035343, 0.3123431439149282, 0.02511043279872089, -0.10999895249389191, -0.0697352764096828, 0.041267455538605405, 0.10922172120497167, 0.06834930471425614, 0.1347159552598296, 0.07782679483015006, 0.06337710044380891, 0.028396789809941904, -0.049839969376237726, 0.00936700817331269, -0.011417812871669184, -0.0015344890188929061, 6.720628802256127e-05, 0.01648743542024816, -0.003360826962112584, 0.17976482663300875, 0.15750220102933737, 0.05505924221038546, -0.01789128198302837, -0.03009056244905547, 0.028695550960635956, 0.04203897135657661, 0.18405915822938396, 0.29301540230148715, 0.38894289195974524, -0.010580626575774976, 0.06792524292383602, 0.03344282604107376, 0.2448711995824852, 0.03306860153447036, 0.21650019774567114, 0.06554136431998486, -0.0033665586397810263, 0.07816161217339533, -0.00602812276008302, 0.011850880413537625, -0.020649432861894874, 0.007853367616981055, 0.005335989346755859, 0.01369577467530845, 0.014943661375629932, -0.010570688415643672, -0.055230441178869064, 0.03254274528981697, 0.1625452898506937, 0.02014219915069173, -0.07573739306096376, 0.009152032930677461, 0.07846809452073585, -0.02922246900580018, -0.07009701124609195, 0.10781625659280403, 0.18380144198929144, 0.17588940717995724, 0.06547137236656374, 0.023778121302489703, 0.22244057456560204, -0.15195897846501638, 0.19710742421616947, 0.015418576049138268, -0.012485604033534757, 0.05424877111331268, 0.013235295037345267, -0.00868874500550295, -0.03136371326618596, 0.007690738207915264, 0.005064143325151112, -0.0019909811972305216, -0.004305705041405851, -0.02106517051869104, -0.009143761487813635, -0.0011006786590331116, -0.031584831939877225, -0.022494566291795564, 0.04815667052606462, 0.026358226812508607, 0.12323110744500325, 0.15221543837941406, 0.09022001248220085, -0.03820382355421008, 0.10762005676595664, 0.12330895508759766, -0.08159454922919483, -0.10317046749767625, 0.07235098654720541, 0.001289549666576688, 0.14393054356642704, 0.19058401616122203, 0.15630006553238515, -0.020879444068406812, -0.08125217367593196, -0.07527590249416244, -0.058857415736804995, -0.002032765505989861, 0.013255284653363559, 0.021070929292013096, 0.000588164001501377, 0.024334061541609837, 0.014292361259634179, -0.016545675143438434, -0.17496169687692975, 0.008175838155105418, 0.1158380605684067, 0.023362452456725358, 0.009307648234121365, 0.002033922698670414, 0.040514896460409386, -0.15210867466286931, -0.006559348197838829, 0.04751234577481388, -0.043974705875135064, -0.02179989022913149, 0.08349345406513049, -0.018972119187501378, 0.0802556315956989, -0.09902317297396902, -0.041415948536004964, -0.03329654676782505, -0.06609744365728716, -0.1357314464141324, -0.06418571697700656, 0.010887332123129418, 0.007258224715687876, -0.0029314272828691317, -0.0019543751356571487, 0.005231136304927647, -0.02393997419991608, 0.036530686015683135, 0.005538939398582324, 0.03116791896007384, 0.12831790789642228, 0.021520636906597824, 0.0746935883597315, 0.05182435152499542, 0.02714638112416126, -0.053996514489922605, 0.10635915890667658, -0.0842989761531305, 0.059015801597557406, 0.0112682247378482, -0.06670073148489976, -0.15801390013698222, 0.06970617350841637, 0.07017456667599152, -0.057900628131525696, -0.02930551615809319, -0.12864550537323696, -0.0851672525376176, -0.04678647542385257, 0.00873194200813464, -0.0011957827898426302, 0.013132122118508834, 0.001958230749516695, -4.684950457950777e-05, -0.01854351529298373, 0.047132884234713644, 0.05341640007913327, 0.05800293967822993, 0.011458073811334587, -0.06047174063554417, 0.053790017697520835, 0.05021167593473636, 0.11506292751851073, -0.12131418224291504, -0.04313585902334003, -0.06684979720539044, 0.023316108527560084, -0.09437245621605997, -0.17459155660699727, 0.1637428773346282, 0.08239473850191621, -0.0012155459417992004, -0.057171125070213935, -0.04837058563125819, -0.14481353640407896, -0.05559080859177397, -0.00805001955317805, -0.02032487791478118, 0.0013710584178904946, -0.012704494336357836, -0.004325405689581421, -0.0007967899362218229, 0.005735881150875135, 0.04131052310807579, 0.07805433268381366, 0.1171121733997026, -0.015073113989771347, -0.07073225207144752, -0.1626115064673229, -0.050861197562113374, 0.003970423716387318, -0.0888439149309285, -0.015545671217464406, -0.06815182355910313, 0.054213675017263686, -0.05885177484730363, 0.021038878382739008, -0.1257378730023633, -0.03367700941907055, 0.012348313333640316, 0.01736453961951921, -0.08393461950193304, -0.10129244489918561, -0.03310721792529542, 0.02752012498736129, 0.0006741405857024037, 0.0077265990286994055, -0.002277445956752248, -0.003770939638928705, -0.002383697705684893, 0.0011217990576399075, 0.047514842064971995, 0.023611765535898818, 0.011525107494528822, 0.016339430307360462, -0.0034872295495408283, -0.13958133925046934, -0.12930020003296466, -0.08800316220024217, -0.05630767996111796, 0.031082804148805147, -0.02504019550754711, 0.126246440789093, 0.04245826570759433, -0.04569479336450691, -0.01313410145869527, -0.038168839647897745, -0.10452808260501899, -0.13441676373001232, -0.037156887620305, -0.03779066090060012, -0.010597584068218674, 0.014910106417517364, -0.005287340355005415, 0.005764170913338625, 0.011828407919885051, 0.0021574106645643725, -0.006610065235981364, 0.00817185617569959, -0.011207154845747025, -0.05448117724800357, -0.037064085166203534, -0.013458521118334853, -0.03880709468923111, -0.061029184249176395, -0.10241047062868548, -0.10581568927884413, -0.12352335935964208, -0.03513507931707998, -0.07513702992950776, -0.008953106852873236, -0.10118087418798541, -0.10330053451447592, -0.09659154649235104, -0.04746442578243372, -0.07588454227898975, -0.08106934729027852, -0.015493777534986241, 0.0035287708121047884, -0.00942620515138355, 0.007913604872318061, -0.010331806846243964, 0.0011298480028682594, 0.006052893330746853, -0.011514286164169807, -0.00542441371141241, -0.00461768943909165, -0.017677692115126754, 0.005344024361571433, -0.00928941311160342, -0.006911664606126475, -0.018804383539421154, -7.72956944471791e-05, 0.0029827777682565303, -0.027603132711916, -0.029470776367138435, -0.0015249316967556918, -0.00737625723121309, -0.015224983368982125, -0.004561863763722339, -0.01393647143230444, -0.037963510936157165, -0.007845800285481137, -0.006107292724808705, -0.003137677952998905, -0.0081613232529621, 0.006591276287722519, -0.00526972666767309, 0.007903179685196703, 0.006524355548728019, -0.001779427217221723], [0.0073050937475850584, 0.0011034044146212717, -0.00049491775596777, 0.0010170202943587266, -0.009281251245933137, 0.010675519938722344, 0.005104406370716502, -0.003999981158129266, -0.01246225955653261, -0.006076615484343003, 0.0016696347390152023, -0.009634100333864444, -0.004299194820495866, 0.006306160647656015, 0.0038822685516724594, -0.013672257718963143, -0.0021811829016481934, 0.011518820078622732, 0.010406044547722301, 0.013130590789806438, -0.0028599254251452707, 0.001967141070212545, 0.004211832107873852, 0.00011352314912875793, -0.009667026365442293, 0.004786377052464505, -0.004366791792981297, -0.003970049559289036, -0.011849791744714481, -0.005811891813780056, 0.010881868763903364, -0.009043984712549625, 0.015674143074310264, 0.006572712582167577, -0.002754335844779482, 0.003758223484133172, 0.0010041163605421515, -0.008226811300356041, 0.01973038615480326, -0.004643636306250055, 0.013853058869863696, -0.0015612672936584956, 0.031832266941560494, 0.08030328578953387, -0.015454914107429255, -0.0032579614753735315, -0.002726537748575173, 0.021397129569071544, 0.0325573901380284, 0.02216552306873504, 0.026378377065008306, -0.0007475017143999926, -0.0009473337153256713, 0.008652304794213458, 0.0035847463487140435, -0.01224327002312313, -0.008635407935439517, -0.0054461427619322215, 0.00609587391246208, 0.01238111658846344, -0.0005211101254098896, -0.0026473603807409297, -0.0028295519350485855, 0.0019596754784284662, 0.007737131631733043, -0.012301523476875659, -0.03118121641584803, -0.046337323456422455, -0.03828863169817211, -0.06045969643195904, -0.05138382723236923, 0.1205739112944388, 0.12196508500951928, 0.04275316231894462, 0.04810578814728431, 0.05752065143477658, 0.03488495082726881, 0.04624809878191038, 0.02770496410547001, 0.004306755971658806, 0.002663770482272664, 0.00754089259851069, 0.004995470238767259, 0.003533450197482875, -0.0004465016763289666, -0.0076097246221464455, -0.0033036170361820808, 0.0025667494728609896, 0.0058880766317658045, 0.0005846160658585583, -0.021785538456658322, -0.020765850370734047, -0.013907017742464188, -0.032963098984243974, -0.07062426995528061, -0.10485636975985048, 0.06223596522788621, -0.04381896577987412, -0.11447617144474834, -0.04912199388470307, -0.04006495442741685, 0.00575371463165591, 0.12267288272417548, 0.11523669105738474, 0.18127308050448163, 0.05810074639946943, 0.017932067888110463, 0.03768471411762022, 0.010651329093803131, -0.0006165838597278051, 0.001418157802300635, -0.002810760746455304, 0.007383691278699287, -0.018911157685029437, -0.008450411432774472, -0.00610970085841391, 0.007776088909334739, 0.006237835230002049, 0.01128629986546316, -0.06957428296544625, -0.11019839616565565, -0.23008273556226294, -0.30795626984130714, -0.06754663351998365, -0.032425063674175636, 0.10246223968972681, -0.025061238346130454, -0.13149618749489925, -0.11445123142909323, -0.27889913469232386, -0.03930917154779793, 0.12732651068501394, 0.06987688898980376, 0.09285132898977977, 0.07552354722660895, 0.07590834797213851, 0.025386944046444638, -0.020216778747815703, 0.006374331241528572, 0.005656791413947143, -0.01131341508587854, -0.0047577431161293674, 0.0171569836173468, 0.009023045213215189, 0.05041715053610329, 0.054171863549163035, -0.01069095918783539, -0.08777927289298235, -0.15601878652034668, -0.05102560275886509, -0.18895957237381175, -0.14270422678127645, -0.12139063328108865, 0.04916223428525484, -0.10355559220615455, -0.21119214504264758, -0.18504239523602226, -0.22776148326244072, -0.16062009893018528, 0.19186558480777244, 0.10922771813431748, -0.03327742115637012, -0.008418856103693669, 0.03389893095390146, 0.07606660720464613, -0.0027089388816502807, 0.00815022218111709, 0.004024598470367546, -0.0032065038546032583, 0.007628090403805338, 0.007205017957456161, 0.012723848090271096, 0.02123905647032338, 0.027757788672558775, -0.009157850729215641, -0.045803651052378234, -0.06704455995578103, 0.02028277115985162, 0.01872609555501883, 0.015371259457653262, -0.037441971654956024, 0.26935319566452726, -0.07264531299571945, -0.19951517865280285, -0.06941459043829015, 0.24577003569904185, 0.2714250790267794, 0.1081488373855417, 0.21939656235415086, 0.09326073860861725, -0.02454113956499754, 0.05415390477191703, 0.08519636050480028, 0.029454713189665107, -0.0005381805335252034, 0.003919871404713555, 0.005695981124349482, 0.011724096563549185, -0.00643666364996238, 0.004157569031125304, 0.000921191932584466, -0.06336154139966016, -0.07817264652446199, -0.18626433863090194, -0.22210763109385, -0.18843847140949638, -0.06126871584068266, -0.14302254224618507, 0.04241935508803806, -0.12481625488278879, -0.05968519379214499, -0.03834432439286308, 0.19772576910476847, 0.22192623119399443, 0.11857738495505446, -0.01030920603002017, 0.1241007361882619, 0.10875787090701196, -0.022912119042023414, 0.1874201462061596, -0.006603015739443188, -0.00034795385811945534, 0.029100878216615424, 0.0045562308615337685, 0.0007303918328851781, 0.014776499275897423, -0.01219016343177486, 0.014018231200456178, -0.04844554276083835, -0.08843259840926111, -0.10796432537774502, -0.22797698133693428, -0.18280906618340395, -0.15861819108021732, -0.2672851992288589, -0.22323634604633477, -0.07105044971153787, -0.04239665926952384, 0.19579186437098736, 0.2715544186468934, 0.2797082590065419, 0.17938015494642884, 0.14924414282464046, -0.062442571431365244, -0.012167061950404106, 0.1686871002984458, 0.10914760825706284, 0.014577978914514057, -0.006516690736073197, 0.028904622857568577, 0.01439900910006778, -0.00739509721919852, -0.006671611817423089, 0.006571733809194518, 0.004189390127951662, -0.006657137886783999, -0.024787693629600753, -0.06022011146519282, -0.003356643385525133, -0.14420683241552826, -0.07645535646463457, 0.007504682850504818, -0.09507632533500057, -0.1317601628127146, -0.13814461433789813, 0.08024199558588505, 0.3055222581788679, 0.18088365735919767, 0.2066963446046448, 0.19806211046971042, 0.06636976916778164, 0.02997853199319187, 0.0880933567990454, 0.2610051922345268, 0.2147742926342338, -0.059826473914721075, 0.020329224930899288, 0.04334851076865708, -0.01294000002797576, 0.028768085969149614, 0.0056099803103432854, 0.017831628463694644, 0.01744103878711084, 0.006231452326120742, 0.01843348788977843, -0.028714074690524508, -0.07468785642739915, -0.20599671735866912, -0.10760407726682039, -0.047091663331279905, -0.1532315117431487, -0.044929381500282535, -0.24707331034342414, 0.036903703756535886, 0.16741076068062205, 0.17324704123389736, 0.2031855000545281, -0.06317856115743987, 0.1913951490344064, 0.26404030551112695, 0.36156402946558863, 0.2475956960105671, 0.20550267018747176, 0.05754527503312038, 0.06296762972721485, 0.08404725161413122, 0.015254048193529072, 0.026804542390825362, 0.004737600672785943, 0.006049291483469268, 0.022676874958068256, 0.016235521139850512, 0.07144330316573146, -0.03662659661373493, -0.18188353780020367, -0.1087221381761623, 0.01417585521676817, -0.041445824161924584, -0.0764520403384704, -0.17584802809969508, -0.4423342540075113, 0.09622038243128335, 0.2603095291909129, 0.07939908254200435, -0.19574094606234688, 0.23317174657646622, 0.4140858753131289, 0.13901735186854797, 0.18217673404537427, 0.12345805274879844, 0.006762588478627731, 0.019456693983704785, -0.015847900506719546, -0.03084293700667552, 0.0005158071023117523, 0.0035437857888593566, -0.003293989070992041, 0.004514936968743048, 0.013460956082518129, 0.06624190457403067, 0.08527465156370585, -0.03671168030409229, -0.21328133973719898, -0.11751243049883253, -0.05077025843713888, 0.10206441216990635, 0.031340236136949425, -0.05922111773053625, -0.26958033643418605, -0.05863396104700743, 0.15558670510638142, 0.03684440177733888, 0.056802718851603276, 0.11118400853516933, 0.2890478523189702, -0.033595134068093606, -0.1578692435881603, -0.2114979725682455, -0.10862136676000769, -0.08960250061167457, -0.2150966785006677, -0.04628502392789225, 0.01042994817176099, -0.0026969048308089676, -0.011644416553189875, 0.004590388056769837, -0.007907574224159357, 0.02998287235680783, 0.07062760660239757, 0.012526481524316669, -0.10429611207530674, -0.1830244472073985, -0.051763178555263537, 0.03073183715213727, -0.10122641006482247, 0.03562491709509999, -0.15220227020337201, -0.23767849957614226, 0.0942531864173209, -0.01105137399714562, -0.10344649770117838, -0.1060576029472596, -0.1043870819893807, -0.21626976259701813, -0.15816708087623144, -0.051238640566156894, -0.15657093174182182, -0.24010468265658802, -0.1849606182001754, -0.034504594661372644, -0.023486143963742764, -0.014242895424238376, 0.00823548092686751, 0.003940260553878931, 0.0034670941704946067, 0.0016305183943301068, -0.06325508192378641, -0.061155076218009745, -0.06583404166423341, -0.1717484437148496, 0.01021773638959119, 0.09161671713315782, -0.12265155310767156, -0.039909325112637825, -0.20704249344040254, -0.15240757742392314, -0.01785561275525466, -0.05857262405510992, -0.15974693504933027, -0.23955773115656526, -0.2361532144640116, -0.014596759792697048, -0.025651474001449223, 0.009468967100692118, -0.31649528039114466, -0.24483485340920086, -0.13777350611877756, -0.0341598404651663, -0.025025717937418812, 0.003511113736593377, 0.003219164133581906, 0.010656198576097679, 0.014210972554714442, -0.017898495854607618, -0.03266148004074217, -0.020229326926473994, 0.020691701924312054, -0.012855201886167658, -0.10524017906393025, -0.15782862199082076, -0.13623402533904524, 0.060828248093124204, 0.02678713656468534, -0.06842596695915742, -0.2803566427178786, -0.1423778799978756, 0.13537786854047223, -0.10707139037712395, -0.07326281062011698, 0.03263839906027454, -0.077609727053155, -0.24367948163161107, -0.3220956867810607, -0.23056019615843065, -0.12502360998131096, -0.05399482305872615, -0.02966532667581878, 0.0015149740569563531, 0.005092449007995913, -0.0014739044210251326, 0.00844362755328739, -0.015314948451179481, 0.0598303219683171, 0.08069717836425035, 0.04220572871889086, -0.0911620035231745, -0.08133473096967178, -0.007130367955226241, 0.009362438495063779, -0.044680616206138064, 0.19930157489165834, 0.11963954426183364, -0.23478134455041136, -0.1593461764909937, 0.17542772836787018, -0.22114136483795419, -0.1451417003411771, -0.12686152099698367, -0.19879291337242372, -0.39271929674922884, -0.3351754278283891, -0.262055420831924, -0.09906058844913714, -0.041950677967152995, -0.004326752602111403, 0.00982644547883151, -0.006781389886161234, -0.006810123911736716, -0.0003890595946540989, -0.020216150838512782, -0.03596425352596652, 0.0104027581818591, 0.019760315490335058, -0.043469930251689784, -0.21543480649188312, -0.1415078777127116, -0.08955269454143909, -0.11476565984041584, 0.015310394340127204, -0.036842748467760665, 0.020995464819091286, 0.08207588131000496, 0.30977768753370666, -0.06713123540042179, 0.02774873262312819, -0.12051522219976935, -0.2539792454721411, -0.447296628404913, -0.23918967714521738, -0.07737318587261667, -0.07107223060663057, -0.006107749030691282, 0.009375812488710847, 0.004624700608259864, 0.008943639515631452, 0.0011707971983821014, 0.007389479798607957, -0.04348115527048324, -0.0753994912423293, -0.10035688952750817, -0.1995684543613042, -0.145870208542579, -0.0649340215680594, 0.05395524992049298, 0.06059860172631545, 0.10067932074772251, 0.14235418777601358, 0.16144730207615418, 0.09470942284312243, 0.31872176492347337, 0.30541766764173583, 0.17374518122904767, 0.11968844510463396, -0.13559523891958508, -0.4520991970662134, -0.39746566116465926, -0.3124841570849053, -0.1849023915554253, -0.07715215298333208, 0.01832468630680504, 0.024610989835761612, 0.01577868507956996, 0.0004876950491070416, 0.009140712903173951, 0.011298206749696737, 0.005282727993457628, -0.12131901401419071, -0.10942236491804917, 0.058682918084088015, 0.11215748750705375, 0.04114539090325486, 0.023470843779404716, 0.07249456371704775, -0.0780142617738194, 0.22288208147617397, 0.16565710196649253, 0.15162881419550994, 0.10428889017242086, 0.16935426353159053, 0.1684516874789539, 0.1437684278754262, -0.3868646817052042, -0.5273472310772527, -0.3803202114078847, -0.2513473772960937, -0.12882894868660258, 0.001742714541619587, 0.05688567399527071, 0.002524689452480014, 0.01022950355483371, 0.007154116708813756, -0.008132179713151071, -0.0017350882542878075, -0.03447126132459226, -0.052904192758412544, -0.042893990655947185, 0.10071429175721223, -0.01316326955114887, -0.08590523072141251, -0.16522679411775565, -0.33322653206329667, -0.18724864239400654, 0.005289804719294775, 0.07606114897607048, 0.17915199322476652, 0.17335381607271358, 0.022044949390247426, -0.006874655449368148, -0.3393969143671496, -0.5772998080149184, -0.5327353938480488, -0.31702395210691114, -0.15494993703269477, -0.11810771005107211, 0.004429418688200686, 0.015227243251132496, 0.00562945063130809, 0.002319503825185729, 0.0035018155435826734, 0.009230437837434963, 0.00636399193429688, -0.020479020267222627, -0.0675404256818834, -0.062481873371680235, -0.01624250565035094, 0.08875177578168356, 0.058646564273023886, -0.09574981640830141, -0.042819441613865944, -0.10134070821965838, 0.013402718330598817, -0.22628153602877013, -0.0009325981240017867, 0.1377860948900724, -0.17049442016468921, -0.17652002893852126, -0.3834128007716003, -0.4869819742563283, -0.3189536343503286, -0.1533229676190548, -0.10151517489685363, -0.06130502497350167, 0.018649476867695053, -0.002572755825487023, 0.0034080720506359055, -3.71648539130533e-05, -0.0006156418029413876, -0.002962185513406503, -0.02389934493304896, -0.027886744316547488, -0.007760422818843806, 0.07999302977163723, 0.13576546654119237, 0.1326635601232781, 0.15993794873370193, 0.15623053202755965, 0.038069190404917616, -0.033543108347226194, 0.03934623243646082, -0.04364188454083876, 0.10915760308981655, 0.16087789130321528, -0.20760251934031831, -0.19247644536882946, -0.5085181333260623, -0.3816897484330294, -0.283799588048419, -0.14404641074441651, -0.08724734961032762, -0.04117036929066243, -0.009321798396888634, -0.012245111295443813, 0.005574139385601667, 0.005297521671889014, 0.0028125566685094365, -0.0026667014691560114, 0.003067530764752114, -0.020316907512067415, -0.04691577554191597, 0.02150678520771498, 0.09395211540771649, 0.13264484851185226, -0.10295095241902058, -0.0834090394307542, -0.11290156539231179, 0.24898743804311305, 0.024740223637415897, 0.02559038114145153, 0.012860898285900325, 0.05828752808319266, -0.3069089195309603, -0.3643365581491482, -0.4180806330185141, -0.3657767510720716, -0.21760125562501242, -0.16043285649539618, -0.04878862353516012, -0.047758010140931534, 0.015707294090264036, -0.015093169877696174, -0.004040060167090644, -0.013840454849739418, 0.007506045787247349, 0.0015059528559015901, -0.006408605425021548, 0.010631054168379634, 0.025867936232711195, 0.13907878566408327, 0.24206463410006548, 0.15801830262972003, 0.0018010513262103434, -0.11442784809045735, -0.04496255083513469, -0.0090774954349437, -0.03407288526111002, -0.06627627501121083, -0.09082177491428121, 0.07099400708905051, -0.23098679957576868, -0.33092085957949524, -0.44816695711050347, -0.2962992585699696, -0.1477486832905901, -0.14655620829307395, -0.08398695239347664, -0.035999510444461175, -0.006055443697891464, -0.0062618802533036385, 0.01360200118609282, 0.00014820255834268676, 0.004174293670308113, -0.003759011869542274, 0.0011832695800505226, 0.0011803216351687646, 0.04425732692914023, 0.10256561612872006, 0.07377245826170835, 0.12230689905044223, 0.18348219668867038, 0.10887135523958069, -0.039347289524541924, -0.01046754089656901, 0.18419021012473474, 0.22432557131569583, 0.03449383212984379, -0.10479132903561902, -0.00834261669261198, -0.205458163386604, -0.24131198996918735, -0.12563555030771056, -0.08489590971223583, -0.06358069539998908, -0.0024821331803520654, 0.007939466520595951, 0.011099758754250545, -0.0074143403639846455, 0.0035481735047581497, -0.0015530423532441186, -0.0050277432490471625, -0.0043195618636909655, -0.003117588781379653, 0.00273516451863025, 0.015015482915729945, 0.041392487460377714, 0.09399404564496405, 0.08192273584206722, 0.10422328438291983, 0.12519505263196487, 0.14334946880396665, 0.13234823741657128, 0.12742622035015866, 0.173593453343263, 0.152503712267836, 0.06225163642131899, 0.09620338647098137, 0.03570648610946065, 0.04319664157719371, 0.010781566450321262, 0.02388597851942493, 0.0037030070693428964, 0.02634097441713646, 0.0027653803479514593, -0.014472109610973904, -0.00898320034438331, -0.012857472116583824, -0.00038279161349274397, 0.008960368976301314, -0.005610591208103203, -0.005436716363091029, -0.004135484910108697, -0.006602648842502237, -0.009360130277522895, 0.006790401256437624, 0.02979741410661364, 0.029229960495963114, 0.009870376635942297, 0.005856760636115372, 0.009166399168483602, 0.021485788433390284, 0.014228893117944773, 0.022984193194029997, 0.008087747821007272, 0.006152794904763026, 0.014853799663018665, 0.021436856047097694, -0.014268345943036562, -0.011647559995493164, -0.002321323070109366, 0.0015027890561448182, -0.007644378287821753, -0.015133899589554533, 0.0029385788898447203, 0.016821739843824006, -0.002635526915889075], [-0.007068671873342304, -0.004998182602367173, 0.006715119643823381, 0.0014411662690543656, 0.005149434000935677, -0.0009155895052418112, 0.016197386738252908, -0.01733481871496399, -0.01478216127323994, -0.00857430745288758, -0.006948442520398529, 0.008327269957282708, -0.003475125241297942, -0.003724191213445271, 0.01327652767141403, -0.004124105156745228, 0.0020217428230050387, -0.008517332698833128, -0.0020646880165204025, 0.004125303711862014, 0.0012767735277208544, -0.008130622134597087, -0.004722364597820887, 0.009981282293625585, -0.0034893128063933714, 0.012377579835100497, -0.004681904721261766, -0.0025419593959953414, 0.015654195087398414, -0.022289409939217835, 0.007691494075721656, -0.0036840278172512965, -0.009382202624508241, -0.013115515779879721, 0.008110745944082067, 0.005685335164637454, 0.02602224535633455, -0.009614196286483816, -0.004149000112543249, -0.005240397564615588, 0.01927513273073426, 0.00289030495451642, 0.021717464682914626, -0.005321888450974528, -0.028524936073677728, -0.005942324360235042, 0.025323436578701675, 0.006103662437922241, 0.013407489256472085, 0.001184988296150059, 0.015616377770854246, -0.002035664444784214, 0.012253651534835153, -0.005377450947236924, -0.01930399693270787, -0.00678503599024519, -0.004897050496372099, 0.00257721246780778, -0.006032240762076351, -0.005688052657189381, 0.000545893194402257, 0.0003766522213419695, 0.008724383748924551, 0.017601968348028643, 0.02068939409149786, 0.01938391786525369, 0.025365010768852295, 0.03371055967824368, 0.03191990264968394, 0.010358097769386364, -0.01930555583872975, 0.04137802620397865, 0.04626820558714403, 0.09141095628976906, 0.09122544067920471, 0.03972792933000553, 0.043137673929090875, 0.06440950465766626, 0.04304711348037192, 0.011338845167327553, -0.008790099494127126, -0.001337381566868688, 0.004938858125487476, 0.0007724071849930051, -0.006040676047542212, 0.007192772689150112, 0.009997697625667226, -0.007792873534751501, -0.016928984580120193, -0.0003306226811753573, -0.017602293105367862, -0.031123514357888325, 0.005862088971095724, 0.011749913122990749, 0.011875532968099253, 0.00043593095499016486, -0.032433350933245945, 0.010952977728626882, 0.0038836386227658554, -0.07181518328446089, -0.11743601420530617, -0.1171863982876521, 0.06567252489334391, -0.008417243691478735, 0.010010095856203055, 0.09870558543383451, 0.07947580609540898, 0.06174453434286058, 0.040079374912737956, -0.0004863525881537849, 0.013821750433414971, -0.0047715512539681405, -0.004159626821917727, 0.001081570283199959, -0.005481335913342581, -0.015951728233213516, -0.00022844551832878606, -0.06924385044758152, -0.10716965909355718, -0.15599176469396264, -0.16884303167160966, -0.11081683892870112, -0.09766468505848584, -0.06942963262899589, -0.08150293145909324, -0.18683342349138377, -0.0960984502030284, -0.3400216440916388, -0.14104082847863944, -0.03836270611824587, -0.012200609013774079, -0.012917438858971337, -0.019871748513073068, 0.0849660202218439, 0.13400129917437967, 0.1593631299464837, 0.05014786375636304, 0.04281767610092434, 0.011940022276886878, -0.0052785360519913525, -0.002081395309183191, -0.0002081460714127508, -0.002943534422923677, -0.020648958366338614, -0.07985549188563146, -0.1778082874772165, -0.22129506374079977, -0.3135658559208662, -0.2481299280720357, -0.09699859620163326, -0.060943383338066794, 0.10434975759179597, 0.10839242342778471, -0.13701864980042858, -0.08411593045648975, -0.2176236240075926, -0.10520060882479752, -0.00027819863052310195, -0.11477741966137738, 0.06621632364762159, 0.13398066181245538, 0.09941662232083259, 0.14832708037090786, 0.2124432342917975, 0.14802879839533153, 0.0697312407321027, 0.015137597818328286, 0.012062258556207215, 0.0002358639570423889, 0.016291012131904026, -0.024642660562545923, -0.02327337125119896, -0.09743723281858031, -0.16215260072626345, -0.3689957898446795, -0.35682186195219523, -0.1999410616891686, -0.2434551695662411, -0.14621901864924047, -0.17445962337577023, -0.10093504030484039, -0.20356410164619487, 0.07492935840954523, 0.12603073891187738, -0.09823106736240024, -0.12791384661334917, -0.18628204279112662, -0.07838049200766642, -0.03269561558121844, -0.12726948665489105, 0.1330308127881647, 0.17532501883358295, 0.15959186158516458, 0.09262775606273314, -0.002153494484402024, -0.004871753237451022, 0.023030843597637855, 0.004182029213230086, -0.01844012618561844, -0.05866869544691349, -0.13950373859897938, -0.18990587529247507, -0.36535988752644927, -0.3899374002588894, -0.16688532759554603, 0.009057158450760485, 0.062104659453308564, -0.12368737102604978, -0.1745901643967568, -0.045760017781842535, -0.04133145363701902, -0.11918554612440099, -0.23367195728152973, -0.19160847005769566, -0.16767134789010363, -0.14232786646441695, -0.1326927208453561, -0.05663541256834247, 0.24625823628806587, 0.1876144754951472, 0.10833212353294867, 0.09212785977791334, 0.02557094590170521, -0.006113390237646557, -0.003520804509057035, -0.008385615742963665, -0.016204984001516515, -0.052871805741969743, -0.1730934787172947, -0.19301553296801094, -0.10073454020855589, -0.15829383819268208, -0.01188891662273757, 0.20641924711064238, 0.16284550794071986, 0.24833292065563978, 0.13380511935546033, 0.16750242241438798, -0.20278687531677894, -0.28047810058104333, -0.25975882235884884, -0.1871992296755825, -0.19189608700588812, -0.08044829119658774, -0.16891736082746617, -0.11106250529124283, 0.09692577270595257, 0.18733274226855337, 0.2270843684546261, 0.14284852212174232, 0.034700089025189076, 0.00447496581825054, 0.011869725229520633, 0.006312001238123189, -0.003013835649786742, -0.08672582901795914, -0.16628279578496263, -0.33845963116661837, -0.24126657338159424, -0.27359266457441445, -0.0001182734411076367, 0.28737557487410487, 0.05350142391873675, 0.19992305926542642, 0.10311083380649522, -0.08204184151857567, -0.3124739205605473, -0.5002744769958055, -0.3559229583541983, -0.2849520052117197, -0.3007714292485627, -0.0445701414087611, -0.18884722461013545, -0.1390910216445344, -0.10832676658787499, 0.08548839541000976, 0.1786329667371828, 0.10925128557060906, 0.04018391812806283, -0.0009584307615739683, 0.01068678974611871, -0.014580908029679058, -0.042521350237362365, -0.09405923476664871, -0.19935258355545163, -0.39826906382508526, -0.45263058190226096, -0.14926887088119511, 0.26347998268485645, 0.4179109414388105, 0.292271750145362, 0.24509028126320792, 0.44490644180599104, 0.10484345685888591, 0.15794475209662534, -0.3887073720633811, -0.39636170521676944, -0.282637030306111, -0.07656042557629357, -0.065635229220169, -0.14851898326371168, -0.15339714771252358, -0.1288591239535505, 0.015661888457746832, 0.13688489526010025, 0.06487645300398631, 0.03042236970419248, 0.004547695207326705, 0.0012480871698747097, -0.01014684928913625, -0.009891907412208495, -0.11186862608209674, -0.25470581911164775, -0.38468273683519255, -0.5087894303166127, -0.016927038741818383, 0.4093925034386791, 0.35209578069504244, 0.5302659890472596, 0.2504567439315328, 0.4924317787974943, 0.7312507011792782, 0.4611077219235845, -0.2604702207784331, -0.11725670590131897, -0.09152667374000456, 0.004612175711322711, -0.06411574508259507, -0.06613460019328439, -0.14516375091861525, -0.12937061563619348, 0.0319936145143945, 0.12329700679109444, 0.06721052778927702, 0.007107220408728345, 0.003330519330204102, -0.01110582913576174, 0.012771460398463273, -0.01497849925114057, -0.13821957646638297, -0.2593227528659998, -0.42020313911286045, -0.22578261392054597, 0.0567676280954796, 0.289231826406383, 0.32218113308646423, 0.19213025447171428, 0.271768642525732, 0.2556028718361274, 0.5789672781960172, 0.15012997140523446, -0.08695368601697664, -0.05689893432499735, -0.08289400896868127, -0.01155190307892873, 0.17445313501252105, 0.11978713910680569, 0.0744689314976558, -0.12222696959829217, 0.06721322570273468, 0.03620597106581251, 0.026013937617660004, 0.0022783323862637906, -0.004573815525826864, 0.0040980902374282355, -0.0008086006527841901, -0.01995515744081634, -0.10835263534824766, -0.2654072505602929, -0.40139660146573936, -0.14165638680124673, 0.2224517663728259, 0.1564399727151473, 0.12878522697091163, -0.06060246654155174, 0.05727433475798754, 0.25102302650044434, 0.28824244952271333, 0.2536688322950635, 0.12550336875131052, -0.016025610072720593, -0.1843439468706814, -0.14685153253752461, 0.100925952942118, 0.12449297431829258, 0.024191102017793783, -0.09598748066962814, -0.05504543036688118, -0.005271487824616837, -0.005555517099127686, -0.0031789587116164988, -0.008736536262355418, -0.0010504057888379983, -0.0048811679032541985, -0.001807509415569262, -0.04497550880894341, -0.15207661406300108, -0.21337818357212845, -0.12925862094329305, 0.05432521685664144, 0.07236111577681931, -0.009542924637662133, -0.04557039453681004, 0.037273927584556214, 0.24767107350876155, 0.46087873238064814, 0.24633307919966077, 0.22938252843827436, 0.2105601249941862, -0.12958540670765487, -0.16248632591168743, -0.1958522773099046, 0.023371869333147773, -0.09260754427690467, 0.015107955258381028, -0.11166856445898123, -0.06617970853830256, -0.0335500342427922, -0.04266927660320547, -0.01173244459586447, -0.0029046944243663287, -0.020694598297827414, -0.013875969057749125, -0.016982987127110032, -0.06770892586951989, -0.18468185356652897, -0.12378179802425297, 0.016390834543751332, 0.02050515994169712, 0.05578309098059588, 0.07361764094036258, 0.2343908935327861, 0.2135349694715759, 0.3169220126722292, 0.3382895388252873, 0.05327303005969762, -0.017032769610568432, -0.12615064520815014, 0.02791984962591298, -0.20999497897095523, -0.23640095536637107, -0.07390246610343751, -0.17502072495511364, -0.1358074287361584, -0.0963718958020496, -0.00799499274734984, -0.040294679583799876, -0.00278149612849014, 0.005165866596386952, -0.006159471606214775, -0.01526306453681268, -0.03278924959687683, -0.10931706939430116, -0.15437798883628642, -0.08087335900681492, -0.1064172732200995, 0.03526141090383426, 0.01874124139947077, 0.09105543498933016, 0.33921556868374586, 0.19160803725103082, 0.14593706292527242, 0.0995857265038139, 0.020669078239728442, -0.13793631026377762, -0.2287700397609106, 0.03673851651015079, -0.16663679818431446, -0.23205175990547094, -0.2177189170269428, -0.23136431617431644, -0.11946388902604323, -0.07231868126362466, 0.012189382149898854, -0.00873550877725563, -0.011679376990375802, -0.0018417436670828025, -0.004878951974833662, -0.01691272704744071, -0.02192174872987171, -0.06493311815314713, -0.05608042349632557, -0.08108854549391789, -0.16607501130391644, -0.08991300704878362, -0.0008413461853274644, 0.19836942204128724, 0.3237062529341573, 0.2512116980963564, 0.17535252700005283, 0.09175398575360488, -0.11176788843544433, -0.1683066215868087, -0.252857290337053, -0.028315712008734915, -0.1662722215015637, -0.1168460498640007, -0.27751379139086363, -0.25335536726810204, -0.1184710146296716, -0.014952665696214212, -0.025129610520071524, -0.023775743321292557, -0.007019598512053439, -0.0008244916461038549, 0.003847395920128259, -0.011233821214322452, -0.0077214221803852835, -0.0677118475006081, -0.01901842912993289, 0.07565184087004007, 0.08208809976400637, -0.040662028393670495, -0.07410784174083568, -0.08142455824270585, -0.12514933285920618, -0.020172775621752327, 0.14971398743551712, 0.029543193782013685, -0.1351285067748062, 0.04766800402043772, -0.09433688330927092, -0.18299305312963507, -0.11901053709740013, -0.2441673273612606, -0.30318162548146893, -0.3819912129454781, -0.11727815708425479, -0.05217727191432475, -0.030690383203145346, -0.026827365870174653, -0.009143302978299257, -0.008088136516248463, -0.0019281552784390444, -0.03413437256448906, 0.00014104816507182127, -0.15216820611258866, -0.04478620392808787, 0.01352320036157944, 0.10487385814087917, -0.029182763806309, 0.012171174488284331, -0.005006619548118826, -0.020181540256288544, -0.14014969418194956, -0.06277206861590935, -0.09147938585711185, 0.08337133178021168, 0.10703971498297958, -0.19574499479693985, -0.14093834829343926, -0.148981118569355, -0.32971697185600335, -0.2507645253371255, -0.2469556540446728, -0.05534809005327798, -0.00879484635139556, 0.0005718258180243018, 0.005657452623693809, -0.007542909223840005, -0.004674615202669161, 0.009557913199710924, -0.009655912153143624, -0.04532477700797102, -0.24154641182729542, -0.024600986174219283, -0.025595650682307045, -0.06191157460946492, -0.01402625814972643, 0.029347785554953407, -0.1873914908641817, -0.11561744866821246, 0.007925148100755695, -0.13018543045630104, 0.06886991362543664, 0.1260009408534865, -0.0022451542283439614, 0.040035139982380466, -0.032545054049358764, -0.03910626718721877, -0.20764101021016082, -0.2274557736576323, -0.18654796187960593, -0.08291822345184441, 0.04527490424457758, 0.03942718991153014, -0.012799340783151834, 0.00265294682225615, 0.013678356880399856, -0.015368559078058045, -0.005562364833532493, -0.06825711804422965, -0.1522354295976697, -0.052654055197057736, -0.1361513378012858, -0.17666363712193184, -0.0474547034536951, 0.10132236811752429, -0.15775454542191156, -0.0731715134098566, -0.11347751907788126, -0.02947668017682928, -0.0367417301499755, 0.024654405713970044, -0.049965711386418435, 0.2329424822348908, 0.143006324721595, -0.0565416993200775, -0.12600635765399648, -0.20795546339214943, -0.10592691446232773, -0.0537265748315209, 0.07329392641480344, 0.0428513568832254, -0.025890445098353043, 0.006696748385383404, -0.010397253083133367, -0.005719103674729765, 0.0001224427275676476, -0.0025639717161923914, -0.09049552600258853, -0.053764430916056614, -0.0938371085372466, -0.1274822167803373, -0.11463539895932079, 0.0027637541969604477, 0.0293706936248646, 0.1291093547627353, -0.05953383187475229, 0.003926688028448659, 0.06358706732758432, 0.04616988331452202, 0.05744996578986023, 0.13546020330815364, 0.09220950685353624, -0.12214375915064582, -0.20176811180895665, -0.20383677466306205, -0.16331659104236526, 0.010447014448560946, 0.03645174146429233, 0.034367718570275936, 0.0026368735013142415, -0.0012618320433670912, 0.01800823053138117, -0.006903655905072973, -0.0065592980570765395, 0.004545094791531615, -0.08159654770043144, -0.05092853717267496, 0.032408746611236224, 0.035116149374240284, 0.1680758815115838, 0.054047525929677466, -0.018070989018341525, -0.08669823607984141, 0.12076961765624443, 0.059051526096525295, 0.1130386549635525, 0.12438622036524939, 0.1195075898777529, 0.045749980302082924, 0.0031029847876417375, -0.116311028249065, -0.13450442159308665, -0.16005147252282215, -0.08195461797679465, 0.027602690640768434, 0.021218543846922722, 0.024302662412254743, 0.00824572441711275, 0.0013250420863143444, -0.006582816754391979, 0.0053424995593584984, -0.005860599007703679, -0.022097305540206686, -0.0660348570702234, -0.14163036373279786, -0.10299495302774465, 0.05082928317663931, 0.1628412536427588, 0.23877473516138936, 0.007632448582601465, -0.08857727319987617, 0.02974815114780504, -0.154312510161063, -0.10143464350955556, 0.031582735610646874, 0.10078011013052943, -0.07255025553937176, -0.07857904074267354, -0.2205277861186317, -0.14304440656043746, -0.0693340433220763, 0.014281803771645799, 0.03709960427143529, -0.0037287818312541662, -0.035206792152783356, -0.005116025633623741, -0.017377057869986806, -0.0018464591612344886, 0.008763809517752427, -0.012602752904417465, 0.009514883108976037, -0.10417663853038842, -0.14233971959666078, -0.10904333279546607, -0.06753106687797993, -0.13542873181421167, -0.10793144139908392, -0.15401826866059176, -0.08844232430125662, -0.041991426063860096, -0.0031953752258639047, -0.1257764106901432, -0.1210064484850462, -0.03618303484384964, 0.06310111299151971, -0.048300551419309855, -0.13677495697568864, -0.05661389980864591, 0.00974515522021255, 0.01424311541394589, 0.012900985783620193, -0.0014739516886313436, 0.0015267293574873738, 0.0051195896653928406, 0.0037018188732359297, 0.00021654911976307645, -0.009608089981092544, -0.005227043991038295, 0.002114828180234395, 0.02380873102033411, 0.0445422157622008, -0.00569056126540241, -0.005460891037963706, -0.02013320901738996, -0.02743711135384403, -0.04879768667522526, 0.008533125190746744, 0.055902897988418146, -0.06002253523623149, -0.05663090019500107, -0.08765197635840843, -0.061560003390686, 0.06469193674614068, 0.004224106316992072, -0.08073772087408428, -0.022512640651665517, 0.005985816466052815, -0.003218764429809691, 0.002425983146815441, -0.00016673745417080453, 0.002115661327274872, -0.0008565922921039378, -0.003139253267941197, 0.018228485427913745, -0.006836565347377039, -0.005207978266930832, -0.004282917361001984, -0.005459464158313814, 0.010915267559006951, -0.003187050700863711, -0.011785334188321055, -0.004371382479696351, -0.004305682914899852, 0.0054136250594938335, -0.002048759774272423, -8.496079254015449e-05, -0.002639170643281868, -0.027898436919233025, -0.006278234100253838, -0.00818345086226531, -0.006536278862500411, 0.021163423590573778, -0.02338780019855922, -0.0010454618696796112, 0.00446410585764355, -0.0017082924685549604, -0.0006664229553541756, -0.011015625318481255, 0.0006341126987920124, -0.003247655674950375, 0.011994328740668674], [0.0023292333437277693, -0.007909978601094264, 0.0047665976218184145, 0.008665198250940089, 0.0006810244725930086, -0.01021628581200605, 0.006183322917998714, 0.00539079408202942, -0.006482622970846766, 0.01953560508299964, 0.0005533428530556217, 0.002164713500894579, 0.006988019582586632, 0.009204306487535613, -0.0031127503826101637, -0.005416025301400156, 0.004643927487984155, 0.006730348933992618, -0.0037003396902093857, -0.004224088551234025, -0.006746763728941782, -0.007710145487132373, -0.0011597364799320724, 0.005348051563654613, 0.0023174951528368176, 0.0038004641977971263, 0.002849856313861563, 0.0032835498003340605, -0.01933588626962128, -0.007297984983068406, -0.006813940540504857, 0.01856571825204888, 0.0029315815744741795, -0.006881068838559294, -0.0035296804362115537, 0.00128520453139195, -0.008317497780451684, 0.00253878448005963, 0.0018050157963961301, -0.017472895836087195, -0.01290856558360904, -0.0024559825093842516, -0.008492660952400083, 0.011201602831040342, -0.008351268838184212, -0.0007333071353743529, -0.0066439738697556365, 0.008357237554375514, 0.004242878083691257, 0.0011404373380471107, -0.0096606177918607, 0.006448290286649024, 0.009392254785254697, 0.006467339215313934, 0.013273764774083449, 0.012447826808358329, 0.00561637667480475, 0.001922332310215272, -0.005960171983563462, -0.0003782086640387257, -0.004363795217938894, -0.01213833412249175, 0.013191045576371751, -0.00625995133901646, 0.0011989833487666263, 0.005386621338179837, -0.012542141826485565, -0.006933327109137353, -0.010593812038327733, 0.04150547621598046, -0.008243276153181014, 0.009888858427235145, -0.03045856540393282, -0.018301281466858593, 0.008022268106464838, 0.019712681029553824, -0.011570250981956248, 0.003675833036601503, 0.010691706756943423, 0.005824718709616917, -0.003943544876427553, -0.012448947058412924, 0.006279320813911455, -0.010944260128667069, -0.007519487626779237, -0.007250358334633831, 0.008272716945029191, 0.0029213395836861483, -0.012121943055605202, -0.013092900009324462, -0.004781609692152385, -0.0289603989484091, -0.034161567893114836, 0.006251535741587962, -0.025187070639912143, -0.057623046663054435, -0.06034095113171143, -0.0898916765648801, -0.04520895093801561, -0.016901327504662052, 0.0185900466721911, 0.017031715575047787, 0.037609194784066845, 0.06460737306512358, 0.028747172571115264, 0.04155416756098867, 0.0062810523263219795, 0.002581910439856709, 0.0067562203131832695, 0.014049217998964225, -0.004515785389006023, -0.0024064981944283267, 0.00019545485467850005, -0.005544727374166335, 0.0011609754348584176, 0.01563873703308127, -0.024920905707238483, -0.025501925345426366, -0.019631980717575978, -0.016772746655510463, 0.019064937422493905, 0.08602751815507456, -0.01604527488689353, -0.1677992851373281, -0.125413248381465, 0.06508777860584701, 0.10498627336822502, 0.048594036823824634, 0.18358397804924598, 0.219698056106874, 0.09051518104399023, 0.09760926697413198, 0.11392843926069246, 0.06994329835498, 0.01633658087035779, 0.014970445439868203, 0.0020997153287622525, -0.0015274223716163315, -0.0023275402746583164, -0.009275403488890194, -0.005854792961929277, -0.010225660227127974, 0.014483633914530222, -0.010680527045097914, -0.011649970475933445, -0.017594859702452507, -0.050541942150829, -0.0010193148883142517, 0.09874823447082075, 0.07808036881142738, -0.02914447770299521, -0.141404438822575, 0.11900827572665913, 0.2787861564155343, 0.36326661977558433, 0.2936224375240649, 0.13746979127928538, 0.06783450682901326, 0.04504150557306572, -0.07909411360285706, -0.006065908351442917, 0.00837020999827022, 0.04606176774186094, 0.07171652045766425, 0.004487988593299974, -0.02173997478687077, -0.01789575226208697, -0.009392179008062254, -0.015646868218773057, -0.002039342549090251, -0.0037742138367908022, -0.01008102755347642, -0.007412299194998814, 0.03461878416047188, -0.09879721413234276, -0.1346482761267759, -0.06758578543430623, -0.2779903707640906, -0.2514818280310294, -0.13029521919547915, -0.11845529276195446, -0.27610721565401847, -0.22863802258002355, -0.18429269382999097, -0.20477310031502294, -0.35207291408291563, -0.11135701836820933, 0.08661627894889048, 0.08887231357289788, 0.05302864101091109, 0.16622627689759956, 0.14928490734822708, 0.008328919485907046, -0.008141448330669836, 0.001000793618713954, -0.012338800249333348, 0.0016592786007252561, 0.002888091608187634, -0.009042231220369758, -0.03960193175677829, -0.013716561788945005, 0.05141062126169003, -0.09833363747088181, -0.05027659667486839, -0.24239291675509825, -0.22589444757964824, -0.3566638423690133, -0.2537724581659314, -0.4823465955512633, -0.4333515630474663, -0.5689357794619724, -0.610351184774007, -0.34091622507562, -0.4009587596834528, -0.1590298192003638, 0.010006026264976473, 0.034654440578965134, 0.1818525875055614, 0.20485629318772028, 0.18580045448017565, 0.06507017048714411, 0.01185096652594954, -0.017507037510433462, -0.01574243911469366, -0.009694962733152892, -0.006335104884927686, -0.0013730867917145998, -0.026230302148866392, -0.008921593932218586, 0.029803509696648273, -0.0005535169991219174, -0.02781224621161857, -0.26964440859280336, -0.25254765491178416, -0.22539644354610366, -0.3552162892880177, -0.6167433462527672, -0.5499393684011152, -0.5431328674758351, -0.3309791511583037, -0.31752273757222654, -0.11285918721397566, -0.13733173421353342, -0.17019246202590552, -0.06333643776576839, 0.02058511642272056, 0.005629607706415374, 0.08643159842873922, 0.0626891274681685, 0.03730445374417036, -0.00753219217604131, -0.00817214984492122, 0.004660185978642376, -0.011325322755070304, 0.0007577257607813454, -0.027197250227577782, -0.016441916910664323, 0.07443287634055955, -0.05562837482010466, -0.011322145958714693, -0.2074493803905943, -0.2936159089705482, -0.3266958277539499, -0.4800127172933676, -0.3485374346768257, -0.4535663605575249, -0.39458458837389865, 0.012094726811310234, 0.12975757855703612, -0.06215948464377027, 0.04241725117884897, 0.030000999397715646, -0.006709375400313877, 0.0673714093344485, 0.008682344775980939, 0.05629359828587928, -0.0016184795876310672, -0.0002935724474860382, -0.009778807991357157, -0.02440771349649835, 0.0133725486431344, -0.0017635399970584505, -0.01561452859534996, -0.03867214292817752, 0.12137238247086526, 0.12365037556388289, -0.040857919001694366, 0.10005823989648797, 0.005968366490601994, -0.11332004576114127, -0.020040576685977144, -0.10912601389861055, 0.1063864598576465, -0.04145650281208113, 0.06124717298005901, 0.19564947599935037, -0.020031429563578618, -0.017561450493294, -0.04505319213132965, 0.15529754382011385, 0.04514476954894921, 0.04636306237025748, 0.09496739672078726, -0.03594193048127796, -0.009822867662981733, -0.007246969847279429, -0.01966050494184903, 0.0037188680690898295, 0.002572429692632314, -0.0006500898124923356, -0.007619983308131825, -0.027080430658632876, 0.11077927686773127, 0.24151082057271142, 0.060022771073196014, 0.09255153577600461, -0.010343646232468888, 0.13337585882561673, 0.3468328860946332, 0.07546772553693422, 0.08705643793388003, 0.12601129291025928, 0.21199133244160215, 0.007537637615473051, 0.006721019578770493, -0.23996957598760735, -0.14469576209531831, 0.031298577047256436, 0.05070167561494231, 0.18560136670340077, 0.005234212742539056, -0.04471070006909695, -0.0188754086038903, 0.006798117030561894, 0.005221115541165213, 0.01731311135981323, 0.004256896826239752, -0.005818188451637494, -0.005778040884126857, -0.0056799804182735975, 0.04406600698083514, 0.13395799171587025, 0.037122794529621916, 0.1555258537178975, 0.050805767505133236, 0.09926184826593587, 0.4521896848544285, 0.27018435767668536, 0.3722240366902275, 0.29987570239212835, 0.08065139415844647, -0.026029968424013415, 0.10738399007409623, -0.12713702741459462, -0.046492779995115155, 0.13231625470399708, 0.23956733390628818, 0.2241756179316821, 0.09883386045720097, -0.035105523046670105, 0.06595744028558641, 0.04385881629566064, -0.006536551207502036, 1.6411121864233293e-05, -0.006963838320935447, -0.007847416468701428, 0.011333772275143515, -0.002108846574334241, 0.05178215164269227, 0.10188286822201942, 0.04088285902583605, -0.0606886617359454, 0.06839873627916687, 0.08083627971701239, 0.06565431320789494, 0.08306272209508347, 0.1842882725691929, 0.14992831890262595, 0.11034136797737552, 0.013234296174028519, 0.0822032891353976, 0.05466660789685325, 0.15332655282337596, 0.21673718693377575, 0.109397822056524, 0.15347993917183952, 0.298276700828217, 0.2370113109302746, 0.12813292875836907, 0.04132478797492944, 0.031265636601757955, 0.005183059889494987, -0.013037903422195683, -0.006666985479909337, -0.008927526484409566, 0.0015497440115835174, 0.1791768152653704, 0.14790663159612372, -0.10991804428714398, -0.12477218984463175, -0.008291292549863926, -0.08048704212239557, 0.047415910479107225, 0.06709025513044496, 0.06635645706239691, 0.05875808149985031, 0.20855144506299217, -0.0940729954892276, 0.09065939579498061, 0.053378556312336324, 0.0005479255169987999, 0.03158707602187793, 0.06009450187737962, 0.09179213103133772, 0.28547424869775795, 0.13896634502101687, 0.039439073370763224, -0.01004442879624193, 0.03382747501949535, -0.002942801403832178, -0.0010080221490072927, 0.016214229827249564, 0.004258751226356639, 0.05783648594982529, 0.13335963737218304, -0.0027504255588197183, 0.04548345770095362, -0.030655076477845992, -0.13363795575333468, 0.10514004856006981, 0.06757944832971681, -0.007243903984925555, 0.05171065486147326, 0.3272339825117668, 0.217262897814602, 0.15082522895161415, 0.0871833349666854, -0.03328823341487754, -0.002586237556289128, -0.0062987417152218835, 0.04469941366583019, 0.04551103395012193, 0.2174422491376632, 0.08919317748816365, -0.011007225525061747, 0.0915150510775153, 0.13575071949161852, -0.015607659147495224, 0.0049987606568442, -0.006152297529718314, -0.03716023073914293, 0.0364428294733257, 0.05096547422037451, 0.04699062107815255, 0.0647573305209082, -0.03970374947202916, 0.1100218239805545, 0.22949150944231364, 0.15392486098494212, -0.03567590201486526, 0.022402152407820373, 0.12181934087076907, 0.4132635972888928, 0.4747338510663776, 0.37131356298383095, 0.3102036030917492, 0.08169678102693714, 0.12327549836931084, 0.04462628285133824, 0.03746093473627742, 0.06896797185849077, 0.07962232162677664, 0.02382872147798747, 0.1576857270041424, 0.08674639541243163, -0.0010609783901078074, 0.006815052876292293, 0.009597737906762193, -0.027824421320952412, -0.024007267003214327, 0.05570415361366057, 0.07784115986856144, 0.06101535572141258, -0.020146191715936058, 0.1980914828782223, 0.26941701611209873, 0.1529455270236778, -0.022795939595458503, -0.03795112088306856, 0.21335519257025606, 0.35622192483642445, 0.2784680936366156, 0.49512782878177247, 0.2299030487449678, 0.26420376225218206, -0.07533749110687568, -0.0591135483878937, 0.02822538049708644, 0.011828112992699485, 0.06469487695886048, -0.008789672313119083, 0.0798701834542834, 0.015047030935402881, 0.007099685216098947, -0.002983973697866769, 0.0028786188716303407, -0.026662836156988355, -0.04262032959970657, 0.10075417280424283, 0.1669996745968434, -0.01497193673287108, 0.009831136207204856, 0.061225312191555366, 0.04740174269246265, -0.042760537955404694, -0.013035948140222058, 0.28171408247032315, 0.41426885664764984, 0.3256898202733244, 0.19213501254015666, 0.3895393302184287, 0.11750007500093496, 0.26952016600858103, -0.1742199821654152, -0.05091155022542718, -0.008698801392070065, -0.19030992885988493, 0.03151395524821299, 0.06217421643261673, 0.021397492279110784, -0.002032146519972595, 0.023953846251133858, 0.010601333107869395, 0.0022526441744752496, -0.013677899485522822, 0.00577971180815039, 0.08213749946670838, 0.08846300289130898, 0.13859937261540295, 0.13738400078651125, 0.05553793983517348, 0.07416425341298466, 0.02401136506164218, 0.17976464248319246, 0.01784962548219388, 0.42200706510656283, 0.24002599941008723, 0.21462921739956875, 0.2677022975449922, 0.0026488194331886813, 0.07870744357926898, -0.20432954543399792, 0.03983733562127727, -0.05392025948618895, -0.1836722950541283, 0.03679075085380551, 0.02555765207033104, 0.02413876488839445, 0.020561042958107515, -0.0025035031592154796, -0.012609800992442152, -0.005970352030755396, 0.02349089844854917, -0.0021142506487371415, 0.009430188885407519, 0.056942964298557226, 0.22948389846687192, 0.24598218776078032, 0.2611773504089009, 0.2274653888521147, 0.20951915355323208, 0.1301574302052409, 0.10677670907075971, 0.17685414335911104, 0.08709275390038457, 0.0314404592126545, -0.028271115878688437, -0.028817961550962647, 0.08923276537598518, -0.13768836614308233, 0.022697557229651274, -0.0565624563885346, -0.07969324577428075, -0.03817225366016098, -0.025424360350858457, 0.0005017100651056379, -0.011658523808969038, 0.01184222458453992, -0.003974772953010205, 4.235727871290684e-05, 0.02509072322617364, -0.0020176842126368015, -0.058300554270720936, 0.0403138831147576, 0.17288186874576883, 0.15371036027366758, 0.3484687210057958, 0.35814784760288243, 0.22643336101977737, 0.17994524220461067, -0.12289321666027572, 0.13423475682139444, 0.060108456139648, -0.1559107129551505, -0.2417515882380734, 0.14483024079618464, -0.05827341663032862, -0.18748545106786058, -0.06266490126817753, -0.025717516027367535, -0.04895556473507806, -0.008961004998132585, -0.005574113456036188, 0.0300825548169752, 0.009115412768762373, 0.0018420567932220517, 0.006842925759310614, -0.00032383215418246993, 0.02247481975866989, 0.026163870019947768, -0.012593078498569247, -0.011886436022070753, 0.0951057357045266, 0.0445910175648004, 0.1308152450881221, 0.15350289885109455, 0.08318335672593923, 0.030135029886382, -0.20278637871795077, -0.08409476980757484, -0.11330543169643771, -0.2428695822360055, -0.015587015691116278, 0.04207411593971783, -0.14228548595577248, 0.07465945735385288, -0.039456026938240046, 0.059725440613704876, -0.08376273516641125, -0.07379045597765982, -0.03354840981987045, 0.004954428629403202, 0.006315649332942694, 0.004643635130392836, 0.005439018241915288, 0.00834456928431386, -0.008724137210680695, -0.00889634884999453, -0.004847633740471738, -0.03616850923468574, 0.026499226228574608, -0.015561673516990743, 0.050658145604750675, 0.071356441235438, -0.09451211616575465, -0.402389179196856, -0.26079351098719716, -0.2979397181634011, -0.11790052871004796, -0.2443943981235288, 0.0007969276664999129, -0.015315435980051346, -0.05451571614485273, 0.0865547605165407, 0.07840697965139619, 0.0547996398059493, -0.11045520993408961, -0.1416811653493092, -0.09858537062837666, -0.005503929383619196, -0.0016712410009805914, 0.01673906365211252, -0.00983520144611712, -0.009841271274926513, -0.008348065073430586, -0.0008395376061472751, -0.04934539562527966, -0.08900093687384265, -0.05383381140210359, -0.01599404758407933, 0.06843724386425314, -0.057528966658002376, -0.28756300024847264, -0.26208128136095193, -0.16339642737128304, -0.27122010665582796, -0.05603629854232058, 0.0014691140057780639, 0.10555091905193334, -0.0004798412507124365, -0.07552931302837199, -0.04733574703517337, -0.15912046423171305, -0.06016398054378543, -0.05486663150501602, -0.07685265857754389, 0.016044827384754826, 0.005806354100977135, 0.004030095912661749, 0.007235528654818659, 0.003264139742194588, 0.008288971692277611, -0.018642305684806734, 0.009944013653371915, -0.04537132807767649, -0.052726571747793306, -0.05565169818315411, -0.09240768317041913, -0.19625142801121223, -0.23874023142098016, -0.21802411705507635, -0.15750929712156764, -0.18031446969430573, -0.14102321320139283, -0.13357169772284158, -0.1479469515371419, -0.1568083120538482, -0.28941941165486923, -0.13788485787164997, -0.259387655910475, -0.09283561430914312, -0.06501588242128697, 0.0330980333165704, 0.0111701408472746, -0.007682194922251561, 0.0029021075304753712, 0.0015223479343060178, 0.0032379955820564994, 0.009740847185097923, -0.008791564457719314, -0.003035157868319078, -0.011765227328915434, 0.006132389768015722, -0.015734287659386934, -0.048693939936116676, -0.053506974626006676, -0.10051724120021972, -0.13756646542005513, -0.19923968814335394, -0.17498345183999472, -0.20455822840613447, -0.2957883966964414, -0.3944956198513683, -0.28578885372015317, -0.2463549265070516, -0.20639957626217623, -0.14844592906798376, -0.12331539073524453, -0.11573671244872062, -0.09620880096385862, -0.043339864704074964, -0.010022021247787873, -0.005171105756771414, -0.009034478298058039, 0.0025038255214677096, 0.01908956368580751, -0.007249907191007297, -0.009796246903705664, 0.007390696279871946, 0.015834361262856523, -0.012544160707309942, -0.00770040350349332, 0.017115807068072635, -0.002638492489399002, -0.001193714337095129, -0.008541499255978214, 0.0030745629184531923, -0.026911975705707466, -0.011450310208608244, -0.007536353534839412, -0.06194588696980381, -0.022579790773712288, -0.007393585497760524, -0.013697982751889017, -0.01989436548149117, -3.4642510811404166e-05, 0.0036253552991800703, -0.022184089411628204, -0.03928620651050761, 0.011848381309521, -0.0005978640331546481, -0.0022099107410712892, -0.016078289819926213, -0.010552638728858735], [-0.01790906833739674, 0.005477194968175984, -0.00042124092456068, 0.0004761874906859994, 0.000283247982548504, -0.0025083899209569155, 0.01580413348720852, -0.009434221017041467, 0.0035684867869470857, 0.020765817869925762, -0.011302139948932251, 0.0020238780425722203, -0.012329321485665644, 0.008634128751882398, -0.0052650260166179986, -0.01016282915754931, -0.002882189948190095, 0.0009877494673419037, 0.0032306928323753504, -0.004042180402348709, 0.0065258140890058994, 0.007391975562201229, -0.009744122289627665, 0.0036023910514597123, 0.004264237811234815, -0.00013335669163419276, 0.011475304746718283, 0.001090437562372314, 0.008065308336682672, 0.003106633546255698, -0.0013363252310555876, 0.013063162339621117, -0.010771034050221855, -0.0014653847862251212, -0.001602907780195283, 0.0033409119943331065, -0.010756554013633656, 0.0028292780932112666, -0.007518549057507723, -0.007064273885226962, 0.0054935590849886536, 0.0020298036805186273, 0.008364232958633968, 0.00814273206738544, -0.0036412891560628135, -0.002328029448361863, 0.0008291675345373041, 0.020928058440572953, 0.004105353720445156, 0.008362773052239508, -0.0021185521872619504, -0.009233549866274744, 0.010197598218009732, 0.009499464466009452, 0.0010334799723485237, 0.00023804600481552732, -0.00024381634921585553, -0.0029989184786581614, 0.006952516666753736, 0.007591281917772668, 0.006733286768530091, -0.004432580876929517, 0.0014464254855010232, -0.010555567200205762, -0.003761775176461955, 0.0060733768929727245, -0.015694376889911113, -0.015837776782744006, -0.014752332495445252, -0.025455696678569187, -0.0359694497396788, -0.02580378617940917, -0.022248609697374706, -0.018973523045799003, 0.05032137871536568, 0.021268206300319174, 0.004716456428452497, -0.016377442174276093, 0.004219593509753267, 0.01352626573160101, -0.007606731169740975, -0.006078514591397451, -0.002039284723921923, -0.0029327922738719677, 0.01257747434890101, -0.001444576937556644, 0.01680526752579986, -0.015820526015109117, -0.01616520603912837, 0.00861057982705995, -0.004607964344712982, 0.005686974215431077, -0.0336623744489587, -0.03804479834221137, 0.022797884534033634, -0.10559770797264466, -0.1561666879268943, -0.10875950774087095, 0.014406362608978764, 0.004651736246158722, -0.049665148453952146, 0.0003660893364018891, -0.08361144969018373, -0.0002236725836222626, -0.022209089276410077, -0.023768289581346046, -0.03574232050940731, -0.04533548970446199, 0.0016244291906825103, 0.003371211697954575, -0.006314663266942097, -0.009172682081508423, -0.0055337626131549056, -0.008291299448772558, -0.0010430236767427728, -0.0011166338782558122, 0.016333106766878578, -0.00966425623291979, -0.006877037958329231, -0.029619881993446475, -0.06677456655133696, -0.07339581788986113, -0.038607666332803, 0.03506403606691291, -0.09317036172574547, -0.1904062480869585, -0.025393291639636374, 0.09909768861605536, -0.016860171799876617, 0.01033813592197561, 0.16308529686875992, 0.02485548680900172, -0.04318041783506177, 0.027461894977142277, 0.0912286860981007, 0.08122234385707072, 0.08682068998263474, 0.029982715475240795, -0.01011114566279742, 0.0020218169852621224, -0.005671433259803092, 0.0030077172291270863, 0.003660482351849775, 0.0013502954345608754, 0.006189041770788985, 0.0013006637694775913, -0.005475036615227118, -0.1104025854267211, -0.000851831301534168, 0.07439938752143446, 0.1519802569872022, 0.23057532942711795, -0.01941434020490931, 0.11507456507438264, 0.0015280413070419925, -0.14762624519573134, 0.04148224309212491, 0.13428178859316328, 0.215740638972889, 0.046546614747040256, 0.06918405347092034, 0.01876361603449762, 0.05257497511384031, 0.15566089844373093, 0.023799267442016363, 0.03010126617854648, 0.006379905236078681, -0.007979113830919366, -0.00022555785287031689, -0.021435161484989765, 0.00042590377246227345, 0.012271483028829334, 0.01316034684390377, 0.08880236689431331, 0.09140983298800436, 0.003485989554520633, 0.16396254267577098, 0.21643380687986447, 0.24771608633951397, -0.021113896705573953, -0.04703707711515132, 0.08980270281777404, 0.04388338165808691, -0.18299360040801663, 0.061753421473339884, 0.13665678129009795, 0.11839923287417209, 0.009415428717019133, 0.0710608265303495, 0.23141858930785753, 0.127800075550949, 0.11290618590743068, 0.0800140168093779, 0.04675167978432393, 0.02936715191256597, 0.004187848733842904, 0.0024502305008473504, 0.0029649462001125537, 0.01772962599154637, 0.030083640146115583, -0.03792305522420589, 0.043113660465149424, 0.1485284982752293, 0.16902886178459972, 0.2062400856214503, 0.1387220870504257, 0.15834026919781974, 0.05108318653900386, 0.1765437898984636, 0.1591220420493093, 0.21544216964900154, -0.16319297683940426, 0.019338926390183538, 0.12630713448682662, -0.012972194265432602, 0.0997895549460113, 0.07731474080815902, 0.016154695775836014, -0.06368749747530648, 0.06276881829371661, 0.06102944870934618, 0.032606272131998404, -0.018205422777768012, 0.011207155420035027, -0.004421625492459723, -0.011347139956746358, -0.0035992857556426568, -0.025108646278964444, -0.06333159600493961, 0.08247036056923378, -0.02672997248206643, -0.05804982215750088, 0.09249499948535769, 0.10034259254442666, -0.010135142788294003, -0.017213175121587584, -0.12377489587810732, -0.04978805664243159, 0.1724987638635324, -0.04665072694298696, -0.0492395652636971, -0.0019773533735669407, 0.15216374659130683, 0.07553106845806021, -0.09547672836663909, -0.009304959416055502, -0.06971058823349849, 0.02289173582679526, -3.5793450370579075e-05, 0.03142830041771535, -0.023016982711728654, -0.010680311593676531, 0.006727316711747812, -0.007193307237142003, 0.010667307403839721, 0.006719958746113267, 0.013381512350985749, 0.09746852798061942, 0.0873189633145808, 0.07030527156623165, 0.01744954937166496, 0.07328509611116826, 0.07905005813847168, -0.04790474118315973, 0.21461381941382893, 0.16717622437274207, -0.09520901705247241, -0.1319629691256026, -0.11310129582607209, 0.004621629108348642, 0.0705184650063296, -0.20313812976146375, -0.03867280341434722, 0.11953183137084289, 0.021385821059974528, -0.033622411137046525, 0.051447493698549604, 0.046411085379570366, 0.019876545951190087, 0.014707156926485264, -0.0030731914506217546, 0.0031043100169299955, 0.016940078673548332, 0.0093345138639885, -0.07467866763445376, 0.08381056820324082, 0.20793708998574406, 0.11967340132523825, 0.06298122247440258, -0.12127334894885519, -0.02983057070202824, 0.07463341415920731, 0.08295971684389646, 0.012254710966596454, -0.21995076248696865, -0.20733159489114436, -0.18729307192037398, -0.10321886724219269, 0.023783013874151826, -0.20304823439306954, -0.001989065150819125, 0.1853485012506666, 0.04567425724887304, -0.08712786556547918, 0.03405694968821264, 0.0535750886594021, 0.007743353111260018, 0.003645110633911914, 0.0007740589705928206, 0.0038289279928870514, 0.002281856231271142, -0.049348274567728306, -0.09604517284507384, -0.03297323108696301, 0.193443888449554, 0.13017729063352412, -0.055269381308411795, -0.17841322882024763, 0.09576095882990694, 0.06677048000086855, -0.07380627745105821, -0.06653372247574904, -0.2290502534316307, -0.2564662110735441, -0.21659766777580194, -0.00530489489559805, 0.13930787926834737, -0.10101879978465175, -0.06008525472582241, -0.05876255525774165, 0.07109809049840136, 0.08127011811833712, -0.02745605497452911, 0.031535834946738006, 0.0261270324356102, -0.016602820083549113, -0.0009705971224987357, 0.013408332302104706, 0.007681660992615558, -0.051704364138907916, -0.04685795321617866, -0.1110663564106819, 0.0028577233476136245, 0.0669712877482663, 0.12991275042459396, -0.08368028348545062, 0.12246644177237515, -0.003289438886875067, -0.10228259703149042, -0.19900475872622955, -0.2799706213741665, -0.34955997231500946, -0.208654283121992, -0.2231472602959731, 0.03041889818156919, 0.007255083421397056, 0.054814184659190114, 0.005633847706530534, 0.16125406385770982, 0.1197799776273314, -0.06773425891441565, -0.0055102316637205126, 0.00753469275856793, 0.0032621641975313772, -0.009510526996877036, -0.006769386135040824, 0.0021273349807127747, -0.03797479175175488, 0.014707676020197338, 0.014280983317426419, -0.032909407455685526, 0.009394827549745936, -0.02083320104437056, -0.11530486222708591, 0.12898816705369462, -0.09101817885920789, -0.042628520218952255, -0.10241068326500836, 0.07136728645997903, -0.168800962405072, -0.1322148724048365, -0.06661448182669014, -0.11800917612918294, 0.02426417883107553, 0.16647505826511488, 0.13522129127280377, 0.10056986287210935, 0.0865947967404741, -0.01087656713416213, -0.018248207595406317, -0.0020817895031173604, -0.017618529182035714, -0.006085594497174231, -0.002630777564847311, 0.011035176951534536, -0.01372940999180455, 0.07219609960918046, -0.0049535690381260775, 0.03861565484709842, 0.14740617367374614, -0.08626325168847158, -0.21999073267744262, -0.164224033321408, -0.2137566795079963, 0.02877933989307304, -0.002746496922395976, 0.026433009617474346, -0.014616704138442047, -0.21982351910996575, -0.31552668030531583, -0.10776470549902449, -0.0860971131680569, 0.2860082424474801, 0.1609739198969243, 0.135936859472659, 0.15067025015618182, 0.03956843595950097, -0.07300818289260941, 0.006060467122448737, -0.013781714836904876, -0.000573463435247784, 0.00906659250090045, -0.008698008982399696, -0.014619874486883518, 0.08724049543541584, 0.042695092994301326, -0.0219180751050329, -0.09737820701309001, -0.17186223713820087, -0.15392137785816087, 0.09191035841621081, 0.09313319249335617, 0.07291592172019148, -0.00815964438078832, -0.10872518565632466, -0.25422498515612385, -0.3257957875765205, -0.2570947697750359, -0.05352214229561203, -0.05791678872801467, 0.20777618540886975, 0.2912025874836009, 0.10091413396758768, 0.08014555208844773, 0.04743375960884837, -0.08638251602164493, 0.008866484074665705, 0.004774859013511232, -0.00889124007087971, 0.0057287023601073845, 0.0002171157401447023, -0.010863620243255247, 0.03334073182924836, -0.09908971988170416, -0.25744438265189834, -0.27581339200860483, -0.4087918660306684, -0.270647131737634, -0.065592242201122, -0.08964373397157611, 0.1523059272613757, 0.10761841327330082, -0.13923387056234302, -0.31706438537543163, -0.3519907455113712, -0.19985260468876834, 0.04688676495777111, 0.0025190628639579888, 0.1077779043763349, 0.16766953281019825, 0.16779601311656706, -0.01283003264699096, 0.05483124113462226, -0.07086921005959433, -0.002932779273401501, 0.01030551264033214, -0.007694031776632554, -0.026553699999644773, 0.003899510051360908, 0.0050266239458306786, -0.02955019049190658, -0.20927386773642176, -0.3111496613171878, -0.24218964641372975, -0.42329748088353675, -0.49845699447983294, -0.5355390310408341, -0.49882208627784297, -0.41267262283260137, -0.24516375856991615, -0.5746765058150723, -0.5156130703315908, -0.4286290406287976, 0.01698901843764019, 0.16555344363695798, 0.004921572137076336, 0.041938937250807745, -0.026544595762275188, -0.033754287263561125, -0.09339745976763962, 0.028821179042138656, -0.003422976823233957, 0.003771029092973366, 0.004964891203289065, 0.000327692114614035, -0.0043152790454487455, 0.014530751103036822, 0.01320388398327506, -0.03849339110606039, -0.2675625732722624, -0.21264667257445743, -0.20568089422730168, -0.3912797427310403, -0.46610847760459834, -0.5340580186219266, -0.6295065668899176, -0.7680128856803179, -0.8105403845573764, -0.7508845943572081, -0.3289903982059637, 0.11758547115565215, 0.26509617160338517, 0.10620611291596511, 0.12319247919311029, 0.01733534025658911, 0.00830824024635127, -0.0178389222050896, -0.13575545768262068, -0.035931794064212486, -6.688557657792427e-05, 0.010477840216077216, 0.009624300332158914, 0.003894508685429523, 0.0037499867672449714, -0.0008761144198060562, 0.004872112214847255, -0.08185709770397923, -0.142332517587282, -0.09788141696608729, -0.09238028585555488, -0.2002924321949925, -0.1331407007917185, -0.16616133747211592, -0.15727119222658886, 