{"sizes1": [784, 48, 35, 10], "biases1": [[[-0.5479354223765683], [0.7126107569031113], [1.7854399246210266], [0.6417873753820377], [0.6592980600988589], [-0.5445116371604356], [-0.032693658198607325], [-0.6088462505818684], [1.26139628369052], [-1.267281869343852], [-0.9029391883471442], [-0.19362814659947963], [0.3173798247808178], [-0.20941165752369204], [0.46865567479150466], [-1.1819028565205165], [-0.8277007497191942], [0.04662730025177679], [-1.2431667202296717], [2.4279401341422555], [1.039911244837128], [0.5362914913315392], [0.8407255651798573], [0.006466382494092988], [-2.0923686113088196], [-0.09966910536985431], [0.36364101516269043], [-0.15668422512490776], [0.20818042342686227], [0.9472267954117649], [0.16216734808291552], [-0.05899738655241422], [-0.6307432005805291], [0.12407018112210413], [-0.8579336751395862], [-0.5759076742045018], [0.07535082835640348], [-0.042754627930707084], [-1.5509350182101656], [0.5611270958015423], [0.9129788818862989], [0.33317121349991535], [0.9213059572086433], [-0.06095912153133569], [-0.1346058178645668], [-1.3670942042387098], [-0.24300729946956226], [-0.8837899433661386]], [[-0.02599151292438093], [0.8089140131268138], [1.066883335554692], [-0.16719385105810614], [0.08652329797686388], [1.451969065208359], [-0.8454637139356309], [-0.12791559629148452], [0.46304234864130606], [-0.68100394352251], [-1.3354854117232946], [0.7685541206041693], [-1.306245278781388], [0.07993980262258749], [-0.20643596076510085], [0.664815899458978], [-1.2724329478721252], [0.9571116388545868], [-0.6602965060145616], [-1.2978266767880882], [0.11107838592559989], [-0.011725751811619216], [-0.1855974807509375], [0.08271185310021088], [0.07933200957106613], [-1.9765905778892436], [-1.746649068864775], [-1.640833317732975], [-1.0792098097513645], [0.5210135122595803], [0.34697814349193673], [-0.38029538152472653], [1.0012335293461536], [0.7018500148113713], [0.3947201086758345]], [[-1.0473937047022037], [2.089159186969159], [0.04231392209984089], [0.8081338324885141], [1.9939294550318885], [1.259042719271425], [0.020357999774942202], [-0.8330571854441589], [0.8603824289918467], [0.5469453520819129]]], "weights1": [[[-0.018761224684396324, 0.017253046332179656, 0.0033736520541460487, -0.0022427643384102655, 0.0013875669779732655, -0.007004577427072694, 0.00139494724957374, -0.0012172808859369682, -0.006406490900232262, -0.0036625531643038746, 0.005053642575297298, 0.012247759399035696, 0.013118200727060195, 0.01114879553824642, 0.006544330499417949, -0.009609211796080456, -0.0032797126835468326, 0.00900797223102242, -0.006797999145959847, 0.008466039388381707, 0.009793300260491867, 0.005129786184715894, 0.010114406149259587, -0.0016134857481790081, -0.009097348631619954, -0.017594639420285905, -0.0025043284689451957, 0.0034524590476150423, -0.009645612655755394, 0.014812070381487026, -0.008241212229590312, -0.003372698396608388, -0.0030827112371348718, 0.006921045160865784, -0.0026160786518185605, -0.007712380976151559, 0.009473580562547646, -0.02029200272707558, 0.005868833512682386, 0.00723187557311719, -0.013025554812421576, -0.009445175464125558, 0.0034333181851027555, -0.01818748336981481, -0.00555148075116158, -0.002096710710597806, -0.009415627906114813, 0.010643134350415206, 0.010093599561349198, -0.007150102291309705, -0.0032454015632414753, 0.015917802357802, -0.004642318563210703, -0.0009455104878830498, -0.0029742336771939252, -0.0002043222634700408, 0.005300956418748708, -0.004648226775682775, 0.005018028836399925, 0.0039759011667300816, -0.007318911779338902, -0.01133418611156209, -0.011216774075015598, -0.009595614405590557, -0.0043983137405479815, -0.0018865772368329148, 0.0012762307083353881, 0.005312715374261644, 0.0044994419673903665, -0.01353888287021918, -0.014841643941337851, 0.0015845898553186258, -0.005192142615784065, -0.004655135768452459, 0.015814118088433506, 0.014804903437917849, -0.016690294291148735, 0.006699525096781015, -0.008029787821917751, -0.005101513883583073, 0.013399925898715585, -3.05507885005466e-05, 0.008798268111388714, -0.009408753939055589, 0.014705614460458072, -0.015654986762434514, 0.008675925433211714, -0.001584919745293396, 0.004796719144811405, 0.0013987027304545399, -0.012976015117865954, 0.008375317744045745, -0.002769530794919367, -0.0044935617959972005, 0.022861532037497377, -0.007202811887185796, 0.007609433612319952, 0.007927792332856303, 0.03056903039516023, 0.02156206063429536, 0.003250205454789531, -0.010692582389826887, -0.008043267693746156, 0.011710139220678494, 0.004982022828982176, -0.002025531154172703, -0.014276444592523268, -0.021660156845564563, -0.005416867135058521, 0.009624525085963424, -0.01881152014248884, -0.005914762673744689, -0.0012386127891985703, 0.010733601808831542, 0.00038358971047630484, -0.0016408928622196242, -0.0018830645292725859, -0.006390009564664254, -0.003173533805393003, -0.015574364097997302, 0.0006657200804219338, 0.011856321969328365, 0.019245269229723798, 0.02960146954877728, 0.012325572197698892, -0.018131840070968446, -0.018119253035304064, 0.021048420998676546, -0.006612555152527012, 0.014070388767470868, 0.02695384394508172, 0.020915070054394674, -0.006637024245084879, 0.03253325557807276, 0.026330664762257157, 0.018343227996362666, -0.001646561886690064, 0.023126669479717185, 0.008983265366790819, 0.009617484774124043, -0.016130428853360117, 0.004502061329852802, 0.007445761818603399, 0.0004982459766880254, 0.0023355102894758017, 0.004550111528749395, 0.030194482705425674, 0.004270302133990073, 0.005999298921709008, 0.05571085142743199, 0.006807929010222472, -0.07564664770065302, -0.07809063283465074, -0.06761244765506956, -0.005153464247016411, 0.04793439965505726, 0.05408523817601102, -0.009259133954465355, 0.023091736524653385, 0.02262567554897498, -0.011735033759955146, 0.02909239342094998, 0.016745830354716405, 0.018345013289479083, 0.007202500513427137, -0.011200251116434435, 0.001172706990058372, -0.0066572663007561815, 0.004891656737853143, -0.01367091890373916, -0.0074240528417040715, 0.019163964290462958, 0.011729915907553528, 0.04816552335196315, 0.03139080945242242, 0.017263862202079167, 0.048939423018077424, 0.022995673911107285, -0.05903779099256975, -0.08388430082870946, -0.03343332044144211, -0.0219088632643265, 0.008239180819456618, 0.0541237549980248, 0.010980967193508403, 0.03296990665395144, 0.08292446512296804, 0.029733228828343068, -0.03227780069979876, 0.006728542479688304, 0.013574947515066537, -0.0254907510838242, 0.01584363567855901, 0.005926877171811916, 0.010618245971842823, 0.012499296802114783, 0.00970293998951791, -0.020107555890914213, -0.010235864895281653, 0.0007984151850326719, -0.049759305108229006, 0.02860794982633057, 0.07712289132760373, 0.11948417114458333, 0.10259219218538713, 0.11077116205024165, 0.08982876763738823, -0.007530554433619592, 0.07881313568663512, 0.08904465322882457, -0.016251427705648355, -0.018080522337325607, 0.013287044186903628, 0.11141972157920357, 0.07534210851455386, 0.057264641617570486, -0.003037075713739245, -0.023391497930494592, 0.010986081083817063, -0.005409518953841973, 0.01419104673457923, -0.008318536250231495, -0.00857323420046745, -0.010409801242921221, -0.005535824518743468, -0.00671497163538755, 0.0018928890443202276, -0.013028937123992996, -0.015749668947815185, 0.055853561974084726, 0.03270455407799663, 0.08144667755839897, 0.08760298642851291, 0.06689010118595093, 0.08484360902671753, 0.03956171509179509, 0.10065830590568908, 0.06117399850272934, 0.009868694515479531, 0.1251734923648011, 0.0008367753204875135, -0.01868693464234849, 0.04201196359998784, -0.00703619396058461, -0.000489512974498609, -0.04264511931621267, 0.037587447312512345, 0.04094315721254619, 0.013452800549043801, -0.01309870152872821, 0.006949787664208994, -0.00341851969725077, 0.001875378973471923, -0.0008894748458592071, -0.02428617876806848, 0.008250153579249714, 0.011531578395994366, -0.013278195917855529, 0.0018620938592728486, 0.01030707588946883, 0.013103883959564928, 0.009654414245739977, 0.04611944925957393, 0.026508026529950372, 0.05565411882807808, 0.06886721609704075, 0.07135241950666206, 0.02009912187907463, 0.006085187419647213, -0.007218481754463756, -0.023117303125767794, -0.05783015726254676, -0.07545720480578873, -0.05245932110500854, -0.00507950910917098, -0.02324564810795761, -0.0026736776582996368, 0.004436803045747687, -0.006359585112647915, 0.0004955808511576521, 0.0011091812166408096, -0.018207608027900907, -0.0049465378215388595, -0.00966924750022085, 0.03161200178412551, -0.026424564752957375, 0.00036386073935895896, -0.06394082451969571, -0.0026218397133745803, 0.020233386874263435, 0.007477617411876032, 0.11967974217472152, 0.01055595343758193, 0.045873896084683397, 0.038240220943041726, 0.03494645793053651, 0.028879730115474397, 0.0032633020006255765, -0.07315796179711546, -0.08402398509537473, -0.08324897582895446, -0.05191724033971239, -0.05835099532944914, -0.05780332343915346, -0.029241025945452668, -0.0016085402182243259, -0.014536228843897395, -0.00033916158765067545, -0.004122475764390299, -0.009034943607749105, -0.0026706680155978687, -0.02002862301189468, -0.011103491475707054, -0.007754989977046409, -0.05202935345395877, -0.09589526678729673, -0.11146779116873252, -0.10522727502797524, -0.032556746979848, 0.023787574027965715, -0.06363447261089906, -0.057858374432861966, 0.0024566617708054526, 0.06651105437112956, 0.1025707851174945, 0.010715236736074102, -0.08268649353983533, -0.09142408598082048, -0.10246024783695777, -0.05773035776831845, -0.04704426655228981, -0.06940752067231315, -0.05886853441426361, -0.011933236757019738, -0.008244471778341204, 0.003709328996868756, -0.003915581302540652, 0.0023012761227182883, 0.0038854532421129955, -0.02528203625435731, -0.04025969035525166, -0.02060810519126761, -0.050332663597377224, -0.12276808711158681, -0.11805089433199209, -0.17002581820007814, -0.06446580159615138, -0.01713167739687886, 0.0028579120228881412, -0.023951368716364236, -0.03945243659581468, 0.03960572736541075, 0.1280171013457788, -0.010628190475595349, 0.029442257916492277, -0.046779375832281415, -0.03371623764655042, 0.015118430518809315, 0.005971951042296167, -0.053176935339879536, -0.07983358255914873, -0.02019191171203221, -0.029221117423324925, -0.0020070829297488308, 0.017510287772412494, -0.010945493110101607, -0.02148674473377006, -0.034855824797488964, -0.049103106992256576, -0.03694516572389391, -0.033150436421511366, -0.045529978146223005, -0.09042680977653991, -0.08346913244746393, -0.03652008038118641, -0.0406899811361105, 0.017196769548251722, -0.05980042656722718, -0.029869426651687087, 0.049812485180655515, 0.06731952907353671, 0.11352335917230578, 0.0605319127888175, -0.009139375200208182, 0.02636763739488181, 0.016482850648242484, -0.018648402480508208, -0.036092225620984436, -0.011858629088344943, -0.027828191034049998, -0.022841050412600795, -0.01307668656789983, -0.0027961522585180773, 0.0025089778784433804, 0.00422578546731483, -0.013371001663239106, -0.03398812971603265, -0.011853394011160761, -0.00787103544569982, -0.0493137066662904, -0.02511155680186379, 0.004783832331477702, 0.0475266086200274, 0.034125913974713575, 0.04263462623940787, -0.13445860132254786, -0.02402156702090371, -0.03657624584377203, -0.013213374951330212, 0.09118493165663223, 0.14077068196582768, 0.09449617885998673, 0.09000122264167412, 0.023405612417424546, 0.007378741285550324, 0.08504135589754758, 0.016916089874423168, 0.00808646162242187, 0.010927436139589648, -0.01712807395560552, 0.0029144330286606764, -0.004492444881897512, 0.013741520065499847, 0.010292881036591874, 0.020460048274331774, -0.009474613528207592, -0.006783289528642419, 0.026195968093896373, -0.015346354830562616, -0.016972326138938443, -0.006511233234530147, -0.005641443429513995, -0.12208936080079007, -0.13404645154920192, -0.06954752570944751, -0.00349691305245077, -0.022748796134893313, 0.04117369757112137, 0.07267667789214206, 0.031362935247306455, 0.035052164119054666, 0.0710266223111502, 0.06637801404369228, 0.07835885341765575, 0.03743355702266558, -0.012370805905422343, -0.001001924181187729, 0.0035728391725334653, -0.0017347998069823986, -0.0022296062873791945, -0.00807092066384217, 0.012506105727044697, 0.07429771731510591, 0.011709615066430965, 0.000626853932307064, 0.05038750746338469, -0.001553682512427998, 0.03220152395115748, 0.015372421529875837, 0.01163071806074954, -0.08134274355112082, -0.13445823396491302, -0.118755809671872, 0.0027932184771172325, -0.03208524848283365, -0.05352288276556296, 0.0035904742153859944, 0.03532337269944372, 0.009768486942462662, 0.07607577961751387, 0.06553210526030163, 0.07184356917284242, 0.062327347271890175, -0.0853469252092538, -0.03241739088719148, 0.005381751952280395, -0.005560423273010811, -0.0023440057574180342, 0.00221706914270926, 0.018140990531134063, 0.0417277328232893, 0.06412228428635364, 0.04616743905453855, 0.019744730415568727, 0.04746566801647602, 0.02602146744188148, 0.061679662901726, 0.0505781051405469, -0.06079812310428904, -0.11958612216082427, -0.09736544442890997, -0.06417747373768799, -0.06068869852872931, -0.05370690801313695, -0.05206026571925362, -0.04185746320507395, 0.007538014519500615, 0.0466643448751553, 0.009205776056444168, 0.01585741402647453, 0.00781594217982494, -0.06969577664093367, -0.013535429448173394, -0.00032057451739274736, -0.013965921867526746, -0.002616843568418551, -0.0013047683860084808, -0.013262588495839221, 0.02527524270517164, 0.02983203637471919, 0.00636113814497412, -0.026301015005961444, 0.03824594963763702, 0.03530916962238156, -0.0024118404877838213, -0.013574823370800352, -0.12701453469851626, -0.19347851558957518, -0.018107919730304487, -0.03154839421168557, -0.07604330651146018, 0.06364435404761996, -0.02290440269693859, -0.0027763691557599426, 0.09205173732370928, 0.07824085220871134, 0.05890414302659265, 0.010493745384031692, 0.007516049732277632, -0.02816784830009956, 0.009195298568517994, 0.007060360682095782, 0.01092927296370009, 0.004658839413259468, -0.018938649124925017, -0.005937424149135741, 0.00024691038685187457, -0.004983901363334284, 0.022359777182873505, -0.05749163628899478, 0.047597237908671465, 0.06914528782540522, 0.0039632693728751675, 0.0013285331895389982, -0.036265856104699803, -0.029208093415646782, 0.10905885442474542, 0.04870234990541065, -0.028946820485823595, 0.09095512485993586, -0.0009304947130369494, 0.018835623612665216, 0.033932743690555836, 0.05006351099392165, -0.01765268243572825, -0.03744926952779287, 0.030774933561511803, -0.001482148041867681, -0.007575561973063894, -0.01181915961617325, -0.003989559034124129, 0.01625571999869413, -0.012837636056701757, 0.002382077786848356, -0.04160692947427871, -0.006667244045903298, -0.021095733454191003, -0.01927543846887901, 0.015166795184685835, 0.08219040675226257, 0.02550267713521436, -0.12090370027439784, -0.1412090075256032, 0.017819749871350245, 0.12293207410204715, 0.040988747934583465, 0.020300658309005647, 0.03891936579423401, -0.028920308135104406, -0.0011727413260496746, 0.011130518150767326, -0.050134572251939645, -0.05430403256050467, -0.053995583313177546, 0.012757429743057462, 0.0010549844985993761, 0.006935401138935603, -0.0007346593457622421, 0.0002833502012680328, 0.009034437477018207, -0.009889419428107853, -0.013113306282052338, -0.018925872842902376, -0.030457287891031515, -0.06639910134625658, -0.047153200128920686, -0.003486613769012422, -0.03060836881275516, -0.033457147198035324, -0.07191932829135983, -0.04648085378202064, 0.029791606381817055, 0.04600494532322645, 0.08326727859595533, 0.09772690561294343, 0.047873664883213665, -0.0419706045375708, 0.0423309886133799, -0.036169529610946355, -0.048124895174724056, -0.0663905556078826, -0.03875417128949964, -0.006610601311628692, 0.009806206714385063, 0.010445000714135491, 0.006124925170402407, -0.015792902017873867, 0.012813427147523765, -0.0003892281000749718, -0.01079559636852497, -0.06139512654428623, -0.05683399151542119, -0.0693418703564632, -0.040253555654201266, -0.04433080750366857, -0.06368935265824334, -0.07732335377753834, -0.09256775951807684, 0.023186068433158156, 0.05817671346857975, 0.023970571768066745, 0.07377209350382594, 0.12396242046406143, 0.024555492462547377, -0.0033764226872905656, 0.02142206897404573, -0.0706357186567348, -0.11932635289293429, -0.07569417002100326, -0.030491504067103516, -0.00821353349416299, -0.0003203816355359319, -0.0020242771476205877, -0.008244970961524095, -0.016112362109340563, 0.01835207889215323, -0.005822273571561417, -0.016884718347511776, -0.0011723349742047498, -0.041097562888790844, -0.022343699239034356, -0.036348779023681305, -0.05455801644725789, -0.04985047354694461, -0.07125050670007788, -0.016481727529261487, 0.0796423448030985, 0.08152579481137519, -0.018993817883656366, -0.020584346914281054, 0.04714812950346972, 0.0019350372238135822, 0.0007611477066256629, 0.017405425361083145, -0.04805656625927669, -0.06245132908063367, -0.03638357187189189, -0.024629996922736132, -0.004161229955106494, -0.006687672109783382, -0.01677436630069828, -0.014993249150348264, -0.0068377154095931435, -0.004514680532953506, 0.008133491301747987, -0.0032904171552833195, -0.027449521951225523, -0.019843311068726825, -0.03846213158238244, -0.021910040574076847, -0.07998414544287266, -0.11945941013739701, -0.10156989171502225, -0.002991839247345392, 0.03244481274116993, 0.07396774065551256, -0.06059054787636645, 0.0010048526400204105, 0.031012084682101978, 0.03353370818240259, -0.011264238566521671, 0.022803041764314903, 0.005533139913834415, -0.009148745965907572, -0.024773468853273663, -0.015614265406005986, -0.004554978509731157, -0.004822836268898652, -0.006452020305721323, -0.004545886317537812, 0.010207264671159509, 0.005203929292142737, 0.006281234709831044, 0.010007141909102077, 0.011719283848143077, 0.0004946786843118938, -0.016794171812239574, -0.01962234741352924, -0.013226810215067036, -0.03155009851776256, -0.024158468400265306, 0.05585518427742091, 0.05889889928381861, 0.021654863203356484, -0.009925624492118965, 0.039636535514202514, 0.06499355531909903, -0.04257037559573561, 0.025074533573266215, 0.02810229613306436, -0.019161966887613006, -0.008677686699878511, 0.011441380862143129, 0.011988744567236309, 0.00901938610370858, 0.005748546323843727, -0.009074283292398757, 0.015654808790427233, -0.007731480116502586, -0.003343548766041209, -0.0006873039072121301, 0.008222848454647198, -0.0004734958813030827, -0.0067855015166159, -0.0037759321193255764, 0.01105977330703916, -0.00431550122166831, -0.014241823618311259, 0.011597506476246432, 0.005642932712774227, -0.01915571356232735, -0.0030055755322212882, -0.04995049879833379, 0.012726263369594579, 0.03887925446693664, -0.035090410649680395, 0.02621847321036011, 0.01372216315072418, 0.006354713870582565, -0.0021163571208453642, -0.0053681012394664164, -0.0022813306793808713, -0.002999516978084514, -0.0073427530988946195, -0.009010571135389394, 0.005822827992940646, 0.0037182809551603944, 0.01026164776762933, -0.003911271385899372, 0.0022775525959970256, -0.000503530289472714, 0.003108266021983794, 0.0016946719710563417, 0.01136694720551349, 0.005213083213675064, 0.003818909529886603, 0.015472721069292667, 0.022680320199467016, -0.007736949208364881, 0.00604206155318001, -0.0032042069363242814, 0.0008304711376737284, -0.013420156541827077, -0.010333149622230501, -0.005937601887267223, -0.006373749016085104, -0.011341924284412015, 0.003909109082005555, 0.0038995852150884316, 0.00344965838984053, -0.011502573144575543, -0.005378136105679557, 0.006710894617606536, -0.0005937268482592234], [-0.006123251298695888, 0.010944876380052992, -0.0040788616289594145, -0.00023649773828243563, -0.0002076512550342665, 0.002411001590657327, 0.0080151286918729, 0.001072761327285753, 0.007044181954620666, -0.004888669489040194, -0.002081353622903551, -0.004892140463644726, 0.01193593264440467, 0.0006641422069399172, -0.0032001090314054455, -0.0027287266338304303, 0.020840351119686688, -0.0005041472375890357, 0.004069565586793288, -0.0029017693434631275, -0.0003704826909674274, -0.011802144428653292, -0.008898989217228955, 4.877754294559732e-05, 0.005561315099598451, 0.013294576748351673, -0.009618953714348873, -0.004406762357170401, -0.0018324071481596806, 0.011338456325850762, -0.005999919448980458, 0.008818908836205498, 0.014775856664746569, 0.005609922515602557, -0.010950964798080078, -0.016996116437545023, -0.018587375607786307, -0.0006124334380848156, -0.011613264102177867, -0.013361043029079507, -0.018612662899086873, 0.00453019001633957, -0.013460310618568415, -0.004605471950696502, -0.01693762235144122, -0.020014924948413056, -0.026900240377300006, -0.03534774526413095, -0.020406058066515513, -0.01874051651518398, -0.017727530044038042, -0.010928877388201828, 0.0008527257555504584, -0.001390631399600822, 0.0015475480521007438, -0.005319915603262317, 0.0002204683592969582, -0.0011010979564416994, -0.005750341433288753, 0.001010110232368056, 0.015033280003091168, -0.0016170367793793313, -0.003679185269857024, -0.002822231579047235, -0.03475590830757175, -0.03639089263906287, -0.03444411804915311, -0.04808131210805504, -0.045455524336405456, -0.05745077120005717, -0.04590473668425296, -0.04343067902460609, -0.04869642006591973, -0.05973455928123746, -0.05784302383309596, -0.05240267925056558, -0.03270892550053182, -0.044240138947393114, -0.020865163808104527, -0.01693789091577591, -0.009477723170049624, 0.01080382323704482, 0.0015273556601996443, 0.009154605434280413, -0.0048655414485767375, 0.0030598430901263426, -0.0028595511878599256, 0.0019373442870946477, 0.015129703592616221, -0.025886930613754217, -0.042852834812337266, -0.04526458732240856, -0.02046982584302328, -0.03356882521277337, -0.01565774768881053, -0.028282211061684055, -0.025138672318109876, -0.07392428664493698, -0.03442267932112382, 0.023973216423730046, 0.019354404517537404, -0.02115158153905258, 0.016514081794227854, 0.006245629510758575, -0.030858797002746487, -0.04227743357518025, -0.05199447356411174, -0.047590490068907115, -0.04194085436890771, 0.02111571313298726, 0.006487281974752369, -0.014764546028572233, -0.0026771897493854157, -0.017148543045397736, 0.008608009869954669, 0.009142970791191706, -0.008876024725544688, 0.011344677838285116, -0.04078009047575336, -0.06598441437459787, -0.031827308311035946, -0.01793203105091168, -0.0017084991197769072, 0.02965799766088056, 0.02187218400947534, -0.033171786451722314, 0.029694445522403714, 0.030677099885347416, -0.005807119068705354, -0.04123703731516067, -0.018005030565300815, -0.07758699811735753, -0.06268012187760383, -0.08421995311946763, -0.04650310851356239, 0.045468255118851754, 0.053122416298514094, 0.04662249500968397, 0.01331287335596129, -0.0042844818465641536, 0.005084474521243475, -0.008941957457814977, -0.006005496959189133, 0.00371115019337597, -0.01852277949810792, -0.006945139177333769, -0.048567735947666654, -0.04523777852536737, -0.0434678564671727, -0.02200721062225277, -0.05471845139488423, -0.012419103197968247, -0.007110988867891708, 0.005562686476367858, -0.006607282690222146, 0.03024587556522327, -0.016063996131456208, -0.028150637681841808, -0.026435767561804876, -0.04434765179627593, 0.03639109275069671, -0.001512547876404132, 0.06047235259793751, 0.030094302505095826, -0.006911037001924867, -0.010264272279925764, -0.023004693966198773, -0.022409672313122967, -0.004283270147279108, -0.012767542961226704, 0.014297605555699967, -0.001019450503152473, -0.014385095658033446, 0.004222439799021867, -0.04200587995035395, -0.027942800997324657, -0.007879518318089118, 0.0008478969840040079, 0.06499084960320865, 0.0023974875658778656, 0.04485587250638447, -0.00675995756825961, 0.006876089605982429, 0.07586144087278256, 0.008100377600476494, -0.01097747091756791, 0.0417779073405706, 0.025020997448423312, 0.018640740302107568, 0.07170592242004664, -0.019352064312121817, 0.0635318094368806, -0.00867729383385874, -0.007631064112759956, 0.022313252749730603, -0.0012146621289026065, 0.007747576382796374, 0.006226096201667915, 0.013111679326998114, 0.0019414104681585896, -0.025274996408226558, -0.016489614313092104, -0.020390458991946005, -0.052009186595134434, 0.012962081656964285, 0.015718760231656418, 0.03991984875730032, 0.02402658041878642, 0.08449231164883009, -0.016273384444099866, 0.03290354368759619, 0.015406284909455784, 0.029234840164343443, 0.011505230613162564, 0.007953466157401654, 0.002412596648081804, 0.06841991427627268, 0.08121638105813427, 0.006800934579515568, 0.046741587193825575, 0.027929213458462825, 0.005549103469399121, 0.031569419709384684, -0.010169102999039517, -0.0057159320465377935, -0.003841510537128133, -0.00497555789425283, 0.0006196814086864955, -0.017172319565701987, -0.028532126133427968, -0.06864163490744826, -0.09145794499972702, -0.07072837904328942, -0.02013612022902022, -0.043994227133295774, 0.010225791314008002, -0.022462858822708428, -0.019975214959431133, 0.03929429937211567, 0.11778860693931899, 0.1366046650931983, 0.011864365033094224, 0.10890607059425336, 0.04087626560107925, 0.0663108407621953, 0.002246153191936483, 0.04077417726345142, 0.08608223181706308, 0.09532980797481064, 0.058738553824938214, 0.017331532048832247, -0.013172451675785195, 0.005382555005915399, 0.004438274860569106, -0.01430667866096844, -0.002693642839157097, -0.04133186525376035, -0.04371833870369977, -0.06450200685540017, -0.09298158828515174, 0.029806435059594613, -0.05482260185724766, -0.06696293327782986, 0.028058133733559955, -0.02944111544342484, -0.0823072565834728, -0.023502847902806632, 0.029210991985570735, 0.025756771404383923, 0.10292658036737898, 0.09864601359449685, 0.07451662849497694, 0.02935970376799647, 0.007350064288730764, 0.07536238178832054, 0.08478488599113843, 0.09374607762189033, 0.051038091838205894, 0.033743824929064185, -0.003745095732571899, -0.012694180815498632, -0.0012017701791550747, -0.013467823702872049, -0.005752843875544007, -0.07026255703646216, -0.06224711574161265, -0.06682117759895777, -0.01717245611596492, 0.018450214177085388, -0.0930329686132165, -0.03309697561711282, 0.006238670483943052, -0.07255863965987619, -0.01917256653520031, 0.00010845860950628977, -0.030258369754101188, -0.03550710041761965, -0.02450584015739258, 0.08916074537213345, 0.12355008628637336, 0.054154188044440776, -0.06516154177432754, -0.001148988281479062, 0.03394961934800346, 0.019477914856226523, 0.034233764438359446, 0.019035447841013027, 0.00497786867104263, -0.0009264442366337547, -0.008661858951811839, -0.014235178316555247, -0.021469336021465356, -0.02912914078886582, -0.06459817731313673, -0.06566211245399126, -0.09198084301935988, -0.05460532469064308, -0.08980621024614585, -0.02962736029866317, -0.009027272609926315, -0.02485819596169361, 0.002295019200026813, 0.029696406970435386, -0.008569967046981495, -0.09386371060136367, -0.017164024197435724, 0.06275041934702529, 0.1121427013368817, -0.007461228063472788, -0.048358307868942546, 0.010028752584959989, -0.037510949849786, -0.08207465111785651, -0.01547508652211177, 0.01708281974616485, -0.017073662358142824, -0.009598716848461582, -0.0018038022921065735, -0.003359664310838268, -0.025812109100426743, -0.052155272575586026, -0.07820156826867872, -0.06855332086607238, -0.09581271636641009, -0.09083214200296946, -0.04548950772956067, 0.03623997194411514, -0.044923703541676054, 0.09718369008947368, 0.11010072684343077, 0.08206874070724723, -0.04877350713510913, -0.12615793933401906, 0.00651623892949643, 0.04556284835828912, 0.1427238512832994, 0.018482371803013237, -0.04240578639513071, -0.02163949591710035, -0.1011993703030856, -0.11220581395432574, -0.017678280301161572, 0.011739146271709565, 0.005162324677650982, -0.0007497246170001342, 0.0020911706444713507, -0.006233253979053346, 0.0040653508439835034, -0.041152516856387024, -0.07439293151982415, -0.054245357936315075, -0.02906600969055269, -0.008808463257174165, -0.06647192125895389, -0.08050149667031418, 0.007927141980802214, 0.06275400057056843, 0.05691734404703814, 0.10165472011593199, -0.022861992132866406, -0.06601754919383891, 0.029247070404263876, 0.015893091516759505, 0.06255762296053821, 0.04276849402124591, -0.09162528697382004, -0.07862598136829525, -0.09847434893192332, -0.11438391953656257, -0.019713993933051253, 0.019927311385646823, 0.002846057495471771, -0.00038614728969020156, 0.0014927352928744717, -0.02064181052781223, -0.023148747867816212, -0.007886057181835967, -0.05275301244019792, -0.026996590510786896, 0.05434352928355875, 0.05069765831177167, -0.052570281988331455, -0.09489260616581725, -0.11537326046574833, -0.13577756869455818, 0.0015381355186505673, -0.0073229683572907205, -0.024982034025841465, -0.07833766404816614, 0.02738747636381772, -0.06916968699732322, -0.06150626681655397, 0.027749379009900293, -0.11065302035619543, -0.08770707820076781, -0.09426830513349485, -0.037648945698853895, 0.008159140526812403, 0.0072847891146313, -0.004810390527072966, 0.014932920739776017, -0.006637890710307414, -0.006673907464268747, -0.026020544134826042, 0.05022553395067606, 0.09371528723036217, 0.130047510238456, 0.09722568737582109, 0.13794855885094368, 0.042112611717129954, -0.017786346794187183, -0.092303130678957, -0.048785164310807067, 0.03721126677204687, -0.023525833039261552, -0.0022127447462649058, 0.022755980526042496, 0.003230066003624244, -0.03859063081957699, -0.010594912581483032, -0.045436379866206966, -0.07367044610574544, -0.00980779398989609, 0.023380179942007768, 0.009518964750929945, -0.01180717457523626, 0.007877770348861564, 0.006641365708585042, -0.0010664129060798428, -0.0014150181101547428, 0.006657681905177362, 0.019275876009061388, 0.07439911973589279, 0.09530015916075564, 0.12545947297102933, 0.1281811210637022, 0.14684464124936913, 0.08799989638864238, 0.13003767991699394, -0.00031705982401493047, -0.016010293274043318, -0.03762377243329799, -0.08539456980390672, -0.062385514425078316, -0.06467429661142153, -0.03586423143610037, 0.03404321951125382, 0.0066669757183761575, -0.011146355333591314, 0.03208992687774176, 0.04277501643190606, 0.013611014786906104, -0.015053353569139217, -0.016256687630835386, 0.018185169331008097, 0.002141455551168558, -0.014584986506264611, -0.001815823527103086, 0.01024868571182072, 0.032319472530691014, 0.07115957706256684, 0.1204415121890088, 0.14924427011205146, 0.08846322171802552, 0.11580661846001636, 0.10573089189548127, 0.052585535861338864, 0.05550751054930071, -0.03180635833414664, 0.027208433228708567, 0.03083487191294263, 0.02222666262142189, -0.035751053495543056, 0.004176533636367113, 0.04113104469007082, -0.004189918844837946, 0.004128371308210686, 0.025748820676450408, 0.021399662495204252, -0.01855284993546753, -0.05219472475969011, 0.002647230443833699, 0.01242351530331179, -0.001279803202394383, 0.007797551416729764, -0.0017048161850914325, 0.00546521169895178, 0.0551558723811008, 0.0755122943583233, 0.1365816787806359, 0.14830213885178803, 0.04864003543145278, 0.04338507781284698, 0.051707201801989136, -0.02016508458864693, 0.029940744895346698, -0.04444130359222264, -0.04185754193368605, 0.01374132370419756, 0.027091336429003507, 0.007563366808522345, 0.000910476531297566, -0.02437906353797602, 0.011538449952159325, 0.014552249906572657, 0.01984839185881347, -0.03681261592366814, -0.06128514429245955, -0.03449310480963442, -0.00867311170969172, -0.014651155055646466, 0.008864463662075777, 0.014398124165481068, -0.011499459205790154, 0.005471405209179381, 0.02692797503156299, 0.06669339908747714, 0.13387480219891962, 0.04484702095273531, 0.039300801389343436, 0.013703750072012343, -0.009927275196939244, -0.05297972871277623, -0.11512351043667207, -0.08276563448632858, -0.03313337616308855, -0.016569989237759843, -0.048618859352177746, 0.025582037564107464, -0.059970455766762916, 0.04166049993534734, -0.006817238615023026, 0.04111170852878237, 0.040380933796654674, -0.025919396172208887, -0.017302892046337996, -0.01488180419602823, -0.002596968493279208, 0.011963694177635084, -0.0006791782274661101, 0.005181437259838355, 0.008779180364524186, 0.006747804857033126, -0.0037827022966097144, 0.04119894410713385, 0.07568956026998362, 0.06667721292956932, -0.026429665325022, -0.05075640442343129, -0.031256004633610335, -0.12710552886442317, -0.1490276512342414, -0.18511505033746561, -0.07161641657741477, -0.04951651786154786, -0.00431917206970337, 0.09365703688953471, 0.03607202126856403, -0.032873456584902365, 0.04867955449058856, 0.05169361410848397, -0.01334160684836241, 0.0013956498543351628, 0.01469807425798608, -0.00047333034683516963, -0.006420685441702837, -0.01524153751131073, -0.008697150150664686, 0.004722741668040746, -0.007842411072404314, 0.004685352532596145, -0.005862875801194199, 0.001664615612008509, 0.04214951524826114, -0.015332683826916852, -0.07481653391305405, -0.13659637914314285, -0.10732504837325, -0.11350032416453706, -0.1359074453197321, -0.18144649099783114, -0.07343341303965903, -0.06059138530867149, 0.034281325707308005, 0.05111869659002704, 0.05109277929849499, 0.027450804593018796, 0.027278423406576106, 0.02645056114239869, 0.034817482715975165, -0.04219592862485512, 0.012893720459076772, -0.0004769911216553827, 0.01080371112901347, -0.003040202323084992, -0.0013597750270501231, -0.001123369334480597, -0.007345789321317867, -0.0014145969683655234, 0.017292713864753947, 0.004399046610715427, -0.020855927536149614, 0.0008404075039449813, -0.057108348514920006, -0.1385038164160372, -0.11987747179971331, -0.09202233975135879, -0.06255097837545713, -0.18258254582493882, -0.07729479327719768, -0.012767584761821658, -0.0729789409094596, -0.011359301021558422, -0.021638298348526926, 0.006411900641218098, 0.015460200101461296, 0.03070121638228612, 0.03455880159019063, 0.020132581778581, 0.01518446506571657, 0.00840436934518653, -0.0028109618517235153, 0.009465583954417114, 0.010791631647775012, 0.002973465794167059, 0.011345903824269038, -0.0013338206470367101, 0.004772914342387941, 0.006967122601099178, 0.0006759405111682917, -0.005595946582316435, 0.012025968051883145, -0.0025506506972239754, -0.06218242685152822, -0.0243037636509479, -0.007010284985698753, -0.09271687778179002, -0.0763955036310101, 0.029198015969847276, 0.037165617527431555, -0.026429353190954526, 0.00737144473422206, -0.017256509059828024, -0.030155951206746617, -0.021939390574510182, 0.018044106112425264, 0.01777491204746141, 0.01619257349920046, 0.00816817146026631, -0.004990602397221533, 0.01725283806292484, -0.007728887684805123, 0.003740108655637548, 0.008273966452221906, 0.0014282942041011811, 0.010251985532648776, 0.016796136409504215, 0.005461506949293197, 0.029324715385475292, 0.05615197165429606, 0.0495715978754822, 0.06163444930394809, 0.06759372518633723, 0.10412238564890156, 0.05494752181552403, 0.07147915743854531, 0.04228854320293984, -0.03901480842673402, -0.024058942505142265, 0.012312387668340426, 0.05810751755557402, 0.034622115150882385, 0.018017585834836543, 0.03060281280151189, 0.03897239622124942, 0.023111393258510568, -0.0012977568186072351, 0.010807855576400438, -0.007059400037395284, -0.01821380314844158, 0.005325058874557063, 0.0086446501103909, 0.004325847720017669, -0.029015854901384672, -0.01141023028551634, -0.010136830495028438, 0.024993506898681326, 0.012435826435713263, 0.04103249893025681, 0.05935557307536309, 0.07323948082890148, -0.013735627171031667, 0.028046963418038917, 0.09288680331512213, 0.0012991819361414345, 0.013832559460177234, 0.008853814565175795, 0.011674095511768496, 0.03457039842068558, 0.026866047420715935, -0.0030686562214732316, 0.0034940663817776807, 0.006803592230926272, 0.0013793801326628624, 0.005729470078438833, 0.004080134292458994, 0.0009748965866627747, 0.0039023206963161106, -0.006150198997038825, -0.003309645506829107, -0.011006424182697688, -0.0026193634664542845, 0.0070717632436671915, -0.02201463206682616, -0.0019875653709802163, 0.0007868704316390932, -0.004606765240880919, -0.011825434666188003, 0.014584049527685073, 0.02236413702590952, 0.010935316268152575, 0.018870228506957267, 0.011806724160348753, 0.01474538667209685, 0.012489680132747566, -0.003521508727192044, 0.005918863991305238, -0.006013066668964788, -0.027050754805347837, -0.0196208592763093, 0.0018907882835428318, 0.011080153823605256, -0.0058598503285518, 0.005039831204106135, 0.016380757202786846, 0.006937740539934675, 0.010219364362457978, 0.019769274341375764, 0.00372091968740889, -0.003988702927647103, -0.0013482408614129602, 0.011954369203972475, -0.010464619172141098, -0.005265561163732627, 0.008443622854646275, -0.02391942919625135, -0.021306739760776402, 0.0021173050368042293, -0.0026849622741175745, -0.0014062103619868443, 0.010315184841462977, 0.010027759221690373, 0.009907777654837037, -0.0016810462935932956, -0.012245919112712833, -0.000389886216052817, -0.006247321500879087, -0.0046192367297272635, -0.01725179298242529, 0.009114324351326409, 0.0063931921022959215, -0.007495729944103183, -0.00035066231933971576, 0.01714031552113111], [0.007844998424309486, 0.0036986301159618244, -0.005576274526299469, -0.0027919334129371345, 0.0011611224876322778, 0.009233930129780707, -0.019402435757333365, -0.007326366410049274, 0.01273394326213372, 0.0017342556076629058, 0.008440475669171882, 0.0054476552384349775, 0.008951315372346648, -0.012998763122397984, -0.01583588047044829, 0.007246777484010067, -0.019155831995272685, -0.01698437628703724, 0.006935280648182583, -0.0008833511053062315, -0.003526582135191652, -0.010077027796868619, 0.006656467612547343, 0.0023894108375725445, 0.0032561373531813822, -0.010996570316043584, 0.009067698861435587, 0.0058317441506954655, 0.005303673130626756, -0.0071475214957451155, 0.001837124351467455, -0.011311606624454336, 0.007382272991306517, 0.004442546935665605, 0.010100355762431889, -0.0027519123739394176, -0.026512295713085086, 0.008418329317993523, 0.0029538152785695423, -0.010464316068285634, -0.002049899899634941, -0.015597620996622735, -0.011893260348960336, 0.004370507321763421, -0.008293489653728323, -0.008811359660979809, 0.0006563221995036096, 0.006862516397488277, -0.0013112614655822678, -0.006619844909193801, -0.004207053846160076, 0.000603114430463488, 0.004885601771249298, -0.0006758944001144283, -0.0039184295398948295, 0.008398894648129629, 0.000989746268749867, 0.011031422889989461, -0.022114532456491996, -0.01553478751296839, -0.005334984807536922, 0.009296764858534347, -0.0123306760365723, -0.012489741879330383, -0.007871238576243821, -0.017819630553260666, 0.007316117070205017, -0.0008511995408888587, 0.010047487639390774, 0.004057122250859116, 0.009062980520314538, -0.010133179390423637, -0.016982104444748194, -0.003367018065954246, -0.002014113743716405, -0.006668211714513598, -0.003314859665995163, -0.018390577745287892, 0.007344101682511334, -0.007044517152495085, -0.015412707851705735, 0.009406375660915681, 0.0015755530761903534, -0.005378023227130374, 0.002970001185783946, 0.024578472962122778, -0.010504652406418496, -0.004908416860571942, -0.0003114361632882801, -0.015805125417278923, -0.00910226056141782, -0.009712534143442019, -0.014700107630622199, -0.009311443654291068, -0.025584015140179994, -0.004036627717659547, 0.01013649490841371, -0.03062954475113926, -0.034187854928005884, 0.00999764616223483, -0.016611576717884234, -0.016632825861602057, -0.006015910200311644, -0.0019271290673220465, -0.017448649547673112, 0.007443656415045825, -0.0049399580200366975, -0.001589002425622861, -0.0026147003538718066, 0.002424970728990462, -0.000395311116550896, -0.007997806855105774, 0.009162878905937439, 0.006027294610969546, -0.008579510595730849, 0.0019890420238890282, 0.0077105846950565405, -0.0023805725016160743, -0.009941952112600095, -0.008229555412016658, -0.010241798274335247, -0.016712154107669804, -0.03524533514757617, -0.005586719635162588, 0.004863749971583134, -0.010639784779950614, 0.026488099438452584, 0.03243550055796541, 0.036494496484263436, 0.03261326191656535, -0.03516941776520343, -0.04217067428947462, -0.016554311876697637, -0.026735113161631116, -0.009006406397595383, 0.011302477210831585, -0.010256819701531484, -0.014751313702239623, 0.0054796065006879795, 0.010030554264768208, -0.008347159348576287, 0.006332416069049857, -0.0003169538952077864, 0.005239755132317112, -0.013409559919656491, 0.009986317497543614, -0.01718285409641156, 0.043560197979831426, -0.010366079738753387, -0.044949400614885615, -0.032678308519918806, -0.06266670625127509, -0.0011703927168315426, 0.010845739311164187, -0.023585207552531958, -0.053819296795358476, -0.026649938242047085, 0.0448973354816672, 0.039946916792297504, 0.028365144046114045, 0.03471654255532872, 0.027579495802462717, 0.016869359766492426, 0.01482456442345271, 0.016393026356321, 0.0032202243249175684, 0.013814843788253636, -0.014835234709986909, 0.02078909515097225, -0.0020009840322156905, -0.0051503413941398945, 0.009668050417276983, -0.022035214674934772, 0.0017218439469860866, 0.04562616702426983, 0.04195672953228344, -0.03041754496843619, -0.05359482799392046, 0.04235833670663959, -0.0028774750509781774, 0.03626399040049523, 0.023863082538831827, -0.016476990996519676, -0.05380656207356202, -0.10626767850571556, -0.05433494748177548, 0.023079222371998526, 0.03177353950870915, 0.00681748917988526, -0.014047831873013696, 0.023730110365501832, 0.025463895406885918, 0.006494028380117989, 0.010369877283030796, 0.007572155721932673, 0.004742862481744382, -0.005812943057348633, -0.004803024061406064, -0.011529866736898476, -0.014251527369498588, 0.00460340816285638, 0.021363392950670655, -0.022102341302969567, -0.02689469435535843, 0.05159505643570441, -0.039809578879601876, 0.021866679462450044, 0.06086273770402287, -0.02501374873984414, -0.04704388078105019, -0.04114878236077204, -0.028146442787695816, -0.02970391830045536, -0.08203268998091683, -0.005842645914648408, -0.01678821116547701, -0.006246764833864812, 0.01527314210001488, 0.011246008954727318, -0.016471619657981613, 0.002576226359238552, 0.023318975719078892, -0.01437642010952819, -0.0026212224627825114, 0.004607745572497201, -0.014295323154629636, -0.0035864652115919523, 0.004421635747830125, 0.0008938454323779272, 0.0023448108176349243, -0.04707623092975227, -0.0373293362088604, -0.0413896262067436, 0.039371488067817303, 0.07761450663867725, 0.05723574958218417, 0.018321231456038617, 0.011346723482022933, -0.054067061359689965, -0.04211510937726185, 0.020172040434109962, -0.0052080993150117475, -0.10304570260084213, 0.02035199126092212, 0.044629465607845156, 0.0496596212708936, 0.02319476072500552, 0.018096805473923804, 0.03199691699891368, 0.034745080263459224, 0.005387366579053971, 0.004041700366229848, 0.0006896459877295963, -0.013840292940818039, 7.551282963454915e-05, -0.012672169738830692, -0.043797776577906566, -0.01332453629380782, 0.003793574078615487, 0.001195932324257483, 0.038803679780165, 0.0961043846827899, 0.023981339706883542, 0.06407926077200213, -0.024447382758320372, -0.030345279797361607, 0.02510503442028071, 0.013043700811290991, -0.01581920508140349, -0.02966334494336073, -0.0233261979890047, 0.027852541989713726, 0.021160987834574665, -0.004130296856607225, 0.006607894961140243, 0.03978778996598899, 0.04011109226715498, 0.03966398842198675, 0.01055786910731296, -0.0021890114406520043, 0.012435981503737634, -0.005994941471539461, -0.017445114608562972, -0.015646314284505317, -0.05450308748524022, -0.005206678208489746, 0.022657498044083253, 0.07978110446149939, 0.08482567371295764, -0.032152505630549055, 0.061440470734520025, 0.027930723050715544, 0.003759943438872159, 0.03349272577749402, 0.07441725361323842, -0.01358497669300955, -0.07323564121406807, -0.03794919844437258, -0.0006240546903955579, -0.01208169739063148, 0.044113072439093355, 0.053385838731506756, 0.039053886239914556, 0.058016627399751435, 0.025443663994663183, 0.028526419884415254, 0.0250447243769395, 0.006956562237711322, -0.012464442275667115, 0.00312574354341559, -0.020014334704994214, -0.027649809721788637, 0.019423821667606395, 0.03914238191869291, 0.054829142090101216, 0.046002589738865556, 0.0007479247086046165, -0.03618547301371684, -0.101623215335663, -0.028115024421013178, -0.0052056351681340676, 0.04959158965332932, -0.027239196200929003, -0.022113012377654527, -0.08109438973986142, -0.0971837602484214, -0.07466372562361566, -0.0334554335373149, -0.01299347233670814, 0.01287884194790627, 0.01984124730937128, 0.0173560530682908, 0.016321253053713392, 0.03530113762276382, 0.04048705882080245, -0.001587930237953376, -0.005611569822190142, 0.013064787612912932, 0.0010921305088005596, -0.012245832292621673, 0.0156284163969431, 0.03831818592486354, 0.027207057663466754, 0.0037453448048157425, 0.00019928125120480765, 0.05549116483515393, 0.024506848908049914, 0.048255627764687815, 0.03802441554400183, 0.043235687799433695, -0.024214898936121044, -0.09766083031310532, -0.1338314347175648, -0.08070689660441896, -0.12741047692814178, -0.017782122553549117, 0.006504969893852752, 0.04390424660544812, 0.010246764083554951, 0.010492769364076417, -0.030103333337662096, 0.02438974549289559, 0.012889099055489064, -0.010840088471256814, -0.0016928909311849398, -0.010442796628589912, -0.009769086814649606, -0.0035827188479159995, -0.05026094727712215, -0.009835134870027747, 0.0033265524074449844, 0.020347694040163834, 0.02687892347221762, 0.041927692901508905, -0.008084882294511164, 0.03336206186059021, 0.08666865692424626, 0.09640843806435194, -0.02729082662818072, -0.06475422255310115, -0.08269036917838361, -0.07911076584908672, -0.048324794227675084, -0.008338729377630659, 0.01489119919967739, 0.006316414164005308, -0.00627772940793349, -0.022575665848859974, -0.03749817193496862, 0.025282607761185624, 0.020465511644084583, 0.013280723651639622, -0.01007192726028576, -0.02327326258718711, -0.00786489571180986, -0.014152847029044242, -0.01810231768526537, -0.010927281822155644, -0.014314163384925143, -0.0222660042290628, -0.013227144357331775, -0.01744224457418484, -0.015550004722439207, 0.002877207474866674, 0.051335924357205735, 0.07480682842174909, -0.05872159394377433, -0.04103812119179774, -0.09833429317581091, -0.07712450024285712, -0.11701130837058665, -0.10962959076152805, -0.008579620691611476, -0.01571379486766866, -0.03382587430087578, -0.06203205088397002, -0.004113397075042695, 0.029417652484848535, 0.002367642210451019, -0.0007901283783401449, 0.004620149558299527, -0.003812674127558478, 0.007289676752735854, -0.031225905432337223, -0.01245594528585628, 0.03395486474266684, 0.014469775069319055, 0.008202039763980783, 0.02373868716724419, -0.02816877284638024, -0.0342017585799418, -0.0051706996754660025, 0.0793895073345907, 0.0258672479860177, -0.0034044008965589453, -0.033753251782349905, -0.03305808068783247, -0.10923838654199935, -0.058678573313733634, -0.03819048041114621, -0.0467574788307667, -0.07812079957684459, -0.08243687051528484, -0.03443912219395469, 0.01799053347805031, 0.020921674900090472, 0.02171415496929405, 0.004440817240125941, -0.004425011828671134, -0.008499369661904444, -0.0016624698058864597, 0.00021472054418532346, 0.0011511154277837577, -0.039721279702792434, -0.03466945020067381, -0.034280200479093755, -0.05352772187981485, -0.03545144700033056, -0.00378127206702488, 0.010100198336802646, 0.012992317692323695, 0.004764002128623887, -0.013767066201336182, -0.0191811822764402, -0.030560248862923144, -0.0374653849014493, -0.02221032889085752, -0.123980727406191, -0.11883992009500459, -0.059919602359788965, -0.033683559171617285, -0.0010950988306682495, 0.006834475844556725, 0.05412964299256613, 0.028602092458452147, 0.017302928287107198, 0.009530645349080017, 0.0031515051353466165, 0.0033604316926433187, 0.009070582545163578, 0.0028446861611948287, 0.003771532200304356, -0.05095575487244128, -0.05998762941259818, -0.06637111296660539, 0.015153064942147415, -0.024529645527004516, -0.0160693618355977, 0.04955682208889209, 0.044245742416910754, 0.01720528751424386, -0.0006375821199705977, 0.011833593903300653, -0.040755133415524024, -0.07141870019111027, -0.03648951502045705, -0.04947849612476975, -0.038377407558412534, -0.053904595066304246, -0.02317070166672113, 0.0018603099875579075, 0.025852555592512056, -0.00160422270859634, 0.0010973424708893439, 0.0034609716112191796, -0.017449775272695412, -0.014579798899983575, 0.0391424401139227, 0.0338273493259891, 0.04071110374215423, 0.007355990561065882, -0.051038734296699584, -0.10249929979179094, -0.017960352973966868, -0.06928438088373508, -0.0016647663207242978, 0.05127966704873803, 0.024367247129256215, 0.007380625615821972, -0.030536595964412723, -0.014621017145280756, -0.10314182371444239, -0.05333058590383017, 0.020523708772979824, -0.01113408185292556, -0.01873190060862093, -0.00529184969519894, 0.03607867217277961, 0.01745481461923427, 0.0005604236510894372, -0.038416822408391255, 0.00014949889402653406, -0.006438584344926524, 0.004095920007635379, -0.007134731363982416, 0.008122906896715198, -0.0007933489000613795, 0.01981531590399171, -0.04303284961907144, -0.023394316880623982, -0.11217078788507959, 0.008400732117227389, 0.002031941168389981, -0.05740837440438549, -0.07812705385554566, 0.019074496380352662, -0.05067985076471391, -0.038114582885657534, -0.001376307655813889, -0.04928577738674152, 0.07406818548244222, 0.024537639370166134, -0.01404607181101248, 0.019318687349153894, 0.08757915229863225, 0.06710761869882936, 0.013526763432396241, 0.01615114680650149, 0.0021201621339117386, 0.005831411790725778, -0.012280932910830348, 0.0008505185589640222, 0.00931843763904603, 0.011610910571189521, -0.006211242112797208, 0.018270429373013482, 0.03303018915539204, 0.01295359513564729, -0.0456040522728145, 0.007549585411365745, 0.01714154045828391, -0.02676880965248073, -0.050065502118118825, -0.05961722827837212, -0.07174338307774185, -0.08713361499790659, -0.04441035162410189, 0.02894172799171307, 0.09314788603932231, 0.09049948852050614, 0.07565732294503105, 0.07687137150360175, 0.09965867199692782, 0.10379919440072354, -0.0005188378164302615, 0.022851471008570875, -0.00462461957897384, -0.007269587597959304, -0.009929001456022197, 0.00166546701814399, 0.006130434357994288, 0.01598759131266294, 0.012092751785414312, 0.016918587070386404, 0.005968402538565209, -0.02972901304980154, -0.013162680662859244, -0.013349106868658924, -0.029281582691260445, -0.0008809101384953282, -0.06205357562547833, -0.031165828537380338, -0.07190164275804621, -0.05994499555264148, -0.05419655894206909, 0.06958336390756598, 0.05689239399441125, 0.0541955621925576, 0.06550314666816952, 0.027548872042717026, 0.06997031121936495, 0.09642943307008418, 0.04900166851193239, -0.003092997874375015, -0.006843369770025941, -0.014099426846277931, -0.0012757901047761302, -0.01632037077463605, -0.0014741467043441966, 0.0028149262006605708, 0.03599805278476581, 0.013571428833993109, 0.02799528979131715, -0.004651895861644489, -0.003153848292116314, 0.03519164562308082, -0.01670246676055725, 0.008606725985456335, 0.023698149094790937, 0.0255926339280862, -0.017648943485155326, -0.04061727390175218, -0.02317736819233942, -0.011199486518189026, 0.03923509376554298, 0.028523964042762185, 0.0628925920550118, 0.055175829970834186, 0.06085802167845968, 0.06840963385227432, 0.04413554508492302, 0.019135404930648445, -0.0009445216624736242, 0.011737149118869111, -0.0031650650843843397, -0.004949279495322745, -0.0021768478622597926, 0.016550995096952605, 0.026974478325917758, -0.006231952563621308, 0.010462965585128868, 0.007849692533476093, 0.05363672313191088, 0.012649082964267259, -0.0029340304594207395, 0.026856770149115822, 0.0569291998600212, 0.087952034767655, 0.0653450691538022, 0.07663220543110984, 0.06368091427264164, 0.06937998112832214, 0.04396022460334065, 0.037279149480695564, 0.07312116122746459, 0.04978950559114507, 0.05482474862149078, 0.04157217340837907, 0.01853511265670149, 0.020508998263940186, -0.0034442193206365157, 0.004013615302221323, 0.002681692726032385, -0.0029866412198224276, -0.0070128171050829495, 0.0027871076307247732, 0.01110781502757617, -0.01800136159856949, -0.01753157161202242, -0.002616288598894301, 0.030099221675884927, 0.05792485909134131, 0.05041464062997717, 0.08838501394465134, 0.1277121379421395, 0.10053285449266681, 0.11424965452680776, 0.0321373426464275, 0.05807929240259338, -0.018704102722322154, 0.028012375983172653, 0.013195676276997947, -0.01779492218736737, -0.007683006233625628, 0.024839437213339595, 0.0213419431096071, 0.04487729295433618, -0.000976775157261161, 0.004358257678915185, -0.014047361289110041, 0.009604618623181089, 0.0031236382170209947, -0.005029500473533815, -0.013998603336361106, -0.024691960003048543, -0.031219943454965718, -0.0087857102795426, -0.020503263453791786, -0.023832350389162274, 0.01224881175676292, 0.03880044847080938, 0.01482747052113089, 0.053536813220397717, 0.0751453183337908, -0.036846935478962776, -0.003734432394420482, 0.015761831230029676, 0.024961748536041554, 0.005049650160119672, -0.009934959518919255, -0.01761755348444278, -0.0008805993139500538, 0.018006045507078704, 0.013850424184169107, 0.008406134609099636, 4.7957442344668586e-05, 0.0013049230884433396, 0.003418207533902117, -0.005236476930226339, 0.010671622766024706, 0.008625837562795237, -0.00031420352430007144, 0.0006317346783549678, -0.007632056357056135, -0.012435534772797732, -0.026085638122052116, -0.02800941276413792, -0.053325690650435735, -0.022389361658332215, 0.001657546981333092, -0.007051751793010748, -0.06085501973224916, -0.026594567227508796, -0.00295785007608344, -0.021258315280319087, -0.00509951583703156, -0.006010247126446743, -0.02337106783725794, -0.03460594404277295, -0.0274660554707537, -0.00947336687640454, -0.008111959710712857, 0.016737109241099255, -0.02326683554375316, -0.004277897099209033, -0.0052826143388966405, -0.00798569669862451, 0.001187192522474701, 0.010440126970791674, 0.000872480115130409, -0.011278480888217058, 0.0018951858609523415, -0.013858911445263942, 0.017939592550517948, -0.001946129284273718, 0.008128643684791048, -0.021986465557710787, -0.020370183487500606, -0.013437322674074322, 0.004138662293604922, 0.0021747658415482863, 0.014429866275692033, -0.01829838704442055, -0.014827856552137687, 0.004892260042009209, -0.01353158494441193, -0.0238348999039207, -0.016907489609863352, -0.009443830693236161, -0.0021911811653017297, 0.013254190442632822, -0.0005535910797322314, 0.004525039208354091, -0.01759958962062898], [0.02140449438408645, 0.006286514015382524, -0.0038764505779046404, 0.008743199496253627, 0.00283457031871833, 0.012928556714952062, -0.0106792297483635, 0.010930618842293703, 0.00012270533599083468, 0.0022572913331727804, -0.00411554387834315, 0.020729362349028287, -0.008163311168792972, 0.0010650793520824208, -0.008486272124807267, -0.0012137374724809002, 0.016446782212511033, -0.003001297520137254, 0.0033951784474302543, -0.00971335145616949, 0.0025127548826533196, -0.020093176467722528, -0.007409756900334244, 0.0043829780034106884, 0.005403158263672442, -0.0035071573235118518, 0.006609125835063717, 0.00424841941704512, -0.021373384473601296, -0.008368602050128775, 0.010799620209437248, -0.01019582308199208, 0.009024557809047077, 0.0034815738896416884, -0.02133704726309287, 0.0028310984759142423, -0.006663368368772643, -0.004472180061832662, -0.003667153617885976, 0.010043899073403044, -0.010667711955265924, -0.002097801578145775, 0.003381685199341072, -0.018444792381132277, -0.016505648626960863, -0.00952289015130933, -0.009119394605843644, -0.009574702353129603, 0.010407759919846294, -0.009637175857028949, -0.0037088355073964835, -0.0016326395339289071, -0.007907933456395531, -0.010431291056748516, -0.022788052057141957, 0.008802357269650144, 0.004215502499130749, 0.010206224731352244, -0.012297582647504319, 0.01062139761259657, 0.00786834107124902, -0.00011285012023062279, -0.007216641006754462, -0.013147744067683249, -0.015684646523749273, -0.018760524227539935, -0.024332211555039795, -0.02491253006859703, -0.030772463527727736, -0.006821717921758667, -0.004404539263322158, -0.030807921565365857, -0.020542414757453418, 0.00329847442149998, -0.00699933389103074, -0.016974780810829142, -0.0037316639859526044, -0.009130530105978274, 0.009639738788393852, 0.001683250500378927, -0.01961916475772156, -0.018366496984526342, -0.006519220062059759, 0.014324875266960958, -0.005822937130579297, -0.0027723117220865216, 0.00668742185006464, 0.008784569047906077, 0.004402334917610569, 0.007053893872783749, -0.002473922873089967, -0.016961227682528852, -0.0008210274430063704, -0.03168791218099837, 0.0020058526541057724, -0.006789825478660883, -0.03589503625016724, -0.062154329304743974, -0.0663106663039015, -0.04029307820590712, -0.04438328525544726, -0.013228558306105491, 0.004226809952212599, 0.020362021299653435, 0.015268453049836013, -0.017279121394693727, 0.005604095064692063, -0.0008160176642090212, -0.0036316611978716748, -0.00737358721554468, 0.0027787997990224226, 0.003141975919601437, 0.021396415870718964, -0.001035577706989827, -0.007107709860620699, 0.004043388522284742, 0.013751564599440281, 0.009389224341691895, -0.01503818146122778, 0.004138188217872356, -0.06414619425461336, -0.09854677845029644, -0.06780993558363431, -0.033521974816108406, -0.04702854416410772, -0.06218947344086493, -0.04880910183902774, -0.023622040603564414, -0.029332510911448447, -0.0563631766633908, -0.028462292005310138, -0.03408098070415947, -0.0418078029293178, 0.0051562089033318015, 0.007037943109627559, 0.004638675333658222, -0.008207275912005882, 0.0001951460557295375, 0.003893827447874723, -0.0003006623457481, -0.012271422417691004, 0.007107599647619233, -0.0039922935636439874, -0.01688915753026356, 0.02318561589542734, 0.04424718664953035, 0.00129702048546231, -0.0019512813151023331, -0.01947339004061178, -0.020279335179992666, -0.10831735609458105, -0.03840414121879249, -0.019971804082403573, -0.04010135780206672, 0.022684632911529105, 0.008542401090333631, -0.03222139847581649, -0.021546751865402697, 0.007808836156797549, -0.07453987323407923, -0.11661740956621432, -0.0829779707237014, -0.057231052274171884, 0.0015118299202631026, 0.006083620439130497, 0.012132309838890095, 0.013999426135133584, 0.0018461222300505582, -0.01022251787312036, -0.010921592522920789, 2.3566373465086833e-05, 0.014284284482042326, -0.00679862230983107, 0.043855193335007196, 0.025386058532848484, 0.03909638197050244, 0.044878282983067834, 0.11200942056612168, 0.03609824320200658, 0.06543880272299235, -0.00829358470152255, 0.06279277279234957, 0.03166153276292898, 0.006364290315099552, -0.023504439568966955, -0.016158073645394525, -0.08379595464253176, -0.006181872311735728, 0.017474330140795007, -0.06707534005928184, -0.021330266306763275, -0.048204531088530296, -0.0014149944439206916, 0.01160683465026189, 0.0002919648291643893, 0.0010990456476833205, 0.0032598178298583512, 0.0019602526045491265, 0.005784944569222439, 0.012359420428868438, -0.026195611484239326, -0.06099626095360307, -0.0071860306521668756, 0.04849350212217195, 0.008990947791915843, 0.10377853196328493, 0.02163566007904966, -0.060067663212349104, 0.054637465709925524, 0.01463384662907655, 0.0028745617314052314, -0.09414534602111647, -0.03496622810327199, 0.04583656932807729, -0.09628441780542733, 0.00759552443172476, 0.026952609214115963, -0.0031513012033476105, 0.008591480778839228, -0.05034555232434803, -0.014008394129420754, -0.0148629157111955, 0.020308284650765392, 0.0033547108330530774, -0.0007828392557039185, 0.003939090495952262, 0.0024566048332995754, 0.0013618932190565549, 0.0016140344495796492, -0.007844458743531874, -0.020483896842972176, 0.0020867698242557327, 0.08451635281631348, 0.07140946331910063, -0.06204500256935949, 0.02526738005247961, 0.02227088121598871, -0.059064470050088934, 0.0002647657343025653, 0.064832492402093, -0.009062229386948329, 0.01341249561872199, 0.039222703334689975, -0.11787769445775606, -0.017453508652535626, -0.05533861542733939, 0.022401503212136187, -0.055454228357310106, -0.04147770775233046, -0.007846119199147484, 0.008760253206757175, -0.005961487692598153, -0.0015058430101855954, -0.009495999615752041, 0.01190201755065938, 0.05692587902369051, 0.06931276272707615, -0.008310324245730399, 0.07682676381101199, 0.018217767851141393, 0.05658302460370649, -0.0056276764355194615, 0.0334688446101245, 0.11729576647419211, 0.05058475781715913, -0.005211635323898102, 0.06679751423358452, 0.053322806791192716, 0.11132421619236245, 0.0830853936471462, 0.08213537943781157, 0.022872903886876836, 0.03542801646575928, -0.009831148760915683, -0.004304716744160126, -0.11434309095861045, -0.030325131921370683, 0.012483744469690776, -0.0014345354808531973, 0.037794435338513156, 0.008268761829394884, 0.003735769475052371, 0.017606527777709116, 0.05394880407344585, 0.0708010588470214, 0.05479936996544683, 0.05253368261766275, -0.06517741143130477, 0.006259953693905163, 0.03348722096653344, -0.07602836401719469, 0.007346591681283756, -0.06328376975127574, 0.08627546195208222, -0.030010363225267376, 0.073201865827215, 0.08950638820321435, 0.08547113645507766, 0.048604208692657365, 0.06439556860338436, 0.11051705479555336, 0.003091359707653787, -0.01744406759888103, -0.059024444599978625, -0.00813503800457177, 0.03032460317578173, 0.03165049223172283, 0.016285218449954005, 0.010316294470689758, -0.008176511131510281, 0.0206232526802452, 0.05072633692942343, 0.04073577177586185, 0.03250968516489454, 0.03379221645465742, 0.030020548017896304, 0.049315357499492556, 0.06756508462832567, 0.015592395723226682, 0.093232303582179, -0.06629347297509126, 0.003014050882473948, 0.08442801599519147, 0.0992931104464354, -0.09018442468691121, 0.01919424196371217, -0.026009092321272236, 0.03168875655593632, 0.02992640620716803, 0.004515559387712685, 0.02008654363086586, -0.02686543677346999, -0.06877118091479871, -0.026226783842965555, -0.0018840687471366041, -0.007188773620199335, 0.01096066696539099, 0.0022667561081243896, 0.011777582010679832, 0.026927703099893268, 0.004132878749399707, -0.0236649856545939, -0.03722890738189251, -0.027772367724945436, -0.00635322189842203, -0.050926031058545464, 0.01718877063340414, -0.0005896040487303078, -0.06492740393751897, -0.0007265720108814769, 0.04784517133639176, 0.04243406355779471, -0.025054754653716593, -0.013861617228534618, 0.07325182822775116, 0.003296367718683594, 0.031432970256994576, -0.017559905094888827, -0.028143457685422552, -0.057384999735469566, -0.05922306059488942, 0.016811747158183704, -0.0015065593792221446, 0.011273455891622396, -0.0072692810593847105, 0.01394295495903929, 0.02354726841729678, 0.012717904994609942, 0.0015772546134818159, 0.01722538328731841, -0.035329187030373, 0.016859117816657495, -0.010681496739074862, -0.049552997231394204, 0.009361294627174154, -0.07681916241688842, -0.15094141434848074, -0.015025281169493693, 0.0474039513632259, 0.005387062869075471, -0.0017888618321428107, 0.07759488186544822, 0.010951016079417505, 0.017839677932611136, 0.12206892295312999, 0.027552159376776006, -0.03526706034564714, -0.04580614155065147, -0.026911792822036783, 0.005211497712876208, -0.012453007905647857, -0.006777675477381661, 0.007566294397397769, -0.0012899642284056666, 0.005975046777154673, -0.008300198371353587, 0.01835235135208947, 0.026866178312129892, -0.050584453593029384, -0.06480323909520332, -0.08885089796574612, 0.0034699775004317064, -0.057828076082424615, -0.08209123787053348, 0.009049278343816023, -0.06652719152421727, 0.01809371681283688, 0.009001464005803993, -0.005538029755566127, 0.07393488882187504, -0.01533092144549842, 0.0816837528204931, 0.07220040303409497, -0.030378914498913265, -0.028615422281492348, 0.0017766328555160968, -0.03054673620456676, -0.018723266412616964, -0.018323540843146285, -0.0021066552199684526, -0.017969732430119643, 0.012249464464099987, 0.018303567986492273, 0.023478419010497645, -0.018398139004435626, -0.07858804420801291, -0.06769674667523325, -0.10768481835327522, -0.10076326635198907, -0.0455288759468443, -0.012323893038210076, 0.03410122356722792, -0.0045076287619244286, -0.12450579388098929, 0.0008830890129184254, -0.0047268114452162485, -0.061793639117946955, 0.11308386518946266, 0.06034515475070689, -0.04503830555995973, -0.007540204689024799, 0.07417634315657926, 0.014395893489147356, -0.06331031629603226, -0.06188481140750983, -0.0603925300615433, -0.027266556796287426, -0.00158143418431077, -0.00797924149195968, 0.02036148446679758, -0.0007917877676596706, -0.0002737370788475967, -0.03655937347080406, -0.10408011693202683, -0.08204688286477832, -0.024243485912476277, 0.06610586883365929, 0.13653433297703038, 0.09712361396066536, 0.019214791592300415, 0.07743330448351768, 0.11558859266973458, -0.07018454232642342, 0.05966205398006525, 0.04402191100817501, 0.055222167941148606, 0.029600766547626424, 0.10686838632451669, 0.08853099129760046, 0.08091573174045098, -0.02601609091863899, -0.16224228984064828, -0.1298042639363762, -0.0889273114376079, -0.018580472833138954, -0.004938529039502035, 0.006404027762776986, 0.010058776363159974, 0.0008586820426671029, -0.017512149671712322, -0.09693132515572163, -0.1410835409663035, -0.11143733715199129, -0.08869697243139071, -0.0096232461558439, 0.04791516549855581, 0.036429111461874115, 0.07526378975172317, 0.01635183002030818, 0.053115923216915724, 0.04188733371103876, 0.07173796894867501, 0.05250169521169651, 0.006117036681814688, 0.02188822460622518, 0.01067814703444751, -0.03949832997146972, 0.03539376502891062, -0.011977846120540727, -0.08044885381162495, -0.11978711704143412, -0.036972220976309055, -0.0039675003968072334, -0.008415690709873476, 0.001440740008036796, 0.0083578871533703, -0.002762482463534633, -0.045973403598133934, -0.07983774234331131, -0.17800781348530748, -0.21585121487038494, -0.21568154260828482, -0.1373242184959725, -0.08963703894614444, -0.08540909947360018, 0.05274593967675695, 0.039290774361324346, 0.051409325478693896, -0.064393385629609, 0.0038817858607474998, -0.012252445932625347, 0.044352358381068234, -0.0507835668114916, -0.06897871698202986, 0.00970664751120851, -0.019785015810338483, -0.12550263309649415, -0.18294631886612625, -0.12464116977503782, -0.026117023375399766, 0.01938513166412824, -0.005443817377627862, 0.0068518404394687, -0.02092970047388012, 0.001284318474608385, -0.06883840711760329, -0.010423628720297862, -0.033815805378356566, -0.09517658827703993, -0.12711383960359254, -0.21934518567390254, -0.13920472132049616, -0.12084846723879027, -0.08503611387208203, -0.04836766458353669, -0.03216815382602703, 0.006214844188885914, -0.024440781789161904, -0.019038459806740484, 0.027624674658151997, -0.09020101691907793, 0.012069985023702639, -0.0923199615091677, -0.07467656244890446, -0.14900283852527607, -0.1786390170860173, -0.11250129134009491, -0.014156948820944338, -0.029376735157208452, 0.0013577608402498438, -0.003920329875029532, 0.008416639421941914, -0.010747777142151653, -0.041332215581936935, -0.03742297829406786, -0.023689264224912552, -0.07144728841040522, -0.14689933543261646, -0.2824319872713945, -0.17350956793433886, -0.2548413945957041, -0.22427443977065845, -0.24541998725440126, -0.14941009429450747, -0.06803352003084863, -0.011490910093476744, 0.0011841970796747539, -0.09758113963268965, -0.08077879936146963, -0.06839885591726506, -0.13635711479000412, -0.10465364498248532, -0.025621820258540966, -0.0889295752212745, -0.05244604361311971, -0.0157663017841674, 0.01158328130558025, -0.000124597788196535, 0.002481387766977418, 0.004934837587148125, 0.01811974821582742, -0.020793793357029865, 0.007099721690253084, 0.01164316654100177, -0.011979005199545504, 0.01131968519119144, -0.05616071393132322, 0.02414669709862165, -0.11937860641850485, -0.18202659888294803, -0.15993079523517736, -0.19392055183859958, -0.07949166885736922, 0.007847255623370322, -0.017355654853506635, -0.08347423652222949, -0.034396249816013316, -0.0855637079532048, -0.10143981353640644, -0.02695341988311882, 0.03386815831314837, -0.07673685118251879, -0.02145291705729898, -0.012387974308241748, -0.01199557122949444, -0.003308175593682111, -0.011666191288788272, -0.007219662178251341, -0.007769643587249717, 0.019335892237513884, 0.09219490900539545, 0.03318268281737171, 0.04108325042853188, 0.1601373236403324, 0.105890841253777, 0.05736796722705046, 0.05321123779904634, 0.010683703621531343, -0.017972273634455124, -0.12521315236264105, -0.052276487581528225, 0.056819830767874384, 0.043504141649012985, 0.04000890731233957, -0.07611457816559898, -0.06611078003561671, -0.10347099128012546, -0.07071478099502299, -0.0031441189774499274, -0.02960257218932116, 0.007907686666069856, -0.009545019291833065, 0.0025722769821017594, 0.0010148357537914212, -0.010142598731715035, 0.0019509808628845019, -0.005095542250198121, 0.03189793958006384, 0.07839982347854034, 0.06391937549327696, 0.13316019548053634, 0.12715411212342215, 0.022228079549555423, -0.06753343378853537, 0.012313833180366855, 0.0063389749194372545, -0.07247316703722657, -0.062444842465539885, -0.054611985314598335, -0.08430426320976171, -0.08502284598325781, -0.009356519007639794, -0.06223154244643618, -0.06846932256822157, -0.08817835847274896, -0.09856309740893177, -0.060217685604410695, -0.046294538007482726, -0.009506756873284459, -0.02225238313726552, 0.010682702255054804, -0.008169447880116453, 0.0027035818364766644, -0.0023841793079137233, -0.005411456339995887, 0.033624772841455104, 0.037693875763080066, 0.0783228157765117, 0.08040905118342037, 0.07184625447424887, 0.031826964369905876, -0.03469342953258362, -0.03634636534821217, -0.029366147926843854, -0.1152009175060004, -0.027261832118988492, -0.03457619291895172, 0.006001926660606531, -0.004631093073303941, -0.0014834664401463698, -0.0942807664507201, -0.07317840153509686, -0.018207548150582203, -0.04877193173861602, -0.03788167417828215, -0.00879571233917525, -0.023798025320445605, -0.015387828240098577, -0.020066461066537082, -0.0017381262494146773, 0.008622008444259532, 0.0022081804507060997, 0.0071478512501840325, 0.0012904454717080638, 0.05858402973849447, 0.0659359248813415, 0.0005582849725672331, 0.01707321994714998, -0.04433810428761772, -0.048203845433958545, -0.034541599408063305, -0.004281561963204324, 0.0631136596742078, 0.02186733985167231, 0.015424808883328771, 0.07082666536634749, 0.055405940093258596, -0.018486289544736804, 0.013911235583687528, 0.07704296756780674, 0.05332841278634875, 0.021839061466880402, 0.0032025860944255875, -0.005755964903780005, -0.014009242416987406, 0.019207201329528977, -0.004806788281520369, -0.006912299119931169, -0.032296311836567136, 0.005051031743320196, -0.013092597930118969, -0.005113671560866555, -0.011700484815086822, 0.006636815675923784, 0.020576326390647326, 0.01148172147718553, 0.01804893006377315, 0.03960674663398436, 0.023692712718474083, 0.011784102460813559, 0.036351913819990034, 0.0633473167048135, 0.0603055766801892, 0.03853307681361754, 0.04627264268721919, -0.003467166978171081, 0.0027802774776908754, 0.03032771156574782, 0.020210205687403383, -0.0014768583490057502, 0.002060674563578271, -0.01107285485098889, -0.008466792129767644, 0.001006546529204621, -0.011099012983154303, 0.006353051492122711, -0.0015723612369249735, -0.004925380881054094, -0.003063416330470168, 0.0014306347496391009, -0.030195245912598156, -0.0007471108008346219, 0.0008055230948004067, -0.007864990872225579, 0.003995415559473233, -0.015594533844202212, 0.007599808033353551, -0.00832970043491303, -0.016643837914079928, 0.01167910605956203, -0.001766927762997979, -0.001367647148569243, 0.011181582874285, -0.003424819478705546, 0.005825118441469483, 0.010956758106463394, 0.00803188750781743, 0.006892812647039909, 0.0041545638031932315, 0.008569916840352767, 0.007454534843202135, 0.006308580929886703, -0.008691179274885054, -0.01059039189384732], [-0.004369098174153759, -0.007114831784311447, -0.011000381622605589, 0.0028130822155804243, 0.0012093257412904737, 0.006442506986349153, 0.0008414826832080978, -0.014792553641291922, -0.00919317216974682, 5.4491265541807744e-05, -0.005293078742535778, 0.002831082050207603, 0.005113865529095791, -0.004887716887318748, 0.00020483821635312093, -0.0008005695481371262, -0.0038457703316342215, -0.004623283599169854, 0.013401503541280151, -0.0032843120348677265, 0.005026783767734398, 0.004234285054507559, -0.007060712788330201, -0.008691776953895624, -0.009349869081606213, -0.013698716014666334, 0.007991216187573367, -0.00472840610487357, -0.018408770359942456, 0.003246036841991088, -0.0074824263846761125, 0.011780593963642073, 0.0041455805254585355, -0.005347682206955111, -0.0007489930751870803, 0.008612322758367312, 0.0074253249245316835, -0.011050320769370464, -0.025047287100275775, -0.022060564610966747, -0.016079640951065406, -0.01288265457876403, -0.003976439963405549, -0.010343330896853357, 0.006713880135809867, -0.0010891436109575251, -0.009269182751134556, -0.033377972346165616, -0.016693325227171034, -0.017293578787277396, -0.008167145284024001, -0.000942607587108617, -0.010800770581015823, -0.007492620228296923, 0.016269787664782865, -0.006649261896226405, -0.012537669428891177, -0.011643032804214182, 0.005119452048727832, -0.0059998135405417334, -0.009759107524729445, 0.008401860651501614, 0.0010236725695092722, 0.008516541082798375, 0.0061338276732280745, -0.01516312236164277, -0.01985521221964674, -0.01205652767660794, -0.020537340090817188, -0.03776147141129743, -0.029201257677770164, -0.00029578905668957764, -0.030072394385573357, -0.022229512042757152, -0.044494648553529595, -0.06583822939476297, -0.04925667460549171, -0.040092421870504415, -0.03553589605288016, -0.012674511001855359, 1.0410288956373101e-05, -0.003461781290087369, -0.018075453238577125, 0.006595404723994954, -0.0059333540794410545, -0.0015663265588607086, 0.001818136217538701, -0.0052092820296800795, 0.008758813287062496, -0.00424622654091136, -0.009311879537735532, -0.009716359213476087, -0.03903563678282671, -0.0420227720671682, -0.06920593908183727, -0.10288100402597396, -0.1163349188676476, -0.16625275907663303, -0.18258376699486067, -0.06176511250586179, -0.10694244430900829, -0.03933416061435372, -0.009461826265117526, -0.08274415810784617, -0.12181499128359123, -0.07313553984923049, -0.028792220866883805, -0.0415806727768646, -0.0637495395537227, 0.019243210761082163, -0.0052815124153265175, 0.008426520513976207, 0.011015929697891346, 0.006223947948701746, -0.0084097900400133, 0.012649126052328985, -0.005893991267435209, -3.8759180236455785e-05, 0.0005331296619381037, -0.027773425820787973, -0.07454433831253039, -0.06505306792898354, -0.061111870683668294, -0.06385712248641445, -0.03893321555728387, -0.04508392817759527, -0.012780411225860882, -0.035359800415650934, -0.014879970423245877, -0.01659086025652864, 0.041765469745801094, -0.06850021261732293, -0.012544405312596284, -0.003805076151395859, -0.05008822104024332, -0.0829746672255742, -0.05843430357626475, 0.012466810168135497, 0.0019311694485240078, -0.012410440848081407, 0.01988514066008047, -0.009336095570558754, 0.004156073012125334, -0.0025291467134581002, -0.028232043809196423, -0.016175398026109, -0.004187264687715544, -0.027818222869886146, -0.04188421280372021, -0.007540221881683785, -0.026547206538475296, 0.053500190893611625, 0.06111625493293913, 0.07204855232323627, -0.0029701633095027525, -0.06675881801517308, 0.027417341449210136, -0.030038622868832722, -0.02959848321043788, -0.009625403234955856, -0.0847466297560718, -0.06985524967195814, 0.025003220263994652, -0.08524077999785815, -0.07844552948296889, 0.002484763955646479, -0.02020730081932346, -0.00713801298710212, 0.010043096081565934, -0.003611790273341668, 0.011279452419594565, 0.004767285286110507, -0.03084984628711532, -0.049000479596132004, -0.053018988214589356, -0.03936263127903039, -0.004366566195861219, 0.05770772507987067, 0.02502975534242588, 0.12729932661668678, 0.09783888876426745, 0.01419073511155666, 0.04139537419438332, 0.024000412044077452, -0.011298383712074879, 0.01285265789984079, -0.01501803649583176, 0.024286681382733887, -0.051106222636935615, -0.02312238264225439, -0.043571443851982604, -0.001285605081598506, -0.0013258248255494166, 0.033790720340389026, 0.03341425920250281, 0.003256048868764235, 0.006550792433334433, -0.010461006718393468, -0.0041445571578749745, -0.019614907993322425, -0.05577513084389565, -0.0008608291686859351, -0.054992432085218805, -0.04401530914812745, -0.014101987390106516, 0.020233806422431503, 0.03708432552856133, 0.023437297281259033, 0.03512640624106231, 0.05910842239184826, 0.09107228843887498, -0.03362993726105083, -0.008421797337620308, 0.0017634089891012865, 0.011805226002130683, 0.034412562293603795, 0.06480232459334963, 0.0856438700646149, 0.06039502218547903, 0.09415255983135709, 0.02913364554368391, 0.004960193134250319, 0.026683170780807137, -0.011545002083116998, 0.009916741368208295, 0.0008651845298874223, -0.012600858210488954, -0.004227734531051296, -0.01991335928475855, 0.006046413148973215, 0.003096413851276488, -0.015968122588070746, 0.007643041185292402, 0.04729704210634338, 0.03328047319798273, 0.02212513055639704, 0.03941898151692456, 0.08078759419047378, -0.01652645711986973, 0.05345224581553728, 0.03538779065595991, 0.01350975582403037, 0.05155153843625618, 0.005654609103765405, 0.06872283245763594, -0.006849517268412813, 0.07406501378031675, 0.10908530771335728, 0.047286463477556294, 0.03270162769416418, 0.025198636923600873, 0.012679623040292442, -0.00954517738908869, 0.0012499777040918874, -0.016794205057302572, 0.014489146462442318, -0.013966335314885924, 0.020247940893006872, 0.042491456505687294, -0.047838862186930016, -0.04570358703134507, -0.022184960632762894, -0.0245230635244049, -0.0017949709873849814, 0.1293234497418015, 0.060636744816793466, -0.002316474716865777, 0.0946879323745154, 0.07445446634321944, 0.041568909335173806, 0.0423071570937535, 0.026839858819680613, -0.10590256103972087, -0.022483851673450624, 0.07729979794149777, 0.03173914867870056, 0.0310050635812833, 0.07459382744821114, 0.04207306175253345, 0.0053667270947470366, 0.005180700424984977, 0.0015381609689510297, -0.010506922765064144, -0.002091302721668119, -0.02819605373454288, 0.03183469392461741, 0.03535054590000338, -0.019009522858668505, -0.02787741812588739, -0.020397660979877896, -0.006096446151329551, -0.05674365283631797, 0.007697870967596808, 0.05538813042870007, 0.15277383555204524, 0.11645897875303603, 0.09016339297589834, -0.01862321912086799, 0.03032879860266654, 0.12332377293063786, 0.024996546810592365, -0.02074490762918837, -0.006615596837103195, 0.01649480775320644, -0.00869249856643105, 0.044252696541534686, 0.03590092314815965, -0.006310617575028127, -0.0014132742549205837, -0.011165970630768322, 0.009424863569730471, -0.007719778506154311, -0.03309263667781279, 0.02288715654713716, 0.0692457454567508, 0.037711584434982286, -0.016508816822984437, -0.005401539244899027, -0.025662676302807587, 0.002429850212474136, -0.011019484465354015, 0.01139691801083428, 0.11408772591154188, 0.1176298983306435, 0.10187059117481402, 0.02247254095497676, -0.0031110265468545827, 0.04425371563919639, -0.0017107646490031401, -0.08550507034261366, -0.03209334228315503, -0.0030033567426703883, 0.018001342521016806, 0.025860169658641963, 0.014088995882120137, 0.00311655112697377, 0.0038343805823339515, 0.00027623747687601896, -0.006523065671588638, 0.003465189279291983, -0.0005087162567673387, -0.014052995815602836, 0.03303819969282342, 0.045534364214921914, -0.0314215357803769, 0.04017380677127401, 0.0073348890209102, -0.14889070700218152, -0.1247523073566673, 0.04944472943460735, 0.009620360997982629, 0.07421156804794006, 0.04653302877265004, 0.04377467125638481, 0.018142316729953777, -0.01406348579911755, -0.041213369757691555, -0.10508300985081527, -0.04553490024134242, -0.03594796440590441, -0.029084435988659802, 0.031957583827842466, 0.03883973036165898, 0.013755522704567376, -0.006971454851128586, 0.011130771520317218, -0.008888357572250857, -0.0013231329339115927, -0.027707076059307615, -0.05429967693301093, -0.04921421075234798, 0.044008948791742525, 0.022919544397168826, 0.07452437278380314, 0.0247142722000725, -0.025635139825533396, -0.06577915373120222, -0.006730685647368258, 0.013912510125507066, 0.02942827786495203, 0.08012159707084836, 0.12228472854393029, 0.04955114396367371, -0.0743554238170858, -0.052475318297025175, -0.10109104318031945, -0.041715246875001416, 0.010610252603637066, -0.026176393661981445, 0.012997996858265614, 0.030139645537033178, 0.00651524007835321, -0.009526263931373158, 0.015406411553346957, -0.009899992959445951, 0.0038898445270720908, -0.02561170211770682, -0.05312699995017271, -0.053789084337779076, 0.02481233192789395, 0.0014817571774277639, -0.007759547635107257, -0.06278670033752017, -0.05157823872357383, 0.06576553283185083, 0.04156084418600161, 0.04786437672992658, 0.04419021946562186, 0.006343259671508637, 0.12268945382249735, -0.018420053935285646, -0.06865320103110499, -0.05537039849664042, -0.08493739427432552, -0.03282358572976918, 0.034840082585289235, 0.000232567534527265, 0.01476082503593921, 0.019936059073437318, 0.0006567741293333821, 0.004841666183926016, 0.002646390709971837, 0.007477450856533103, 0.006927944461679073, -0.005389855007029997, -0.043987094118989774, -0.07928542073626446, -0.009411249210636864, 0.03527414818233082, 0.07250656010905294, 0.006568689654605597, 0.08688691752405737, 0.06653982576163052, -0.02472718214048385, 0.0033204375472289972, 0.13980330365958987, 0.1081115378030108, 0.06761929129530939, -0.12821584215484538, -0.15120279601486125, -0.02603629784461583, -0.028204331689725023, -0.05022932289672344, -0.009076844493396219, -0.019782947293982958, -0.031565117639481756, -0.004782191490382225, 0.005711636407582596, -0.002027090570472774, 0.016161092765333385, 0.002221146771618098, -0.02574861410922577, -0.027173872454305494, -0.10737713192667148, -0.11391656083197503, -0.02924283076955017, -0.029790655199651208, -0.0007995626720997878, -0.008888525893789814, -0.03417546139361319, 0.08288132055612159, 0.014556369512371709, 0.01846100312202429, 0.1226413195253378, 0.1530983141532196, -0.06218337182594894, -0.21033505683789838, -0.1453862955593883, 0.006136309742419204, -0.00918616902129365, -0.0031854178048519354, 0.021853312300185793, -0.03660942830333328, -0.03826638417427562, 0.013768808778961293, -0.008794981795600466, 0.022128350293165146, 0.01697231373092007, -0.0029972420630560432, -0.019522399957785787, -0.03392051555334778, -0.053055195614483526, -0.014700047979477384, -0.061734731093642095, -0.08662777868151939, -0.009517942300732394, -0.0836210309121045, 0.007641220719951924, 0.08494124852329363, 0.051919069278051344, 0.02788737767055213, 0.1083257485594077, -0.026258622909438672, -0.147072150714956, -0.0859515805783175, -0.1051708770376155, -0.03775762825414507, -0.03381603419331262, 0.009631321525568113, 0.014870243054372081, 0.007251378987067971, -0.013942432727765916, -0.004823219314048653, 0.01764212140264427, 0.003137843064522924, -0.005816673016459061, -0.018825249126344902, -0.028434173434296193, -0.0058336910444825515, 0.032437423830857105, 0.028432510062000933, -0.006309759634329964, -0.022455450756576855, 0.013481899847281485, -0.046609836328462134, -0.023774915966406702, 0.0008983745122922726, -0.007590336642142237, 0.0957619299241492, -0.06414319616090024, -0.21003965662413251, -0.144203690262675, -0.057759103675445414, -0.08546298927136547, -0.08628212446658291, -0.0036347393265843343, 0.06678399829429431, 0.019671389978504695, 0.003373008497329209, 0.0025264622153648875, 0.00691349429791493, -0.024646756371844828, 0.009565757885654598, 0.004182511094087663, -0.007799640213048583, -0.0019055625388690357, -0.004415942138676249, 0.033164071520327486, 0.0545443626201388, 0.007181098573908394, 0.02010219302429582, 0.006109378013000647, 0.022963786423584924, -0.0647464912231353, -0.08846109015848026, 0.05161130994701379, -0.08719029514421278, -0.0467923516530836, -0.06989875232894559, -0.05380347083089197, -0.09625753090983834, -0.029159459968516894, -0.02573903218893131, 0.0274394156234637, 0.07940674524060562, 0.023967279817042157, -0.009182871482739307, 0.017578084300001143, 0.009545223578294121, 0.008405198878124489, 0.004440565441405734, 0.010273053331945226, 0.015454796863891207, 0.027746314957751508, 0.024862698364358456, 0.05075231197050262, 0.06043047563605013, 0.03239588628263284, 0.04375188978134745, -0.025830693731668367, -0.10247244941257619, -0.0396453195593445, -0.02385866061832056, 0.0010897341179320489, -0.04531253831611752, -0.0713171223699024, -0.09721128601125938, -0.0789371169578165, -0.04214944601586798, -0.08408034838685698, -0.03427068835951361, -0.03209395068347463, 0.014265515222934743, -0.005937232565069487, -0.00935715290010725, 0.008606807833206357, 0.008059062859025102, -0.0011989093804573565, 0.00896195461604601, 0.014619162331827902, 0.005556004119427691, -0.004384014347134913, -0.016151387575121936, 0.010300815889930932, -0.037117285836861115, -0.04560605772770854, -0.00802781592987898, 0.012948692253198427, -0.03694017353162364, 0.0004964734244927371, -0.036969156643615095, 0.010533203758134881, -0.020025812109271617, -0.024132049418665376, -0.05611740440133473, -0.0174373067382419, -0.042874833660129, -0.09414074814499263, -0.04539767705009159, -0.07292005476431558, -0.08521502328952858, -0.006906985262196955, 0.020710047754033917, 0.012749041018079095, 0.02307843970149966, 0.010114577719005357, 0.01541047964140572, -0.01581259501214816, -0.002172563378532902, -0.015538945932362437, -0.0004347082649509178, -0.019977775305722492, 0.003311820335561903, -0.0032503349221593824, -0.04860132541909069, -0.010995292339369188, -0.10373977779606405, 0.05343540754070761, -0.027441930634516182, -0.013438161014640095, -0.0013304602519025473, -0.10774627974008198, -0.044159702463490665, -0.05518070756991808, -0.0888985483686787, -0.16652804397919008, -0.10782620754052012, -0.06338975667306115, -0.03505378204700845, 0.017124263102960533, 0.0037912263575627637, 0.012468264524059832, -0.006772254868376508, 0.013460231791433694, -7.777285285960499e-05, 0.006213391308550674, -0.007820677883864062, 0.0009742117733391553, 0.02984504333471092, 0.02164455694167582, 0.040816661207112206, 0.06202484103740485, -0.005260465718401925, -0.004401583688410018, -0.04019825273809004, -0.07960638056879647, -0.059189554267342494, 0.00466878640610211, -0.04924363588792441, -0.061982523648425276, 0.04247719422244646, -0.01689106523025286, -0.06815193904987205, -0.03728447122086368, -0.0048540250877460445, -0.023543141133780195, -0.023963736630251514, -0.007312489475558823, 0.0051063349535062155, -0.007866730052521385, 0.009105521489496839, 0.0114296920493446, -0.010954452835016565, 0.0026480855960850144, -1.0635424827127751e-05, -0.01387164591366995, 0.012206418226967063, 0.02832079329941935, 0.03527198440744319, 0.007483362455468559, -0.0030996402833445053, -0.08207237772817289, -0.060658859614500384, -0.072146911949587, -0.04423519584574735, -0.038340898364764134, -0.04763216822303327, -0.04822789639994604, -0.13074695471607642, -0.043112143964917395, -0.0074455562929007235, 0.03652355551889115, 0.034942904469978366, 0.031236680693767227, -0.006037821256566781, -0.0017031925703435825, 0.004002230673180621, 0.024091251337898866, 0.00831970749118889, -0.002066463647289702, -0.005116539694639594, 0.00023143325865789823, -0.012607402707758513, 0.007717240786412245, -0.0004642663023158335, 0.03133759249718606, 0.02742460508142166, 0.0028623909066748466, 0.024157467176670198, -0.004060081285116182, 0.0003338316275157612, -0.021747154282532245, -0.035261954937632393, -0.039202786155069363, 0.0023076751083728033, 0.04757986751885091, 0.025581300407527315, 0.01167026234684574, 0.0042238907763006315, -0.003952754342757855, 0.034121085430500124, 0.003491021892395632, -0.0015623624443507386, -0.0003410444248149294, -0.0026032958193482054, -0.0007612721766575323, 0.022295705011139356, 0.009267066432738284, 0.0024988441781958895, 0.0007863101565871965, 0.021439861843358093, -0.00427848071745179, -0.00324383190192841, -0.008725257090352018, -0.0011797081311127175, 0.008768138788218836, 0.007366504467077717, 0.011786355675851214, -1.74472371694918e-05, -0.004896209379628984, -0.014263138693700718, -0.023086228925270975, -0.017449100860650546, -0.023908342627632317, -0.010918419783052396, -0.005148048540894086, -0.0037754351443619154, -0.014404261168389745, -0.004430728871081243, 0.021755251289423162, 0.008013612315221831, -0.0011369861639090324, -0.00799055151806824, 0.0008821562452099812, 0.00934016255852319, -0.006723081757177379, -0.011880881812706204, -0.004804815245208394, 0.012810038244129688, -0.017757513606646087, 0.006162208414118265, -0.014066738834153741, 0.010648712021665448, 0.006242894833821665, 0.008323717470553119, -0.01303272327433765, 0.011776183509097324, -0.0019539817513632854, 0.0029683992173006467, -0.000626915489842222, -0.006913300189508144, -0.013027107562926955, 0.009311321663965378, 0.0021755320146723514, -0.01695508432510858, 0.017197870755733907, 0.008413225740340688, 0.0012466671922553975, -0.0012225656789701803, -0.009300134298796501, 0.008376735108782314, -0.013348900583830963, 0.0030784957983187194, -0.001962626986020685], [-0.0016311102431514055, 0.002474741754610423, 0.003046974976587562, -0.008812783501070804, -0.0008978700347798325, -0.0003902726970886121, -0.01138241275978453, 0.007896175777025748, 0.002376117508076971, -0.0016544728590339372, -0.00622116673799306, -0.002507071062824163, -0.011211344695278272, 0.0092333683578998, 0.007127307545638481, 0.01683376800451926, 0.0066889849401871645, -0.016072612024985937, -0.007084698046078288, 0.007772886523554571, 0.0028465070582300946, 0.007896164160985267, -0.005342232605697081, 0.0037374908063268508, 0.003396143009014226, -0.005116180979132717, 0.006335809680081247, 0.004536303209771126, -0.0011695382252379035, -0.0038687667628010403, -0.013515294857937581, 0.005862955659666729, -0.0018536937455430173, -0.003448967076278743, -0.011889463005737634, 0.0067566939592061176, 0.010050115445286853, 0.002866482935437357, -0.00936475755484327, 0.005532683990440357, -0.014355421985230439, -0.013309622061177822, -0.009674172994943268, -0.018271847621035488, -0.01321712487355187, 0.005270555577682119, 0.005372391872481211, -0.0024980284007276423, -0.0017924400360961191, -0.013187101135862161, 0.013538963608739582, -0.003163201128705143, -0.005361461491857772, 0.002260164560710068, 0.0049007116746197545, -0.00796171351155146, -0.024483386607598738, 0.0005030719230245548, -0.00016138537393859875, -0.002907711663265287, 0.0019832656695295066, 0.002010072541649588, -0.0023940038765738773, -0.00448313764563284, -0.00991784658076762, 0.00866462026758712, 0.007196784377833727, 0.0074891519503686175, 0.00413031898287409, 0.011050803728616122, 0.00412392502283523, 0.003538537540762136, -0.00443742310969828, 0.004153884270882487, -0.0034771768390464797, -0.001285376048943902, 0.0017881916346669216, -0.003133502260840271, -0.008485774862087151, 0.0059514756189007825, -0.0029179967801564962, -0.0015076085916299155, 0.006336459000130661, 0.00268354686831266, 0.010914432032920933, 0.00024769763063800634, 0.006197946357710166, -0.004739350784135796, 0.008874556167728115, -0.0073786570829699845, -0.01565112886637055, 0.00360839607600096, 0.0024795798351203383, -0.01710286102320222, -0.02826434692174277, -0.008269484594391498, -0.020814346998512933, 0.022831241950169914, 0.03387422786445062, 0.025773816860520382, 0.017695729317897882, 0.009164278695226652, 0.03680368535435447, 0.024480500658992196, 0.01134127961699853, 0.0014587858365489544, -0.007868250269334782, -0.019895865452511145, -0.0069960635406552075, 0.005404985719889455, -0.0016028747651209382, -0.0024755690685317523, 0.018937359270650787, 0.011435818087518253, 0.0018032436669950637, -0.004356905113950012, 0.006017881248482469, 0.000998974126368876, -0.005552042929498438, -0.0162792509494823, -0.022034870129342566, -0.014717644897401488, 0.0015122808957100395, -0.005004404265840433, 0.017062560504901556, 0.018405975981794435, 0.018573590219628767, 0.039665289196909356, 0.03311307347121118, 0.04757654985051119, 0.07633564855278684, 0.03350261292441383, 0.040799633476112235, 0.0042265437604202165, -0.0010929640683260198, -0.005933201221089449, 0.015525831586249692, 0.020247306914298064, -0.0020217269279342574, -0.005369825807822724, -0.0030076720826185534, 3.103224218924848e-05, -0.011835071488205149, 6.243830154622034e-05, -0.001316414729822711, 0.00726105667437474, 0.025630620720417788, 0.013635049615876232, -0.0065230776706219394, -0.014154451149525776, 0.01826788373032974, 0.01594683117761814, 0.023524317861790833, 0.04364832535168807, -0.005705946157824016, 0.022346885563369532, 0.02682572070494338, 0.057152818861836485, 0.04787266981186752, 0.020941762655956726, 0.03940007684745009, -0.010825747497814321, -0.013769056989391515, -0.015541873438046083, 0.010976297166743601, 0.0004932333797338996, 0.01568436502437437, 0.009891817419208518, -0.01972319662087648, -0.005318633500010188, -0.0029849332053629744, 0.004178455896600606, -0.0015650316567611708, -0.0008678291136996893, -0.0018343128576274923, -0.01771042416251937, 0.0015350881385425604, -0.04091846952924113, -0.013074422242815235, 0.008866757325269647, 0.009828293386997696, 0.01872182505611093, 0.017576567425753184, 0.050467681918082166, 0.02388226510984686, 0.06266886676179796, 0.05820545217564779, 0.017004011502044572, 0.01271595110324019, -0.02908908261968895, -0.05250895828143883, -0.04153462299364547, -0.003234179596017653, -0.003990396302993137, 0.007615938353823188, 0.01812985929509408, 0.0025272452756109186, -0.011605096146129822, -0.004258138248308439, -0.002937980630157853, 0.004984070769489398, -0.02662418490076776, -0.008886863906464806, -0.03994014411306967, -0.020551534217099075, -0.029286075944609285, -0.025783362916175476, -0.017747779620603015, 0.014007978856163821, -0.001162026368687165, 0.03921537779777937, 0.02295299400847949, 0.025265011441093922, 0.027591717520007754, -0.0030450870252601665, -0.038220917480216596, -0.012075667887830922, -0.04040608353396745, -0.0294257816542367, 0.0018018510915361308, 0.01483940133560347, 0.011106993093792226, -0.0004662369713674419, 0.0001698017900604914, -0.009008415476752801, 0.017475336666119643, 0.0026161167601397492, -0.01024662767793802, 0.003162735033786461, -0.01740973684878117, -0.03406398848465431, -0.040395584281904734, -0.009051310109375335, -0.008353491469002716, -0.031671372407162036, -0.054578511531921156, -0.013842023072176832, -0.03290388934399233, -0.01729894221430718, -0.05813527900088979, -0.04972127300809613, -0.07947460489030572, -0.08559721727807217, -0.09945268456200469, -0.03341175459608821, -0.04053646382437225, -0.021971941350474724, -0.014612293030570274, -0.0013485540165354701, -0.015178349665939677, 0.004563661374241129, -0.0016163737038392297, -0.0033577721223018377, -0.010608877031376491, -0.01641150793760422, 0.0022214821586104324, -0.00863646675194159, 0.011226222025360137, -0.03191854796516501, 0.0033668619467283577, 0.014392794539836051, 0.019079774504417384, -0.025313128731386653, -0.047665703564632324, -0.04053900084300832, -0.04859276387571951, -0.0009302004971060457, -0.022138417197124536, -0.06998449618711218, -0.07952873707554727, -0.07034646993747352, -0.031771447259850566, -0.02534016677250264, -0.046831069532810896, -0.02230553566662701, -0.014250847277883347, -0.0012368364539968228, -0.0066372310501539925, 0.004974107227250687, -0.002073534540098637, -0.005017647129743504, -0.008171162532027218, 0.009102412443221946, -0.0030063572393588087, 0.004811379551408249, -0.005542258209235362, -0.004550564047195033, 0.008258640651595001, 0.005436845014356212, 0.009191538593277869, -0.011557926953797133, 2.411236061230807e-05, 0.027210103220833615, 0.026419245304264892, 0.04204389860807612, 0.0013538342777048645, -0.04824349934686494, -0.0394168691354331, -0.025834008790266254, -0.017506437641765744, -0.012292289690216313, -0.035304044023997505, 0.005669795759301411, 0.013604382378775986, -0.003349294455764508, -0.0004752326429049647, 0.0081878641153861, 0.005600803718050955, -0.006013681309350057, -0.0029629125133226897, -0.022304947162075612, -0.009661819249857831, -0.008871951101011848, 0.0011940857425193996, -0.009561036707054526, -0.003747388894520474, -0.02034964155258523, -0.017470868264968305, 0.015770956378709546, -0.0032844950979369616, 0.018569277597805755, 0.058163970909533035, 0.0306315808049507, 0.04674847133926105, 0.0077852651280645516, 0.025514323827954603, -0.00298967403862901, -0.05043078577286089, -0.0437758186387281, 0.0018920374604143033, 0.01500222391447246, 0.00037842188124224003, 0.018012279141356287, 0.005245606283625585, 0.003884549889896203, 0.0056023295226890635, 0.007623489168133992, 0.010340743236727715, 0.0007473593983190542, -0.0026743455007555038, -0.0023865555186643964, -0.005731672770999373, -0.005244572847814433, -2.5462278189495787e-05, -0.004615914489905007, 0.011169810259252153, 0.032683953726164616, 0.029588045549439616, 0.06403480456533002, 0.07864129496556382, 0.03621890623392173, 0.04970685582952663, 0.07199310707267666, 0.047319770472587515, 0.014872880776531053, -0.04424289995776254, -0.03870289643829196, -0.014698971862261647, -0.01967196965607303, 0.0036254455855174814, 0.0017869835925743123, 0.006755138284311819, 0.012290554916709195, 0.01277773028311137, -0.0012623514903367591, 0.017843376072207522, 0.013634034508074844, -0.004956869347595617, -0.012223507546840753, -0.0040881017413088505, -0.008492905341895125, -0.006882343746131159, 0.003717104260841864, 0.020855293376722088, 0.02835161402849032, 0.029597040716489564, 0.025661705728966543, 0.035839719018093165, 0.0007332342935253739, 0.034611618031032125, 0.04757131789127119, 0.040372875316776566, -0.017963132456790962, -0.055046156557986836, -0.020745906202056682, -0.012778597863042272, -0.014629420264717117, -0.008848329960844354, 0.00316847124558471, -0.008105604546359219, -0.005928432146135561, -0.0002572502129553183, -0.0188642974758244, 0.0011604687382137844, 0.0028072949731263873, -0.0025420855520286363, -0.006093059717221412, 0.012189249579430083, -0.004445629564281954, -0.03989874516254534, -0.02598694739398505, 0.01433526390972282, -0.01111160512407354, 0.007609747632631735, -0.012748416710866066, -0.052136524307678005, 0.008298803443753095, 0.005973615005822712, 0.027473330206245383, 0.03504775660625612, -0.030130224897549, -0.05941150267228114, -0.013387939328304888, -0.008971360578851237, -0.0048154798984279615, -0.009744758994638118, -0.011398830723839458, 0.0034605980773416037, 0.007310041509913014, -0.0021606716372278745, 0.004370950526474936, -0.010271274560742637, -0.013455661925293563, -0.011685707236776659, -0.0060192056828948515, -0.0013283229057482564, -0.0070377714131735535, -0.035921516754779885, -0.036180334980966636, -0.014563495501865427, -0.06703304556102403, -0.06239032763753362, -0.01226012916974908, -0.0397295253208813, -0.006663425409986333, 0.012370938033072423, 0.0037979847949402025, 0.01726946149758586, -0.030676926092916567, -0.028723202358070608, -0.0004345684979531643, 0.005397502796154055, -0.005698215352947369, 0.010846517135612663, -0.006005513264454538, -0.00966779606206301, -0.01952998288356609, 0.0011825220242837964, -0.015214317856489416, 0.0034458571254248455, 0.013491167286741036, 0.0016801915016568941, 0.015700532411642144, -0.0005847244050918379, -0.02849729248042037, -0.03049445928441264, -0.056434316836839055, -0.05049860802563109, -0.08773151828579502, -0.0534259459987734, -0.03014725173558988, -0.0447412921040624, 0.004708629340252482, 0.05062425547645411, 0.023254490292311213, 0.006818946081567386, -0.0328872539573632, -0.01968233905190149, 0.014707947451109668, 0.004793766857727509, 0.006153864284784265, 0.005624802855110333, 0.002349791161782709, -0.003256668909935704, 0.013965388929048196, 0.0025840388317905872, -0.005819743461752781, 0.009682048820316858, 0.013280729399623636, 