{"sizes1": [784, 48, 35, 10], "biases1": [[[-1.2492988894859527], [-0.2337097679909068], [0.4081515440345983], [0.6269676878048607], [-0.25748346532807365], [2.2572842197136103], [1.1420680855877299], [-0.9997289210618631], [1.6556142642007456], [0.23548207365453894], [0.14920983490607898], [-2.2967545436360073], [-1.252313176580223], [0.15558793816431246], [0.28863150666474313], [1.388761883451585], [0.711070106928872], [-0.7263356639753911], [-0.17004056580455992], [-1.2166494257043514], [-0.4459693063708718], [-0.5395023455581716], [0.6732299683556735], [-0.15032997689365968], [0.346611577568734], [1.1314956439468635], [-0.513759108114711], [-0.4438448267223996], [0.6700021867040842], [0.7665772901715079], [0.558741539555145], [0.15701574639783022], [-2.2278458500402034], [0.7915073633589133], [-0.07001599553460866], [-0.008616817842917438], [0.3645685853773273], [0.01606262961417953], [0.19061432110897633], [1.0744274371807039], [-0.3754365611706433], [-0.5265298554378504], [0.3284292167340863], [0.4814697380182077], [-0.33367393828227093], [-1.4256135290791516], [-1.4466008212574852], [-0.4721225200840732]], [[-0.3728109159890251], [0.5539663021531497], [-0.7197801928748343], [-1.5611375945344013], [-0.14009943210808068], [-0.3463847939596684], [-1.6667347465859588], [-0.6040417615491582], [-0.5797417925061786], [0.2984670139745977], [-0.35853742311108094], [1.0635085242530489], [-1.1336024460303902], [-0.9223326960918139], [0.3050870044657686], [-1.2044194471389458], [-0.25565364241997973], [-1.1334213810706522], [-0.3078731040032755], [0.6857288586001007], [1.467975865662152], [0.38009031021104206], [-0.21542181352145276], [-1.8782473348055793], [1.035367451063839], [-1.0208522807772142], [-2.0677584227533776], [0.08594984102182293], [-1.213640941742902], [-1.1886762286417958], [-0.04473853057745365], [0.6569147313881369], [-0.4043574177308575], [-0.24443691989151006], [0.42290963011135513]], [[0.07525825080793254], [1.1634456143717953], [1.3618395725562773], [0.8925546921551846], [0.21413436072977765], [-0.6798366293383334], [0.3337087863491405], [-0.48763527250040145], [0.27693930855695237], [-0.9225999367183444]]], "weights1": [[[0.016368504061070054, -0.016731696617465194, 0.028353348924825595, -0.0022703067277122504, 0.017539204352923877, 0.0325383126545175, 0.012006476232649313, -0.04241532127309382, 0.01571802487729878, -0.008613971468083102, -0.004592237283784449, 0.05766776083516043, -0.055025031922217846, -0.002946966518756987, 0.0668070366567536, 0.05567472112158827, 0.0018301616244818062, 0.007340505933072636, -0.05649591920523681, -0.07527323429458432, -0.0009081910610704863, -0.004875726272910606, -0.04040297254951057, -0.04887286603379859, 0.038730996101261364, -0.012780980320059435, 0.03622522701759916, 0.0002474833988201441, -0.03476439232959939, -0.003488415691817473, -0.052700216505803144, 0.014926861094819954, 0.0345140335244649, 0.006542935914957297, -0.06881748461998548, -0.02744734073712175, -0.02597990553923674, 0.00823384352892984, -0.005687158118302534, 0.04128398168806626, -0.0323821007486275, -0.0700131314887359, 0.040992804180667926, 0.0018615811160083255, -0.024338496526092716, -0.002014763369939774, -0.015306629889094318, -0.0002629923086489724, -0.023184225789169375, -0.07119588742850862, -0.03685601616840265, -0.0303129812327215, 0.0035770122207041508, 0.011605843115652766, 0.052328364766204324, 0.029627231210686802, 0.023177140966443965, 0.0619485115364616, 0.03118917425901389, -0.0633827456424746, -0.014221967664697814, -0.0212832196787782, -0.038350220022188956, -0.03776963848721072, 0.02932754746778159, -0.00011614521942254598, 0.029111525347956906, 0.008792741832147354, 0.04260106150361137, -0.09841499696255297, -0.031135422787662573, 0.046520808423117885, 0.020542860706419086, 0.030488678352882152, 0.00030991214192169767, -0.02857283024322833, 0.01966032463617621, 0.05243673422633426, 0.06937044045062014, 0.010247765178676638, -0.03203006128736741, 0.05798135836269093, 0.0002501296786272587, -0.029466321643584568, -0.004511543299353965, 0.015547127823314648, -0.001713330842326891, -0.04541918282551905, -0.003137166160141113, -0.07542102471137584, -0.007977856041072297, -0.058155105097393696, 0.018441500906381823, -0.05803083136631363, 0.013671013666818596, 0.013444904157786305, -0.0016161198023424896, 0.0017377940116942935, 0.025261664245202212, -0.013654688677255828, -0.02490885607399987, 0.02569677491191839, 0.011827599934187989, -0.07167955998180839, -0.020233395535156736, 0.04092288139855414, 0.016163845022504786, 0.047152946991972124, -0.023674276521891562, -0.022804223390878894, -0.01578823000290904, 0.006672013167430837, 0.004355198323774659, -0.0020101253184771485, -0.004130290603692333, 0.039562308352381954, 0.0025585719755352224, 0.03942792997675866, -0.013149031540875395, -0.028570210249324123, 0.0554528367397165, 0.03607136738683762, 0.0676968392705848, 0.004686721103659907, -0.03717487680019645, -0.004096261402754839, 0.0021019656668538377, 0.04160243978177217, -0.02506303007540633, -0.0033902297611658715, -0.010905173747762831, 0.0067242207934941, -0.0046478936621071965, 0.01576805012540643, -0.019682462395286288, 0.06991003395670185, -0.03290332920179225, -0.012162839800202748, 0.051185564411394206, 0.04021495068064871, -0.019904403250715564, -0.030935297855290443, 0.008259124873253301, -0.014207272832280043, -0.04056323685489262, 0.02121109587849417, -0.024019547197021842, -0.015165974595966409, -0.022865576746413863, -0.060041735190451626, -0.022680742046296352, 0.04868557577402476, 0.008215616483182421, -0.05199438521574267, 0.005323416390170561, -0.012054679321485476, 0.02705666636470663, 0.02363562223561479, 0.003935258937007897, 0.0066230004909442145, -0.019986310234427766, 0.037980437948840026, 0.04009083918665101, -0.01445388001835599, 0.07505732361135994, -0.005827662760003396, 0.02808563870055797, -0.018966562874665145, -0.008779230358029652, 0.0594283970444275, 0.0029475010982906217, -0.007135946293442251, 0.05305696392202396, 0.04108730651880725, 0.03112834089660355, -0.025876107781199618, 0.059082796529714494, -0.017031752094643787, -0.039420388659218174, 0.04905019010958981, -0.004138702829567321, 0.04947599147697927, -0.012327335005318274, 0.01982606495269648, -0.026221736262714533, 0.034654153847498155, -0.0029054404785174765, 0.00198740784926645, 0.04082643569210071, -0.016252463567773264, 0.03707572695527527, -0.026480984764299297, 0.018988007287275937, 0.03638526025335366, 0.026991508383898934, 0.06493266457188991, -0.031017113698839048, 0.028331031467383954, -0.04066407491232811, -0.07298308218347312, -0.05451421689078212, -0.024223719717808772, -0.014460306347859343, 0.010882658970466568, -0.04827751708497936, -0.05011252812267083, -0.014615364747976615, 0.03341539270835687, -0.10215799246743955, 0.032526167793802234, -0.01342408382876895, 0.004833834993464766, -0.005211637267981471, 0.03339150052768881, -0.016324305388060505, -0.011266791691178819, -0.026294504948488943, 0.018228617622724645, -0.029304446285106513, 0.009637926356439596, 0.032799866203530585, -0.013467380361886248, 0.004365461217105196, -0.028286887654433535, 0.00339975315189513, 0.01300469870535414, 0.045998324049767156, -0.04042659376088007, -0.018978152986750572, -0.002443523750945507, 0.001980173257853224, -0.013822087739122425, -0.026366279896876035, 0.026373633550744704, -0.02909873753183231, -0.010763071219703923, 0.010020163803870843, -0.03174863634861425, -0.028116796560708812, 0.06994197317809, -0.02384793495230258, -0.018446573544061255, 0.03043579635605932, -0.074833387740936, -0.014331744244086281, -0.019004353638380076, 0.05661976565581095, 0.008326494109991403, 0.055041498991544466, 0.02812554215663529, -0.036988952359413886, 0.011882450692611938, 0.04118072222265671, -0.04583873310101006, 0.013741304729522516, 0.014415507253681095, 0.0063051643263553735, -0.001632949116256551, 0.026068125494953694, 0.03414174201170896, 0.04476377491422357, 0.04825840390199917, -0.054197016590622836, 0.011056024732327285, -0.021390792025442674, 0.0016473381052428903, -0.037697412371212956, -0.02437550544618702, 0.0415214004314927, -0.03274529233811304, 0.04426059000206101, 0.06345662028570656, 0.00012174545786548197, 0.001218905256947608, -0.006484894421495782, -0.02023058024997653, -0.015586707430024197, 0.08230412221934133, -0.033504490947656486, 0.01882133062999248, -0.013110384787316992, 0.01103459110572001, 0.07602307378647999, -0.017719196109938818, -0.03787005341740683, 0.019124593886963356, 0.027458949249599296, -0.07323159399587219, 0.0273741051830927, 0.028102573485748416, 0.03156670843221716, 0.034102168096578775, 0.006090634765100651, 0.02210218959636528, 0.018494891689602274, -0.010785001933062654, -0.05268989390922912, -0.052179923634226785, -0.03513200057227326, -0.007501368935474481, -0.026364781102545427, 0.0038196560186402064, -0.029987607306575542, -0.014960777389631705, 0.017327701414678886, -0.019295824828258087, -0.042536001746963384, -0.013334159098695406, 0.042308275096134815, -0.029226978157031836, -0.05073412576399878, 0.0819780640928717, -0.029411649524233002, -0.04029114950594308, -0.011429454521667309, -0.011655718752257928, 0.041650813322459894, -0.005485270224319056, -0.016137156687796528, -0.003158581887494415, 0.07568634489455035, -0.005347845057060365, 0.017304678230470907, 0.05787467900397576, 0.040067568669867715, 0.03653491588004914, 0.031644668273636774, 0.01729441825280847, 0.015707591681182374, 0.004341663122654949, -0.03620666536405246, 0.012140636166848082, -0.016887726259716136, -0.02380393334475465, -0.04567028966619063, 0.01792838974807992, 0.07409362067864501, -0.010660998138311036, -0.07656232837726713, 0.015230433628607336, -0.042545308991919085, 0.05808949652481006, 0.035943136250421046, 0.00040285636955551655, -0.00141198860308873, -0.008958994786401967, -0.011544568628253014, 0.06732825097131057, 0.027074347191823785, -0.07082673582368505, -0.016975912982342, 0.04305067918290682, -0.04464186947883136, -0.05479527914967477, 0.018190062575203118, -0.05715256186474566, 0.06267504467355788, -0.013275184889690858, -0.018551738647541, 0.021521567717810112, -0.05680586461461375, -0.007760019259266171, -0.046728194898377436, -0.04143460244422041, -0.029397402945572575, 0.003356055787746608, 0.02382955243129762, 0.022425942228771, 0.06731013379632908, 0.06231885198295909, -0.030939002873226297, -0.011061654160380506, 0.011655774747725601, -0.053716249274347316, 0.013638813175751536, -0.04627736104765247, 0.07352351242276352, 0.00872348388022075, 0.05802868651670736, -0.09356917411457776, 0.005366059014553874, 0.0034987252430255873, -0.016239033361440103, -0.02619099566732642, -0.002644701347506677, 0.04170053402143293, -0.010706082966967016, -0.03348128282032356, -0.01088091143014093, 0.013297630662281465, 0.0023609015621869236, 0.05434834123006712, -0.04336000562427756, -0.031537694793220154, 0.02159266357272149, -0.05963581813292879, -0.010400399568407187, 0.026216985285544486, 0.052702313231871425, 0.05562850974194346, 0.04018356627380502, 0.017539786281121267, 0.019892662165937717, -0.004701449900224043, 0.008768188995481723, -0.056736318073381774, 0.003161008940458037, -0.03294681773102591, -0.061208592475547094, -0.026690362512361725, -0.054753537318664836, -0.00684781184648281, 0.06376751241593635, 0.012972012509825511, -0.023988501429723117, -0.04198337846439606, -0.012793593106972064, 0.01421947714605619, -0.03019178354513404, -0.023453136526358335, -0.023210369932348797, 0.024383626788967955, -0.04132824260651146, 0.0349554322011597, -0.023458230709700465, -0.01769994093083122, 0.02608911050239251, 0.010108075864338628, 0.023062531487603195, -0.053193975381824424, 0.009318242063838815, -0.035403342644410564, -0.011327866270044654, -0.06359815169505814, -0.020069609908893005, 0.005120411946663523, -0.023968479567128536, -0.04658357306544334, -0.0028351491602451304, 0.01957833948713934, 0.028877620875967132, 0.00039779051026084315, -0.08993462097273484, -0.054254661415568235, -0.017378586371086458, -0.0031775301887850475, 0.03184547225403848, 0.013309956941884804, -0.0587466373234753, 0.005576126362359456, -0.061790478023725774, -0.02124634701591563, -0.010651113987925506, -0.016021057367321356, 0.009514972259674487, -0.04319998912016991, -0.016037637626501282, 0.012567225694500004, 0.03617519321344153, 0.013337412553641018, -0.010941309772371764, 0.019280934672891055, 0.03949172781593928, -0.04123683322316429, -0.013024270968155971, 0.014428695758764274, -0.00914729155219891, 0.02037138083030105, 0.03971367916579543, 0.03881670810707249, -0.014344988846083514, 0.028442499135548728, -0.014662586005224453, 0.04695324614806688, -0.0074410827529055095, 0.004035676328017901, 0.0395283325323183, -0.035672224089267124, -0.009015953718153965, -0.02947586676846801, -0.020805167657997996, -0.008930151771971354, 0.023494054972394103, -0.013816365847348288, 0.01990175164942824, 0.07310770331975791, 0.035650889505258125, -0.07855860104075053, -0.015015734705429109, -0.009904703824689562, 0.02513869655325934, -0.0272940436829819, -0.014356493876160406, 0.022281048960848683, 0.0054447422441989395, 0.03215957016504605, -0.05495192159385727, 0.009246486166357785, -0.00926336300747434, 0.013514435652171865, 0.009991323351542711, -0.006817807910537035, 0.02066128076176584, 0.007694720547629951, -0.04221123378972384, 0.004702015620856167, 0.00951402412471501, 0.008613709267320314, 8.229946835111922e-05, 0.037347064044241825, -0.01845249176192263, 0.03366255879315696, 0.016768796161530253, 0.039202106997793425, 0.09724160492286922, -0.005125173404311183, -0.04354034318486847, -0.05335923532786135, -0.01879982885636033, 0.022655651246445887, -0.041244250630178156, -0.02291140801076502, 0.040656856727594504, -0.05979296307550497, -0.04329705150974482, 0.02825225063802977, -0.005677338292646125, -0.013302389482613334, 0.019102808522511942, 0.03144942059522347, 0.019985085051653813, -0.08328561857319128, -0.020693172215389504, -0.046090855820954665, -0.01198340554822855, -0.0010502188283864561, 0.01770663917683173, 0.046701934081835664, 0.022893823604046532, -0.02030769700412347, 0.0011485481372189269, -0.015108908182768553, 0.05286495405791469, -0.05682600251139903, -0.05210966553836079, -0.0029973424560306573, -0.010361369426268108, 0.012578987460077611, 0.0017946574956746281, 0.00041223497811532304, -0.03388131677711234, -0.0054759039534275685, 0.008738646606414492, -0.014428919717094526, 0.015526422617037012, -0.07961085809761478, 0.05773457723496962, 0.03656862330892903, -0.021954982209375317, 0.04064076593840489, 0.03466638700126581, 0.03208405937124508, 0.06114209536107867, -0.01604170977353255, -0.044417146412539577, -0.013745752021956352, -0.028854856130464696, 0.0012785342241805123, 0.008677389278646445, -0.02880234281281698, -0.005709977862704004, -0.03426228692245666, -0.025386809665627726, -0.021658635645945046, -0.01816923292129815, -0.008038031627339253, 0.016463296379094973, 0.031649797814860374, 0.030435804762339456, -0.006589177399075036, 0.04191045582850946, -0.02571204361213586, -0.0030315630593440936, 0.0007567310831891211, 0.030572191897683898, 0.03762909467433657, -0.008742509025885987, -0.02059728516114329, 0.007719131736541125, -0.010894102769986697, 0.0546815811584053, -0.007792124911480388, -0.01850365874240022, 0.004494646278416342, -0.05663370235734256, 0.009676166758215653, -0.020440219162447367, 0.029431493994047164, -0.039927601519148835, 0.046848755365959914, -0.05683372505332686, -0.024702958068641676, 0.07159303138375568, 0.01998870788510482, 0.028673583173847387, 0.006702067576093464, -0.009734866789504346, -0.04798559558445469, -0.021718530555551646, -0.005791373806719196, 0.06683949504761014, -0.013441018606696126, -0.045068054738038175, -0.06839902320232072, 0.04413305355375857, -0.011146020327112123, 0.006028441943983558, -0.021110070422445056, 0.018039229861730587, -0.010263849951515167, 0.02017909190811346, -0.003589699476219682, 0.05601140059362444, 0.0010790540138265665, -0.02420093638480092, -0.03669055877848415, -0.024638331990375316, 0.07745330873332511, -0.015395778036440533, 0.02466055774307759, -0.038158644491906875, 0.02321199802728281, 0.01902487906184584, -0.06928569807380029, 0.0013591982793646079, -0.07950989062612253, 0.05602832527751083, -0.03758857140743622, 0.021783984861124355, -0.011332359821524968, 0.007929841819841554, 0.007959295951736918, 0.025702533431945115, 0.06886990317668398, -0.0685618504179186, 0.0031132409219656204, -0.07452931734889297, -0.04192545910194929, 0.012255863360538017, -0.03882812815889154, -0.0421456334377806, -0.006642517955232714, 0.06108320387456255, 0.031344413792633086, 0.028730114144627634, -0.04090095838799825, -0.06919129585232017, 0.02353714322116127, -0.037752165773793915, -0.045381269623436644, -0.03207855091913623, 0.04246628737753537, -0.01867127217907655, 0.03629472962482821, -0.0020559941664446807, -0.019689985415600093, -0.011195013120307937, -0.027405206092810996, 0.012338480465407737, -0.03180263111488349, -0.008194203950366307, 0.05051128325268297, -0.07494393800161757, 0.027705660713405262, -0.007819810761062352, -0.01852338744984554, -0.031014111882214784, -0.05615639671259603, -0.03121221096778626, 0.008923379853779806, -0.04547940394843455, -0.01225566981787384, -0.014132774307164373, 0.0013280212122218332, 0.03856645255582807, -0.03268805517605881, -0.04086254855537267, 0.04227908127085161, 0.003352870248873219, 0.0367931572276611, -0.03244872615984917, -0.0059417029688945844, 0.019690004139790523, 0.0029585798890300187, 0.0008400144955284883, -0.11773063828103625, 0.02244880140153502, 0.04632198605314912, 0.017263490041644895, 0.04478216425486968, -0.003839862537295188, -0.027863286579390266, -0.03849387448671639, 0.030203121924153555, -0.11270604724292412, -0.012612587999522386, -0.048677100014696224, 0.02613037288893569, 0.05774426098228819, -0.03829822787756925, 0.019283279395906416, -0.018588679046414015, -0.04831575587690016, -0.0005960143062454874, -0.030190507847275557, -0.06388983627668117, -0.008297942823855242, 0.00860098850215443, -0.016063527671357804, 0.0664894301797488, -0.013199587397670706, 0.029128995641793536, 0.033578010971347785, -0.030549362318968733, -0.022914568963783667, 0.03298059645392255, 0.0038431108843858743, 0.08274419084848662, -0.01361173162050545, -0.025740115988598627, -0.017198057275801697, 0.015548583579855375, 0.03451940755736869, -0.010040882806958822, 0.04245945108939968, 0.027212718528614392, -0.07420807659467576, 0.0692457768189907, -0.025025206446287453, 0.020941755482662656, 0.00499168994351516, 0.052803191392581314, 0.05684483383794686, 0.03248007906436637, 0.03908507361854829, -0.009887275819692199, -0.03407239175949879, 0.021994303285074696, -0.036520602458450575, -0.018298373983331256, -0.0050442666602651945, -0.003935918314591382, 0.023484920120104804, 0.04347877545780103, 0.0007745568186699285, -0.008351049846301514, -0.05018130756195221, -0.061419764377189975, -0.008020418955198014, -0.005389736381582466, 0.005944810787342112, 0.040215546707710166, -0.008910589049929467, 0.000666978784520196, -0.0045512547337772154, 0.03531300887750682, 0.03787402323967781, -0.02093938486529749, -0.04678141866110669, -0.03824977050292185, 0.01047009298849417, 0.055852935014406524, -0.02045128063175382, -0.03928345227852853, 0.01613906872670275, 0.03769294315531435, 0.014193865239081598, -0.0013382935383941229, 0.017149438510699288, 0.08714784566141429, -0.05277765315524892, -0.02586428550925823, -0.06705542279840729, 0.033596642178531734], [-0.016928177760000156, 0.0046713068043713404, -0.005995271177145621, 0.040479772515726195, 0.027432292078128993, -0.03994177003122846, 0.02428552763938124, 0.061370072138714836, -0.018901787070053955, -0.008739748791403459, -0.046447800463840776, -0.02181035068484018, -0.021390183928646563, -0.005648953228002877, -0.020932231871014808, -0.04283083578533097, -0.066921023347133, -0.006578315133493831, -0.008170475017952292, 0.004988360906597176, -0.06146819925646468, 0.00527956468237368, 0.0034354036266099766, 0.0020738566639108675, -0.012595887711122683, 0.05379564656704371, 0.04599431494878518, 0.005453657359168017, -0.0599527819714064, -0.09776100391464301, 0.02304534144025425, 0.03560541733125029, -0.035001199845843545, 0.014305235071754994, -0.003714318338105943, 0.010149850612973394, -0.04232454094749655, 0.006086200956664817, -0.08129241608551419, -0.021718117005527886, 0.035223418075204085, -0.07633406160848948, 0.018782704134246132, -0.037856590365401864, 0.0017306912468101848, -0.0514115910322338, -0.04941056686733832, -0.01027361409629794, -0.005342131003548252, 0.033166107724774616, -0.025421620981742398, -0.03071275598577478, 0.03171914912205529, -0.014109085311689291, -0.026246925404812372, -0.010571554074224753, -0.04038866365785004, -0.00255210605409108, -0.014499984195650096, 0.03900238070524433, 0.021008586320011697, -0.04642166737919285, -0.020574162186402404, 0.007729205418632906, -0.002757151695463714, -0.041995473973959585, -0.011275346019833057, 0.04978207699584554, 0.011930421451342934, -0.03732699960622165, 0.06432200761722168, -0.0475299812852285, 0.012676589325450311, -0.06944858214045643, -0.053825218878369586, 0.05323055696251798, 0.05580868683298341, -0.0003085944222542904, -0.002736382308022002, 0.03840829476992167, -0.0005598167733786209, 0.06593744777652036, -0.009133686741443648, 0.030637664937386174, -0.0850638782510392, 0.028823005421539986, 0.010268241221349452, -0.02215422140297005, 0.045820404839027565, 0.0024018643835912305, 0.005429879148017698, 0.018236039991410765, 0.010328385146990008, 0.06085848699107682, 0.012558648605947107, -0.0017022568329141323, 0.04809935913090222, 0.002744835378949775, -0.08994511982790206, 0.04411735460356302, -0.03249061566464405, 0.013749983769663104, 0.0036008718090943755, 0.02585702789986155, -0.001946583813589731, 0.017783982395052786, 0.07541704315455712, 0.05019736815007804, -0.013299230784552113, -0.04580391498730734, -0.04464082557477249, -0.005848068651975501, -0.04052783093679719, 0.1014784301131346, 0.0289417440723884, 0.07876898856944128, -0.03862392293157186, 0.008331778528067019, 0.016151714599326034, -0.003028446273769183, 0.008675486996264631, -0.005557146259491859, -0.03682502718909236, 0.02770445886995565, -0.020059415681808912, 0.054984240138221625, 0.08180036274419518, -0.017450677751727428, 0.027571678227149676, -0.013685013405468559, -0.0382717183358592, 0.07624167917009637, 0.057014270329328584, 0.04552706433188033, -0.01607764856774196, 0.0032797737603099445, -0.01514354380284508, 0.0011779273308338057, -0.010085369283456814, -0.020737653028794708, 0.006481307728069864, 0.023873719917228718, -0.04067115736053526, 0.09651312275292123, 0.006551518529762328, 0.012512878418995661, 0.008636418546405376, 0.06320171765663275, -0.011559153694762441, -0.03993390036462171, -0.009721850389428686, 0.021680616394208523, 0.010140545268506612, 0.0030284916382857024, 0.02225324834909268, 0.03291289597902712, -0.05307199695018618, 0.04703387549997767, 0.006480949009505333, 0.00180576595175754, 0.02603774685798821, 0.015034231974776139, 0.007220172075630475, 0.02511629340736995, 0.009206264781137686, -0.02715485773806734, -0.0748023917285409, -0.016295686462411498, 0.016565616509027534, 0.008563915498241223, -0.03592780289204385, -0.026847733042213794, 0.01935735535793692, 0.011792163955518744, 0.09959627129093791, -0.042466770276052494, -0.014793660710901841, 0.036055806605095095, -0.03124483304076318, 0.06686550207714258, 0.002636139560881504, -0.0157234375292051, -7.552449254797686e-05, -0.0014907850773418728, -0.06667511068817424, -0.03661941927236467, -0.05629812365053698, -0.00504605136139314, -0.0164825058789469, 0.04383306733430876, -0.010830224969017657, -0.022519071847270804, -0.04419581504579604, 0.001106658749319963, -0.044671193080656625, 0.04994256553847058, 0.02555102470351422, 0.026972972812377077, -0.011038713251579565, -0.03246607314621511, -0.051081255425603815, 0.049859399463845606, -0.008814000822702225, -0.0350046177800681, -0.012551465489228128, 0.020164384991595407, -0.008375054636687924, -0.02745436778294975, 0.040010682090918584, -0.05345467064486902, 0.02141043111584554, -0.008892423316827432, -0.033420557675254654, -0.010680262032482207, 0.007916594251907261, 0.025460877643471453, 0.06868773311812688, 0.041398872938559574, -0.003550081962715407, -0.006749247003187321, -0.00614272653709477, 0.008249381353354119, -0.06269545003324499, 0.010403577749468805, -0.05227327242425662, 0.03302403262691634, -0.006622157267521097, 0.05446365461973513, -0.02740954088356608, -0.011778727827818563, -0.05029375511846519, 0.00434067493815574, 0.016876062754916616, 0.014464273539718917, 0.0006545585967473866, 0.025232417906300104, 0.041777579869949844, -0.015759458786655117, -0.039052781901091564, -0.012397797431351141, -0.030234976319095615, 0.024075237647963064, -0.02680555236079407, 0.011415702155505521, -0.005888385108166951, 0.04312736409893081, -0.021202729511500425, -0.01691380433380815, 0.02436281621342848, 0.0030938271154253454, 0.08759999720256986, -0.0988445731929719, 0.06483207919055138, -0.07873944187480189, -0.009877823268225856, -0.043800091851263594, 0.054607047282751, -0.0006568732706192575, -0.02164631514132919, 0.030529518743267627, 0.009567898459904368, -0.011141751299583872, 0.012006913952151168, 0.06604044266068965, -0.017742923182607492, -0.02132437045280211, -0.02320094362686054, -0.02426388232787768, -0.03113529499090687, -0.007152077242849951, 0.03868658673436509, -0.025698718122166796, -0.050110141163893236, -0.02439795072543206, 0.04632563688521322, -0.0069630691013325505, -0.07029118488842082, -0.09095076761061148, 0.016174269498268327, 0.00040639407106525966, -0.046530066544991, -0.008081899491228079, 0.006902429696778898, 0.07012768878710293, -0.024163841324219885, -0.04466152048109403, 0.043301840734403296, 0.029277356430115968, -0.0216738045759352, 0.01196782896492957, -0.07705314959440356, -0.06594336746397088, 0.04074016539882871, -0.032810601497753535, -0.045832971545164455, -0.028797987424526144, 0.0009173036478796526, 0.0321115193951211, 0.0703023683359076, 0.010018055521150288, -0.0028577377200172, -0.04088234621746837, 0.01603060539124227, 0.03985367539696399, -0.024466169797307685, -0.03212261862682152, 0.013733290738541118, 0.012033672126572716, 0.0254580712224158, -0.03873433692808474, 0.010565319095248387, -0.09189936123864818, 0.014965972629509747, 0.06436760819928665, -0.001999231394178889, 0.025909743646867895, 0.08217208320322632, 0.033923204087969595, 0.01317741770817185, -0.00879274749250682, 0.0016793735432215295, -0.036575778914248944, 0.030752534485528414, -0.006816873213689284, 0.003496547474368083, 0.0028844900161175504, 0.017321128474832616, -0.012140433796810892, -0.03668180128101479, 0.01274104959022687, -0.02130561602302775, 0.04225730005127027, 0.002997890349495922, -0.0056624245152578495, -0.007368306704236064, -0.005580011166212638, 0.051024757761601085, -0.013893262392848882, -0.015146673112706505, 0.03310048402778206, -0.023636742349719107, -0.02966644369719862, -0.042869801245572256, -0.06794951848165684, -0.006469763461645664, 0.07454216188667341, 0.013847800370507818, 0.06119142718359436, 0.04308973277847371, 0.023757153564108183, -0.0019177725395430902, 0.055364026855592434, 0.029592691104204212, -0.04435204923423795, 0.0233893771507242, 0.04134010508831775, 0.048035881652054156, -0.028105349785620674, -0.0014709670094221912, 0.04861609947507767, -0.01970348760599199, 0.07541901667159172, -0.0752890269104661, 0.06604792188738877, -0.04161437824021465, 0.03982267276894898, -0.03476192340452398, -0.06876706387861903, 0.08837651462412226, 0.015415486765587781, 0.013950149036538888, -0.019405310474392586, -0.0204426470446658, -0.06580664927583364, 0.02201050270083429, -0.008608283630343603, 0.0806846451368912, 0.07407835609468612, 0.05689444827651442, 0.011018636088577222, -0.023752000784512898, 0.03753670198097969, 0.030419988328421962, -0.0016474981125666843, 0.04114382534742604, 0.05203743616353763, -0.013153526394645874, 0.04400324852031471, 0.04942463603680937, -0.009190891204496123, 0.01337981112552296, -0.0409494870211581, -0.005983968307266307, 0.010990592905714204, 0.018892815755285588, 0.033008644681481535, 0.017001007087095118, -0.024989700564297262, 0.062295650514789094, 0.014062828090702579, -0.016172597950617564, 0.0387603640409505, 0.04038175628887719, 0.012474933376474661, -0.003041688912215734, -0.02356578755640729, -0.019969594894920898, -0.022300037635053508, -0.018224429713812603, -0.015797592156840033, 0.04986671100653308, 0.020194252672330576, -0.021360341444649544, -0.04999911438044941, -0.03927456044619362, 0.025220742812099056, 0.04862470903374051, 0.02592555480700403, 0.058876823289932274, -0.07300857752564405, -0.004339618530163355, -0.002586283277589452, 0.01181074557170607, 0.04481727795775949, 0.008198302950047458, 0.024978941622607238, 0.0009066519360944736, -0.0805715224498157, -0.00029783127870417267, 0.026025478889086705, 0.0015898827286330902, -0.00757886822893465, 0.016929342267367725, -0.0477073394147398, 0.047312460995789084, 0.015812820630810274, 0.0068951966590060565, -0.054977214157642965, 0.032960837171748754, 0.032877286049696, -0.01337876914038264, -0.07800735598981533, -0.012811067958876942, -0.02548911726484538, 0.014982401315780719, -0.03505781055557219, -0.02071544380427226, 0.1171802930608552, -0.028320460016319833, -0.022096838247191018, -0.016887468191136193, -0.017740294248261363, -0.051772977494914364, 0.042599475646692975, 0.004095429577312283, 0.031826157868401934, -0.029424854585668535, 0.00760319506917337, -0.0865997037788647, 0.04556011674257077, -0.05618367952151691, -0.02117626488884996, 0.041214256432472555, -0.007495491368699753, 0.0024519692982142177, -0.018238437587318013, -0.019323227853484358, -0.021034767835744456, -0.03920563230795347, 0.07710114206151678, 0.02505963540635502, 0.0155335779762078, 0.04978551946177976, 0.04213856210617724, 0.018416870659254275, -0.01048838344587101, 0.0018319267984324382, -0.033852842156816935, 0.018375949533113833, -0.05206884541604169, 0.008544967939202742, 0.012349282130909049, -0.01628862970494429, 0.019730790479622406, -0.046874161505365185, -0.04347714133903293, 0.0039928440889663444, 0.008884644929976045, 0.011015230757721981, -0.0318628803798272, -0.010690379015921288, 0.019255378566125324, 0.046874372449739146, -0.018797941529576565, -0.03629023334712842, -0.04410153083741961, -0.03864118626748469, 0.009570966889240617, -0.015086783330202287, 0.044136646900219276, -0.02062440253181087, 0.01490160452836012, 0.020403860416202353, -0.020176115350002355, -0.0037525965352101297, 0.03659086106061711, 0.01346857370744078, 0.053058763653848075, 0.001962206228114042, -0.059485427695771316, -0.010747756286824107, -0.005849751229178079, -0.011983652094595855, -0.026595503667791367, -0.0171222920418288, -0.022118546498128753, 0.057567649838729376, -0.00411688147219187, -0.06002124883704476, -0.043961686494348125, -0.013659081592712927, 0.05296223608719642, -0.037236693353959974, 0.03316560214388961, -0.0042495769923615164, -0.026827850402312482, 0.0016897591823383025, 0.03212762231750894, -0.04347705594764797, 0.01011551250624416, -0.025845471030874263, -0.0019626471803721904, -0.025567084157685743, -0.0731005386205514, 0.06366529013575944, 0.007910543416977956, -0.028756793432778333, -0.0726869602105373, 0.014000315329188051, 0.048656603826430965, -0.024079305616552773, -0.00023895253951500362, -0.02314773157193587, 0.02228501631258199, -0.022304483350338127, -0.01908203185057101, -0.021587394312138873, -0.035462339213596226, -0.0586160537958888, -0.025098448347340326, -0.07798224786121045, 0.0160831765973696, 0.06725157515207668, 0.07874171406719008, 0.009030832349740489, 0.006691826809341568, 0.0007133465225967645, -0.018961571854886283, -0.038554176375416915, -0.023999483288863203, 0.05955482734501998, -0.028099287693543747, 0.03572975902577381, -0.09318558811613983, -0.004532270520373394, -0.025321875872446453, -0.04594296267150677, 0.004869759533995128, 0.008368348931818075, -0.0038860339960071788, -0.023202604119665286, 0.04436517072487205, -0.015403210920258993, -0.014636378972904663, -0.002407062427035392, 0.045461265331143974, 0.045000323498795396, -0.005463478713181857, -0.0150221035228351, -0.023631602905892144, -0.04220929451073755, 0.0440571606659685, 0.007451608419727669, 0.005819674435419092, -0.025021423121109432, 0.020073668443015447, -0.022234650435572222, -0.07649502294105845, 0.05412399030369812, -0.027471284316558493, 0.006329233072071414, -0.056942368690174994, 0.04008224720403412, 0.05476942384837663, 0.030359509457653613, -0.001803446913122947, 0.025894370261607427, 0.011105021439452457, 0.009006026193596679, -0.06923418818667297, -0.021389010476597043, -0.11690104861239516, 0.039353001855380196, -0.052848387796460464, -0.01542513908130993, 0.06290410459496441, 0.04926582348419476, -0.006301017667076647, 0.019217624207813255, -0.04600048283264883, 0.014024427191819955, 0.04719853469065951, 0.0004318712686079105, 0.013093194091022073, 0.03912476157723304, 0.046059475423624686, 0.0037738955033425536, -0.021112421589170153, 0.08296180938867313, 0.0207994657851893, 0.013163200651274517, -0.01945582164193397, -0.04397485658642708, 0.03841654323666851, 0.050442905936084574, -0.016261449198396734, -0.04597607552245574, -0.0001765807768574416, -0.04841595549119724, -0.010959774437965154, 0.014764303511938557, -0.03890097023281001, 0.012362748686094941, -0.004022627734172261, 0.0180386185371843, 0.014198552502918346, -0.021030191060988763, -0.03127081999332402, 0.0283441309026114, -0.03388228169084959, 0.029296708014844023, -0.018342913736302303, -0.07052882000040324, 0.0017500766528769514, 0.00468598091878439, 0.009428569403361498, -0.015419443835795096, 0.0740359435562949, -0.04247761607102934, 0.013458591587858401, 0.01701687347625584, -0.0016085161753668388, 0.014662495879729261, -0.026223533562480274, 0.07277312927135103, -0.027608674718670238, -0.010543297113195583, -0.03622093528586555, 0.030057390458532552, 0.029950611458198873, -0.06532901806095101, -0.0008534848513730919, -0.013002125391127611, -0.03238127374115842, 0.011017565348927946, 0.06922977522491555, -0.012744121497524168, -0.055893704205288386, -0.01922761548625071, -0.012767420919911876, 0.002389225262550161, -0.031054943938572627, -0.02263599791320905, -0.01836663330496887, -0.01989908701074553, -0.04515393994463024, 0.03779206629618124, 0.029509089240457923, 0.04616189254649476, -0.0007077660465679197, -0.04918021800517506, 0.017354496169542367, 0.06683955967702873, 0.030531325745526843, 0.033940206849865824, -0.003199952517520959, -0.0005398830352989052, -0.01272790874260899, -0.0023357256869077814, -0.019243198166447734, -0.02792402105971415, 0.04691067571666051, -0.04616194651030742, 0.009432567023588653, -0.022547411076122716, 0.003907901377151563, 0.0003505056528683737, 0.04479305852462649, -0.010231027369546513, -0.038469715862066496, 0.023181402785152468, -0.04023095137710966, 0.0026859126787790134, -0.04791999924133651, -0.08967585819903631, -0.04969809819930731, 0.03281539323034947, 0.006075250767396895, 0.013389793014433224, -0.02989659209073075, 0.016542717527915096, 0.009882677549788527, -0.034728110569023606, -0.008425973430144828, -0.007786521828565698, -0.03867412872361918, -0.014636615397608623, 0.021604751852119856, -0.009942683984940932, 0.046680652106020584, 0.04630340960519679, 0.03210506775990564, -0.038875676740919664, -0.061683145562939704, -0.02369328472716207, -0.042269900675203934, -0.057071959090842214, -0.00973525802575388, -0.02849259535469464, -0.024358884023765213, 0.01015325125357071, 0.014889567234856987, -0.035755194218247535, -0.013931618610035881, -0.037847006078628745, -0.02682250936510474, 0.01924639820717469, 0.004810436642532155, 0.013912737475813095, 0.009709452371684232, 0.041086162069705424, -0.007329789932939671, 0.018733290381496286, -0.013714022358844698, 0.024585147438996775, 0.015716974993373663, 0.050711942570632065, 0.0003383079899190793, -0.039890287111193655, -0.0510409493077811, -0.017757093367957947, 0.0076014932127418935, 0.03606102134227198, 0.036776443165280163, -0.012359344514127244, -0.053665286631053306, -0.04614029373387727, 0.03660405603923246, 0.052787605071366116, -0.027502395219821535, -0.011392190450224588, 0.003233053809378802, 0.008878040823120022, 0.0403479550496457, -0.00434388660102231, 0.03981093513907345, -0.004644151892066197, 0.01195197759605919, 0.07051850262350338, -0.008169433937045062, 0.004467673509786618, -0.02498109784154696, -0.061842551451923744, 9.352328589178127e-05, 0.06076218463947352, -0.03060896198947011, 0.03150355875923695, 0.03279322578844655, 0.014247559571918622, -0.04189486148463333, -0.027767704165281074, -0.0017139973313208899, 0.048517775772724696, -0.059118756166090504], [-0.016481557871212398, -0.012775726363719707, -0.004648366480931616, -0.0078494991834895, -0.025400874903376596, -0.014303303372628568, -0.001108820481709763, -0.0660227833902625, 0.0035076195102942778, -0.035948453118242525, -0.06411845389537561, -0.038941513963229694, -0.014052932039420487, -0.012782206026240115, -0.05497309048885216, -0.0035698264859358765, -0.034835201041766975, -0.019692519931674837, 0.0352199043669427, -0.026963136521942068, -0.040987431855985156, -0.00583199312506346, -0.046133059558640145, -0.01539347258885405, 0.0305961355854573, -0.023323382062937183, 0.0008613720963764931, -0.013402856049075014, -0.05185930384022659, 0.04858873256931876, -0.009916656914227882, -0.057403686897974225, 0.03201442454077356, -0.040309129853473416, 0.08271590291683364, -0.015318634010529398, -5.767670546213743e-05, 0.01788964616739652, -0.005688398525756993, -0.030706708791042144, -0.02673089089573816, -0.046006806671889895, -0.05280529665011201, -0.0450606421675324, -0.02826632046642227, 0.014184656781880068, -0.027282599845304983, 0.03486195551791276, -0.011079155686367569, 0.022944487430620154, 0.07744578338122259, 0.01570958048154535, -0.0318330578916132, 0.07056462437552079, 0.002907205884674996, 0.032684329146465754, 0.0036540338005206716, -0.03752222060335318, 0.04803789403496989, -0.06186556858441875, -0.04889088566660289, -0.0028373515312187444, 0.05679415580062491, -0.0035718367249282395, 0.004538749823359475, 0.037004788215230955, 0.005658865766917565, -0.02826117269117435, -0.00028348655439069877, 0.010973918687135301, -0.0020048548468328173, 0.015011419391778925, -0.000994252303878083, 0.007953743990313148, -0.017276964084507934, 0.010155673062238427, 0.003963029430662107, 0.016247652582375136, -0.00609120893861338, 0.009376146937389678, -0.0018370933906238214, -0.00030994390224631815, 0.01868401940406412, 0.006948480433639539, 0.0018592992604818982, -0.006415559217909831, -0.009109750920781307, 0.03729323732988226, -0.07821047512799224, -0.07628442648088754, 0.04683466372177394, -0.033172556664142136, 0.031271913960522195, -0.01607778409987793, -0.02224471365769029, 0.018052478895898262, -0.0258309308787959, -0.028412586095779273, 0.06909018223119782, -0.02841142514817079, 0.03253877199278855, 0.036009202689256545, 0.04466834736465091, -0.02638703713937166, 0.013108368930034465, -0.02242541302503004, 0.028312642715570994, 0.013659470652286437, 0.05240464539708277, -0.026811225158712204, 0.04287115692787775, -0.041152219005695344, 0.01640413748210681, 0.039380443340397774, 0.04806432977826936, 0.014118708643026499, -0.017651573252502356, 0.03856290318406331, -0.004562388035189807, -0.06639996180429496, -0.03186162175898085, 0.05104268716089163, 0.04842600450378522, -0.014824842108344857, -0.03232989851026757, 0.04980230803220703, -0.010019797292977662, -0.0009557104870541049, -0.040087867435430136, -0.06585504626144242, -0.002947203659222584, 0.01990358846858698, -0.034545813458764146, 0.021079550141942904, -0.019361593866932304, -0.036190265343032976, -0.012317492976115289, -0.07150731158576361, 0.03397385989170459, 0.025151630110178673, 0.028613906945178357, -0.016460443118361735, 0.05382210996460105, 0.003125706944305045, 0.03264446180239524, 0.030167769072975633, -0.09319516233142076, 0.0020992080653896806, -0.04372787008356822, -0.057094960514738335, 0.06206544616699607, -0.010194813889034473, 0.03286849556775761, 0.02063993947622213, 0.01619905488999165, 0.05671512301181975, 8.593390169264703e-05, 0.05344074837383827, 0.00420702289769957, -0.018309810837530877, -0.017479974488765267, 0.02399382928590969, -0.029800822779056886, -0.001191912683583593, 0.0031303901564479334, -0.007705374103115291, -0.015462233921660436, -0.017422397417588404, -0.06271599316260675, -0.020577185809420973, -0.0038311440948574503, -0.026123933407604362, -0.009437085369464861, 0.004506865808597234, -0.00864598408474555, 0.025442482482695226, -0.036190237283938456, 0.006867501929192832, -0.03318813781353136, 0.0015455156548961825, 0.011180093833111566, 0.00248138312878751, 0.01960826893031904, 0.040416341815489046, -0.005922750604626591, -0.015341870663569967, -0.006403606843475999, 0.035776236522694446, 0.045565065821955866, -0.004853872377678132, -0.008621755577601208, 0.016737509972719503, 0.052979477928669985, -0.036778680235409825, 0.016305580399624046, 0.007823300423607082, -0.0011415146893842111, 0.056466936383545656, -0.018960043564592015, 0.002509362471670129, 0.042724989038053725, 0.010717007052819203, -0.028567006831285335, 0.0371127357973657, 0.02389362764863076, -0.01296181624839478, 0.03715985854558583, -0.03149604169767429, -0.023946778610084516, 0.02577721542810502, 0.015813371548230294, 0.029451470657664066, 0.034462347679836663, 0.02066369715454538, -0.03269291321244883, 0.01587967787630395, -0.02807920265874789, 0.0033093723202424173, 0.018698086674663595, -0.007300508353375036, -0.08261762764763748, -0.04378411534554557, -0.005963182803905701, 0.04188448720312028, 0.030134786067000575, -0.018465062519975133, 0.0052207882187831215, 0.00257471099071228, -0.05723390622739182, 0.0587359216686507, -0.01651046573193352, -0.0026564318828479904, 0.06110677042028775, -0.05060123697693287, -0.02504206724482181, 0.007684955492576498, 0.0072637295413762034, -0.027645052642966825, -0.03952043687703836, 0.010497720764148887, -0.04825488676314658, 0.0516904812756309, -0.07994253542995576, -0.10832885495893609, 0.04467803051939567, 0.015943338619848226, -0.005395214137987931, 0.00379986589399081, 0.0359413720475915, -0.0013529012160412226, -0.014941692932187526, 0.020524137270802875, -0.04922648368690812, 0.026437377574961864, 0.02117931083240691, 0.034688060765494, -0.005184223160406435, 0.021822770570471137, 0.029088273146592184, -0.012852064556613899, -0.07834617156527247, 0.03430858838548407, -0.006284022634582128, 0.027804090351277944, -0.009822048999666792, 0.06570010862013456, -0.0489171871655097, 0.06597965573108201, 0.01579866796459634, -0.04527916277998907, 0.06702085790524773, -0.04564268310397947, 0.008783638229038151, 0.017783789296706494, 0.0176059546631302, -0.022955305558728715, -0.017213012452796515, 0.0060687665348163194, -0.007567896595447864, 0.03460610411308741, 0.002354874085016474, 0.009741330021988032, -0.005964556836997536, 0.056123448491741834, 0.030398616517937214, 0.06027386526031235, -0.01716526974303299, 0.06502940223871594, -0.0225373891820602, 0.009629603382931106, 0.014122357747599654, 0.019502559147457268, 0.04282100618035201, -0.030187785192277085, -0.008154582863711521, -0.019178068400024176, -0.028697565906301507, -0.02400819634461685, -0.0005401058320476499, 0.024830984517376847, -0.03517288903173391, 0.02032903050691408, 0.0014283330934578098, -0.004336165471523587, 0.02613889162422087, -0.023789224655141685, 0.03943531550662488, -0.0937475126167441, -0.03874812677871757, 0.02037714424998471, 0.01687965405336002, -0.0741967868816782, -0.006988834487376804, -0.006399694083098194, 0.04141768206206792, -0.014173035803121936, 0.04081973784454156, 0.005948797871705706, 0.04197100282644401, 0.06704107387778964, 0.03651844181589116, -0.02905150692843586, 0.01660352988405721, -0.01959385322977138, -0.035079010368030614, -0.005910721736183962, 0.020388297964574205, 0.07006885015303996, 0.035451587488685966, 0.04130020452540995, -0.030986168476405597, -0.000679381035305995, 0.05482978058333899, -0.008708136948900448, 0.05686175639755864, 0.017398036306997995, -0.023187354942551357, 0.009401608217685169, -0.04633510324119581, -0.017579304617428432, 0.05657116765114193, -0.03328342945180079, -0.025314911221773196, 0.05183275007462164, 0.0057294462374507, 0.004565901959654608, 0.02287214397001702, 0.037992114618796924, -0.055292795726410215, 0.02018317695741872, -0.004510751596241001, -0.017827545647229024, -0.0029546739771281953, 0.0184435432672426, -0.06405355853323362, 0.02798243278853177, 0.009674858374513758, -0.0025490783260120483, 0.03572241960672496, 0.00811984975047913, 0.006809286125060916, 0.03291631731632474, -0.020024564848097597, -0.028716010997665502, -0.028905773321802556, 0.04077176377695429, -0.02413490044498746, -0.015523116436702303, 0.04886403151040404, 0.056741053437910284, 0.037400244687500715, -0.04855063330974191, 0.006330996381367458, -0.023273717246816962, -0.03614423482822023, -0.01737476654653089, 0.02524256331759897, -0.03600834864914467, -0.012951528635852545, -0.004591541186055291, 0.030998668633140925, 0.04675677544370519, -0.05724975470113099, -0.04026792929620776, -0.0562182890858345, -0.013227766157869905, 0.015937927526004605, -0.03256611559896802, -0.017158411222446778, 0.05274731359054652, -0.04445856932086993, 0.09125965532572324, -0.005829924664244218, -0.04212437583041976, 0.010536551237907152, 0.011453404283735496, 0.003811422014855536, -0.026450039879604193, 0.022163000194362358, 0.03279793258928311, 0.036818876802643265, 0.006244616249743706, 0.008040795236339594, -0.06960599016876562, -0.045828349688483594, -0.03798335316607054, 0.021408379206836692, 0.0039128870522453394, -0.03224365948518509, -0.012709234147720284, 0.024143989970677536, -0.023079440869673777, 0.04342561180598831, 0.027675494588341978, 0.05553806583030078, -0.0017143852094853667, 0.07176072355087745, -0.015761501512758114, 0.00586759542111464, 0.016844368407689787, -0.061801207240314904, 0.05305823529864468, -0.05549608058239709, 0.015013133220996743, -0.013795493469571518, 0.030749411290745425, 0.014331326825726987, -0.03285402431149888, 0.023099819157244867, 0.004932893763157905, -0.05145148206908761, 0.021913124555846594, -0.008315094687866632, 0.03667108080505672, 0.04538537168411215, 0.017871203146890842, -0.004429628609075123, 0.014601009633639488, -0.009635898427857609, 0.03170085777836811, 0.06119238784073092, 0.004673668350516025, 0.049345309124555765, 0.02198756609715121, 0.012721971790793176, 0.038279968280664135, -0.026477681728175346, -0.025180360072162646, 0.008472331442367316, 0.06820908866970621, 0.07393886895861812, 0.00615305050108651, -0.004613966324200386, 0.011112968255825969, 0.02704916647145129, 0.049013978521402914, -0.02936567416168861, -0.013044833149616197, -0.004253372574785446, 0.045248553090158856, -0.05040599292878363, -0.02063040515638376, 0.0409776326959419, 0.0200945840847585, -0.018714269261322577, -0.024485956406536287, 0.0036520885909920157, -0.008115964902837572, 0.020115344433503695, 0.048886861164652844, 0.06076356788440899, 0.020706670679418875, 0.002566253956970564, -0.03867069171417172, 0.03898473391948259, -0.05726348093853177, -0.02091127320109451, -0.07763637521908884, 0.03011957728220983, -0.024968404246951213, -0.0378017843186216, 0.06827117865692277, 0.04554772115112151, -0.016912915371634953, 0.053673142951162274, -0.029353509285851904, 0.02400170461901387, -0.007594611404362559, -0.009078593085481484, 0.019801931115156303, 0.0002511821433423127, -0.018598425982507227, 0.06962137347668053, 0.01975503325122962, -0.024607430100953696, -0.01561744481231461, -0.05683351320739151, -0.011553330899201514, -0.0365178983394823, -0.024059563383916977, -0.0075440767924007755, 0.0002985361442199563, -0.02471433614172779, 0.008977638198163568, -0.053926097617528417, 0.019887018064627483, -0.06960065581746336, 0.013575647665905374, -0.002679257957162044, 0.05257106615655762, -0.009742572952963716, -0.01890850576613435, -0.016167992039126205, -0.08998810997458857, 0.023626976225629034, 0.02712922298197077, 0.028022048314831995, 0.03530438495970925, 0.04675124973990127, -0.008730036753286994, -0.02763466667896034, 0.03839926641794622, -0.046138191382022894, 0.012957398880936178, -0.003083312895976386, 0.00012203103420079116, 0.041237551268480076, 0.02658660038607524, 0.04466826046743203, 0.03816713785375873, -0.03534776472975118, 0.022546544175286183, 0.016293055065610112, -0.005616255077859587, 0.010603817189018748, -0.034433952264812426, -0.02137772756807531, -0.021297527142308627, 0.05409453757945685, 0.041173818363192706, 0.02825626610139653, -0.001320941155833377, -0.04979700348725089, -0.004420983910626536, 0.06854196252633296, -0.010581996715605498, -0.028600904670835786, 0.011748297531916542, 0.03926055232714291, -0.003666495575478916, 0.030293131566186248, 0.067267434512001, 0.03985553658311318, -0.016967228558372353, 0.006408374316978563, -0.03365017328847183, 0.011838786280340246, -0.024968744508145763, -0.017542419025831427, -0.0012368178637732258, 0.03872720902839748, 0.08283329952406682, -0.018473617237078892, 0.04814648681290661, -0.0023960694534992852, -0.027731508421617996, -0.010297561139425718, -0.007953730458965433, -0.0013204504617884403, 0.0039609626130806454, 0.010352740989780618, 0.03421746188634299, 0.011647526344885816, -0.0073797230303274805, 0.04364669687100014, 0.012614496584986786, -0.006320445483336816, -0.03565996285074839, 0.014368326616030479, 0.008128215157914481, -0.03347812071931585, -0.010618613050789443, -0.024179893696727732, 0.019148606813934408, -0.037152213335441164, 0.023119734102842755, 0.024644019865062948, 0.028741820250009997, 0.0191792965693612, 0.05019089180081782, -0.022615762628842, 0.041877996113552265, -0.03269888855412376, -0.004701109675178208, 0.05472334114540701, -0.048781225863876274, 0.01744079528827846, 0.030728217843229683, -0.05493673719994102, 0.020278829019225533, -0.012543024779652093, -0.03692702210346645, 0.040381383018412244, -0.07736939734560497, 0.06012633356927162, 0.037980447540361624, 0.05875551143937977, -0.03587457180409196, -0.03908488518173089, -0.06397166002929726, -0.012434830873040929, 0.0318856299449924, 0.05601582848905699, 0.004592509372543491, 0.021518197969668147, 0.005230472512666724, 0.015175853299432477, -0.03589447094869902, 0.020170947518638644, -0.06233298245095609, 0.014314715138869184, 0.00798961874539544, 0.05842762330581649, -0.03322891601644594, -0.0049447845305146424, 0.003532545455066234, -0.009565485996214557, 0.005807847927585255, 0.05809521251844515, -0.02198946440785734, 0.020776000162150133, 0.015907819678581018, -0.05222268439107348, 0.025160968140541046, -0.029919978715430486, 0.06579715412754061, 0.03585657143774971, -0.012774931874994322, 0.027669935661937855, -0.043712835249974644, 0.01732738937847552, 0.016491839869739337, -0.021221794153398345, -0.010767481494704247, 0.0354206368090854, 0.04196620434147653, -0.05101288116526042, -0.030740940001821346, -0.03099080325750426, -0.008226045731962508, -0.042972710389401224, -0.05507321490624113, 0.017402164557042906, -0.07381963330257295, 0.032786027505056804, -0.005184355777576469, -0.01675479529124573, 0.007567897033390533, 0.06837921811058097, -0.06663989927729012, -0.02914251407109774, 0.029389886471792352, 0.012240458969742725, 0.07703295739311587, -0.06557860157266618, -0.029434545031791336, -0.052020077401329516, 0.012714327744604065, -0.011048133429872736, 0.03695022069064828, 0.0460042359523388, -0.019964564657873905, 0.02766487240968014, -0.03257698795682449, 0.040714667162590465, 0.06710766975306953, -0.005345350357638473, 0.022301010209106957, 0.028563950021233252, -0.0048243926351469795, 0.05434205469398785, -0.08067854918567334, 0.04475455961654049, -0.0564767442429693, 0.006882077827469092, 0.016951321448612586, 0.022356787564644574, 0.014801496144387385, -0.02303420816131729, 0.0117534903367572, 0.08793589492460083, 0.09633544515370183, 0.012670880760091539, 0.034686641097339016, 0.03261890664457041, -0.020841484872964677, 0.009659171830287519, 0.012518162359233599, 0.010291581836487703, 0.003255016242863164, -0.018736938158524473, 0.040007219565896375, -0.016416929656556407, -0.04984638109336204, -0.042606521428820335, 0.02502706650601957, 0.01715272537783681, 0.019646163938967565, -0.0038471986033988903, 0.01541132817969458, 0.022340068573525423, 0.01596072006208944, 0.011816325790374381, 0.007991833009904038, -0.0152565854200107, 0.019746889402063345, -0.01254602968997411, 0.00462245990103241, 0.027137692091115072, -0.039658484567236106, 0.03717784907290091, -0.004501152705630571, 0.013126242929768477, -0.028084006758475083, -0.019435986784824905, -0.04024333715493416, 0.011327085026271234, -0.0030455216283475335, -0.0019311870691411889, 0.01207411910239926, 0.027084903334983732, -0.02809321271796812, -0.05447240517834369, -0.05792944910034998, -0.021444710393095485, 0.024475615423557195, 0.02654622873246013, 0.033101322319501754, 0.057531873731034404, 0.024873375774170318, 0.01830398087908614, -0.02577877478460309, -0.04990854689828404, 0.0014407888442836412, 0.011791303757141689, -0.01023654677531366, 0.017789713158580366, -0.009613458201062854, 0.019278889260169834, -0.014746850199823124, 0.014667802100988059, 0.0016471009166054407, -0.02879653634987413, 0.020042959662247777, -0.013844816011543758, 0.00017600693489101972, 0.0004932729662098531, 0.006815785391740485, 0.01278711096970764, -0.013242729929411739, -0.013367702377061223, -0.006153421999092531, 0.023577008837079978, -0.08162445440463376, -0.047614421062622654, 0.06529215776931308, 0.023004236844891703, -0.021327044824482475, -0.024795637390059515, 0.00043447857645672174, -0.040792532945588135, 0.0297356018078572, -0.00488888442377291, -0.036725805348196854, -0.003802178332740039, -0.009398196741780902, 0.020279049395388025, -0.020418679854002555, -0.03000538498707713, -0.06700767891938211, 0.06224138719712963, -0.01700909958839747, 0.008794052153376584, 0.024137802933495416], [-0.006757137207942376, 0.010874559434772087, -0.023257700578907116, -0.02510265158382364, 0.036091224687443454, 0.058667901270701275, 0.013378433680954609, 0.09222843116121056, -0.011482618768018624, 0.024401510822858796, 0.020042455823825665, 0.07757629583590651, -0.015081957987208511, 0.01448731147376199, 0.02342538863948598, -0.03283126747726233, -0.0202299630251403, 0.06932978476746035, 0.007515438686073967, -0.0650126384149208, -0.0027741113790883958, 0.024994191633530897, 0.0017713068279707083, -0.05802863156076541, 0.03201900256057864, -0.008491385176515738, 0.02046264323202221, -0.034362403170325975, -0.013859557068855949, 0.008673997270217088, 0.04984404568124889, 0.02800766738965077, -0.026401779798229587, 0.04016200022147209, 0.008472462038748641, -0.030052698731348682, 0.044124080145597704, 0.03824859924066621, -0.0763243457788468, -0.048100915374416284, -0.024979196787498846, 0.09719507451080014, -0.022544268668953586, 0.023364612533124336, 0.03909854010462015, -0.02704894603793666, -0.0040636305226443015, -0.004404470556598623, 0.047865749975018405, -0.011258601485765152, -0.007570991744970398, -0.006002428293731617, -0.0020615561531510855, -0.005572735422091884, -0.014283462662481441, 0.018042227629084116, 0.02469899135849232, -0.022009124356356106, 0.017054962896286822, -0.046496413821374295, 0.049449229784306006, -0.0638959407020737, -0.011470171092134605, -0.007157720291505883, -0.017843953374457013, 0.03148487444298313, -0.005725563798337406, 0.03527366388125801, -0.013251621850453813, 0.053713142219929726, 0.034427529649300785, -0.01762690562978362, 0.024109391065360506, 0.019166940912768056, -0.021765725652620416, -0.017117061281275037, 0.009330253362035185, 0.015209470297280389, 0.02599724450562091, 0.040318845277793, 0.013407563917278025, -0.030659869301600407, -0.018813845055119873, -0.01937899774621706, 0.05666379368646696, 0.03715320011652569, -0.04993534975650799, 0.02597862463107153, 0.04390298852881524, 0.05971993555857238, 0.03985773088172494, 0.02815628471089127, -0.0014409476866048983, -0.029087513021178648, -0.024529691916176887, -0.0014524678581864247, 0.05789318818634417, 0.0014439200400932974, 0.04276191211980633, 0.025385396206621256, 0.058915191521771326, -0.00644720264458509, 0.05218756343209814, 0.01361189334843907, 0.06026306314944391, 0.05664514586152851, 0.0326464615066045, 0.014353593087190095, 0.051818999097359965, 0.04224611783205772, -0.049953577979100335, 0.07505595512291167, -0.015680777014865654, 0.01563090178321405, 0.02257548878874704, 0.05288662685215246, -0.002111672331503374, -0.03178247819345419, -0.004926884160124336, -0.01702110746571649, -0.012979769317210427, 0.013109231441984589, -0.025665358069879022, 0.04097045201608645, -0.0021028927586727816, -0.024838530592776954, -0.0022838945438731057, 0.015382572346653819, 0.004808904355630534, 0.011855794822302396, -0.0676930228061087, 0.003848536832526655, -0.06286830134321857, 0.03536568960735869, -0.017745694699299756, -0.031832477959494516, 0.00853508584804776, 0.028023522467228307, -0.008547946300177781, 0.00913937395812893, 0.014702542284391499, -0.03414314632054666, 0.024940960879983758, 0.01850896796782081, -0.00575203303619428, -0.06969825993742353, -0.029847168849430422, -0.0003677851162967768, -0.09097675145119057, -0.030765244862220674, 0.001166817249365576, 0.036981072982679095, 0.051169346726713916, 0.0035861812555497423, 0.017328251186410907, -0.06667381981704855, -0.024309951756825914, 0.012381102303681538, -0.09135814223647754, -0.04684785453698589, 0.024547545159923436, -0.012032843374863041, -0.017481616949871305, 0.01509377113338888, -0.030815419717130622, -0.0665555175736046, 0.019568051084195848, -0.09066538914188933, 0.0027700473207215013, -0.023469743831801945, 0.0016704015629312873, 0.026448453719351707, -0.017407966179225333, 0.10414072135932285, 0.012797470170465345, -0.0077397786769313175, -0.0007650729738511719, 0.023971865857998098, -0.017584275831891684, 0.02893952315740158, 0.03340803130138167, 0.009925713386080207, -0.06408810366870495, 0.018207801569898742, 0.015495650838802924, -0.030637873528888557, 0.00027593851969267815, -0.019001429586209925, -0.0051704320122063505, 0.01565881897444595, -0.010353230432073798, -0.014847531527136906, -0.043966759147066437, -0.06797186466964392, -0.013037636299396952, -0.002659663245952053, -0.07349405971044307, 7.731715432520051e-06, 0.05598779356112695, 0.01076746258376085, 0.01666135765038641, 0.006114896447805802, 0.04586100564190645, -0.04071326511202484, 0.03413632427778377, 0.03108280565281626, 0.07618349864847838, -0.03585263168391758, 0.012490919412490262, 0.031941215827499723, 0.06457339197186732, -0.055391401526504506, 0.03918685767252223, -0.029937477757704407, -0.004440359273281647, 0.02115613145634482, -0.02263024926712575, -0.018684278122508276, -0.015453406998983956, 0.017167546814876693, 0.077528119175203, -0.015948600601864867, -0.0007686797207150967, 0.07337038366510021, 0.04305742436858271, 0.03605564224371217, 0.007633638571222181, -0.0398280525790601, 0.060357294824504984, 0.03897746884932368, 0.02721539434940711, 0.03513120772048472, 0.0147150405880412, 0.04348425099858983, -0.04975892471107023, 0.047458668877497334, -0.030552172584771546, 0.021829506815140173, -0.0404669473830679, 0.02262923061845059, -0.01545724610281697, 0.03963084435253671, -0.018436901974015853, 0.05486694889629774, 0.0019190721188017221, 0.05296614992088322, 0.05223211800049992, 0.008359335660138327, 0.09496525029567923, -0.03823321479197236, -0.06696766407859481, -0.01809877361305357, -0.036271080726213455, 0.01125310547937583, 0.0055675081280395725, -0.002562367527209794, 0.023560186002093638, -0.000748551388436572, -0.04236455174811294, 0.03703685343163295, 0.02768723352801871, -0.022278846280828057, 0.00018870133307435116, 0.03015116685088434, 0.00438083168536901, 0.06864505937827321, -0.033266065872198144, 0.034343457464945756, 0.025093141791394352, -0.03677407638542607, 0.003445056390200586, -0.047094724316347356, -0.01566417303254395, 0.024785361739862503, 0.038142033747093455, -0.008885550716246231, 0.045565176791340915, 0.0337312462980874, 0.0010406651675640738, -0.02008494853184983, -0.009225780882413792, 0.010215942671530105, -0.003072665721504163, 0.04110423497910371, -0.023349637492102206, -0.03196515672046429, -0.009805579440395524, 0.0578087749996008, -0.029983626654528448, -0.021385688695074134, 0.004523301910383586, -0.044330253652541264, -0.0014839223938040165, 0.030886454757717657, -0.032323006322133314, 0.08380785121047486, -0.02255580982814905, -0.03083718886334394, -0.0012303526706552406, 0.022684582878102322, -0.0186467975516114, 0.03240613801910595, 0.04322521794267479, 0.04181799989577091, -0.03677855963742836, 0.02073895145146815, -0.04193206564096311, -0.009826435628042115, 0.011397300695169825, -0.023660846641961098, 0.007475073549156029, 0.04006838650163142, -0.003181564574541655, -0.031116843532709125, -0.008449800967022003, 0.04419072362663367, 0.023572177377843142, -0.02897607588041037, 0.04884596285007996, -0.025103514928026028, 0.0008998574967035581, -0.009587062914595643, 0.009466066518437758, 0.05541183838914308, -0.0575755653092083, 0.007994669982658414, -0.03945622944021585, -0.045411549863114194, 0.04272758857261842, 0.028528234977871013, -0.012400483787076361, -0.026435729969728403, 0.024790920450597748, -0.004747079202445851, -0.0418266906757953, -5.186314589191529e-05, -0.009115465771203842, -0.0378678159609574, -0.0011233634531759053, 0.012082194431775658, -0.03425472110087333, -0.04409295955738727, 0.01949617683799934, 0.03152755572856998, 0.08462464106833023, 0.04445934354872135, 0.02920036615925829, -0.017829977664621417, 0.03807213538040362, 0.008733969716735875, 0.00971911787571103, 0.0072859811280611905, -0.03840169165474601, 0.02844803091949538, 0.010768174499129925, 0.039977991977293674, -0.0687266968366504, -0.04723897392791595, 0.026728164198674582, -0.01847779607512354, -0.019077385989531497, -0.0546567579359688, -0.016545563305597623, -0.027589213120856493, -0.019991895085010796, -0.021025522084362144, -0.006155111780834186, 0.00830911066624732, -0.038218069605941464, -0.04057637501876382, 0.0030327722401399947, 0.0022553858512479783, -0.0031448672821677843, -0.03045558740791246, -0.00533685937606271, -0.056259660790598465, -0.0007478487624651342, 0.011819573099365654, 0.013475486692841057, 0.023047716973175432, 0.03668273548187801, 0.046132337937893494, 0.02248107814558804, -0.0019083159080690959, -0.04968079533151702, -0.018526290619890858, 0.03845961080872861, 0.01933946013225259, 0.003051981533147643, -0.0026548753645395315, -0.04380346899105514, 0.07255507943662853, 0.032218028382419224, 0.03339947503249767, -0.053737510745772425, 0.045183699257950724, 0.003457077731261395, -0.024295881200358378, 0.0029455400231147223, -0.030682500540350998, -0.0703711479744354, 0.02163006465019478, 0.016347941305783775, 0.04082607775216821, 0.06132677879558839, 0.012709305558807057, 0.03221770665624474, 0.016283437744380038, 0.002759663865939653, -0.002424297509529796, 0.01571326646594783, 0.020515082498105464, 0.07673837524230628, 0.028687968945951752, 0.05495009521082455, 0.027743452307741823, -0.018186689636072114, -0.0009709898816454774, 0.024459339154940887, -0.001320772048293967, -0.002012722220851277, -0.023682930579710815, -0.034135569919884555, 0.019410048600962522, -0.015869838547034044, 0.00010822307847616983, 0.019667372718782293, -0.0682225048010695, 0.023010799315980417, 0.0035604686610852553, -0.025969990591036295, -0.03947529741514904, -0.008189002225097502, -0.012353178350089002, -0.0054444553894060135, -0.02767302213212342, 0.00024773295803214425, 0.0055566242434495206, -0.039895881878448995, -0.05572977735519075, -0.05529860034042817, 0.06138072188608378, 0.06574379032926045, 0.018937078768606595, -0.04544068867791714, -0.014492461715585579, 0.012713967971753861, -0.04282155320927434, -0.010886827527323246, 0.04554885753905076, 0.02087347924012987, 0.042544477537548794, -0.07122250060256245, 0.0008131947175605743, -0.012328873622707055, 0.010616013394885701, -0.00815301493005806, 0.020822530332076393, 0.033600349285400156, -0.018992437851280058, -0.014231945167720117, -0.043245463233028185, -0.049859284816477965, -0.017457205941323793, -0.021917990489096255, 0.00781967102826602, -0.05526084192357538, 0.003067131015328467, 0.012827333939167502, 0.014140304573692974, -0.029759121051669567, 0.0010095906951846589, -0.03851561999471791, 0.010100396929450636, -0.029016445668301586, 0.04625504856527497, -0.04567203926635259, 0.00036288153191803063, 0.07633653199787918, -0.005621878738824181, 0.030882051115014294, -0.012791764928074758, 0.05567848148627593, 0.01191837356663245, -0.008384568090854637, 0.026699162106346874, 0.04337165934101779, 0.006066297995543775, 0.05988856565158236, -0.03295977134117433, 0.02216991581882164, 0.08044544101641674, -0.0032309416381639186, 0.007079574027256773, 0.04581836764810996, -0.017187548034232312, 0.0747153193671266, 0.019058082183738775, -0.01714683955019704, -0.04424830853262519, 0.008326898399932819, -0.05312373049089496, 0.028332973022020955, 0.038140598979622055, -0.017460421755507438, -0.0032919461295224128, -0.04743806754851702, 0.03341347979421521, -0.011770025154714082, 0.04833917691466066, 0.0013810367351275571, -0.009865634240859374, 0.037056369809526306, -0.015807683405198444, 0.0244390977409572, -0.031958933110206596, 0.018889175570436262, -0.011331219012837412, 0.004537498143106925, -0.015294786484424078, 0.0499700568200274, 0.0487049530247826, -0.053199453381114585, -0.024380316736519185, 0.03504801929330629, -0.03763178845336986, -0.03487787213695218, 0.022879622758127365, -0.0543558262235526, 0.02991281456551248, -0.04101453180124533, -0.0042250097057832375, 0.02109790016506169, -0.026926528494631684, 0.02172422854444702, -0.04240560235700529, -0.0061473519835104845, -0.022157762250493762, 0.02086003577066615, 0.024034609180581527, 0.019296511827982317, -0.005181941949104441, 0.01660655094542872, 0.019579303535120485, 0.0028737773512781044, 0.0463372701874391, 0.007426361372446466, -0.052464624868700516, -0.026345214246305513, 0.045583825423993536, -0.01602327728775633, -0.013468611640039914, -0.030842226857192817, 0.027660863159999056, -0.045874475918614675, -0.027597838206234227, -0.015525130736414924, -0.016108740795082715, 0.024311404428116794, 0.004337315034379548, 0.04061945407279719, -0.0406048341814595, -0.0030359895164320237, 0.018161357791610246, -0.03381642753073035, -0.0012716554098141858, 0.034853402925527195, -0.03468277696416127, 0.033696415633601824, -0.031818161324192906, 0.01677296827460045, 0.006961439739097374, -0.03135101274836515, 0.06802858405379605, 0.038170869494762345, -0.00952749247076615, -0.011996148673033533, 0.02796397753542711, 0.014818394618469965, 0.1040494836207149, 0.06827393426642085, -0.0005823672894367031, 0.024622093734850088, -0.08833414447398365, 0.00233427590481934, 0.0013302047480375121, 0.004769602759898695, -0.040989135062888045, 0.009338388422197502, 0.003966052533725092, -0.036568024156443446, 0.07138222783187545, -0.05027086661621623, -0.006467028219445235, 0.048191518607268835, -0.04903282146249947, 0.022341959241918903, -0.0023932914581270524, -0.004959497743063209, -0.054665234311932556, 0.038002625929842014, -0.02942024529043113, 0.031025595787102372, 0.09516784775446496, 0.0354393490272653, -0.032144360603816154, -0.020565425359494842, 0.014826097843517927, 0.030066004380487288, 0.03171915669890304, 0.0047964874506703226, 0.010684858079145, -0.026473126878578113, 0.003686910346126742, 0.023575187211031558, 0.062295471843191494, 0.04507551683724804, -0.09669194494339917, -0.030886475559931997, 0.05496804228298801, 0.05584811843748323, 0.013196025347108615, -0.014326401386689917, -0.012707857933149108, 0.02650410171702977, -0.023638721554796963, 0.05966748670757691, 0.012576252812488028, -0.020258510390165248, 0.059188967158284075, 0.0498316671618824, -0.0012871227724587668, 0.023490072968918564, 0.04266929003439634, -0.04886452320715651, 0.02920549953747864, -0.055811108610576546, -0.00860233619183181, 0.0172837944791026, -0.02048124667847143, 0.05863938407642368, 0.010218707604147627, -0.003651110875576645, -0.0008733676856747284, 0.009333891726308382, -0.026946064086510905, 0.01202862320758838, 0.02329368981204442, 0.012727801385911577, -0.03120548210420256, -0.03142256439016569, 0.009026834262267433, -0.022345833137038477, 0.03266753733280044, 0.029473217389868637, 0.015485735882944234, -0.016635830943559318, 0.01344811414663771, -0.015153921776574658, 0.062099044284513086, -0.02183880368099524, 0.04457895557198481, -0.003758764827219701, 0.013955404982488455, 0.08645177613607884, -0.02006029298476187, 0.02865277491685228, 0.018925101620264968, -0.04301791127474963, 0.034182611281694364, 0.03313939751043401, -0.0091610237033631, -0.07202446611798566, 0.004497177120068738, -0.06420355649657429, -0.035074390524521916, -0.005209780931644542, -0.0036146496558778747, -0.028042719796261852, -0.02105756674005081, 0.005272006787616966, 0.008574004437211917, -0.015392532511254942, 0.04894325268766441, 0.011964459680031996, 0.032212606669358504, -0.08598433595167217, 0.03750170271832332, 0.06835435681584898, 0.01249347566694233, -0.05767924108956342, -0.000719202799922736, -0.02116221314105197, -0.06781215710622442, -0.011339702149786466, -0.02578092618820837, -0.08848980271232713, 0.001576373418808988, 0.03682637369931984, -0.005424157384986578, -0.007329217560524612, -0.03322150814544315, -0.029712585779007535, 0.05222338237214016, -0.03699984970720161, -0.028268693949821778, 0.010145430492495552, -0.04214005319998456, -0.05380465674072359, 0.024421225249004957, 0.00960039968617278, -0.0051190514889520354, -0.020175787351019197, 0.00028466629536282154, 0.028826308331688505, 0.021173930730139904, 0.02404580846227482, 0.01160000643911085, 0.023317308929659247, 0.07120485893235849, -0.004685423911498762, -0.06310721854287786, 0.008414335976011945, -0.01121142627747355, -0.006743287220508416, 0.0022651571816487666, -0.024953362447234485, -0.004674511106172756, -0.0346640147250464, 0.025947927333440812, 0.045129517736665216, 0.013275290086356532, 0.02838834073434534, 0.006920051543679899, 0.026615679790636653, -0.03031462105294903, 0.016220732127784642, -0.007541203894402928, 0.040577089915940105, -0.021788945692634835, -0.046353378771032024, 0.013742326914945185, 0.029548746476832886, 0.0633236450104064, 0.020684241084080346, 0.024693684616583993, -0.019240433527593966, -0.009491227412799954, 0.03764413767164964, -0.010946817809886508, 0.006000824044157566, -0.015029852162670871, -0.05394910356673298, 0.03910715550731176, 0.0007756855832163022, -0.058618545776292844, 0.02893993933588242, 0.05203957777191196, 0.056189336740990005, -0.050254244749825976, 0.01736532823422566, -0.03753467386247503, -0.007133116647556674, -0.02278880864153307, 0.016699783283963706, -0.026819909012038172, 0.01876889059951662, 0.0014258410221416335, -0.006486619859965334, -0.046716757299207864, -0.0054903423520716935, -0.04626235225550178, 0.03745280830724169, 0.0007146739827825257, -0.06268443319443182, 0.07020322910098575, -0.007391069170190606, -0.07766125886120671, -0.006371902519727969, -0.015073680660348502, 0.0343810339326354, 0.017513559529089083, 0.024428386663173617, 0.03161384545678219], [0.005790730765222801, -0.003965884524009386, -0.006702065687242555, 0.01964856486033779, -0.07266926804393722, 0.037184993712591, -0.01785057040912265, -0.004710990599436413, -0.029633533087419082, -0.029607396388994674, 0.0013814734127051323, 0.029216174529198606, 0.012043768045592268, -0.011372592491049835, 0.04797598165245725, 0.04022721520950697, 0.026170933877145645, -0.03451261300664651, -0.03899506436418905, -0.021014164694460293, 0.020080576847014402, 0.05229568642333166, -0.01318969001474965, 0.013948758733103934, -0.06007206110404796, 0.07877552199562157, -0.03440147326460837, -0.0193505306436374, -0.06575604761987201, 0.03249270159901185, 0.0010018803778465797, -0.03142596087831663, 0.059898391502619344, 0.01990324214911301, -0.019441212863809842, -0.032215720943375895, -0.01895163483281425, -0.04180244888732042, -0.015284812577696387, 0.051981226632987945, -0.011506738877955109, -0.04564902179954672, -0.025245260177169666, -0.027166850213252106, -0.10801057914492641, -0.06983639567392379, -0.04823135752250044, -0.010535161066262086, -0.021187082983102866, -0.027944387868189754, 0.03722668216489968, -0.04854683358747782, -0.006613516635066249, 6.706892045887679e-05, 0.03137316629797023, -0.05736195151017943, -0.019150081970698656, -0.03268563137504278, 0.01593716768309406, 0.024845806547764807, -0.018686611274396674, -0.014637372887395616, -0.0575037832141903, 0.023925892728258274, -0.06097010217970933, 0.06468731871359348, 0.03205774364298233, -0.02950543667296729, -0.04258535207777314, -0.031284904834613034, -0.040341725376514814, -0.05007572735389928, -0.030275123374355898, 0.0009326571976406047, 0.0406721675480405, 0.03135114927109263, 0.01277921733591748, 0.05198754404610671, -0.013503334536853945, 0.03795954423550134, -0.026277997608219517, -0.009911843945252099, -0.01788824225421209, -0.04639153765780369, -0.008077310005142726, -0.07012465953265808, -0.013959697847526998, -0.032204351275992915, -0.02455221420228313, 0.008108010244412427, -0.04900768263296832, -0.0326386772236641, 0.008402532746064641, 0.049711631092411813, -0.003488279096671746, 0.01691185922724225, 0.021356938423077062, -0.02650209632978837, 0.06176800992244337, 0.00429538233499687, 0.03256238175492989, -0.013356758987004632, 0.04264579381837437, -0.01943997193935729, 0.058453860853933344, 0.006791721154178311, 0.005480377918887102, 0.06631587918260476, 0.009392712493266495, -0.003714122277087515, -0.0315108373467082, -0.002340722289891775, -0.038799921407238494, 0.017624052051791562, 0.008364049822202572, -0.00866294196118467, 0.004920090382647285, 0.0234656253989042, 0.016835998132624357, -0.021657969771981585, -0.02983304411318519, -0.0461565943026548, 0.037526580280240356, 0.002061804929802707, 0.006827640759479892, -0.032323589198488836, -0.013719627451459196, -0.042849297225502146, 0.022375245860452288, -0.008633812966077755, -0.03828356541100985, 0.06501834762459169, 0.06478341074755907, 0.03205586226359671, 0.018608013898562998, 0.0750106599814131, 0.0434127504203063, 0.04598060638098441, 0.03136089723951054, 0.040802872108308054, -0.06228026832283762, 0.0011249899229316337, -0.029076403489806023, -0.009788267104594971, -0.03283232718852141, 0.07787715029155585, -0.03904769824053339, 0.021279475070627826, -0.011070065106346241, 0.005264350503328919, 0.01841480600578308, -0.00993923041958151, -0.008882693328584603, -0.04540275270679685, -0.009044395640344555, 0.018781472405879625, 0.09851500245543605, 0.018718633384962484, -0.026233344748183767, -0.03349852709857046, -0.030344328600558922, 0.008711052258164664, 0.04218027988840819, 0.011670327252369881, -0.009704498478868312, -0.05774752321104536, -0.014872152578724962, -0.03046436967516078, -0.055474607092976344, -0.05255225770717571, -0.06079949342907446, -0.009767290539079198, 0.0028557271586878087, -0.03838982371333423, -0.0430880318015633, 0.09144039848569033, 0.024359598274723466, -0.007568755289121363, 0.04582934189001977, 0.038262047864132044, 0.013503624704376061, -5.608926052857244e-05, -0.021325847420819416, 0.022655478542929087, -0.02779830160026702, 0.022108381669076443, -0.0223964284802489, 0.02603098222107778, -0.02187527939529224, 0.013875963473765102, 0.0370011328234931, 0.016544354747392416, 0.03801989531318042, 0.011600715993195145, -0.019649673501776, 0.012346460123869916, 0.011439570308958666, -0.005938895313408747, 0.037252715341772255, -0.048403187896026614, -0.0017540089757989014, -0.06682736378378819, 0.07400019324777714, -0.002429481340017731, 0.0012570808363014253, 0.02519657007064172, -0.005940758596847278, -0.019319512693408723, 0.0066407000666547766, -0.011192442585162431, -0.056555745621960425, 0.03980359812739693, -0.021234261957731582, -0.014871108440310584, 0.03411574426329207, 0.001557689468504838, -0.007331035985035077, -0.011899706990331575, -0.035150722137989844, -0.02622250743735075, -0.009441396202192668, 0.01763711584304021, -0.043305424035453496, -0.03215041579616128, -0.04580102145904382, -0.0011287059645169195, -0.02108771862182862, -0.003342748209098187, -0.021915175195097867, 0.01599942326650561, 0.06914115718915995, -0.0024980971387274227, -0.003917817768668108, -0.05959669597793383, 0.10671199939533503, -0.0968147887355325, -0.010581082723990025, 0.04317001632941773, 0.002623798491762235, -0.02313090072572588, -0.011174285748028753, 0.05887129481997601, 0.030105476485709447, -0.009219610130307695, 9.614618454937822e-05, 0.04564838700268553, 0.021865565015387525, -0.04953065683322797, 0.06360441432790763, 0.02093986505111049, -0.016242439731857978, -0.03048795143334946, -0.03817088484920044, -0.0497018846007214, -0.04128991543319254, -0.04119264764518203, 0.05481941801491893, 0.06420956205831987, -0.05781648519081035, 0.01249735781665961, 0.0411841025282003, -0.02537996419891747, 0.015863416834238173, -0.016378596585530054, -0.010275192959762128, -0.03419128866128766, 0.040088422366544856, -0.05307498591271379, 0.010622407807638705, 0.005413046488097438, 0.037712953413497764, 0.09374074182351369, -0.021541285920780386, 0.018173010319421118, -0.007408013811718077, -0.04864991784566032, -0.00997256845491116, 0.03512317691362871, -0.010774784487937308, 0.0028548485001393432, -0.05542331787537286, 0.05942529494610145, -0.0016406732468349592, -0.08492103060601887, -0.007499654702839665, 0.02446311779635334, -0.0643164021828883, 0.027114841462477477, -0.04000729347346322, 0.022421519488278335, -0.05446768930438323, -0.01469777971903342, -0.06635631338590255, -0.017326424725891524, 0.0367761567216104, 0.05060101792393012, 0.042295263806154525, -0.016903777053159628, -0.01282275065397201, -0.0015307899961966938, -0.02145539389309848, 0.03662409869899324, -0.017907111018691524, 0.0024012927290591565, -0.00627902365386325, 0.04951849376888261, 0.004448026366306294, 0.02450333625803996, -0.034738998256834255, 0.06855130420907445, -0.01963662258608213, 0.0276071647012328, 0.011934655573418971, -0.018086584446084127, 0.02039744586946373, -0.04079207218116248, -0.04243477690466895, 0.028840453653534638, -0.0019199389180239845, 0.01868103779833728, 0.06185797693523452, 0.06296858597178526, -0.013163630219528285, -0.050544854331770306, -0.002908525997149613, -0.011945064229583724, 0.01355754721115726, 0.0061003252614738185, -0.002971217584806568, -0.047200046202556516, -0.03543840774984607, 0.00749066574136723, 0.04083797346172325, 0.0028900173141193012, -0.026015819726430488, 0.030107612562426184, 0.015353701321986438, -0.021109503054140506, 0.010020026312758766, -0.03816210654800118, 0.05525385651407821, -0.009893944397748053, -0.06752297105813297, -0.0038087173260695196, 0.01650302598314924, -0.024630308749999347, 0.048775758376976286, -0.02832616616253347, -0.02060345381431155, -0.008115043696550498, 0.0019530074599717526, 0.024906343286195964, -0.04369409174648645, 0.014933181485816337, 0.08606946343647626, 0.0019460593840996846, -0.013287506138599125, 0.04012998283721454, -0.07744848539247115, -0.03126289991088759, -0.0327124990222297, 0.02434937229909826, 0.03984549785051055, -0.026644454033939707, -0.0036058875851846567, 0.05327733381528236, -0.011970250087346318, 0.01772617432264993, 0.06861955598206991, -0.0014628490848349694, -0.0009627739307252642, -0.02160676540484168, -0.02090398673637373, 0.017612109111610333, -0.0051874068841639, 0.004469572146504571, 0.007527032191160733, 0.026859973848826182, 0.005542329482117935, 0.01521743831980706, 0.023251865694590593, -0.013764921250060924, 0.011809153416439384, 0.011316906627572428, 0.013949463612644247, 0.018060501809700567, -0.054899487845081384, -0.011978984756968397, 0.014101288251521732, 0.04148196744666678, -0.031669416314029315, -0.027559124465422635, 0.007321878202479132, 0.026022317542146, 0.04002900564321502, 0.02001961505940485, -0.02253177773616391, -0.016265919150306958, 0.016491364514032474, -0.015307370652806447, 0.025052571547928996, -0.020950320138088212, 0.07910875597660827, 0.0031004034154139344, 0.006641613532368129, -0.03942941166145993, -0.030876273091683316, -0.020078295715415393, -0.07908064782669018, -0.03302581378084286, -0.06793393455728816, -0.029814873866706483, 0.008587885116544023, -0.000950479866896139, 0.0328433778677144, 0.024299061418337545, 0.005240770560196916, -0.024542020577139084, 0.04499155964851624, -0.015372155893737418, -0.06639679089062009, 0.015831503159529258, 0.051266208869201746, -0.03339624614428246, 0.021280119493436358, 0.0071537685994290745, 0.03416550901282558, -0.02733966681222871, 0.03588696984995481, 0.02498518252577895, -0.009173213375487224, -0.008430642643194283, -0.08775560864773992, 0.02738779439934926, 0.06130852510224771, 0.020040702020943203, -0.038571060110556686, -0.0297157427305672, 0.005729585321014877, -0.05030275737374988, 0.016661385318579528, -0.0047336177931534525, -0.029279390955112106, 0.004945918745690126, -0.014879464023557346, -0.05639551011737086, -0.005125587768194074, -0.0676410829503561, 0.04795346072671257, -0.0025968765058657257, -0.04698010822884884, -0.07712627235894211, -0.055114630834348546, 0.023821661383232714, -0.005861236167916914, -0.01788824723768273, -0.005116898256447124, -0.05687429125182943, 0.014095827127516525, -0.012690677188128625, 0.0753695953275014, -0.061414746585771174, -0.05538297317380742, -0.0016987021897609822, 0.005342473535048261, -0.02946369623550223, 0.003561715364066112, -0.0075945467813554055, 0.02793155428377501, -0.002674670173366437, -0.018119276420153548, -0.04515715595991972, 0.07864983666656458, 0.02731727729188246, 0.0023460749388876582, 0.028047530660722568, -0.05041127813181607, 0.02118946716382235, -0.004894389352517302, 0.005688801450620453, -0.034212125341414296, 0.048357460872221696, 0.03894719362425134, -0.007291175843847614, 0.048328047867820086, 0.09154436174170452, 0.004140321137488673, 0.03140093854698659, 0.026476440107397522, -0.053804071698472365, -0.038969705050575246, 0.034832868890208056, 0.011374644296918188, -0.001480917276032873, -0.03499833735130939, -0.06576700797072438, 0.05131307313962728, -0.003509563708608112, 0.009961370553874745, -0.0028502226830511707, -0.031911850733781215, -0.04434232736633753, -0.014567041080531782, -0.007748767741016153, 0.02221407976645879, 0.007935956397326563, 0.03981180410161622, 0.025310358822146727, 0.029507327716429294, 0.018700655234627522, 0.03237500184398836, -0.02145050699183883, -0.010441032664240322, 0.0008933379694651266, -0.018244379183584254, 0.02999621355945282, 0.05285162098983615, -0.04340729826693597, 0.03375611595082014, 0.048632659136119506, 0.01100092162368219, 0.03683075053312062, 0.05935223562313565, 0.006376482537851508, -0.03637411593428421, -0.03190090573480749, 0.015607037026207754, 0.06423856684549879, -0.026406565214613847, 0.003325354710166914, -0.0012375675765361968, -0.054642059369692166, -0.003338202094295505, -0.05412943426242841, -0.03958769999989492, -0.015605885987937109, -0.02450155769020852, 0.01377481389095705, 0.02388872852483816, -0.0011729275577229297, 0.005967333005476928, -0.029266208431329314, -0.07559909906030991, -0.047980830100659275, -0.03291074989070897, 0.028031820681637398, 0.019730301084707868, 0.044517390132826726, 0.06086805075917189, -0.07049549024584899, -0.04614781858910139, -0.015002442595009298, 0.01868026036214599, -0.010744564117157887, -0.0034230528207743706, 0.0069957999333373, 0.019661565810793428, -0.02825351715774676, 0.011280621660484212, 0.03171491215143784, 0.05379324043143023, 0.0026646880832850335, 0.03253049655632663, 0.030270476394873208, 0.039833256506874706, 0.026866755165361477, 0.10755931965854605, 0.05062949213428334, 0.024707209705387905, -0.048320975519878566, 0.07859175082177705, -0.04723915009295413, 0.023285203064751913, -0.017031155829191368, 0.05580731966252709, 0.015001301873692556, -0.014389781829377916, 0.03374637559129296, 0.013413060984870846, -0.021048535849199888, 0.009412601429178828, 0.0686303005604631, 0.0436047533397094, 0.05481922789152756, -0.041175020242018766, 0.050105042996476605, -0.04048844655700991, -0.009617952540290594, 0.005597947888790623, -0.006179541846495626, -0.03333688635954924, 0.020971107939699425, -0.010349346862265458, -0.029677413175548235, 0.0190599409312621, -0.0031148719903148514, 0.04844301497659518, 0.0053702986975778955, 0.01859956815004265, 0.011218422228465894, -0.10976463141571738, 0.04460136068100673, -0.023614237593114335, -0.022029217699453985, -0.05774449599469416, 0.033676938685845544, -0.039640367741586725, 0.02907269231604528, -0.004949584993898626, 0.020617476301458496, 0.025590571163247193, -0.0248673255425987, 0.0024971753717555503, 0.004226008636398604, 0.05467517970763066, -0.027329351713185297, -0.027667667411439497, 0.010257734273897395, 0.047862198627657504, 0.00011577422729499964, -0.07021661765052742, 0.0227128143098699, 0.04184707811156233, 0.00999242112234854, 0.008398453851559346, -0.04846359579418989, -0.0584300508568056, -0.04075869500916924, -0.04063056013586084, -0.054624091594651404, -0.030781660408827346, -0.010824078678154542, -0.012678557322426351, 0.06772065444782015, 0.019970124083210937, -0.0628381796624586, -0.039871018729341505, 0.014722043832933001, 0.011908027220755407, -0.03953743612284179, -0.030415959402907634, -0.03300285441737513, -0.019052943077442343, -0.047120187676188675, 0.04967160580152875, 0.046776807413922206, 0.004210760436964893, 0.005808694077928403, 0.017255898330273786, -0.05286112169158587, 0.033794832822977634, -0.025482623505786072, 0.05049390411873531, -0.024278298476536394, -0.02626702034117331, -0.04565960165242054, 0.022691779901449417, -0.02155064032792494, -0.01742262521265594, 0.01377183998470915, -0.003824759669003117, 0.032627088362766773, 0.007401739806174571, -0.007132465548397713, -0.03910340861430629, -0.06428298245958514, 0.016956151148738465, -0.05606880457987542, 0.019413169966893174, -0.005786758670725471, 0.021130200407978837, -0.02377097045984828, -0.018331429966086082, -0.01939159531346018, -0.025248300600065415, 0.011184379941658681, 0.04728913688423821, -0.0083979332496017, 0.06790859071068749, 0.013617140305582935, 0.001061153167097951, 0.04610558827725334, 0.028510529673788837, 0.0025398565381795114, 0.0030095408324869273, 0.0006342307887897417, -0.07360923062357397, 0.06551845027911093, 0.0686390775851436, 0.01217416955554569, 0.018621277242725224, -0.0023241845635883335, -0.019574547793646455, -0.011259541853611494, -0.007598722810434506, 0.03562484309327586, 0.010226282360696896, 0.059399541017353556, 0.0433092203665591, 0.02549287994021515, -0.012537965779655469, 3.6677168712995667e-06, -0.03473622046981049, 0.027226574757951538, -0.002208972788595377, 0.01033669657413565, -0.06695275372516965, -0.0026287864539324317, -0.03554465661521838, 0.032981018062438715, 0.0660058473774425, 0.037676620268902915, 0.011182030570542444, 0.06427055138877572, 0.029817361407808298, 0.054070368676891675, -0.04274222518239129, -0.07553437651060975, 0.006294162857494938, 0.021031589540912356, -0.03197415151330181, 0.03490702022181027, 0.0013727784052138114, -0.041394524291737976, 0.00026092258105394874, 0.054009377556398494, 0.034692227515091066, 0.0427288404614204, 0.04568419230881366, 0.08317021006388027, 0.006813748047719024, -0.012139687094534503, -0.045496198243558314, 0.011446971636084049, -0.016063914008074016, -0.008517680722590902, 0.04255623694799938, 0.02307453177569918, 0.017836765968135916, -0.024171787989419404, -0.034971427194196346, 0.02683316976401386, -0.05314383123823734, -0.013275865586141791, -0.02053905038778264, 0.010053134906573979, -0.08467174748206706, 0.019338487172454094, 0.0059021189151523545, 0.006449063670963836, -0.025301719704577237, -0.02671580470476168, 0.05414935853957214, 0.031940695795019174, 0.02391352495914628, 0.005863297626130298, 0.024542366150927808, -0.004863397431137733, 0.02698975389345229, 0.03773937030045681, -0.04958324731249164, 0.06241580374119136, 0.0262607687573696, 0.03719538942270114, -0.028323164810020413, 0.0176751487438078, -0.04859091488223165, -0.0005178640336154935, 0.016228715912115086, 0.017561589491409835, -0.020189467557202995, 0.014006260999990907, -0.05752954693734576, 0.0009221680179548566, -0.01941630316166599, 0.00982254723593111, 0.010662209773996867, -0.022774941773470555, -0.01902685226483582, 0.02593764971155124, -0.02299729522106052, -0.0192166580009879, -0.0007844540527392743, -0.04533167861956812], [-0.015515359859720019, 0.028493026193861546, -0.04929799886927143, 0.0789454555517147, -0.03473957940444851, -0.03660414682134365, 0.012782056308293044, 0.028452154705745452, 0.01735772183248503, 0.047030224164751146, 0.022258453255082192, -0.022404109513767118, -0.03388189311610033, -0.03944234674985574, 0.02298235262618245, 0.025069808487196206, 0.032629564715457464, 0.029013932755417946, 0.013164076050472892, -0.012752380875636812, -0.006800206956048672, 0.0391331690168407, -0.0020577497970954415, -0.01808640853563537, 0.017524637117874643, -0.05312265288634866, 0.013755130485442612, 0.039303313968028115, 0.04122456945933571, -0.06621236103448215, 0.005167799413837873, 0.04510612391130212, -0.01360221138484607, 0.013132895658083886, 0.011780206409407004, -0.03341161361769672, 0.004022518109949987, 0.030978753199988347, 0.006707110559705705, 0.04707786600773645, -0.0054271122493363645, -0.015679289293297587, 0.005416841305449679, -0.0018777994244210938, 0.1115825685804975, 0.005634608949928741, -0.0453175418086774, 0.005765882557054541, -0.06151362164853079, -0.012723440891362294, -0.0150592690245406, -0.012786414519277988, -0.07819114517771286, -0.08329053957373563, 0.002228275189903258, 0.02617492118610736, 0.030884820613065626, -0.002125948131758373, 0.013559934550258999, -0.044280368209465314, 0.024482803600037423, 0.02501911724737065, 0.0028325315441918545, 0.029855433921632417, -0.030839245146922063, -0.0411628192381761, 0.051564381520317136, 0.012600825145812644, -0.03856342485180252, -0.02789161705080793, -0.024389303742729906, 0.02350330771380396, -0.03929894154744695, -0.04154847898104731, 0.02106649931027147, 0.04328679238650818, 0.037285493555356104, -0.07542827824338703, 0.03359117384564066, 0.01719331332608161, 0.021826651634008758, 0.01535258391872339, -0.004221334816258689, 0.00728867285172293, -0.007918608204694184, 0.0183691549005621, 0.0037300909165131715, -0.03569825005196461, -0.03676296907182108, 0.005790828933049453, 0.05423485490413391, -0.013773795776566095, 0.03354231813388712, 0.004642727445328764, -0.02326185376842493, 0.08571582408449548, -0.02050779179343561, -0.0030694893602388937, 0.016887349605329446, 0.0050397826717378455, -0.06020625850354043, -0.014563954369627157, -0.005616625130773549, -0.020666140725470395, -0.046776958589667926, -0.04033323918216646, -0.044421300140267024, 0.010231216751100643, -0.04195173899445831, -0.060162433382061134, -0.035232385384316216, -0.03749270730264905, 0.0014212199785145435, 0.010815348028120468, 0.013902043928199274, 0.035891806374004784, -0.020149753015608986, -0.010731210780870802, -0.046326393837131996, 0.04183505889927153, 0.06503145754503857, 0.037756633825247854, -0.07397511744014056, 0.012545129333511745, 0.010060567153205047, -0.006744793342776475, 0.014143737611348529, -0.05622246588805436, 0.055660954852374225, -0.010483530461820446, -0.05501109695024906, 0.04790253479422319, 0.007761921131431132, -0.051624730735490905, -0.03796452383507524, 0.008666742964842825, 0.004117122047097656, -0.028556836740537467, -0.0040250243639373484, -0.03757325405395114, 0.025478164984356674, 0.043063250363197025, -0.06267910793318844, 0.016351650371748388, -0.014092648962107057, 0.06987584907898121, 0.011891305349970741, -0.044711647052737176, 0.0353679591573262, -0.01616255294621974, -0.060648958808625676, 0.02364336678845469, -0.06024145544567815, -0.002832168323846463, -0.009555987238670518, -0.04959303378104935, 0.052633233231552896, -0.030766751583916164, 0.024857401273855544, -0.05861325011296443, -0.009158900815039265, -0.06999735365501095, 0.00614684249025139, 0.05176530381585119, -0.023188369602414317, 0.07056593421637411, -0.011440840626434665, -0.0047058344045407, -0.003398227517368006, -0.05271581051393696, 0.003399255560210272, 0.018160129160519185, 0.006776014053695384, 0.002863221705541169, 0.008825540240402278, -0.022660167904411777, -0.0018456080368166366, -0.007573591829624541, 0.10166175634158357, 0.028625007638192146, -0.05103769857432204, -0.05339499564643109, 0.0013196171871921098, 0.02646120976685071, -0.001241876867025848, 0.07425680015885326, -0.018220316139073028, 0.0047999948414261945, -0.007942270828288535, -0.012054441570746437, 0.007915815571196473, 0.005812362637116896, 0.059655123908104166, 0.0022030183840319735, -0.026800955484042842, -0.05534131628536442, -0.02071292786171796, -0.05784510438520156, -0.04441891782379681, 0.10092326393877156, 0.011896538985784027, -0.00286792223139441, -0.011122589775328231, 0.03244457777436413, 0.04033743117845507, -0.02777218374192392, 0.032877897923059445, 0.031649246674469125, 0.03688141653169175, 0.013666135780013942, 0.0013285853567021593, -0.030792646127894025, 0.04390989766452338, 0.05214093523931489, -0.03957326789382278, -0.014231892451975033, -0.020704712247752825, -0.0021332113660550074, 0.014072125620493767, -0.05768218209998515, -0.03581569392941974, 0.042670473718632564, 0.03569733369371515, 0.001615616964714448, 0.027292388996569158, 0.002367536047219922, 0.06824896510721747, -0.010873100372897728, 0.009668298422414973, 0.005130022311651747, 0.04474550782986678, -0.039182588047800324, 0.025167590028833262, -0.003725837147330375, 0.06702862521785312, -0.0013483703933496317, 0.0060794220007301504, 0.015892112263978762, -0.01161166363694099, -0.04041543985124809, 0.03942175390462933, 0.024805711740902483, 0.037364117024679455, -0.04491724098506096, -0.026276529278604025, 0.03986390396731497, -0.0002910778847144496, 0.005706162630661386, -0.058558559223869835, 0.015695475824878936, 0.010049926412894249, 0.057097688876056533, 0.03323158300829757, 0.05113967454511643, -0.041289878541578826, -0.0148226873230136, 0.030841164542897977, -0.031149195913516094, 0.011254934100977663, 0.0028804207964717734, 0.10215020641756337, 0.03508014866926901, -0.043574246702063064, -0.002375249048523429, 0.022987163158430652, 0.007427598458873745, 0.024705154181964836, -0.032009981706761545, -0.0024015252733202, 0.045725534774926524, -0.05205973142872583, 0.03161140062455116, -0.04876097488199229, 0.05264672043307933, 0.029843469901470136, 0.03923468909777839, -0.0060214518036615355, -0.01227301528977033, -0.04944027670097872, 0.019345933987626157, -0.0647002017203518, -0.02466099956144626, 0.030766606860368504, 0.05694188501944496, 0.07003173064065718, -0.025274475523684357, 0.05074131130022185, 0.00883963908585163, 0.0254380063803498, -0.011143184555615112, -0.011862091784834624, 0.020586084521670135, 0.011920428906797583, 0.007811506951731008, 0.015816600394472195, -0.0010622897228910392, 0.09765464175901384, -0.02563907645093771, -0.040396888561376625, -0.008113054230927747, 0.020404686960074137, 0.011055387668019301, 0.033214656610976216, -0.00773184180203212, 0.08260923047326255, 0.022546881619648556, -0.049656739883637405, 0.01686172831670909, 0.04414305847235932, -0.05616858430216503, -0.037757387785086305, -0.03212831555294861, -0.037811088266701244, -0.041360465920008846, -0.008863541177744806, 0.04907342951865223, 0.03180992996497618, 0.0222320292859072, -0.013770677774557542, -0.0040973262809930674, -0.027594377448567714, 0.018697844235284956, -0.0037547153515679116, -0.0006593990871293082, -0.05288969782351416, -0.04222006039828179, 0.01676443866915633, 0.008268200587535792, -0.00814042176700541, -0.03436352634720764, -0.03218053404815887, -0.04889324366335519, 0.08966436981432156, 0.02296654795693256, 0.052019860888473005, 0.0346833321111796, -0.025423875579803863, 0.03473275348743369, 0.009471103034722988, -0.053357571010716885, -0.036434837135556175, 0.0660919718458594, -0.026770479737838946, 0.007260274802547038, 0.030059330905015714, -0.018303436958397503, 0.022734695867089757, 0.026262114128154535, 0.04557973546011531, 0.01164291707473529, 0.00048194129454661724, 0.026752819158188744, 0.006498643331206102, -0.028337976710246505, 0.018803121098450098, -0.05175198028838891, -0.04443639575814151, -0.030691292720354587, 0.0061952216265206955, -0.10561813495745055, 0.07866368801276233, 0.004651281281995221, -0.04929772353913182, -0.014169678965235298, 0.009303750823827322, -0.03429887658219546, -0.017258570389900953, -0.007563559423874816, 0.047459828956726166, -0.03125760291767997, -0.007145563961226636, 0.008864439416618537, -0.029147880829653135, 0.049564180787430266, 0.03565228245712918, -0.037474352327690634, 0.036861896110061555, -0.006021191221736996, -0.037052957419013426, 0.003164231836872318, -0.07882909835434826, 0.011482367960667256, -0.04419319859980409, 0.04499783622719714, 0.01539201919770425, -0.053413558152432615, 0.009949601252592559, -0.011307866374257377, -0.036147864147998796, 0.024418595162332045, -0.05932021257787438, -0.007574929276758393, 0.005639274850000926, 0.0892771979923005, 0.0361248161866217, 0.02837653115793872, 0.030195791124588926, 0.015271239981736462, -0.028966461838137936, 0.0024083017631791716, -0.03004021849944486, -0.012960969847256951, -0.0625599914302449, -0.07431362473548123, -0.009079539391537139, -0.07267139346736433, 0.006314081502970007, -0.06181669027325111, -0.058206022819865914, 0.04130498332647321, 0.001390919251509321, 0.016448818440435484, -0.031349043835421156, -0.006641680800181143, 0.020744190892231843, -0.0001583125846340972, 0.02834481665737887, 0.019859279161504817, -0.031482490353612225, -0.049305666143544626, 0.009617029800805576, 0.02172669672531684, 0.027124877413935412, -0.027090781130122893, 0.01503515825932697, -0.006297492975583074, -0.014543302372898581, 0.04043575309395481, -0.07927594242576709, -0.06394544572263429, 0.045404754592247555, 0.041515493855067184, -0.03721578440766647, 0.004251459875575833, 0.020684426372947463, -0.05926423852839242, 0.008000183911228692, 0.013204681499516003, 0.01753098537202889, -0.022251781762731338, 0.04453764908887513, 0.039882638989198034, 0.020311528173474168, -0.055700609354538425, 0.037678605625155424, -0.00858632873947701, -0.017204475894461176, 0.03536237784159134, 0.008780142529109239, 0.027326566982223573, 0.006963971528753817, -0.05507868425603303, 0.03913102014958137, 0.025232253511775663, 0.020873873883363862, -0.021850949878110346, -0.050405054628837945, 0.02213004289682007, -0.03398553558101221, 0.00033969128022377955, -0.0657542255278848, 0.054998177413119624, -0.011299519034483143, 0.06665588680456881, -0.02708213641425877, -0.035905627348455725, -0.020908307717979573, 0.013116113871718692, -0.006916321427321609, -0.04081619893477069, -0.00705245783980628, -0.05829901804242179, 0.04477589625432401, 0.034231484622876736, 0.0020257103075562604, -0.057368207747571794, -0.025803778482739435, 0.027264028366511366, 0.00889057960747159, 0.012389116608558511, -0.09447535284586418, -0.0017987630857204805, -0.02696555087638765, -0.008809069838608593, -0.03636107331108985, -0.01539906141008914, 0.03451335580467601, 0.005712110542524664, -0.012472739031161537, 0.024209783381388954, -0.021558850484168838, -0.046968183498472156, -0.0835178462721641, 0.03579501531884021, 0.01091404538425575, -0.028105585494807763, 0.055809440419752374, 0.09358540559862828, -0.018919231224760268, 0.0020904022756475693, -0.03350729195673272, -0.004474855681898533, 0.007037861401048171, -0.026395038795657706, -0.024974956861371446, 